svm_type c_svc
kernel_type linear
nr_class 2
total_sv 87
rho 8.260580680873963
label 1 2
nr_sv 35 52
SV
6.635145348257083E-4 1:13.066 2:12.977 3:13.324 4:13.632 5:13.193 6:11.5 7:13.427 8:18.579 9:25.474 10:23.049 11:26.569 12:29.876 13:31.792 14:31.546 15:29.003 16:25.479 17:22.615 18:19.501 19:17.005 20:14.698 21:13.211 22:14.196 23:16.281 24:18.034 25:19.339 26:20.245 27:20.663 28:19.86 29:17.4 30:13.439 31:11.498 32:15.231 33:22.857 34:24.59 35:24.783 36:28.541 37:31.044 38:32.414 39:33.026 40:29.869 41:26.267 42:23.743 43:21.279 44:20.027 45:17.886 46:16.334 47:16.399 48:17.207 49:17.628 50:17.352 51:16.766 52:16.104 53:15.446 54:14.587 55:13.472 56:12.051 57:15.209 58:20.966 59:26.759 60:25.049 61:26.132 62:29.371 63:28.785 64:28.896 65:28.637 66:28.952 67:27.585 68:25.309 69:22.123 70:18.678 71:17.186 72:16.319 73:16.24 74:16.878 75:18.26 76:18.959 77:18.897 78:18.279 79:17.406 80:16.112 81:14.684 82:13.689 83:15.399 84:20.24 85:26.123 86:25.932 87:25.589 88:28.923 89:29.628 90:29.477 91:29.205 92:27.995 93:26.303 94:24.226 95:21.386 96:19.169 97:16.735 98:16.228 99:17.353 100:19.188 101:20.222 102:20.555 103:20.279 104:19.244 105:17.623 106:15.537 107:13.429 108:9.6939 109:10.577 110:16.947 111:23.961 112:24.535 113:24.849 114:27.996 115:31.371 116:30.376 117:26.437 118:23.045 119:22.707 120:23.066 121:22.579 122:21.475 123:18.887 124:17.623 125:17.764 126:18.446 127:18.79 128:18.492 129:18.175 130:18.064 131:17.046 132:15.087 133:13.379 134:14.948 135:18.946 136:20.296 137:20.89 138:23.744 139:25.673 140:27.805 141:28.673 142:27.507 143:23.59 144:20.488 145:19.218 146:19.113 147:18.295 148:16.198 149:14.297 150:13.608 151:14.759 152:16.268 153:17.248 154:17.573 155:17.758 156:17.923 157:17.448 158:15.608 159:13.618 160:12.936 161:15.97 162:16.935 163:20.183 164:24.654 165:28.222 166:30.889 167:32.335 168:31.626 169:28.504 170:23.416 171:19.999 172:17.827 173:17.257 174:15.691 175:15.278 176:16.083 177:16.708 178:16.646 179:16.309 180:16.363 181:16.634 182:16.532 183:15.335 184:12.719 185:14.017 186:22.379 187:25.049 188:24.881 189:28.552 190:30.92 191:27.547 192:25.344 193:24.755 194:24.339 195:22.293 196:18.76 197:15.739 198:14.158 199:14.056 200:14.139 201:15.444 202:17.398 203:19.281 204:21.043 205:21.9 206:20.782 207:17.696 208:13.787 209:12.959 210:17.914 211:17.718 212:20.751 213:26.263 214:29.866 215:29.701 216:24.14 217:16.835 218:13.404 219:12.038 220:10.551 221:9.1034 222:7.5926 223:6.5454 224:6.4627 225:6.7238 226:6.2867 227:6.1005 228:6.3008 229:6.7142 230:6.3153 231:5.2731 232:3.6146 233:3.5673 234:8.2211 235:12.41 236:13.583 237:13.178 238:21.25 239:21.454 240:26.175 241:28.518 242:28.862 243:26.255 244:21.25 245:18.148 246:16.98 247:16.636 248:16.748 249:16.236 250:17.641 251:19.378 
0.002263678871577039 1:15.245 2:14.913 3:14.336 4:13.43 5:12.307 6:11.084 7:8.9203 8:8.8146 9:17.618 10:23.306 11:24.194 12:24.966 13:27.553 14:30.291 15:31.987 16:30.778 17:24.584 18:18.607 19:15.446 20:13.922 21:13.427 22:13.056 23:12.806 24:12.493 25:12.351 26:11.955 27:11.947 28:12.145 29:12.438 30:12.308 31:12.064 32:11.858 33:10.808 34:10.953 35:13.389 36:16.833 37:23.628 38:23.656 39:25.38 40:29.029 41:31.316 42:29.666 43:26.278 44:23.277 45:21.237 46:19.408 47:17.623 48:15.203 49:13.48 50:13.523 51:14.576 52:15.847 53:16.346 54:15.849 55:15.305 56:15.628 57:15.612 58:14.471 59:14.912 60:21.659 61:27.473 62:24.632 63:26.871 64:29.664 65:28.874 66:27.33 67:24.313 68:22.675 69:21.973 70:20.22 71:16.707 72:13.942 73:11.696 74:10.531 75:10.745 76:11.534 77:12.151 78:12.5 79:12.96 80:13.463 81:13.16 82:11.18 83:11.857 84:17.745 85:24.76 86:23.487 87:25.895 88:29.385 89:29.4 90:27.232 91:25.663 92:24.77 93:22.526 94:19.397 95:15.958 96:13.727 97:12.253 98:12.119 99:13.414 100:15.742 101:17.85 102:18.916 103:19.145 104:18.327 105:16.494 106:13.309 107:13.81 108:16.853 109:22.786 110:27.415 111:24.353 112:27.221 113:30.182 114:30.216 115:28.288 116:22.99 117:19.464 118:18.101 119:16.549 120:14.85 121:13.699 122:12.635 123:12.455 124:13.089 125:13.975 126:14.551 127:14.499 128:14.153 129:13.741 130:13.148 131:11.511 132:8.5771 133:12.542 134:18.739 135:24.044 136:22.862 137:25.128 138:27.193 139:28.522 140:30.28 141:29.01 142:25.65 143:21.27 144:18.007 145:15.256 146:12.856 147:12.013 148:11.159 149:11.233 150:11.912 151:12.884 152:13.635 153:13.635 154:13.069 155:12.215 156:10.74 157:8.5979 158:6.2836 159:5.831 160:9.0472 161:11.381 162:16.325 163:20.853 164:23.999 165:28.166 166:30.859 167:30.737 168:28.809 169:24.63 170:19.734 171:16.007 172:13.029 173:11.689 174:12.259 175:13.721 176:14.352 177:13.79 178:13.199 179:18.926 180:21.191 181:21.975 182:20.946 183:18.916 184:15.656 185:14.57 186:14.877 187:22.382 188:24.609 189:28.068 190:30.74 191:32.245 192:31.821 193:30.204 194:26.82 195:22.737 196:18.729 197:14.334 198:10.787 199:8.5306 200:8.4379 201:9.4086 202:10.807 203:12.23 204:13.572 205:14.711 206:15.506 207:15.254 208:13.539 209:11.008 210:8.0504 211:7.1247 212:13.858 213:18.605 214:22.48 215:24.214 216:26.751 217:29.883 218:30.636 219:25.901 220:22.333 221:22.19 222:22.038 223:19.788 224:17.046 225:14.936 226:14.331 227:14.161 228:13.666 229:13.815 230:15.438 231:18.108 232:21.386 233:23.096 234:23.21 235:22.383 236:21.358 237:18.299 238:21.533 239:27.196 240:25.449 241:26.332 242:29.469 243:31.531 244:28.341 245:24.201 246:22.12 247:20.126 248:16.653 249:14.26 250:12.414 251:11.806 
2.035256257496096E-4 1:26.985 2:25.94 3:25.524 4:28.221 5:30.434 6:32.054 7:32.933 8:30.961 9:26.681 10:22.902 11:19.028 12:15.356 13:12.776 14:12.225 15:12.629 16:13.356 17:14.422 18:15.911 19:17.248 20:18.622 21:19.213 22:18.695 23:17.265 24:15.143 25:12.794 26:11.065 27:15.806 28:21.634 29:23.471 30:25.566 31:25.689 32:28.802 33:31.13 34:32.445 35:33.092 36:31.285 37:27.779 38:23.51 39:19.413 40:15.854 41:13.968 42:14.123 43:15.411 44:17.566 45:18.184 46:18.323 47:18.224 48:17.904 49:16.735 50:14.583 51:12.132 52:10.203 53:15.666 54:22.131 55:27.582 56:25.366 57:26.534 58:29.616 59:31.153 60:31.824 61:31.235 62:28.616 63:24.703 64:21.479 65:18.096 66:16.091 67:14.467 68:13.915 69:13.993 70:14.428 71:14.791 72:15.033 73:15.24 74:15.378 75:15.133 76:15.016 77:15.006 78:14.772 79:12.776 80:11.614 81:18.911 82:25.913 83:26.204 84:25.849 85:26.658 86:29.074 87:31.216 88:31.0 89:30.164 90:27.418 91:24.775 92:22.643 93:20.885 94:19.424 95:17.886 96:17.225 97:17.343 98:17.689 99:18.141 100:18.824 101:19.844 102:20.761 103:20.685 104:19.589 105:17.414 106:13.81 107:14.91 108:21.805 109:26.079 110:24.21 111:26.786 112:26.84 113:27.296 114:28.222 115:30.127 116:31.336 117:29.351 118:26.818 119:23.679 120:20.621 121:18.409 122:16.577 123:14.93 124:14.888 125:16.33 126:19.203 127:22.308 128:24.245 129:24.662 130:24.252 131:22.609 132:18.73 133:16.511 134:19.008 135:23.801 136:24.861 137:24.568 138:28.169 139:30.806 140:32.167 141:32.724 142:33.275 143:30.289 144:25.69 145:21.621 146:17.957 147:16.222 148:16.448 149:17.185 150:17.547 151:17.857 152:18.266 153:18.272 154:17.6 155:16.656 156:15.455 157:14.419 158:13.551 159:13.181 160:17.56 161:22.673 162:26.414 163:27.073 164:26.106 165:26.501 166:27.214 167:31.289 168:32.508 169:30.682 170:27.121 171:22.982 172:19.934 173:17.251 174:15.321 175:14.851 176:15.244 177:16.23 178:17.189 179:17.488 180:17.245 181:16.755 182:16.058 183:15.143 184:13.497 185:9.7185 186:7.4487 187:14.676 188:21.266 189:26.952 190:24.357 191:26.671 192:29.134 193:30.924 194:31.739 195:31.043 196:27.719 197:25.594 198:24.381 199:22.614 200:19.215 201:16.079 202:15.523 203:16.589 204:17.979 205:19.387 206:20.291 207:20.626 208:20.435 209:19.879 210:18.917 211:16.639 212:13.48 213:18.05 214:23.227 215:28.022 216:24.25 217:27.682 218:29.843 219:30.362 220:32.006 221:32.897 222:32.416 223:30.069 224:25.5 225:21.112 226:17.915 227:16.252 228:15.706 229:16.147 230:16.725 231:17.36 232:18.064 233:18.644 234:18.701 235:18.382 236:17.336 237:14.876 238:14.863 239:19.912 240:22.988 241:23.906 242:23.94 243:25.08 244:25.626 245:28.702 246:31.068 247:32.403 248:31.023 249:26.36 250:23.304 251:20.177 
0.002231308410415494 1:15.49 2:21.85 3:27.622 4:27.394 5:28.179 6:27.471 7:25.476 8:23.532 9:22.504 10:22.054 11:21.031 12:18.966 13:17.496 14:17.048 15:16.974 16:15.91 17:14.837 18:14.941 19:16.267 20:17.551 21:18.294 22:18.812 23:18.68 24:17.621 25:16.619 26:16.146 27:14.124 28:12.358 29:15.637 30:22.549 31:27.971 32:28.051 33:26.057 34:27.26 35:27.433 36:27.504 37:28.159 38:28.036 39:26.546 40:23.379 41:19.801 42:17.412 43:16.302 44:14.981 45:15.218 46:15.709 47:15.58 48:15.475 49:15.713 50:16.126 51:16.006 52:15.275 53:13.546 54:12.166 55:14.118 56:16.86 57:23.078 58:25.021 59:24.503 60:25.985 61:26.991 62:28.02 63:28.502 64:28.6 65:28.196 66:26.415 67:24.269 68:19.733 69:15.953 70:13.566 71:12.254 72:12.649 73:13.508 74:14.03 75:14.359 76:14.893 77:15.572 78:15.909 79:15.748 80:14.652 81:12.594 82:13.846 83:23.073 84:27.782 85:26.324 86:26.151 87:29.253 88:29.302 89:29.686 90:31.573 91:32.559 92:29.855 93:24.922 94:19.263 95:14.874 96:12.752 97:13.127 98:14.265 99:15.506 100:16.647 101:17.857 102:18.512 103:18.005 104:16.639 105:15.057 106:13.588 107:11.75 108:8.9439 109:12.272 110:19.694 111:20.662 112:24.655 113:26.426 114:27.307 115:28.072 116:30.451 117:30.628 118:28.245 119:23.196 120:20.559 121:20.51 122:21.118 123:19.995 124:17.577 125:15.826 126:15.005 127:14.354 128:13.618 129:12.903 130:12.422 131:12.351 132:12.688 133:13.386 134:14.051 135:13.362 136:10.86 137:7.7671 138:12.112 139:20.509 140:21.945 141:24.041 142:26.058 143:27.308 144:29.061 145:30.408 146:28.516 147:25.829 148:21.316 149:17.381 150:13.847 151:11.872 152:10.822 153:10.821 154:12.073 155:14.094 156:15.872 157:17.428 158:19.076 159:20.448 160:21.4 161:20.507 162:17.886 163:14.554 164:13.93 165:17.881 166:21.843 167:23.054 168:25.098 169:26.685 170:27.282 171:24.468 172:23.665 173:24.637 174:24.525 175:22.129 176:16.981 177:11.923 178:8.3897 179:8.0512 180:9.4841 181:11.875 182:14.78 183:17.266 184:18.641 185:19.477 186:19.817 187:19.646 188:19.069 189:17.318 190:16.829 191:18.852 192:22.496 193:24.587 194:25.653 195:25.653 196:27.769 197:29.261 198:30.364 199:30.754 200:29.213 201:24.989 202:20.93 203:16.94 204:14.143 205:12.129 206:11.89 207:13.881 208:16.829 209:19.429 210:20.914 211:21.546 212:21.298 213:19.554 214:17.572 215:15.751 216:15.782 217:20.066 218:23.649 219:25.971 220:26.186 221:25.451 222:26.522 223:27.035 224:29.407 225:31.411 226:31.965 227:29.169 228:25.938 229:23.794 230:20.858 231:19.734 232:19.639 233:19.415 234:19.406 235:19.633 236:19.955 237:20.148 238:19.691 239:18.428 240:16.313 241:13.516 242:15.531 243:20.586 244:25.513 245:24.985 246:25.286 247:26.337 248:26.945 249:27.873 250:30.216 251:31.891 
0.0013657112301225926 1:29.033 2:24.004 3:18.56 4:14.826 5:11.838 6:10.484 7:11.168 8:12.882 9:13.866 10:14.041 11:13.551 12:12.823 13:12.299 14:11.767 15:11.066 16:9.6767 17:7.5929 18:5.3225 19:6.3561 20:12.831 21:17.693 22:21.72 23:24.574 24:27.227 25:27.636 26:28.267 27:29.798 28:29.654 29:26.726 30:22.342 31:18.364 32:16.175 33:14.006 34:13.447 35:14.338 36:15.965 37:17.689 38:18.767 39:18.576 40:17.764 41:16.506 42:14.624 43:12.82 44:13.413 45:16.461 46:22.026 47:23.149 48:24.09 49:28.058 50:27.907 51:29.158 52:31.27 53:31.173 54:27.533 55:21.495 56:16.159 57:13.034 58:12.101 59:12.0 60:12.406 61:12.296 62:12.341 63:12.903 64:13.688 65:14.373 66:14.609 67:13.647 68:11.78 69:8.8656 70:8.9425 71:15.453 72:21.926 73:21.938 74:24.109 75:26.068 76:26.692 77:27.511 78:29.894 79:31.705 80:31.298 81:27.127 82:21.987 83:17.598 84:14.2 85:12.505 86:11.942 87:12.429 88:13.79 89:14.954 90:14.458 91:12.946 92:11.415 93:10.57 94:9.9791 95:8.8966 96:7.1575 97:7.9744 98:13.795 99:20.298 100:20.935 101:22.229 102:24.866 103:26.249 104:28.404 105:30.793 106:32.239 107:29.86 108:25.43 109:20.736 110:15.746 111:11.409 112:9.9891 113:11.609 114:13.426 115:14.847 116:15.726 117:16.442 118:17.032 119:17.314 120:16.888 121:15.207 122:12.363 123:8.3202 124:10.489 125:18.854 126:21.663 127:23.062 128:26.844 129:27.914 130:28.954 131:31.154 132:31.865 133:30.629 134:26.021 135:20.145 136:11.71 137:9.7241 138:12.01 139:14.323 140:15.683 141:16.404 142:16.578 143:16.121 144:15.296 145:14.033 146:12.408 147:10.062 148:7.2738 149:4.8328 150:4.7959 151:10.576 152:17.293 153:20.244 154:23.037 155:25.381 156:28.485 157:30.956 158:31.463 159:30.286 160:28.348 161:25.554 162:22.569 163:19.513 164:16.52 165:16.534 166:16.246 167:14.578 168:13.074 169:12.61 170:13.344 171:14.225 172:14.338 173:13.628 174:12.021 175:10.358 176:12.006 177:16.174 178:19.782 179:19.346 180:20.933 181:24.902 182:26.865 183:29.291 184:31.413 185:32.496 186:31.11 187:25.403 188:19.152 189:13.999 190:11.222 191:10.597 192:11.439 193:14.183 194:16.758 195:17.119 196:15.911 197:15.232 198:15.301 199:15.14 200:14.059 201:11.707 202:8.4437 203:10.72 204:17.49 205:19.335 206:21.555 207:25.96 208:27.612 209:27.505 210:29.07 211:31.201 212:32.464 213:31.329 214:23.406 215:16.889 216:14.018 217:12.856 218:11.941 219:11.12 220:11.777 221:13.592 222:14.901 223:15.158 224:14.717 225:14.321 226:13.801 227:12.749 228:10.486 229:6.778 230:10.311 231:18.633 232:20.747 233:22.323 234:24.973 235:26.574 236:30.67 237:32.174 238:32.725 239:30.524 240:25.693 241:20.495 242:16.187 243:14.195 244:14.778 245:17.545 246:17.895 247:17.833 248:17.798 249:17.544 250:16.981 251:15.705 
2.806022162884412E-4 1:24.157 2:19.068 3:14.601 4:12.613 5:13.49 6:15.995 7:19.88 8:23.997 9:26.237 10:27.404 11:27.526 12:26.038 13:23.242 14:19.383 15:15.753 16:16.888 17:23.598 18:28.537 19:24.662 20:27.999 21:27.762 22:25.218 23:26.278 24:27.492 25:26.909 26:21.409 27:17.492 28:15.677 29:13.534 30:12.797 31:12.024 32:13.121 33:15.066 34:17.133 35:18.457 36:18.744 37:18.059 38:16.224 39:13.335 40:9.8936 41:8.4013 42:14.036 43:19.577 44:21.193 45:22.658 46:26.54 47:29.895 48:31.782 49:32.727 50:32.113 51:29.982 52:24.359 53:18.147 54:13.548 55:11.664 56:12.672 57:15.466 58:18.403 59:20.997 60:22.841 61:23.483 62:22.908 63:21.227 64:17.973 65:14.327 66:10.946 67:7.9312 68:9.0046 69:16.795 70:22.527 71:24.071 72:24.994 73:27.355 74:30.165 75:31.086 76:31.602 77:31.377 78:30.428 79:27.472 80:21.426 81:15.386 82:12.191 83:12.342 84:15.317 85:19.636 86:23.94 87:26.773 88:27.908 89:27.891 90:26.982 91:24.637 92:20.988 93:16.662 94:16.498 95:23.176 96:28.344 97:24.786 98:27.446 99:27.182 100:27.343 101:27.65 102:29.829 103:31.629 104:30.335 105:25.384 106:18.073 107:13.216 108:11.642 109:11.93 110:12.185 111:13.008 112:15.056 113:17.91 114:20.155 115:21.008 116:21.463 117:22.1 118:22.547 119:21.872 120:19.445 121:15.697 122:15.568 123:21.539 124:27.098 125:25.429 126:26.093 127:28.171 128:25.356 129:22.561 130:23.065 131:26.538 132:28.421 133:27.161 134:21.24 135:15.608 136:14.435 137:15.211 138:17.6 139:20.819 140:22.498 141:22.519 142:21.941 143:20.96 144:19.675 145:18.042 146:16.247 147:14.357 148:12.576 149:10.323 150:11.249 151:18.176 152:25.458 153:25.286 154:26.402 155:26.777 156:28.06 157:29.823 158:29.136 159:29.54 160:30.603 161:30.061 162:24.908 163:18.652 164:13.965 165:11.902 166:12.904 167:15.012 168:17.502 169:20.334 170:22.311 171:22.907 172:22.333 173:20.959 174:19.022 175:16.882 176:14.712 177:12.142 178:10.013 179:13.502 180:18.775 181:23.996 182:22.966 183:26.056 184:25.066 185:25.461 186:25.245 187:28.041 188:29.96 189:29.751 190:24.506 191:19.243 192:15.408 193:13.217 194:13.617 195:12.713 196:13.956 197:15.929 198:17.287 199:18.187 200:18.793 201:19.114 202:18.902 203:17.969 204:16.961 205:16.734 206:17.861 207:23.782 208:24.215 209:24.887 210:26.186 211:26.879 212:28.096 213:28.988 214:28.66 215:27.239 216:24.461 217:19.128 218:14.935 219:11.646 220:9.1133 221:7.7602 222:8.2759 223:10.325 224:13.07 225:16.702 226:19.997 227:22.258 228:21.821 229:19.217 230:15.943 231:12.931 232:10.178 233:9.1484 234:10.682 235:15.395 236:21.071 237:26.745 238:27.126 239:27.205 240:29.873 241:29.71 242:27.685 243:23.696 244:19.489 245:16.708 246:13.815 247:12.038 248:11.108 249:12.862 250:14.983 251:16.374 
0.0013677882943027627 1:17.129 2:17.382 3:17.005 4:15.771 5:13.323 6:10.371 7:14.094 8:20.741 9:26.844 10:24.664 11:26.293 12:27.804 13:28.167 14:28.809 15:30.062 16:31.519 17:29.104 18:26.584 19:23.886 20:20.206 21:18.066 22:16.637 23:17.436 24:18.179 25:18.789 26:18.781 27:18.272 28:17.698 29:17.077 30:16.54 31:15.245 32:14.421 33:17.027 34:21.215 35:21.15 36:22.538 37:24.8 38:27.075 39:29.753 40:30.958 41:31.182 42:32.18 43:31.694 44:28.807 45:25.451 46:21.134 47:18.253 48:15.598 49:13.891 50:13.141 51:13.251 52:13.587 53:14.023 54:14.726 55:15.965 56:16.745 57:16.216 58:14.384 59:11.279 60:11.972 61:17.988 62:22.474 63:23.307 64:24.794 65:27.205 66:27.342 67:27.693 68:28.685 69:30.538 70:31.386 71:28.781 72:24.688 73:20.525 74:17.763 75:16.538 76:15.225 77:15.052 78:16.337 79:17.738 80:17.86 81:16.832 82:15.358 83:13.652 84:12.015 85:10.773 86:9.4798 87:12.167 88:18.325 89:20.452 90:22.348 91:25.203 92:27.892 93:28.064 94:28.492 95:29.04 96:28.654 97:24.956 98:21.489 99:19.224 100:16.22 101:14.538 102:15.053 103:16.232 104:16.902 105:17.229 106:17.591 107:17.746 108:17.298 109:16.146 110:14.198 111:11.561 112:8.7281 113:11.47 114:20.889 115:25.945 116:24.772 117:27.007 118:29.999 119:30.18 120:29.13 121:30.092 122:31.291 123:30.772 124:27.738 125:23.368 126:18.44 127:14.663 128:13.815 129:14.553 130:16.073 131:17.62 132:18.753 133:18.967 134:18.508 135:17.992 136:16.6 137:14.49 138:13.333 139:15.65 140:20.783 141:25.208 142:24.219 143:25.988 144:26.704 145:25.605 146:24.791 147:26.813 148:29.494 149:30.329 150:26.602 151:20.738 152:15.828 153:13.614 154:12.873 155:14.093 156:16.068 157:17.456 158:17.684 159:17.747 160:18.012 161:17.902 162:16.831 163:15.469 164:13.467 165:10.689 166:12.367 167:19.338 168:24.941 169:24.024 170:25.714 171:24.995 172:21.422 173:21.541 174:25.69 175:28.23 176:28.919 177:23.723 178:17.931 179:15.385 180:15.006 181:16.202 182:17.867 183:19.625 184:20.164 185:19.943 186:19.564 187:18.668 188:17.586 189:16.326 190:14.782 191:13.105 192:10.402 193:14.396 194:22.692 195:24.085 196:24.869 197:26.686 198:24.709 199:25.347 200:27.705 201:30.513 202:32.119 203:30.861 204:25.874 205:21.125 206:19.375 207:18.23 208:18.337 209:19.004 210:20.873 211:22.826 212:22.79 213:21.224 214:19.057 215:16.608 216:14.174 217:11.891 218:10.409 219:13.081 220:17.222 221:18.501 222:19.203 223:20.979 224:23.921 225:26.378 226:29.544 227:31.578 228:32.685 229:32.458 230:29.723 231:26.066 232:21.428 233:17.661 234:15.455 235:14.749 236:16.091 237:18.267 238:19.116 239:17.919 240:15.991 241:13.737 242:11.735 243:10.309 244:8.8204 245:7.6549 246:9.9919 247:16.511 248:22.46 249:24.188 250:24.392 251:27.769 
2.4369455702346357E-4 1:27.769 2:30.555 3:31.122 4:32.434 5:33.125 6:29.778 7:25.255 8:21.678 9:18.935 10:17.474 11:18.98 12:21.751 13:23.402 14:22.911 15:21.819 16:20.267 17:18.227 18:16.512 19:14.321 20:11.422 21:12.242 22:19.31 23:24.163 24:22.489 25:25.266 26:29.068 27:31.014 28:32.305 29:32.466 30:32.07 31:31.184 32:28.539 33:24.843 34:21.456 35:18.86 36:16.493 37:15.144 38:14.996 39:15.885 40:16.443 41:16.743 42:16.67 43:16.115 44:14.804 45:13.127 46:10.831 47:8.0646 48:7.7887 49:12.524 50:19.838 51:23.567 52:24.048 53:26.528 54:28.251 55:29.22 56:28.717 57:28.875 58:29.716 59:28.425 60:25.289 61:20.9 62:18.4 63:16.305 64:15.275 65:15.529 66:16.44 67:16.748 68:16.338 69:15.736 70:15.25 71:15.17 72:15.64 73:14.865 74:11.961 75:13.983 76:19.66 77:22.93 78:22.192 79:24.484 80:26.631 81:27.099 82:29.779 83:30.667 84:30.463 85:27.808 86:23.323 87:18.284 88:14.966 89:12.855 90:11.53 91:12.444 92:14.29 93:16.692 94:18.389 95:18.711 96:18.201 97:16.992 98:15.48 99:14.05 100:12.286 101:9.2954 102:11.324 103:18.1 104:25.104 105:26.894 106:25.398 107:28.676 108:29.604 109:30.001 110:31.075 111:32.391 112:32.105 113:29.421 114:25.457 115:21.787 116:18.604 117:17.394 118:17.914 119:17.069 120:15.927 121:15.303 122:15.487 123:16.359 124:17.188 125:17.635 126:16.564 127:13.033 128:10.995 129:14.716 130:20.728 131:23.973 132:23.263 133:27.633 134:30.535 135:31.546 136:32.672 137:33.252 138:32.753 139:29.729 140:26.816 141:23.136 142:19.269 143:17.995 144:19.043 145:20.065 146:20.861 147:21.353 148:21.119 149:19.872 150:17.893 151:15.793 152:13.422 153:10.721 154:9.6734 155:15.938 156:22.731 157:25.109 158:24.675 159:26.176 160:27.451 161:28.783 162:30.888 163:32.287 164:33.048 165:31.661 166:27.291 167:24.029 168:20.922 169:19.36 170:19.207 171:19.294 172:18.998 173:18.531 174:18.342 175:17.135 176:15.69 177:14.637 178:13.501 179:12.917 180:16.224 181:21.97 182:24.301 183:24.131 184:28.15 185:26.366 186:22.995 187:25.105 188:28.093 189:29.302 190:26.416 191:21.038 192:15.898 193:13.505 194:13.297 195:14.388 196:16.629 197:18.734 198:19.55 199:19.524 200:18.686 201:17.519 202:16.106 203:14.506 204:12.277 205:10.207 206:10.156 207:17.024 208:22.539 209:23.474 210:25.101 211:26.462 212:28.613 213:30.325 214:31.265 215:32.059 216:32.282 217:30.365 218:24.533 219:18.246 220:15.142 221:14.294 222:15.015 223:16.323 224:18.315 225:19.811 226:20.057 227:18.925 228:17.116 229:15.055 230:12.949 231:11.652 232:13.412 233:17.428 234:20.593 235:23.387 236:24.179 237:24.274 238:25.275 239:26.919 240:29.743 241:31.659 242:32.722 243:32.536 244:28.384 245:24.413 246:19.243 247:15.192 248:13.153 249:12.592 250:13.686 251:14.998 
7.15288648361523E-4 1:14.998 2:15.821 3:15.7 4:15.292 5:15.187 6:14.891 7:13.963 8:12.536 9:10.171 10:9.3109 11:16.087 12:22.492 13:26.815 14:24.522 15:27.348 16:27.34 17:27.218 18:28.728 19:30.905 20:31.967 21:29.886 22:24.217 23:18.606 24:14.823 25:12.58 26:10.87 27:11.158 28:13.345 29:15.418 30:16.954 31:18.185 32:19.321 33:20.341 34:20.343 35:18.772 36:16.046 37:12.478 38:14.59 39:21.099 40:25.587 41:25.504 42:25.847 43:27.299 44:29.286 45:29.79 46:29.091 47:28.155 48:24.18 49:19.929 50:16.438 51:15.943 52:16.204 53:16.527 54:16.609 55:16.495 56:16.031 57:15.315 58:15.08 59:15.516 60:16.318 61:17.841 62:18.576 63:17.028 64:15.567 65:16.61 66:24.218 67:24.534 68:25.617 69:26.453 70:29.23 71:31.163 72:31.119 73:30.826 74:29.103 75:25.337 76:20.374 77:17.135 78:15.197 79:14.949 80:15.461 81:15.998 82:16.78 83:17.866 84:18.586 85:18.592 86:18.17 87:17.314 88:15.77 89:13.631 90:11.317 91:17.347 92:22.781 93:22.969 94:24.185 95:27.969 96:28.156 97:27.727 98:28.132 99:26.948 100:22.998 101:18.819 102:15.522 103:15.08 104:13.606 105:14.525 106:16.506 107:17.976 108:18.741 109:19.051 110:18.68 111:17.713 112:16.024 113:14.285 114:11.999 115:10.545 116:14.683 117:20.691 118:25.452 119:25.54 120:25.5 121:26.482 122:27.046 123:27.796 124:30.123 125:31.83 126:31.709 127:27.269 128:21.809 129:17.668 130:15.019 131:15.248 132:14.038 133:14.103 134:15.326 135:15.972 136:16.248 137:16.193 138:15.914 139:14.435 140:12.62 141:9.2706 142:7.6398 143:16.378 144:21.77 145:23.491 146:26.527 147:27.161 148:28.483 149:29.69 150:30.577 151:28.022 152:25.591 153:24.333 154:23.834 155:21.897 156:18.335 157:14.613 158:12.636 159:12.581 160:13.982 161:15.178 162:16.384 163:18.536 164:20.066 165:20.846 166:20.75 167:18.673 168:17.203 169:19.507 170:24.31 171:24.98 172:24.57 173:27.748 174:28.123 175:28.916 176:30.193 177:31.24 178:29.103 179:25.753 180:23.245 181:20.582 182:17.087 183:13.577 184:10.937 185:10.22 186:11.63 187:14.514 188:17.5 189:19.882 190:21.608 191:21.548 192:20.038 193:18.35 194:16.664 195:13.635 196:14.783 197:21.582 198:26.398 199:24.748 200:26.282 201:27.516 202:27.645 203:27.439 204:28.009 205:29.157 206:27.949 207:24.522 208:20.693 209:17.403 210:16.488 211:15.393 212:16.992 213:19.365 214:20.813 215:21.812 216:23.039 217:23.185 218:21.551 219:18.967 220:15.721 221:12.244 222:10.892 223:14.902 224:23.587 225:26.256 226:26.679 227:26.662 228:28.067 229:28.529 230:28.895 231:31.007 232:31.126 233:28.511 234:25.842 235:22.155 236:18.33 237:15.534 238:13.24 239:12.137 240:11.504 241:11.103 242:11.803 243:14.374 244:21.988 245:23.896 246:22.998 247:19.66 248:20.424 249:25.541 250:27.747 251:27.351 
1.0939995998246016E-4 1:27.351 2:27.198 3:27.965 4:28.528 5:29.456 6:30.581 7:29.448 8:25.72 9:20.562 10:15.78 11:11.941 12:10.199 13:10.627 14:12.403 15:13.946 16:14.963 17:15.793 18:16.575 19:17.431 20:17.643 21:16.161 22:13.376 23:11.86 24:15.904 25:22.836 26:26.606 27:27.08 28:26.68 29:27.158 30:28.107 31:27.734 32:27.183 33:25.66 34:21.949 35:18.635 36:16.754 37:15.573 38:15.454 39:14.817 40:15.265 41:15.922 42:16.521 43:17.346 44:18.199 45:19.235 46:19.863 47:19.636 48:18.426 49:15.204 50:16.591 51:24.29 52:25.628 53:25.872 54:26.927 55:26.161 56:26.729 57:28.417 58:30.72 59:31.39 60:29.515 61:26.027 62:22.369 63:19.645 64:17.879 65:16.76 66:15.198 67:14.706 68:15.332 69:16.143 70:17.131 71:18.461 72:19.41 73:17.553 74:14.772 75:13.37 76:16.922 77:21.944 78:25.579 79:26.665 80:26.024 81:27.333 82:30.081 83:30.547 84:31.931 85:30.346 86:26.44 87:23.072 88:19.91 89:17.453 90:16.878 91:14.924 92:14.931 93:15.936 94:16.888 95:17.879 96:18.341 97:18.113 98:17.243 99:15.741 100:13.814 101:12.473 102:15.787 103:20.907 104:24.325 105:22.222 106:25.51 107:26.981 108:29.555 109:31.56 110:32.325 111:31.501 112:28.966 113:24.175 114:19.047 115:15.088 116:13.844 117:13.606 118:15.656 119:17.836 120:18.729 121:17.818 122:16.611 123:15.274 124:13.891 125:12.607 126:11.04 127:8.7855 128:8.1415 129:13.726 130:18.804 131:19.651 132:20.865 133:23.926 134:27.88 135:27.99 136:28.21 137:29.416 138:29.679 139:29.382 140:24.542 141:19.331 142:15.787 143:14.764 144:13.938 145:13.291 146:12.244 147:12.115 148:13.36 149:14.894 150:15.819 151:16.231 152:16.508 153:15.872 154:14.004 155:15.125 156:18.649 157:19.88 158:19.564 159:20.572 160:20.933 161:23.376 162:27.8 163:30.674 164:31.873 165:31.49 166:29.806 167:26.528 168:22.531 169:20.383 170:18.465 171:16.971 172:15.536 173:14.815 174:14.858 175:14.754 176:14.673 177:15.089 178:15.375 179:14.966 180:13.514 181:11.204 182:14.159 183:20.593 184:23.266 185:23.107 186:24.289 187:26.36 188:26.652 189:28.082 190:30.486 191:32.06 192:31.815 193:28.364 194:24.167 195:20.102 196:16.832 197:15.76 198:15.017 199:14.84 200:15.391 201:16.6 202:17.863 203:18.966 204:19.74 205:19.498 206:18.23 207:16.294 208:13.888 209:13.838 210:19.67 211:23.304 212:24.881 213:24.957 214:23.157 215:23.525 216:25.476 217:28.586 218:31.002 219:30.485 220:26.146 221:20.912 222:16.633 223:15.143 224:14.241 225:13.837 226:15.087 227:16.202 228:17.079 229:17.985 230:18.452 231:18.08 232:17.087 233:15.109 234:12.163 235:14.039 236:19.951 237:23.606 238:23.643 239:27.337 240:26.99 241:28.176 242:30.564 243:32.106 244:32.423 245:28.618 246:24.822 247:22.172 248:20.584 249:18.009 250:15.627 251:15.807 
6.363836370433831E-4 1:30.449 2:24.446 3:19.679 4:17.476 5:17.08 6:13.939 7:12.0 8:13.534 9:14.372 10:13.836 11:13.48 12:13.665 13:14.213 14:15.248 15:15.884 16:14.765 17:11.723 18:14.655 19:20.245 20:21.122 21:22.155 22:24.241 23:26.45 24:26.518 25:28.388 26:29.635 27:28.797 28:27.6 29:26.565 30:23.826 31:19.614 32:15.414 33:12.484 34:11.39 35:12.155 36:12.56 37:13.332 38:13.825 39:13.711 40:13.166 41:12.721 42:12.461 43:12.267 44:11.3 45:10.59 46:13.831 47:16.643 48:22.303 49:27.69 50:25.654 51:26.354 52:29.46 53:30.316 54:29.987 55:28.919 56:27.079 57:23.745 58:20.895 59:16.655 60:13.597 61:12.592 62:13.596 63:16.411 64:18.861 65:19.559 66:19.472 67:18.874 68:17.613 69:15.236 70:14.624 71:19.325 72:23.505 73:25.347 74:25.888 75:26.166 76:25.928 77:26.359 78:27.451 79:27.857 80:23.743 81:19.42 82:16.276 83:14.436 84:11.944 85:10.463 86:11.368 87:13.314 88:14.904 89:16.644 90:16.606 91:15.935 92:14.29 93:12.111 94:9.8025 95:11.611 96:16.613 97:23.121 98:25.388 99:25.686 100:25.919 101:27.623 102:30.237 103:31.921 104:32.708 105:31.986 106:29.461 107:25.499 108:20.581 109:17.173 110:15.151 111:15.504 112:17.08 113:18.502 114:19.674 115:20.661 116:20.864 117:20.368 118:19.259 119:17.337 120:14.424 121:12.808 122:16.543 123:24.162 124:26.473 125:25.201 126:27.12 127:28.693 128:28.347 129:28.202 130:28.465 131:28.702 132:25.429 133:21.054 134:16.682 135:13.217 136:11.173 137:10.815 138:11.206 139:12.894 140:12.708 141:13.793 142:15.303 143:16.32 144:17.351 145:17.771 146:16.83 147:14.871 148:14.567 149:19.061 150:24.863 151:24.969 152:25.386 153:25.962 154:26.929 155:28.336 156:29.824 157:30.921 158:31.24 159:29.811 160:26.08 161:23.052 162:19.219 163:16.904 164:16.592 165:17.284 166:17.657 167:18.61 168:20.73 169:22.49 170:22.481 171:21.171 172:18.654 173:15.077 174:13.186 175:18.23 176:23.812 177:26.989 178:26.369 179:26.395 180:26.806 181:27.818 182:29.642 183:31.542 184:32.642 185:30.104 186:26.639 187:22.77 188:19.727 189:15.843 190:14.902 191:15.71 192:16.221 193:15.978 194:15.618 195:15.893 196:16.239 197:16.479 198:16.886 199:15.531 200:12.38 201:14.312 202:21.386 203:27.411 204:27.899 205:26.592 206:26.784 207:27.266 208:27.546 209:26.694 210:27.621 211:28.341 212:28.86 213:28.008 214:24.086 215:19.69 216:16.999 217:15.523 218:14.947 219:15.121 220:15.634 221:16.509 222:17.577 223:18.738 224:19.778 225:20.181 226:18.535 227:15.258 228:15.436 229:19.242 230:24.731 231:25.167 232:25.468 233:26.775 234:29.382 235:31.435 236:29.273 237:25.951 238:20.427 239:16.798 240:15.577 241:15.789 242:16.246 243:16.402 244:16.859 245:17.876 246:18.687 247:20.442 248:23.016 249:24.808 250:24.272 251:21.31 
3.2846249206007743E-4 1:21.31 2:18.711 3:17.202 4:20.104 5:25.087 6:28.016 7:29.216 8:27.778 9:27.423 10:28.327 11:27.681 12:28.743 13:29.953 14:30.3 15:27.579 16:24.742 17:22.172 18:22.697 19:22.375 20:19.844 21:17.897 22:16.794 23:16.61 24:17.103 25:17.561 26:16.816 27:15.162 28:12.989 29:12.988 30:16.985 31:20.939 32:23.604 33:23.768 34:27.549 35:28.847 36:27.031 37:27.366 38:28.315 39:26.944 40:24.185 41:20.489 42:17.111 43:15.384 44:17.015 45:18.522 46:19.51 47:19.885 48:19.272 49:18.002 50:16.393 51:14.062 52:15.314 53:18.958 54:21.224 55:22.113 56:23.316 57:23.807 58:24.053 59:24.981 60:27.075 61:28.9 62:28.924 63:27.626 64:22.575 65:17.95 66:14.578 67:12.471 68:11.381 69:11.088 70:11.615 71:13.045 72:14.32 73:15.585 74:16.676 75:17.158 76:16.515 77:15.204 78:13.229 79:13.546 80:15.397 81:18.193 82:20.475 83:23.22 84:25.805 85:27.618 86:29.943 87:29.389 88:27.008 89:25.081 90:23.981 91:20.566 92:15.626 93:11.291 94:10.07 95:10.3 96:11.775 97:13.548 98:15.434 99:17.112 100:17.892 101:18.086 102:18.033 103:17.819 104:16.89 105:14.633 106:14.796 107:16.818 108:24.183 109:26.069 110:25.251 111:26.351 112:27.023 113:28.063 114:29.24 115:29.949 116:29.932 117:27.981 118:23.981 119:19.711 120:16.347 121:14.304 122:13.263 123:13.44 124:12.34 125:12.126 126:12.476 127:12.807 128:13.094 129:13.426 130:13.543 131:13.565 132:12.92 133:10.025 134:9.8732 135:15.767 136:22.35 137:24.348 138:25.469 139:25.98 140:27.421 141:28.572 142:29.094 143:29.217 144:27.847 145:24.975 146:19.006 147:16.711 148:12.793 149:12.489 150:13.013 151:13.219 152:14.101 153:15.592 154:16.223 155:18.582 156:17.663 157:16.629 158:16.81 159:21.392 160:25.998 161:27.183 162:26.087 163:27.693 164:30.325 165:29.863 166:27.757 167:26.178 168:25.139 169:22.658 170:19.398 171:16.149 172:14.34 173:12.826 174:12.539 175:13.401 176:14.526 177:15.571 178:16.551 179:17.576 180:18.346 181:18.921 182:18.852 183:16.979 184:16.235 185:17.406 186:23.882 187:26.904 188:26.226 189:25.912 190:24.996 191:23.034 192:23.23 193:25.404 194:27.45 195:26.406 196:23.757 197:21.162 198:19.078 199:19.801 200:19.111 201:19.658 202:20.48 203:20.963 204:20.939 205:20.358 206:19.66 207:18.082 208:15.246 209:11.916 210:14.584 211:22.253 212:26.661 213:24.859 214:26.296 215:27.302 216:27.898 217:30.274 218:29.878 219:29.116 220:29.701 221:29.853 222:27.617 223:25.62 224:21.394 225:16.006 226:13.263 227:12.456 228:13.065 229:14.155 230:14.287 231:14.473 232:15.832 233:18.347 234:18.509 235:16.789 236:15.765 237:16.087 238:17.399 239:18.372 240:22.063 241:25.618 242:25.055 243:26.168 244:29.404 245:28.728 246:30.368 247:29.925 248:29.129 249:25.317 250:20.938 251:16.854 
8.032014495496488E-4 1:12.307 2:11.078 3:11.703 4:12.988 5:13.77 6:14.093 7:14.127 8:13.52 9:12.193 10:10.553 11:8.6843 12:9.1831 13:13.444 14:16.629 15:17.445 16:21.421 17:24.133 18:23.736 19:24.124 20:26.083 21:27.609 22:27.674 23:22.906 24:16.975 25:11.178 26:7.954 27:6.3571 28:6.2182 29:7.787 30:10.529 31:13.709 32:15.315 33:15.156 34:14.072 35:12.845 36:11.135 37:8.802 38:6.1774 39:10.73 40:18.329 41:22.241 42:24.357 43:27.386 44:30.289 45:30.705 46:27.714 47:23.741 48:19.804 49:17.764 50:16.174 51:14.457 52:12.495 53:10.694 54:10.442 55:11.025 56:11.817 57:12.751 58:13.816 59:14.293 60:12.646 61:10.349 62:6.4875 63:9.8806 64:18.43 65:23.03 66:23.033 67:26.704 68:29.963 69:31.707 70:32.755 71:31.276 72:28.291 73:23.804 74:18.637 75:14.725 76:12.234 77:11.664 78:12.695 79:15.01 80:16.907 81:18.24 82:18.428 83:17.842 84:16.705 85:14.966 86:12.517 87:13.42 88:17.415 89:19.22 90:22.371 91:27.539 92:30.591 93:32.194 94:33.014 95:32.09 96:29.763 97:24.839 98:20.402 99:16.629 100:14.253 101:12.03 102:11.437 103:12.61 104:14.636 105:17.013 106:18.26 107:18.026 108:16.96 109:14.975 110:11.309 111:9.8689 112:15.408 113:20.47 114:19.663 115:20.115 116:25.396 117:29.427 118:31.598 119:32.713 120:32.274 121:29.437 122:23.172 123:17.52 124:13.47 125:10.984 126:11.122 127:13.339 128:15.447 129:16.862 130:17.862 131:18.164 132:17.43 133:15.851 134:13.67 135:11.005 136:10.135 137:10.843 138:13.876 139:17.314 140:21.061 141:22.946 142:22.606 143:21.798 144:22.808 145:25.521 146:27.658 147:28.459 148:26.667 149:23.09 150:17.55 151:13.188 152:11.388 153:11.335 154:12.9 155:15.594 156:17.642 157:18.409 158:17.838 159:15.868 160:13.209 161:13.099 162:16.243 163:19.114 164:18.409 165:19.061 166:22.819 167:26.722 168:30.035 169:31.888 170:32.616 171:31.32 172:29.964 173:27.233 174:23.629 175:18.887 176:14.234 177:11.339 178:10.77 179:12.009 180:14.122 181:15.565 182:16.33 183:16.208 184:15.52 185:14.086 186:12.266 187:11.467 188:15.159 189:17.841 190:18.35 191:19.956 192:24.641 193:28.691 194:30.473 195:29.896 196:30.727 197:30.513 198:29.204 199:25.1 200:19.513 201:14.134 202:10.553 203:9.3846 204:11.563 205:15.33 206:19.029 207:20.087 208:19.011 209:16.74 210:14.099 211:11.059 212:10.661 213:13.299 214:17.617 215:20.024 216:25.631 217:26.352 218:29.753 219:29.945 220:27.882 221:28.421 222:30.478 223:29.167 224:26.506 225:21.448 226:13.954 227:14.848 228:17.748 229:19.49 230:17.535 231:15.308 232:13.265 233:10.743 234:9.2391 235:12.217 236:18.04 237:19.183 238:19.339 239:24.211 240:28.51 241:30.556 242:30.683 243:29.517 244:29.956 245:29.613 246:26.877 247:21.68 248:15.883 249:12.19 250:11.872 251:13.978 
8.945734639818662E-4 1:15.719 2:12.229 3:9.442 4:10.655 5:14.957 6:18.196 7:19.896 8:22.969 9:26.851 10:30.11 11:31.925 12:31.291 13:29.898 14:28.813 15:24.921 16:19.225 17:13.232 18:8.369 19:6.6494 20:8.9359 21:12.46 22:15.853 23:17.626 24:17.54 25:16.765 26:15.249 27:12.809 28:9.6672 29:8.3951 30:11.289 31:15.674 32:19.929 33:23.168 34:24.674 35:26.041 36:27.553 37:28.863 38:28.719 39:26.963 40:21.685 41:16.563 42:12.553 43:9.5878 44:7.6359 45:8.1041 46:11.492 47:15.672 48:18.381 49:18.412 50:16.938 51:14.702 52:11.453 53:7.781 54:9.734 55:15.987 56:19.089 57:20.555 58:21.225 59:21.6 60:22.702 61:24.726 62:26.916 63:27.897 64:25.486 65:20.328 66:15.218 67:12.432 68:11.98 69:12.794 70:13.947 71:14.913 72:15.593 73:16.263 74:16.3 75:15.165 76:12.94 77:9.4329 78:9.8317 79:16.625 80:18.829 81:20.886 82:25.86 83:29.121 84:28.469 85:27.523 86:27.658 87:29.995 88:30.461 89:27.6 90:24.01 91:18.974 92:14.933 93:12.314 94:10.887 95:10.764 96:12.094 97:13.55 98:15.039 99:17.294 100:18.22 101:16.139 102:7.9343 103:7.9039 104:12.863 105:14.686 106:17.401 107:20.895 108:23.835 109:27.555 110:30.043 111:29.674 112:25.944 113:22.334 114:19.754 115:17.543 116:15.631 117:13.503 118:11.93 119:11.442 120:11.805 121:11.848 122:11.536 123:11.323 124:11.152 125:10.171 126:8.4354 127:6.0874 128:8.966 129:16.224 130:17.512 131:19.618 132:22.962 133:24.375 134:24.826 135:25.697 136:26.201 137:25.656 138:22.855 139:19.467 140:15.6 141:12.944 142:10.61 143:9.1489 144:8.5178 145:8.8227 146:9.6959 147:10.884 148:11.763 149:12.418 150:12.951 151:13.279 152:12.346 153:8.2177 154:9.8715 155:17.54 156:23.548 157:23.308 158:25.602 159:27.544 160:29.365 161:31.093 162:30.997 163:28.679 164:25.152 165:21.564 166:16.304 167:12.74 168:10.45 169:9.8475 170:11.038 171:12.792 172:14.726 173:16.687 174:18.282 175:18.772 176:17.947 177:15.783 178:14.518 179:16.32 180:20.951 181:23.435 182:23.253 183:27.505 184:30.486 185:32.038 186:31.629 187:30.103 188:26.87 189:21.581 190:15.471 191:10.995 192:9.6149 193:10.557 194:12.741 195:15.285 196:16.852 197:17.541 198:17.488 199:16.156 200:13.331 201:10.574 202:12.253 203:16.36 204:17.087 205:18.92 206:22.799 207:25.836 208:27.078 209:25.735 210:27.057 211:27.66 212:26.264 213:20.412 214:13.282 215:8.498 216:7.379 217:8.7064 218:10.849 219:13.493 220:15.458 221:15.835 222:14.516 223:13.174 224:11.635 225:9.9985 226:8.521 227:9.0817 228:11.663 229:15.539 230:20.059 231:25.068 232:29.157 233:30.981 234:32.312 235:33.073 236:32.957 237:30.616 238:24.598 239:17.903 240:12.925 241:10.046 242:10.521 243:12.958 244:15.115 245:16.639 246:17.56 247:17.93 248:17.247 249:15.103 250:11.52 251:8.7995 
0.0021993408729992342 1:8.7995 2:14.308 3:20.683 4:20.623 5:22.39 6:27.423 7:30.51 8:32.08 9:32.907 10:31.843 11:29.584 12:27.067 13:22.885 14:18.375 15:15.98 16:16.038 17:16.589 18:17.162 19:17.99 20:19.526 21:20.545 22:19.765 23:17.584 24:14.309 25:9.9652 26:12.751 27:20.306 28:21.626 29:24.502 30:27.234 31:28.578 32:30.591 33:30.909 34:31.062 35:30.29 36:27.534 37:22.682 38:17.964 39:14.264 40:12.724 41:13.106 42:14.259 43:15.97 44:17.465 45:17.939 46:17.58 47:16.383 48:14.309 49:10.602 50:8.0733 51:13.416 52:16.32 53:18.505 54:24.427 55:28.207 56:29.32 57:27.809 58:28.324 59:29.604 60:28.721 61:26.014 62:20.346 63:15.41 64:13.581 65:13.286 66:13.248 67:13.795 68:15.179 69:16.521 70:16.669 71:15.217 72:13.232 73:11.098 74:8.8609 75:8.4253 76:13.689 77:17.837 78:20.608 79:23.013 80:27.429 81:30.455 82:29.945 83:29.283 84:30.248 85:30.195 86:27.76 87:23.05 88:14.472 89:10.996 90:10.705 91:11.82 92:14.085 93:16.11 94:17.113 95:17.329 96:14.448 97:11.328 98:7.5015 99:11.557 100:17.171 101:18.125 102:20.751 103:25.653 104:27.549 105:27.851 106:29.439 107:29.754 108:28.185 109:23.249 110:17.204 111:13.149 112:11.117 113:10.927 114:12.845 115:15.691 116:18.484 117:19.803 118:19.737 119:18.664 120:16.66 121:13.91 122:10.537 123:11.402 124:17.106 125:20.127 126:20.882 127:24.135 128:26.694 129:27.982 130:28.661 131:30.158 132:30.818 133:30.084 134:26.395 135:21.933 136:17.933 137:14.753 138:13.7 139:13.297 140:15.238 141:17.313 142:19.963 143:21.338 144:21.193 145:19.696 146:17.705 147:15.163 148:15.488 149:18.058 150:22.905 151:22.031 152:23.285 153:25.684 154:26.811 155:28.677 156:30.957 157:32.334 158:31.378 159:25.53 160:19.343 161:14.468 162:10.949 163:9.7024 164:10.36 165:13.346 166:16.423 167:18.72 168:19.242 169:18.641 170:17.662 171:15.911 172:13.162 173:10.139 174:11.99 175:16.787 176:18.043 177:18.829 178:22.429 179:25.58 180:28.929 181:29.617 182:28.576 183:28.0 184:27.495 185:24.214 186:19.066 187:14.182 188:11.603 189:11.472 190:12.462 191:14.005 192:15.924 193:17.654 194:18.333 195:18.014 196:16.518 197:13.777 198:10.027 199:12.337 200:18.654 201:19.257 202:19.416 203:22.641 204:23.102 205:21.266 206:21.692 207:25.81 208:28.13 209:28.483 210:22.846 211:15.645 212:10.07 213:7.9126 214:9.2416 215:10.363 216:12.015 217:13.949 218:15.372 219:16.079 220:15.949 221:15.069 222:13.607 223:11.462 224:9.6243 225:10.679 226:15.118 227:17.237 228:19.478 229:21.295 230:22.203 231:23.881 232:25.616 233:26.694 234:28.465 235:28.348 236:24.61 237:18.396 238:13.481 239:11.752 240:12.037 241:13.156 242:14.842 243:16.526 244:17.132 245:16.927 246:15.938 247:14.043 248:11.75 249:9.5811 250:10.279 251:15.347 
5.030506018677862E-4 1:31.141 2:31.454 3:29.243 4:25.708 5:20.105 6:15.136 7:12.428 8:13.219 9:15.903 10:18.655 11:20.389 12:20.431 13:19.65 14:18.246 15:15.71 16:12.504 17:11.237 18:14.662 19:20.468 20:26.526 21:27.639 22:25.815 23:27.707 24:29.856 25:29.732 26:29.649 27:30.698 28:31.788 29:29.643 30:24.951 31:19.873 32:15.934 33:13.783 34:13.926 35:15.356 36:17.046 37:18.31 38:18.915 39:18.854 40:18.417 41:17.551 42:15.916 43:13.553 44:11.223 45:13.531 46:18.358 47:24.021 48:24.885 49:26.869 50:26.604 51:27.874 52:30.389 53:32.014 54:31.246 55:29.783 56:26.264 57:20.501 58:14.776 59:11.008 60:10.786 61:13.34 62:16.001 63:17.576 64:18.543 65:18.987 66:18.413 67:16.927 68:14.853 69:13.024 70:13.854 71:17.053 72:22.077 73:23.512 74:23.433 75:25.641 76:26.695 77:27.3 78:29.005 79:30.731 80:30.531 81:27.337 82:22.101 83:17.318 84:13.508 85:12.186 86:15.211 87:19.204 88:21.643 89:22.875 90:23.203 91:21.962 92:19.564 93:17.395 94:16.777 95:18.76 96:23.493 97:26.005 98:24.295 99:26.098 100:27.184 101:27.239 102:28.059 103:30.349 104:31.968 105:32.126 106:28.615 107:23.687 108:18.458 109:15.132 110:13.441 111:14.784 112:18.391 113:21.218 114:21.706 115:21.05 116:19.987 117:18.281 118:16.273 119:15.057 120:16.078 121:19.854 122:23.311 123:21.584 124:26.014 125:27.614 126:26.224 127:26.682 128:29.443 129:31.525 130:32.4 131:30.737 132:27.355 133:22.45 134:18.192 135:14.344 136:12.501 137:13.072 138:14.832 139:17.326 140:20.175 141:22.707 142:23.614 143:22.581 144:19.839 145:17.415 146:18.009 147:22.133 148:23.22 149:23.777 150:25.489 151:26.555 152:27.134 153:28.247 154:29.983 155:30.079 156:28.607 157:24.554 158:20.275 159:17.357 160:16.104 161:16.781 162:17.196 163:16.249 164:15.727 165:16.357 166:17.148 167:17.189 168:16.418 169:14.124 170:11.67 171:11.433 172:15.554 173:19.097 174:19.483 175:22.077 176:24.717 177:27.195 178:30.093 179:31.882 180:32.84 181:30.582 182:26.673 183:24.055 184:21.167 185:18.428 186:15.523 187:14.752 188:15.724 189:16.976 190:17.815 191:18.069 192:17.631 193:16.295 194:14.242 195:11.516 196:9.65 197:13.372 198:19.65 199:21.695 200:26.39 201:26.222 202:31.441 203:30.504 204:30.729 205:29.367 206:26.784 207:24.413 208:21.109 209:18.642 210:15.887 211:14.195 212:14.737 213:16.417 214:18.223 215:18.907 216:18.739 217:18.151 218:16.771 219:14.457 220:13.967 221:17.315 222:22.252 223:24.254 224:23.08 225:23.67 226:23.92 227:24.022 228:25.813 229:28.309 230:29.195 231:27.692 232:23.631 233:19.165 234:15.279 235:12.398 236:9.5795 237:9.1791 238:10.596 239:11.844 240:12.322 241:12.439 242:12.856 243:13.457 244:13.04 245:11.38 246:9.779 247:13.65 248:19.676 249:22.424 250:23.35 251:24.763 
5.316337078729304E-4 1:24.763 2:26.129 3:26.819 4:28.401 5:29.361 6:28.052 7:25.456 8:20.114 9:15.603 10:12.83 11:11.673 12:12.802 13:14.113 14:14.636 15:15.444 16:17.461 17:18.823 18:19.031 19:17.585 20:15.044 21:12.224 22:15.454 23:18.511 24:18.402 25:19.098 26:22.347 27:24.969 28:28.146 29:30.78 30:30.761 31:30.242 32:29.748 33:27.474 34:22.357 35:16.514 36:13.214 37:13.304 38:14.031 39:15.423 40:17.399 41:18.855 42:19.067 43:17.843 44:15.501 45:12.547 46:9.6742 47:10.577 48:15.348 49:19.391 50:21.101 51:23.335 52:24.491 53:22.636 54:22.152 55:21.595 56:21.119 57:23.479 58:25.753 59:23.42 60:18.432 61:14.72 62:12.996 63:12.028 64:12.125 65:13.226 66:14.111 67:14.566 68:14.98 69:15.493 70:15.249 71:13.997 72:11.925 73:11.235 74:14.858 75:20.307 76:24.682 77:24.1 78:24.639 79:27.63 80:30.425 81:29.874 82:27.645 83:26.949 84:26.725 85:24.993 86:20.643 87:15.333 88:11.662 89:11.291 90:11.426 91:11.922 92:13.701 93:16.288 94:18.225 95:18.881 96:17.244 97:14.5 98:12.085 99:13.74 100:17.688 101:22.173 102:22.371 103:23.976 104:25.394 105:26.543 106:27.568 107:28.693 108:30.321 109:30.682 110:29.609 111:25.135 112:19.491 113:14.071 114:10.621 115:10.137 116:10.801 117:13.223 118:17.234 119:19.279 120:19.832 121:19.292 122:18.22 123:16.521 124:14.245 125:13.728 126:15.92 127:20.202 128:23.045 129:23.637 130:26.342 131:27.607 132:27.264 133:27.705 134:29.237 135:30.387 136:29.634 137:26.812 138:21.914 139:17.405 140:14.622 141:12.876 142:11.972 143:11.845 144:12.436 145:13.915 146:15.389 147:16.022 148:15.756 149:14.595 150:12.848 151:12.769 152:15.986 153:20.773 154:20.145 155:20.876 156:22.239 157:24.269 158:26.192 159:27.93 160:30.48 161:32.069 162:32.94 163:30.383 164:26.807 165:22.931 166:19.343 167:16.917 168:16.642 169:17.82 170:20.706 171:22.954 172:24.125 173:24.503 174:21.835 175:18.204 176:21.772 177:23.131 178:24.416 179:25.89 180:25.998 181:26.464 182:29.001 183:31.236 184:32.499 185:33.162 186:32.254 187:27.1 188:21.166 189:17.504 190:17.192 191:19.758 192:22.626 193:23.391 194:22.545 195:21.034 196:19.425 197:17.757 198:15.088 199:13.026 200:14.307 201:18.466 202:19.186 203:19.281 204:20.356 205:21.487 206:23.223 207:26.77 208:29.998 209:31.854 210:32.394 211:31.358 212:28.962 213:25.069 214:19.773 215:14.422 216:10.789 217:10.895 218:13.921 219:18.218 220:21.812 221:23.741 222:23.593 223:22.232 224:19.481 225:15.631 226:15.365 227:17.686 228:21.748 229:20.413 230:21.217 231:23.679 232:25.841 233:28.593 234:30.924 235:31.293 236:32.523 237:32.996 238:29.533 239:25.812 240:19.834 241:13.663 242:9.8614 243:9.2584 244:11.166 245:14.005 246:16.234 247:17.138 248:17.379 249:17.0 250:15.805 251:13.414 
9.494964659074932E-4 1:13.414 2:9.8438 3:11.284 4:18.312 5:22.999 6:23.771 7:23.385 8:26.158 9:29.544 10:31.602 11:32.702 12:33.268 13:32.173 14:28.383 15:24.238 16:19.214 17:16.096 18:13.356 19:12.051 20:13.099 21:15.882 22:19.55 23:22.196 24:21.461 25:18.321 26:15.266 27:12.371 28:10.723 29:16.735 30:22.974 31:28.134 32:25.574 33:26.766 34:29.705 35:28.386 36:27.854 37:29.336 38:30.974 39:30.194 40:26.065 41:20.654 42:15.804 43:13.307 44:11.912 45:12.206 46:13.976 47:16.365 48:18.28 49:19.135 50:18.957 51:18.167 52:16.955 53:15.118 54:12.841 55:9.769 56:10.011 57:17.63 58:23.768 59:25.3 60:24.93 61:26.864 62:27.789 63:28.357 64:29.864 65:30.338 66:29.824 67:27.081 68:21.366 69:15.942 70:13.555 71:13.465 72:14.891 73:17.233 74:18.746 75:19.154 76:18.697 77:17.935 78:16.499 79:14.285 80:11.192 81:9.1129 82:13.794 83:20.561 84:21.96 85:23.248 86:26.791 87:29.993 88:30.824 89:30.947 90:30.603 91:29.488 92:18.075 93:14.493 94:14.79 95:17.671 96:20.035 97:20.793 98:19.966 99:18.782 100:17.085 101:15.169 102:13.536 103:11.627 104:10.441 105:12.697 106:18.28 107:22.996 108:24.395 109:24.967 110:26.194 111:26.222 112:27.54 113:30.136 114:31.874 115:32.829 116:31.935 117:26.86 118:20.614 119:15.227 120:11.486 121:10.167 122:10.819 123:12.552 124:15.493 125:18.539 126:20.007 127:19.755 128:18.38 129:15.709 130:12.301 131:8.8856 132:9.7177 133:15.748 134:21.448 135:23.024 136:23.778 137:24.543 138:26.043 139:28.377 140:30.502 141:32.084 142:32.466 143:30.032 144:25.687 145:19.099 146:13.327 147:10.022 148:8.9891 149:10.101 150:12.726 151:15.648 152:17.458 153:18.157 154:18.77 155:19.065 156:17.374 157:13.896 158:12.489 159:16.257 160:21.455 161:22.029 162:20.762 163:22.509 164:25.001 165:27.613 166:30.306 167:31.238 168:30.883 169:28.989 170:23.863 171:18.27 172:14.306 173:11.979 174:11.56 175:12.633 176:14.276 177:15.76 178:16.366 179:16.557 180:16.218 181:15.117 182:13.308 183:11.602 184:12.781 185:16.62 186:20.041 187:21.267 188:21.258 189:22.33 190:23.963 191:25.354 192:25.85 193:27.014 194:29.013 195:28.883 196:27.868 197:22.044 198:15.908 199:11.595 200:9.8831 201:9.7292 202:10.34 203:11.978 204:13.221 205:13.821 206:14.646 207:15.742 208:16.161 209:15.062 210:12.269 211:11.146 212:16.101 213:21.135 214:21.347 215:21.166 216:23.086 217:25.199 218:26.82 219:28.448 220:29.374 221:29.009 222:26.866 223:23.751 224:20.092 225:16.116 226:12.67 227:10.327 228:10.453 229:11.992 230:14.222 231:16.076 232:16.923 233:16.433 234:14.489 235:11.643 236:8.6967 237:8.2528 238:14.697 239:21.874 240:25.084 241:25.372 242:25.822 243:26.376 244:25.941 245:25.474 246:26.164 247:27.816 248:26.993 249:24.558 250:19.02 251:14.139 
5.642252350609865E-4 1:17.734 2:14.611 3:13.541 4:14.09 5:15.594 6:17.816 7:20.226 8:21.938 9:22.444 10:21.676 11:19.95 12:17.568 13:16.542 14:20.267 15:20.628 16:23.582 17:25.599 18:25.506 19:25.22 20:27.074 21:29.939 22:31.783 23:32.783 24:33.308 25:30.892 26:26.779 27:21.899 28:18.455 29:16.427 30:15.45 31:15.758 32:16.413 33:17.01 34:17.839 35:19.182 36:20.914 37:21.19 38:20.185 39:19.447 40:19.159 41:21.325 42:21.195 43:21.079 44:23.928 45:25.736 46:27.803 47:30.408 48:32.032 49:32.918 50:32.561 51:29.375 52:24.413 53:17.539 54:13.185 55:11.895 56:11.24 57:11.726 58:13.564 59:15.539 60:16.536 61:16.388 62:15.835 63:14.747 64:13.171 65:9.2319 66:4.4508 67:8.4689 68:17.533 69:20.883 70:24.246 71:28.41 72:31.003 73:32.397 74:33.115 75:33.481 76:31.161 77:27.225 78:22.611 79:16.737 80:13.444 81:12.245 82:12.502 83:14.478 84:17.234 85:19.384 86:20.175 87:19.855 88:19.093 89:17.788 90:16.109 91:16.065 92:18.4 93:19.641 94:20.552 95:23.168 96:25.336 97:26.799 98:28.833 99:31.073 100:32.399 101:33.111 102:32.842 103:30.744 104:27.04 105:21.699 106:17.096 107:16.238 108:17.24 109:18.641 110:20.098 111:21.469 112:22.01 113:21.549 114:20.521 115:19.544 116:18.042 117:17.439 118:18.193 119:20.924 120:22.102 121:22.834 122:24.984 123:26.569 124:27.935 125:30.424 126:32.035 127:32.914 128:32.256 129:29.021 130:24.484 131:19.249 132:14.381 133:12.096 134:12.492 135:14.84 136:17.051 137:17.8 138:17.281 139:16.548 140:15.444 141:13.635 142:11.3 143:8.8437 144:10.564 145:16.265 146:21.606 147:22.069 148:22.291 149:25.217 150:26.69 151:27.151 152:27.992 153:30.349 154:31.973 155:31.746 156:28.133 157:22.5 158:16.128 159:11.918 160:9.2553 161:9.3243 162:11.42 163:14.513 164:17.199 165:18.547 166:18.538 167:17.868 168:16.063 169:12.498 170:10.008 171:15.408 172:16.087 173:17.225 174:19.821 175:22.085 176:24.979 177:28.654 178:31.106 179:32.301 180:31.687 181:29.383 182:25.718 183:22.096 184:18.661 185:15.787 186:14.243 187:14.988 188:18.231 189:21.076 190:21.592 191:20.534 192:18.954 193:17.373 194:15.905 195:13.02 196:11.248 197:15.689 198:21.172 199:24.566 200:23.695 201:24.994 202:28.298 203:30.855 204:32.3 205:33.058 206:33.443 207:30.566 208:26.426 209:21.841 210:17.722 211:15.101 212:13.796 213:14.594 214:17.217 215:20.376 216:21.255 217:19.645 218:17.737 219:15.2 220:13.854 221:15.718 222:17.675 223:18.069 224:19.332 225:21.958 226:24.451 227:25.375 228:28.827 229:31.176 230:32.098 231:29.584 232:26.099 233:23.026 234:19.211 235:14.473 236:11.822 237:10.961 238:11.285 239:12.842 240:15.437 241:17.022 242:16.46 243:15.013 244:13.404 245:10.76 246:10.302 247:12.372 248:14.497 249:18.64 250:21.508 251:24.576 
0.0015962234490171446 1:18.522 2:18.323 3:17.53 4:16.754 5:15.959 6:14.809 7:12.836 8:11.19 9:12.697 10:16.967 11:19.123 12:18.875 13:19.709 14:23.11 15:25.497 16:28.416 17:30.903 18:32.086 19:32.502 20:31.217 21:27.812 22:24.161 23:19.406 24:16.673 25:14.741 26:13.476 27:13.534 28:15.058 29:17.095 30:18.349 31:18.914 32:18.948 33:18.026 34:15.685 35:13.121 36:13.005 37:17.226 38:19.025 39:20.279 40:22.092 41:24.26 42:25.995 43:29.071 44:31.29 45:32.529 46:33.178 47:30.347 48:26.667 49:22.231 50:17.03 51:13.635 52:13.113 53:14.58 54:16.994 55:18.863 56:18.733 57:18.163 58:18.171 59:17.294 60:15.164 61:12.863 62:13.969 63:19.331 64:21.323 65:21.75 66:23.862 67:25.698 68:27.44 69:29.14 70:30.144 71:31.424 72:32.585 73:32.792 74:29.414 75:23.252 76:17.76 77:15.568 78:15.902 79:17.495 80:19.374 81:20.79 82:20.088 83:18.294 84:16.237 85:14.169 86:12.639 87:11.588 88:10.516 89:11.897 90:16.484 91:21.083 92:23.535 93:25.232 94:25.449 95:26.878 96:29.572 97:30.501 98:31.945 99:32.863 100:29.699 101:24.364 102:18.58 103:14.749 104:12.712 105:12.738 106:13.739 107:15.608 108:17.168 109:18.024 110:18.127 111:17.498 112:16.571 113:15.213 114:13.718 115:11.738 116:11.126 117:14.257 118:20.225 119:24.893 120:25.633 121:25.013 122:28.498 123:28.87 124:31.122 125:32.432 126:32.98 127:30.023 128:25.784 129:21.018 130:17.435 131:15.752 132:14.728 133:14.237 134:14.237 135:14.565 136:15.558 137:15.887 138:15.39 139:15.317 140:15.395 141:15.059 142:14.326 143:16.92 144:19.242 145:18.099 146:18.654 147:21.204 148:23.427 149:24.342 150:25.955 151:28.919 152:31.197 153:32.477 154:31.368 155:27.806 156:22.544 157:17.873 158:14.357 159:13.514 160:14.071 161:15.438 162:17.968 163:20.841 164:22.501 165:22.095 166:19.881 167:15.154 168:17.056 169:21.285 170:21.883 171:22.457 172:24.395 173:26.01 174:26.918 175:27.682 176:30.022 177:31.553 178:30.972 179:28.274 180:22.158 181:16.977 182:14.424 183:14.214 184:15.866 185:17.39 186:18.874 187:19.833 188:20.483 189:21.836 190:22.96 191:22.184 192:19.57 193:15.913 194:15.307 195:17.524 196:22.431 197:25.297 198:24.458 199:26.244 200:29.122 201:29.931 202:31.446 203:32.6 204:33.19 205:31.114 206:27.493 207:22.109 208:17.498 209:16.228 210:17.201 211:19.226 212:21.234 213:22.46 214:22.386 215:20.836 216:18.259 217:15.738 218:13.475 219:10.823 220:10.918 221:17.837 222:23.208 223:22.769 224:22.51 225:24.713 226:26.931 227:29.76 228:31.515 229:31.541 230:32.649 231:31.941 232:27.325 233:20.625 234:15.768 235:14.315 236:13.859 237:14.706 238:17.066 239:19.437 240:20.682 241:21.102 242:21.201 243:20.749 244:19.272 245:15.63 246:13.234 247:17.174 248:21.414 249:23.072 250:24.676 251:25.61 
0.00153085278897978 1:25.768 2:26.018 3:28.09 4:27.69 5:28.162 6:29.163 7:28.58 8:25.18 9:21.827 10:18.977 11:17.736 12:17.368 13:16.351 14:14.775 15:13.952 16:13.825 17:14.643 18:15.772 19:17.358 20:20.997 21:23.308 22:22.787 23:19.182 24:17.308 25:20.609 26:24.495 27:28.697 28:29.152 29:26.738 30:27.731 31:30.18 32:29.956 33:30.99 34:29.256 35:26.735 36:23.15 37:19.115 38:18.064 39:20.169 40:19.659 41:18.473 42:17.956 43:18.227 44:19.166 45:19.713 46:20.555 47:21.246 48:18.699 49:18.094 50:21.527 51:24.489 52:26.862 53:27.645 54:26.058 55:26.56 56:27.114 57:29.408 58:31.408 59:28.811 60:24.937 61:22.42 62:21.932 63:23.278 64:22.559 65:21.411 66:19.459 67:14.848 68:14.875 69:13.808 70:12.735 71:12.348 72:12.343 73:11.927 74:11.19 75:13.416 76:18.63 77:20.443 78:20.305 79:21.096 80:24.79 81:25.976 82:27.852 83:30.978 84:32.194 85:30.953 86:28.274 87:25.399 88:21.894 89:18.305 90:15.197 91:12.569 92:11.092 93:11.472 94:12.894 95:14.605 96:14.376 97:12.129 98:10.656 99:10.008 100:9.8783 101:11.618 102:15.594 103:20.204 104:25.11 105:28.735 106:29.283 107:27.74 108:27.494 109:28.487 110:28.741 111:27.691 112:29.774 113:30.631 114:27.133 115:22.34 116:18.826 117:17.23 118:16.998 119:15.976 120:13.778 121:12.063 122:11.658 123:12.438 124:14.203 125:16.021 126:16.902 127:15.84 128:14.102 129:14.196 130:16.339 131:23.577 132:24.052 133:25.031 134:28.758 135:29.767 136:31.558 137:32.058 138:31.482 139:28.307 140:24.279 141:19.834 142:16.51 143:14.11 144:12.395 145:12.029 146:13.033 147:14.911 148:16.829 149:17.718 150:17.793 151:18.087 152:17.931 153:16.07 154:12.709 155:12.145 156:18.622 157:23.312 158:24.576 159:25.51 160:28.481 161:29.943 162:28.722 163:30.105 164:30.972 165:30.672 166:27.83 167:21.748 168:16.0 169:13.155 170:12.508 171:12.092 172:12.207 173:12.955 174:14.252 175:15.613 176:16.824 177:17.586 178:17.636 179:16.958 180:15.383 181:13.172 182:12.622 183:17.065 184:22.48 185:22.591 186:23.737 187:26.71 188:28.163 189:29.819 190:32.012 191:30.99 192:26.985 193:20.736 194:11.039 195:9.6163 196:10.375 197:12.634 198:15.939 199:19.189 200:21.308 201:20.836 202:19.129 203:17.339 204:15.644 205:14.185 206:15.183 207:17.268 208:20.573 209:24.814 210:27.617 211:25.101 212:27.933 213:28.171 214:29.296 215:31.331 216:30.482 217:26.034 218:20.709 219:16.077 220:14.131 221:12.054 222:9.8079 223:10.038 224:11.346 225:12.955 226:15.643 227:18.108 228:19.409 229:19.106 230:17.372 231:13.456 232:9.2663 233:11.606 234:13.509 235:17.755 236:20.61 237:22.665 238:25.132 239:26.89 240:28.353 241:30.935 242:31.621 243:30.086 244:25.754 245:21.068 246:17.53 247:14.723 248:12.491 249:11.777 250:11.952 251:12.651 
6.085229281736533E-4 1:32.129 2:31.172 3:28.392 4:24.601 5:18.409 6:13.532 7:12.49 8:13.19 9:14.477 10:16.641 11:18.936 12:19.907 13:19.85 14:19.2 15:17.743 16:15.755 17:14.704 18:16.178 19:19.786 20:22.321 21:20.937 22:21.16 23:24.26 24:27.281 25:29.685 26:31.654 27:32.195 28:31.284 29:29.437 30:23.73 31:16.85 32:11.726 33:9.876 34:10.8 35:13.337 36:15.708 37:17.452 38:17.793 39:17.643 40:17.692 41:17.536 42:16.082 43:14.008 44:13.326 45:16.014 46:20.8 47:21.001 48:23.271 49:25.886 50:26.185 51:27.801 52:30.35 53:31.997 54:31.751 55:29.407 56:26.579 57:23.144 58:19.573 59:18.029 60:16.201 61:16.566 62:18.939 63:20.562 64:20.862 65:20.653 66:20.058 67:19.083 68:17.978 69:18.177 70:19.802 71:19.845 72:19.668 73:20.16 74:22.382 75:25.021 76:27.0 77:30.091 78:31.099 79:30.44 80:26.824 81:20.124 82:13.729 83:10.329 84:9.7775 85:10.931 86:13.996 87:17.313 88:19.574 89:20.423 90:20.706 91:20.063 92:17.763 93:17.046 94:17.567 95:21.559 96:21.149 97:21.304 98:24.546 99:25.23 100:26.529 101:28.391 102:29.28 103:31.329 104:32.254 105:31.13 106:27.097 107:22.167 108:18.59 109:16.001 110:13.001 111:15.824 112:17.396 113:18.356 114:19.063 115:19.362 116:18.624 117:16.001 118:14.742 119:16.449 120:21.292 121:23.455 122:24.146 123:25.546 124:26.383 125:28.006 126:29.301 127:30.634 128:30.491 129:28.983 130:25.893 131:22.702 132:19.037 133:15.408 134:12.757 135:11.956 136:12.713 137:13.797 138:15.234 139:17.712 140:20.278 141:21.286 142:19.763 143:17.837 144:17.269 145:18.104 146:22.439 147:25.535 148:25.305 149:26.386 150:29.523 151:29.784 152:28.753 153:29.063 154:29.363 155:27.45 156:23.183 157:19.085 158:16.876 159:15.324 160:15.457 161:16.508 162:18.04 163:19.374 164:19.569 165:19.127 166:18.842 167:17.454 168:15.22 169:14.505 170:16.882 171:21.657 172:24.811 173:24.679 174:25.046 175:26.23 176:27.146 177:28.592 178:30.843 179:31.072 180:30.018 181:26.294 182:21.22 183:17.864 184:16.086 185:15.407 186:15.166 187:15.683 188:17.214 189:19.108 190:20.566 191:20.965 192:19.658 193:17.863 194:17.443 195:17.472 196:20.336 197:25.315 198:26.204 199:25.401 200:26.793 201:27.562 202:27.771 203:29.738 204:29.749 205:29.074 206:26.028 207:13.977 208:10.371 209:9.3254 210:13.657 211:16.064 212:17.996 213:19.146 214:20.037 215:20.347 216:19.564 217:16.767 218:12.055 219:12.754 220:17.966 221:23.452 222:23.947 223:24.593 224:26.174 225:28.562 226:29.899 227:31.182 228:30.725 229:29.173 230:25.922 231:21.234 232:17.902 233:15.546 234:14.48 235:14.569 236:15.424 237:16.606 238:17.473 239:18.697 240:19.636 241:19.42 242:18.047 243:15.619 244:15.232 245:19.821 246:23.929 247:22.559 248:22.453 249:23.789 250:24.895 251:26.221 
5.396465926866988E-4 1:28.714 2:25.811 3:24.664 4:23.393 5:22.189 6:18.196 7:14.764 8:13.576 9:14.306 10:15.417 11:16.889 12:18.351 13:18.802 14:17.941 15:16.865 16:17.112 17:17.524 18:20.536 19:22.665 20:24.181 21:24.436 22:28.124 23:29.271 24:27.248 25:27.507 26:28.55 27:28.834 28:27.131 29:22.463 30:17.218 31:13.287 32:10.595 33:9.1896 34:9.7328 35:11.665 36:14.221 37:17.153 38:19.82 39:20.921 40:20.737 41:17.91 42:17.581 43:18.298 44:22.226 45:24.601 46:24.145 47:25.291 48:28.394 49:30.887 50:31.047 51:30.564 52:30.539 53:27.14 54:23.396 55:20.062 56:16.081 57:13.193 58:11.73 59:10.617 60:10.086 61:11.127 62:12.949 63:14.266 64:15.364 65:16.416 66:16.391 67:15.248 68:14.005 69:12.806 70:15.397 71:20.937 72:25.366 73:25.878 74:25.694 75:27.41 76:29.037 77:29.363 78:31.365 79:32.113 80:30.41 81:27.346 82:22.449 83:18.457 84:17.345 85:15.966 86:16.474 87:17.923 88:18.646 89:18.753 90:18.931 91:19.479 92:19.333 93:17.55 94:14.244 95:12.532 96:15.468 97:19.492 98:21.841 99:25.27 100:25.328 101:26.427 102:29.506 103:30.414 104:29.901 105:29.669 106:29.234 107:26.589 108:21.516 109:16.219 110:12.998 111:11.975 112:12.484 113:14.43 114:16.834 115:18.513 116:19.573 117:19.565 118:19.068 119:17.948 120:15.323 121:12.292 122:14.733 123:18.322 124:19.506 125:19.537 126:20.351 127:23.033 128:24.889 129:27.317 130:30.165 131:31.92 132:32.447 133:32.046 134:30.393 135:26.501 136:21.11 137:15.362 138:11.613 139:10.285 140:10.204 141:11.324 142:13.713 143:17.074 144:19.321 145:20.025 146:19.955 147:18.768 148:17.513 149:18.134 150:21.4 151:21.042 152:21.34 153:24.124 154:25.803 155:27.108 156:29.732 157:31.634 158:31.932 159:30.689 160:22.623 161:16.744 162:12.645 163:11.858 164:13.164 165:13.715 166:14.301 167:15.283 168:16.538 169:16.244 170:14.75 171:12.946 172:10.521 173:8.5745 174:10.395 175:14.253 176:17.525 177:18.732 178:21.454 179:24.436 180:26.803 181:29.824 182:31.728 183:32.075 184:31.817 185:28.863 186:25.021 187:19.51 188:14.386 189:11.353 190:11.255 191:12.878 192:14.563 193:16.368 194:18.086 195:19.127 196:19.29 197:18.772 198:17.498 199:15.461 200:14.432 201:16.517 202:21.6 203:21.357 204:21.671 205:24.646 206:26.866 207:28.195 208:29.42 209:30.75 210:32.208 211:31.416 212:29.207 213:24.317 214:18.022 215:13.168 216:10.503 217:8.5376 218:8.4384 219:10.35 220:13.191 221:16.108 222:17.786 223:17.971 224:17.083 225:15.296 226:12.812 227:11.687 228:13.625 229:17.233 230:20.851 231:23.152 232:24.798 233:26.857 234:29.277 235:29.431 236:28.244 237:26.997 238:24.137 239:21.124 240:17.765 241:15.08 242:14.534 243:14.77 244:15.328 245:15.569 246:16.049 247:16.119 248:15.974 249:15.862 250:15.455 251:14.562 
9.025226475019465E-4 1:14.562 2:12.972 3:11.414 4:11.715 5:17.258 6:22.291 7:26.459 8:26.242 9:24.665 10:26.599 11:27.826 12:29.599 13:31.5 14:31.33 15:29.484 16:27.181 17:23.764 18:19.942 19:17.35 20:15.18 21:14.896 22:15.582 23:16.231 24:16.967 25:17.367 26:17.215 27:16.827 28:16.083 29:14.687 30:12.332 31:14.336 32:18.181 33:24.129 34:24.292 35:25.502 36:27.141 37:27.064 38:27.239 39:28.357 40:28.909 41:29.11 42:29.264 43:27.078 44:22.497 45:17.261 46:13.028 47:11.758 48:12.486 49:14.191 50:15.486 51:16.572 52:17.393 53:17.71 54:17.496 55:16.973 56:15.554 57:13.209 58:10.668 59:12.769 60:18.951 61:25.48 62:26.243 63:25.624 64:26.501 65:26.033 66:25.726 67:26.855 68:29.454 69:30.426 70:30.379 71:27.038 72:21.051 73:15.885 74:12.346 75:11.464 76:12.949 77:14.899 78:17.691 79:19.846 80:20.994 81:21.187 82:20.34 83:18.366 84:15.963 85:15.981 86:17.347 87:21.987 88:24.108 89:23.673 90:25.823 91:26.889 92:26.109 93:27.291 94:29.895 95:31.746 96:31.587 97:30.7 98:27.106 99:22.425 100:17.814 101:14.06 102:13.156 103:13.173 104:12.992 105:12.868 106:13.02 107:13.729 108:14.98 109:15.384 110:14.212 111:13.217 112:13.001 113:14.337 114:16.19 115:16.828 116:17.771 117:19.827 118:23.048 119:24.835 120:26.494 121:27.616 122:28.58 123:29.602 124:29.473 125:29.23 126:27.147 127:23.491 128:18.564 129:13.726 130:9.915 131:7.9051 132:8.3444 133:10.503 134:13.339 135:16.96 136:21.151 137:20.586 138:18.788 139:16.357 140:16.314 141:18.012 142:21.761 143:24.441 144:25.79 145:26.031 146:27.418 147:30.067 148:31.837 149:32.813 150:32.184 151:29.344 152:25.69 153:20.575 154:15.722 155:12.572 156:11.648 157:10.969 158:11.258 159:12.198 160:13.099 161:13.667 162:13.828 163:13.816 164:13.738 165:12.968 166:11.633 167:8.874 168:9.4001 169:15.756 170:21.195 171:23.235 172:25.718 173:26.354 174:26.482 175:28.317 176:30.099 177:31.839 178:31.596 179:29.269 180:24.856 181:19.087 182:14.339 183:10.69 184:8.5163 185:8.2832 186:9.7398 187:11.345 188:12.572 189:13.966 190:14.966 191:16.15 192:17.295 193:16.806 194:14.368 195:11.105 196:10.955 197:14.402 198:20.765 199:22.786 200:23.851 201:27.416 202:27.759 203:28.814 204:31.035 205:31.029 206:30.406 207:26.593 208:21.292 209:17.013 210:14.511 211:12.36 212:11.45 213:12.521 214:13.216 215:14.337 216:15.379 217:15.771 218:15.425 219:15.114 220:14.563 221:13.871 222:13.08 223:15.474 224:19.495 225:25.819 226:29.693 227:27.076 228:26.929 229:29.695 230:29.06 231:24.265 232:19.317 233:19.138 234:21.083 235:21.605 236:20.257 237:18.422 238:17.012 239:16.128 240:15.348 241:14.829 242:14.671 243:14.765 244:14.76 245:16.827 246:18.677 247:17.475 248:14.079 249:14.585 250:21.941 251:24.99 
8.403207889878258E-4 1:22.444 2:26.533 3:28.817 4:31.181 5:32.481 6:33.155 7:32.34 8:27.971 9:23.656 10:19.202 11:16.56 12:14.998 13:13.896 14:13.97 15:14.026 16:13.771 17:13.096 18:12.828 19:12.647 20:12.324 21:10.986 22:11.477 23:17.536 24:17.923 25:17.75 26:18.726 27:19.765 28:21.585 29:25.05 30:28.903 31:31.264 32:32.527 33:31.188 34:26.784 35:23.65 36:20.234 37:17.817 38:16.183 39:14.947 40:14.784 41:15.585 42:15.838 43:15.561 44:15.592 45:15.728 46:14.672 47:12.683 48:12.859 49:17.959 50:22.479 51:20.531 52:20.61 53:23.922 54:26.953 55:29.158 56:30.268 57:31.082 58:31.634 59:29.05 60:25.301 61:22.839 62:21.22 63:17.178 64:12.979 65:12.771 66:14.627 67:15.406 68:15.056 69:14.055 70:13.051 71:12.356 72:11.936 73:11.289 74:10.55 75:10.385 76:14.024 77:19.875 78:20.558 79:19.931 80:22.403 81:26.58 82:29.959 83:31.844 84:32.622 85:32.333 86:31.506 87:29.358 88:25.974 89:21.446 90:18.596 91:17.491 92:18.137 93:18.715 94:17.271 95:14.728 96:12.524 97:11.046 98:9.4973 99:8.1004 100:10.091 101:12.213 102:13.772 103:15.715 104:19.018 105:20.989 106:20.595 107:19.683 108:22.17 109:25.852 110:29.438 111:32.678 112:32.198 113:29.612 114:26.257 115:23.717 116:20.494 117:16.24 118:13.962 119:14.706 120:17.135 121:19.791 122:20.674 123:20.153 124:19.087 125:17.773 126:16.202 127:14.277 128:13.898 129:15.481 130:18.26 131:19.445 132:18.847 133:20.874 134:24.243 135:28.13 136:30.856 137:32.322 138:32.249 139:30.037 140:26.433 141:23.09 142:19.072 143:15.994 144:16.549 145:17.753 146:18.603 147:19.161 148:18.391 149:16.826 150:14.543 151:12.143 152:9.3188 153:7.5807 154:8.1938 155:11.955 156:15.914 157:17.707 158:19.017 159:21.087 160:24.268 161:25.015 162:24.966 163:25.343 164:26.653 165:25.827 166:22.879 167:20.42 168:15.631 169:12.144 170:10.201 171:10.093 172:11.7 173:14.157 174:17.715 175:21.422 176:22.871 177:22.404 178:20.933 179:17.99 180:17.686 181:21.355 182:22.882 183:20.405 184:19.761 185:20.251 186:22.887 187:27.077 188:28.673 189:28.963 190:28.291 191:23.32 192:18.144 193:14.399 194:12.657 195:12.448 196:12.934 197:13.389 198:13.621 199:13.911 200:13.703 201:12.693 202:11.854 203:10.719 204:9.3937 205:11.082 206:16.048 207:18.919 208:18.725 209:19.918 210:21.695 211:25.039 212:27.055 213:27.998 214:25.869 215:23.783 216:21.833 217:19.343 218:16.97 219:14.745 220:13.177 221:13.904 222:14.974 223:15.69 224:15.425 225:14.668 226:13.832 227:12.966 228:12.938 229:12.357 230:12.216 231:16.911 232:20.411 233:17.613 234:18.672 235:19.535 236:22.031 237:24.194 238:27.672 239:29.452 240:28.774 241:25.776 242:21.087 243:18.122 244:16.741 245:15.842 246:13.97 247:11.473 248:10.078 249:9.7728 250:10.289 251:11.408 
7.404509312906996E-4 1:11.408 2:12.673 3:14.179 4:15.857 5:16.936 6:17.395 7:18.401 8:19.703 9:18.352 10:19.316 11:21.808 12:24.359 13:27.752 14:30.544 15:32.14 16:31.57 17:29.582 18:26.445 19:22.957 20:18.676 21:15.154 22:13.064 23:11.934 24:11.508 25:12.653 26:14.355 27:15.538 28:16.338 29:17.091 30:16.942 31:16.041 32:13.895 33:11.591 34:16.315 35:20.408 36:19.142 37:20.543 38:24.665 39:26.361 40:29.586 41:31.675 42:32.092 43:31.389 44:28.825 45:24.996 46:22.547 47:21.296 48:19.902 49:17.995 50:15.665 51:13.569 52:11.875 53:10.481 54:9.2622 55:10.093 56:11.392 57:12.816 58:14.693 59:14.88 60:13.181 61:14.099 62:17.563 63:21.553 64:24.145 65:28.195 66:30.792 67:27.848 68:27.416 69:27.15 70:25.083 71:22.358 72:18.661 73:16.256 74:14.607 75:14.701 76:15.32 77:15.841 78:16.688 79:17.472 80:18.057 81:18.043 82:16.93 83:13.821 84:11.687 85:16.218 86:20.006 87:22.339 88:23.668 89:24.522 90:26.704 91:29.693 92:31.648 93:32.714 94:27.968 95:22.977 96:19.955 97:17.967 98:16.895 99:17.556 100:17.464 101:17.74 102:18.778 103:19.095 104:17.839 105:15.94 106:14.417 107:13.185 108:13.228 109:18.224 110:20.797 111:17.734 112:18.677 113:20.799 114:23.588 115:26.988 116:28.317 117:28.5 118:26.386 119:22.584 120:20.554 121:20.124 122:20.095 123:19.191 124:18.439 125:16.66 126:14.165 127:12.953 128:13.051 129:13.454 130:13.863 131:15.075 132:15.649 133:14.644 134:15.428 135:18.53 136:21.535 137:21.152 138:21.761 139:22.289 140:24.199 141:26.384 142:28.327 143:28.997 144:28.507 145:25.257 146:19.909 147:15.981 148:14.218 149:13.888 150:13.717 151:14.224 152:16.237 153:17.119 154:17.086 155:17.05 156:16.588 157:15.919 158:14.278 159:11.427 160:14.407 161:20.798 162:26.263 163:26.432 164:25.689 165:25.947 166:27.19 167:26.873 168:24.729 169:23.9 170:23.482 171:21.866 172:18.419 173:15.353 174:14.613 175:15.091 176:15.523 177:16.453 178:15.853 179:15.099 180:14.27 181:13.231 182:11.981 183:9.619 184:10.17 185:14.413 186:20.617 187:22.649 188:22.994 189:23.917 190:24.492 191:26.382 192:28.825 193:29.384 194:28.538 195:27.204 196:26.857 197:25.577 198:24.158 199:21.329 200:17.622 201:15.413 202:14.337 203:13.263 204:12.626 205:12.943 206:13.657 207:13.879 208:13.91 209:13.461 210:12.053 211:11.069 212:12.173 213:12.911 214:15.58 215:19.281 216:22.291 217:23.416 218:26.196 219:28.834 220:28.627 221:27.039 222:26.292 223:24.32 224:17.409 225:12.825 226:10.436 227:11.135 228:12.682 229:14.145 230:15.333 231:15.833 232:15.361 233:14.596 234:13.448 235:12.388 236:11.423 237:12.137 238:15.716 239:20.572 240:22.318 241:21.227 242:21.871 243:22.775 244:21.719 245:22.822 246:23.371 247:25.943 248:26.442 249:25.727 250:22.155 251:17.695 
0.0010114322656868291 1:21.55 2:25.527 3:28.902 4:29.655 5:27.895 6:22.308 7:16.888 8:14.286 9:13.518 10:12.802 11:12.657 12:14.468 13:17.294 14:19.393 15:20.207 16:21.217 17:21.374 18:19.723 19:16.721 20:13.534 21:12.508 22:16.285 23:18.698 24:20.018 25:21.243 26:23.523 27:27.073 28:30.219 29:31.98 30:31.984 31:30.935 32:28.794 33:26.401 34:23.086 35:17.91 36:13.212 37:11.799 38:12.232 39:13.158 40:13.866 41:14.831 42:16.24 43:17.317 44:17.511 45:17.119 46:16.109 47:13.397 48:10.216 49:11.459 50:17.111 51:18.104 52:18.848 53:19.761 54:21.466 55:24.809 56:27.347 57:27.229 58:25.923 59:24.251 60:24.239 61:23.538 62:20.406 63:16.148 64:13.009 65:11.969 66:12.026 67:12.288 68:13.337 69:15.438 70:17.624 71:18.437 72:19.007 73:18.984 74:17.143 75:14.145 76:14.228 77:17.322 78:18.367 79:18.655 80:18.959 81:19.383 82:19.596 83:22.966 84:27.649 85:30.61 86:31.235 87:27.202 88:21.626 89:18.318 90:15.881 91:12.725 92:10.32 93:10.865 94:13.524 95:16.561 96:18.728 97:19.832 98:19.85 99:19.287 100:17.736 101:15.216 102:12.785 103:11.905 104:14.529 105:16.891 106:18.354 107:20.537 108:22.119 109:21.364 110:20.777 111:22.291 112:25.991 113:27.975 114:28.481 115:25.201 116:19.715 117:15.252 118:13.226 119:12.668 120:12.174 121:11.016 122:10.443 123:10.186 124:10.013 125:9.9807 126:10.275 127:10.795 128:11.957 129:13.264 130:13.933 131:13.188 132:13.001 133:15.781 134:18.466 135:19.544 136:21.595 137:23.092 138:22.812 139:22.831 140:24.441 141:26.299 142:25.687 143:23.089 144:19.253 145:15.056 146:12.843 147:11.954 148:12.306 149:14.071 150:16.275 151:17.514 152:17.007 153:15.838 154:15.279 155:15.266 156:14.269 157:12.4 158:12.406 159:14.692 160:19.634 161:20.223 162:20.851 163:25.35 164:27.657 165:26.562 166:25.58 167:26.472 168:24.917 169:22.234 170:18.159 171:14.438 172:11.955 173:11.197 174:10.536 175:12.68 176:17.292 177:21.265 178:23.679 179:23.55 180:21.788 181:18.93 182:14.93 183:12.243 184:14.315 185:17.425 186:19.123 187:19.636 188:20.74 189:21.556 190:20.502 191:20.069 192:21.823 193:25.682 194:28.054 195:27.631 196:23.459 197:18.74 198:16.138 199:16.107 200:16.655 201:15.708 202:15.028 203:15.164 204:15.389 205:15.255 206:15.461 207:15.554 208:14.798 209:13.754 210:13.746 211:13.52 212:15.683 213:17.879 214:20.184 215:22.231 216:23.13 217:24.587 218:27.376 219:28.512 220:27.029 221:23.405 222:19.921 223:17.47 224:15.156 225:12.978 226:11.651 227:10.81 228:11.317 229:12.864 230:14.696 231:16.879 232:18.158 233:17.84 234:15.785 235:13.315 236:10.679 237:12.113 238:16.024 239:19.538 240:20.656 241:20.355 242:20.619 243:21.83 244:22.984 245:24.755 246:26.264 247:26.791 248:24.924 249:23.682 250:22.728 251:20.465 
7.759964226013939E-4 1:18.892 2:19.063 3:18.435 4:17.06 5:15.37 6:13.271 7:10.652 8:13.263 9:19.278 10:25.4 11:27.255 12:26.159 13:25.818 14:26.845 15:27.163 16:27.893 17:28.346 18:27.5 19:24.408 20:20.688 21:17.883 22:14.841 23:11.803 24:9.9695 25:10.796 26:12.113 27:14.152 28:16.283 29:18.337 30:19.308 31:19.726 32:19.484 33:18.229 34:15.828 35:13.767 36:17.51 37:23.11 38:23.584 39:22.522 40:23.653 41:25.583 42:26.979 43:25.474 44:24.12 45:23.8 46:23.876 47:22.466 48:20.827 49:18.601 50:16.139 51:14.273 52:12.204 53:11.806 54:12.65 55:13.32 56:13.508 57:13.276 58:12.666 59:12.119 60:11.014 61:9.3607 62:7.5044 63:10.152 64:15.127 65:18.246 66:19.623 67:21.149 68:21.914 69:23.198 70:24.371 71:27.36 72:28.912 73:28.085 74:24.969 75:22.142 76:20.645 77:19.762 78:18.431 79:16.492 80:14.054 81:12.889 82:13.722 83:15.605 84:16.706 85:17.477 86:17.85 87:16.362 88:12.695 89:8.9286 90:10.927 91:18.355 92:21.626 93:20.717 94:19.901 95:20.335 96:21.729 97:25.329 98:27.07 99:27.6 100:25.365 101:22.14 102:19.79 103:18.233 104:17.753 105:16.561 106:14.808 107:13.965 108:13.813 109:13.909 110:14.704 111:17.43 112:19.547 113:20.01 114:18.02 115:17.408 116:18.842 117:17.29 118:18.426 119:20.602 120:23.015 121:23.948 122:27.55 123:30.449 124:29.813 125:26.992 126:25.048 127:23.431 128:22.728 129:21.231 130:18.157 131:15.971 132:15.227 133:14.588 134:14.478 135:15.264 136:17.256 137:18.63 138:18.661 139:17.181 140:16.398 141:18.839 142:17.22 143:15.964 144:19.172 145:23.178 146:25.012 147:24.577 148:27.087 149:30.062 150:31.861 151:32.287 152:30.599 153:27.148 154:24.824 155:18.244 156:18.253 157:16.338 158:14.43 159:13.529 160:12.743 161:12.446 162:12.927 163:15.533 164:15.977 165:17.657 166:16.727 167:13.429 168:11.725 169:17.513 170:22.372 171:22.084 172:21.574 173:21.522 174:23.529 175:25.381 176:28.6 177:31.024 178:31.553 179:26.531 180:21.854 181:19.381 182:18.51 183:16.929 184:15.323 185:14.543 186:14.6 187:14.274 188:13.028 189:12.054 190:12.064 191:11.987 192:11.792 193:11.657 194:11.093 195:10.895 196:11.939 197:13.593 198:15.186 199:21.015 200:25.357 201:27.465 202:26.608 203:26.803 204:26.636 205:25.212 206:24.591 207:25.176 208:25.757 209:23.382 210:18.937 211:15.572 212:14.077 213:13.599 214:13.429 215:14.426 216:16.459 217:18.398 218:19.617 219:20.04 220:19.21 221:17.468 222:15.364 223:12.484 224:9.522 225:14.327 226:18.745 227:22.196 228:25.368 229:26.819 230:25.892 231:26.286 232:27.028 233:29.365 234:31.024 235:30.047 236:25.028 237:20.675 238:18.121 239:16.671 240:15.78 241:14.475 242:13.411 243:13.009 244:13.48 245:13.863 246:14.351 247:15.022 248:15.955 249:15.845 250:14.735 251:13.845 
0.0019447867956517255 1:21.696 2:16.209 3:12.584 4:11.289 5:11.946 6:14.017 7:16.744 8:19.234 9:20.629 10:20.111 11:17.777 12:14.675 13:12.108 14:12.372 15:18.69 16:23.555 17:24.011 18:25.963 19:28.504 20:27.426 21:27.388 22:28.883 23:29.366 24:28.255 25:25.18 26:20.526 27:16.445 28:14.733 29:15.647 30:16.663 31:17.441 32:17.957 33:18.37 34:18.297 35:17.633 36:16.277 37:14.1 38:12.508 39:13.212 40:15.813 41:17.65 42:20.649 43:23.942 44:26.017 45:28.581 46:29.824 47:29.846 48:30.534 49:30.734 50:28.407 51:25.698 52:23.768 53:20.39 54:17.102 55:13.893 56:12.159 57:12.55 58:14.77 59:17.484 60:18.575 61:17.929 62:16.671 63:15.036 64:13.204 65:13.985 66:17.256 67:19.34 68:18.906 69:21.085 70:24.615 71:25.361 72:25.32 73:26.318 74:28.212 75:28.8 76:27.137 77:23.005 78:17.989 79:14.267 80:12.413 81:11.003 82:11.463 83:13.015 84:14.956 85:16.685 86:16.924 87:16.2 88:14.883 89:13.802 90:15.521 91:19.151 92:20.312 93:22.075 94:23.432 95:24.654 96:26.46 97:28.768 98:29.38 99:28.686 100:25.81 101:21.403 102:17.522 103:14.004 104:10.447 105:11.164 106:13.778 107:14.673 108:15.096 109:15.376 110:14.526 111:12.904 112:15.368 113:21.223 114:22.694 115:22.394 116:24.839 117:25.218 118:26.187 119:27.771 120:29.964 121:31.768 122:32.333 123:28.774 124:25.463 125:23.96 126:20.821 127:17.392 128:16.588 129:16.373 130:16.585 131:17.358 132:18.245 133:18.39 134:17.704 135:16.263 136:14.574 137:15.842 138:19.006 139:23.257 140:24.405 141:24.466 142:27.805 143:29.653 144:29.539 145:30.593 146:30.858 147:28.898 148:25.789 149:22.22 150:18.251 151:15.338 152:12.693 153:10.735 154:10.145 155:10.574 156:12.224 157:14.698 158:16.573 159:16.958 160:15.679 161:13.653 162:13.136 163:16.362 164:22.863 165:24.089 166:24.967 167:26.08 168:28.104 169:29.728 170:27.957 171:26.467 172:25.044 173:22.578 174:20.784 175:19.249 176:16.754 177:15.357 178:14.624 179:14.166 180:13.93 181:13.907 182:14.073 183:14.506 184:14.699 185:14.322 186:13.334 187:12.719 188:15.289 189:20.823 190:25.612 191:24.19 192:26.623 193:25.597 194:21.191 195:21.123 196:23.762 197:26.17 198:25.901 199:23.28 200:18.6 201:14.712 202:13.101 203:12.496 204:13.647 205:16.535 206:20.07 207:21.362 208:20.236 209:18.402 210:16.63 211:15.122 212:14.549 213:17.003 214:21.535 215:21.975 216:24.781 217:26.001 218:26.915 219:27.971 220:27.962 221:28.3 222:28.54 223:27.106 224:22.034 225:16.435 226:11.717 227:9.1597 228:10.086 229:12.3 230:15.173 231:17.53 232:18.663 233:18.24 234:17.025 235:15.409 236:13.593 237:10.386 238:10.622 239:15.886 240:18.267 241:19.25 242:20.638 243:22.539 244:23.667 245:26.004 246:28.372 247:29.675 248:29.021 249:27.513 250:23.233 251:18.441 
5.438051880401429E-4 1:18.441 2:14.49 3:14.161 4:14.85 5:16.202 6:17.456 7:18.501 8:18.655 9:18.132 10:17.366 11:16.086 12:13.769 13:14.265 14:18.441 15:22.171 16:22.5 17:23.228 18:25.445 19:27.156 20:24.817 21:21.98 22:21.472 23:23.915 24:25.697 25:23.324 26:19.893 27:17.721 28:16.375 29:15.413 30:14.896 31:15.871 32:16.702 33:17.517 34:18.147 35:17.508 36:15.773 37:13.157 38:10.12 39:10.735 40:15.841 41:15.301 42:17.065 43:19.418 44:22.28 45:22.056 46:22.501 47:25.999 48:26.688 49:26.498 50:25.027 51:23.366 52:20.033 53:20.022 54:17.224 55:15.201 56:14.299 57:14.351 58:14.205 59:13.648 60:13.118 61:12.419 62:11.393 63:13.016 64:18.694 65:20.388 66:18.7 67:19.048 68:19.939 69:22.268 70:26.18 71:28.706 72:30.227 73:30.118 74:27.314 75:24.506 76:20.963 77:16.578 78:13.232 79:12.615 80:13.474 81:14.07 82:14.569 83:15.614 84:17.35 85:17.507 86:15.988 87:13.838 88:12.766 89:18.213 90:18.208 91:18.508 92:19.494 93:18.933 94:20.967 95:20.143 96:19.78 97:22.717 98:25.583 99:26.84 100:24.792 101:20.854 102:16.827 103:13.328 104:12.559 105:12.492 106:11.986 107:12.077 108:12.086 109:11.97 110:12.117 111:12.182 112:11.744 113:10.841 114:9.368 115:10.145 116:15.931 117:23.067 118:24.021 119:25.607 120:28.85 121:27.061 122:24.17 123:24.668 124:26.672 125:27.669 126:25.7 127:20.776 128:16.382 129:14.683 130:14.604 131:14.517 132:14.211 133:13.908 134:14.278 135:14.836 136:14.754 137:13.788 138:11.863 139:10.441 140:10.067 141:12.955 142:16.528 143:19.095 144:20.232 145:21.109 146:22.593 147:24.419 148:24.258 149:23.762 150:24.472 151:23.78 152:22.219 153:19.364 154:16.687 155:15.322 156:14.157 157:13.539 158:14.104 159:15.144 160:15.055 161:13.304 162:11.004 163:9.5398 164:8.6541 165:6.9605 166:8.5966 167:14.569 168:19.084 169:18.914 170:21.214 171:22.216 172:24.322 173:26.244 174:27.025 175:28.236 176:30.585 177:30.853 178:29.038 179:24.81 180:20.284 181:17.234 182:15.032 183:13.959 184:12.507 185:11.73 186:13.719 187:16.421 188:17.415 189:17.517 190:17.048 191:15.628 192:12.128 193:10.303 194:12.771 195:17.263 196:20.186 197:22.68 198:25.089 199:25.843 200:26.706 201:29.458 202:30.982 203:31.119 204:30.025 205:26.918 206:23.532 207:19.281 208:15.419 209:13.144 210:11.803 211:11.618 212:13.123 213:15.436 214:16.833 215:17.469 216:17.578 217:16.538 218:14.675 219:11.812 220:10.438 221:13.023 222:17.999 223:22.982 224:24.72 225:26.461 226:25.461 227:22.745 228:22.688 229:24.703 230:26.978 231:25.715 232:23.472 233:20.297 234:17.61 235:15.72 236:13.913 237:12.267 238:11.356 239:10.946 240:10.526 241:9.9166 242:9.12 243:8.242 244:7.4189 245:6.3707 246:6.8947 247:14.898 248:18.605 249:20.891 250:22.574 251:23.899 
0.0012757857357255844 1:28.337 2:30.725 3:31.961 4:30.829 5:27.409 6:22.965 7:19.315 8:16.728 9:14.941 10:14.175 11:15.206 12:17.78 13:20.209 14:21.555 15:21.702 16:20.733 17:18.442 18:15.78 19:12.702 20:11.847 21:16.719 22:20.931 23:21.796 24:21.88 25:23.345 26:24.445 27:25.477 28:26.274 29:27.304 30:27.673 31:27.712 32:24.025 33:19.316 34:15.114 35:13.661 36:12.328 37:11.715 38:12.345 39:13.245 40:13.664 41:13.715 42:13.666 43:13.849 44:13.482 45:11.719 46:9.9233 47:13.43 48:19.518 49:22.536 50:21.473 51:22.479 52:24.183 53:25.742 54:27.807 55:30.435 56:32.06 57:31.672 58:27.862 59:24.224 60:20.542 61:17.594 62:16.207 63:15.984 64:17.265 65:18.758 66:19.748 67:21.011 68:22.715 69:22.303 70:19.44 71:15.774 72:14.053 73:16.173 74:18.92 75:20.467 76:21.655 77:23.875 78:25.702 79:28.512 80:31.055 81:32.483 82:30.845 83:27.131 84:22.163 85:16.852 86:11.816 87:10.691 88:12.718 89:14.662 90:15.972 91:17.668 92:19.224 93:19.52 94:18.61 95:16.632 96:13.935 97:11.882 98:15.1 99:19.613 100:22.014 101:24.714 102:25.292 103:25.662 104:26.464 105:27.28 106:29.73 107:30.709 108:30.032 109:26.57 110:23.558 111:20.105 112:17.205 113:14.587 114:12.403 115:12.162 116:12.762 117:13.17 118:13.75 119:14.756 120:14.984 121:14.7 122:13.871 123:12.746 124:15.566 125:20.531 126:21.238 127:20.08 128:20.562 129:22.105 130:22.626 131:22.631 132:24.948 133:27.232 134:27.583 135:26.087 136:23.706 137:21.711 138:19.159 139:16.191 140:13.515 141:12.775 142:13.23 143:13.796 144:14.587 145:15.116 146:14.817 147:13.616 148:12.438 149:10.942 150:10.027 151:12.553 152:18.099 153:24.338 154:25.507 155:24.794 156:25.067 157:24.883 158:24.945 159:28.778 160:29.655 161:27.795 162:24.752 163:21.726 164:19.522 165:17.667 166:15.204 167:13.994 168:14.818 169:16.447 170:18.894 171:21.704 172:23.001 173:20.84 174:17.788 175:15.457 176:16.046 177:20.285 178:21.158 179:22.084 180:22.154 181:22.338 182:23.492 183:25.044 184:27.643 185:29.19 186:29.172 187:26.244 188:22.738 189:20.588 190:18.937 191:17.47 192:15.415 193:14.736 194:15.401 195:16.885 196:17.644 197:17.3 198:16.662 199:16.425 200:16.825 201:15.996 202:16.953 203:17.469 204:18.244 205:19.372 206:19.792 207:19.643 208:19.912 209:21.766 210:25.202 211:27.01 212:26.914 213:24.252 214:21.906 215:19.647 216:16.981 217:15.486 218:14.936 219:15.615 220:17.111 221:18.46 222:18.584 223:18.015 224:16.899 225:14.906 226:12.87 227:15.354 228:19.049 229:20.488 230:20.27 231:20.964 232:21.693 233:22.938 234:25.216 235:26.796 236:28.527 237:29.077 238:28.78 239:27.394 240:25.283 241:22.03 242:18.394 243:14.507 244:12.74 245:11.528 246:11.58 247:12.262 248:13.326 249:14.62 250:16.329 251:18.052 
6.146048426662991E-4 1:21.855 2:16.587 3:13.63 4:12.694 5:13.429 6:14.444 7:14.034 8:12.765 9:12.077 10:12.542 11:13.766 12:14.259 13:12.895 14:10.816 15:12.544 16:17.429 17:19.03 18:19.64 19:20.341 20:20.682 21:19.655 22:20.015 23:22.494 24:25.065 25:26.015 26:22.269 27:16.374 28:11.675 29:10.455 30:11.711 31:13.815 32:15.386 33:16.547 34:17.426 35:17.457 36:16.442 37:14.545 38:12.294 39:11.103 40:12.631 41:16.717 42:18.569 43:21.336 44:24.103 45:24.234 46:23.498 47:23.271 48:23.638 49:25.376 50:26.456 51:26.139 52:20.314 53:13.346 54:8.4726 55:8.45 56:12.173 57:16.102 58:18.564 59:19.826 60:20.506 61:20.5 62:19.276 63:16.822 64:13.519 65:10.251 66:12.615 67:18.666 68:21.701 69:25.521 70:28.86 71:27.312 72:26.066 73:27.506 74:27.917 75:29.217 76:29.545 77:27.493 78:22.383 79:17.342 80:13.296 81:10.827 82:9.4623 83:9.5759 84:11.455 85:13.653 86:14.885 87:15.444 88:16.466 89:17.273 90:15.318 91:11.171 92:9.3534 93:12.373 94:17.569 95:20.185 96:20.458 97:20.96 98:22.29 99:23.93 100:24.918 101:26.364 102:27.189 103:24.556 104:19.548 105:14.8 106:11.859 107:10.923 108:11.581 109:13.336 110:15.151 111:16.543 112:17.171 113:17.177 114:16.738 115:15.664 116:13.926 117:11.998 118:12.168 119:17.665 120:21.954 121:25.003 122:26.529 123:26.987 124:26.929 125:27.285 126:25.787 127:24.678 128:24.62 129:22.785 130:20.624 131:18.696 132:17.528 133:15.918 134:15.446 135:19.255 136:20.537 137:20.359 138:20.597 139:20.07 140:18.756 141:16.774 142:16.719 143:17.301 144:21.296 145:20.635 146:21.429 147:25.207 148:28.85 149:28.517 150:27.133 151:27.463 152:28.021 153:26.562 154:22.658 155:18.968 156:16.961 157:16.296 158:15.832 159:15.099 160:14.462 161:14.226 162:14.689 163:15.384 164:16.193 165:16.899 166:17.094 167:16.019 168:13.552 169:12.814 170:15.974 171:21.544 172:26.543 173:26.533 174:26.138 175:26.668 176:27.465 177:29.644 178:30.927 179:30.236 180:27.504 181:24.618 182:21.198 183:18.245 184:15.049 185:14.042 186:15.011 187:16.454 188:17.987 189:19.365 190:20.02 191:19.736 192:18.405 193:16.197 194:14.616 195:15.417 196:18.062 197:22.5 198:27.285 199:26.612 200:26.437 201:28.707 202:27.71 203:26.489 204:25.54 205:22.139 206:17.556 207:14.572 208:14.044 209:14.993 210:15.038 211:15.148 212:16.226 213:17.173 214:17.3 215:17.21 216:17.002 217:16.673 218:16.013 219:15.38 220:14.793 221:15.886 222:18.256 223:22.729 224:27.624 225:30.611 226:27.931 227:26.725 228:27.22 229:27.548 230:26.619 231:24.981 232:23.62 233:23.324 234:22.68 235:21.208 236:19.429 237:18.922 238:19.562 239:20.103 240:20.798 241:21.718 242:21.976 243:21.136 244:19.678 245:19.001 246:18.261 247:18.617 248:20.959 249:23.975 250:25.228 251:25.337 
0.0016607244307446265 1:25.337 2:26.328 3:26.703 4:26.835 5:27.701 6:27.973 7:25.915 8:22.537 9:18.909 10:16.366 11:14.831 12:12.314 13:10.883 14:11.112 15:13.871 16:15.859 17:17.947 18:18.84 19:18.527 20:17.157 21:14.973 22:15.404 23:18.238 24:22.993 25:26.998 26:26.41 27:25.273 28:22.86 29:21.973 30:23.146 31:26.609 32:29.131 33:26.922 34:22.535 35:19.252 36:17.757 37:15.942 38:15.017 39:14.933 40:15.833 41:17.039 42:18.285 43:18.673 44:16.943 45:15.003 46:13.595 47:14.36 48:16.43 49:16.271 50:18.79 51:24.785 52:26.225 53:25.921 54:27.138 55:26.241 56:24.736 57:24.713 58:25.333 59:24.029 60:21.282 61:18.344 62:15.478 63:12.945 64:12.421 65:15.954 66:20.144 67:22.588 68:22.706 69:22.749 70:22.918 71:22.42 72:20.607 73:18.786 74:19.83 75:24.532 76:28.221 77:27.991 78:27.22 79:27.053 80:27.252 81:26.926 82:27.485 83:27.83 84:24.922 85:21.022 86:18.055 87:17.099 88:17.434 89:17.237 90:17.759 91:18.856 92:20.155 93:21.384 94:21.741 95:21.245 96:19.893 97:17.842 98:15.695 99:16.275 100:19.033 101:21.19 102:23.905 103:24.197 104:25.019 105:26.771 106:24.702 107:25.463 108:28.097 109:28.666 110:28.303 111:24.796 112:19.717 113:15.731 114:13.86 115:14.11 116:15.426 117:17.747 118:20.623 119:23.504 120:25.182 121:25.378 122:23.933 123:21.491 124:18.216 125:17.127 126:18.407 127:21.193 128:20.845 129:20.484 130:23.037 131:24.801 132:23.779 133:25.277 134:28.848 135:31.119 136:32.093 137:31.14 138:28.287 139:23.471 140:18.666 141:15.335 142:14.561 143:16.089 144:18.814 145:21.085 146:22.475 147:22.804 148:21.903 149:20.093 150:16.057 151:14.62 152:13.698 153:15.828 154:18.595 155:22.834 156:25.325 157:24.118 158:25.283 159:27.443 160:27.718 161:28.738 162:29.356 163:28.8 164:24.94 165:20.05 166:16.598 167:14.455 168:14.195 169:15.528 170:17.475 171:19.187 172:20.722 173:21.184 174:20.347 175:19.169 176:17.386 177:15.339 178:14.596 179:15.394 180:17.708 181:20.69 182:24.817 183:26.2 184:25.754 185:25.592 186:25.663 187:27.565 188:29.342 189:30.16 190:28.784 191:25.553 192:19.98 193:14.807 194:12.169 195:12.576 196:15.168 197:18.47 198:21.286 199:22.478 200:22.421 201:21.439 202:16.409 203:15.37 204:17.101 205:19.402 206:19.393 207:21.619 208:24.766 209:26.102 210:26.466 211:28.985 212:30.073 213:30.19 214:29.602 215:27.835 216:24.785 217:19.966 218:14.921 219:11.887 220:10.659 221:13.701 222:18.591 223:21.709 224:21.445 225:19.277 226:17.776 227:17.073 228:16.153 229:14.622 230:14.449 231:19.324 232:24.227 233:26.737 234:26.797 235:26.941 236:25.881 237:24.363 238:24.105 239:25.049 240:26.464 241:24.372 242:19.935 243:15.702 244:13.15 245:12.33 246:12.76 247:13.985 248:15.702 249:17.787 250:19.533 251:19.678 
2.640870843566299E-4 1:19.976 2:20.745 3:21.274 4:21.628 5:23.456 6:27.779 7:30.662 8:29.656 9:25.808 10:20.202 11:16.322 12:14.582 13:14.127 14:14.654 15:15.833 16:17.384 17:19.4 18:21.041 19:20.758 20:18.739 21:15.83 22:14.556 23:16.34 24:21.636 25:23.172 26:23.828 27:26.061 28:27.576 29:25.303 30:22.685 31:22.598 32:24.926 33:24.922 34:22.413 35:17.217 36:13.293 37:11.542 38:9.9473 39:9.9498 40:11.02 41:13.236 42:14.898 43:14.47 44:12.731 45:14.273 46:19.466 47:21.925 48:22.076 49:22.266 50:21.479 51:21.817 52:23.584 53:26.062 54:26.873 55:25.337 56:23.672 57:21.864 58:18.899 59:14.68 60:11.271 61:10.394 62:11.341 63:12.436 64:13.205 65:15.082 66:17.66 67:19.218 68:18.633 69:16.02 70:18.837 71:22.582 72:23.239 73:24.496 74:23.213 75:21.561 76:22.977 77:25.877 78:26.987 79:27.086 80:25.062 81:24.174 82:23.943 83:21.647 84:18.408 85:17.859 86:18.964 87:20.221 88:21.375 89:22.561 90:23.129 91:22.056 92:18.501 93:14.978 94:17.393 95:23.184 96:23.778 97:23.658 98:27.072 99:27.326 100:25.599 101:26.694 102:27.139 103:24.181 104:19.228 105:15.455 106:14.347 107:15.465 108:19.12 109:22.162 110:21.823 111:18.911 112:15.796 113:14.632 114:15.594 115:17.269 116:18.511 117:19.933 118:19.626 119:18.78 120:19.36 121:19.983 122:22.125 123:27.165 124:30.358 125:32.068 126:31.281 127:27.207 128:22.872 129:19.302 130:15.344 131:11.233 132:9.0658 133:9.4674 134:11.731 135:14.443 136:16.087 137:16.857 138:17.238 139:16.985 140:15.698 141:13.648 142:10.512 143:8.5033 144:12.613 145:18.55 146:20.062 147:21.752 148:25.011 149:26.035 150:25.164 151:24.968 152:25.719 153:26.205 154:23.702 155:18.524 156:13.327 157:9.9451 158:8.1314 159:7.7836 160:8.9376 161:11.445 162:15.091 163:18.447 164:17.566 165:15.797 166:13.302 167:9.8036 168:11.282 169:15.534 170:18.347 171:20.942 172:24.282 173:27.354 174:27.533 175:24.959 176:23.584 177:24.235 178:22.854 179:19.31 180:14.669 181:10.742 182:8.943 183:8.7703 184:10.555 185:13.17 186:14.505 187:14.179 188:13.678 189:13.173 190:11.976 191:10.335 192:7.1356 193:6.5826 194:14.172 195:19.461 196:22.281 197:23.953 198:25.181 199:24.821 200:23.508 201:23.469 202:24.877 203:24.571 204:21.469 205:17.974 206:15.5 207:13.852 208:12.098 209:11.81 210:12.827 211:13.405 212:12.992 213:12.126 214:11.238 215:10.277 216:9.3005 217:8.5568 218:12.324 219:17.309 220:19.123 221:20.782 222:22.36 223:23.204 224:22.903 225:22.341 226:22.732 227:23.385 228:23.187 229:21.917 230:18.915 231:14.928 232:11.792 233:9.2782 234:7.9252 235:7.6563 236:8.1013 237:9.1669 238:10.577 239:11.754 240:12.223 241:11.608 242:10.342 243:8.7325 244:11.595 245:16.53 246:20.12 247:23.906 248:25.119 249:24.29 250:24.181 251:25.473 
8.473660233351343E-4 1:25.473 2:26.614 3:25.293 4:21.742 5:17.963 6:15.454 7:13.809 8:12.249 9:11.725 10:12.209 11:12.68 12:12.407 13:11.934 14:11.355 15:10.979 16:10.166 17:8.4318 18:7.6752 19:11.503 20:16.941 21:18.619 22:19.393 23:21.679 24:24.079 25:25.841 26:27.13 27:27.918 28:27.985 29:25.617 30:21.846 31:18.004 32:14.154 33:11.016 34:8.591 35:7.0984 36:7.1967 37:8.5976 38:9.9473 39:10.545 40:10.87 41:11.208 42:11.023 43:9.2124 44:6.0748 45:8.9422 46:15.35 47:18.504 48:20.092 49:20.996 50:21.231 51:21.315 52:22.898 53:25.743 54:26.468 55:24.879 56:20.811 57:16.542 58:13.398 59:10.521 60:10.475 61:12.02 62:13.914 63:14.929 64:14.676 65:14.093 66:13.029 67:11.68 68:8.7161 69:7.7312 70:16.668 71:20.739 72:20.86 73:23.504 74:27.087 75:27.869 76:26.062 77:22.434 78:18.442 79:16.832 80:16.796 81:16.479 82:15.481 83:14.373 84:12.351 85:11.119 86:11.115 87:11.383 88:11.369 89:11.052 90:10.706 91:10.178 92:8.8971 93:6.5073 94:10.734 95:18.172 96:21.911 97:22.468 98:24.027 99:25.649 100:25.135 101:24.58 102:24.851 103:23.407 104:21.77 105:20.846 106:19.689 107:16.999 108:13.434 109:11.112 110:11.311 111:12.47 112:13.85 113:15.316 114:16.174 115:15.743 116:13.977 117:10.744 118:9.4004 119:16.624 120:20.245 121:20.066 122:20.425 123:21.541 124:23.126 125:24.977 126:26.986 127:27.741 128:25.426 129:21.64 130:17.328 131:13.564 132:10.646 133:9.0183 134:8.4894 135:10.012 136:11.836 137:12.927 138:13.129 139:12.596 140:11.092 141:8.7978 142:6.3121 143:10.634 144:17.079 145:19.408 146:20.8 147:22.466 148:24.001 149:24.348 150:24.426 151:24.84 152:24.032 153:22.552 154:20.201 155:17.137 156:13.897 157:11.075 158:10.389 159:11.377 160:12.904 161:14.081 162:14.886 163:15.45 164:15.078 165:13.382 166:10.194 167:8.3283 168:14.347 169:19.313 170:20.143 171:20.922 172:22.551 173:24.748 174:26.444 175:28.133 176:28.802 177:27.211 178:23.131 179:18.88 180:16.795 181:15.209 182:13.955 183:13.487 184:13.718 185:13.763 186:13.809 187:14.127 188:14.368 189:14.02 190:12.713 191:10.227 192:12.505 193:17.627 194:19.257 195:20.189 196:22.226 197:24.593 198:24.915 199:24.991 200:26.988 201:28.272 202:27.329 203:22.93 204:17.635 205:13.376 206:11.047 207:9.8726 208:9.438 209:9.8674 210:11.64 211:14.143 212:16.607 213:17.898 214:17.806 215:16.727 216:14.5 217:10.698 218:10.282 219:17.326 220:21.53 221:23.444 222:24.985 223:25.753 224:24.72 225:24.33 226:25.376 227:25.072 228:22.126 229:17.826 230:13.755 231:11.812 232:10.628 233:10.098 234:11.052 235:12.653 236:13.88 237:14.591 238:14.129 239:12.279 240:9.452 241:8.2795 242:10.96 243:12.861 244:16.763 245:19.591 246:20.836 247:23.321 248:27.244 249:29.193 250:28.193 251:27.736 
-2.969476928061136E-5 1:17.023 2:13.6 3:11.119 4:9.8668 5:9.2586 6:8.9889 7:8.8685 8:8.5027 9:7.9109 10:7.6682 11:8.1608 12:9.165 13:10.786 14:13.447 15:17.135 16:21.98 17:23.098 18:23.546 19:27.51 20:30.458 21:32.094 22:29.68 23:25.128 24:20.884 25:16.89 26:13.23 27:10.158 28:7.9603 29:6.9912 30:7.1607 31:8.5795 32:10.162 33:10.957 34:10.529 35:9.2977 36:7.6491 37:6.6342 38:8.7882 39:15.49 40:21.813 41:23.156 42:24.003 43:27.856 44:29.346 45:29.962 46:27.133 47:19.548 48:16.066 49:12.229 50:9.5787 51:8.2046 52:8.0102 53:8.6016 54:9.3637 55:9.8201 56:9.9759 57:10.297 58:10.371 59:10.039 60:12.563 61:17.775 62:22.69 63:22.52 64:24.032 65:27.789 66:29.543 67:29.789 68:28.56 69:27.518 70:26.303 71:23.939 72:20.447 73:16.533 74:13.01 75:9.9101 76:8.7307 77:9.8597 78:11.523 79:11.656 80:11.263 81:11.333 82:11.524 83:12.174 84:14.545 85:17.152 86:21.473 87:22.627 88:23.352 89:27.136 90:29.412 91:29.958 92:27.597 93:24.549 94:21.125 95:17.13 96:12.917 97:9.5502 98:8.3898 99:9.3627 100:11.572 101:12.513 102:11.829 103:10.946 104:10.163 105:9.1992 106:8.112 107:8.5305 108:13.004 109:20.471 110:24.004 111:23.854 112:27.128 113:29.451 114:30.436 115:27.384 116:24.648 117:21.226 118:17.062 119:12.574 120:9.0526 121:7.7379 122:8.2056 123:9.8006 124:10.436 125:9.868 126:9.2459 127:8.9483 128:8.5623 129:7.9065 130:7.151 131:8.6899 132:13.392 133:17.636 134:22.772 135:23.722 136:24.309 137:27.853 138:30.207 139:30.571 140:28.079 141:23.861 142:19.382 143:15.353 144:11.955 145:9.3785 146:7.8445 147:7.2738 148:7.3992 149:8.1396 150:9.3271 151:10.013 152:10.116 153:10.208 154:9.6933 155:8.6123 156:9.6058 157:14.518 158:20.372 159:23.505 160:23.188 161:26.325 162:28.872 163:30.118 164:28.618 165:23.947 166:19.872 167:16.844 168:14.428 169:11.85 170:9.3192 171:6.9153 172:5.7193 173:6.7731 174:8.7352 175:10.139 176:10.712 177:10.381 178:9.5582 179:8.5579 180:7.5003 181:7.3982 182:14.012 183:22.096 184:23.765 185:24.839 186:28.563 187:30.533 188:31.407 189:28.265 190:23.981 191:20.095 192:16.632 193:13.717 194:11.423 195:9.4282 196:8.5298 197:9.035 198:9.9653 199:10.009 200:9.6932 201:9.2605 202:8.8513 203:8.2713 204:7.4345 205:6.8495 206:8.9136 207:15.127 208:22.649 209:24.503 210:24.953 211:28.372 212:29.708 213:30.678 214:28.078 215:25.274 216:22.481 217:15.866 218:12.83 219:10.878 220:10.802 221:11.864 222:12.984 223:12.876 224:11.666 225:10.105 226:9.4364 227:9.2895 228:9.7492 229:10.666 230:13.326 231:18.838 232:25.305 233:23.061 234:27.026 235:29.632 236:29.353 237:25.965 238:23.814 239:22.611 240:20.578 241:16.824 242:12.508 243:9.3706 244:8.3266 245:8.7355 246:9.2096 247:9.3829 248:9.0216 249:8.2735 250:7.6467 251:7.3806 
-5.540337028653159E-5 1:21.617 2:22.021 3:22.14 4:21.774 5:20.32 6:18.467 7:16.676 8:14.821 9:12.995 10:11.221 11:9.5907 12:8.2764 13:7.1108 14:6.211 15:5.6794 16:5.6579 17:5.8616 18:6.2092 19:6.4858 20:6.4918 21:5.9846 22:4.9379 23:3.1822 24:2.0512 25:3.0975 26:6.2942 27:11.459 28:15.393 29:17.387 30:18.441 31:18.989 32:19.354 33:20.038 34:20.942 35:21.375 36:19.854 37:17.47 38:15.391 39:13.873 40:12.662 41:11.424 42:10.002 43:8.4176 44:6.8923 45:5.5257 46:4.8096 47:4.453 48:4.4848 49:4.7128 50:4.9221 51:5.2419 52:5.5498 53:5.6315 54:5.1644 55:4.4305 56:3.9685 57:4.7838 58:8.324 59:12.498 60:16.902 61:19.38 62:22.982 63:26.358 64:27.849 65:25.794 66:23.757 67:22.488 68:21.114 69:18.873 70:15.717 71:12.291 72:9.0904 73:6.5382 74:5.1918 75:5.28 76:5.953 77:6.5726 78:6.9504 79:7.016 80:6.5812 81:5.5096 82:4.5179 83:4.5376 84:6.0302 85:9.3876 86:12.756 87:15.956 88:17.646 89:19.238 90:21.173 91:22.81 92:23.756 93:24.138 94:22.74 95:20.576 96:18.246 97:15.759 98:13.054 99:10.404 100:8.0826 101:6.6312 102:5.9801 103:5.6891 104:5.3675 105:5.0734 106:4.9853 107:5.3093 108:5.5877 109:5.4507 110:4.839 111:4.6584 112:4.9712 113:8.2397 114:13.75 115:16.732 116:18.067 117:19.642 118:21.401 119:22.089 120:21.737 121:21.27 122:20.412 123:19.39 124:17.872 125:15.877 126:13.516 127:11.15 128:9.2567 129:7.8519 130:6.7472 131:6.0818 132:5.6391 133:5.3837 134:5.2263 135:4.9964 136:4.6628 137:4.0709 138:3.0712 139:1.5809 140:0.56972 141:3.0159 142:5.8303 143:9.5779 144:14.22 145:16.892 146:18.037 147:19.476 148:21.347 149:22.711 150:23.284 151:22.347 152:20.306 153:18.072 154:16.008 155:13.889 156:11.929 157:10.022 158:8.2293 159:6.6619 160:5.3711 161:4.5261 162:4.268 163:4.517 164:5.1069 165:5.745 166:6.1022 167:5.818 168:5.2205 169:4.4512 170:3.9196 171:6.6509 172:11.496 173:16.432 174:17.854 175:18.423 176:20.553 177:23.238 178:23.165 179:20.853 180:18.194 181:16.248 182:14.904 183:13.542 184:11.883 185:10.234 186:8.7422 187:7.42 188:6.2296 189:5.3157 190:5.0216 191:5.0818 192:5.6022 193:6.2061 194:6.5349 195:6.1517 196:5.1127 197:3.0693 198:3.3673 199:9.588 200:15.484 201:18.068 202:18.896 203:21.44 204:23.773 205:25.314 206:25.389 207:23.927 208:22.283 209:20.85 210:18.966 211:16.542 212:13.858 213:11.243 214:9.0201 215:7.3185 216:6.195 217:5.5268 218:5.4082 219:5.6192 220:6.0443 221:6.3221 222:6.3856 223:6.0039 224:5.0849 225:3.8605 226:3.3744 227:4.7746 228:7.97 229:12.293 230:16.845 231:20.106 232:21.048 233:20.233 234:22.057 235:24.649 236:25.551 237:23.819 238:21.345 239:19.563 240:18.057 241:15.909 242:13.097 243:10.255 244:8.1145 245:6.6229 246:6.028 247:6.0565 248:6.4275 249:7.2223 250:7.9574 251:8.1303 
