svm_type c_svc
kernel_type rbf
gamma 0.04
nr_class 2
total_sv 263
rho 0.6244985524912495
label 1 0
nr_sv 90 173
SV
1.0 1:1.0111 2:-4.3387 3:-3.4074 4:-1.2235 5:-3.7394 6:-5.8174 7:-2.7371 8:-3.2285 9:-4.5546 10:-4.9827 11:-4.0398 12:-2.0956 13:-0.43542 14:0.053098 15:-0.10162 16:0.53137 17:1.1518 18:2.1467 19:2.404 20:2.2751 21:2.6983 22:3.1308 23:2.6022 24:2.102 25:1.764 
1.0 1:2.8353 2:4.9756 3:9.0616 4:13.7114 5:8.1098 6:4.0138 7:0.31936 8:-1.6756 9:0.11233 10:-1.5119 11:0.90505 12:-0.9664 13:-0.74829 14:-3.7782 15:-4.9598 16:-3.784 17:-1.2568 18:2.1509 19:2.7805 20:4.1551 21:3.8922 22:3.3854 23:3.5118 24:3.3858 25:1.6819 
0.4229041159986756 1:-1.2174 2:-2.2545 3:-3.36 4:-3.6358 5:-4.0304 6:-4.1571 7:-3.2987 8:-2.3959 9:-2.0672 10:-0.9696 11:-0.025221 12:-1.3503 13:-1.3989 14:-0.74532 15:-0.73067 16:-0.46189 17:-0.3452 18:-0.18799 19:-0.019055 20:0.058752 21:0.03838 22:0.081233 23:0.09528 24:0.087271 25:-0.60267 
1.0 1:-2.1603 2:0.51839 3:-3.2673 4:-1.2358 5:-3.8186 6:-4.0049 7:-4.7059 8:-4.925 9:-3.6245 10:-2.2427 11:-2.1207 12:0.082259 13:2.8356 14:1.5346 15:0.49346 16:-0.20903 17:0.21135 18:0.26373 19:-0.22052 20:-1.0688 21:-0.19291 22:-1.0207 23:-0.32555 24:0.52983 25:-2.7928 
1.0 1:3.1159 2:4.7802 3:1.3333 4:-2.0437 5:-2.4975 6:1.0147 7:-3.1014 8:2.2184 9:2.4081 10:-2.6691 11:-6.9749 12:-6.9631 13:-6.3869 14:-4.0987 15:-3.437 16:-0.21665 17:-4.1674 18:-2.8355 19:-1.048 20:-0.99516 21:-4.352 22:-9.4475 23:-3.9408 24:-1.9033 25:1.7904 
1.0 1:-7.5234 2:-7.1492 3:-3.1459 4:-0.73015 5:-3.0408 6:-1.877 7:-1.6675 8:-4.4106 9:-7.5053 10:-6.0156 11:-8.2887 12:-1.8005 13:-0.83019 14:-1.651 15:-1.185 16:-0.087402 17:0.94956 18:2.1226 19:1.3726 20:0.16239 21:-0.92445 22:-0.26822 23:1.0225 24:0.28755 25:-7.6493 
1.0 1:-1.1928 2:0.69719 3:10.3309 4:3.4678 5:1.7307 6:0.26554 7:-0.34252 8:-0.43856 9:0.028009 10:0.3187 11:0.80219 12:1.0792 13:1.22 14:1.1316 15:1.5768 16:1.2832 17:0.74911 18:0.84835 19:1.5862 20:0.4591 21:0.84557 22:0.81475 23:0.41529 24:0.18685 25:-5.3316 
1.0 1:2.8139 2:3.4064 3:2.2229 4:-1.6881 5:-4.6674 6:-3.3401 7:-0.71467 8:0.82432 9:4.6232 10:-1.4613 11:-7.0789 12:-7.4371 13:-8.8656 14:-5.3053 15:-2.8937 16:-2.4168 17:-4.3419 18:-2.8827 19:-2.4343 20:-3.9345 21:-3.0847 22:-1.2022 23:-4.086 24:-7.7241 25:-0.47227 
0.5054861046072348 1:-1.1586 2:-1.0866 3:-0.63891 4:-0.88291 5:-0.27231 6:1.6863 7:2.466 8:2.0116 9:2.5094 10:2.3732 11:1.7452 12:1.8324 13:0.62084 14:0.42523 15:0.84439 16:0.71874 17:-0.42609 18:0.53341 19:-0.19252 20:0.19402 21:0.47222 22:0.11377 23:0.031956 24:-0.15319 25:-1.8983 
1.0 1:-2.6072 2:-5.3919 3:-4.6428 4:-0.8096 5:-0.18337 6:-1.0473 7:2.1654 8:0.41656 9:-4.1705 10:-6.4888 11:-6.498 12:-3.2758 13:-0.86533 14:-1.0303 15:-1.6347 16:-1.5324 17:-1.6149 18:-2.7429 19:-5.9226 20:-5.9109 21:-12.0692 22:-7.8767 23:-4.8993 24:-2.7321 25:-1.6234 
1.0 1:2.0508 2:0.67224 3:-0.25078 4:-0.27199 5:-1.2361 6:-0.14914 7:0.99098 8:1.8275 9:2.4054 10:4.1852 11:2.6208 12:2.4808 13:3.8233 14:2.2383 15:2.7209 16:-0.48518 17:-0.47719 18:-0.80366 19:-1.4422 20:-2.7726 21:-0.0058502 22:-1.0548 23:3.1974 24:2.2259 25:2.0189 
1.0 1:-1.4929 2:-2.7374 3:-3.2097 4:-5.6901 5:-6.4933 6:-6.58 7:-8.732 8:-6.691 9:-2.7063 10:-1.3801 11:-0.021411 12:1.7087 13:2.174 14:3.3683 15:3.783 16:3.9644 17:3.1063 18:2.4265 19:1.3497 20:1.3667 21:0.46868 22:0.39165 23:1.0475 24:1.0477 25:-1.0713 
0.7338982151730274 1:0.23949 2:-0.68095 3:-0.61921 4:0.25167 5:2.3018 6:3.3702 7:3.903 8:3.8398 9:1.6877 10:0.52497 11:0.38499 12:0.63744 13:0.71 14:0.077707 15:0.016659 16:0.26637 17:0.85033 18:0.52953 19:0.13926 20:0.87766 21:0.67477 22:0.27489 23:-0.048104 24:0.28171 25:0.70587 
0.18240960386420826 1:0.058594 2:-0.053037 3:-0.05101 4:-0.078492 5:0.025238 6:0.43571 7:0.36013 8:0.80862 9:0.89089 10:1.2345 11:0.486 12:0.24343 13:0.093171 14:1.0618 15:0.88812 16:2.8115 17:1.6177 18:2.8681 19:2.5291 20:2.2736 21:1.2821 22:0.89608 23:0.89793 24:-0.90803 25:0.12289 
1.0 1:-5.1735 2:-3.1895 3:-1.5757 4:0.19787 5:1.7589 6:2.6595 7:2.5782 8:2.4057 9:2.5514 10:2.6585 11:2.1281 12:1.23 13:0.74165 14:0.63039 15:0.23437 16:0.10076 17:0.66612 18:0.58091 19:0.4194 20:0.30977 21:0.10001 22:0.49798 23:-0.034301 24:0.098611 25:-7.0296 
0.7001084421177026 1:0.016925 2:-1.1409 3:-0.41047 4:0.97215 5:0.050259 6:2.1968 7:0.44732 8:1.0299 9:1.5998 10:1.5946 11:0.53123 12:0.055835 13:0.043388 14:0.13212 15:0.34564 16:0.0022754 17:1.076 18:1.5648 19:1.9521 20:2.2768 21:1.6979 22:2.3235 23:1.7804 24:0.6717 25:-0.2801 
1.0 1:3.5797 2:3.2187 3:2.1281 4:3.3159 5:6.0495 6:5.3805 7:5.1862 8:3.8549 9:0.91816 10:-0.24499 11:3.5344 12:2.2448 13:1.1688 14:0.50539 15:0.3244 16:0.31508 17:0.081164 18:0.25558 19:0.09267 20:0.13732 21:0.22143 22:0.11573 23:-0.015752 24:-0.26538 25:0.56622 
1.0 1:3.4261 2:4.6098 3:2.2416 4:0.40684 5:-0.015738 6:0.038416 7:-0.62631 8:-1.467 9:-2.0842 10:-2.3586 11:-2.0993 12:-1.8274 13:-1.3878 14:-0.94267 15:-0.46402 16:-0.34338 17:-0.12525 18:0.018001 19:0.20786 20:0.33618 21:-0.029396 22:-0.30041 23:-0.31394 24:-0.5494 25:3.0854 
1.0 1:-0.15853 2:-0.091909 3:-0.14509 4:-0.13675 5:-0.092325 6:-0.26952 7:-0.20714 8:0.15935 9:-0.55624 10:-0.37069 11:-0.59349 12:0.6703 13:1.0035 14:0.44826 15:-1.0551 16:-3.0152 17:-2.4806 18:-1.7515 19:-0.42722 20:3.7019 21:5.0761 22:3.303 23:4.5417 24:2.4203 25:0.83349 
0.8291124078593136 1:0.0063965 2:0.75882 3:1.8459 4:2.2745 5:1.1238 6:0.12426 7:0.40639 8:-0.62416 9:-1.6986 10:-2.3357 11:-2.0423 12:-1.1858 13:-0.31943 14:0.038669 15:0.84045 16:-0.90057 17:3.0825 18:0.51447 19:-0.36764 20:0.097486 21:-0.0054326 22:0.71404 23:0.85044 24:0.14057 25:-0.20196 
1.0 1:0.42487 2:1.0248 3:1.4262 4:2.0543 5:4.6785 6:3.7596 7:-0.0070048 8:0.8809 9:0.92272 10:1.581 11:4.0897 12:4.9869 13:5.9762 14:2.9324 15:1.0391 16:0.31676 17:-1.1789 18:-0.4929 19:-2.1531 20:-3.6493 21:-2.8544 22:-1.9743 23:-1.2685 24:-0.62436 25:-2.1663 
1.0 1:2.7729 2:2.8254 3:2.2366 4:2.2226 5:2.0909 6:1.6288 7:1.5437 8:1.5436 9:2.4265 10:2.6912 11:2.7247 12:1.6871 13:4.9518 14:3.3426 15:0.56758 16:0.22956 17:-0.23182 18:0.95125 19:0.03468 20:-1.7244 21:-5.7153 22:-9.9899 23:-13.5136 24:-6.2857 25:2.5595 
0.005560325046893927 1:1.3497 2:0.9925 3:0.73269 4:0.73573 5:0.8356 6:0.69233 7:0.7758 8:0.39018 9:0.61501 10:0.3866 11:0.56975 12:0.64522 13:0.84577 14:1.3887 15:1.4219 16:1.4244 17:0.79073 18:0.84993 19:0.75286 20:0.83334 21:1.2668 22:1.4834 23:2.2662 24:2.4138 25:1.0398 
0.9151773171234256 1:-1.4207 2:-1.9412 3:-2.2844 4:-2.651 5:-3.3003 6:-3.0443 7:-3.1188 8:-3.5828 9:-3.5534 10:-3.8624 11:-2.9587 12:-2.2715 13:-2.1073 14:-1.9494 15:-1.7191 16:-1.8299 17:-1.5173 18:-1.1119 19:-1.1958 20:-0.85088 21:-0.64414 22:-0.29274 23:-0.083717 24:-0.21691 25:-1.107 
0.9086774529390527 1:-2.1652 2:-3.7534 3:-4.4446 4:-4.1937 5:-4.1911 6:-3.2583 7:-1.4845 8:-0.52215 9:-0.19896 10:-0.5107 11:-0.014058 12:0.52609 13:0.77542 14:0.68145 15:0.46066 16:-0.042552 17:0.05591 18:-0.006946 19:-0.11817 20:-0.070337 21:-0.04914 22:-0.30003 23:-0.062308 24:0.28597 25:-1.4569 
1.0 1:0.082109 2:-1.0202 3:0.69334 4:-0.25629 5:1.0663 6:0.1992 7:7.3271 8:2.8632 9:1.924 10:-3.9591 11:-4.2376 12:-5.0016 13:-6.1448 14:-6.9756 15:-6.4616 16:-3.4084 17:-1.3991 18:-2.098 19:0.4041 20:-0.36591 21:-0.57246 22:-0.20816 23:-0.16291 24:-0.91468 25:0.17769 
1.0 1:0.13011 2:-0.3171 3:5.4786 4:1.967 5:-1.5444 6:-0.079368 7:-0.52733 8:-0.63958 9:-1.2575 10:-0.41355 11:-1.7653 12:-1.2464 13:-0.47687 14:-1.2817 15:-0.40874 16:0.56421 17:-0.14802 18:-0.27174 19:0.46508 20:-0.44933 21:-0.3059 22:0.73072 23:1.8051 24:-1.1083 25:2.2187 
1.0 1:-0.048761 2:0.13305 3:0.76177 4:-0.18259 5:-0.15256 6:1.8211 7:2.977 8:1.0179 9:3.2286 10:0.1616 11:-3.0136 12:-3.0306 13:-3.2967 14:-3.6538 15:-4.418 16:-3.5944 17:-4.2156 18:-3.0273 19:-2.0065 20:-1.7614 21:-1.4125 22:-0.096913 23:-0.4927 24:0.29099 25:0.1371 
0.17467990491721047 1:-0.2289 2:-0.010395 3:0.067894 4:0.1469 5:0.044264 6:0.39473 7:1.2781 8:1.2219 9:0.59697 10:-0.28538 11:0.39309 12:0.6267 13:1.9674 14:0.97099 15:0.7182 16:0.60039 17:-1.9271 18:-1.0788 19:-0.34906 20:0.23702 21:0.21204 22:-0.083692 23:2.0694 24:0.73144 25:-0.44373 
1.0 1:-2.5016 2:-0.4117 3:0.04681 4:0.12527 5:-0.368 6:-0.99342 7:-1.1239 8:-0.92764 9:-0.45099 10:-0.70941 11:0.2609 12:0.070177 13:1.3852 14:-0.40808 15:0.035039 16:2.0827 17:-2.4853 18:1.9521 19:1.3781 20:-2.4378 21:3.4268 22:2.6836 23:-3.6423 24:-0.22958 25:3.0099 
1.0 1:-1.7 2:0.36193 3:1.9723 4:-0.66317 5:2.4321 6:1.9604 7:-3.3799 8:-4.0881 9:-1.5834 10:-0.91072 11:-2.4099 12:-3.3829 13:-2.7839 14:-2.6112 15:-1.1654 16:-0.88062 17:-1.902 18:-1.5219 19:-0.89529 20:0.036407 21:1.0786 22:-0.016782 23:0.078499 24:2.1297 25:2.2465 
1.0 1:-10.3539 2:-7.6804 3:-3.0393 4:-0.093 5:-0.052211 6:-0.080479 7:-1.8618 8:3.8837 9:-0.52712 10:0.66328 11:0.95366 12:-1.5484 13:-4.3992 14:-2.9347 15:-3.4252 16:-4.0807 17:-3.9593 18:-4.0565 19:-4.4941 20:-2.8671 21:-1.2819 22:-1.8096 23:-1.1331 24:-0.8906 25:-5.5463 
0.10726146400210954 1:-1.5662 2:-1.9405 3:-1.9034 4:-0.95624 5:-1.4431 6:-0.82293 7:-0.48661 8:-0.36819 9:-0.56962 10:-0.45374 11:-1.4129 12:-2.0393 13:-1.1896 14:-0.73336 15:-1.0153 16:-0.90595 17:0.30235 18:-0.22597 19:-0.28953 20:0.39197 21:1.8489 22:1.3563 23:0.20981 24:0.090539 25:-1.6633 
0.05970931728983642 1:-0.26732 2:-0.0018961 3:-0.4259 4:0.073868 5:-0.02062 6:1.2578 7:1.1746 8:-0.0089798 9:0.083933 10:-0.32333 11:-0.44172 12:0.2183 13:0.43761 14:0.87126 15:0.40784 16:0.61095 17:0.6841 18:0.52929 19:0.89404 20:-0.29995 21:-0.68028 22:2.9798 23:-0.32541 24:-2.4882 25:-1.43 
1.0 1:-11.2265 2:-8.6465 3:-8.8034 4:-10.1881 5:-2.2568 6:0.026011 7:0.79416 8:0.33041 9:0.16236 10:-1.2555 11:2.2445 12:0.41808 13:1.1994 14:1.5318 15:-0.10964 16:-1.5086 17:-4.252 18:-4.0757 19:-2.3359 20:-2.2663 21:-3.0482 22:-3.0513 23:-2.7687 24:-2.6111 25:-10.8301 
1.0 1:-1.6571 2:-1.0235 3:0.088888 4:0.29271 5:0.81009 6:0.30542 7:0.080913 8:0.3271 9:0.12743 10:0.53317 11:0.82231 12:-0.070874 13:-1.2614 14:0.35318 15:4.2789 16:4.0892 17:-2.2818 18:-0.085457 19:2.8526 20:-1.4894 21:-0.22825 22:-4.7007 23:0.89171 24:0.84779 25:-0.78137 
1.0 1:-8.9194 2:-5.7424 3:-4.0052 4:-2.0994 5:-1.0824 6:-0.64771 7:-0.28925 8:-0.033672 9:-1.4811 10:-1.049 11:-1.2498 12:-0.84576 13:-2.5392 14:-3.0167 15:-2.7676 16:-3.2617 17:-1.218 18:-0.34241 19:-1.3726 20:-1.627 21:-1.3672 22:-2.2545 23:-2.9646 24:-1.2209 25:-11.1301 
1.0 1:0.98341 2:1.9023 3:3.4736 4:2.986 5:3.2615 6:3.2468 7:1.2523 8:0.57589 9:-0.88455 10:-3.5524 11:-4.5277 12:-3.6384 13:-3.5984 14:-4.1171 15:-6.1553 16:-5.0917 17:-3.947 18:-4.2767 19:-2.9837 20:-2.3863 21:-2.363 22:-0.73063 23:0.63955 24:-1.5764 25:2.2696 
0.19789612171577717 1:1.4844 2:1.0438 3:1.1505 4:0.79313 5:0.15642 6:-0.37652 7:-0.68417 8:0.60304 9:0.49829 10:1.4219 11:1.1852 12:-0.53042 13:-0.6678 14:0.46791 15:0.76891 16:0.50835 17:0.98881 18:0.29297 19:0.70193 20:0.5345 21:1.3162 22:1.4161 23:0.9054 24:1.9504 25:1.7166 
1.0 1:0.039793 2:0.059507 3:-0.0055903 4:0.2792 5:1.0859 6:1.3262 7:1.4012 8:2.1711 9:2.781 10:3.1273 11:3.5406 12:3.2368 13:3.159 14:2.9588 15:3.0766 16:3.1385 17:2.8752 18:2.4324 19:2.6307 20:2.4128 21:2.8423 22:2.5721 23:2.7669 24:2.3104 25:-0.18051 
0.05242957912229657 1:-0.14484 2:-0.075002 3:-0.066324 4:0.38024 5:0.45679 6:0.51794 7:0.47346 8:0.038406 9:-0.0437 10:-0.49998 11:-0.98149 12:-1.0523 13:-1.1482 14:-1.6322 15:-2.3436 16:-2.7858 17:-2.7434 18:-2.5166 19:-3.2571 20:-2.9529 21:-1.6879 22:-1.0443 23:-0.37927 24:-0.26885 25:0.34312 
0.03270759896430658 1:-0.92992 2:-1.0776 3:-1.2172 4:-1.3276 5:-1.8319 6:-1.7593 7:-1.5696 8:-1.6268 9:-1.3528 10:-0.76469 11:-0.78822 12:-1.0022 13:-0.98754 14:-1.3377 15:-2.0966 16:-1.8138 17:-2.8547 18:-2.1922 19:-1.198 20:-1.673 21:-1.4135 22:-0.78988 23:-0.78574 24:-0.77283 25:-0.8352 
0.8644738178591169 1:1.2253 2:1.9506 3:3.1118 4:3.1726 5:2.3592 6:1.872 7:0.61931 8:-0.89 9:-0.98847 10:-0.74076 11:-1.2721 12:-1.3257 13:-1.4661 14:-1.7798 15:-2.382 16:-3.6956 17:-3.4221 18:-2.6911 19:-2.5616 20:-2.4261 21:-1.5371 22:-1.1869 23:-0.53451 24:0.049573 25:0.18807 
0.002898600175755592 1:0.48777 2:0.45487 3:0.86756 4:0.28961 5:-0.10751 6:-0.064838 7:0.59737 8:0.93058 9:0.26084 10:0.051705 11:0.68557 12:1.1358 13:0.78073 14:1.5935 15:-0.5744 16:0.51589 17:0.7254 18:-0.29195 19:-2.1897 20:0.72146 21:0.033845 22:1.3172 23:0.84594 24:-1.2229 25:0.42012 
0.9453933728053959 1:-0.25711 2:-0.33381 3:1.6225 4:0.49111 5:0.5565 6:0.95605 7:1.7 8:-1.3321 9:-3.4211 10:-2.9859 11:-4.0573 12:-3.5292 13:-2.9892 14:-3.549 15:-3.1285 16:-2.9399 17:-3.7299 18:-3.9736 19:-3.3623 20:-1.9471 21:-0.44634 22:0.72194 23:0.73961 24:-0.24566 25:-0.37892 
0.3600853027613248 1:2.1661 2:2.3815 3:1.6767 4:1.2293 5:1.378 6:0.73869 7:-0.062912 8:0.25944 9:-0.08237 10:-0.34171 11:-0.13421 12:-1.4703 13:-1.6868 14:-1.7115 15:-1.4871 16:-1.0618 17:-0.55784 18:-0.36471 19:0.042877 20:-0.52094 21:-0.66166 22:0.27918 23:1.8766 24:0.6529 25:-1.0103 
0.050097654879708624 1:-1.2443 2:-1.2684 3:-0.9055 4:-0.20197 5:-0.22965 6:-1.1303 7:-2.227 8:-2.3371 9:-2.4542 10:-1.9621 11:-1.1425 12:-1.3363 13:-0.61741 14:-0.48587 15:-0.87859 16:-1.181 17:-1.2229 18:-1.7378 19:-1.8331 20:-1.263 21:-1.5819 22:-0.68982 23:-0.84059 24:-0.28315 25:-1.3262 
0.4301681366872842 1:1.064 2:-0.7747 3:-1.943 4:-1.375 5:-1.2562 6:-2.1592 7:-1.6671 8:-1.8057 9:-2.362 10:-2.5998 11:-2.3142 12:-1.6829 13:-0.55856 14:0.23958 15:0.52518 16:0.73207 17:0.10217 18:-0.46458 19:-0.56361 20:-0.54672 21:-0.2804 22:-0.46295 23:-0.88706 24:-1.2085 25:1.8181 
0.21309379660330555 1:0.36657 2:0.18456 3:-0.029426 4:-0.15327 5:-0.32065 6:-0.25816 7:-0.46109 8:-0.54301 9:-0.51144 10:-0.59472 11:-0.022224 12:0.57518 13:1.4028 14:0.58842 15:-0.33284 16:-0.95708 17:-0.24068 18:-0.2995 19:-0.49803 20:-2.01 21:-2.8068 22:1.7605 23:0.75461 24:-0.57719 25:-0.14195 
0.6029443285092144 1:0.19262 2:-2.2709 3:-1.0577 4:-3.4465 5:-3.4629 6:-2.7378 7:-2.6856 8:-1.1258 9:-0.24695 10:0.049553 11:0.20319 12:0.050832 13:0.10249 14:0.26222 15:0.32403 16:0.35558 17:0.13024 18:-0.095959 19:-0.20669 20:-0.46674 21:-0.87147 22:-1.1296 23:-0.80144 24:-1.1105 25:0.63617 
1.0 1:-3.9612 2:-3.4533 3:-2.9643 4:-2.034 5:-1.0661 6:-0.95359 7:-1.0956 8:-0.72699 9:-0.29041 10:-0.49629 11:-0.85362 12:-1.0058 13:-0.51699 14:-0.21009 15:-0.10353 16:0.47041 17:0.72915 18:1.0861 19:1.4288 20:1.9516 21:2.547 22:2.1634 23:2.4579 24:1.5064 25:-4.0953 
0.8777576429846896 1:-2.8107 2:-3.713 3:-2.7117 4:0.38585 5:-0.35819 6:-0.55666 7:-0.32091 8:-0.16232 9:-0.15797 10:0.12026 11:0.44647 12:1.0801 13:1.7559 14:2.7518 15:2.0516 16:0.76377 17:0.05118 18:-0.8856 19:1.5179 20:-0.08969 21:-1.4159 22:0.1609 23:0.95768 24:-0.48546 25:-2.9396 
1.0 1:-5.4062 2:-5.8114 3:-6.9448 4:-8.9487 5:-6.662 6:-9.2316 7:-5.7007 8:-4.5962 9:-1.8852 10:0.015967 11:-0.58228 12:-0.71172 13:-0.69686 14:-0.47338 15:0.17481 16:-0.63674 17:0.096179 18:0.013175 19:-0.81082 20:-3.4075 21:-4.6717 22:-4.0899 23:-4.164 24:-3.8721 25:-1.8199 
0.8295598341932455 1:0.33038 2:0.43455 3:0.71444 4:0.11163 5:-1.0126 6:-0.073479 7:-1.2512 8:2.6703 9:0.79825 10:-0.87214 11:0.5771 12:-0.31565 13:-0.77788 14:-0.83596 15:-1.7411 16:-1.1188 17:-0.749 18:0.60958 19:0.07498 20:-0.98719 21:-1.0504 22:-1.6979 23:-0.33425 24:2.0428 25:-0.20831 
0.3201746209837884 1:-2.2868 2:-2.74 3:-1.7046 4:-0.89478 5:-0.12311 6:-0.15657 7:-0.50291 8:0.01627 9:0.54659 10:-0.14647 11:-1.2446 12:-0.078278 13:0.86601 14:0.59159 15:0.46919 16:2.414 17:1.6453 18:0.086213 19:-0.44847 20:0.080258 21:1.3012 22:1.6481 23:1.5343 24:0.33231 25:-2.3262 
0.28442116436876236 1:-0.95346 2:-0.89591 3:-1.0468 4:-1.0239 5:-0.88236 6:-1.0439 7:-0.72586 8:-0.87963 9:-1.043 10:-1.5057 11:-1.2455 12:-0.76828 13:-0.55497 14:-0.007963 15:0.85526 16:1.1872 17:2.2395 18:1.6608 19:0.94357 20:0.55108 21:-0.38876 22:-0.58175 23:2.598 24:1.6737 25:-1.0348 
0.5431349352948047 1:1.2698 2:1.59 3:1.7336 4:1.6619 5:1.9784 6:2.2375 7:1.4927 8:0.96209 9:0.84572 10:0.66641 11:0.57806 12:0.1823 13:0.37539 14:0.43989 15:-0.23294 16:-0.70716 17:-0.94696 18:-1.7135 19:-2.418 20:-2.6405 21:-2.3263 22:-1.9515 23:-1.495 24:-1.0887 25:1.6759 
1.0 1:0.47438 2:0.31638 3:0.13399 4:0.44474 5:0.20504 6:0.19194 7:0.85477 8:0.89877 9:0.71241 10:0.97414 11:0.53912 12:-0.17005 13:0.9608 14:-0.26768 15:0.0064032 16:3.7603 17:-0.34728 18:4.0166 19:4.7624 20:2.6634 21:-0.5154 22:-3.1023 23:-2.9724 24:-2.901 25:0.13268 
1.0 1:-4.4643 2:-4.1313 3:-0.95285 4:-1.28 5:-2.065 6:-0.40052 7:-1.1116 8:-0.89046 9:1.1161 10:1.5956 11:2.3277 12:2.7116 13:3.9759 14:3.9796 15:4.153 16:5.7074 17:4.1089 18:1.96 19:0.36756 20:-0.1149 21:-0.38752 22:-0.33697 23:0.046924 24:-0.020062 25:0.81735 
1.0 1:3.4645 2:3.3183 3:3.4506 4:3.4198 5:3.0594 6:2.8186 7:2.2027 8:1.6759 9:0.33039 10:0.30591 11:1.0966 12:0.68231 13:-0.40956 14:-0.66654 15:0.16385 16:0.57818 17:-0.055835 18:-0.38597 19:-0.41655 20:-0.23086 21:-1.1239 22:-0.10696 23:-1.0959 24:-1.0494 25:4.3489 
1.0 1:5.7663 2:0.055142 3:-2.4531 4:0.097254 5:0.49127 6:0.22934 7:-0.32298 8:-2.6719 9:1.2645 10:-0.84326 11:-0.46378 12:-0.025034 13:-1.3419 14:-3.1748 15:-1.2345 16:1.5137 17:1.5952 18:2.1431 19:1.4267 20:2.5171 21:4.1111 22:3.0163 23:3.2365 24:4.3168 25:6.3732 
0.7060634821256685 1:-2.0922 2:-1.8379 3:-2.4659 4:-2.4844 5:-0.15984 6:0.42167 7:1.0727 8:-1.7577 9:-0.60102 10:-0.88753 11:0.34936 12:0.84603 13:-0.47162 14:-0.51563 15:0.71123 16:-0.18558 17:-1.4396 18:0.40348 19:-0.16518 20:-0.59624 21:0.35038 22:0.25361 23:0.2956 24:0.68038 25:-1.5489 
0.5066828121785293 1:-0.38797 2:-0.41568 3:-0.92231 4:-0.46486 5:-0.96025 6:-1.2975 7:-0.82369 8:-1.8181 9:-2.8296 10:-2.7004 11:-2.4689 12:-1.7358 13:-0.99859 14:-2.3052 15:-3.0302 16:-0.69995 17:-0.13712 18:0.24916 19:0.69388 20:1.6406 21:1.4295 22:1.2852 23:1.2103 24:1.1445 25:-0.13987 
0.9930848213684582 1:1.4535 2:1.6061 3:1.0729 4:-0.60216 5:-2.5161 6:-3.3297 7:-3.849 8:-3.8469 9:-3.3794 10:-2.0287 11:-0.52303 12:0.69991 13:0.46527 14:-0.29046 15:-0.60729 16:-0.29476 17:-0.11279 18:0.42152 19:0.35606 20:-0.36525 21:-0.2594 22:0.57853 23:0.064669 24:-0.032072 25:1.4371 
1.0 1:-5.9879 2:-5.738 3:-4.1026 4:-3.5343 5:-4.6444 6:-0.95723 7:2.225 8:1.2252 9:1.5583 10:1.7047 11:-0.74342 12:1.707 13:1.4476 14:-3.8148 15:1.615 16:1.1547 17:-0.57161 18:-0.55248 19:-0.94755 20:-0.97108 21:-0.37571 22:-1.5044 23:-0.46537 24:0.31609 25:-2.987 
1.0 1:0.87936 2:1.0874 3:1.8278 4:2.2381 5:2.122 6:2.1871 7:2.428 8:2.1376 9:0.51509 10:0.28612 11:-0.35378 12:-1.4272 13:-3.1367 14:-1.5932 15:-1.3108 16:-1.838 17:-0.52245 18:-1.6909 19:-1.0477 20:-2.4847 21:-0.95271 22:-3.3895 23:-2.5292 24:-1.5485 25:1.3735 
0.7775268240855155 1:0.10798 2:-0.47006 3:0.41415 4:-0.43007 5:-1.958 6:-2.6303 7:-2.9996 8:-3.1287 9:-3.5945 10:-3.4021 11:-3.6387 12:-3.6844 13:-3.23 14:-2.9601 15:-2.0096 16:-0.98034 17:-0.4636 18:-0.11654 19:0.056057 20:0.11489 21:0.09891 22:0.09076 23:0.13745 24:0.11801 25:0.58931 
0.243678924109709 1:0.35677 2:-0.43377 3:-0.67364 4:0.82131 5:0.97071 6:1.0418 7:1.452 8:1.1296 9:1.1384 10:2.3566 11:2.8314 12:2.9622 13:1.9401 14:2.2012 15:1.7354 16:1.1569 17:0.53182 18:0.33386 19:0.29626 20:0.28487 21:0.07188 22:0.044395 23:0.1674 24:0.25488 25:0.93445 
0.7675256694678411 1:1.8441 2:2.2331 3:1.8034 4:0.02462 5:-0.62229 6:-0.28459 7:0.33805 8:0.42012 9:0.63665 10:0.75528 11:1.0944 12:1.459 13:1.9984 14:2.4135 15:2.6199 16:2.4141 17:2.102 18:1.5656 19:1.0364 20:0.69997 21:-0.36174 22:0.15962 23:-1.0479 24:-1.0636 25:2.0778 
0.03933954064634791 1:-0.039814 2:0.02949 3:-0.084493 4:-0.32535 5:-0.3978 6:-0.054727 7:-0.37387 8:-0.63862 9:-0.20644 10:-0.18507 11:-0.11604 12:0.032217 13:-0.050571 14:-0.093543 15:-0.13408 16:0.019568 17:-0.14546 18:-0.5796 19:0.11854 20:1.6181 21:1.3693 22:-0.81128 23:-0.61697 24:2.6459 25:-0.11582 
0.6796446450914196 1:-0.47003 2:-0.42929 3:0.83286 4:0.43814 5:1.0718 6:1.6313 7:0.09775 8:-1.2128 9:-1.4544 10:-1.9926 11:-2.8681 12:-3.4523 13:-3.8061 14:-4.3705 15:-4.8066 16:-4.382 17:-3.9974 18:-3.853 19:-3.0648 20:-1.9163 21:-1.3571 22:-1.0906 23:-0.7828 24:-0.72868 25:-1.6564 
0.7523371074207906 1:-1.1229 2:-0.96676 3:-0.85493 4:-1.0753 5:-1.3725 6:-0.52646 7:-0.23293 8:-0.51203 9:-0.49876 10:-0.98172 11:-0.74822 12:-1.2425 13:-1.9288 14:-2.8797 15:-2.4295 16:-1.4999 17:-1.8712 18:-2.1957 19:-1.5059 20:-1.7797 21:-1.3849 22:-1.3203 23:-2.0077 24:-1.7818 25:-0.58419 
0.6286875874412075 1:-0.083835 2:-0.2624 3:-0.2428 4:0.11157 5:0.80074 6:1.062 7:1.0797 8:1.6375 9:2.1308 10:1.675 11:1.7652 12:1.2474 13:1.5536 14:0.87259 15:0.46793 16:-0.67746 17:-1.1915 18:-1.7521 19:-1.2935 20:-0.86837 21:-0.28382 22:0.20499 23:-1.8023 24:-1.6533 25:-0.54977 
0.9750968426298886 1:-5.8706 2:-3.3373 3:-1.1609 4:-0.99779 5:-0.80847 6:-0.11756 7:0.20558 8:0.28717 9:0.70273 10:0.75064 11:0.97369 12:0.94113 13:1.1695 14:1.4306 15:1.1331 16:0.94647 17:0.76188 18:0.48659 19:0.40128 20:0.4719 21:0.2641 22:0.63971 23:0.60995 24:0.53815 25:-6.9219 
1.0 1:0.22171 2:0.034895 3:0.069654 4:-0.047104 5:-0.0050544 6:0.0026048 7:-0.046748 8:-0.37622 9:0.3663 10:0.88304 11:1.024 12:0.97445 13:1.2772 14:1.4289 15:0.67096 16:0.31206 17:1.3332 18:1.4953 19:1.9071 20:0.62742 21:-0.70692 22:-3.0244 23:-4.2969 24:-4.5618 25:0.3602 
1.0 1:0.11721 2:-1.6573 3:1.2457 4:-0.58976 5:1.6965 6:-0.069468 7:-3.4685 8:-4.0755 9:-0.64547 10:0.37675 11:0.6235 12:-0.52973 13:-0.86296 14:-1.2242 15:-1.7689 16:-1.7844 17:-0.94712 18:1.2492 19:0.82347 20:0.23252 21:-0.091759 22:-0.03552 23:0.21375 24:0.26506 25:-3.0986 
0.5320329434430879 1:0.80834 2:1.1461 3:-0.67385 4:0.10226 5:0.77746 6:-0.25098 7:-1.157 8:-0.52325 9:-0.50665 10:-0.14825 11:0.3048 12:-1.8729 13:-2.6196 14:-0.53902 15:0.038497 16:-2.4554 17:-2.7052 18:-1.2251 19:0.55641 20:0.57588 21:-0.40647 22:-0.29315 23:0.97054 24:-0.54106 25:-0.50477 
0.7748503289534058 1:2.1228 2:2.6013 3:1.1147 4:-0.29073 5:-0.078805 6:0.37312 7:1.0674 8:0.91992 9:1.2037 10:1.2325 11:1.6273 12:0.92121 13:0.80075 14:1.4415 15:1.5781 16:0.90803 17:0.92375 18:2.3882 19:3.0411 20:0.65841 21:0.24714 22:1.9636 23:1.2421 24:-0.41671 25:3.4531 
1.0 1:0.16415 2:-0.14185 3:-1.2683 4:-0.58787 5:-2.057 6:-0.72096 7:-0.28565 8:-0.71645 9:-1.6413 10:0.091507 11:0.40543 12:0.83748 13:1.5395 14:2.1275 15:2.2774 16:2.3578 17:2.2593 18:3.2605 19:3.5711 20:3.8224 21:3.9294 22:4.3403 23:4.1927 24:4.4062 25:1.1572 
1.0 1:0.64793 2:0.30381 3:0.57827 4:1.2141 5:1.3063 6:1.532 7:1.8829 8:1.0795 9:1.5023 10:1.9327 11:2.2093 12:3.0091 13:4.0229 14:4.6143 15:7.0695 16:6.5616 17:5.5873 18:3.9475 19:2.8779 20:1.5818 21:0.86147 22:0.37741 23:0.27983 24:0.1418 25:0.66509 
0.11000870022298923 1:-0.63126 2:-0.60388 3:0.12508 4:-1.4756 5:-1.1882 6:-0.20092 7:-1.0563 8:-0.90881 9:-1.4395 10:-2.0821 11:-2.1677 12:-1.7181 13:-1.3878 14:-0.76635 15:0.48151 16:1.4403 17:1.9504 18:1.6411 19:1.1278 20:0.60982 21:-0.39543 22:-0.10109 23:0.86695 24:0.81601 25:-0.1686 
1.0 1:0.35926 2:0.017531 3:0.53701 4:2.1049 5:3.112 6:4.9507 7:4.6064 8:3.7939 9:2.9001 10:2.6026 11:0.087858 12:-1.2871 13:0.80087 14:0.74131 15:0.24578 16:-0.039905 17:-1.4987 18:-0.49604 19:-0.35903 20:-0.62441 21:1.5782 22:0.6861 23:0.19494 24:0.27796 25:0.30794 
0.20828296563834123 1:-1.3738 2:-1.8395 3:-0.80812 4:0.48188 5:-0.62983 6:-1.9433 7:-2.0581 8:-1.5863 9:-1.434 10:-1.8725 11:-2.4367 12:-1.7083 13:-0.56839 14:-0.018901 15:-0.40724 16:-1.4049 17:-0.81131 18:1.6605 19:2.1369 20:1.0519 21:0.39946 22:0.5159 23:0.66593 24:1.2311 25:-0.4832 
1.0 1:1.1347 2:1.0215 3:0.40534 4:2.2705 5:2.3604 6:2.3658 7:2.1494 8:1.9259 9:2.3381 10:0.87133 11:1.9369 12:1.2615 13:-0.13465 14:-2.3585 15:-3.2554 16:-4.1971 17:-4.3722 18:-4.88 19:-4.6183 20:-2.6494 21:-2.1323 22:-1.17 23:0.81123 24:1.5754 25:3.5119 
0.8936020930331989 1:-0.084629 2:0.067475 3:-0.098321 4:-0.051725 5:0.067468 6:-0.31775 7:-0.54835 8:-0.35178 9:-0.055499 10:-0.6243 11:0.72333 12:-0.16914 13:-0.41317 14:0.045494 15:-0.064723 16:-0.83218 17:-1.5749 18:0.93139 19:1.7914 20:-0.33279 21:-0.27768 22:3.172 23:1.2637 24:-4.2954 25:0.38718 
0.4382584164178517 1:-0.22614 2:-0.25354 3:1.0188E-4 4:-0.14746 5:-0.011959 6:-0.38187 7:-0.69973 8:-0.91716 9:-1.5288 10:-1.963 11:-1.8945 12:-2.1674 13:-3.2444 14:-3.5377 15:-2.7786 16:-3.4475 17:-3.2229 18:-2.6293 19:-2.8455 20:-3.657 21:-2.2536 22:-0.18921 23:-0.57841 24:-0.30518 25:-0.24657 
1.0 1:-0.8496 2:-2.0211 3:-4.2349 4:-5.2637 5:-6.3924 6:-5.4328 7:-5.1202 8:-5.7177 9:-4.3172 10:-3.2923 11:-2.4145 12:-1.626 13:-0.63962 14:0.38594 15:1.5732 16:2.2208 17:1.4307 18:2.4655 19:3.0995 20:1.7764 21:0.29393 22:-0.29084 23:-0.49983 24:-0.24969 25:-0.45445 
1.0 1:-4.1312 2:-5.6651 3:-6.6334 4:-6.0831 5:-9.175 6:-5.0741 7:-3.4291 8:-2.8028 9:-1.4698 10:-1.1027 11:-0.26356 12:1.2981 13:1.5994 14:3.1318 15:4.1915 16:4.1141 17:3.1828 18:2.3766 19:1.5 20:-0.19028 21:-0.62483 22:0.21549 23:0.48299 24:0.28206 25:0.27375 
1.0 1:1.6252 2:1.3756 3:0.94774 4:0.725 5:0.28166 6:0.18802 7:0.31267 8:0.49646 9:0.38497 10:0.00882 11:0.032194 12:-0.027189 13:-1.014 14:-0.63446 15:0.026414 16:-0.81189 17:-3.713 18:-2.7096 19:0.37133 20:1.8602 21:2.8515 22:0.083122 23:4.1435 24:-5.9101 25:2.1024 
1.0 1:-2.8117 2:-3.6732 3:2.2646 4:-1.7471 5:-3.8369 6:-3.7817 7:-4.3014 8:-4.9775 9:-4.953 10:-2.1748 11:0.20222 12:0.41669 13:0.33012 14:1.2832 15:2.1197 16:3.0027 17:2.4851 18:1.5197 19:0.8441 20:0.93258 21:1.5572 22:2.2987 23:2.563 24:2.2547 25:-0.85444 
-0.3713690030894722 1:-4.7374 2:-0.776 3:-0.029325 4:1.5373 5:2.5178 6:0.87996 7:1.0676 8:0.18162 9:0.54461 10:4.7939 11:2.2225 12:-2.5472 13:0.69934 14:-6.0938 15:-5.4952 16:-0.93143 17:2.1131 18:2.9519 19:2.3738 20:-0.91828 21:0.096988 22:2.2809 23:-0.75559 24:3.6961 25:-8.2677 
-0.37665890797662394 1:-1.1308 2:5.1303 3:5.0361 4:-0.09386 5:1.2583 6:2.6674 7:1.5844 8:-2.6411 9:-4.9263 10:-5.1122 11:-7.5122 12:-9.5177 13:-7.7797 14:-5.7777 15:-6.7746 16:-3.8685 17:-3.5711 18:0.0051661 19:0.43445 20:0.039909 21:-0.43758 22:1.4393 23:2.0045 24:1.5069 25:-0.18241 
-0.3722977218240163 1:6.7537 2:4.0498 3:1.5662 4:1.4128 5:2.9547 6:1.1087 7:-0.23169 8:2.3849 9:-0.97588 10:-8.7117 11:-8.9763 12:-7.6026 13:-1.2391 14:3.1968 15:4.5837 16:2.6983 17:3.7499 18:0.92654 19:4.5657 20:3.031 21:0.29875 22:2.5041 23:-0.41164 24:-7.9632 25:1.4533 
-0.3544587911358796 1:-0.13264 2:1.2159 3:-1.366 4:-0.22137 5:-1.0341 6:-3.6993 7:-1.4655 8:0.25298 9:2.6393 10:4.126 11:2.2101 12:1.0939 13:0.48455 14:-1.0363 15:-0.014003 16:-0.20328 17:-2.5375 18:-0.71082 19:-1.7129 20:-4.0055 21:-3.5938 22:4.7945 23:7.8532 24:2.7994 25:-0.25474 
-0.34900735826568063 1:7.5035 2:7.5287 3:4.6358 4:0.63362 5:-2.144 6:-1.8138 7:-0.045124 8:-2.0122 9:-1.7496 10:-1.6559 11:-2.4475 12:-3.1089 13:-2.1076 14:3.8643 15:4.1729 16:6.3974 17:2.0708 18:-0.95442 19:-1.6252 20:-1.6183 21:-0.52953 22:-0.58312 23:-1.8929 24:-0.73372 25:-2.2193 
-0.3833815827893714 1:2.3229 2:1.6811 3:2.3565 4:2.64 5:1.1479 6:-1.7104 7:-4.3277 8:-1.266 9:-3.7167 10:-2.9152 11:-0.60053 12:-2.9098 13:-4.8876 14:-2.6721 15:0.092358 16:0.41143 17:-1.7382 18:-2.3177 19:1.2663 20:-3.288 21:-7.1624 22:3.1389 23:3.5081 24:2.3202 25:4.1767 
-0.36481725141568105 1:0.51711 2:1.1875 3:0.05348 4:0.64786 5:-2.7123 6:-9.3729 7:-5.8676 8:-0.43087 9:-1.2727 10:-0.11317 11:0.058224 12:0.7531 13:2.2179 14:1.7472 15:2.1066 16:1.3401 17:0.75364 18:0.56932 19:0.81559 20:-3.1362 21:-6.8716 22:-5.905 23:-3.8969 24:1.5565 25:1.7997 
-0.3417891444330171 1:-3.9927 2:-2.4431 3:-0.39105 4:-0.94061 5:-0.28713 6:0.81227 7:0.76915 8:1.4344 9:2.3142 10:5.7448 11:4.2868 12:-2.2515 13:-6.3719 14:-2.9913 15:-1.4345 16:-1.1277 17:0.20169 18:-0.097662 19:-1.0821 20:-0.57641 21:0.75059 22:2.8479 23:2.8328 24:3.2184 25:-4.1418 
-0.3534631569858685 1:2.659 2:0.32172 3:-1.1989 4:-1.1572 5:-2.5213 6:-1.1135 7:-3.5023 8:-2.9571 9:-2.9873 10:4.3998 11:6.1975 12:4.4002 13:3.2144 14:2.8925 15:1.9164 16:-1.118 17:-0.61157 18:-2.2205 19:-1.5765 20:-1.8491 21:-3.4374 22:-3.8261 23:-1.5558 24:4.4834 25:-0.11726 
-0.5309844556438915 1:3.9069 2:-0.05504 3:0.097842 4:-0.092389 5:0.51743 6:-2.6559 7:-1.2214 8:-1.9629 9:-0.72155 10:1.4434 11:0.029042 12:-2.7009 13:-0.77617 14:0.70651 15:0.66875 16:-0.21667 17:-0.20728 18:0.70028 19:-2.2554 20:-2.5528 21:-1.8739 22:-2.2856 23:1.4918 24:2.0202 25:-2.959 
-0.364424644699263 1:6.1142 2:-9.2646 3:-6.5785 4:-5.9491 5:-4.2726 6:1.5367 7:2.9668 8:-0.57113 9:2.9784 10:1.8815 11:2.5561 12:2.1678 13:3.2385 14:2.3519 15:0.01047 16:-9.4449 17:-7.2106 18:-3.1879 19:1.0344 20:5.0206 21:1.6023 22:0.7388 23:2.604 24:1.0332 25:2.2336 
-0.3808297908338247 1:5.1294 2:-1.6724 3:3.1996 4:0.53548 5:-7.1558 6:-1.6437 7:-0.78057 8:-0.94034 9:0.61377 10:0.1298 11:0.20504 12:2.0615 13:1.7609 14:5.1616 15:-5.0301 16:0.3656 17:0.34501 18:0.8975 19:1.2477 20:3.4363 21:-3.1963 22:-0.84603 23:-0.80049 24:-0.67833 25:2.4261 
-0.37550382982487285 1:3.0991 2:4.5808 3:3.0155 4:5.0596 5:1.2649 6:-10.0958 7:-5.9966 8:-5.1069 9:-3.3227 10:0.51082 11:1.6706 12:0.37878 13:4.0231 14:3.5964 15:4.0704 16:1.7354 17:3.357 18:5.2764 19:-7.5423 20:-10.0228 21:-6.4325 22:-5.9938 23:-0.56545 24:3.7005 25:2.8968 
-0.444091207295616 1:-1.0702 2:-1.1627 3:1.4339 4:2.6909 5:-0.53931 6:1.6018 7:-0.040113 8:0.87188 9:0.41095 10:4.5681 11:1.9952 12:-4.0106 13:-2.6956 14:-0.5022 15:-4.3165 16:-0.48405 17:0.034179 18:0.078302 19:0.19342 20:0.63686 21:-0.72844 22:0.031461 23:1.8902 24:3.0633 25:-1.1339 
-0.3625713821099112 1:-1.688 2:-0.80905 3:-1.4744 4:-2.8331 5:-3.3916 6:-3.3339 7:0.13234 8:-2.917 9:-4.8033 10:1.5925 11:7.439 12:6.3396 13:5.8797 14:1.6427 15:-2.6224 16:-1.3833 17:-1.6279 18:-2.0254 19:-3.0778 20:-4.0724 21:-2.682 22:-2.5869 23:-0.58563 24:3.9125 25:2.3564 
-0.3930683217578804 1:1.037 2:0.38309 3:0.50418 4:-0.94003 5:-1.5821 6:-1.9469 7:-1.5747 8:-0.84803 9:-0.66461 10:-0.82071 11:-1.5866 12:-0.79837 13:1.668 14:0.74387 15:-1.9832 16:0.8476 17:-1.2376 18:-3.6733 19:6.3179 20:4.2414 21:-4.0532 22:-3.9583 23:-0.72171 24:3.5387 25:0.29452 
-0.39685295014293215 1:-2.2726 2:-2.6382 3:-4.3422 4:-0.50957 5:-3.5987 6:-2.1632 7:-1.464 8:-1.7495 9:4.2572 10:0.14377 11:1.0532 12:1.9213 13:0.54117 14:-0.79508 15:-2.0062 16:-1.7169 17:-3.5622 18:-3.987 19:-1.4147 20:-2.2394 21:-2.4564 22:-0.35485 23:2.5293 24:-0.22285 25:-1.2083 
-0.3367920933946952 1:-1.4271 2:-5.1979 3:-4.849 4:-2.9924 5:-0.56291 6:2.2101 7:1.5623 8:-0.71035 9:-2.1511 10:0.28691 11:-1.3151 12:-0.65765 13:4.6131 14:-0.32571 15:0.94802 16:-1.025 17:-5.7588 18:-4.1146 19:-2.3634 20:-1.2258 21:-0.58526 22:1.8516 23:-1.169 24:-1.127 25:-0.87442 
-0.3714386753168019 1:1.2492 2:1.7881 3:4.7815 4:5.2051 5:2.1721 6:-0.81152 7:-2.8675 8:-3.4054 9:-0.68794 10:-2.1058 11:-0.69699 12:2.7543 13:1.7925 14:0.97262 15:2.1366 16:0.38505 17:1.0013 18:1.7757 19:4.7995 20:6.5515 21:3.1196 22:-2.8174 23:-5.7669 24:-3.7359 25:2.0838 
-0.37505214795705477 1:-4.9152 2:-2.7385 3:-1.5345 4:-3.6749 5:-3.9984 6:7.7168 7:13.9546 8:8.1285 9:7.0136 10:3.9974 11:-1.1025 12:-5.3155 13:-5.4753 14:-7.7822 15:-6.1969 16:-6.7461 17:-4.2979 18:-1.593 19:-2.3196 20:0.46957 21:5.7259 22:6.2006 23:10.536 24:8.4522 25:-5.5158 
-0.36804810043436575 1:7.7351 2:4.8963 3:1.4805 4:-1.2896 5:-2.6347 6:-0.96926 7:-2.412 8:-3.4369 9:-2.8698 10:-1.835 11:-3.4115 12:-2.7421 13:5.9905 14:10.0063 15:8.2705 16:2.6122 17:-2.6091 18:-2.5025 19:-2.0585 20:-2.3371 21:-2.539 22:-1.2728 23:-1.7846 24:-3.9704 25:4.7718 
-0.33832411805171514 1:2.4284 2:1.728 3:2.103 4:1.6896 5:-0.017334 6:-0.89482 7:-4.1265 8:-2.4909 9:-4.3798 10:-1.7835 11:3.1466 12:0.040919 13:-0.088765 14:2.2629 15:2.28 16:3.1078 17:3.7796 18:2.2926 19:-0.16856 20:-1.6079 21:-4.0485 22:-6.0389 23:-4.6855 24:-3.6614 25:3.0079 
-0.37569266049641215 1:2.5222 2:1.2437 3:2.1896 4:2.5331 5:-3.84 6:-4.1104 7:-3.0199 8:-8.5824 9:-5.3673 10:4.9823 11:-2.546 12:0.37614 13:5.566 14:3.6179 15:1.7984 16:1.6258 17:3.1662 18:2.306 19:-2.6162 20:-3.6148 21:-10.2969 22:-14.3248 23:-7.8875 24:-4.2627 25:6.6877 
-0.3745876590357075 1:-1.6521 2:-4.5811 3:4.6219 4:7.7716 5:6.9852 6:3.2658 7:-1.582 8:-0.82964 9:-0.78551 10:-2.448 11:-2.471 12:-2.224 13:-2.48 14:-2.4375 15:-2.2347 16:-1.4242 17:4.9772 18:7.5074 19:5.9271 20:2.0011 21:-0.75464 22:-1.2169 23:-2.1455 24:-2.984 25:0.022086 
-0.3737488881121118 1:-0.022767 2:1.9205 3:4.6653 4:-1.4929 5:-3.1296 6:-8.5127 7:-3.3492 8:3.5549 9:1.1987 10:2.7287 11:0.014723 12:-2.2008 13:-1.8362 14:0.82174 15:-0.86686 16:4.9994 17:-4.3173 18:-2.65 19:-5.6501 20:-4.5377 21:1.0713 22:2.3774 23:2.5369 24:-0.12651 25:-1.4037 
-0.4037927484392677 1:0.64149 2:0.041342 3:-0.90155 4:-0.95689 5:-0.85325 6:0.87094 7:0.59287 8:-0.99447 9:1.8926 10:-0.39433 11:1.8876 12:4.0842 13:-2.8139 14:-2.7327 15:-2.4503 16:1.456 17:-2.1608 18:-2.8881 19:-2.5889 20:-1.4567 21:-0.072704 22:1.9846 23:-1.4861 24:2.9628 25:0.099239 
-0.3689134392178648 1:1.1525 2:1.3458 3:3.7956 4:4.0816 5:1.3776 6:0.80067 7:2.7903 8:0.026999 9:-8.4134 10:-9.8208 11:-5.6538 12:1.9077 13:6.06 14:1.6868 15:2.5025 16:2.9264 17:1.3967 18:3.6984 19:-0.21309 20:-1.7576 21:0.97018 22:-3.1706 23:-9.0897 24:-8.2264 25:4.9458 
-0.36192039240517515 1:1.1214 2:0.14272 3:-1.8385 4:-0.97891 5:-3.0714 6:-6.2151 7:-4.7485 8:-3.7403 9:-1.3609 10:-0.31082 11:1.8194 12:3.4965 13:2.562 14:3.0699 15:2.2863 16:1.9893 17:-0.39237 18:0.88075 19:-4.2811 20:-4.9104 21:-7.3001 22:-4.0773 23:-0.88998 24:-0.89533 25:1.7965 
-0.3777523011306099 1:2.0195 2:1.7946 3:2.8333 4:-1.4844 5:-2.1309 6:1.0718 7:0.88807 8:1.3437 9:4.8121 10:0.30702 11:-4.1989 12:-1.1694 13:-0.66558 14:-0.86213 15:-1.2005 16:-0.08327 17:-1.5654 18:-6.0106 19:-4.1205 20:-0.27655 21:5.8923 22:4.0991 23:1.8949 24:0.14084 25:1.6677 
-0.3712705585262947 1:-3.8986 2:-4.0368 3:-0.69485 4:0.45773 5:-1.4381 6:-1.5525 7:0.93329 8:0.94113 9:0.85189 10:0.60178 11:3.8941 12:2.4342 13:-6.7073 14:-1.1782 15:-0.048292 16:-3.8482 17:-4.4299 18:-1.7122 19:0.10593 20:0.71072 21:-0.75204 22:1.0873 23:1.5309 24:0.15277 25:-4.8845 
-0.3749202921953261 1:-3.2967 2:-3.0326 3:2.3526 4:7.9519 5:0.13826 6:1.7904 7:1.8336 8:2.6818 9:-0.074162 10:-2.3722 11:-0.20368 12:-1.2166 13:-7.7399 14:-5.4278 15:2.6883 16:-0.59856 17:-0.35764 18:2.9847 19:3.4275 20:1.8387 21:2.0443 22:3.291 23:-1.2974 24:-2.3015 25:-5.6916 
-0.36034668004375653 1:-0.28209 2:0.169 3:-2.6191 4:-1.3234 5:-0.46549 6:1.2987 7:2.054 8:2.5878 9:2.4086 10:1.1531 11:-1.7983 12:-6.0736 13:-2.3491 14:-1.3355 15:-3.1192 16:-2.2578 17:-0.09226 18:-3.2699 19:-0.62452 20:0.65194 21:2.0023 22:1.8177 23:1.2195 24:5.4786 25:-1.1685 
-0.6409735130577667 1:2.8183 2:-2.0388 3:1.5972 4:1.3064 5:-0.51332 6:-0.63232 7:-3.4687 8:-1.4595 9:-0.31576 10:2.2525 11:-0.21014 12:-2.3611 13:1.4624 14:1.0433 15:0.77437 16:-0.2714 17:1.9039 18:0.48659 19:-3.6763 20:-0.60218 21:0.44096 22:0.92545 23:-0.2361 24:-0.61491 25:0.13459 
-0.3733451414690694 1:1.1142 2:-1.2066 3:-3.6892 4:-1.6834 5:0.62792 6:-1.2578 7:3.6184 8:3.1991 9:4.3095 10:6.009 11:3.7284 12:-1.8246 13:-10.0677 14:-2.919 15:-5.3601 16:-3.3296 17:-3.7268 18:-1.531 19:-1.1741 20:1.0364 21:-1.061 22:0.71964 23:5.6876 24:4.6543 25:-1.4191 
-0.3797510333443807 1:-0.72063 2:-4.3342 3:1.6216 4:1.3029 5:0.77999 6:5.2934 7:2.1034 8:1.5053 9:-0.31014 10:-0.12441 11:-0.11216 12:-0.34436 13:-0.45875 14:-0.35045 15:-3.8034 16:-3.089 17:1.5333 18:0.37935 19:4.6806 20:4.143 21:4.5946 22:-0.106 23:-5.1648 24:-2.8903 25:-0.3904 
-0.37348954262640344 1:1.6655 2:1.5456 3:1.2222 4:1.6817 5:1.1431 6:-3.4038 7:-8.2061 8:-7.4287 9:-6.2671 10:-2.8585 11:-2.2038 12:-0.63581 13:3.8221 14:3.5427 15:1.4271 16:2.7799 17:1.3317 18:0.7037 19:0.40806 20:-1.4755 21:-1.3362 22:-10.8151 23:-9.5811 24:-8.1066 25:2.0006 
-0.37746478947378526 1:1.9977 2:2.5421 3:-0.24386 4:7.5028 5:-0.23887 6:-1.3173 7:-1.8227 8:-2.7922 9:-4.5283 10:-2.276 11:-0.52528 12:0.99861 13:-0.066587 14:-2.0278 15:-1.4235 16:0.83483 17:1.7925 18:1.5091 19:4.356 20:1.4665 21:-0.22637 22:-1.8424 23:-5.2404 24:-2.9104 25:0.017425 
-0.37563652042876733 1:0.083396 2:2.2736 3:-10.382 4:-8.0678 5:-6.5954 6:-5.6134 7:-1.6467 8:1.2401 9:3.4886 10:0.75804 11:-0.77706 12:0.70434 13:-2.4905 14:-3.0571 15:-1.0765 16:-0.78678 17:2.0122 18:-3.879 19:-6.6237 20:-5.562 21:-4.1927 22:-2.9134 23:-0.76094 24:1.9423 25:0.73332 
-0.3660773414792106 1:-1.5326 2:-7.5653 3:-5.6107 4:2.0906 5:0.69708 6:-0.022339 7:2.8146 8:3.388 9:2.0996 10:-1.1038 11:1.2096 12:0.43055 13:0.9651 14:-0.45978 15:-0.88104 16:-4.6753 17:-5.3196 18:-2.3536 19:2.5197 20:2.6829 21:2.987 22:2.7335 23:1.5995 24:1.9739 25:0.65101 
-0.39709694156372743 1:2.6123 2:-2.3887 3:1.859 4:2.2546 5:-0.67436 6:2.9063 7:4.712 8:-1.2431 9:2.3956 10:-2.3086 11:-3.6852 12:-4.7673 13:-2.4568 14:-0.66272 15:1.7484 16:1.4856 17:0.016388 18:-0.84814 19:-3.4733 20:-0.65893 21:2.2933 22:0.16502 23:-1.1346 24:-2.942 25:3.2995 
-0.3753864957211638 1:0.49095 2:-0.46793 3:0.11002 4:1.0452 5:1.8437 6:10.7584 7:-0.83171 8:-0.68211 9:-6.5236 10:-0.39248 11:-3.682 12:-1.3648 13:0.49006 14:-1.7167 15:-1.612 16:-0.31942 17:-0.78496 18:0.057019 19:2.299 20:2.5706 21:5.6864 22:1.5892 23:-2.5395 24:-7.868 25:0.95137 
-0.30432832055008713 1:-0.94332 2:-0.89832 3:-0.95401 4:0.040284 5:-0.68111 6:-2.0274 7:-5.8175 8:-3.3273 9:2.9602 10:7.2906 11:6.8137 12:3.1007 13:-0.5373 14:-1.3796 15:-0.76401 16:-0.083657 17:-2.3059 18:-2.4856 19:-1.656 20:-4.1364 21:-4.4975 22:3.2871 23:4.5684 24:8.085 25:-1.1364 
-0.370185208372097 1:-0.68825 2:2.2004 3:2.3307 4:-0.853 5:-3.1385 6:-4.3267 7:-2.4361 8:-2.5319 9:-3.9599 10:-6.0637 11:-2.7466 12:1.8281 13:2.542 14:1.6311 15:2.1073 16:0.072808 17:3.1533 18:1.4456 19:-0.22122 20:-1.1744 21:-0.96597 22:-4.0999 23:-5.4047 24:-7.3959 25:0.92758 
-0.37547052762303235 1:0.039203 2:1.8946 3:0.81354 4:4.3912 5:3.7288 6:2.0539 7:2.3004 8:-0.86673 9:-1.2787 10:2.8553 11:2.4102 12:-11.9272 13:-9.5803 14:1.4083 15:1.0039 16:3.139 17:1.8609 18:1.4894 19:2.8658 20:3.6502 21:1.0715 22:-1.0677 23:0.4229 24:-0.63395 25:-8.5926 
-0.381400745582431 1:-0.63144 2:0.21539 3:-1.3507 4:6.4016 5:1.7424 6:-1.8788 7:-3.1993 8:-0.85846 9:0.24011 10:-0.093764 11:4.2082 12:0.58202 13:-2.1054 14:-3.7996 15:-4.3608 16:-2.8486 17:3.5282 18:4.488 19:1.7486 20:-0.55922 21:-0.34477 22:1.6339 23:1.3974 24:-2.8948 25:-1.8304 
-0.37470715466870347 1:3.5216 2:0.10572 3:-4.1515 4:-5.2877 5:-6.7564 6:-5.6434 7:2.0748 8:4.7241 9:5.2547 10:0.19624 11:-2.3988 12:-1.1751 13:-3.0295 14:1.4186 15:1.4546 16:-4.1877 17:-4.3537 18:-7.5615 19:-3.3853 20:2.341 21:2.7828 22:3.4287 23:1.8501 24:-1.0182 25:-2.0143 
-0.423207913861605 1:-1.8457 2:-2.0661 3:-0.015107 4:-1.1264 5:-0.86785 6:1.5608 7:1.7791 8:-0.37754 9:-1.4314 10:-1.0238 11:-1.4437 12:-2.9941 13:-2.6769 14:0.91304 15:1.8082 16:-2.9927 17:-2.796 18:-1.3176 19:3.9734 20:2.6833 21:0.30729 22:-3.0497 23:5.8491 24:2.0998 25:-0.10232 
-0.4275516920638224 1:3.165 2:1.9916 3:0.80855 4:0.81956 5:1.7664 6:-1.8864 7:0.17829 8:0.077307 9:0.60872 10:-5.6993 11:0.9827 12:1.678 13:0.61912 14:2.731 15:3.0436 16:1.3861 17:0.78824 18:2.6542 19:0.016197 20:-2.2892 21:0.79423 22:-0.77462 23:-4.9959 24:-3.308 25:-0.55344 
-0.34034370356762816 1:-1.6728 2:-3.7098 3:-2.4938 4:-2.1525 5:-1.8089 6:-0.91758 7:0.72207 8:1.7302 9:2.5355 10:0.89574 11:0.77174 12:1.9888 13:3.3916 14:3.6368 15:2.3418 16:-1.8869 17:-4.0305 18:-4.1551 19:-3.7604 20:-0.53295 21:-0.79372 22:-0.68362 23:2.771 24:3.031 25:0.072803 
-0.5487865169899743 1:-1.3768 2:-0.99328 3:-1.7307 4:-2.7862 5:1.414 6:1.6664 7:-0.70697 8:-0.093468 9:2.8013 10:-0.46256 11:0.14655 12:-0.691 13:-2.6928 14:-3.4874 15:-0.20276 16:-3.5812 17:-2.8187 18:0.92014 19:-0.69144 20:-2.9511 21:-3.813 22:-2.4522 23:0.31883 24:0.8272 25:-1.9021 
-0.3020570492304381 1:-0.48246 2:-0.56712 3:-1.9251 4:-2.235 5:-3.2905 6:-3.3473 7:-2.6274 8:-3.066 9:2.2251 10:7.6095 11:7.4189 12:3.1667 13:-1.5358 14:-2.0357 15:-1.7773 16:-0.72154 17:-1.7345 18:-2.0467 19:-2.8853 20:-3.4975 21:-1.4032 22:4.3298 23:7.6364 24:7.1482 25:-0.78117 
-0.37504515331792493 1:-2.0189 2:-2.1186 3:-1.3112 4:-0.25069 5:3.3198 6:4.0544 7:0.50264 8:-1.4274 9:-4.5904 10:-5.7463 11:-5.5304 12:-4.5143 13:-2.702 14:-0.98339 15:-0.90622 16:-1.2362 17:-3.1714 18:-0.74097 19:-0.54315 20:-2.4098 21:-4.2251 22:-5.4477 23:-6.1536 24:-9.0307 25:-0.31479 
-0.37067451435810006 1:0.14371 2:1.2979 3:0.78573 4:1.1872 5:-0.97544 6:-1.0267 7:0.47943 8:-2.2378 9:-6.1432 10:-9.5862 11:-9.6003 12:-4.6552 13:-9.5444 14:1.4016 15:-0.16198 16:0.3012 17:1.1054 18:1.4027 19:0.38669 20:-0.066396 21:1.6132 22:-0.71915 23:-2.0632 24:-5.8077 25:-0.56302 
-0.4065445295055853 1:0.1497 2:-0.19909 3:0.42176 4:-0.47211 5:-3.556 6:-1.5704 7:-1.4274 8:5.3279 9:1.6284 10:2.9204 11:3.2195 12:2.3846 13:0.99417 14:-0.26564 15:-0.58293 16:-3.4648 17:-2.2897 18:0.49274 19:-1.5832 20:-4.6262 21:-1.1864 22:1.6574 23:2.927 24:3.7315 25:-0.46556 
-0.31847233692887483 1:-0.17932 2:-1.9218 3:-0.97357 4:-0.86217 5:-1.7693 6:-3.2891 7:-4.9416 8:-0.039204 9:3.834 10:8.0869 11:5.1295 12:0.5343 13:0.21731 14:-0.012837 15:-1.5248 16:-3.7267 17:-4.915 18:-2.4717 19:-1.8055 20:-5.4495 21:-0.95946 22:4.3737 23:4.5842 24:4.953 25:0.63813 
-0.3683417773362172 1:1.294 2:1.5239 3:1.6681 4:2.073 5:0.78359 6:1.3213 7:-3.9033 8:-7.6221 9:-5.1743 10:0.16321 11:0.09333 12:3.6441 13:4.0064 14:2.3337 15:1.2704 16:1.433 17:0.44462 18:2.2387 19:-1.1805 20:3.233 21:-8.7511 22:-5.786 23:-3.4579 24:-1.1813 25:2.2667 
-0.3724996257335057 1:-5.5713 2:-1.3935 3:3.1148 4:5.5408 5:1.4184 6:4.5585 7:2.9958 8:1.5514 9:1.7737 10:3.678 11:4.606 12:-1.5446 13:-4.9278 14:-11.6239 15:-4.7679 16:-2.418 17:1.3096 18:2.8629 19:3.3126 20:3.4718 21:2.9098 22:2.5633 23:1.6813 24:3.546 25:-7.7499 
-0.3745877859157487 1:2.4945 2:-1.1034 3:6.1959 4:2.2108 5:2.0555 6:-0.85318 7:-2.4197 8:-3.4766 9:-0.79286 10:-3.1441 11:-1.7837 12:1.5383 13:-0.74238 14:-0.38752 15:2.3134 16:0.26932 17:4.2448 18:1.738 19:4.1913 20:-1.6598 21:-2.3817 22:-2.8475 23:-5.0226 24:-2.8932 25:-0.71576 
-0.35986821778284495 1:-2.4216 2:-1.7755 3:-3.2508 4:-0.26713 5:-0.4405 6:3.6729 7:6.352 8:2.8697 9:1.0373 10:0.30618 11:-1.6999 12:-1.5366 13:-2.2441 14:-1.2261 15:-1.7078 16:-4.7198 17:-0.24959 18:-0.74354 19:4.7225 20:7.8506 21:2.9173 22:-0.86011 23:1.6063 24:-1.0629 25:-2.9943 
-0.3641653284831041 1:-0.54149 2:1.0619 3:0.93352 4:-0.11044 5:0.67834 6:0.71413 7:1.4238 8:2.8723 9:1.2195 10:0.78533 11:-2.7188 12:-9.1948 13:-4.8618 14:-1.1791 15:-2.1083 16:-0.23801 17:0.85584 18:1.6436 19:1.8585 20:1.8318 21:2.2515 22:3.0195 23:1.91 24:-0.52871 25:-2.7491 
-0.3680215255775895 1:3.5912 2:4.8629 3:4.6955 4:4.76 5:5.7311 6:2.1891 7:-4.7014 8:-4.3214 9:-2.0734 10:-5.1175 11:-0.26847 12:1.1796 13:-0.99628 14:0.5215 15:-0.10754 16:0.52171 17:2.4798 18:4.243 19:5.1898 20:3.41 21:-1.1916 22:-6.3649 23:-5.5426 24:-2.5586 25:1.7529 
-0.5161054564968506 1:3.316 2:0.97302 3:-2.4536 4:-2.5232 5:-2.5649 6:-1.1618 7:-0.98678 8:1.1171 9:0.77423 10:-0.671 11:0.0019151 12:-0.84478 13:-0.53324 14:1.4523 15:2.931 16:-0.26256 17:-1.2772 18:-0.70928 19:-1.2542 20:-1.1345 21:-2.9781 22:-3.4964 23:2.3563 24:1.2906 25:-1.619 
-0.3732068390629967 1:1.9048 2:1.0566 3:1.1041 4:1.1155 5:0.22926 6:-4.3864 7:-6.3167 8:0.73454 9:-1.8944 10:-0.032751 11:3.0076 12:3.1025 13:1.0679 14:1.9216 15:3.8412 16:0.51177 17:-1.7014 18:-0.018613 19:-0.65733 20:-6.0363 21:-4.1841 22:1.4585 23:-2.5326 24:-0.15268 25:0.17261 
-0.37392516498233536 1:-6.9149 2:-6.8255 3:-3.8087 4:2.5106 5:2.116 6:-1.9493 7:4.0477 8:4.5628 9:3.3114 10:1.3324 11:4.0707 12:5.7948 13:-3.0256 14:-9.4349 15:-6.3243 16:-7.0398 17:1.6283 18:4.8917 19:2.2581 20:1.114 21:2.322 22:2.1936 23:1.8524 24:1.758 25:-10.7452 
-0.37375783194198753 1:0.39568 2:2.372 3:-1.4457 4:1.755 5:-3.8793 6:-6.9393 7:-7.0628 8:-0.26775 9:-0.81394 10:0.77352 11:-0.65786 12:5.4994 13:1.3947 14:2.4003 15:0.74949 16:0.026782 17:0.30944 18:-2.1288 19:-2.064 20:-6.7657 21:-9.3789 22:0.34405 23:0.019825 24:-0.17613 25:-6.3927 
-0.46185790132585797 1:-1.1061 2:-0.40001 3:0.91588 4:-0.42365 5:-3.6137 6:-0.085918 7:-2.7054 8:-0.9004 9:1.7679 10:-1.9489 11:0.7712 12:0.19964 13:1.7598 14:1.3593 15:-0.58364 16:-0.5537 17:-1.0068 18:-1.8171 19:-2.612 20:-4.8272 21:-1.7751 22:-3.538 23:-1.4304 24:3.773 25:-0.58239 
-0.8177257715585765 1:-3.0683 2:-1.3552 3:-0.11493 4:1.1113 5:2.5942 6:2.8307 7:2.7658 8:2.2988 9:1.6347 10:1.0781 11:0.12937 12:0.22736 13:-0.90229 14:-0.010956 15:-0.65813 16:-0.56222 17:-0.47009 18:-1.0448 19:-0.69154 20:-0.87896 21:1.2566 22:2.3781 23:2.4752 24:2.4252 25:-2.6905 
-0.37040361303209735 1:-2.081 2:4.4747 3:2.7461 4:2.8691 5:0.32086 6:1.1448 7:-0.8409 8:-9.7942 9:-4.2986 10:-0.059484 11:2.5965 12:2.8699 13:1.9737 14:2.2927 15:1.1557 16:1.8321 17:2.3006 18:0.48524 19:-1.1752 20:-0.035774 21:-5.5187 22:-8.6852 23:-2.4266 24:2.7463 25:6.5594 
-0.363883992345568 1:-3.122 2:-5.1887 3:-3.8887 4:-2.4855 5:-0.48173 6:0.88166 7:0.51526 8:0.7557 9:-1.112 10:-1.3541 11:-0.50625 12:3.3549 13:2.3056 14:-0.40889 15:2.575 16:0.77399 17:-4.4606 18:-4.3568 19:-2.446 20:-2.6312 21:1.5048 22:1.8155 23:0.83333 24:-0.60445 25:-1.3143 
-0.38468833491197396 1:-2.1734 2:-1.0618 3:-0.84979 4:-1.6674 5:-3.2657 6:0.31008 7:-1.5243 8:-0.010305 9:3.5276 10:1.5361 11:2.1853 12:0.36511 13:0.02314 14:0.32942 15:2.3364 16:0.18466 17:-3.1347 18:-3.4181 19:-2.2818 20:2.0869 21:0.23703 22:5.4301 23:3.1922 24:1.6321 25:1.7649 
-0.36682661246825154 1:-6.3674 2:-4.1163 3:0.11535 4:2.3024 5:1.4244 6:-0.89546 7:2.8077 8:4.3684 9:1.6942 10:4.5433 11:4.5734 12:0.43836 13:-5.9432 14:-6.9667 15:-4.3693 16:-5.1079 17:-0.66133 18:2.2951 19:2.17 20:2.6034 21:5.0513 22:2.6983 23:6.0901 24:1.7726 25:-8.3731 
-0.3764796472947399 1:-0.40523 2:-0.84593 3:0.068032 4:5.2652 5:1.9255 6:-4.7216 7:-1.4416 8:-2.0395 9:-6.3528 10:-3.9573 11:0.92159 12:-0.41568 13:0.94111 14:0.29821 15:1.2059 16:0.46792 17:-1.1047 18:1.0579 19:2.4977 20:1.9095 21:-7.7366 22:-3.0901 23:0.16036 24:-3.3782 25:1.7085 
-0.40396842924649673 1:-0.29988 2:3.4792 3:3.5233 4:-0.68819 5:-4.0342 6:3.517 7:4.1273 8:-0.84234 9:-0.53183 10:2.3085 11:0.90033 12:1.8949 13:0.05039 14:-2.0709 15:-3.8138 16:0.43407 17:-0.59437 18:0.70761 19:1.9738 20:2.7951 21:1.2438 22:0.50034 23:0.54948 24:1.193 25:-1.9219 
-0.35744838299368736 1:1.0176 2:-5.2321 3:-6.6576 4:-2.7981 5:0.062272 6:-0.051609 7:-1.8928 8:-0.90795 9:-2.6303 10:-1.0869 11:0.53509 12:1.4701 13:2.0111 14:2.4191 15:1.2474 16:-1.4789 17:-7.6894 18:-4.3493 19:-3.0151 20:-1.5309 21:0.50851 22:-0.88027 23:-0.32722 24:0.32342 25:4.491 
-0.3756373646520935 1:-2.7769 2:1.6849 3:5.3911 4:-0.83619 5:1.0016 6:-4.8302 7:-5.0861 8:-6.4728 9:-6.1814 10:-4.0343 11:-1.9241 12:-2.3785 13:0.83029 14:-1.5882 15:-4.8368 16:-2.5507 17:0.61065 18:-4.9687 19:-5.419 20:-8.5249 21:-6.366 22:-2.3458 23:-1.7238 24:-0.50613 25:-3.3798 
-0.628999668927395 1:-1.7916 2:-2.3663 3:-2.0008 4:-0.4855 5:0.70683 6:0.66226 7:-1.1143 8:-2.1238 9:2.535 10:-0.13521 11:-0.1989 12:-0.3793 13:-1.4022 14:-1.9141 15:-0.45714 16:-1.2683 17:-2.3661 18:2.8342 19:2.1256 20:-1.2611 21:0.22667 22:3.2047 23:-0.73856 24:-4.9008 25:-2.2417 
-0.3753566151341986 1:-8.7684 2:-4.5542 3:5.0094 4:4.1084 5:0.2676 6:0.91234 7:3.3853 8:5.0877 9:2.0703 10:2.8024 11:0.70333 12:-0.55718 13:-7.9683 14:-7.3614 15:-4.8222 16:4.9163 17:3.4585 18:3.4296 19:3.4947 20:0.71659 21:0.63928 22:2.7973 23:3.126 24:0.41673 25:-6.5866 
-0.3527540341028676 1:-5.3898 2:-3.3763 3:0.25885 4:-0.83519 5:3.7152 6:2.3767 7:0.38695 8:0.985 9:0.83431 10:1.4276 11:-1.1225 12:-0.38617 13:0.71466 14:-4.5119 15:-4.0394 16:-1.4787 17:0.10225 18:-0.69603 19:2.6707 20:2.8979 21:1.281 22:0.40567 23:2.0418 24:0.3663 25:-3.4466 
-0.3742411454864425 1:-6.5568 2:-5.4483 3:-2.3986 4:1.8261 5:0.76583 6:2.9201 7:2.8788 8:2.228 9:3.186 10:1.7266 11:-0.65577 12:0.72581 13:0.66207 14:-3.1428 15:-13.5303 16:-6.4328 17:-0.57813 18:1.0609 19:1.6531 20:3.7063 21:0.80434 22:3.4458 23:3.1622 24:1.4337 25:-1.0553 
-0.5012927019913441 1:-1.0009 2:3.7253 3:1.9038 4:1.4021 5:0.46348 6:-0.45307 7:0.7444 8:0.43684 9:-3.1146 10:-0.73574 11:-3.4707 12:-3.4532 13:-0.70143 14:-0.47103 15:-2.2333 16:3.052 17:4.1614 18:2.5989 19:0.47825 20:-0.42124 21:-0.70022 22:-0.14123 23:-1.9811 24:-2.3201 25:-0.19162 
-0.3776112399110007 1:3.4791 2:2.9671 3:1.8646 4:-2.0152 5:-1.0386 6:-2.6313 7:-0.95143 8:-6.3798 9:-4.6577 10:2.7088 11:2.8172 12:2.4288 13:0.6053 14:0.11441 15:2.319 16:0.013101 17:-0.3823 18:-0.46101 19:-2.5695 20:-2.0508 21:-0.49357 22:-3.5694 23:-3.5658 24:2.871 25:2.3696 
-0.37100692697093723 1:2.481 2:2.6016 3:1.1522 4:2.332 5:2.3673 6:-0.28882 7:-0.42581 8:0.23531 9:-6.9846 10:-8.238 11:3.4062 12:1.8163 13:2.1905 14:3.06 15:2.6943 16:0.96388 17:2.6062 18:3.8372 19:0.12852 20:-0.35357 21:2.0497 22:-6.6158 23:-13.1201 24:-2.5836 25:6.8103 
-0.37352277222990177 1:10.7588 2:8.1796 3:1.1218 4:-1.3534 5:-2.4701 6:-1.7725 7:-2.0104 8:-3.5258 9:-4.3103 10:-3.4991 11:-3.521 12:0.21731 13:2.9469 14:6.4756 15:8.8135 16:8.209 17:0.9878 18:-1.165 19:-2.8257 20:-4.0838 21:-4.3247 22:-5.4034 23:-4.4322 24:-4.0088 25:5.3882 
-0.3847670387046424 1:-2.5487 2:-4.8605 3:-1.9989 4:5.6149 5:2.0058 6:0.85343 7:2.6848 8:4.49 9:0.1361 10:-1.3828 11:-4.8568 12:-3.2303 13:0.66121 14:-0.33481 15:-0.38934 16:1.001 17:2.0779 18:2.0586 19:1.5428 20:-2.2409 21:2.0034 22:-1.9465 23:-1.4166 24:-1.7681 25:-2.4437 
-0.37516173597771874 1:-0.041858 2:-2.9017 3:-3.7315 4:-6.6567 5:-7.5509 6:-4.6087 7:-4.7257 8:-3.0261 9:-1.8725 10:1.3677 11:-0.47124 12:2.3277 13:2.2529 14:2.7479 15:-0.0099727 16:0.0024984 17:-0.0413 18:-2.3774 19:-4.3068 20:-6.7771 21:-9.5493 22:-9.2477 23:-7.7925 24:-4.1115 25:0.22777 
-0.37551641351013926 1:1.857 2:1.406 3:2.0694 4:-0.48215 5:-6.0643 6:-8.0811 7:-7.5353 8:-2.1002 9:2.3911 10:6.0838 11:4.2504 12:3.1764 13:2.1355 14:3.5917 15:4.013 16:0.93954 17:-3.725 18:-7.6322 19:-5.8577 20:-4.0492 21:1.5332 22:-0.68381 23:0.81025 24:7.1717 25:2.8693 
-0.37771250313441473 1:-1.3365 2:-0.19338 3:4.671 4:2.8601 5:0.65907 6:1.8228 7:2.0013 8:1.824 9:2.9069 10:-4.1506 11:-2.8064 12:-8.1509 13:-2.6249 14:0.47293 15:-0.97894 16:2.6239 17:2.6124 18:2.147 19:0.74667 20:0.5037 21:1.3123 22:0.83996 23:-1.786 24:0.90828 25:1.3804 
-0.36501756470238145 1:0.61396 2:-3.7615 3:-5.2009 4:-4.2483 5:-6.904 6:-0.77659 7:3.5181 8:0.61991 9:3.5315 10:3.3039 11:3.7371 12:4.6612 13:-0.61865 14:1.5021 15:-0.024361 16:-8.7605 17:-6.3255 18:-5.0105 19:-2.9208 20:3.3865 21:2.435 22:3.1162 23:2.9512 24:2.9701 25:0.27646 
-0.29697058889920497 1:-2.3477 2:-1.7174 3:-2.3425 4:-1.8176 5:0.60842 6:1.068 7:0.74671 8:2.0134 9:1.2167 10:0.78788 11:0.11283 12:-1.9472 13:-2.8033 14:-2.6744 15:-2.8647 16:-2.3566 17:-0.14826 18:-2.7412 19:0.68124 20:3.7654 21:1.7539 22:2.32 23:1.0312 24:-0.38132 25:-3.6533 
-0.34950543688168323 1:1.0145 2:-4.4872 3:-7.372 4:-3.3222 5:-4.1093 6:-0.75979 7:1.6711 8:2.436 9:2.485 10:3.5828 11:2.6308 12:3.4138 13:4.5709 14:1.3594 15:-2.8434 16:-5.9672 17:-6.8713 18:-1.3224 19:-1.9733 20:0.16355 21:2.2653 22:3.5707 23:2.1883 24:2.2019 25:3.5776 
-0.37556479215411454 1:4.8023 2:4.5593 3:4.6036 4:3.8346 5:6.1988 6:4.2542 7:2.038 8:-0.43707 9:-2.5198 10:-6.6514 11:-0.9815 12:0.012122 13:-1.4439 14:0.9356 15:1.5222 16:2.8726 17:4.6765 18:4.5828 19:6.8264 20:4.5137 21:5.8235 22:2.4663 23:-4.1241 24:-9.575 25:1.5232 
-0.3973795291828613 1:-1.001 2:-2.5281 3:-2.0258 4:-1.724 5:-1.206 6:-0.0090686 7:0.28737 8:-1.6819 9:-1.5341 10:3.0414 11:4.5831 12:0.12353 13:-2.987 14:3.8857 15:2.6449 16:-0.77184 17:-0.2045 18:-0.32694 19:-2.3967 20:-0.50124 21:-0.51217 22:-2.0195 23:-3.083 24:4.9994 25:-0.26354 
-1.0 1:-0.48815 2:-0.51403 3:-0.78885 4:-2.0493 5:0.11413 6:1.1091 7:1.0428 8:-0.40938 9:1.5137 10:1.0662 11:0.44763 12:-0.34648 13:-1.6578 14:-2.8217 15:-0.41913 16:-0.23037 17:-1.5247 18:-1.6403 19:-0.5731 20:0.95033 21:1.3652 22:1.6537 23:0.39074 24:0.19327 25:-0.38232 
-0.38791445396246205 1:-0.19927 2:2.2133 3:2.114 4:-0.0077048 5:2.9348 6:0.5338 7:-0.15649 8:0.46097 9:3.0029 10:0.88788 11:-0.9963 12:-2.9327 13:-0.53275 14:0.74868 15:-0.68985 16:-3.4997 17:-2.5755 18:-3.992 19:-4.066 20:-4.5921 21:-4.8255 22:-3.0036 23:-0.036815 24:1.0347 25:-7.0744 
-0.3389192266357122 1:-0.86346 2:-1.4094 3:-0.71447 4:-1.7989 5:-2.2665 6:-3.3864 7:-3.6092 8:-3.2691 9:-1.7744 10:3.6258 11:6.9502 12:3.3751 13:1.6823 14:-1.0307 15:0.090272 16:-1.7099 17:-0.92236 18:-1.8188 19:-0.654 20:-2.4785 21:-2.9416 22:-0.70745 23:2.6033 24:6.139 25:4.186 
-0.5392516271199248 1:-2.1844 2:-2.8064 3:-3.5668 4:-3.9724 5:-2.5924 6:-1.2328 7:0.68703 8:0.8597 9:-0.93295 10:-0.75366 11:-0.53594 12:-0.38524 13:-2.2813 14:-0.52243 15:1.908 16:2.8258 17:2.1099 18:2.1217 19:2.4065 20:3.7127 21:3.2198 22:3.9174 23:0.57209 24:-2.3303 25:-1.3955 
-0.37164074892314003 1:-4.1861 2:-2.9884 3:-4.1306 4:-2.0198 5:6.2335 6:7.748 7:7.4995 8:3.1166 9:-0.19011 10:-1.2415 11:-2.5403 12:-1.9294 13:-3.31 14:-3.6993 15:-2.1036 16:-3.7324 17:-3.2125 18:1.5791 19:5.8434 20:8.9755 21:5.309 22:1.7763 23:-0.80454 24:-0.85462 25:-3.8809 
-0.43188954187242956 1:-2.3508 2:-1.4947 3:-1.6612 4:-1.6742 5:0.79237 6:-1.254 7:2.9766 8:0.37229 9:-1.0494 10:-0.65135 11:3.4576 12:0.70444 13:-1.7047 14:-1.9859 15:-0.30206 16:-1.8408 17:-4.8037 18:-0.21376 19:-2.4077 20:0.83106 21:3.7133 22:-0.44474 23:-1.495 24:1.1497 25:-1.5787 
-0.3108267720822384 1:3.6946 2:3.5215 3:3.7401 4:2.7638 5:2.2821 6:0.49873 7:-0.35573 8:-1.2047 9:-4.2098 10:-6.391 11:-5.1254 12:0.47061 13:-0.41678 14:2.9001 15:2.5287 16:0.73355 17:2.1775 18:3.1738 19:2.4052 20:0.40548 21:-1.101 22:-3.5797 23:-5.8518 24:-5.7216 25:0.64728 
-0.37262443150458885 1:-1.6598 2:-2.8452 3:-2.0377 4:3.0275 5:5.0731 6:5.6688 7:2.1495 8:-0.83155 9:-2.063 10:-0.59679 11:-2.8112 12:-2.6275 13:-2.0825 14:-2.8661 15:-3.336 16:-3.4692 17:3.7344 18:5.7633 19:6.7963 20:7.0459 21:2.7389 22:-2.5247 23:-1.7398 24:-2.5409 25:-2.1086 
-0.327137371319004 1:-5.883 2:-4.6404 3:-1.1518 4:1.1004 5:0.13834 6:1.0493 7:1.8155 8:1.5596 9:0.67706 10:1.7556 11:2.0383 12:1.3017 13:-2.4439 14:-5.1831 15:-4.9183 16:-3.1157 17:-1.4045 18:1.0817 19:0.47589 20:1.9143 21:2.6173 22:3.3545 23:1.4393 24:2.367 25:-3.8487 
-0.3720349925620414 1:-0.56578 2:-0.46725 3:-1.8576 4:-2.6049 5:1.2718 6:1.2104 7:1.8861 8:-5.6645 9:5.3503 10:0.8685 11:-3.7268 12:-4.3173 13:-3.7363 14:-2.2208 15:-0.16826 16:-2.8872 17:-0.40315 18:3.6773 19:0.45616 20:1.5428 21:-0.82279 22:2.5417 23:-1.115 24:0.098451 25:-3.889 
-0.36278282893684377 1:5.8774 2:3.1691 3:1.4857 4:0.52376 5:0.47203 6:-1.0867 7:-1.7108 8:-2.8544 9:-2.5754 10:-2.0674 11:-3.5215 12:-3.5963 13:2.3703 14:5.3119 15:5.3463 16:2.3726 17:1.4118 18:0.48015 19:-0.73397 20:-1.5222 21:-0.065242 22:-2.1235 23:-0.49263 24:-2.1112 25:5.2223 
-0.3722173078334085 1:0.8176 2:-0.76216 3:1.5191 4:3.2198 5:-0.90472 6:-0.88346 7:-2.4976 8:-2.5883 9:-0.50038 10:-4.338 11:-3.9268 12:0.82205 13:3.8022 14:4.7338 15:1.0126 16:1.5615 17:1.8943 18:-1.7201 19:-1.928 20:-0.99234 21:-2.0124 22:-3.4412 23:-4.7866 24:-0.91219 25:3.5599 
-0.3767965355501384 1:-1.0308 2:0.69981 3:0.5407 4:0.66502 5:1.06 6:0.60583 7:-0.36318 8:0.60376 9:0.7192 10:1.0324 11:1.5955 12:1.2765 13:0.18206 14:-0.51342 15:1.3449 16:-2.1881 17:3.1164 18:4.5023 19:-3.9624 20:8.9181 21:7.8076 22:-4.5906 23:1.2129 24:0.75685 25:-0.46018 
-0.3697047236737973 1:2.3729 2:5.1495 3:4.0839 4:-8.0722 5:-8.1881 6:-7.0696 7:-1.8077 8:5.3356 9:-3.6366 10:2.5425 11:1.3518 12:2.4207 13:1.2356 14:1.3489 15:5.1263 16:3.4296 17:-0.43856 18:-11.1977 19:-8.8574 20:-3.0215 21:1.7779 22:3.9156 23:-1.0711 24:3.1303 25:1.6423 
-0.4180979354377035 1:0.30397 2:1.9329 3:3.6139 4:2.0051 5:1.1426 6:0.3552 7:0.67564 8:1.5939 9:1.4504 10:1.4831 11:-0.66588 12:-2.5263 13:-4.6543 14:-4.5389 15:0.38212 16:1.6524 17:1.2518 18:1.632 19:2.643 20:2.812 21:-1.0157 22:2.0339 23:1.4769 24:1.174 25:-3.5181 
-0.37350840152496123 1:5.4728 2:0.65262 3:1.0261 4:2.9444 5:3.0461 6:3.9808 7:-0.33776 8:1.5121 9:1.8751 10:-5.307 11:-6.1843 12:-7.6052 13:-2.6544 14:5.2733 15:1.2733 16:0.98092 17:2.3803 18:4.0513 19:4.1573 20:0.63977 21:-0.38046 22:3.7157 23:-6.3915 24:-7.5629 25:-0.53034 
-0.3653860169229853 1:-2.2799 2:-1.919 3:-5.2806 4:-5.3611 5:1.9269 6:4.6653 7:4.9897 8:4.0871 9:0.23309 10:1.8146 11:1.344 12:-0.68892 13:-0.086836 14:-1.5993 15:-2.9944 16:-1.4503 17:-2.524 18:-4.3668 19:-2.6196 20:2.0231 21:5.7257 22:4.3282 23:0.56671 24:0.022374 25:-2.4342 
-0.4898327841754072 1:-1.2144 2:-0.088897 3:-3.8877 4:-0.98919 5:0.17884 6:0.38946 7:3.6105 8:2.4497 9:2.2533 10:0.46291 11:-0.16814 12:1.5954 13:0.28702 14:-0.19529 15:-1.4042 16:-1.8602 17:-3.6674 18:-0.44288 19:1.3678 20:3.8325 21:2.3045 22:2.2131 23:1.0141 24:0.060564 25:0.26035 
-0.37272168026339564 1:-0.46258 2:-1.9289 3:-1.323 4:-2.4049 5:-7.0674 6:-4.2229 7:4.4437 8:3.9858 9:4.5809 10:-0.15962 11:-2.5273 12:0.82575 13:0.079325 14:-0.82415 15:-2.4284 16:-0.99877 17:-0.43078 18:-2.624 19:-2.761 20:-1.4971 21:4.4373 22:6.397 23:4.025 24:-0.23001 25:-1.9651 
-0.37843831725849886 1:-2.5306 2:2.2246 3:0.98685 4:1.0973 5:1.7399 6:2.5313 7:-1.0503 8:-1.8967 9:-3.5178 10:-4.5553 11:-4.8988 12:-3.3338 13:-4.6394 14:1.6921 15:-1.9466 16:0.5087 17:2.512 18:0.19346 19:1.1362 20:1.3771 21:0.92788 22:0.071639 23:-3.3206 24:-3.3724 25:-2.9847 
-0.3752246693683123 1:-0.83243 2:-1.6503 3:-3.0042 4:-1.7988 5:1.9792 6:-4.6905 7:0.69887 8:-5.0578 9:-6.8703 10:-3.6932 11:3.2432 12:5.1599 13:3.276 14:-0.37282 15:-1.6659 16:-1.6012 17:-5.6291 18:-2.3645 19:3.9281 20:-7.541 21:-3.0919 22:-5.5934 23:-7.6119 24:-4.9462 25:-0.46289 
-0.321338755709477 1:2.1809 2:0.89115 3:2.8066 4:0.49429 5:2.2909 6:1.982 7:0.022436 8:-1.2667 9:-5.688 10:-5.1292 11:-4.2437 12:-0.0087065 13:1.9393 14:2.5829 15:2.2919 16:0.98134 17:2.7301 18:2.7945 19:2.4554 20:-1.2338 21:-3.6338 22:-2.5009 23:-9.1581 24:-6.2987 25:2.6852 
-0.2793887952345318 1:-0.42686 2:-1.1235 3:-1.6801 4:-2.0787 5:-3.0935 6:-2.781 7:-2.744 8:-2.5612 9:0.20553 10:5.8372 11:7.7448 12:2.8445 13:1.1567 14:-0.11176 15:-1.1667 16:-2.3261 17:-3.9402 18:-1.5315 19:-1.3442 20:-4.0149 21:-1.8424 22:2.182 23:2.7038 24:4.179 25:-0.82881 
-0.37417952970367513 1:-1.0148 2:-4.0598 3:-3.682 4:-5.1831 5:-3.5835 6:-1.3203 7:4.8896 8:2.8745 9:-0.46952 10:0.034588 11:0.29134 12:-2.3537 13:-3.9992 14:3.1506 15:-1.7918 16:-1.0414 17:-4.4884 18:-6.5312 19:-5.806 20:-2.0785 21:-2.6648 22:4.381 23:1.8734 24:-0.78781 25:-1.7974 
-0.3396399352554745 1:-0.32491 2:-1.7458 3:-3.1714 4:-2.4395 5:-3.905 6:-6.9591 7:-0.35528 8:-0.64408 9:-1.3587 10:1.8119 11:-0.5587 12:1.4395 13:2.7648 14:1.9033 15:-0.61066 16:-2.857 17:-2.0784 18:-2.7057 19:-3.668 20:-5.4074 21:0.28175 22:1.3546 23:-1.0615 24:1.7476 25:0.80068 
-0.3721899402098764 1:1.7968 2:-1.9264 3:-4.601 4:-2.5696 5:1.8102 6:1.9547 7:2.6247 8:4.2165 9:4.1531 10:-2.0555 11:-3.7933 12:-3.4459 13:-4.0799 14:0.48691 15:-2.7971 16:1.126 17:-2.1677 18:-2.0592 19:1.6157 20:4.2719 21:1.1068 22:3.1579 23:6.9541 24:3.9419 25:-2.3379 
-0.36146315321175265 1:-4.4411 2:-1.3993 3:0.45253 4:-1.4757 5:1.9626 6:3.5375 7:5.009 8:3.5024 9:-0.044873 10:-0.71334 11:-2.8427 12:-3.7012 13:-4.0741 14:-5.6304 15:-5.1132 16:-4.13 17:0.58574 18:-0.36948 19:3.6684 20:1.869 21:0.76197 22:2.3392 23:2.0453 24:1.7198 25:-4.0779 
-0.35127083346483023 1:-2.4628 2:-1.1107 3:-3.1027 4:-1.1097 5:-5.1002 6:0.78051 7:2.7672 8:2.114 9:0.95761 10:-1.7668 11:1.1648 12:2.83 13:-1.3257 14:-1.7178 15:-2.082 16:-1.8034 17:-0.77295 18:-4.855 19:-0.90451 20:4.1649 21:3.2846 22:4.2861 23:-0.81907 24:0.49773 25:-1.8575 
-0.3631597437879889 1:3.9818 2:-8.9387 3:-8.4379 4:-7.6173 5:-3.914 6:2.5087 7:2.8441 8:0.30645 9:3.4102 10:3.5849 11:2.9948 12:4.7928 13:3.8375 14:3.6314 15:-5.3293 16:-10.1481 17:-7.7438 18:-4.9644 19:-2.5434 20:2.6801 21:1.023 22:3.2746 23:2.5498 24:3.4263 25:4.4394 
-0.3786078829401611 1:-4.0046 2:2.5088 3:-0.1579 4:0.030743 5:1.906 6:2.5528 7:2.2593 8:2.5838 9:1.4979 10:1.3227 11:-2.0787 12:-0.92153 13:-2.846 14:-4.0296 15:0.27129 16:-0.65024 17:-0.91183 18:0.08165 19:-0.70733 20:-1.0685 21:3.4531 22:1.593 23:0.72153 24:3.6787 25:2.3542 
-0.37470064411992443 1:3.4816 2:2.7787 3:3.2129 4:0.48676 5:-3.1357 6:-3.4936 7:-6.5308 8:-3.217 9:-0.50159 10:0.13372 11:0.49956 12:-0.99219 13:-0.70289 14:2.8534 15:6.523 16:7.9322 17:9.195 18:6.0986 19:2.5137 20:1.4417 21:0.7299 22:-2.0101 23:-4.7056 24:-0.8185 25:3.3759 
-0.4361725038338668 1:1.3987 2:1.4067 3:1.41 4:1.0526 5:1.2246 6:1.3487 7:-0.2233 8:-0.9991 9:-1.0656 10:-2.7267 11:-3.8723 12:-0.55168 13:-0.74732 14:5.7221 15:3.4256 16:0.80621 17:-0.72689 18:0.27886 19:0.76388 20:-0.15647 21:-0.23224 22:1.1772 23:-0.33473 24:-3.7443 25:5.4628 
-0.3214938108293238 1:1.5656 2:-3.0084 3:-7.0425 4:-2.2144 5:-4.4783 6:-0.72527 7:-0.98652 8:1.0006 9:1.5625 10:1.9412 11:1.8824 12:2.4089 13:1.5457 14:1.702 15:0.054594 16:-3.9164 17:-5.3337 18:-4.9857 19:-4.6842 20:-1.4978 21:-0.56378 22:1.6502 23:2.1506 24:2.6791 25:2.9851 
-0.3749738281407873 1:-2.4829 2:3.8634 3:2.6306 4:2.4998 5:2.7724 6:3.4426 7:0.65807 8:1.3594 9:4.3297 10:7.3849 11:-8.5304 12:-10.717 13:-3.9301 14:1.5614 15:1.1241 16:3.6938 17:3.0278 18:0.65743 19:0.73762 20:1.3074 21:2.4451 22:2.5151 23:-0.41252 24:-1.3227 25:-7.8756 
-0.5597585650096615 1:-0.24989 2:-0.4599 3:-0.5824 4:-1.3815 5:0.74082 6:0.88233 7:-2.5402 8:-0.43904 9:2.5369 10:-0.8519 11:-1.2248 12:1.7204 13:2.089 14:0.29753 15:3.7032 16:3.3654 17:0.7571 18:0.46015 19:5.8033 20:3.4312 21:1.3089 22:-1.9717 23:-1.2725 24:-0.61672 25:-0.31934 
-0.3742310801931486 1:0.48201 2:-1.4209 3:-0.44031 4:3.4495 5:4.7371 6:0.91986 7:-3.0237 8:-1.6033 9:-10.0682 10:-4.5627 11:-5.263 12:-0.10297 13:1.4357 14:1.3598 15:-0.1069 16:-1.3702 17:-1.6388 18:-0.049199 19:-0.51973 20:2.6064 21:1.3085 22:-2.5888 23:-6.7792 24:-4.6228 25:1.9167 
-0.37513774080762263 1:-6.8356 2:-3.8596 3:-2.3774 4:2.5971 5:-1.2939 6:0.15918 7:1.2472 8:1.0547 9:-1.8673 10:6.4945 11:-0.50704 12:0.17353 13:3.1995 14:2.7642 15:-4.7982 16:-2.3695 17:-2.38 18:-0.80131 19:0.3319 20:0.62192 21:1.9704 22:0.84658 23:-0.64909 24:5.6427 25:2.2092 
-0.37534436617767475 1:-5.5458 2:-1.6738 3:-1.645 4:-1.423 5:-0.38908 6:-0.051941 7:-1.1966 8:-0.05679 9:-0.062277 10:-0.37356 11:3.5844 12:7.3222 13:7.6141 14:-5.4877 15:-6.5688 16:-2.169 17:0.37095 18:-4.3342 19:-0.59417 20:1.6274 21:-1.6991 22:-1.0089 23:0.29218 24:0.74451 25:-4.0233 
-0.4947637899498047 1:-3.1955 2:-4.8518 3:-2.8145 4:-0.98026 5:0.37373 6:3.6207 7:-3.1813 8:-3.3807 9:0.906 10:0.7598 11:-0.82015 12:-0.84783 13:-2.8638 14:-2.1702 15:-1.6741 16:-0.68056 17:0.26902 18:1.0921 19:-0.8366 20:-0.10123 21:1.5025 22:2.4491 23:0.33808 24:-0.74074 25:-3.7701 
-0.322388261280918 1:-1.1916 2:-1.7141 3:-1.5276 4:-1.1811 5:-6.9288 6:-6.6401 7:-1.0297 8:-0.52745 9:-0.011108 10:2.8253 11:2.1643 12:2.0552 13:2.3332 14:1.6721 15:-1.6909 16:-2.1675 17:-0.84754 18:-3.5824 19:-7.605 20:-5.5044 21:1.1572 22:-0.32335 23:-1.5016 24:3.4093 25:0.52565 
-0.3795147896718738 1:-0.92197 2:1.7021 3:0.013894 4:-2.1866 5:-2.2274 6:-7.7923 7:2.8052 8:0.60874 9:2.1448 10:3.3206 11:-0.8503 12:-0.17782 13:-0.71422 14:0.18113 15:-0.62186 16:-0.68215 17:-0.38634 18:-2.1867 19:-2.8327 20:-3.7424 21:0.86706 22:-0.42701 23:2.3733 24:0.16477 25:0.7714 
-0.3831715968032303 1:-1.5652 2:0.82137 3:0.071068 4:-1.0542 5:4.4971 6:5.3891 7:0.13919 8:3.3873 9:3.2071 10:1.861 11:-0.55891 12:0.97539 13:-0.17555 14:-1.3226 15:-0.68117 16:-4.3542 17:-4.971 18:-4.9581 19:1.6353 20:-1.3597 21:-2.9676 22:2.1315 23:3.1848 24:1.6238 25:-0.96215 
-0.3720729595168347 1:2.5289 2:1.5481 3:1.1656 4:0.48976 5:-1.4876 6:-3.8299 7:-4.6763 8:-8.5698 9:-6.6998 10:-6.5181 11:0.43111 12:-1.3291 13:-1.3482 14:0.27727 15:3.3033 16:1.8664 17:0.38532 18:0.087469 19:-0.69294 20:-5.6164 21:-4.4453 22:-6.6943 23:-7.8391 24:-7.7146 25:2.7595 
-0.4903312009817524 1:-1.142 2:1.2468 3:1.0572 4:1.6747 5:-0.4922 6:-1.0557 7:-4.4508 8:-1.1079 9:-0.78149 10:-1.3187 11:5.344 12:1.0311 13:3.0411 14:1.5515 15:-0.224 16:-0.030054 17:0.98683 18:2.0988 19:0.84221 20:-1.6956 21:-1.9412 22:-2.9645 23:-0.83823 24:0.33308 25:-0.7542 
-0.37769261078900646 1:-1.4286 2:1.5943 3:-0.86971 4:-4.2871 5:-4.0565 6:-1.7224 7:0.28769 8:0.93671 9:2.22 10:-1.712 11:3.8504 12:-1.7541 13:2.8707 14:2.3137 15:5.7534 16:2.3082 17:1.1809 18:-4.5795 19:-4.1383 20:-2.5922 21:-1.6419 22:-1.4003 23:1.1032 24:-1.3165 25:4.7046 
-0.3725173709983141 1:2.0584 2:3.0023 3:3.0993 4:2.2008 5:-1.2901 6:-7.9418 7:-4.0372 8:-4.3319 9:-3.961 10:-0.16983 11:0.019204 12:1.6438 13:0.67586 14:0.46299 15:1.0708 16:2.9431 17:3.2815 18:6.3616 19:-0.033556 20:1.4527 21:-9.1712 22:-3.2384 23:-7.0659 24:-3.4236 25:1.0021 
-0.37544943761146365 1:-4.7616 2:-2.5614 3:-1.8063 4:-2.5964 5:-2.0992 6:-1.1613 7:1.0203 8:1.7352 9:0.82444 10:1.1024 11:0.38531 12:1.8298 13:-0.062768 14:4.4011 15:-0.62834 16:-2.1282 17:0.17677 18:-4.7018 19:-3.4097 20:-1.7326 21:1.4451 22:0.83853 23:-0.81625 24:-1.3237 25:0.72514 
-0.37562431611774616 1:1.8263 2:3.3662 3:2.4516 4:2.1074 5:-2.6072 6:-9.0337 7:-7.384 8:-5.3706 9:-4.2094 10:-0.85779 11:1.5957 12:1.7675 13:4.3648 14:4.8179 15:1.3695 16:0.37091 17:1.02 18:2.4411 19:3.3165 20:5.3207 21:2.1636 22:-0.12887 23:-7.8299 24:-9.3612 25:2.2803 
-0.34813360573930696 1:5.1838 2:6.7539 3:5.165 4:0.73603 5:-1.7118 6:-0.47869 7:-1.6999 8:-2.3996 9:-3.0612 10:-1.7721 11:-1.5139 12:-3.7208 13:-4.3927 14:1.2426 15:5.6895 16:8.4418 17:5.0753 18:1.0236 19:-1.3507 20:-0.47104 21:-0.5863 22:-2.8957 23:-4.2489 24:-2.381 25:-0.36776 
-0.3756977961532932 1:3.2408 2:3.1192 3:1.0118 4:1.3982 5:3.0903 6:-3.2607 7:-8.3991 8:-8.4318 9:-1.5631 10:2.7997 11:5.3746 12:-0.47697 13:2.8487 14:3.5571 15:3.0539 16:1.6771 17:1.4531 18:-0.028202 19:-3.0138 20:-7.0948 21:-8.3542 22:-3.7879 23:3.9782 24:5.2818 25:3.7371 
-0.3746393684123343 1:0.58299 2:2.0522 3:3.2975 4:1.5806 5:1.5929 6:2.5949 7:0.21394 8:-2.7526 9:0.84738 10:-2.0088 11:-12.1022 12:-5.4059 13:0.34298 14:1.3219 15:2.8837 16:4.1869 17:2.4522 18:1.8636 19:1.7718 20:1.261 21:-1.7711 22:-0.30895 23:0.27089 24:-11.231 25:0.92948 
-0.3643694200234715 1:1.4558 2:0.8983 3:1.0293 4:0.72376 5:0.84809 6:3.0154 7:2.9386 8:1.4831 9:-5.0375 10:-7.6946 11:-7.6368 12:-1.9303 13:4.0152 14:1.7848 15:1.3927 16:0.24567 17:1.0613 18:2.0436 19:1.612 20:2.4192 21:1.318 22:-0.56517 23:-10.3883 24:-7.5186 25:1.4169 
-0.34258808521919987 1:-3.5898 2:-4.2136 3:-4.7608 4:-2.9034 5:-3.739 6:-2.904 7:-1.1201 8:1.0751 9:3.4447 10:3.749 11:2.4918 12:1.5659 13:0.054198 14:-0.13261 15:-5.0004 16:-4.3525 17:-4.5863 18:-3.8187 19:-4.5469 20:-2.6276 21:-1.0966 22:1.4241 23:2.6681 24:3.5109 25:-1.2328 
-0.4993038774704748 1:-2.8945 2:-4.579 3:-0.76048 4:-0.489 5:0.098975 6:-0.24317 7:0.28888 8:-0.4307 9:0.37103 10:0.92996 11:1.4927 12:2.5981 13:1.9822 14:2.9964 15:2.0433 16:-3.5271 17:-1.8152 18:-3.4069 19:-2.8249 20:-1.1257 21:-1.4933 22:-0.18259 23:-0.05831 24:-1.6424 25:-0.96461 
-0.3754515317429858 1:-1.5231 2:-0.43219 3:0.75183 4:1.0447 5:0.84228 6:-2.5603 7:-3.0148 8:-0.24969 9:2.2367 10:3.8283 11:9.2105 12:11.4711 13:-0.88772 14:4.4839 15:0.55094 16:-3.7626 17:-10.04 18:-2.9552 19:-5.2874 20:1.5431 21:0.34388 22:2.4356 23:2.7041 24:4.5559 25:-2.3428 
-0.375465034826439 1:0.13643 2:5.2794 3:1.3096 4:0.94838 5:3.8514 6:5.9046 7:6.2773 8:5.265 9:2.0161 10:-2.8383 11:-2.4754 12:-3.0759 13:-9.0975 14:-5.6356 15:4.9679 16:2.1633 17:3.2043 18:1.7614 19:2.1558 20:2.9903 21:5.3671 22:7.5762 23:4.8721 24:-1.7197 25:0.02598 
-0.3538604853968925 1:3.3212 2:0.88249 3:1.8699 4:2.0247 5:0.39846 6:-0.34607 7:0.39683 8:-0.7935 9:-6.2514 10:-3.2419 11:1.0683 12:-1.6565 13:1.4695 14:5.6569 15:2.2344 16:0.92927 17:1.7111 18:1.5658 19:-0.71062 20:-1.1626 21:-1.2028 22:-6.8795 23:-8.6301 24:-2.6629 25:3.4095 
-0.3766574637349395 1:-1.3584 2:-1.3215 3:0.45389 4:0.4903 5:0.060308 6:2.0715 7:4.2044 8:6.3144 9:7.0045 10:-1.0176 11:2.2513 12:-3.5506 13:-4.0971 14:-9.3363 15:-7.3837 16:-7.6386 17:-7.8927 18:-5.1781 19:-1.7094 20:-0.82156 21:-0.42994 22:-1.6403 23:-2.1368 24:-0.89832 25:-2.1496 
-0.3728916285556522 1:3.8489 2:2.7849 3:-5.9794 4:3.1029 5:1.7436 6:-4.9903 7:-1.2651 8:0.4082 9:1.5118 10:0.94509 11:-0.44892 12:-1.1892 13:-0.93016 14:3.4348 15:2.8305 16:1.0089 17:-4.92 18:-1.4026 19:-2.4572 20:-5.8788 21:-2.6456 22:0.22695 23:1.0318 24:1.7927 25:-0.77607 
-0.34947933242621615 1:0.93235 2:4.0572 3:5.195 4:3.3251 5:-1.6668 6:-1.6171 7:-6.0764 8:-3.0425 9:-2.081 10:-0.91305 11:0.65712 12:-0.41887 13:1.4527 14:2.2829 15:1.927 16:2.3053 17:5.338 18:4.7966 19:-1.0046 20:-2.344 21:-4.0629 22:-5.2257 23:-2.3803 24:-4.3294 25:-0.11958 
-0.374628019259385 1:3.6007 2:1.7706 3:2.5359 4:2.9881 5:6.1056 6:-2.4248 7:1.5101 8:5.4872 9:-2.6343 10:-10.232 11:-6.7908 12:-3.7442 13:3.1162 14:2.7927 15:0.8703 16:1.5956 17:4.7437 18:6.0064 19:0.66777 20:1.6949 21:2.3815 22:0.24055 23:-9.6092 24:-8.6905 25:5.1324 
-0.3754690446933654 1:1.5939 2:-6.5755 3:-4.9881 4:-2.27 5:-2.78 6:-3.0154 7:2.3549 8:2.6318 9:5.0521 10:4.3003 11:4.5797 12:5.9575 13:3.8855 14:4.5813 15:0.73914 16:-1.8234 17:-12.2808 18:-10.0311 19:-6.6898 20:-2.9566 21:-2.0421 22:0.30128 23:4.7029 24:4.6 25:4.4049 
-0.41210098805229106 1:-1.6785 2:-1.5985 3:-1.0415 4:-0.13356 5:4.1451 6:2.5932 7:-2.4099 8:-3.6423 9:-3.3427 10:-1.2884 11:-3.0474 12:-3.2756 13:-2.8956 14:-3.4908 15:-2.2888 16:-0.51601 17:1.4284 18:4.3391 19:1.2971 20:-0.043221 21:-1.4967 22:-3.1778 23:-3.0172 24:-0.77603 25:-1.6232 
-0.3732735950000099 1:-0.54016 2:3.2836 3:2.6536 4:0.33824 5:1.559 6:1.1477 7:-0.55505 8:-0.34456 9:-0.98216 10:3.265 11:-9.029 12:-4.5429 13:-0.57141 14:0.73515 15:1.1883 16:3.1014 17:1.588 18:1.7591 19:0.81749 20:2.323 21:3.9289 22:2.2711 23:-2.4426 24:-2.1126 25:-0.77199 
-0.3747775380213401 1:5.1079 2:2.8276 3:-8.7883 4:2.6862 5:-4.0991 6:-4.7177 7:-2.4679 8:0.85588 9:1.9608 10:0.29257 11:1.5476 12:4.916 13:2.3325 14:0.98675 15:3.6125 16:5.1633 17:-0.40275 18:-6.6722 19:-1.7353 20:-3.9128 21:-3.4398 22:-1.3295 23:-1.3825 24:-0.89634 25:-0.98937 
-0.368812126751633 1:2.9463 2:0.3777 3:0.60773 4:1.0376 5:-6.806 6:-8.0464 7:-2.602 8:0.41659 9:-0.066404 10:1.2456 11:3.3591 12:1.6301 13:0.73017 14:1.9338 15:0.44043 16:-0.29335 17:2.1928 18:1.6424 19:-8.2328 20:-5.5818 21:-2.7304 22:-0.41728 23:-1.6929 24:3.7162 25:2.6755 
-0.3752560667531859 1:-2.5973 2:6.0856 3:4.0299 4:-2.7174 5:3.2216 6:-0.070525 7:-0.49536 8:-5.6851 9:4.0972 10:-4.9086 11:-3.3841 12:-1.6138 13:-1.1734 14:2.5911 15:3.2008 16:0.96231 17:-1.6698 18:-6.0667 19:3.9027 20:-2.5886 21:-3.8229 22:-2.3322 23:-1.4056 24:-0.93816 25:0.52746 
-0.37195796032044987 1:-0.80326 2:1.5817 3:3.517 4:4.1397 5:-2.289 6:-2.8028 7:2.3892 8:-4.3257 9:-5.7798 10:-3.1726 11:-0.2476 12:0.21437 13:1.3362 14:0.43456 15:-0.22168 16:-0.14347 17:1.4899 18:0.70363 19:6.1581 20:1.3981 21:-3.0409 22:2.6027 23:-7.4344 24:-4.5805 25:-1.2503 
-0.3719839500985111 1:-0.7601 2:-1.9454 3:-2.5882 4:-1.8202 5:-2.8799 6:-2.4566 7:-0.71507 8:3.2792 9:8.6838 10:6.2306 11:2.5978 12:-0.41833 13:-1.821 14:-2.3954 15:-3.2887 16:-2.8847 17:-1.6923 18:-2.3898 19:-4.5947 20:-0.94304 21:2.7725 22:5.319 23:7.8307 24:4.6508 25:-1.2959 
-0.37487112854750404 1:3.1086 2:-0.31326 3:-3.6816 4:2.2645 5:-5.7074 6:-9.6173 7:-6.5055 8:5.8369 9:-0.51365 10:-0.21661 11:3.4948 12:2.0769 13:1.5823 14:0.055587 15:-0.33597 16:-0.90309 17:-2.0787 18:-1.0092 19:-3.5777 20:-6.9534 21:-6.6803 22:1.1874 23:3.5661 24:1.1762 25:3.0835 
-0.3754587271217737 1:-3.7043 2:-0.51662 3:3.496 4:4.474 5:4.0689 6:2.3638 7:2.5196 8:2.5253 9:3.0851 10:1.0653 11:-4.405 12:-7.6814 13:-8.9798 14:-11.3801 15:-1.7703 16:2.9288 17:4.8992 18:6.1938 19:4.1766 20:3.548 21:4.2054 22:5.1432 23:4.9766 24:4.6544 25:-2.525 
-0.37058589551197085 1:3.2311 2:3.2132 3:3.3632 4:1.5596 5:0.77435 6:0.69669 7:-3.2348 8:-7.0966 9:-5.9999 10:-4.8883 11:2.1801 12:5.4467 13:3.5169 14:1.9866 15:3.2352 16:2.0365 17:0.16837 18:2.2957 19:1.2473 20:-3.0729 21:-7.3609 22:-7.4222 23:-6.2808 24:2.7956 25:3.9625 
-0.37553637605119256 1:6.8482 2:0.79726 3:5.9056 4:-2.5786 5:-0.17999 6:-4.0645 7:-2.867 8:-1.0575 9:0.68059 10:1.3848 11:-0.75134 12:3.0277 13:2.6206 14:-0.8628 15:-0.046522 16:6.8228 17:-1.0792 18:-2.794 19:-2.3088 20:-6.4123 21:-5.0693 22:1.3132 23:2.3725 24:2.2747 25:-1.1672 
-0.3757759078830888 1:1.7641 2:2.6326 3:2.1036 4:2.4971 5:3.4602 6:2.7016 7:2.5472 8:4.4149 9:4.0932 10:-0.39804 11:-11.4948 12:-9.7659 13:-5.7686 14:-1.6945 15:4.1872 16:2.9372 17:1.6828 18:3.7785 19:2.1422 20:2.7044 21:2.4467 22:2.4708 23:5.7407 24:4.3561 25:4.0848 
-0.3754742162704837 1:0.41929 2:-4.5043 3:-6.9879 4:-1.1477 5:-2.1804 6:2.1392 7:4.3661 8:-2.1605 9:-6.6125 10:-5.6686 11:0.57174 12:-1.3339 13:-3.4397 14:-4.0093 15:-2.43 16:-2.8212 17:2.2443 18:4.0248 19:6.6524 20:4.2632 21:0.86519 22:-5.0019 23:-2.246 24:-2.3345 25:1.0649 
-0.3881733632575793 1:-0.39598 2:0.5754 3:1.4683 4:-0.91373 5:-2.164 6:0.30341 7:0.91283 8:2.2633 9:3.9403 10:-1.5444 11:-0.42096 12:-0.10815 13:-3.7819 14:-2.179 15:-3.6326 16:0.34641 17:2.2493 18:2.2578 19:-1.1277 20:0.61025 21:1.3784 22:2.9853 23:0.5511 24:6.1654 25:-2.4466 
-0.3698667008748543 1:3.5737 2:0.94637 3:-0.68909 4:0.43095 5:-0.61719 6:-1.8509 7:-2.268 8:-0.49088 9:-2.3027 10:-3.3864 11:-1.4226 12:5.6203 13:5.2176 14:5.1706 15:1.2759 16:-0.49754 17:-0.82172 18:0.54349 19:-2.1288 20:-2.0058 21:-2.6089 22:-1.691 23:-2.7592 24:-3.2363 25:6.1748 
-0.3611677884261262 1:2.5317 2:3.9433 3:2.9109 4:2.3124 5:1.8345 6:-0.50889 7:-0.22914 8:-0.14322 9:-7.2352 10:-7.3969 11:-4.7442 12:-4.2196 13:-3.2841 14:1.321 15:1.9298 16:1.4968 17:3.1172 18:2.2067 19:1.1896 20:0.24745 21:-0.67686 22:-0.75918 23:-0.46282 24:-5.5657 25:0.01546 
-0.3757007344032221 1:-1.9119 2:-0.61388 3:2.5868 4:4.7403 5:-3.7518 6:-3.0612 7:-6.8942 8:-6.4538 9:-1.726 10:3.8544 11:2.6352 12:-0.39086 13:-1.434 14:-0.021717 15:-2.0019 16:8.2743 17:-0.35997 18:-2.8477 19:-2.3652 20:-5.8438 21:-3.2669 22:2.4052 23:4.5919 24:1.822 25:-1.686 
-0.3751625384518098 1:4.8391 2:4.2757 3:4.7446 4:2.3804 5:2.9744 6:-2.2696 7:-7.2605 8:-3.9646 9:-3.918 10:-4.6403 11:0.93991 12:1.6847 13:5.112 14:0.65837 15:4.3479 16:5.2515 17:3.4623 18:4.0477 19:4.5729 20:-0.062501 21:-12.5275 22:-6.0494 23:-3.5621 24:-3.2924 25:-0.083581 
-0.3688795265837093 1:1.0629 2:4.4792 3:3.1315 4:-5.4026 5:-7.6077 6:-6.4722 7:-0.2914 8:2.8758 9:1.9658 10:1.0091 11:1.8694 12:2.363 13:2.4653 14:1.7787 15:1.3239 16:3.3373 17:0.57437 18:-9.3251 19:-8.752 20:-4.6977 21:-1.3878 22:4.5758 23:2.659 24:1.8602 25:1.1179 
