svm_type c_svc
kernel_type rbf
gamma 0.04
nr_class 2
total_sv 228
rho 0.6413034059431767
label 1 0
nr_sv 76 152
SV
1.0 1:-0.71318 2:-0.6703 3:-0.20161 4:1.823 5:0.83824 6:2.6553 7:1.8974 8:-0.51994 9:-2.053 10:-1.5309 11:-1.9761 12:-3.5559 13:-0.77268 14:0.576 15:2.727 16:1.449 17:1.073 18:-0.23818 19:-0.13951 20:0.012781 21:-0.24927 22:-0.3158 23:-0.4186 24:-0.28331 25:-0.21156 
1.0 1:4.6621 2:0.57344 3:-2.2051 4:-3.2723 5:-2.1018 6:-0.23543 7:0.30725 8:-1.0741 9:-0.60141 10:-0.37025 11:0.061618 12:1.2603 13:1.2438 14:1.5861 15:-0.23579 16:-5.874 17:-5.2436 18:-5.6194 19:-4.2097 20:-0.52445 21:2.2065 22:2.8798 23:3.4379 24:0.85767 25:9.6393 
1.0 1:-3.4285 2:-3.969 3:-2.5229 4:-0.40438 5:-0.4078 6:-1.3821 7:-1.3954 8:-2.9933 9:-2.3004 10:-0.9784 11:-1.963 12:-1.4282 13:1.5917 14:0.39969 15:0.12019 16:-0.31765 17:-0.62456 18:-2.3623 19:-3.1599 20:-1.6446 21:-2.1296 22:-2.1633 23:1.3375 24:0.010961 25:-4.7861 
1.0 1:0.86705 2:-7.4944 3:-19.8796 4:-12.133 5:-6.1852 6:-2.9761 7:-1.5819 8:-2.1901 9:0.40248 10:3.1305 11:2.0187 12:2.02 13:5.1928 14:5.2907 15:4.3934 16:4.4725 17:4.4675 18:3.9839 19:3.584 20:2.7127 21:1.5344 22:-0.20885 23:-1.3807 24:-2.3352 25:4.6671 
0.3347393511396541 1:-0.24602 2:-0.36384 3:-0.81202 4:-1.167 5:-1.0013 6:-0.68817 7:-0.15346 8:-0.21337 9:0.0066704 10:-0.46901 11:0.0071692 12:-0.14262 13:0.28686 14:-0.21757 15:-0.68376 16:-0.98462 17:-0.70215 18:-1.0097 19:-1.403 20:-1.8731 21:-0.52583 22:-0.84097 23:-3.3439 24:-2.6352 25:-0.29393 
1.0 1:1.7799 2:-0.13921 3:0.46111 4:0.87797 5:5.0587 6:4.2143 7:2.4081 8:2.6934 9:3.0004 10:1.8882 11:1.313 12:0.020589 13:-0.74885 14:-1.9117 15:-3.2438 16:-3.2874 17:-2.1864 18:-0.88356 19:0.22115 20:0.55848 21:0.32073 22:0.021177 23:0.35453 24:0.01105 25:1.4586 
0.42526523851040116 1:-0.69774 2:-0.50292 3:0.29756 4:0.50381 5:0.85733 6:1.0495 7:0.99625 8:1.0859 9:1.2624 10:1.3717 11:1.5521 12:1.9197 13:1.336 14:1.7956 15:2.2272 16:1.3404 17:1.1128 18:0.6129 19:-0.054819 20:0.07893 21:2.1328 22:1.9023 23:-0.36323 24:-1.7033 25:-0.79979 
0.648002364178739 1:2.3399 2:2.4854 3:2.855 4:2.5365 5:2.1304 6:1.799 7:1.9701 8:1.4691 9:1.7075 10:1.8528 11:1.4073 12:0.9235 13:1.6465 14:1.7428 15:2.0137 16:1.6812 17:1.2065 18:0.47339 19:0.055991 20:0.21103 21:-0.13149 22:-0.2307 23:0.0050461 24:0.07325 25:1.7063 
1.0 1:1.0111 2:-4.3387 3:-3.4074 4:-1.2235 5:-3.7394 6:-5.8174 7:-2.7371 8:-3.2285 9:-4.5546 10:-4.9827 11:-4.0398 12:-2.0956 13:-0.43542 14:0.053098 15:-0.10162 16:0.53137 17:1.1518 18:2.1467 19:2.404 20:2.2751 21:2.6983 22:3.1308 23:2.6022 24:2.102 25:1.764 
0.12129398336062654 1:0.31031 2:-0.10538 3:-0.11734 4:-0.31626 5:-0.035528 6:0.4101 7:0.13224 8:3.5369E-4 9:0.94184 10:1.6665 11:0.9072 12:1.5952 13:1.8694 14:1.0759 15:0.76859 16:1.0747 17:0.97245 18:0.89495 19:1.0894 20:1.2476 21:1.4421 22:1.7192 23:1.6804 24:1.5353 25:1.8246 
1.0 1:2.8353 2:4.9756 3:9.0616 4:13.7114 5:8.1098 6:4.0138 7:0.31936 8:-1.6756 9:0.11233 10:-1.5119 11:0.90505 12:-0.9664 13:-0.74829 14:-3.7782 15:-4.9598 16:-3.784 17:-1.2568 18:2.1509 19:2.7805 20:4.1551 21:3.8922 22:3.3854 23:3.5118 24:3.3858 25:1.6819 
1.0 1:-1.4207 2:-1.9412 3:-2.2844 4:-2.651 5:-3.3003 6:-3.0443 7:-3.1188 8:-3.5828 9:-3.5534 10:-3.8624 11:-2.9587 12:-2.2715 13:-2.1073 14:-1.9494 15:-1.7191 16:-1.8299 17:-1.5173 18:-1.1119 19:-1.1958 20:-0.85088 21:-0.64414 22:-0.29274 23:-0.083717 24:-0.21691 25:-1.107 
1.0 1:-2.1652 2:-3.7534 3:-4.4446 4:-4.1937 5:-4.1911 6:-3.2583 7:-1.4845 8:-0.52215 9:-0.19896 10:-0.5107 11:-0.014058 12:0.52609 13:0.77542 14:0.68145 15:0.46066 16:-0.042552 17:0.05591 18:-0.006946 19:-0.11817 20:-0.070337 21:-0.04914 22:-0.30003 23:-0.062308 24:0.28597 25:-1.4569 
1.0 1:0.082109 2:-1.0202 3:0.69334 4:-0.25629 5:1.0663 6:0.1992 7:7.3271 8:2.8632 9:1.924 10:-3.9591 11:-4.2376 12:-5.0016 13:-6.1448 14:-6.9756 15:-6.4616 16:-3.4084 17:-1.3991 18:-2.098 19:0.4041 20:-0.36591 21:-0.57246 22:-0.20816 23:-0.16291 24:-0.91468 25:0.17769 
1.0 1:0.13011 2:-0.3171 3:5.4786 4:1.967 5:-1.5444 6:-0.079368 7:-0.52733 8:-0.63958 9:-1.2575 10:-0.41355 11:-1.7653 12:-1.2464 13:-0.47687 14:-1.2817 15:-0.40874 16:0.56421 17:-0.14802 18:-0.27174 19:0.46508 20:-0.44933 21:-0.3059 22:0.73072 23:1.8051 24:-1.1083 25:2.2187 
1.0 1:-0.048761 2:0.13305 3:0.76177 4:-0.18259 5:-0.15256 6:1.8211 7:2.977 8:1.0179 9:3.2286 10:0.1616 11:-3.0136 12:-3.0306 13:-3.2967 14:-3.6538 15:-4.418 16:-3.5944 17:-4.2156 18:-3.0273 19:-2.0065 20:-1.7614 21:-1.4125 22:-0.096913 23:-0.4927 24:0.29099 25:0.1371 
0.19765036416823184 1:-0.2289 2:-0.010395 3:0.067894 4:0.1469 5:0.044264 6:0.39473 7:1.2781 8:1.2219 9:0.59697 10:-0.28538 11:0.39309 12:0.6267 13:1.9674 14:0.97099 15:0.7182 16:0.60039 17:-1.9271 18:-1.0788 19:-0.34906 20:0.23702 21:0.21204 22:-0.083692 23:2.0694 24:0.73144 25:-0.44373 
1.0 1:-2.5016 2:-0.4117 3:0.04681 4:0.12527 5:-0.368 6:-0.99342 7:-1.1239 8:-0.92764 9:-0.45099 10:-0.70941 11:0.2609 12:0.070177 13:1.3852 14:-0.40808 15:0.035039 16:2.0827 17:-2.4853 18:1.9521 19:1.3781 20:-2.4378 21:3.4268 22:2.6836 23:-3.6423 24:-0.22958 25:3.0099 
1.0 1:-1.7 2:0.36193 3:1.9723 4:-0.66317 5:2.4321 6:1.9604 7:-3.3799 8:-4.0881 9:-1.5834 10:-0.91072 11:-2.4099 12:-3.3829 13:-2.7839 14:-2.6112 15:-1.1654 16:-0.88062 17:-1.902 18:-1.5219 19:-0.89529 20:0.036407 21:1.0786 22:-0.016782 23:0.078499 24:2.1297 25:2.2465 
0.45540205209591256 1:1.0972 2:-0.067771 3:-0.31422 4:0.019794 5:-0.51869 6:-0.336 7:-0.10416 8:0.71197 9:1.8921 10:0.49221 11:0.76512 12:0.14841 13:0.73269 14:0.16461 15:1.0354 16:2.5359 17:1.5645 18:2.5536 19:0.59309 20:0.96344 21:0.6951 22:1.562 23:0.19366 24:0.81109 25:0.35184 
1.0 1:-10.3539 2:-7.6804 3:-3.0393 4:-0.093 5:-0.052211 6:-0.080479 7:-1.8618 8:3.8837 9:-0.52712 10:0.66328 11:0.95366 12:-1.5484 13:-4.3992 14:-2.9347 15:-3.4252 16:-4.0807 17:-3.9593 18:-4.0565 19:-4.4941 20:-2.8671 21:-1.2819 22:-1.8096 23:-1.1331 24:-0.8906 25:-5.5463 
0.06880287071784758 1:-0.26732 2:-0.0018961 3:-0.4259 4:0.073868 5:-0.02062 6:1.2578 7:1.1746 8:-0.0089798 9:0.083933 10:-0.32333 11:-0.44172 12:0.2183 13:0.43761 14:0.87126 15:0.40784 16:0.61095 17:0.6841 18:0.52929 19:0.89404 20:-0.29995 21:-0.68028 22:2.9798 23:-0.32541 24:-2.4882 25:-1.43 
1.0 1:-11.2265 2:-8.6465 3:-8.8034 4:-10.1881 5:-2.2568 6:0.026011 7:0.79416 8:0.33041 9:0.16236 10:-1.2555 11:2.2445 12:0.41808 13:1.1994 14:1.5318 15:-0.10964 16:-1.5086 17:-4.252 18:-4.0757 19:-2.3359 20:-2.2663 21:-3.0482 22:-3.0513 23:-2.7687 24:-2.6111 25:-10.8301 
1.0 1:-1.6571 2:-1.0235 3:0.088888 4:0.29271 5:0.81009 6:0.30542 7:0.080913 8:0.3271 9:0.12743 10:0.53317 11:0.82231 12:-0.070874 13:-1.2614 14:0.35318 15:4.2789 16:4.0892 17:-2.2818 18:-0.085457 19:2.8526 20:-1.4894 21:-0.22825 22:-4.7007 23:0.89171 24:0.84779 25:-0.78137 
1.0 1:-8.9194 2:-5.7424 3:-4.0052 4:-2.0994 5:-1.0824 6:-0.64771 7:-0.28925 8:-0.033672 9:-1.4811 10:-1.049 11:-1.2498 12:-0.84576 13:-2.5392 14:-3.0167 15:-2.7676 16:-3.2617 17:-1.218 18:-0.34241 19:-1.3726 20:-1.627 21:-1.3672 22:-2.2545 23:-2.9646 24:-1.2209 25:-11.1301 
1.0 1:0.98341 2:1.9023 3:3.4736 4:2.986 5:3.2615 6:3.2468 7:1.2523 8:0.57589 9:-0.88455 10:-3.5524 11:-4.5277 12:-3.6384 13:-3.5984 14:-4.1171 15:-6.1553 16:-5.0917 17:-3.947 18:-4.2767 19:-2.9837 20:-2.3863 21:-2.363 22:-0.73063 23:0.63955 24:-1.5764 25:2.2696 
0.19768990655199392 1:1.4844 2:1.0438 3:1.1505 4:0.79313 5:0.15642 6:-0.37652 7:-0.68417 8:0.60304 9:0.49829 10:1.4219 11:1.1852 12:-0.53042 13:-0.6678 14:0.46791 15:0.76891 16:0.50835 17:0.98881 18:0.29297 19:0.70193 20:0.5345 21:1.3162 22:1.4161 23:0.9054 24:1.9504 25:1.7166 
1.0 1:0.039793 2:0.059507 3:-0.0055903 4:0.2792 5:1.0859 6:1.3262 7:1.4012 8:2.1711 9:2.781 10:3.1273 11:3.5406 12:3.2368 13:3.159 14:2.9588 15:3.0766 16:3.1385 17:2.8752 18:2.4324 19:2.6307 20:2.4128 21:2.8423 22:2.5721 23:2.7669 24:2.3104 25:-0.18051 
0.02055759187538287 1:-0.92992 2:-1.0776 3:-1.2172 4:-1.3276 5:-1.8319 6:-1.7593 7:-1.5696 8:-1.6268 9:-1.3528 10:-0.76469 11:-0.78822 12:-1.0022 13:-0.98754 14:-1.3377 15:-2.0966 16:-1.8138 17:-2.8547 18:-2.1922 19:-1.198 20:-1.673 21:-1.4135 22:-0.78988 23:-0.78574 24:-0.77283 25:-0.8352 
0.8864292798622121 1:1.2253 2:1.9506 3:3.1118 4:3.1726 5:2.3592 6:1.872 7:0.61931 8:-0.89 9:-0.98847 10:-0.74076 11:-1.2721 12:-1.3257 13:-1.4661 14:-1.7798 15:-2.382 16:-3.6956 17:-3.4221 18:-2.6911 19:-2.5616 20:-2.4261 21:-1.5371 22:-1.1869 23:-0.53451 24:0.049573 25:0.18807 
0.018734655089562072 1:0.48777 2:0.45487 3:0.86756 4:0.28961 5:-0.10751 6:-0.064838 7:0.59737 8:0.93058 9:0.26084 10:0.051705 11:0.68557 12:1.1358 13:0.78073 14:1.5935 15:-0.5744 16:0.51589 17:0.7254 18:-0.29195 19:-2.1897 20:0.72146 21:0.033845 22:1.3172 23:0.84594 24:-1.2229 25:0.42012 
1.0 1:-0.25711 2:-0.33381 3:1.6225 4:0.49111 5:0.5565 6:0.95605 7:1.7 8:-1.3321 9:-3.4211 10:-2.9859 11:-4.0573 12:-3.5292 13:-2.9892 14:-3.549 15:-3.1285 16:-2.9399 17:-3.7299 18:-3.9736 19:-3.3623 20:-1.9471 21:-0.44634 22:0.72194 23:0.73961 24:-0.24566 25:-0.37892 
0.5278506685216129 1:2.1661 2:2.3815 3:1.6767 4:1.2293 5:1.378 6:0.73869 7:-0.062912 8:0.25944 9:-0.08237 10:-0.34171 11:-0.13421 12:-1.4703 13:-1.6868 14:-1.7115 15:-1.4871 16:-1.0618 17:-0.55784 18:-0.36471 19:0.042877 20:-0.52094 21:-0.66166 22:0.27918 23:1.8766 24:0.6529 25:-1.0103 
0.5266488998895834 1:1.064 2:-0.7747 3:-1.943 4:-1.375 5:-1.2562 6:-2.1592 7:-1.6671 8:-1.8057 9:-2.362 10:-2.5998 11:-2.3142 12:-1.6829 13:-0.55856 14:0.23958 15:0.52518 16:0.73207 17:0.10217 18:-0.46458 19:-0.56361 20:-0.54672 21:-0.2804 22:-0.46295 23:-0.88706 24:-1.2085 25:1.8181 
0.20443826608942564 1:0.36657 2:0.18456 3:-0.029426 4:-0.15327 5:-0.32065 6:-0.25816 7:-0.46109 8:-0.54301 9:-0.51144 10:-0.59472 11:-0.022224 12:0.57518 13:1.4028 14:0.58842 15:-0.33284 16:-0.95708 17:-0.24068 18:-0.2995 19:-0.49803 20:-2.01 21:-2.8068 22:1.7605 23:0.75461 24:-0.57719 25:-0.14195 
0.6371461889961059 1:0.19262 2:-2.2709 3:-1.0577 4:-3.4465 5:-3.4629 6:-2.7378 7:-2.6856 8:-1.1258 9:-0.24695 10:0.049553 11:0.20319 12:0.050832 13:0.10249 14:0.26222 15:0.32403 16:0.35558 17:0.13024 18:-0.095959 19:-0.20669 20:-0.46674 21:-0.87147 22:-1.1296 23:-0.80144 24:-1.1105 25:0.63617 
1.0 1:-3.9612 2:-3.4533 3:-2.9643 4:-2.034 5:-1.0661 6:-0.95359 7:-1.0956 8:-0.72699 9:-0.29041 10:-0.49629 11:-0.85362 12:-1.0058 13:-0.51699 14:-0.21009 15:-0.10353 16:0.47041 17:0.72915 18:1.0861 19:1.4288 20:1.9516 21:2.547 22:2.1634 23:2.4579 24:1.5064 25:-4.0953 
0.8471545010663466 1:-2.8107 2:-3.713 3:-2.7117 4:0.38585 5:-0.35819 6:-0.55666 7:-0.32091 8:-0.16232 9:-0.15797 10:0.12026 11:0.44647 12:1.0801 13:1.7559 14:2.7518 15:2.0516 16:0.76377 17:0.05118 18:-0.8856 19:1.5179 20:-0.08969 21:-1.4159 22:0.1609 23:0.95768 24:-0.48546 25:-2.9396 
1.0 1:-5.4062 2:-5.8114 3:-6.9448 4:-8.9487 5:-6.662 6:-9.2316 7:-5.7007 8:-4.5962 9:-1.8852 10:0.015967 11:-0.58228 12:-0.71172 13:-0.69686 14:-0.47338 15:0.17481 16:-0.63674 17:0.096179 18:0.013175 19:-0.81082 20:-3.4075 21:-4.6717 22:-4.0899 23:-4.164 24:-3.8721 25:-1.8199 
0.7616897139293851 1:0.33038 2:0.43455 3:0.71444 4:0.11163 5:-1.0126 6:-0.073479 7:-1.2512 8:2.6703 9:0.79825 10:-0.87214 11:0.5771 12:-0.31565 13:-0.77788 14:-0.83596 15:-1.7411 16:-1.1188 17:-0.749 18:0.60958 19:0.07498 20:-0.98719 21:-1.0504 22:-1.6979 23:-0.33425 24:2.0428 25:-0.20831 
0.2431708494946996 1:-2.2868 2:-2.74 3:-1.7046 4:-0.89478 5:-0.12311 6:-0.15657 7:-0.50291 8:0.01627 9:0.54659 10:-0.14647 11:-1.2446 12:-0.078278 13:0.86601 14:0.59159 15:0.46919 16:2.414 17:1.6453 18:0.086213 19:-0.44847 20:0.080258 21:1.3012 22:1.6481 23:1.5343 24:0.33231 25:-2.3262 
0.23031618252032257 1:-0.95346 2:-0.89591 3:-1.0468 4:-1.0239 5:-0.88236 6:-1.0439 7:-0.72586 8:-0.87963 9:-1.043 10:-1.5057 11:-1.2455 12:-0.76828 13:-0.55497 14:-0.007963 15:0.85526 16:1.1872 17:2.2395 18:1.6608 19:0.94357 20:0.55108 21:-0.38876 22:-0.58175 23:2.598 24:1.6737 25:-1.0348 
0.5166861855496488 1:1.2698 2:1.59 3:1.7336 4:1.6619 5:1.9784 6:2.2375 7:1.4927 8:0.96209 9:0.84572 10:0.66641 11:0.57806 12:0.1823 13:0.37539 14:0.43989 15:-0.23294 16:-0.70716 17:-0.94696 18:-1.7135 19:-2.418 20:-2.6405 21:-2.3263 22:-1.9515 23:-1.495 24:-1.0887 25:1.6759 
1.0 1:0.47438 2:0.31638 3:0.13399 4:0.44474 5:0.20504 6:0.19194 7:0.85477 8:0.89877 9:0.71241 10:0.97414 11:0.53912 12:-0.17005 13:0.9608 14:-0.26768 15:0.0064032 16:3.7603 17:-0.34728 18:4.0166 19:4.7624 20:2.6634 21:-0.5154 22:-3.1023 23:-2.9724 24:-2.901 25:0.13268 
1.0 1:-4.4643 2:-4.1313 3:-0.95285 4:-1.28 5:-2.065 6:-0.40052 7:-1.1116 8:-0.89046 9:1.1161 10:1.5956 11:2.3277 12:2.7116 13:3.9759 14:3.9796 15:4.153 16:5.7074 17:4.1089 18:1.96 19:0.36756 20:-0.1149 21:-0.38752 22:-0.33697 23:0.046924 24:-0.020062 25:0.81735 
1.0 1:3.4645 2:3.3183 3:3.4506 4:3.4198 5:3.0594 6:2.8186 7:2.2027 8:1.6759 9:0.33039 10:0.30591 11:1.0966 12:0.68231 13:-0.40956 14:-0.66654 15:0.16385 16:0.57818 17:-0.055835 18:-0.38597 19:-0.41655 20:-0.23086 21:-1.1239 22:-0.10696 23:-1.0959 24:-1.0494 25:4.3489 
1.0 1:5.7663 2:0.055142 3:-2.4531 4:0.097254 5:0.49127 6:0.22934 7:-0.32298 8:-2.6719 9:1.2645 10:-0.84326 11:-0.46378 12:-0.025034 13:-1.3419 14:-3.1748 15:-1.2345 16:1.5137 17:1.5952 18:2.1431 19:1.4267 20:2.5171 21:4.1111 22:3.0163 23:3.2365 24:4.3168 25:6.3732 
0.4363751659839402 1:-2.0922 2:-1.8379 3:-2.4659 4:-2.4844 5:-0.15984 6:0.42167 7:1.0727 8:-1.7577 9:-0.60102 10:-0.88753 11:0.34936 12:0.84603 13:-0.47162 14:-0.51563 15:0.71123 16:-0.18558 17:-1.4396 18:0.40348 19:-0.16518 20:-0.59624 21:0.35038 22:0.25361 23:0.2956 24:0.68038 25:-1.5489 
0.6385344388175771 1:-0.38797 2:-0.41568 3:-0.92231 4:-0.46486 5:-0.96025 6:-1.2975 7:-0.82369 8:-1.8181 9:-2.8296 10:-2.7004 11:-2.4689 12:-1.7358 13:-0.99859 14:-2.3052 15:-3.0302 16:-0.69995 17:-0.13712 18:0.24916 19:0.69388 20:1.6406 21:1.4295 22:1.2852 23:1.2103 24:1.1445 25:-0.13987 
1.0 1:1.4535 2:1.6061 3:1.0729 4:-0.60216 5:-2.5161 6:-3.3297 7:-3.849 8:-3.8469 9:-3.3794 10:-2.0287 11:-0.52303 12:0.69991 13:0.46527 14:-0.29046 15:-0.60729 16:-0.29476 17:-0.11279 18:0.42152 19:0.35606 20:-0.36525 21:-0.2594 22:0.57853 23:0.064669 24:-0.032072 25:1.4371 
1.0 1:-5.9879 2:-5.738 3:-4.1026 4:-3.5343 5:-4.6444 6:-0.95723 7:2.225 8:1.2252 9:1.5583 10:1.7047 11:-0.74342 12:1.707 13:1.4476 14:-3.8148 15:1.615 16:1.1547 17:-0.57161 18:-0.55248 19:-0.94755 20:-0.97108 21:-0.37571 22:-1.5044 23:-0.46537 24:0.31609 25:-2.987 
1.0 1:0.87936 2:1.0874 3:1.8278 4:2.2381 5:2.122 6:2.1871 7:2.428 8:2.1376 9:0.51509 10:0.28612 11:-0.35378 12:-1.4272 13:-3.1367 14:-1.5932 15:-1.3108 16:-1.838 17:-0.52245 18:-1.6909 19:-1.0477 20:-2.4847 21:-0.95271 22:-3.3895 23:-2.5292 24:-1.5485 25:1.3735 
1.0 1:0.10798 2:-0.47006 3:0.41415 4:-0.43007 5:-1.958 6:-2.6303 7:-2.9996 8:-3.1287 9:-3.5945 10:-3.4021 11:-3.6387 12:-3.6844 13:-3.23 14:-2.9601 15:-2.0096 16:-0.98034 17:-0.4636 18:-0.11654 19:0.056057 20:0.11489 21:0.09891 22:0.09076 23:0.13745 24:0.11801 25:0.58931 
0.4193737151075833 1:0.35677 2:-0.43377 3:-0.67364 4:0.82131 5:0.97071 6:1.0418 7:1.452 8:1.1296 9:1.1384 10:2.3566 11:2.8314 12:2.9622 13:1.9401 14:2.2012 15:1.7354 16:1.1569 17:0.53182 18:0.33386 19:0.29626 20:0.28487 21:0.07188 22:0.044395 23:0.1674 24:0.25488 25:0.93445 
0.5672589687272722 1:1.8441 2:2.2331 3:1.8034 4:0.02462 5:-0.62229 6:-0.28459 7:0.33805 8:0.42012 9:0.63665 10:0.75528 11:1.0944 12:1.459 13:1.9984 14:2.4135 15:2.6199 16:2.4141 17:2.102 18:1.5656 19:1.0364 20:0.69997 21:-0.36174 22:0.15962 23:-1.0479 24:-1.0636 25:2.0778 
0.7057720595856711 1:-0.47003 2:-0.42929 3:0.83286 4:0.43814 5:1.0718 6:1.6313 7:0.09775 8:-1.2128 9:-1.4544 10:-1.9926 11:-2.8681 12:-3.4523 13:-3.8061 14:-4.3705 15:-4.8066 16:-4.382 17:-3.9974 18:-3.853 19:-3.0648 20:-1.9163 21:-1.3571 22:-1.0906 23:-0.7828 24:-0.72868 25:-1.6564 
0.5909336440727895 1:-1.1229 2:-0.96676 3:-0.85493 4:-1.0753 5:-1.3725 6:-0.52646 7:-0.23293 8:-0.51203 9:-0.49876 10:-0.98172 11:-0.74822 12:-1.2425 13:-1.9288 14:-2.8797 15:-2.4295 16:-1.4999 17:-1.8712 18:-2.1957 19:-1.5059 20:-1.7797 21:-1.3849 22:-1.3203 23:-2.0077 24:-1.7818 25:-0.58419 
0.5443780388221342 1:-0.083835 2:-0.2624 3:-0.2428 4:0.11157 5:0.80074 6:1.062 7:1.0797 8:1.6375 9:2.1308 10:1.675 11:1.7652 12:1.2474 13:1.5536 14:0.87259 15:0.46793 16:-0.67746 17:-1.1915 18:-1.7521 19:-1.2935 20:-0.86837 21:-0.28382 22:0.20499 23:-1.8023 24:-1.6533 25:-0.54977 
1.0 1:-5.8706 2:-3.3373 3:-1.1609 4:-0.99779 5:-0.80847 6:-0.11756 7:0.20558 8:0.28717 9:0.70273 10:0.75064 11:0.97369 12:0.94113 13:1.1695 14:1.4306 15:1.1331 16:0.94647 17:0.76188 18:0.48659 19:0.40128 20:0.4719 21:0.2641 22:0.63971 23:0.60995 24:0.53815 25:-6.9219 
1.0 1:0.22171 2:0.034895 3:0.069654 4:-0.047104 5:-0.0050544 6:0.0026048 7:-0.046748 8:-0.37622 9:0.3663 10:0.88304 11:1.024 12:0.97445 13:1.2772 14:1.4289 15:0.67096 16:0.31206 17:1.3332 18:1.4953 19:1.9071 20:0.62742 21:-0.70692 22:-3.0244 23:-4.2969 24:-4.5618 25:0.3602 
1.0 1:0.11721 2:-1.6573 3:1.2457 4:-0.58976 5:1.6965 6:-0.069468 7:-3.4685 8:-4.0755 9:-0.64547 10:0.37675 11:0.6235 12:-0.52973 13:-0.86296 14:-1.2242 15:-1.7689 16:-1.7844 17:-0.94712 18:1.2492 19:0.82347 20:0.23252 21:-0.091759 22:-0.03552 23:0.21375 24:0.26506 25:-3.0986 
0.4038045441849262 1:0.80834 2:1.1461 3:-0.67385 4:0.10226 5:0.77746 6:-0.25098 7:-1.157 8:-0.52325 9:-0.50665 10:-0.14825 11:0.3048 12:-1.8729 13:-2.6196 14:-0.53902 15:0.038497 16:-2.4554 17:-2.7052 18:-1.2251 19:0.55641 20:0.57588 21:-0.40647 22:-0.29315 23:0.97054 24:-0.54106 25:-0.50477 
0.8228441353003544 1:2.1228 2:2.6013 3:1.1147 4:-0.29073 5:-0.078805 6:0.37312 7:1.0674 8:0.91992 9:1.2037 10:1.2325 11:1.6273 12:0.92121 13:0.80075 14:1.4415 15:1.5781 16:0.90803 17:0.92375 18:2.3882 19:3.0411 20:0.65841 21:0.24714 22:1.9636 23:1.2421 24:-0.41671 25:3.4531 
1.0 1:0.16415 2:-0.14185 3:-1.2683 4:-0.58787 5:-2.057 6:-0.72096 7:-0.28565 8:-0.71645 9:-1.6413 10:0.091507 11:0.40543 12:0.83748 13:1.5395 14:2.1275 15:2.2774 16:2.3578 17:2.2593 18:3.2605 19:3.5711 20:3.8224 21:3.9294 22:4.3403 23:4.1927 24:4.4062 25:1.1572 
1.0 1:0.64793 2:0.30381 3:0.57827 4:1.2141 5:1.3063 6:1.532 7:1.8829 8:1.0795 9:1.5023 10:1.9327 11:2.2093 12:3.0091 13:4.0229 14:4.6143 15:7.0695 16:6.5616 17:5.5873 18:3.9475 19:2.8779 20:1.5818 21:0.86147 22:0.37741 23:0.27983 24:0.1418 25:0.66509 
0.185947919075185 1:-0.63126 2:-0.60388 3:0.12508 4:-1.4756 5:-1.1882 6:-0.20092 7:-1.0563 8:-0.90881 9:-1.4395 10:-2.0821 11:-2.1677 12:-1.7181 13:-1.3878 14:-0.76635 15:0.48151 16:1.4403 17:1.9504 18:1.6411 19:1.1278 20:0.60982 21:-0.39543 22:-0.10109 23:0.86695 24:0.81601 25:-0.1686 
1.0 1:0.35926 2:0.017531 3:0.53701 4:2.1049 5:3.112 6:4.9507 7:4.6064 8:3.7939 9:2.9001 10:2.6026 11:0.087858 12:-1.2871 13:0.80087 14:0.74131 15:0.24578 16:-0.039905 17:-1.4987 18:-0.49604 19:-0.35903 20:-0.62441 21:1.5782 22:0.6861 23:0.19494 24:0.27796 25:0.30794 
0.3153462335469743 1:-1.3738 2:-1.8395 3:-0.80812 4:0.48188 5:-0.62983 6:-1.9433 7:-2.0581 8:-1.5863 9:-1.434 10:-1.8725 11:-2.4367 12:-1.7083 13:-0.56839 14:-0.018901 15:-0.40724 16:-1.4049 17:-0.81131 18:1.6605 19:2.1369 20:1.0519 21:0.39946 22:0.5159 23:0.66593 24:1.2311 25:-0.4832 
1.0 1:1.1347 2:1.0215 3:0.40534 4:2.2705 5:2.3604 6:2.3658 7:2.1494 8:1.9259 9:2.3381 10:0.87133 11:1.9369 12:1.2615 13:-0.13465 14:-2.3585 15:-3.2554 16:-4.1971 17:-4.3722 18:-4.88 19:-4.6183 20:-2.6494 21:-2.1323 22:-1.17 23:0.81123 24:1.5754 25:3.5119 
0.8917548153338443 1:-0.084629 2:0.067475 3:-0.098321 4:-0.051725 5:0.067468 6:-0.31775 7:-0.54835 8:-0.35178 9:-0.055499 10:-0.6243 11:0.72333 12:-0.16914 13:-0.41317 14:0.045494 15:-0.064723 16:-0.83218 17:-1.5749 18:0.93139 19:1.7914 20:-0.33279 21:-0.27768 22:3.172 23:1.2637 24:-4.2954 25:0.38718 
0.540947280302931 1:-0.22614 2:-0.25354 3:1.0188E-4 4:-0.14746 5:-0.011959 6:-0.38187 7:-0.69973 8:-0.91716 9:-1.5288 10:-1.963 11:-1.8945 12:-2.1674 13:-3.2444 14:-3.5377 15:-2.7786 16:-3.4475 17:-3.2229 18:-2.6293 19:-2.8455 20:-3.657 21:-2.2536 22:-0.18921 23:-0.57841 24:-0.30518 25:-0.24657 
0.29111676775152173 1:-0.78551 2:-0.18629 3:0.033242 4:0.24583 5:0.098636 6:-3.9972E-4 7:0.098747 8:0.047686 9:-0.26876 10:-0.80253 11:-0.90269 12:-1.0118 13:-0.59708 14:-0.062712 15:0.60986 16:1.6991 17:1.8937 18:1.3751 19:1.3804 20:1.4861 21:1.6265 22:1.5149 23:2.4447 24:0.61618 25:-0.64694 
1.0 1:-0.8496 2:-2.0211 3:-4.2349 4:-5.2637 5:-6.3924 6:-5.4328 7:-5.1202 8:-5.7177 9:-4.3172 10:-3.2923 11:-2.4145 12:-1.626 13:-0.63962 14:0.38594 15:1.5732 16:2.2208 17:1.4307 18:2.4655 19:3.0995 20:1.7764 21:0.29393 22:-0.29084 23:-0.49983 24:-0.24969 25:-0.45445 
1.0 1:-4.1312 2:-5.6651 3:-6.6334 4:-6.0831 5:-9.175 6:-5.0741 7:-3.4291 8:-2.8028 9:-1.4698 10:-1.1027 11:-0.26356 12:1.2981 13:1.5994 14:3.1318 15:4.1915 16:4.1141 17:3.1828 18:2.3766 19:1.5 20:-0.19028 21:-0.62483 22:0.21549 23:0.48299 24:0.28206 25:0.27375 
1.0 1:1.6252 2:1.3756 3:0.94774 4:0.725 5:0.28166 6:0.18802 7:0.31267 8:0.49646 9:0.38497 10:0.00882 11:0.032194 12:-0.027189 13:-1.014 14:-0.63446 15:0.026414 16:-0.81189 17:-3.713 18:-2.7096 19:0.37133 20:1.8602 21:2.8515 22:0.083122 23:4.1435 24:-5.9101 25:2.1024 
1.0 1:-2.8117 2:-3.6732 3:2.2646 4:-1.7471 5:-3.8369 6:-3.7817 7:-4.3014 8:-4.9775 9:-4.953 10:-2.1748 11:0.20222 12:0.41669 13:0.33012 14:1.2832 15:2.1197 16:3.0027 17:2.4851 18:1.5197 19:0.8441 20:0.93258 21:1.5572 22:2.2987 23:2.563 24:2.2547 25:-0.85444 
-0.35677794210344516 1:-0.72652 2:-1.0112 3:-0.60247 4:-2.7168 5:-5.587 6:-4.0547 7:-2.3766 8:0.67272 9:-3.4641 10:-3.029 11:7.6686 12:6.0209 13:5.3267 14:0.25473 15:2.095 16:-0.21673 17:-1.9544 18:-1.5789 19:-3.1363 20:-4.7561 21:-2.2466 22:0.6086 23:-1.2709 24:-2.0734 25:-0.50263 
-0.3581925205164593 1:-0.096767 2:3.5098 3:3.5106 4:6.0634 5:6.1985 6:5.2015 7:4.1594 8:0.51345 9:3.2407 10:-6.4771 11:-8.485 12:-6.7133 13:-4.8811 14:-2.5985 15:-2.769 16:0.53927 17:0.26597 18:0.59216 19:1.138 20:3.1473 21:5.9445 22:3.9981 23:3.6146 24:6.3417 25:-1.6815 
-0.35328242834942103 1:-1.1393 2:0.87638 3:2.0268 4:3.7738 5:4.0933 6:5.5008 7:5.2495 8:3.1855 9:0.12059 10:0.55609 11:-4.5153 12:-2.8668 13:-3.1502 14:0.47589 15:-0.65445 16:-0.64342 17:3.7335 18:2.8286 19:2.115 20:3.2157 21:3.0359 22:2.4936 23:-0.19811 24:-3.7687 25:-3.5193 
-0.3577773532463204 1:3.1086 2:-0.31326 3:-3.6816 4:2.2645 5:-5.7074 6:-9.6173 7:-6.5055 8:5.8369 9:-0.51365 10:-0.21661 11:3.4948 12:2.0769 13:1.5823 14:0.055587 15:-0.33597 16:-0.90309 17:-2.0787 18:-1.0092 19:-3.5777 20:-6.9534 21:-6.6803 22:1.1874 23:3.5661 24:1.1762 25:3.0835 
-0.356264510438305 1:0.75204 2:3.6049 3:-2.0061 4:0.34633 5:-0.79743 6:-6.2389 7:-3.2303 8:0.53303 9:-0.046949 10:0.54435 11:-0.18944 12:0.10943 13:-3.6375 14:2.862 15:0.70094 16:0.63673 17:4.2946 18:1.2825 19:-3.7617 20:-9.6603 21:-1.6521 22:-2.0448 23:-2.6789 24:1.6164 25:3.1762 
-0.35938065402836156 1:2.5206 2:0.66858 3:-0.5523 4:2.7123 5:2.8507 6:1.0735 7:-6.4863 8:1.2479 9:-3.7546 10:-3.2822 11:-4.6948 12:-1.0059 13:2.0708 14:-1.3838 15:-0.048932 16:3.3031 17:1.0432 18:-1.163 19:2.9136 20:3.3875 21:2.4668 22:-6.7845 23:7.619 24:-0.59271 25:1.2671 
-0.3590928905257762 1:2.481 2:2.6016 3:1.1522 4:2.332 5:2.3673 6:-0.28882 7:-0.42581 8:0.23531 9:-6.9846 10:-8.238 11:3.4062 12:1.8163 13:2.1905 14:3.06 15:2.6943 16:0.96388 17:2.6062 18:3.8372 19:0.12852 20:-0.35357 21:2.0497 22:-6.6158 23:-13.1201 24:-2.5836 25:6.8103 
-0.3583149409486522 1:-1.6401 2:-2.0652 3:-1.9641 4:-2.6023 5:-3.511 6:-2.8275 7:0.31775 8:2.162 9:1.2576 10:0.93721 11:-1.1717 12:3.1197 13:2.9851 14:0.5876 15:0.34108 16:-0.5367 17:-4.2161 18:-8.3352 19:-9.7771 20:-8.0036 21:-5.2587 22:-5.4499 23:-1.321 24:-1.2562 25:-1.4136 
-0.46254780884889585 1:0.64149 2:0.041342 3:-0.90155 4:-0.95689 5:-0.85325 6:0.87094 7:0.59287 8:-0.99447 9:1.8926 10:-0.39433 11:1.8876 12:4.0842 13:-2.8139 14:-2.7327 15:-2.4503 16:1.456 17:-2.1608 18:-2.8881 19:-2.5889 20:-1.4567 21:-0.072704 22:1.9846 23:-1.4861 24:2.9628 25:0.099239 
-0.35358273762028153 1:-0.48246 2:-0.56712 3:-1.9251 4:-2.235 5:-3.2905 6:-3.3473 7:-2.6274 8:-3.066 9:2.2251 10:7.6095 11:7.4189 12:3.1667 13:-1.5358 14:-2.0357 15:-1.7773 16:-0.72154 17:-1.7345 18:-2.0467 19:-2.8853 20:-3.4975 21:-1.4032 22:4.3298 23:7.6364 24:7.1482 25:-0.78117 
-0.3583442501121842 1:2.4318 2:1.6682 3:2.1095 4:1.6984 5:3.7309 6:1.0827 7:2.2912 8:4.9102 9:5.2981 10:-8.2349 11:-9.7339 12:-8.4947 13:-1.7856 14:-0.54517 15:2.4821 16:2.5016 17:2.0858 18:2.6059 19:2.7007 20:2.0626 21:0.24984 22:2.2787 23:3.2186 24:-4.363 25:0.555 
-0.44256109739099786 1:0.58742 2:-1.884 3:3.056 4:1.0721 5:-1.0949 6:1.6917 7:2.4352 8:1.6181 9:-4.5866 10:0.090439 11:-1.11 12:-2.5553 13:-0.14502 14:0.45519 15:3.7447 16:0.78348 17:0.15135 18:0.5363 19:1.3198 20:-0.043866 21:4.0663 22:4.672 23:-1.4197 24:0.070312 25:2.7 
-0.35834400775293646 1:0.021451 2:0.12477 3:-0.59681 4:0.97397 5:-2.7454 6:-4.008 7:1.0141 8:9.9519 9:4.4373 10:-4.7392 11:5.6595 12:0.88794 13:-1.1384 14:-2.3135 15:-2.4838 16:-0.3609 17:-1.4217 18:-1.4765 19:-4.9479 20:2.8754 21:5.1365 22:5.5968 23:0.91346 24:-3.0231 25:0.037989 
-0.358025846548627 1:3.0991 2:4.5808 3:3.0155 4:5.0596 5:1.2649 6:-10.0958 7:-5.9966 8:-5.1069 9:-3.3227 10:0.51082 11:1.6706 12:0.37878 13:4.0231 14:3.5964 15:4.0704 16:1.7354 17:3.357 18:5.2764 19:-7.5423 20:-10.0228 21:-6.4325 22:-5.9938 23:-0.56545 24:3.7005 25:2.8968 
-0.37417325553523195 1:-0.92197 2:1.7021 3:0.013894 4:-2.1866 5:-2.2274 6:-7.7923 7:2.8052 8:0.60874 9:2.1448 10:3.3206 11:-0.8503 12:-0.17782 13:-0.71422 14:0.18113 15:-0.62186 16:-0.68215 17:-0.38634 18:-2.1867 19:-2.8327 20:-3.7424 21:0.86706 22:-0.42701 23:2.3733 24:0.16477 25:0.7714 
-0.35594820090677126 1:-3.3518 2:-1.0261 3:-1.6385 4:-1.0828 5:-1.7207 6:-0.44132 7:-1.4174 8:-2.1734 9:-1.7588 10:-2.4732 11:7.3381 12:5.3004 13:1.6441 14:-1.9031 15:-0.41083 16:0.71528 17:-1.0629 18:-1.2021 19:0.0034005 20:-2.1454 21:-3.7725 22:-2.6395 23:-4.1476 24:5.2333 25:-0.70214 
-0.6559809429461353 1:-1.7916 2:-2.3663 3:-2.0008 4:-0.4855 5:0.70683 6:0.66226 7:-1.1143 8:-2.1238 9:2.535 10:-0.13521 11:-0.1989 12:-0.3793 13:-1.4022 14:-1.9141 15:-0.45714 16:-1.2683 17:-2.3661 18:2.8342 19:2.1256 20:-1.2611 21:0.22667 22:3.2047 23:-0.73856 24:-4.9008 25:-2.2417 
-1.0 1:-0.84783 2:1.5356 3:1.9442 4:0.14091 5:-1.0871 6:0.15978 7:0.11946 8:-1.2654 9:-3.3884 10:-2.7832 11:-4.2815 12:-4.4617 13:-4.5542 14:-3.386 15:-1.432 16:-1.2596 17:-1.1495 18:-0.68154 19:-0.60412 20:0.047892 21:0.52993 22:0.73597 23:0.84516 24:0.022615 25:-0.35575 
-0.3588102088264198 1:2.7537 2:7.5601 3:4.1867 4:1.4983 5:5.1505 6:2.8091 7:-7.0748 8:-7.4579 9:-4.6468 10:-7.0632 11:-1.8802 12:-0.97513 13:2.178 14:3.9913 15:3.471 16:5.5105 17:6.6275 18:6.0249 19:4.9236 20:1.8229 21:-0.30032 22:-5.2404 23:-9.2899 24:-5.4198 25:2.6353 
-0.35745638145664976 1:-2.4216 2:-1.7755 3:-3.2508 4:-0.26713 5:-0.4405 6:3.6729 7:6.352 8:2.8697 9:1.0373 10:0.30618 11:-1.6999 12:-1.5366 13:-2.2441 14:-1.2261 15:-1.7078 16:-4.7198 17:-0.24959 18:-0.74354 19:4.7225 20:7.8506 21:2.9173 22:-0.86011 23:1.6063 24:-1.0629 25:-2.9943 
-0.47718543154708437 1:-3.4474 2:-2.817 3:-2.2526 4:-2.4118 5:-1.3809 6:-1.8558 7:-1.5471 8:-1.0383 9:-1.6087 10:-2.272 11:-2.688 12:-2.5599 13:-2.4152 14:-2.978 15:-4.7038 16:-5.6597 17:-5.1928 18:-4.1681 19:-3.7947 20:-3.6031 21:-2.5829 22:-1.9799 23:-1.5457 24:-0.80915 25:-4.5007 
-0.4231848115828354 1:0.60658 2:-0.37144 3:0.64963 4:2.0081 5:2.5303 6:-0.13246 7:2.2384 8:2.7571 9:0.83539 10:-0.56028 11:-0.14288 12:-2.2363 13:-5.0166 14:-0.19407 15:-0.97064 16:-1.8697 17:4.5034 18:2.3012 19:3.0842 20:-0.93642 21:-1.1085 22:0.22192 23:-0.058701 24:-1.0327 25:-1.1661 
-0.4653537769174527 1:-2.3508 2:-1.4947 3:-1.6612 4:-1.6742 5:0.79237 6:-1.254 7:2.9766 8:0.37229 9:-1.0494 10:-0.65135 11:3.4576 12:0.70444 13:-1.7047 14:-1.9859 15:-0.30206 16:-1.8408 17:-4.8037 18:-0.21376 19:-2.4077 20:0.83106 21:3.7133 22:-0.44474 23:-1.495 24:1.1497 25:-1.5787 
-0.3586756058875193 1:-1.2789 2:-3.119 3:-4.7684 4:-4.1164 5:4.8205 6:4.0257 7:6.3725 8:1.7185 9:-1.6157 10:-1.9422 11:0.80554 12:0.67483 13:-1.0166 14:-0.76028 15:-1.5916 16:-4.2465 17:-5.6152 18:4.7758 19:9.0207 20:5.9269 21:-0.11751 22:-1.5755 23:-1.0512 24:-1.9401 25:-0.49863 
-0.3589654736257296 1:-3.4007 2:1.3147 3:-6.5644 4:-4.9752 5:-2.5235 6:-0.14718 7:2.3489 8:-1.2156 9:-1.4945 10:0.55736 11:0.79898 12:-0.1116 13:2.2595 14:6.4939 15:-3.2221 16:-1.2992 17:1.8759 18:-4.0472 19:-5.6957 20:-4.3294 21:0.056432 22:1.4857 23:2.3408 24:0.39501 25:-1.2718 
-0.405373493790506 1:-0.91475 2:0.46312 3:0.46769 4:2.1381 5:-0.3271 6:-0.99299 7:-1.3304 8:-3.3458 9:-3.7996 10:-5.2865 11:-4.9078 12:-5.0768 13:-3.088 14:0.39575 15:1.666 16:0.75918 17:1.8097 18:1.4963 19:-0.07136 20:-0.67345 21:1.9073 22:0.3337 23:-1.3266 24:5.7584 25:0.52655 
-0.3525411357959412 1:-5.5713 2:-1.3935 3:3.1148 4:5.5408 5:1.4184 6:4.5585 7:2.9958 8:1.5514 9:1.7737 10:3.678 11:4.606 12:-1.5446 13:-4.9278 14:-11.6239 15:-4.7679 16:-2.418 17:1.3096 18:2.8629 19:3.3126 20:3.4718 21:2.9098 22:2.5633 23:1.6813 24:3.546 25:-7.7499 
-1.0 1:0.22249 2:0.58114 3:1.1005 4:0.023629 5:0.52182 6:0.40408 7:0.92937 8:0.88206 9:1.5632 10:0.55732 11:1.4844 12:1.6387 13:0.79612 14:-1.4183 15:-0.17307 16:5.3085 17:2.194 18:0.94585 19:1.2363 20:0.78592 21:0.65709 22:1.3425 23:2.1465 24:-0.0087201 25:0.14363 
-0.33492449955296905 1:1.9048 2:1.0566 3:1.1041 4:1.1155 5:0.22926 6:-4.3864 7:-6.3167 8:0.73454 9:-1.8944 10:-0.032751 11:3.0076 12:3.1025 13:1.0679 14:1.9216 15:3.8412 16:0.51177 17:-1.7014 18:-0.018613 19:-0.65733 20:-6.0363 21:-4.1841 22:1.4585 23:-2.5326 24:-0.15268 25:0.17261 
-0.3583711572620269 1:2.8936 2:4.2341 3:5.2831 4:4.7491 5:4.175 6:1.8834 7:1.1219 8:-14.1993 9:-7.1834 10:-0.51141 11:-0.11047 12:1.2768 13:1.7277 14:1.1078 15:2.0783 16:3.7828 17:4.2245 18:5.1091 19:3.9989 20:1.4973 21:-7.2497 22:-5.4995 23:-4.9931 24:-0.92835 25:3.3728 
-0.35276671533841364 1:-0.60715 2:-2.3886 3:-6.5739 4:-4.4386 5:-2.1604 6:-0.5235 7:1.7869 8:0.50547 9:1.2306 10:1.8602 11:2.6982 12:3.7165 13:5.6103 14:6.7333 15:0.76433 16:-4.5136 17:-9.5107 18:-5.7357 19:-3.5999 20:-0.59874 21:0.84932 22:1.9225 23:2.3685 24:0.80305 25:4.7495 
-0.3422578431767706 1:-7.8993 2:-6.2662 3:-4.8607 4:-1.4181 5:2.213 6:2.3973 7:0.7426 8:2.4372 9:3.5476 10:4.2231 11:0.39901 12:1.3709 13:1.2821 14:-6.6654 15:-7.1108 16:-4.7149 17:-1.4933 18:2.8058 19:1.9717 20:4.4758 21:3.4115 22:1.7637 23:3.8 24:1.9363 25:-3.0989 
-0.3576201521735378 1:4.4448 2:-6.0227 3:-6.2279 4:-5.1666 5:-2.9206 6:2.3268 7:1.8491 8:-0.80544 9:-0.83111 10:4.1478 11:4.4608 12:4.2423 13:0.83902 14:2.4177 15:1.7791 16:-7.287 17:-6.0796 18:-4.627 19:-3.2396 20:1.5776 21:1.502 22:0.16398 23:1.4255 24:5.2075 25:3.5647 
-0.3584365631417232 1:0.41929 2:-4.5043 3:-6.9879 4:-1.1477 5:-2.1804 6:2.1392 7:4.3661 8:-2.1605 9:-6.6125 10:-5.6686 11:0.57174 12:-1.3339 13:-3.4397 14:-4.0093 15:-2.43 16:-2.8212 17:2.2443 18:4.0248 19:6.6524 20:4.2632 21:0.86519 22:-5.0019 23:-2.246 24:-2.3345 25:1.0649 
-0.35408933680790267 1:5.0954 2:4.0216 3:1.4263 4:0.57919 5:-3.8859 6:-8.9742 7:-6.3236 8:-5.0212 9:0.099093 10:0.25408 11:1.8248 12:2.4165 13:4.4812 14:4.1368 15:3.9607 16:3.7411 17:3.3762 18:-0.58081 19:-3.4805 20:-7.1002 21:-3.8389 22:-5.2554 23:-1.7446 24:2.3888 25:5.2198 
-0.3523581815755438 1:-1.3904 2:-1.0232 3:-4.0864 4:-9.2215 5:2.4134 6:-3.3022 7:-1.7094 8:3.8811 9:1.8165 10:2.178 11:2.8265 12:2.5799 13:-0.31186 14:0.13255 15:1.3141 16:0.31055 17:-9.3221 18:-4.8645 19:0.74966 20:-1.6829 21:1.8615 22:2.6413 23:1.3925 24:0.35781 25:-0.42565 
-0.3545798344835735 1:-9.7822 2:-7.0632 3:-3.2695 4:-3.1789 5:-4.2493 6:0.5559 7:5.0762 8:3.0684 9:2.1052 10:1.9997 11:1.3699 12:1.0583 13:-3.0336 14:-7.4466 15:-7.0731 16:-7.9132 17:-2.6723 18:-2.2537 19:-0.22256 20:0.20793 21:3.726 22:4.321 23:4.163 24:0.93425 25:-7.5171 
-0.35778775595742407 1:10.7588 2:8.1796 3:1.1218 4:-1.3534 5:-2.4701 6:-1.7725 7:-2.0104 8:-3.5258 9:-4.3103 10:-3.4991 11:-3.521 12:0.21731 13:2.9469 14:6.4756 15:8.8135 16:8.209 17:0.9878 18:-1.165 19:-2.8257 20:-4.0838 21:-4.3247 22:-5.4034 23:-4.4322 24:-4.0088 25:5.3882 
-0.35682249373585784 1:2.2791 2:-0.85018 3:-3.1752 4:-1.6476 5:-0.35223 6:-5.4441 7:-0.70303 8:0.61091 9:0.22219 10:0.59584 11:3.6449 12:1.2732 13:0.81682 14:0.54431 15:1.1364 16:2.4931 17:-2.9379 18:1.3648 19:-4.1591 20:-9.005 21:1.9307 22:-1.095 23:2.1858 24:2.19 25:2.0739 
-0.3587083463158995 1:5.0582 2:2.1629 3:-2.5678 4:-2.6832 5:-11.3834 6:-6.0045 7:0.6254 8:1.9534 9:3.3611 10:3.5575 11:5.0931 12:-2.712 13:-9.0878 14:6.0523 15:5.1054 16:3.6968 17:5.9881 18:4.94 19:-4.9361 20:-11.0928 21:-5.1641 22:3.1922 23:2.9296 24:4.9391 25:5.777 
-0.6431257259409516 1:2.8183 2:-2.0388 3:1.5972 4:1.3064 5:-0.51332 6:-0.63232 7:-3.4687 8:-1.4595 9:-0.31576 10:2.2525 11:-0.21014 12:-2.3611 13:1.4624 14:1.0433 15:0.77437 16:-0.2714 17:1.9039 18:0.48659 19:-3.6763 20:-0.60218 21:0.44096 22:0.92545 23:-0.2361 24:-0.61491 25:0.13459 
-0.38572849766342926 1:0.16289 2:1.3385 3:-0.42121 4:0.08842 5:1.6884 6:5.8408 7:0.58891 8:-2.7477 9:0.87324 10:-7.3366 11:-1.4705 12:-1.8268 13:-1.8785 14:0.85326 15:1.0913 16:-0.95888 17:1.4197 18:1.1822 19:0.97493 20:1.4458 21:2.8896 22:0.80871 23:-1.2745 24:-1.7392 25:-0.95801 
-0.37470350397780716 1:0.35427 2:0.18237 3:1.8746 4:2.2093 5:1.0489 6:0.52466 7:0.081463 8:1.1386 9:1.2804 10:-0.046783 11:3.6928 12:-3.9291 13:-5.1171 14:0.39543 15:0.11341 16:-0.39925 17:3.2838 18:2.2038 19:1.0309 20:0.8369 21:1.7448 22:2.084 23:-0.63041 24:1.4423 25:-4.3878 
-0.35883690472965996 1:1.1142 2:-1.2066 3:-3.6892 4:-1.6834 5:0.62792 6:-1.2578 7:3.6184 8:3.1991 9:4.3095 10:6.009 11:3.7284 12:-1.8246 13:-10.0677 14:-2.919 15:-5.3601 16:-3.3296 17:-3.7268 18:-1.531 19:-1.1741 20:1.0364 21:-1.061 22:0.71964 23:5.6876 24:4.6543 25:-1.4191 
-0.5532554521451329 1:-1.628 2:-1.6164 3:1.0557 4:2.807 5:0.36465 6:-0.76844 7:-0.32632 8:-0.77816 9:-0.40516 10:-1.0551 11:-0.94646 12:-2.6857 13:2.7855 14:0.55483 15:-2.6053 16:1.5515 17:1.5207 18:0.64591 19:-0.54518 20:1.3476 21:-2.8368 22:-2.9287 23:-2.1079 24:-2.1729 25:-0.053756 
-0.3556976531251666 1:2.3775 2:2.6293 3:2.932 4:-1.4558 5:-9.2152 6:-8.1184 7:-1.4575 8:0.98833 9:4.3226 10:3.2282 11:2.9584 12:4.3806 13:4.3017 14:3.8292 15:2.4455 16:0.74078 17:-3.1638 18:-6.3488 19:-4.8507 20:-1.2341 21:0.85589 22:1.4376 23:-0.53579 24:2.2446 25:2.4509 
-0.3530210373265725 1:5.8774 2:3.1691 3:1.4857 4:0.52376 5:0.47203 6:-1.0867 7:-1.7108 8:-2.8544 9:-2.5754 10:-2.0674 11:-3.5215 12:-3.5963 13:2.3703 14:5.3119 15:5.3463 16:2.3726 17:1.4118 18:0.48015 19:-0.73397 20:-1.5222 21:-0.065242 22:-2.1235 23:-0.49263 24:-2.1112 25:5.2223 
-0.33598425557110745 1:1.07 2:3.0599 3:4.6659 4:3.8304 5:0.65892 6:-5.0171 7:-3.6268 8:-3.13 9:-4.1516 10:-3.029 11:-0.16713 12:-0.72435 13:0.52789 14:1.1065 15:0.37006 16:1.4098 17:2.2479 18:3.9062 19:3.4825 20:-2.6671 21:-9.1925 22:-3.8992 23:-7.0929 24:-2.4026 25:0.10497 
-0.3333957047907868 1:-1.1788 2:0.43914 3:2.582 4:3.6602 5:0.53578 6:-2.5274 7:-4.3895 8:-5.6758 9:-2.1476 10:-2.4437 11:1.9537 12:2.8077 13:3.6149 14:1.2666 15:-0.5813 16:0.74881 17:1.8961 18:1.8083 19:-0.36392 20:-3.5292 21:-4.9869 22:-3.7622 23:-4.0273 24:0.20959 25:-1.0131 
-0.3563945774392748 1:-1.5326 2:-7.5653 3:-5.6107 4:2.0906 5:0.69708 6:-0.022339 7:2.8146 8:3.388 9:2.0996 10:-1.1038 11:1.2096 12:0.43055 13:0.9651 14:-0.45978 15:-0.88104 16:-4.6753 17:-5.3196 18:-2.3536 19:2.5197 20:2.6829 21:2.987 22:2.7335 23:1.5995 24:1.9739 25:0.65101 
-0.3442479804137044 1:-0.90228 2:-2.2822 3:-0.66403 4:0.66588 5:0.58257 6:0.031807 7:1.5709 8:6.0718 9:5.6826 10:1.5461 11:-1.2396 12:-5.0888 13:0.15206 14:-4.8355 15:-1.8183 16:-1.3601 17:0.82868 18:0.14545 19:0.53766 20:-0.037072 21:1.1953 22:3.6483 23:9.0099 24:5.2337 25:-0.32663 
-0.35328152047698125 1:-5.4486 2:-2.8881 3:2.6932 4:1.6604 5:1.3366 6:3.0077 7:2.2077 8:2.9675 9:1.5071 10:1.4659 11:0.027066 12:-0.089961 13:-1.5803 14:-3.9473 15:-7.0496 16:-7.3417 17:-0.56647 18:0.93755 19:1.0536 20:2.9399 21:2.7097 22:2.1608 23:1.4617 24:1.0757 25:-3.9995 
-0.3575502352359857 1:0.39568 2:2.372 3:-1.4457 4:1.755 5:-3.8793 6:-6.9393 7:-7.0628 8:-0.26775 9:-0.81394 10:0.77352 11:-0.65786 12:5.4994 13:1.3947 14:2.4003 15:0.74949 16:0.026782 17:0.30944 18:-2.1288 19:-2.064 20:-6.7657 21:-9.3789 22:0.34405 23:0.019825 24:-0.17613 25:-6.3927 
-0.32045563259855436 1:4.1328 2:0.60277 3:0.1819 4:1.5384 5:0.55757 6:-0.22129 7:-3.5524 8:-3.5717 9:-2.8448 10:-2.6164 11:1.5109 12:-0.52134 13:1.0803 14:3.0892 15:1.67 16:2.7434 17:1.6271 18:-0.99397 19:-2.0978 20:-3.3236 21:-5.3456 22:-4.886 23:-0.23014 24:-0.9024 25:1.7926 
-0.3542616572501103 1:-8.0913 2:-6.856 3:-2.9325 4:-1.0219 5:1.5345 6:4.7261 7:4.2765 8:2.169 9:2.7908 10:1.9439 11:0.21638 12:-0.7363 13:-1.4127 14:-3.1133 15:-7.6397 16:-7.9543 17:-5.8111 18:-4.45 19:1.1456 20:1.6923 21:1.9271 22:2.5381 23:3.2757 24:2.5208 25:-8.3131 
-0.33790302727342597 1:0.59491 2:-0.85326 3:-0.35506 4:-0.094382 5:0.73142 6:1.8889 7:2.5595 8:4.1661 9:5.4776 10:-1.4923 11:-4.0915 12:-3.2622 13:-1.2454 14:-4.0854 15:-3.2652 16:-1.4642 17:0.24039 18:0.14908 19:1.1612 20:1.7491 21:3.0775 22:3.482 23:3.2364 24:6.0261 25:-0.75418 
-0.3406513524523403 1:2.0584 2:3.0023 3:3.0993 4:2.2008 5:-1.2901 6:-7.9418 7:-4.0372 8:-4.3319 9:-3.961 10:-0.16983 11:0.019204 12:1.6438 13:0.67586 14:0.46299 15:1.0708 16:2.9431 17:3.2815 18:6.3616 19:-0.033556 20:1.4527 21:-9.1712 22:-3.2384 23:-7.0659 24:-3.4236 25:1.0021 
-0.3398571225166816 1:-0.99251 2:-1.053 3:-3.354 4:-3.826 5:-3.5457 6:1.3387 7:-0.033525 8:2.8906 9:5.0414 10:3.6705 11:0.66301 12:-1.709 13:-0.23993 14:1.286 15:0.91501 16:-1.1875 17:-1.8363 18:-2.1085 19:-3.7282 20:-1.5874 21:-3.3024 22:5.8608 23:2.6367 24:0.94038 25:1.8715 
-0.34654165314756724 1:2.4484 2:2.5256 3:-2.188 4:-0.50042 5:-7.5796 6:-9.6664 7:-4.8904 8:0.43476 9:-1.492 10:2.8195 11:3.2636 12:2.6898 13:0.73867 14:2.6049 15:2.2085 16:2.392 17:0.78886 18:4.1856 19:-6.8126 20:-10.6917 21:-4.491 22:0.59774 23:-0.075071 24:1.7853 25:2.4466 
-0.3592527606477707 1:-5.5366 2:-7.8818 3:-8.4451 4:-6.2031 5:-4.6861 6:-0.25772 7:0.72594 8:-1.264 9:-1.8892 10:-0.86733 11:2.8654 12:0.1458 13:0.10205 14:1.7835 15:0.36013 16:-1.7876 17:-3.1221 18:-6.6703 19:-7.6273 20:-6.1558 21:-5.7012 22:-5.1206 23:-4.1296 24:-3.4111 25:-3.3352 
-0.35561598156101515 1:-6.9149 2:-6.8255 3:-3.8087 4:2.5106 5:2.116 6:-1.9493 7:4.0477 8:4.5628 9:3.3114 10:1.3324 11:4.0707 12:5.7948 13:-3.0256 14:-9.4349 15:-6.3243 16:-7.0398 17:1.6283 18:4.8917 19:2.2581 20:1.114 21:2.322 22:2.1936 23:1.8524 24:1.758 25:-10.7452 
-0.40808790137163187 1:-1.8457 2:-2.0661 3:-0.015107 4:-1.1264 5:-0.86785 6:1.5608 7:1.7791 8:-0.37754 9:-1.4314 10:-1.0238 11:-1.4437 12:-2.9941 13:-2.6769 14:0.91304 15:1.8082 16:-2.9927 17:-2.796 18:-1.3176 19:3.9734 20:2.6833 21:0.30729 22:-3.0497 23:5.8491 24:2.0998 25:-0.10232 
-0.35579685793173593 1:1.0176 2:-5.2321 3:-6.6576 4:-2.7981 5:0.062272 6:-0.051609 7:-1.8928 8:-0.90795 9:-2.6303 10:-1.0869 11:0.53509 12:1.4701 13:2.0111 14:2.4191 15:1.2474 16:-1.4789 17:-7.6894 18:-4.3493 19:-3.0151 20:-1.5309 21:0.50851 22:-0.88027 23:-0.32722 24:0.32342 25:4.491 
-0.36734157984269206 1:1.2011 2:0.95975 3:0.22494 4:-0.52892 5:-0.32658 6:-2.8261 7:-4.2204 8:-0.96969 9:-0.4444 10:2.0824 11:4.8246 12:2.4907 13:2.2609 14:0.51622 15:1.0575 16:0.48702 17:-1.3777 18:-0.46869 19:-0.49653 20:-2.2555 21:-5.1357 22:1.2224 23:-0.74229 24:3.6861 25:2.3196 
-0.356118496963347 1:-1.9725 2:-0.80627 3:1.6593 4:-0.42369 5:-0.78023 6:3.6128 7:0.35158 8:-0.87936 9:2.1571 10:4.6003 11:1.1445 12:-4.5456 13:0.011653 14:-5.6668 15:-5.2509 16:-1.6218 17:-0.35145 18:1.6892 19:-1.7216 20:3.3735 21:-0.39433 22:2.0994 23:0.39492 24:9.3578 25:-4.0045 
-0.33502453662318216 1:-6.0798 2:-4.0649 3:-0.83391 4:2.2997 5:1.6838 6:-0.015078 7:3.7098 8:4.215 9:1.1659 10:2.9866 11:5.3561 12:1.791 13:-8.6991 14:-8.1602 15:-6.6546 16:-0.25939 17:5.5841 18:0.12233 19:1.0894 20:2.3499 21:2.594 22:2.26 23:4.1179 24:2.8864 25:-6.9717 
-0.359159519610833 1:-2.1324 2:-1.7123 3:-0.74219 4:-0.35155 5:-2.2128 6:3.6355 7:0.61143 8:6.3009 9:-0.97582 10:-1.9977 11:8.0456 12:3.5074 13:-5.8296 14:5.9412 15:-2.9459 16:-8.8425 17:-3.6453 18:-1.7599 19:0.11068 20:-0.91387 21:-1.4857 22:3.6421 23:1.5666 24:0.47354 25:-2.4405 
-0.355940758210712 1:2.4848 2:2.6332 3:2.1525 4:2.529 5:1.3264 6:-1.0487 7:-1.8227 8:1.0161 9:-5.4631 10:-6.3899 11:-5.5635 12:0.15335 13:4.8741 14:-0.90801 15:5.0056 16:0.25879 17:2.486 18:-0.42989 19:0.6742 20:3.6707 21:0.11627 22:0.67657 23:0.53691 24:-6.2015 25:3.5412 
-0.3601730143025847 1:-1.6728 2:-3.7098 3:-2.4938 4:-2.1525 5:-1.8089 6:-0.91758 7:0.72207 8:1.7302 9:2.5355 10:0.89574 11:0.77174 12:1.9888 13:3.3916 14:3.6368 15:2.3418 16:-1.8869 17:-4.0305 18:-4.1551 19:-3.7604 20:-0.53295 21:-0.79372 22:-0.68362 23:2.771 24:3.031 25:0.072803 
-0.36644177423083146 1:2.3664 2:-0.64958 3:2.3733 4:1.5618 5:1.5577 6:-2.4944 7:0.56934 8:-2.656 9:-5.2289 10:-1.73 11:-1.1395 12:-1.1752 13:-1.0135 14:0.8295 15:2.3257 16:0.61229 17:0.11301 18:3.9367 19:3.9222 20:1.6275 21:-6.1424 22:-1.2922 23:0.34139 24:-2.4558 25:3.896 
-0.35465286507033983 1:-1.9681 2:-2.1981 3:-0.69365 4:0.50808 5:0.19669 6:-2.2141 7:-3.4541 8:3.02 9:7.2877 10:5.3374 11:2.6925 12:-1.6674 13:-1.4596 14:-0.7644 15:-1.5234 16:-2.6676 17:-2.015 18:-1.2227 19:-1.8415 20:-3.2516 21:-3.4954 22:5.0413 23:8.3103 24:5.4024 25:-3.7353 
-0.3567687002447659 1:2.2479 2:1.3583 3:1.7302 4:0.055473 5:-6.2262 6:-4.3394 7:-3.7809 8:-2.4276 9:2.3707 10:3.9863 11:4.5888 12:5.6012 13:3.065 14:1.1183 15:2.0708 16:-1.1591 17:-6.2554 18:-6.7007 19:-4.5385 20:-3.8578 21:6.4051 22:2.5113 23:4.1109 24:3.1964 25:2.9702 
-0.34242244467707567 1:-4.4427 2:-5.3007 3:-4.3757 4:-1.3674 5:3.169 6:1.3681 7:2.3442 8:4.8521 9:4.2768 10:0.30089 11:0.6573 12:1.4066 13:-2.7515 14:-6.907 15:-4.8119 16:-5.3075 17:2.0168 18:4.3407 19:4.0879 20:3.9274 21:3.0504 22:1.6282 23:1.1914 24:2.1176 25:-3.1501 
-0.4354043375504036 1:-1.8888 2:-2.749 3:-2.2926 4:1.3645 5:0.58368 6:-1.3479 7:3.0552 8:0.45981 9:3.7066 10:-4.379 11:1.2683 12:1.0035 13:-0.87464 14:-0.015902 15:-1.2778 16:-2.6992 17:1.6493 18:2.3177 19:2.1767 20:2.8499 21:0.06604 22:-0.43732 23:-0.55471 24:-0.13889 25:-0.1661 
-0.3647991087051146 1:2.0025 2:1.6219 3:0.66211 4:-0.92414 5:-1.9007 6:-2.0825 7:-3.0917 8:-3.3952 9:-2.9411 10:-1.4371 11:-0.1891 12:0.26399 13:2.4944 14:0.30523 15:1.5072 16:3.1377 17:1.4475 18:0.45424 19:-2.8373 20:-3.6101 21:-4.6672 22:-1.8987 23:-3.2322 24:-1.9372 25:-0.19376 
-0.33741961636172874 1:2.9463 2:0.3777 3:0.60773 4:1.0376 5:-6.806 6:-8.0464 7:-2.602 8:0.41659 9:-0.066404 10:1.2456 11:3.3591 12:1.6301 13:0.73017 14:1.9338 15:0.44043 16:-0.29335 17:2.1928 18:1.6424 19:-8.2328 20:-5.5818 21:-2.7304 22:-0.41728 23:-1.6929 24:3.7162 25:2.6755 
-0.354594036720588 1:-3.048 2:5.5856 3:0.12512 4:3.2208 5:3.4461 6:3.0708 7:5.0266 8:1.3212 9:2.4389 10:2.9948 11:-1.2901 12:-11.3114 13:-7.2916 14:-4.7616 15:0.64823 16:3.4416 17:2.6252 18:2.3603 19:2.5999 20:2.8804 21:3.2417 22:1.1712 23:4.9724 24:3.9513 25:-7.2249 
-0.31949807127450586 1:2.2732 2:5.2611 3:2.8462 4:1.4059 5:1.9705 6:0.94729 7:0.34883 8:-0.31619 9:-0.85384 10:-4.6353 11:-6.4741 12:-5.5783 13:-0.74448 14:-0.66401 15:-0.84714 16:2.5731 17:3.4133 18:2.0674 19:3.1754 20:2.0452 21:1.0846 22:0.1379 23:-1.0585 24:-3.9287 25:-1.3274 
-0.3581508704021636 1:-4.0046 2:-0.94068 3:-5.0282 4:-0.77163 5:1.1319 6:0.69773 7:2.3649 8:1.8113 9:2.5818 10:2.6142 11:3.5627 12:5.1286 13:8.5634 14:3.6103 15:1.3072 16:-6.7184 17:-0.40803 18:-4.1143 19:-3.9041 20:-3.5075 21:-0.072713 22:0.4599 23:0.21374 24:0.10869 25:-5.1901 
-0.3561362176673255 1:5.9627 2:4.5967 3:1.7794 4:-2.2077 5:-2.0928 6:-2.7822 7:-3.2671 8:-2.4717 9:-2.2601 10:-2.5069 11:-1.2145 12:0.87079 13:7.384 14:8.5132 15:4.8677 16:1.4245 17:-2.3437 18:-2.3216 19:-1.9654 20:-1.7864 21:-2.1835 22:-4.7611 23:-4.1635 24:-1.8989 25:4.0928 
-0.3500877374559757 1:-0.40276 2:2.2987 3:3.621 4:3.707 5:-3.0395 6:-0.45229 7:0.0064457 8:-1.468 9:-1.9845 10:-4.3175 11:-1.792 12:-0.20804 13:-0.95429 14:-2.9854 15:-1.6924 16:5.6384 17:5.6967 18:-0.61851 19:0.26511 20:2.8448 21:-1.279 22:-2.0665 23:-1.6423 24:-3.5272 25:-2.8422 
-0.35908578712452355 1:0.35897 2:0.90102 3:-2.8594 4:-12.9339 5:-4.3337 6:3.1356 7:0.73388 8:-0.14151 9:2.1724 10:2.6433 11:1.7559 12:1.3506 13:1.5787 14:0.79703 15:-3.7081 16:1.2519 17:-7.4359 18:-12.8242 19:2.0333 20:1.3126 21:-2.6168 22:1.6811 23:1.3853 24:0.54375 25:-1.0089 
-0.3289968225776141 1:3.6946 2:3.5215 3:3.7401 4:2.7638 5:2.2821 6:0.49873 7:-0.35573 8:-1.2047 9:-4.2098 10:-6.391 11:-5.1254 12:0.47061 13:-0.41678 14:2.9001 15:2.5287 16:0.73355 17:2.1775 18:3.1738 19:2.4052 20:0.40548 21:-1.101 22:-3.5797 23:-5.8518 24:-5.7216 25:0.64728 
-0.3557832921351727 1:3.1201 2:1.6693 3:-2.7563 4:-6.0814 5:-5.666 6:-7.3888 7:-3.4891 8:0.41716 9:1.3243 10:2.5897 11:2.589 12:2.1459 13:3.7602 14:5.6362 15:3.128 16:3.2509 17:1.0534 18:-7.312 19:-8.2016 20:-5.9721 21:-4.0587 22:1.6449 23:2.3879 24:1.729 25:3.7229 
-0.35292866984499455 1:-5.3513 2:10.4331 3:9.9462 4:3.2809 5:-2.0171 6:-1.8292 7:0.12232 8:-0.80931 9:-0.75519 10:-2.9658 11:-1.1031 12:-1.9442 13:-3.8231 14:-4.6974 15:1.2889 16:5.5651 17:4.9496 18:3.8687 19:1.1701 20:-1.2553 21:-1.4698 22:1.3443 23:-1.1408 24:-3.3583 25:-3.5612 
-0.3821384636835188 1:-3.8513 2:-1.4403 3:-0.656 4:-4.0112 5:-1.5324 6:-0.36828 7:-0.1696 8:-0.1926 9:0.53147 10:0.038926 11:-0.22637 12:-2.3095 13:4.5258 14:3.9183 15:3.2477 16:-2.8409 17:-1.4711 18:-1.1117 19:-3.493 20:-2.3829 21:0.31527 22:-0.53249 23:-0.32323 24:2.1406 25:2.6248 
-0.5246638940284316 1:-0.20909 2:0.2281 3:2.627 4:3.0126 5:0.25171 6:-1.7908 7:-2.0114 8:-1.2269 9:-1.9569 10:0.084355 11:-3.095 12:-0.31329 13:0.74427 14:-0.31665 15:-1.5111 16:-1.9939 17:1.1312 18:3.4837 19:0.40549 20:-1.5993 21:-1.6136 22:-1.8391 23:-2.322 24:-1.5423 25:-1.241 
-0.3582604904228668 1:-5.5458 2:-1.6738 3:-1.645 4:-1.423 5:-0.38908 6:-0.051941 7:-1.1966 8:-0.05679 9:-0.062277 10:-0.37356 11:3.5844 12:7.3222 13:7.6141 14:-5.4877 15:-6.5688 16:-2.169 17:0.37095 18:-4.3342 19:-0.59417 20:1.6274 21:-1.6991 22:-1.0089 23:0.29218 24:0.74451 25:-4.0233 
-0.35512194569634536 1:-5.4888 2:-6.8287 3:-0.20424 4:1.3011 5:0.61247 6:1.0471 7:2.1014 8:1.2571 9:2.1672 10:2.1197 11:3.196 12:3.1806 13:-0.96728 14:-12.5173 15:-6.7412 16:-3.2857 17:-3.7112 18:0.65275 19:2.7175 20:3.0074 21:2.9358 22:3.0086 23:3.2538 24:3.4837 25:-10.5814 
-0.3140969347561529 1:1.8592 2:2.2017 3:1.5397 4:-0.060083 5:-1.5939 6:-4.0213 7:-5.9953 8:-4.1725 9:1.453 10:0.99864 11:1.3175 12:2.6582 13:2.5541 14:0.67654 15:1.9899 16:2.0182 17:1.0555 18:0.4426 19:-0.74895 20:-3.6003 21:-6.36 22:-3.2139 23:0.10071 24:-0.39168 25:1.8225 
-0.3579162575263425 1:-0.75498 2:-4.596 3:-5.2637 4:-5.8661 5:-9.6731 6:-2.6527 7:1.0211 8:-0.73066 9:1.297 10:2.0822 11:2.2704 12:1.5381 13:3.212 14:3.6067 15:-1.5578 16:-4.7222 17:-3.5258 18:0.61427 19:-2.7795 20:-2.6546 21:-0.19412 22:1.6926 23:3.1818 24:2.0379 25:3.2385 
-0.35842068768474816 1:0.26386 2:0.059832 3:3.7281 4:3.9314 5:-3.0506 6:-2.3528 7:4.4893 8:8.9908 9:3.2738 10:5.5214 11:2.2686 12:-5.258 13:-5.6896 14:-13.3188 15:-15.4242 16:-7.4673 17:-4.3027 18:-2.8429 19:-0.33083 20:0.75355 21:0.68877 22:-0.11303 23:-1.0787 24:-0.85871 25:-2.4376 
-0.3488471547875474 1:-0.064733 2:-1.4902 3:-5.5157 4:-5.723 5:1.318 6:-2.6946 7:0.56777 8:3.7368 9:2.8359 10:0.7921 11:-0.30356 12:1.4584 13:0.92854 14:1.0222 15:2.2114 16:2.8197 17:-3.5966 18:-7.5398 19:-0.29761 20:-2.3144 21:-0.78755 22:5.2408 23:2.7005 24:1.7289 25:0.54941 
-0.3467169281885336 1:0.51711 2:1.1875 3:0.05348 4:0.64786 5:-2.7123 6:-9.3729 7:-5.8676 8:-0.43087 9:-1.2727 10:-0.11317 11:0.058224 12:0.7531 13:2.2179 14:1.7472 15:2.1066 16:1.3401 17:0.75364 18:0.56932 19:0.81559 20:-3.1362 21:-6.8716 22:-5.905 23:-3.8969 24:1.5565 25:1.7997 
-0.40797833374576453 1:-2.2726 2:-2.6382 3:-4.3422 4:-0.50957 5:-3.5987 6:-2.1632 7:-1.464 8:-1.7495 9:4.2572 10:0.14377 11:1.0532 12:1.9213 13:0.54117 14:-0.79508 15:-2.0062 16:-1.7169 17:-3.5622 18:-3.987 19:-1.4147 20:-2.2394 21:-2.4564 22:-0.35485 23:2.5293 24:-0.22285 25:-1.2083 
-0.35868694932075995 1:-2.1942 2:-1.1108 3:0.56227 4:6.2839 5:11.2703 6:9.3294 7:2.6737 8:-0.83408 9:-2.3031 10:-3.5231 11:-3.2796 12:-4.2135 13:-4.3891 14:-4.8462 15:-3.3231 16:-0.017777 17:3.7292 18:8.1501 19:6.3427 20:2.1026 21:-0.43886 22:-1.1295 23:-0.31647 24:-1.5875 25:-3.7676 
-0.35532952835645737 1:-2.2799 2:-1.919 3:-5.2806 4:-5.3611 5:1.9269 6:4.6653 7:4.9897 8:4.0871 9:0.23309 10:1.8146 11:1.344 12:-0.68892 13:-0.086836 14:-1.5993 15:-2.9944 16:-1.4503 17:-2.524 18:-4.3668 19:-2.6196 20:2.0231 21:5.7257 22:4.3282 23:0.56671 24:0.022374 25:-2.4342 
-0.3616688195990791 1:-2.4628 2:-1.1107 3:-3.1027 4:-1.1097 5:-5.1002 6:0.78051 7:2.7672 8:2.114 9:0.95761 10:-1.7668 11:1.1648 12:2.83 13:-1.3257 14:-1.7178 15:-2.082 16:-1.8034 17:-0.77295 18:-4.855 19:-0.90451 20:4.1649 21:3.2846 22:4.2861 23:-0.81907 24:0.49773 25:-1.8575 
-0.3591022652098093 1:3.8489 2:2.7849 3:-5.9794 4:3.1029 5:1.7436 6:-4.9903 7:-1.2651 8:0.4082 9:1.5118 10:0.94509 11:-0.44892 12:-1.1892 13:-0.93016 14:3.4348 15:2.8305 16:1.0089 17:-4.92 18:-1.4026 19:-2.4572 20:-5.8788 21:-2.6456 22:0.22695 23:1.0318 24:1.7927 25:-0.77607 
-0.3577217717010608 1:1.6182 2:-9.9647 3:-6.5978 4:-5.5426 5:-7.0049 6:-2.357 7:0.026 8:3.7167 9:2.5995 10:4.4298 11:4.587 12:4.9178 13:5.265 14:4.8339 15:1.2506 16:-1.806 17:-8.7856 18:-6.5196 19:-6.1342 20:-2.6014 21:1.443 22:2.2954 23:2.8132 24:3.2405 25:5.4697 
-0.35640890940559244 1:1.428 2:-2.9235 3:0.5736 4:2.5563 5:-0.032395 6:2.9729 7:2.666 8:5.4612 9:4.3084 10:-4.7653 11:-0.79516 12:-2.9519 13:-5.3204 14:-2.8058 15:-0.5259 16:1.6458 17:1.9734 18:-0.88344 19:-1.6248 20:2.8284 21:1.3541 22:-1.1992 23:4.9126 24:3.8042 25:1.1381 
-0.33531758152305235 1:-5.4588 2:-2.6445 3:1.2159 4:1.9894 5:-1.5869 6:2.1557 7:4.3829 8:2.6153 9:1.8109 10:4.4125 11:5.4784 12:3.5552 13:-11.0082 14:-7.5972 15:-6.1189 16:-2.3278 17:1.8807 18:1.9989 19:-0.19173 20:2.5229 21:4.6754 22:2.6252 23:1.0057 24:4.8252 25:-5.3898 
-0.35640973870503134 1:0.32346 2:3.5504 3:5.1715 4:4.307 5:3.8249 6:4.2989 7:3.1938 8:1.7828 9:-5.0691 10:-6.3473 11:-1.4759 12:-4.8632 13:-2.57 14:-0.010935 15:-1.594 16:2.1983 17:2.9053 18:2.5436 19:2.9648 20:5.4378 21:3.3686 22:3.2496 23:-1.7958 24:-7.9355 25:0.26433 
-0.3559758090910531 1:-8.4477 2:-6.5784 3:-5.318 4:-5.3782 5:-1.5783 6:2.677 7:3.8945 8:3.2231 9:3.3136 10:3.8364 11:3.6205 12:2.8568 13:1.8098 14:-3.5707 15:-10.8104 16:-7.1586 17:-2.9997 18:-0.49355 19:2.1708 20:3.8932 21:3.3104 22:3.9261 23:4.0121 24:4.2915 25:1.0937 
-0.3409517817284502 1:-5.9985 2:-2.2815 3:3.9356 4:2.9855 5:0.12554 6:4.6207 7:3.8182 8:3.0781 9:2.6891 10:0.33591 11:3.4511 12:3.2471 13:-8.9482 14:-7.7318 15:-9.0913 16:-0.24331 17:5.8147 18:3.205 19:3.05 20:1.7177 21:2.6852 22:3.0662 23:0.72836 24:3.8545 25:-7.1549 
-0.3562729499333503 1:1.0627 2:-0.16101 3:-8.1753 4:-3.1178 5:-1.0682 6:1.4329 7:0.70424 8:2.7639 9:0.20482 10:1.2421 11:0.22253 12:1.4575 13:0.89253 14:-0.39094 15:-0.10602 16:-1.8863 17:-5.7137 18:-3.5687 19:1.2255 20:1.224 21:4.2795 22:2.0754 23:1.4381 24:-0.28642 25:1.6628 
-0.35160487707860333 1:-1.407 2:-1.1461 3:-1.0013 4:-2.6728 5:-2.2622 6:-3.3783 7:-3.2228 8:2.0157 9:4.4062 10:4.8396 11:7.2638 12:2.5386 13:-2.9733 14:-2.1905 15:-1.4302 16:-1.49 17:-2.5351 18:-2.0313 19:-0.29374 20:-1.8783 21:-4.8504 22:-0.76754 23:6.2433 24:7.8877 25:-4.4632 
-0.3582645017428125 1:-2.4829 2:3.8634 3:2.6306 4:2.4998 5:2.7724 6:3.4426 7:0.65807 8:1.3594 9:4.3297 10:7.3849 11:-8.5304 12:-10.717 13:-3.9301 14:1.5614 15:1.1241 16:3.6938 17:3.0278 18:0.65743 19:0.73762 20:1.3074 21:2.4451 22:2.5151 23:-0.41252 24:-1.3227 25:-7.8756 
-0.45825319136775516 1:1.2077 2:1.2474 3:2.3529 4:1.9437 5:1.5835 6:-0.54975 7:-1.3132 8:-2.4519 9:-2.92 10:-3.4617 11:-1.0492 12:-2.5976 13:-0.6925 14:0.9607 15:-1.6966 16:-2.273 17:2.3589 18:2.571 19:0.74576 20:0.8706 21:-0.11203 22:-1.6257 23:-2.1243 24:-2.3551 25:1.523 
-0.35018450664261863 1:3.0752 2:-1.2268 3:0.045666 4:-0.25783 5:-11.3249 6:-7.7166 7:2.4145 8:-1.3365 9:0.51813 10:3.3243 11:2.8223 12:0.3141 13:2.7156 14:2.0479 15:-0.79157 16:-0.68934 17:0.10891 18:-0.34038 19:-7.8324 20:-5.2702 21:0.35062 22:1.2629 23:0.97099 24:2.6732 25:2.2308 
-0.3573081024696573 1:1.5948 2:2.0745 3:3.1916 4:2.48 5:1.2579 6:-2.2453 7:-4.878 8:-4.0142 9:-6.3148 10:-0.24856 11:3.1773 12:1.5897 13:1.3497 14:1.5494 15:0.61397 16:2.5009 17:4.0898 18:4.2599 19:1.6779 20:2.8013 21:-8.5144 22:-11.0044 23:-3.5502 24:1.0513 25:2.6078 
-0.3549970818594729 1:2.4228 2:0.10717 3:1.3641 4:-1.7495 5:1.562 6:-5.3999 7:-2.547 8:-2.556 9:-0.73108 10:-0.40455 11:2.5432 12:3.1873 13:2.0926 14:0.94289 15:4.4177 16:2.4624 17:3.3805 18:-3.7678 19:-2.5492 20:-11.5039 21:-3.9119 22:-3.5731 23:-0.30778 24:0.84275 25:1.7773 
-0.35710687709983224 1:-8.4011 2:-8.3012 3:-4.1185 4:5.4239 5:3.2263 6:1.9254 7:2.7097 8:3.0616 9:3.4313 10:2.9784 11:0.70523 12:1.3408 13:-10.3261 14:-7.2631 15:-4.558 16:-5.768 17:5.9421 18:4.1397 19:-1.0067 20:2.1649 21:3.4911 22:1.7731 23:1.597 24:3.0378 25:-4.2875 
-0.3586032541005146 1:0.4867 2:4.2662 3:8.776 4:1.8203 5:-11.0068 6:-6.1556 7:-3.3371 8:-2.7434 9:2.047 10:1.4254 11:2.2587 12:4.0336 13:4.6731 14:3.4635 15:2.953 16:2.8646 17:5.9497 18:-9.3545 19:-9.8545 20:-5.3611 21:-2.7131 22:-0.61392 23:2.6281 24:1.8417 25:2.6662 
-0.45952441067701655 1:4.1229 2:1.6956 3:0.95241 4:1.4919 5:0.80552 6:0.15083 7:-1.7616 8:-4.9038 9:-4.596 10:-3.9309 11:-2.4319 12:-0.78935 13:-0.20946 14:-0.66011 15:1.4675 16:1.8395 17:1.6425 18:0.09238 19:0.53984 20:-0.6358 21:0.21843 22:-0.87993 23:0.060603 24:-2.9718 25:0.020878 
-0.3489018153007067 1:-4.8792 2:-3.1712 3:-5.1334 4:-4.1654 5:-5.1115 6:-1.0503 7:-0.21574 8:2.2066 9:3.2627 10:2.5315 11:1.7988 12:0.70945 13:-0.99092 14:-0.96582 15:-2.0888 16:-3.8236 17:-7.0319 18:-5.2426 19:-3.7262 20:-0.51323 21:-0.01823 22:2.4612 23:3.0116 24:2.614 25:-4.8168 
-0.3737996611551666 1:-0.39598 2:0.5754 3:1.4683 4:-0.91373 5:-2.164 6:0.30341 7:0.91283 8:2.2633 9:3.9403 10:-1.5444 11:-0.42096 12:-0.10815 13:-3.7819 14:-2.179 15:-3.6326 16:0.34641 17:2.2493 18:2.2578 19:-1.1277 20:0.61025 21:1.3784 22:2.9853 23:0.5511 24:6.1654 25:-2.4466 
-0.38798955909568056 1:-3.2046 2:-4.1064 3:-3.4893 4:-1.1722 5:-0.42217 6:0.55926 7:0.76429 8:-0.41475 9:3.651 10:2.6668 11:-0.16644 12:-1.5998 13:-2.2251 14:-2.4204 15:-1.7355 16:-3.8956 17:-4.1723 18:-1.1168 19:-5.035 20:-1.71 21:0.12563 22:-0.6125 23:2.476 24:0.73434 25:-1.7002 
-0.3587142709336672 1:0.5714 2:0.97416 3:4.3916 4:7.4938 5:7.1135 6:3.4437 7:-1.4042 8:-7.3422 9:-1.5705 10:1.003 11:-3.4449 12:-1.6687 13:-1.3439 14:-1.3127 15:-1.537 16:-0.09494 17:1.3729 18:2.7228 19:5.8853 20:10.6071 21:7.2556 22:-2.1975 23:-2.4211 24:-3.2249 25:-0.18029 
-0.36249312966858394 1:-2.1734 2:-1.0618 3:-0.84979 4:-1.6674 5:-3.2657 6:0.31008 7:-1.5243 8:-0.010305 9:3.5276 10:1.5361 11:2.1853 12:0.36511 13:0.02314 14:0.32942 15:2.3364 16:0.18466 17:-3.1347 18:-3.4181 19:-2.2818 20:2.0869 21:0.23703 22:5.4301 23:3.1922 24:1.6321 25:1.7649 
-0.387584721741586 1:0.63825 2:1.5209 3:0.55732 4:0.60262 5:0.33408 6:0.62317 7:-0.17069 8:1.7029 9:2.1885 10:0.18796 11:-3.5706 12:-4.1281 13:-4.9611 14:-3.4539 15:0.40949 16:1.6604 17:0.83753 18:2.0048 19:1.6603 20:0.56149 21:1.5074 22:0.84648 23:2.8589 24:-0.47873 25:-4.8232 
-0.3468403945359156 1:3.1658 2:3.22 3:3.2882 4:2.0837 5:1.1484 6:-2.2793 7:-0.053683 8:-5.0467 9:-4.9036 10:-5.6213 11:-4.8506 12:-1.8039 13:2.3098 14:3.542 15:3.9939 16:3.7112 17:4.5402 18:3.9055 19:1.8695 20:-0.3783 21:-4.1116 22:-6.0157 23:-6.0827 24:-3.7484 25:4.5054 
-0.3561911585060581 1:0.16133 2:-5.0296 3:-3.353 4:-0.90643 5:0.44129 6:0.67318 7:-0.26994 8:2.5376 9:2.8098 10:-0.92563 11:-1.3342 12:4.0822 13:1.1275 14:-2.1814 15:-2.378 16:2.3458 17:-7.6631 18:-4.2924 19:0.72268 20:-1.4562 21:0.20403 22:1.6999 23:0.67451 24:2.045 25:-1.612 
-0.35252064112182685 1:-3.2967 2:-3.0326 3:2.3526 4:7.9519 5:0.13826 6:1.7904 7:1.8336 8:2.6818 9:-0.074162 10:-2.3722 11:-0.20368 12:-1.2166 13:-7.7399 14:-5.4278 15:2.6883 16:-0.59856 17:-0.35764 18:2.9847 19:3.4275 20:1.8387 21:2.0443 22:3.291 23:-1.2974 24:-2.3015 25:-5.6916 
-0.3582226097191068 1:-1.0689 2:1.9489 3:3.9278 4:3.9456 5:4.152 6:4.1555 7:3.3663 8:2.2944 9:2.9156 10:-10.7318 11:-6.0951 12:-2.1913 13:-2.7334 14:-0.28812 15:3.7417 16:5.3964 17:4.5398 18:4.9089 19:3.1294 20:2.7469 21:1.5708 22:-4.179 23:-11.5605 24:-5.8977 25:-2.6533 
-0.35767915614586354 1:-1.0359 2:-1.2471 3:-4.2252 4:-4.8193 5:0.17619 6:-3.7916 7:1.3062 8:10.5266 9:5.2922 10:0.51476 11:0.029723 12:-0.73845 13:-1.2302 14:-2.6589 15:-3.4637 16:-1.7598 17:-2.6742 18:-2.8661 19:-0.12528 20:2.9608 21:7.4422 22:3.4062 23:0.53583 24:0.3299 25:-1.7773 
-0.3498214329031649 1:0.94687 2:-0.099512 3:-0.19747 4:-6.2418 5:-4.6074 6:-2.395 7:-0.62987 8:2.0587 9:1.2323 10:1.388 11:1.7921 12:1.4128 13:2.2446 14:-0.94282 15:-0.95127 16:0.027872 17:-3.9172 18:-4.988 19:-3.0401 20:-0.86051 21:2.4828 22:2.6041 23:2.0783 24:3.3277 25:2.7538 
-0.35179330687669025 1:0.8176 2:-0.76216 3:1.5191 4:3.2198 5:-0.90472 6:-0.88346 7:-2.4976 8:-2.5883 9:-0.50038 10:-4.338 11:-3.9268 12:0.82205 13:3.8022 14:4.7338 15:1.0126 16:1.5615 17:1.8943 18:-1.7201 19:-1.928 20:-0.99234 21:-2.0124 22:-3.4412 23:-4.7866 24:-0.91219 25:3.5599 
-0.3565578049266873 1:-0.22872 2:0.63307 3:2.5402 4:6.771 5:2.7848 6:0.84996 7:2.9305 8:0.25993 9:-2.8364 10:-3.7757 11:-2.9893 12:-3.2543 13:-0.96919 14:1.466 15:2.5319 16:2.0131 17:2.8821 18:4.3011 19:3.3874 20:1.4637 21:0.41697 22:-8.9817 23:-7.4658 24:-5.5831 25:-1.3943 
-0.35177616672853734 1:-6.0498 2:-2.7331 3:-2.9456 4:0.1646 5:2.4116 6:2.2863 7:1.7396 8:0.76654 9:2.7508 10:-2.2965 11:0.80877 12:-2.1363 13:-6.3202 14:-5.6851 15:-4.3758 16:-2.2364 17:-1.0615 18:0.43154 19:1.9988 20:2.9617 21:3.2332 22:3.7027 23:2.3656 24:2.8447 25:-5.0491 
-0.3568320574146158 1:-4.7374 2:-0.776 3:-0.029325 4:1.5373 5:2.5178 6:0.87996 7:1.0676 8:0.18162 9:0.54461 10:4.7939 11:2.2225 12:-2.5472 13:0.69934 14:-6.0938 15:-5.4952 16:-0.93143 17:2.1131 18:2.9519 19:2.3738 20:-0.91828 21:0.096988 22:2.2809 23:-0.75559 24:3.6961 25:-8.2677 
-0.34255613961118336 1:-0.97867 2:-1.4451 3:1.8748 4:0.55222 5:3.2245 6:2.0808 7:1.9319 8:0.091075 9:-1.3122 10:-1.3777 11:0.39634 12:-2.4327 13:-9.6898 14:-4.0838 15:1.6245 16:0.67947 17:0.9064 18:2.0101 19:3.1965 20:1.877 21:2.2096 22:1.6805 23:-1.6687 24:-0.31446 25:-6.6353 
-0.35832337040659573 1:-2.5973 2:6.0856 3:4.0299 4:-2.7174 5:3.2216 6:-0.070525 7:-0.49536 8:-5.6851 9:4.0972 10:-4.9086 11:-3.3841 12:-1.6138 13:-1.1734 14:2.5911 15:3.2008 16:0.96231 17:-1.6698 18:-6.0667 19:3.9027 20:-2.5886 21:-3.8229 22:-2.3322 23:-1.4056 24:-0.93816 25:0.52746 
-0.3583944739707956 1:6.8482 2:0.79726 3:5.9056 4:-2.5786 5:-0.17999 6:-4.0645 7:-2.867 8:-1.0575 9:0.68059 10:1.3848 11:-0.75134 12:3.0277 13:2.6206 14:-0.8628 15:-0.046522 16:6.8228 17:-1.0792 18:-2.794 19:-2.3088 20:-6.4123 21:-5.0693 22:1.3132 23:2.3725 24:2.2747 25:-1.1672 
-0.481699787523772 1:-3.0217 2:1.6171 3:2.0907 4:-1.0612 5:2.422 6:3.1727 7:-0.72819 8:-1.4653 9:-1.4739 10:-2.1498 11:-2.5757 12:-1.0367 13:0.72923 14:-0.88906 15:1.9977 16:2.3547 17:-0.0053493 18:2.6218 19:2.4787 20:0.52842 21:-2.0924 22:-1.0816 23:-0.53924 24:-2.6979 25:-3.1861 
-0.3538492333161543 1:-1.688 2:-0.80905 3:-1.4744 4:-2.8331 5:-3.3916 6:-3.3339 7:0.13234 8:-2.917 9:-4.8033 10:1.5925 11:7.439 12:6.3396 13:5.8797 14:1.6427 15:-2.6224 16:-1.3833 17:-1.6279 18:-2.0254 19:-3.0778 20:-4.0724 21:-2.682 22:-2.5869 23:-0.58563 24:3.9125 25:2.3564 
-0.3561776153080898 1:-8.7684 2:-4.5542 3:5.0094 4:4.1084 5:0.2676 6:0.91234 7:3.3853 8:5.0877 9:2.0703 10:2.8024 11:0.70333 12:-0.55718 13:-7.9683 14:-7.3614 15:-4.8222 16:4.9163 17:3.4585 18:3.4296 19:3.4947 20:0.71659 21:0.63928 22:2.7973 23:3.126 24:0.41673 25:-6.5866 
-0.35832703047302167 1:0.31516 2:0.86366 3:0.66464 4:-10.3871 5:-8.2183 6:-7.7553 7:-2.8551 8:-0.26493 9:1.5286 10:5.2354 11:3.0115 12:2.6477 13:2.9859 14:-0.6501 15:-0.75661 16:-2.3038 17:-0.44894 18:-5.9864 19:-9.0655 20:-9.4261 21:0.084519 22:0.43246 23:-1.6268 24:2.2191 25:3.193 
-0.3745157573283562 1:-0.016948 2:3.9918 3:2.861 4:3.0372 5:1.9357 6:0.76611 7:1.9302 8:1.3076 9:0.1777 10:0.52792 11:-7.8656 12:-3.9276 13:-0.83069 14:0.70625 15:0.84323 16:2.9664 17:1.8766 18:0.31593 19:0.71005 20:-1.5216 21:1.4115 22:0.45055 23:-0.52736 24:1.2823 25:0.23532 
-0.35655487927985524 1:1.1947 2:1.8592 3:2.335 4:-5.2701 5:-6.3178 6:-3.6481 7:-6.3373 8:-1.2847 9:2.922 10:-0.3442 11:2.8599 12:3.6023 13:1.8549 14:2.7471 15:0.075067 16:3.4677 17:3.7196 18:-7.1015 19:-6.2035 20:-6.1585 21:-0.43547 22:3.8684 23:-0.63176 24:1.4503 25:2.8527 
-0.354913051830778 1:-1.2205 2:-2.9752 3:1.4709 4:4.9051 5:5.9342 6:6.1092 7:5.3571 8:3.2346 9:1.8231 10:0.36749 11:-9.8407 12:-3.2571 13:-3.1171 14:-3.1589 15:-0.28596 16:1.9357 17:5.5179 18:4.7339 19:4.9192 20:3.4514 21:3.8409 22:2.1772 23:-2.6743 24:-7.9831 25:-1.9398 
-0.35778705521783444 1:4.6302 2:3.8964 3:2.9163 4:3.682 5:-9.2521 6:-10.0672 7:-1.8559 8:-4.1244 9:-0.83639 10:3.1433 11:2.7563 12:3.9688 13:5.5442 14:4.1064 15:4.1951 16:2.751 17:2.0719 18:0.46158 19:-10.0292 20:-8.6343 21:-6.0602 22:0.36441 23:3.1668 24:2.7605 25:2.3094 
-0.3569243151828795 1:-1.0009 2:3.7253 3:1.9038 4:1.4021 5:0.46348 6:-0.45307 7:0.7444 8:0.43684 9:-3.1146 10:-0.73574 11:-3.4707 12:-3.4532 13:-0.70143 14:-0.47103 15:-2.2333 16:3.052 17:4.1614 18:2.5989 19:0.47825 20:-0.42124 21:-0.70022 22:-0.14123 23:-1.9811 24:-2.3201 25:-0.19162 
-0.3580959753111584 1:-2.2535 2:-1.6796 3:-2.7099 4:0.28529 5:-1.4146 6:-0.76398 7:-1.9533 8:-1.1944 9:-0.44383 10:-1.1481 11:-4.6558 12:-3.5929 13:8.732 14:2.6094 15:-1.8528 16:0.0076571 17:3.2372 18:3.2528 19:-0.42084 20:-1.7896 21:-0.54468 22:-2.0072 23:-0.85579 24:-0.34428 25:2.4426 
-0.3583682349853042 1:2.7848 2:-0.83519 3:-8.5778 4:-12.3618 5:-7.0164 6:-3.7436 7:-2.2718 8:1.8137 9:4.4817 10:4.7976 11:5.0478 12:5.4501 13:5.7194 14:5.2455 15:3.6064 16:-6.0068 17:-10.6964 18:-6.3906 19:-2.2193 20:-3.413 21:-2.5728 22:4.245 23:6.1223 24:6.1298 25:5.6044 
-0.3566667313194189 1:-0.055436 2:8.9989 3:10.6905 4:3.2289 5:-1.3906 6:-1.1039 7:-2.5872 8:-3.8877 9:-3.6619 10:-3.5708 11:-2.3141 12:-2.2674 13:-3.3639 14:-0.50745 15:6.2324 16:8.7934 17:5.8388 18:0.65037 19:-1.1402 20:-1.2118 21:-0.77935 22:-2.1727 23:-2.7683 24:-2.9083 25:-1.134 
-0.35629071251493766 1:-7.4646 2:-4.652 3:-0.7655 4:2.0607 5:3.194 6:3.5806 7:4.507 8:4.3886 9:5.4254 10:4.9036 11:3.9465 12:-0.047193 13:-5.4309 14:-9.8466 15:-9.4575 16:-4.2002 17:-2.6485 18:1.2398 19:3.5004 20:4.6537 21:5.1596 22:4.3196 23:5.0067 24:4.1006 25:-1.4923 
-0.32713837379673766 1:2.5317 2:3.9433 3:2.9109 4:2.3124 5:1.8345 6:-0.50889 7:-0.22914 8:-0.14322 9:-7.2352 10:-7.3969 11:-4.7442 12:-4.2196 13:-3.2841 14:1.321 15:1.9298 16:1.4968 17:3.1172 18:2.2067 19:1.1896 20:0.24745 21:-0.67686 22:-0.75918 23:-0.46282 24:-5.5657 25:0.01546 
-0.3531916946837283 1:-3.4223 2:1.8674 3:3.312 4:0.66685 5:0.61238 6:3.8363 7:3.0936 8:1.1555 9:1.6246 10:4.2608 11:-3.7046 12:-9.5129 13:-6.9875 14:-2.0134 15:-2.4565 16:-0.29081 17:2.6518 18:1.6417 19:1.4154 20:4.6933 21:2.7981 22:2.8643 23:2.9267 24:3.2207 25:-3.469 
-0.35815048948603173 1:-1.9569 2:-1.0675 3:-2.146 4:-4.2705 5:-5.421 6:-2.2862 7:7.6684 8:6.6918 9:8.9345 10:2.9279 11:-1.3856 12:-1.8488 13:-0.65175 14:-2.8172 15:-2.3542 16:-2.8608 17:-2.5759 18:-4.127 19:-3.6943 20:1.4467 21:5.2151 22:7.8539 23:5.8171 24:-2.1938 25:-1.4517 
-0.34986040090277115 1:-3.8957 2:4.8007 3:6.1582 4:5.5867 5:1.313 6:0.15836 7:-0.68285 8:-4.0375 9:-1.4177 10:-1.7402 11:-2.3135 12:-2.2181 13:-4.5726 14:-2.1027 15:2.023 16:3.9955 17:6.5735 18:3.759 19:0.82039 20:-1.1086 21:-1.79 22:-1.0141 23:-1.6881 24:-0.62865 25:-3.0886 
-0.3592637929104558 1:4.8805 2:3.3178 3:0.01964 4:-2.9668 5:-8.9086 6:-9.2323 7:-12.188 8:-8.4521 9:-5.0749 10:-4.1234 11:-0.75699 12:1.6048 13:1.1416 14:1.3729 15:0.80932 16:1.1854 17:1.9694 18:3.6618 19:1.5458 20:3.2193 21:4.5228 22:1.0363 23:-2.2325 24:-1.242 25:4.1102 
