svm_type c_svc
kernel_type rbf
gamma 0.04
nr_class 2
total_sv 260
rho 0.6119606394678855
label 1 0
nr_sv 89 171
SV
1.0 1:-0.71318 2:-0.6703 3:-0.20161 4:1.823 5:0.83824 6:2.6553 7:1.8974 8:-0.51994 9:-2.053 10:-1.5309 11:-1.9761 12:-3.5559 13:-0.77268 14:0.576 15:2.727 16:1.449 17:1.073 18:-0.23818 19:-0.13951 20:0.012781 21:-0.24927 22:-0.3158 23:-0.4186 24:-0.28331 25:-0.21156 
1.0 1:4.6621 2:0.57344 3:-2.2051 4:-3.2723 5:-2.1018 6:-0.23543 7:0.30725 8:-1.0741 9:-0.60141 10:-0.37025 11:0.061618 12:1.2603 13:1.2438 14:1.5861 15:-0.23579 16:-5.874 17:-5.2436 18:-5.6194 19:-4.2097 20:-0.52445 21:2.2065 22:2.8798 23:3.4379 24:0.85767 25:9.6393 
1.0 1:-3.4285 2:-3.969 3:-2.5229 4:-0.40438 5:-0.4078 6:-1.3821 7:-1.3954 8:-2.9933 9:-2.3004 10:-0.9784 11:-1.963 12:-1.4282 13:1.5917 14:0.39969 15:0.12019 16:-0.31765 17:-0.62456 18:-2.3623 19:-3.1599 20:-1.6446 21:-2.1296 22:-2.1633 23:1.3375 24:0.010961 25:-4.7861 
1.0 1:0.86705 2:-7.4944 3:-19.8796 4:-12.133 5:-6.1852 6:-2.9761 7:-1.5819 8:-2.1901 9:0.40248 10:3.1305 11:2.0187 12:2.02 13:5.1928 14:5.2907 15:4.3934 16:4.4725 17:4.4675 18:3.9839 19:3.584 20:2.7127 21:1.5344 22:-0.20885 23:-1.3807 24:-2.3352 25:4.6671 
0.4225078239672291 1:-0.24602 2:-0.36384 3:-0.81202 4:-1.167 5:-1.0013 6:-0.68817 7:-0.15346 8:-0.21337 9:0.0066704 10:-0.46901 11:0.0071692 12:-0.14262 13:0.28686 14:-0.21757 15:-0.68376 16:-0.98462 17:-0.70215 18:-1.0097 19:-1.403 20:-1.8731 21:-0.52583 22:-0.84097 23:-3.3439 24:-2.6352 25:-0.29393 
1.0 1:1.7799 2:-0.13921 3:0.46111 4:0.87797 5:5.0587 6:4.2143 7:2.4081 8:2.6934 9:3.0004 10:1.8882 11:1.313 12:0.020589 13:-0.74885 14:-1.9117 15:-3.2438 16:-3.2874 17:-2.1864 18:-0.88356 19:0.22115 20:0.55848 21:0.32073 22:0.021177 23:0.35453 24:0.01105 25:1.4586 
0.2215737198041339 1:-0.69774 2:-0.50292 3:0.29756 4:0.50381 5:0.85733 6:1.0495 7:0.99625 8:1.0859 9:1.2624 10:1.3717 11:1.5521 12:1.9197 13:1.336 14:1.7956 15:2.2272 16:1.3404 17:1.1128 18:0.6129 19:-0.054819 20:0.07893 21:2.1328 22:1.9023 23:-0.36323 24:-1.7033 25:-0.79979 
0.7056102251354494 1:2.3399 2:2.4854 3:2.855 4:2.5365 5:2.1304 6:1.799 7:1.9701 8:1.4691 9:1.7075 10:1.8528 11:1.4073 12:0.9235 13:1.6465 14:1.7428 15:2.0137 16:1.6812 17:1.2065 18:0.47339 19:0.055991 20:0.21103 21:-0.13149 22:-0.2307 23:0.0050461 24:0.07325 25:1.7063 
1.0 1:1.0111 2:-4.3387 3:-3.4074 4:-1.2235 5:-3.7394 6:-5.8174 7:-2.7371 8:-3.2285 9:-4.5546 10:-4.9827 11:-4.0398 12:-2.0956 13:-0.43542 14:0.053098 15:-0.10162 16:0.53137 17:1.1518 18:2.1467 19:2.404 20:2.2751 21:2.6983 22:3.1308 23:2.6022 24:2.102 25:1.764 
1.0 1:2.8353 2:4.9756 3:9.0616 4:13.7114 5:8.1098 6:4.0138 7:0.31936 8:-1.6756 9:0.11233 10:-1.5119 11:0.90505 12:-0.9664 13:-0.74829 14:-3.7782 15:-4.9598 16:-3.784 17:-1.2568 18:2.1509 19:2.7805 20:4.1551 21:3.8922 22:3.3854 23:3.5118 24:3.3858 25:1.6819 
0.43481427965483543 1:-1.2174 2:-2.2545 3:-3.36 4:-3.6358 5:-4.0304 6:-4.1571 7:-3.2987 8:-2.3959 9:-2.0672 10:-0.9696 11:-0.025221 12:-1.3503 13:-1.3989 14:-0.74532 15:-0.73067 16:-0.46189 17:-0.3452 18:-0.18799 19:-0.019055 20:0.058752 21:0.03838 22:0.081233 23:0.09528 24:0.087271 25:-0.60267 
1.0 1:-2.1603 2:0.51839 3:-3.2673 4:-1.2358 5:-3.8186 6:-4.0049 7:-4.7059 8:-4.925 9:-3.6245 10:-2.2427 11:-2.1207 12:0.082259 13:2.8356 14:1.5346 15:0.49346 16:-0.20903 17:0.21135 18:0.26373 19:-0.22052 20:-1.0688 21:-0.19291 22:-1.0207 23:-0.32555 24:0.52983 25:-2.7928 
1.0 1:3.1159 2:4.7802 3:1.3333 4:-2.0437 5:-2.4975 6:1.0147 7:-3.1014 8:2.2184 9:2.4081 10:-2.6691 11:-6.9749 12:-6.9631 13:-6.3869 14:-4.0987 15:-3.437 16:-0.21665 17:-4.1674 18:-2.8355 19:-1.048 20:-0.99516 21:-4.352 22:-9.4475 23:-3.9408 24:-1.9033 25:1.7904 
1.0 1:-7.5234 2:-7.1492 3:-3.1459 4:-0.73015 5:-3.0408 6:-1.877 7:-1.6675 8:-4.4106 9:-7.5053 10:-6.0156 11:-8.2887 12:-1.8005 13:-0.83019 14:-1.651 15:-1.185 16:-0.087402 17:0.94956 18:2.1226 19:1.3726 20:0.16239 21:-0.92445 22:-0.26822 23:1.0225 24:0.28755 25:-7.6493 
1.0 1:-1.1928 2:0.69719 3:10.3309 4:3.4678 5:1.7307 6:0.26554 7:-0.34252 8:-0.43856 9:0.028009 10:0.3187 11:0.80219 12:1.0792 13:1.22 14:1.1316 15:1.5768 16:1.2832 17:0.74911 18:0.84835 19:1.5862 20:0.4591 21:0.84557 22:0.81475 23:0.41529 24:0.18685 25:-5.3316 
1.0 1:2.8139 2:3.4064 3:2.2229 4:-1.6881 5:-4.6674 6:-3.3401 7:-0.71467 8:0.82432 9:4.6232 10:-1.4613 11:-7.0789 12:-7.4371 13:-8.8656 14:-5.3053 15:-2.8937 16:-2.4168 17:-4.3419 18:-2.8827 19:-2.4343 20:-3.9345 21:-3.0847 22:-1.2022 23:-4.086 24:-7.7241 25:-0.47227 
0.39645762693315706 1:-1.1586 2:-1.0866 3:-0.63891 4:-0.88291 5:-0.27231 6:1.6863 7:2.466 8:2.0116 9:2.5094 10:2.3732 11:1.7452 12:1.8324 13:0.62084 14:0.42523 15:0.84439 16:0.71874 17:-0.42609 18:0.53341 19:-0.19252 20:0.19402 21:0.47222 22:0.11377 23:0.031956 24:-0.15319 25:-1.8983 
1.0 1:-2.6072 2:-5.3919 3:-4.6428 4:-0.8096 5:-0.18337 6:-1.0473 7:2.1654 8:0.41656 9:-4.1705 10:-6.4888 11:-6.498 12:-3.2758 13:-0.86533 14:-1.0303 15:-1.6347 16:-1.5324 17:-1.6149 18:-2.7429 19:-5.9226 20:-5.9109 21:-12.0692 22:-7.8767 23:-4.8993 24:-2.7321 25:-1.6234 
1.0 1:2.0508 2:0.67224 3:-0.25078 4:-0.27199 5:-1.2361 6:-0.14914 7:0.99098 8:1.8275 9:2.4054 10:4.1852 11:2.6208 12:2.4808 13:3.8233 14:2.2383 15:2.7209 16:-0.48518 17:-0.47719 18:-0.80366 19:-1.4422 20:-2.7726 21:-0.0058502 22:-1.0548 23:3.1974 24:2.2259 25:2.0189 
1.0 1:-1.4929 2:-2.7374 3:-3.2097 4:-5.6901 5:-6.4933 6:-6.58 7:-8.732 8:-6.691 9:-2.7063 10:-1.3801 11:-0.021411 12:1.7087 13:2.174 14:3.3683 15:3.783 16:3.9644 17:3.1063 18:2.4265 19:1.3497 20:1.3667 21:0.46868 22:0.39165 23:1.0475 24:1.0477 25:-1.0713 
0.5128383874807969 1:0.23949 2:-0.68095 3:-0.61921 4:0.25167 5:2.3018 6:3.3702 7:3.903 8:3.8398 9:1.6877 10:0.52497 11:0.38499 12:0.63744 13:0.71 14:0.077707 15:0.016659 16:0.26637 17:0.85033 18:0.52953 19:0.13926 20:0.87766 21:0.67477 22:0.27489 23:-0.048104 24:0.28171 25:0.70587 
0.19430738537579598 1:0.058594 2:-0.053037 3:-0.05101 4:-0.078492 5:0.025238 6:0.43571 7:0.36013 8:0.80862 9:0.89089 10:1.2345 11:0.486 12:0.24343 13:0.093171 14:1.0618 15:0.88812 16:2.8115 17:1.6177 18:2.8681 19:2.5291 20:2.2736 21:1.2821 22:0.89608 23:0.89793 24:-0.90803 25:0.12289 
1.0 1:-5.1735 2:-3.1895 3:-1.5757 4:0.19787 5:1.7589 6:2.6595 7:2.5782 8:2.4057 9:2.5514 10:2.6585 11:2.1281 12:1.23 13:0.74165 14:0.63039 15:0.23437 16:0.10076 17:0.66612 18:0.58091 19:0.4194 20:0.30977 21:0.10001 22:0.49798 23:-0.034301 24:0.098611 25:-7.0296 
0.5446856695244403 1:0.016925 2:-1.1409 3:-0.41047 4:0.97215 5:0.050259 6:2.1968 7:0.44732 8:1.0299 9:1.5998 10:1.5946 11:0.53123 12:0.055835 13:0.043388 14:0.13212 15:0.34564 16:0.0022754 17:1.076 18:1.5648 19:1.9521 20:2.2768 21:1.6979 22:2.3235 23:1.7804 24:0.6717 25:-0.2801 
1.0 1:3.5797 2:3.2187 3:2.1281 4:3.3159 5:6.0495 6:5.3805 7:5.1862 8:3.8549 9:0.91816 10:-0.24499 11:3.5344 12:2.2448 13:1.1688 14:0.50539 15:0.3244 16:0.31508 17:0.081164 18:0.25558 19:0.09267 20:0.13732 21:0.22143 22:0.11573 23:-0.015752 24:-0.26538 25:0.56622 
1.0 1:3.4261 2:4.6098 3:2.2416 4:0.40684 5:-0.015738 6:0.038416 7:-0.62631 8:-1.467 9:-2.0842 10:-2.3586 11:-2.0993 12:-1.8274 13:-1.3878 14:-0.94267 15:-0.46402 16:-0.34338 17:-0.12525 18:0.018001 19:0.20786 20:0.33618 21:-0.029396 22:-0.30041 23:-0.31394 24:-0.5494 25:3.0854 
1.0 1:-0.15853 2:-0.091909 3:-0.14509 4:-0.13675 5:-0.092325 6:-0.26952 7:-0.20714 8:0.15935 9:-0.55624 10:-0.37069 11:-0.59349 12:0.6703 13:1.0035 14:0.44826 15:-1.0551 16:-3.0152 17:-2.4806 18:-1.7515 19:-0.42722 20:3.7019 21:5.0761 22:3.303 23:4.5417 24:2.4203 25:0.83349 
0.7845133309190503 1:0.0063965 2:0.75882 3:1.8459 4:2.2745 5:1.1238 6:0.12426 7:0.40639 8:-0.62416 9:-1.6986 10:-2.3357 11:-2.0423 12:-1.1858 13:-0.31943 14:0.038669 15:0.84045 16:-0.90057 17:3.0825 18:0.51447 19:-0.36764 20:0.097486 21:-0.0054326 22:0.71404 23:0.85044 24:0.14057 25:-0.20196 
1.0 1:0.42487 2:1.0248 3:1.4262 4:2.0543 5:4.6785 6:3.7596 7:-0.0070048 8:0.8809 9:0.92272 10:1.581 11:4.0897 12:4.9869 13:5.9762 14:2.9324 15:1.0391 16:0.31676 17:-1.1789 18:-0.4929 19:-2.1531 20:-3.6493 21:-2.8544 22:-1.9743 23:-1.2685 24:-0.62436 25:-2.1663 
1.0 1:2.7729 2:2.8254 3:2.2366 4:2.2226 5:2.0909 6:1.6288 7:1.5437 8:1.5436 9:2.4265 10:2.6912 11:2.7247 12:1.6871 13:4.9518 14:3.3426 15:0.56758 16:0.22956 17:-0.23182 18:0.95125 19:0.03468 20:-1.7244 21:-5.7153 22:-9.9899 23:-13.5136 24:-6.2857 25:2.5595 
0.861899324087683 1:-1.4207 2:-1.9412 3:-2.2844 4:-2.651 5:-3.3003 6:-3.0443 7:-3.1188 8:-3.5828 9:-3.5534 10:-3.8624 11:-2.9587 12:-2.2715 13:-2.1073 14:-1.9494 15:-1.7191 16:-1.8299 17:-1.5173 18:-1.1119 19:-1.1958 20:-0.85088 21:-0.64414 22:-0.29274 23:-0.083717 24:-0.21691 25:-1.107 
0.9368197354823523 1:-2.1652 2:-3.7534 3:-4.4446 4:-4.1937 5:-4.1911 6:-3.2583 7:-1.4845 8:-0.52215 9:-0.19896 10:-0.5107 11:-0.014058 12:0.52609 13:0.77542 14:0.68145 15:0.46066 16:-0.042552 17:0.05591 18:-0.006946 19:-0.11817 20:-0.070337 21:-0.04914 22:-0.30003 23:-0.062308 24:0.28597 25:-1.4569 
1.0 1:0.082109 2:-1.0202 3:0.69334 4:-0.25629 5:1.0663 6:0.1992 7:7.3271 8:2.8632 9:1.924 10:-3.9591 11:-4.2376 12:-5.0016 13:-6.1448 14:-6.9756 15:-6.4616 16:-3.4084 17:-1.3991 18:-2.098 19:0.4041 20:-0.36591 21:-0.57246 22:-0.20816 23:-0.16291 24:-0.91468 25:0.17769 
1.0 1:0.13011 2:-0.3171 3:5.4786 4:1.967 5:-1.5444 6:-0.079368 7:-0.52733 8:-0.63958 9:-1.2575 10:-0.41355 11:-1.7653 12:-1.2464 13:-0.47687 14:-1.2817 15:-0.40874 16:0.56421 17:-0.14802 18:-0.27174 19:0.46508 20:-0.44933 21:-0.3059 22:0.73072 23:1.8051 24:-1.1083 25:2.2187 
1.0 1:-0.048761 2:0.13305 3:0.76177 4:-0.18259 5:-0.15256 6:1.8211 7:2.977 8:1.0179 9:3.2286 10:0.1616 11:-3.0136 12:-3.0306 13:-3.2967 14:-3.6538 15:-4.418 16:-3.5944 17:-4.2156 18:-3.0273 19:-2.0065 20:-1.7614 21:-1.4125 22:-0.096913 23:-0.4927 24:0.29099 25:0.1371 
0.052802658090850406 1:-0.2289 2:-0.010395 3:0.067894 4:0.1469 5:0.044264 6:0.39473 7:1.2781 8:1.2219 9:0.59697 10:-0.28538 11:0.39309 12:0.6267 13:1.9674 14:0.97099 15:0.7182 16:0.60039 17:-1.9271 18:-1.0788 19:-0.34906 20:0.23702 21:0.21204 22:-0.083692 23:2.0694 24:0.73144 25:-0.44373 
1.0 1:-2.5016 2:-0.4117 3:0.04681 4:0.12527 5:-0.368 6:-0.99342 7:-1.1239 8:-0.92764 9:-0.45099 10:-0.70941 11:0.2609 12:0.070177 13:1.3852 14:-0.40808 15:0.035039 16:2.0827 17:-2.4853 18:1.9521 19:1.3781 20:-2.4378 21:3.4268 22:2.6836 23:-3.6423 24:-0.22958 25:3.0099 
1.0 1:-1.7 2:0.36193 3:1.9723 4:-0.66317 5:2.4321 6:1.9604 7:-3.3799 8:-4.0881 9:-1.5834 10:-0.91072 11:-2.4099 12:-3.3829 13:-2.7839 14:-2.6112 15:-1.1654 16:-0.88062 17:-1.902 18:-1.5219 19:-0.89529 20:0.036407 21:1.0786 22:-0.016782 23:0.078499 24:2.1297 25:2.2465 
0.01075521262911049 1:1.0972 2:-0.067771 3:-0.31422 4:0.019794 5:-0.51869 6:-0.336 7:-0.10416 8:0.71197 9:1.8921 10:0.49221 11:0.76512 12:0.14841 13:0.73269 14:0.16461 15:1.0354 16:2.5359 17:1.5645 18:2.5536 19:0.59309 20:0.96344 21:0.6951 22:1.562 23:0.19366 24:0.81109 25:0.35184 
1.0 1:-10.3539 2:-7.6804 3:-3.0393 4:-0.093 5:-0.052211 6:-0.080479 7:-1.8618 8:3.8837 9:-0.52712 10:0.66328 11:0.95366 12:-1.5484 13:-4.3992 14:-2.9347 15:-3.4252 16:-4.0807 17:-3.9593 18:-4.0565 19:-4.4941 20:-2.8671 21:-1.2819 22:-1.8096 23:-1.1331 24:-0.8906 25:-5.5463 
1.0 1:-11.2265 2:-8.6465 3:-8.8034 4:-10.1881 5:-2.2568 6:0.026011 7:0.79416 8:0.33041 9:0.16236 10:-1.2555 11:2.2445 12:0.41808 13:1.1994 14:1.5318 15:-0.10964 16:-1.5086 17:-4.252 18:-4.0757 19:-2.3359 20:-2.2663 21:-3.0482 22:-3.0513 23:-2.7687 24:-2.6111 25:-10.8301 
1.0 1:-1.6571 2:-1.0235 3:0.088888 4:0.29271 5:0.81009 6:0.30542 7:0.080913 8:0.3271 9:0.12743 10:0.53317 11:0.82231 12:-0.070874 13:-1.2614 14:0.35318 15:4.2789 16:4.0892 17:-2.2818 18:-0.085457 19:2.8526 20:-1.4894 21:-0.22825 22:-4.7007 23:0.89171 24:0.84779 25:-0.78137 
1.0 1:-8.9194 2:-5.7424 3:-4.0052 4:-2.0994 5:-1.0824 6:-0.64771 7:-0.28925 8:-0.033672 9:-1.4811 10:-1.049 11:-1.2498 12:-0.84576 13:-2.5392 14:-3.0167 15:-2.7676 16:-3.2617 17:-1.218 18:-0.34241 19:-1.3726 20:-1.627 21:-1.3672 22:-2.2545 23:-2.9646 24:-1.2209 25:-11.1301 
1.0 1:0.98341 2:1.9023 3:3.4736 4:2.986 5:3.2615 6:3.2468 7:1.2523 8:0.57589 9:-0.88455 10:-3.5524 11:-4.5277 12:-3.6384 13:-3.5984 14:-4.1171 15:-6.1553 16:-5.0917 17:-3.947 18:-4.2767 19:-2.9837 20:-2.3863 21:-2.363 22:-0.73063 23:0.63955 24:-1.5764 25:2.2696 
0.07307263792675395 1:1.4844 2:1.0438 3:1.1505 4:0.79313 5:0.15642 6:-0.37652 7:-0.68417 8:0.60304 9:0.49829 10:1.4219 11:1.1852 12:-0.53042 13:-0.6678 14:0.46791 15:0.76891 16:0.50835 17:0.98881 18:0.29297 19:0.70193 20:0.5345 21:1.3162 22:1.4161 23:0.9054 24:1.9504 25:1.7166 
1.0 1:0.039793 2:0.059507 3:-0.0055903 4:0.2792 5:1.0859 6:1.3262 7:1.4012 8:2.1711 9:2.781 10:3.1273 11:3.5406 12:3.2368 13:3.159 14:2.9588 15:3.0766 16:3.1385 17:2.8752 18:2.4324 19:2.6307 20:2.4128 21:2.8423 22:2.5721 23:2.7669 24:2.3104 25:-0.18051 
0.02385045330301975 1:-0.92992 2:-1.0776 3:-1.2172 4:-1.3276 5:-1.8319 6:-1.7593 7:-1.5696 8:-1.6268 9:-1.3528 10:-0.76469 11:-0.78822 12:-1.0022 13:-0.98754 14:-1.3377 15:-2.0966 16:-1.8138 17:-2.8547 18:-2.1922 19:-1.198 20:-1.673 21:-1.4135 22:-0.78988 23:-0.78574 24:-0.77283 25:-0.8352 
0.8624265770922197 1:1.2253 2:1.9506 3:3.1118 4:3.1726 5:2.3592 6:1.872 7:0.61931 8:-0.89 9:-0.98847 10:-0.74076 11:-1.2721 12:-1.3257 13:-1.4661 14:-1.7798 15:-2.382 16:-3.6956 17:-3.4221 18:-2.6911 19:-2.5616 20:-2.4261 21:-1.5371 22:-1.1869 23:-0.53451 24:0.049573 25:0.18807 
1.0 1:-0.25711 2:-0.33381 3:1.6225 4:0.49111 5:0.5565 6:0.95605 7:1.7 8:-1.3321 9:-3.4211 10:-2.9859 11:-4.0573 12:-3.5292 13:-2.9892 14:-3.549 15:-3.1285 16:-2.9399 17:-3.7299 18:-3.9736 19:-3.3623 20:-1.9471 21:-0.44634 22:0.72194 23:0.73961 24:-0.24566 25:-0.37892 
0.34061212789589124 1:2.1661 2:2.3815 3:1.6767 4:1.2293 5:1.378 6:0.73869 7:-0.062912 8:0.25944 9:-0.08237 10:-0.34171 11:-0.13421 12:-1.4703 13:-1.6868 14:-1.7115 15:-1.4871 16:-1.0618 17:-0.55784 18:-0.36471 19:0.042877 20:-0.52094 21:-0.66166 22:0.27918 23:1.8766 24:0.6529 25:-1.0103 
0.010895175472832442 1:-1.2443 2:-1.2684 3:-0.9055 4:-0.20197 5:-0.22965 6:-1.1303 7:-2.227 8:-2.3371 9:-2.4542 10:-1.9621 11:-1.1425 12:-1.3363 13:-0.61741 14:-0.48587 15:-0.87859 16:-1.181 17:-1.2229 18:-1.7378 19:-1.8331 20:-1.263 21:-1.5819 22:-0.68982 23:-0.84059 24:-0.28315 25:-1.3262 
0.4176848030091877 1:1.064 2:-0.7747 3:-1.943 4:-1.375 5:-1.2562 6:-2.1592 7:-1.6671 8:-1.8057 9:-2.362 10:-2.5998 11:-2.3142 12:-1.6829 13:-0.55856 14:0.23958 15:0.52518 16:0.73207 17:0.10217 18:-0.46458 19:-0.56361 20:-0.54672 21:-0.2804 22:-0.46295 23:-0.88706 24:-1.2085 25:1.8181 
0.23669244235265602 1:0.36657 2:0.18456 3:-0.029426 4:-0.15327 5:-0.32065 6:-0.25816 7:-0.46109 8:-0.54301 9:-0.51144 10:-0.59472 11:-0.022224 12:0.57518 13:1.4028 14:0.58842 15:-0.33284 16:-0.95708 17:-0.24068 18:-0.2995 19:-0.49803 20:-2.01 21:-2.8068 22:1.7605 23:0.75461 24:-0.57719 25:-0.14195 
0.5391836275368039 1:0.19262 2:-2.2709 3:-1.0577 4:-3.4465 5:-3.4629 6:-2.7378 7:-2.6856 8:-1.1258 9:-0.24695 10:0.049553 11:0.20319 12:0.050832 13:0.10249 14:0.26222 15:0.32403 16:0.35558 17:0.13024 18:-0.095959 19:-0.20669 20:-0.46674 21:-0.87147 22:-1.1296 23:-0.80144 24:-1.1105 25:0.63617 
1.0 1:-3.9612 2:-3.4533 3:-2.9643 4:-2.034 5:-1.0661 6:-0.95359 7:-1.0956 8:-0.72699 9:-0.29041 10:-0.49629 11:-0.85362 12:-1.0058 13:-0.51699 14:-0.21009 15:-0.10353 16:0.47041 17:0.72915 18:1.0861 19:1.4288 20:1.9516 21:2.547 22:2.1634 23:2.4579 24:1.5064 25:-4.0953 
0.8751501002952926 1:-2.8107 2:-3.713 3:-2.7117 4:0.38585 5:-0.35819 6:-0.55666 7:-0.32091 8:-0.16232 9:-0.15797 10:0.12026 11:0.44647 12:1.0801 13:1.7559 14:2.7518 15:2.0516 16:0.76377 17:0.05118 18:-0.8856 19:1.5179 20:-0.08969 21:-1.4159 22:0.1609 23:0.95768 24:-0.48546 25:-2.9396 
1.0 1:-5.4062 2:-5.8114 3:-6.9448 4:-8.9487 5:-6.662 6:-9.2316 7:-5.7007 8:-4.5962 9:-1.8852 10:0.015967 11:-0.58228 12:-0.71172 13:-0.69686 14:-0.47338 15:0.17481 16:-0.63674 17:0.096179 18:0.013175 19:-0.81082 20:-3.4075 21:-4.6717 22:-4.0899 23:-4.164 24:-3.8721 25:-1.8199 
0.7987829552891158 1:0.33038 2:0.43455 3:0.71444 4:0.11163 5:-1.0126 6:-0.073479 7:-1.2512 8:2.6703 9:0.79825 10:-0.87214 11:0.5771 12:-0.31565 13:-0.77788 14:-0.83596 15:-1.7411 16:-1.1188 17:-0.749 18:0.60958 19:0.07498 20:-0.98719 21:-1.0504 22:-1.6979 23:-0.33425 24:2.0428 25:-0.20831 
0.2917827597974631 1:-2.2868 2:-2.74 3:-1.7046 4:-0.89478 5:-0.12311 6:-0.15657 7:-0.50291 8:0.01627 9:0.54659 10:-0.14647 11:-1.2446 12:-0.078278 13:0.86601 14:0.59159 15:0.46919 16:2.414 17:1.6453 18:0.086213 19:-0.44847 20:0.080258 21:1.3012 22:1.6481 23:1.5343 24:0.33231 25:-2.3262 
0.34732353508034575 1:-0.95346 2:-0.89591 3:-1.0468 4:-1.0239 5:-0.88236 6:-1.0439 7:-0.72586 8:-0.87963 9:-1.043 10:-1.5057 11:-1.2455 12:-0.76828 13:-0.55497 14:-0.007963 15:0.85526 16:1.1872 17:2.2395 18:1.6608 19:0.94357 20:0.55108 21:-0.38876 22:-0.58175 23:2.598 24:1.6737 25:-1.0348 
0.6182576461735118 1:1.2698 2:1.59 3:1.7336 4:1.6619 5:1.9784 6:2.2375 7:1.4927 8:0.96209 9:0.84572 10:0.66641 11:0.57806 12:0.1823 13:0.37539 14:0.43989 15:-0.23294 16:-0.70716 17:-0.94696 18:-1.7135 19:-2.418 20:-2.6405 21:-2.3263 22:-1.9515 23:-1.495 24:-1.0887 25:1.6759 
1.0 1:0.47438 2:0.31638 3:0.13399 4:0.44474 5:0.20504 6:0.19194 7:0.85477 8:0.89877 9:0.71241 10:0.97414 11:0.53912 12:-0.17005 13:0.9608 14:-0.26768 15:0.0064032 16:3.7603 17:-0.34728 18:4.0166 19:4.7624 20:2.6634 21:-0.5154 22:-3.1023 23:-2.9724 24:-2.901 25:0.13268 
0.599035866750436 1:-0.38797 2:-0.41568 3:-0.92231 4:-0.46486 5:-0.96025 6:-1.2975 7:-0.82369 8:-1.8181 9:-2.8296 10:-2.7004 11:-2.4689 12:-1.7358 13:-0.99859 14:-2.3052 15:-3.0302 16:-0.69995 17:-0.13712 18:0.24916 19:0.69388 20:1.6406 21:1.4295 22:1.2852 23:1.2103 24:1.1445 25:-0.13987 
1.0 1:1.4535 2:1.6061 3:1.0729 4:-0.60216 5:-2.5161 6:-3.3297 7:-3.849 8:-3.8469 9:-3.3794 10:-2.0287 11:-0.52303 12:0.69991 13:0.46527 14:-0.29046 15:-0.60729 16:-0.29476 17:-0.11279 18:0.42152 19:0.35606 20:-0.36525 21:-0.2594 22:0.57853 23:0.064669 24:-0.032072 25:1.4371 
1.0 1:-5.9879 2:-5.738 3:-4.1026 4:-3.5343 5:-4.6444 6:-0.95723 7:2.225 8:1.2252 9:1.5583 10:1.7047 11:-0.74342 12:1.707 13:1.4476 14:-3.8148 15:1.615 16:1.1547 17:-0.57161 18:-0.55248 19:-0.94755 20:-0.97108 21:-0.37571 22:-1.5044 23:-0.46537 24:0.31609 25:-2.987 
1.0 1:0.87936 2:1.0874 3:1.8278 4:2.2381 5:2.122 6:2.1871 7:2.428 8:2.1376 9:0.51509 10:0.28612 11:-0.35378 12:-1.4272 13:-3.1367 14:-1.5932 15:-1.3108 16:-1.838 17:-0.52245 18:-1.6909 19:-1.0477 20:-2.4847 21:-0.95271 22:-3.3895 23:-2.5292 24:-1.5485 25:1.3735 
1.0 1:0.10798 2:-0.47006 3:0.41415 4:-0.43007 5:-1.958 6:-2.6303 7:-2.9996 8:-3.1287 9:-3.5945 10:-3.4021 11:-3.6387 12:-3.6844 13:-3.23 14:-2.9601 15:-2.0096 16:-0.98034 17:-0.4636 18:-0.11654 19:0.056057 20:0.11489 21:0.09891 22:0.09076 23:0.13745 24:0.11801 25:0.58931 
0.1759918965962587 1:0.35677 2:-0.43377 3:-0.67364 4:0.82131 5:0.97071 6:1.0418 7:1.452 8:1.1296 9:1.1384 10:2.3566 11:2.8314 12:2.9622 13:1.9401 14:2.2012 15:1.7354 16:1.1569 17:0.53182 18:0.33386 19:0.29626 20:0.28487 21:0.07188 22:0.044395 23:0.1674 24:0.25488 25:0.93445 
0.5929430981517086 1:1.8441 2:2.2331 3:1.8034 4:0.02462 5:-0.62229 6:-0.28459 7:0.33805 8:0.42012 9:0.63665 10:0.75528 11:1.0944 12:1.459 13:1.9984 14:2.4135 15:2.6199 16:2.4141 17:2.102 18:1.5656 19:1.0364 20:0.69997 21:-0.36174 22:0.15962 23:-1.0479 24:-1.0636 25:2.0778 
0.6657857100242999 1:-0.47003 2:-0.42929 3:0.83286 4:0.43814 5:1.0718 6:1.6313 7:0.09775 8:-1.2128 9:-1.4544 10:-1.9926 11:-2.8681 12:-3.4523 13:-3.8061 14:-4.3705 15:-4.8066 16:-4.382 17:-3.9974 18:-3.853 19:-3.0648 20:-1.9163 21:-1.3571 22:-1.0906 23:-0.7828 24:-0.72868 25:-1.6564 
0.6028127713021898 1:-1.1229 2:-0.96676 3:-0.85493 4:-1.0753 5:-1.3725 6:-0.52646 7:-0.23293 8:-0.51203 9:-0.49876 10:-0.98172 11:-0.74822 12:-1.2425 13:-1.9288 14:-2.8797 15:-2.4295 16:-1.4999 17:-1.8712 18:-2.1957 19:-1.5059 20:-1.7797 21:-1.3849 22:-1.3203 23:-2.0077 24:-1.7818 25:-0.58419 
0.39354233682836404 1:-0.083835 2:-0.2624 3:-0.2428 4:0.11157 5:0.80074 6:1.062 7:1.0797 8:1.6375 9:2.1308 10:1.675 11:1.7652 12:1.2474 13:1.5536 14:0.87259 15:0.46793 16:-0.67746 17:-1.1915 18:-1.7521 19:-1.2935 20:-0.86837 21:-0.28382 22:0.20499 23:-1.8023 24:-1.6533 25:-0.54977 
0.9593760732078083 1:-5.8706 2:-3.3373 3:-1.1609 4:-0.99779 5:-0.80847 6:-0.11756 7:0.20558 8:0.28717 9:0.70273 10:0.75064 11:0.97369 12:0.94113 13:1.1695 14:1.4306 15:1.1331 16:0.94647 17:0.76188 18:0.48659 19:0.40128 20:0.4719 21:0.2641 22:0.63971 23:0.60995 24:0.53815 25:-6.9219 
1.0 1:0.22171 2:0.034895 3:0.069654 4:-0.047104 5:-0.0050544 6:0.0026048 7:-0.046748 8:-0.37622 9:0.3663 10:0.88304 11:1.024 12:0.97445 13:1.2772 14:1.4289 15:0.67096 16:0.31206 17:1.3332 18:1.4953 19:1.9071 20:0.62742 21:-0.70692 22:-3.0244 23:-4.2969 24:-4.5618 25:0.3602 
1.0 1:0.11721 2:-1.6573 3:1.2457 4:-0.58976 5:1.6965 6:-0.069468 7:-3.4685 8:-4.0755 9:-0.64547 10:0.37675 11:0.6235 12:-0.52973 13:-0.86296 14:-1.2242 15:-1.7689 16:-1.7844 17:-0.94712 18:1.2492 19:0.82347 20:0.23252 21:-0.091759 22:-0.03552 23:0.21375 24:0.26506 25:-3.0986 
0.45237449247543754 1:0.80834 2:1.1461 3:-0.67385 4:0.10226 5:0.77746 6:-0.25098 7:-1.157 8:-0.52325 9:-0.50665 10:-0.14825 11:0.3048 12:-1.8729 13:-2.6196 14:-0.53902 15:0.038497 16:-2.4554 17:-2.7052 18:-1.2251 19:0.55641 20:0.57588 21:-0.40647 22:-0.29315 23:0.97054 24:-0.54106 25:-0.50477 
0.7810633723026126 1:2.1228 2:2.6013 3:1.1147 4:-0.29073 5:-0.078805 6:0.37312 7:1.0674 8:0.91992 9:1.2037 10:1.2325 11:1.6273 12:0.92121 13:0.80075 14:1.4415 15:1.5781 16:0.90803 17:0.92375 18:2.3882 19:3.0411 20:0.65841 21:0.24714 22:1.9636 23:1.2421 24:-0.41671 25:3.4531 
1.0 1:0.16415 2:-0.14185 3:-1.2683 4:-0.58787 5:-2.057 6:-0.72096 7:-0.28565 8:-0.71645 9:-1.6413 10:0.091507 11:0.40543 12:0.83748 13:1.5395 14:2.1275 15:2.2774 16:2.3578 17:2.2593 18:3.2605 19:3.5711 20:3.8224 21:3.9294 22:4.3403 23:4.1927 24:4.4062 25:1.1572 
1.0 1:0.64793 2:0.30381 3:0.57827 4:1.2141 5:1.3063 6:1.532 7:1.8829 8:1.0795 9:1.5023 10:1.9327 11:2.2093 12:3.0091 13:4.0229 14:4.6143 15:7.0695 16:6.5616 17:5.5873 18:3.9475 19:2.8779 20:1.5818 21:0.86147 22:0.37741 23:0.27983 24:0.1418 25:0.66509 
0.07341635006160907 1:-0.63126 2:-0.60388 3:0.12508 4:-1.4756 5:-1.1882 6:-0.20092 7:-1.0563 8:-0.90881 9:-1.4395 10:-2.0821 11:-2.1677 12:-1.7181 13:-1.3878 14:-0.76635 15:0.48151 16:1.4403 17:1.9504 18:1.6411 19:1.1278 20:0.60982 21:-0.39543 22:-0.10109 23:0.86695 24:0.81601 25:-0.1686 
1.0 1:0.35926 2:0.017531 3:0.53701 4:2.1049 5:3.112 6:4.9507 7:4.6064 8:3.7939 9:2.9001 10:2.6026 11:0.087858 12:-1.2871 13:0.80087 14:0.74131 15:0.24578 16:-0.039905 17:-1.4987 18:-0.49604 19:-0.35903 20:-0.62441 21:1.5782 22:0.6861 23:0.19494 24:0.27796 25:0.30794 
0.2859187428413293 1:-1.3738 2:-1.8395 3:-0.80812 4:0.48188 5:-0.62983 6:-1.9433 7:-2.0581 8:-1.5863 9:-1.434 10:-1.8725 11:-2.4367 12:-1.7083 13:-0.56839 14:-0.018901 15:-0.40724 16:-1.4049 17:-0.81131 18:1.6605 19:2.1369 20:1.0519 21:0.39946 22:0.5159 23:0.66593 24:1.2311 25:-0.4832 
1.0 1:1.1347 2:1.0215 3:0.40534 4:2.2705 5:2.3604 6:2.3658 7:2.1494 8:1.9259 9:2.3381 10:0.87133 11:1.9369 12:1.2615 13:-0.13465 14:-2.3585 15:-3.2554 16:-4.1971 17:-4.3722 18:-4.88 19:-4.6183 20:-2.6494 21:-2.1323 22:-1.17 23:0.81123 24:1.5754 25:3.5119 
0.934161817064264 1:-0.084629 2:0.067475 3:-0.098321 4:-0.051725 5:0.067468 6:-0.31775 7:-0.54835 8:-0.35178 9:-0.055499 10:-0.6243 11:0.72333 12:-0.16914 13:-0.41317 14:0.045494 15:-0.064723 16:-0.83218 17:-1.5749 18:0.93139 19:1.7914 20:-0.33279 21:-0.27768 22:3.172 23:1.2637 24:-4.2954 25:0.38718 
0.5345654555548239 1:-0.22614 2:-0.25354 3:1.0188E-4 4:-0.14746 5:-0.011959 6:-0.38187 7:-0.69973 8:-0.91716 9:-1.5288 10:-1.963 11:-1.8945 12:-2.1674 13:-3.2444 14:-3.5377 15:-2.7786 16:-3.4475 17:-3.2229 18:-2.6293 19:-2.8455 20:-3.657 21:-2.2536 22:-0.18921 23:-0.57841 24:-0.30518 25:-0.24657 
1.0 1:-0.8496 2:-2.0211 3:-4.2349 4:-5.2637 5:-6.3924 6:-5.4328 7:-5.1202 8:-5.7177 9:-4.3172 10:-3.2923 11:-2.4145 12:-1.626 13:-0.63962 14:0.38594 15:1.5732 16:2.2208 17:1.4307 18:2.4655 19:3.0995 20:1.7764 21:0.29393 22:-0.29084 23:-0.49983 24:-0.24969 25:-0.45445 
1.0 1:-4.1312 2:-5.6651 3:-6.6334 4:-6.0831 5:-9.175 6:-5.0741 7:-3.4291 8:-2.8028 9:-1.4698 10:-1.1027 11:-0.26356 12:1.2981 13:1.5994 14:3.1318 15:4.1915 16:4.1141 17:3.1828 18:2.3766 19:1.5 20:-0.19028 21:-0.62483 22:0.21549 23:0.48299 24:0.28206 25:0.27375 
1.0 1:1.6252 2:1.3756 3:0.94774 4:0.725 5:0.28166 6:0.18802 7:0.31267 8:0.49646 9:0.38497 10:0.00882 11:0.032194 12:-0.027189 13:-1.014 14:-0.63446 15:0.026414 16:-0.81189 17:-3.713 18:-2.7096 19:0.37133 20:1.8602 21:2.8515 22:0.083122 23:4.1435 24:-5.9101 25:2.1024 
1.0 1:-2.8117 2:-3.6732 3:2.2646 4:-1.7471 5:-3.8369 6:-3.7817 7:-4.3014 8:-4.9775 9:-4.953 10:-2.1748 11:0.20222 12:0.41669 13:0.33012 14:1.2832 15:2.1197 16:3.0027 17:2.4851 18:1.5197 19:0.8441 20:0.93258 21:1.5572 22:2.2987 23:2.563 24:2.2547 25:-0.85444 
-0.3866538274690009 1:-2.3079 2:-5.314 3:-11.6587 4:-4.5911 5:-3.1799 6:-0.16849 7:-0.035889 8:3.5735 9:3.7188 10:1.7484 11:0.95776 12:1.2057 13:0.52754 14:-0.44499 15:-1.2378 16:2.4361 17:-9.0316 18:-4.7901 19:-3.048 20:-0.55689 21:0.57338 22:2.8616 23:1.8724 24:2.3937 25:2.6396 
-0.38441811125305564 1:2.598 2:1.1981 3:-0.5836 4:-1.4669 5:-0.72991 6:-1.8785 7:1.6658 8:0.98468 9:-1.3705 10:1.201 11:-3.5479 12:-5.3848 13:-4.2394 14:-2.6787 15:-7.0588 16:3.02 17:0.82696 18:-1.9958 19:-3.9495 20:-3.026 21:-2.0406 22:-0.54249 23:4.4898 24:-2.2259 25:2.67 
-0.6070938428889684 1:-1.628 2:-1.6164 3:1.0557 4:2.807 5:0.36465 6:-0.76844 7:-0.32632 8:-0.77816 9:-0.40516 10:-1.0551 11:-0.94646 12:-2.6857 13:2.7855 14:0.55483 15:-2.6053 16:1.5515 17:1.5207 18:0.64591 19:-0.54518 20:1.3476 21:-2.8368 22:-2.9287 23:-2.1079 24:-2.1729 25:-0.053756 
-0.38797868168653216 1:-2.0189 2:-2.1186 3:-1.3112 4:-0.25069 5:3.3198 6:4.0544 7:0.50264 8:-1.4274 9:-4.5904 10:-5.7463 11:-5.5304 12:-4.5143 13:-2.702 14:-0.98339 15:-0.90622 16:-1.2362 17:-3.1714 18:-0.74097 19:-0.54315 20:-2.4098 21:-4.2251 22:-5.4477 23:-6.1536 24:-9.0307 25:-0.31479 
-0.2797196177111828 1:1.8592 2:2.2017 3:1.5397 4:-0.060083 5:-1.5939 6:-4.0213 7:-5.9953 8:-4.1725 9:1.453 10:0.99864 11:1.3175 12:2.6582 13:2.5541 14:0.67654 15:1.9899 16:2.0182 17:1.0555 18:0.4426 19:-0.74895 20:-3.6003 21:-6.36 22:-3.2139 23:0.10071 24:-0.39168 25:1.8225 
-0.374616041946248 1:1.4689 2:0.80442 3:1.6064 4:1.5085 5:1.8751 6:2.7386 7:3.0166 8:0.10005 9:-3.6317 10:-8.0129 11:-6.4118 12:-6.268 13:-2.2439 14:-1.3163 15:-0.28068 16:0.63343 17:2.171 18:1.0892 19:1.0133 20:1.1216 21:1.1542 22:6.0629 23:1.0567 24:-7.3112 25:0.84235 
-0.39414995976629347 1:-1.3365 2:-0.19338 3:4.671 4:2.8601 5:0.65907 6:1.8228 7:2.0013 8:1.824 9:2.9069 10:-4.1506 11:-2.8064 12:-8.1509 13:-2.6249 14:0.47293 15:-0.97894 16:2.6239 17:2.6124 18:2.147 19:0.74667 20:0.5037 21:1.3123 22:0.83996 23:-1.786 24:0.90828 25:1.3804 
-0.5923672362532463 1:-2.2261 2:-1.8295 3:-1.775 4:-0.54952 5:2.8137 6:0.37555 7:-1.9297 8:-3.5093 9:-1.3405 10:-0.34744 11:-0.48638 12:-2.0181 13:-2.0581 14:-0.11528 15:-0.053959 16:-2.7344 17:2.1546 18:0.19373 19:-1.4191 20:-4.6951 21:-1.3521 22:-1.4436 23:-0.94764 24:-1.3917 25:-1.7115 
-0.5457439644205293 1:-2.1844 2:-2.8064 3:-3.5668 4:-3.9724 5:-2.5924 6:-1.2328 7:0.68703 8:0.8597 9:-0.93295 10:-0.75366 11:-0.53594 12:-0.38524 13:-2.2813 14:-0.52243 15:1.908 16:2.8258 17:2.1099 18:2.1217 19:2.4065 20:3.7127 21:3.2198 22:3.9174 23:0.57209 24:-2.3303 25:-1.3955 
-0.3869395779356891 1:-2.5523 2:0.26427 3:-0.32311 4:-2.5437 5:2.1973 6:5.4107 7:-0.062656 8:-3.8861 9:5.1098 10:3.3985 11:-0.83892 12:-2.0561 13:-2.2368 14:-4.2767 15:-1.6395 16:-1.4451 17:-1.2995 18:-1.0611 19:3.1405 20:2.9184 21:-5.4249 22:3.4246 23:3.7374 24:0.89221 25:-1.4387 
-0.37858004412506 1:3.1658 2:3.22 3:3.2882 4:2.0837 5:1.1484 6:-2.2793 7:-0.053683 8:-5.0467 9:-4.9036 10:-5.6213 11:-4.8506 12:-1.8039 13:2.3098 14:3.542 15:3.9939 16:3.7112 17:4.5402 18:3.9055 19:1.8695 20:-0.3783 21:-4.1116 22:-6.0157 23:-6.0827 24:-3.7484 25:4.5054 
-0.38833708125758665 1:-2.1942 2:-1.1108 3:0.56227 4:6.2839 5:11.2703 6:9.3294 7:2.6737 8:-0.83408 9:-2.3031 10:-3.5231 11:-3.2796 12:-4.2135 13:-4.3891 14:-4.8462 15:-3.3231 16:-0.017777 17:3.7292 18:8.1501 19:6.3427 20:2.1026 21:-0.43886 22:-1.1295 23:-0.31647 24:-1.5875 25:-3.7676 
-0.37583001059055604 1:-2.4216 2:-1.7755 3:-3.2508 4:-0.26713 5:-0.4405 6:3.6729 7:6.352 8:2.8697 9:1.0373 10:0.30618 11:-1.6999 12:-1.5366 13:-2.2441 14:-1.2261 15:-1.7078 16:-4.7198 17:-0.24959 18:-0.74354 19:4.7225 20:7.8506 21:2.9173 22:-0.86011 23:1.6063 24:-1.0629 25:-2.9943 
-0.37668465027362086 1:3.3037 2:1.5376 3:0.36833 4:1.5565 5:2.1018 6:0.35446 7:2.3955 8:1.0989 9:2.4051 10:-9.9826 11:-6.3846 12:-1.1794 13:0.33042 14:1.6286 15:3.0755 16:1.4659 17:1.3154 18:1.3923 19:1.0903 20:3.2467 21:2.1276 22:1.1847 23:-0.30779 24:-13.8758 25:0.0015391 
-0.3623696771154234 1:-7.7523 2:-4.6883 3:-2.0651 4:1.0309 5:-0.077216 6:1.193 7:3.9795 8:2.0624 9:2.0743 10:4.4014 11:1.6518 12:-1.5324 13:-1.3317 14:-5.269 15:-8.2374 16:-6.3441 17:0.27941 18:-1.3679 19:-0.32229 20:1.9652 21:1.9046 22:1.7091 23:2.2343 24:-0.2073 25:-7.9741 
-0.37874233414323744 1:1.6182 2:-9.9647 3:-6.5978 4:-5.5426 5:-7.0049 6:-2.357 7:0.026 8:3.7167 9:2.5995 10:4.4298 11:4.587 12:4.9178 13:5.265 14:4.8339 15:1.2506 16:-1.806 17:-8.7856 18:-6.5196 19:-6.1342 20:-2.6014 21:1.443 22:2.2954 23:2.8132 24:3.2405 25:5.4697 
-0.3960740782565161 1:-1.6785 2:-1.5985 3:-1.0415 4:-0.13356 5:4.1451 6:2.5932 7:-2.4099 8:-3.6423 9:-3.3427 10:-1.2884 11:-3.0474 12:-3.2756 13:-2.8956 14:-3.4908 15:-2.2888 16:-0.51601 17:1.4284 18:4.3391 19:1.2971 20:-0.043221 21:-1.4967 22:-3.1778 23:-3.0172 24:-0.77603 25:-1.6232 
-0.3951650046210476 1:2.3229 2:1.6811 3:2.3565 4:2.64 5:1.1479 6:-1.7104 7:-4.3277 8:-1.266 9:-3.7167 10:-2.9152 11:-0.60053 12:-2.9098 13:-4.8876 14:-2.6721 15:0.092358 16:0.41143 17:-1.7382 18:-2.3177 19:1.2663 20:-3.288 21:-7.1624 22:3.1389 23:3.5081 24:2.3202 25:4.1767 
-0.3710497319257472 1:-0.60715 2:-2.3886 3:-6.5739 4:-4.4386 5:-2.1604 6:-0.5235 7:1.7869 8:0.50547 9:1.2306 10:1.8602 11:2.6982 12:3.7165 13:5.6103 14:6.7333 15:0.76433 16:-4.5136 17:-9.5107 18:-5.7357 19:-3.5999 20:-0.59874 21:0.84932 22:1.9225 23:2.3685 24:0.80305 25:4.7495 
-0.4199961375363469 1:-0.0302 2:-0.47206 3:1.1452 4:-0.22831 5:0.46676 6:-0.77042 7:-0.17921 8:0.81123 9:-1.0322 10:1.6035 11:-0.79372 12:-1.5738 13:0.65629 14:2.2537 15:0.99245 16:-0.18697 17:-1.0247 18:-0.90013 19:2.7249 20:2.9087 21:-5.2314 22:0.75693 23:8.3383 24:-1.9144 25:0.15567 
-0.3872570170264861 1:-1.466 2:-2.4209 3:-4.4906 4:-0.8541 5:4.3884 6:4.0493 7:-0.98263 8:-0.66074 9:3.9487 10:-0.061421 11:-0.56257 12:-2.5092 13:-1.6389 14:-1.076 15:-2.1341 16:-4.8506 17:-1.7915 18:1.688 19:-0.50614 20:0.98111 21:1.6596 22:3.6972 23:1.064 24:-0.30439 25:-4.0938 
-0.3612432472682955 1:-6.1226 2:-2.2191 3:-2.7905 4:-0.46762 5:0.69239 6:3.5144 7:1.6608 8:0.041446 9:2.7364 10:3.3005 11:0.5836 12:0.47102 13:0.70758 14:-6.0318 15:-8.9331 16:-3.4016 17:-2.6595 18:-0.5867 19:2.2247 20:3.6302 21:0.52395 22:2.9007 23:1.7582 24:1.5127 25:-9.2365 
-0.3870269183754463 1:0.039203 2:1.8946 3:0.81354 4:4.3912 5:3.7288 6:2.0539 7:2.3004 8:-0.86673 9:-1.2787 10:2.8553 11:2.4102 12:-11.9272 13:-9.5803 14:1.4083 15:1.0039 16:3.139 17:1.8609 18:1.4894 19:2.8658 20:3.6502 21:1.0715 22:-1.0677 23:0.4229 24:-0.63395 25:-8.5926 
-0.38593650196907586 1:8.7721 2:0.93706 3:-0.62166 4:-1.1132 5:-0.3371 6:-0.7678 7:-3.1717 8:-5.3404 9:-4.2889 10:0.66346 11:-1.0582 12:-0.22669 13:5.2094 14:10.8482 15:2.612 16:-0.42881 17:-4.3196 18:2.3223 19:-1.7866 20:-4.1027 21:-2.5792 22:-0.96729 23:0.30972 24:-1.742 25:2.0315 
-0.42932664051094394 1:-0.2459 2:-0.695 3:-0.76169 4:0.56509 5:1.1073 6:1.1598 7:2.5094 8:2.4824 9:0.89654 10:-0.21793 11:-1.0799 12:0.40758 13:0.25748 14:0.44216 15:2.0149 16:4.6168 17:-2.5198 18:-0.91326 19:1.5755 20:-0.099458 21:-3.0345 22:-0.0086139 23:4.6203 24:-7.7362 25:-0.30031 
-0.6548729707595145 1:-1.7916 2:-2.3663 3:-2.0008 4:-0.4855 5:0.70683 6:0.66226 7:-1.1143 8:-2.1238 9:2.535 10:-0.13521 11:-0.1989 12:-0.3793 13:-1.4022 14:-1.9141 15:-0.45714 16:-1.2683 17:-2.3661 18:2.8342 19:2.1256 20:-1.2611 21:0.22667 22:3.2047 23:-0.73856 24:-4.9008 25:-2.2417 
-0.3754277870076593 1:1.4253 2:2.2182 3:1.6583 4:2.3301 5:0.035705 6:0.093931 7:-2.6138 8:-4.7152 9:-5.9056 10:-7.3329 11:-5.9208 12:-2.3622 13:0.67007 14:1.1104 15:0.55094 16:2.0917 17:2.8371 18:2.7025 19:2.4872 20:1.0777 21:0.97231 22:-1.1246 23:-0.55809 24:-4.2808 25:1.1025 
-0.37863085477126607 1:2.659 2:0.32172 3:-1.1989 4:-1.1572 5:-2.5213 6:-1.1135 7:-3.5023 8:-2.9571 9:-2.9873 10:4.3998 11:6.1975 12:4.4002 13:3.2144 14:2.8925 15:1.9164 16:-1.118 17:-0.61157 18:-2.2205 19:-1.5765 20:-1.8491 21:-3.4374 22:-3.8261 23:-1.5558 24:4.4834 25:-0.11726 
-0.4236565519491611 1:-1.5652 2:0.82137 3:0.071068 4:-1.0542 5:4.4971 6:5.3891 7:0.13919 8:3.3873 9:3.2071 10:1.861 11:-0.55891 12:0.97539 13:-0.17555 14:-1.3226 15:-0.68117 16:-4.3542 17:-4.971 18:-4.9581 19:1.6353 20:-1.3597 21:-2.9676 22:2.1315 23:3.1848 24:1.6238 25:-0.96215 
-0.38775053728241954 1:-2.7769 2:1.6849 3:5.3911 4:-0.83619 5:1.0016 6:-4.8302 7:-5.0861 8:-6.4728 9:-6.1814 10:-4.0343 11:-1.9241 12:-2.3785 13:0.83029 14:-1.5882 15:-4.8368 16:-2.5507 17:0.61065 18:-4.9687 19:-5.419 20:-8.5249 21:-6.366 22:-2.3458 23:-1.7238 24:-0.50613 25:-3.3798 
-0.37052131622780793 1:1.1949 2:3.042 3:2.9053 4:3.1439 5:2.8349 6:1.5995 7:3.6953 8:1.4206 9:-1.9734 10:-9.644 11:-7.2482 12:-3.821 13:-1.2798 14:3.3952 15:1.4277 16:2.5782 17:2.4618 18:2.1986 19:2.024 20:1.5372 21:4.0073 22:2.324 23:-0.85174 24:-5.3443 25:-1.1584 
-0.38522270890083593 1:0.61396 2:-3.7615 3:-5.2009 4:-4.2483 5:-6.904 6:-0.77659 7:3.5181 8:0.61991 9:3.5315 10:3.3039 11:3.7371 12:4.6612 13:-0.61865 14:1.5021 15:-0.024361 16:-8.7605 17:-6.3255 18:-5.0105 19:-2.9208 20:3.3865 21:2.435 22:3.1162 23:2.9512 24:2.9701 25:0.27646 
-0.39366625476227846 1:-2.8486 2:-2.2357 3:3.5299 4:-0.26249 5:-7.6461 6:2.0445 7:2.1303 8:0.5398 9:1.7507 10:3.3334 11:1.109 12:-0.56867 13:-1.7001 14:-1.9422 15:-2.8873 16:2.6341 17:2.174 18:-0.40652 19:-2.1624 20:-3.0845 21:-0.074155 22:3.3794 23:0.68024 24:1.9088 25:0.26824 
-0.3876735834137941 1:3.7502 2:2.3656 3:-1.3548 4:-0.68266 5:-1.9147 6:-3.8632 7:-5.8854 8:-3.7438 9:-7.6018 10:-7.1875 11:-4.0608 12:-1.848 13:0.22989 14:3.3028 15:3.1569 16:2.7028 17:1.4519 18:6.112 19:4.9341 20:-7.4385 21:-3.8445 22:-4.9449 23:-14.4574 24:-7.7238 25:2.7784 
-0.3560298747441705 1:-1.52 2:-1.6575 3:-5.0982 4:-3.0929 5:-1.4929 6:-0.4608 7:3.8568 8:5.1579 9:3.9646 10:0.033018 11:-1.4234 12:-0.60155 13:-0.70571 14:-0.55874 15:-1.1705 16:-0.75535 17:-1.7748 18:-5.0321 19:0.69937 20:2.1354 21:3.6497 22:2.4128 23:1.3185 24:-0.99661 25:-0.86337 
-0.38733058746901733 1:-1.0176 2:1.7398 3:1.7355 4:5.7812 5:1.6765 6:-0.16202 7:-0.10578 8:-2.508 9:-5.1888 10:-6.6921 11:-8.5787 12:-6.6567 13:-3.8223 14:-4.1088 15:3.1472 16:1.5891 17:0.86186 18:5.8341 19:5.11 20:2.3749 21:2.6415 22:5.2281 23:-6.0661 24:-4.7314 25:-0.4604 
-0.39473821983752394 1:-0.92197 2:1.7021 3:0.013894 4:-2.1866 5:-2.2274 6:-7.7923 7:2.8052 8:0.60874 9:2.1448 10:3.3206 11:-0.8503 12:-0.17782 13:-0.71422 14:0.18113 15:-0.62186 16:-0.68215 17:-0.38634 18:-2.1867 19:-2.8327 20:-3.7424 21:0.86706 22:-0.42701 23:2.3733 24:0.16477 25:0.7714 
-0.3789605507422718 1:4.3619 2:3.6836 3:3.3315 4:3.5059 5:4.4072 6:0.81437 7:-4.3098 8:-5.189 9:-8.8223 10:-4.3603 11:-2.1368 12:-2.2005 13:5.1812 14:-0.51735 15:2.6098 16:1.7142 17:2.3978 18:1.6387 19:3.0795 20:0.97064 21:-4.0157 22:-7.0013 23:-3.3509 24:-3.1953 25:3.1778 
-0.3878545011143792 1:4.6027 2:1.6466 3:0.6671 4:-2.5015 5:-12.9345 6:-9.3749 7:-1.5149 8:-0.34294 9:0.61037 10:1.1379 11:1.8787 12:3.1226 13:2.4643 14:0.28336 15:2.7867 16:1.7636 17:4.042 18:7.3453 19:3.4801 20:-7.398 21:-11.1176 22:-6.2981 23:-1.0406 24:1.5468 25:2.9371 
-0.42967750960845097 1:0.86676 2:-0.066762 3:0.22075 4:0.50811 5:0.56218 6:1.1676 7:1.9763 8:-0.34023 9:-5.6395 10:-3.424 11:-4.5759 12:-2.0216 13:0.90593 14:1.4372 15:1.0141 16:0.44293 17:0.68791 18:0.24725 19:-0.33699 20:1.0954 21:1.211 22:-1.2155 23:-6.2607 24:-2.2478 25:2.3345 
-0.3825146585744883 1:3.0991 2:4.5808 3:3.0155 4:5.0596 5:1.2649 6:-10.0958 7:-5.9966 8:-5.1069 9:-3.3227 10:0.51082 11:1.6706 12:0.37878 13:4.0231 14:3.5964 15:4.0704 16:1.7354 17:3.357 18:5.2764 19:-7.5423 20:-10.0228 21:-6.4325 22:-5.9938 23:-0.56545 24:3.7005 25:2.8968 
-0.4343037436405938 1:-0.016948 2:3.9918 3:2.861 4:3.0372 5:1.9357 6:0.76611 7:1.9302 8:1.3076 9:0.1777 10:0.52792 11:-7.8656 12:-3.9276 13:-0.83069 14:0.70625 15:0.84323 16:2.9664 17:1.8766 18:0.31593 19:0.71005 20:-1.5216 21:1.4115 22:0.45055 23:-0.52736 24:1.2823 25:0.23532 
-0.38178289285090194 1:-0.56578 2:-0.46725 3:-1.8576 4:-2.6049 5:1.2718 6:1.2104 7:1.8861 8:-5.6645 9:5.3503 10:0.8685 11:-3.7268 12:-4.3173 13:-3.7363 14:-2.2208 15:-0.16826 16:-2.8872 17:-0.40315 18:3.6773 19:0.45616 20:1.5428 21:-0.82279 22:2.5417 23:-1.115 24:0.098451 25:-3.889 
-0.38958719789271634 1:-0.069751 2:0.03084 3:-0.87818 4:-2.4258 5:-2.0598 6:1.7098 7:0.56969 8:1.5014 9:1.3297 10:1.8888 11:5.343 12:2.3251 13:-2.7353 14:-3.8658 15:-5.0743 16:-5.1683 17:-4.6583 18:-2.3974 19:-1.9049 20:5.5618 21:1.1019 22:-2.898 23:4.1448 24:3.6547 25:-0.21038 
-0.3867532270471765 1:0.39568 2:2.372 3:-1.4457 4:1.755 5:-3.8793 6:-6.9393 7:-7.0628 8:-0.26775 9:-0.81394 10:0.77352 11:-0.65786 12:5.4994 13:1.3947 14:2.4003 15:0.74949 16:0.026782 17:0.30944 18:-2.1288 19:-2.064 20:-6.7657 21:-9.3789 22:0.34405 23:0.019825 24:-0.17613 25:-6.3927 
-0.380053155124293 1:2.0107 2:4.7793 3:2.2048 4:3.4045 5:2.8167 6:1.4445 7:4.2511 8:-2.5794 9:-8.0659 10:-6.2686 11:-2.7813 12:-1.1092 13:2.616 14:2.4925 15:-0.99265 16:2.6907 17:1.8615 18:2.8041 19:2.5226 20:2.3014 21:4.0618 22:-0.72122 23:-5.4888 24:-4.8799 25:3.1914 
-0.3851824135063029 1:1.8534 2:-3.7197 3:-8.6563 4:-1.8845 5:-6.3504 6:-8.134 7:0.11302 8:3.2019 9:3.0994 10:6.1936 11:4.796 12:5.442 13:4.7436 14:3.5569 15:4.9913 16:-2.6433 17:-10.4482 18:-3.4885 19:-4.8593 20:-4.1448 21:0.67779 22:2.9161 23:3.5366 24:1.7981 25:4.7115 
-0.39990524419727375 1:-2.193 2:-2.1075 3:-5.9914 4:-7.2626 5:-5.3745 6:-1.6187 7:-2.9622 8:-3.5154 9:2.4048 10:0.3656 11:1.7683 12:2.2255 13:1.5505 14:-0.003337 15:-1.4531 16:-1.1645 17:-3.1536 18:-2.5029 19:-3.617 20:-2.7277 21:-0.51192 22:-2.1002 23:-0.53841 24:4.4976 25:-0.41747 
-0.3884298460804356 1:-2.4067 2:-4.3286 3:1.5829 4:-3.0896 5:0.20549 6:8.0355 7:3.2799 8:3.094 9:0.2372 10:0.58231 11:2.1344 12:3.4284 13:0.77724 14:-0.414 15:-3.6955 16:-4.7362 17:-2.897 18:1.5525 19:0.24151 20:6.3404 21:3.0135 22:1.9362 23:-0.46503 24:1.1975 25:1.4312 
-0.3869369841191367 1:-1.3904 2:-1.0232 3:-4.0864 4:-9.2215 5:2.4134 6:-3.3022 7:-1.7094 8:3.8811 9:1.8165 10:2.178 11:2.8265 12:2.5799 13:-0.31186 14:0.13255 15:1.3141 16:0.31055 17:-9.3221 18:-4.8645 19:0.74966 20:-1.6829 21:1.8615 22:2.6413 23:1.3925 24:0.35781 25:-0.42565 
-0.37981194297588117 1:-3.2967 2:-3.0326 3:2.3526 4:7.9519 5:0.13826 6:1.7904 7:1.8336 8:2.6818 9:-0.074162 10:-2.3722 11:-0.20368 12:-1.2166 13:-7.7399 14:-5.4278 15:2.6883 16:-0.59856 17:-0.35764 18:2.9847 19:3.4275 20:1.8387 21:2.0443 22:3.291 23:-1.2974 24:-2.3015 25:-5.6916 
-0.3807496201190443 1:1.5939 2:-6.5755 3:-4.9881 4:-2.27 5:-2.78 6:-3.0154 7:2.3549 8:2.6318 9:5.0521 10:4.3003 11:4.5797 12:5.9575 13:3.8855 14:4.5813 15:0.73914 16:-1.8234 17:-12.2808 18:-10.0311 19:-6.6898 20:-2.9566 21:-2.0421 22:0.30128 23:4.7029 24:4.6 25:4.4049 
-0.3702875191841032 1:2.4284 2:1.728 3:2.103 4:1.6896 5:-0.017334 6:-0.89482 7:-4.1265 8:-2.4909 9:-4.3798 10:-1.7835 11:3.1466 12:0.040919 13:-0.088765 14:2.2629 15:2.28 16:3.1078 17:3.7796 18:2.2926 19:-0.16856 20:-1.6079 21:-4.0485 22:-6.0389 23:-4.6855 24:-3.6614 25:3.0079 
-0.37862825130505146 1:-1.9681 2:-2.1981 3:-0.69365 4:0.50808 5:0.19669 6:-2.2141 7:-3.4541 8:3.02 9:7.2877 10:5.3374 11:2.6925 12:-1.6674 13:-1.4596 14:-0.7644 15:-1.5234 16:-2.6676 17:-2.015 18:-1.2227 19:-1.8415 20:-3.2516 21:-3.4954 22:5.0413 23:8.3103 24:5.4024 25:-3.7353 
-0.33487455328800003 1:-1.8132 2:2.5476 3:1.3314 4:-1.3123 5:2.686 6:3.8797 7:3.1129 8:1.8693 9:0.82082 10:-0.50158 11:-1.1534 12:-3.2959 13:-5.4734 14:-4.6676 15:-3.4617 16:0.26142 17:0.039711 18:1.4929 19:2.2112 20:1.7968 21:3.9946 22:2.7301 23:1.3725 24:1.7206 25:-3.8018 
-0.38726593849108576 1:-3.048 2:5.5856 3:0.12512 4:3.2208 5:3.4461 6:3.0708 7:5.0266 8:1.3212 9:2.4389 10:2.9948 11:-1.2901 12:-11.3114 13:-7.2916 14:-4.7616 15:0.64823 16:3.4416 17:2.6252 18:2.3603 19:2.5999 20:2.8804 21:3.2417 22:1.1712 23:4.9724 24:3.9513 25:-7.2249 
-0.47863517744774825 1:-1.8888 2:-2.749 3:-2.2926 4:1.3645 5:0.58368 6:-1.3479 7:3.0552 8:0.45981 9:3.7066 10:-4.379 11:1.2683 12:1.0035 13:-0.87464 14:-0.015902 15:-1.2778 16:-2.6992 17:1.6493 18:2.3177 19:2.1767 20:2.8499 21:0.06604 22:-0.43732 23:-0.55471 24:-0.13889 25:-0.1661 
-0.38278509433264096 1:-1.888 2:-3.989 3:-3.1474 4:-5.7546 5:-3.8482 6:-0.33934 7:2.8507 8:1.8405 9:0.87985 10:1.4878 11:0.68619 12:2.6247 13:0.58604 14:4.4028 15:-1.0838 16:4.1708 17:-3.221 18:-6.79 19:-1.9793 20:-2.1445 21:-1.8289 22:0.078428 23:0.76896 24:1.2722 25:1.9518 
-0.38648747694284064 1:-1.9387 2:-4.7096 3:-4.7477 4:1.0905 5:-1.0741 6:3.8413 7:4.387 8:2.9548 9:2.6143 10:0.10065 11:0.50866 12:0.3801 13:-0.21644 14:0.1866 15:-0.18597 16:-3.8065 17:-4.2227 18:-0.39029 19:-1.8565 20:1.1715 21:8.6336 22:1.44 23:-0.96197 24:-0.96497 25:-0.66453 
-0.30035098558549006 1:7.7351 2:4.8963 3:1.4805 4:-1.2896 5:-2.6347 6:-0.96926 7:-2.412 8:-3.4369 9:-2.8698 10:-1.835 11:-3.4115 12:-2.7421 13:5.9905 14:10.0063 15:8.2705 16:2.6122 17:-2.6091 18:-2.5025 19:-2.0585 20:-2.3371 21:-2.539 22:-1.2728 23:-1.7846 24:-3.9704 25:4.7718 
-0.38615303937525125 1:-3.5875 2:-11.2383 3:-6.0707 4:-0.27338 5:0.51325 6:4.3196 7:3.4802 8:2.1621 9:2.1782 10:2.0173 11:1.388 12:1.8384 13:-1.1866 14:-1.895 15:-8.3416 16:-7.2592 17:2.3827 18:3.4977 19:2.0717 20:4.0653 21:2.7682 22:2.5172 23:1.8809 24:1.6587 25:0.77096 
-0.38774877573035205 1:0.88736 2:-4.2471 3:0.74809 4:-2.2934 5:-9.1128 6:-5.7805 7:1.7078 8:-0.40245 9:0.72272 10:4.1642 11:1.9977 12:0.53579 13:1.7081 14:0.99581 15:0.68535 16:-2.0475 17:-6.4047 18:-8.4275 19:-9.7442 20:-5.6354 21:-4.7093 22:1.7906 23:-1.0453 24:1.5981 25:0.60195 
-0.38797660668167894 1:-9.8815 2:-8.1189 3:-3.1421 4:-1.6143 5:-3.0145 6:1.1811 7:2.945 8:2.4679 9:3.0347 10:2.7966 11:6.211 12:5.0417 13:4.5746 14:3.5764 15:-0.35364 16:-13.7659 17:-9.7493 18:-6.1188 19:-3.4204 20:1.2557 21:4.5056 22:3.8128 23:3.6822 24:3.3089 25:0.38288 
-0.3877396873192741 1:2.8154 2:0.84146 3:-3.3079 4:-3.6816 5:-2.1314 6:-5.2698 7:-6.7246 8:-2.1454 9:-0.38688 10:2.3896 11:0.080732 12:7.8488 13:2.7034 14:5.9254 15:7.9655 16:7.1404 17:2.2458 18:-1.027 19:-7.7185 20:-9.0344 21:-8.5515 22:-6.7066 23:-2.6964 24:-1.3713 25:4.1697 
-0.4814265517372273 1:-1.1061 2:-0.40001 3:0.91588 4:-0.42365 5:-3.6137 6:-0.085918 7:-2.7054 8:-0.9004 9:1.7679 10:-1.9489 11:0.7712 12:0.19964 13:1.7598 14:1.3593 15:-0.58364 16:-0.5537 17:-1.0068 18:-1.8171 19:-2.612 20:-4.8272 21:-1.7751 22:-3.538 23:-1.4304 24:3.773 25:-0.58239 
-0.37819897458250407 1:4.0189 2:3.3322 3:4.6791 4:4.6107 5:2.7519 6:1.8629 7:1.5152 8:0.45708 9:-7.436 10:-8.8826 11:-8.5178 12:-2.075 13:0.24536 14:2.1164 15:4.1245 16:5.479 17:4.6593 18:5.2343 19:4.6379 20:3.6867 21:1.3216 22:0.64364 23:-4.4319 24:-6.7224 25:4.4473 
-0.34666712493188323 1:-4.5241 2:-4.5247 3:-1.144 4:-5.4352 5:-2.2208 6:2.0635 7:-0.86365 8:2.9917 9:2.7325 10:0.32854 11:-0.013988 12:-2.0758 13:-2.9294 14:-5.5877 15:-7.595 16:-7.0525 17:-2.5076 18:-3.4432 19:-2.075 20:-0.55339 21:-1.3057 22:0.96637 23:4.1984 24:1.0494 25:-3.778 
-0.6592713067211226 1:0.22963 2:-0.022889 3:-0.32511 4:0.052111 5:0.58033 6:1.0123 7:0.26217 8:0.60581 9:-0.23585 10:-1.1194 11:-1.3822 12:-3.5216 13:-2.6842 14:-0.75852 15:-0.40826 16:-2.8711 17:0.077788 18:-1.3009 19:0.63483 20:1.7655 21:2.9084 22:5.208 23:3.4878 24:-2.1505 25:0.11699 
-0.42396636488623435 1:-0.17094 2:0.50073 3:-1.5243 4:-0.99437 5:-2.009 6:-3.1653 7:-1.4939 8:-1.3264 9:1.9223 10:2.6814 11:-0.3421 12:2.152 13:3.2711 14:0.5685 15:-1.9492 16:-2.6768 17:-3.7435 18:-3.9058 19:-2.9555 20:-4.4544 21:-0.50571 22:1.5815 23:-0.59635 24:-1.4584 25:0.96996 
-0.4619578760597398 1:1.3987 2:1.4067 3:1.41 4:1.0526 5:1.2246 6:1.3487 7:-0.2233 8:-0.9991 9:-1.0656 10:-2.7267 11:-3.8723 12:-0.55168 13:-0.74732 14:5.7221 15:3.4256 16:0.80621 17:-0.72689 18:0.27886 19:0.76388 20:-0.15647 21:-0.23224 22:1.1772 23:-0.33473 24:-3.7443 25:5.4628 
-0.38762333345663663 1:-6.7318 2:-9.647 3:-6.2917 4:-0.62478 5:0.76906 6:2.1625 7:5.0995 8:5.4278 9:4.9172 10:4.5536 11:3.8506 12:4.4819 13:2.3236 14:-7.1326 15:-11.3309 16:-10.4512 17:-5.7704 18:-1.5406 19:3.5722 20:1.9915 21:4.2992 22:5.3941 23:5.2736 24:6.8609 25:-4.5577 
-0.38757653334808995 1:-2.4829 2:3.8634 3:2.6306 4:2.4998 5:2.7724 6:3.4426 7:0.65807 8:1.3594 9:4.3297 10:7.3849 11:-8.5304 12:-10.717 13:-3.9301 14:1.5614 15:1.1241 16:3.6938 17:3.0278 18:0.65743 19:0.73762 20:1.3074 21:2.4451 22:2.5151 23:-0.41252 24:-1.3227 25:-7.8756 
-0.38602338757083765 1:3.2311 2:3.2132 3:3.3632 4:1.5596 5:0.77435 6:0.69669 7:-3.2348 8:-7.0966 9:-5.9999 10:-4.8883 11:2.1801 12:5.4467 13:3.5169 14:1.9866 15:3.2352 16:2.0365 17:0.16837 18:2.2957 19:1.2473 20:-3.0729 21:-7.3609 22:-7.4222 23:-6.2808 24:2.7956 25:3.9625 
-0.3804192211313122 1:3.3262 2:3.9834 3:3.7384 4:3.5976 5:1.1987 6:-7.691 7:-8.1208 8:-4.6852 9:-2.7378 10:2.1686 11:3.9222 12:3.9232 13:2.9166 14:2.954 15:2.6636 16:2.8247 17:2.8695 18:2.0984 19:-1.7973 20:-11.7946 21:-5.7167 22:-3.6789 23:-2.8677 24:0.33706 25:2.6546 
-0.27879805719463574 1:2.8053 2:2.1179 3:2.8466 4:0.94134 5:-2.8972 6:-4.9465 7:-5.441 8:-4.3131 9:-0.59422 10:1.1847 11:0.96663 12:2.052 13:2.705 14:2.7011 15:1.5418 16:2.0901 17:2.6625 18:1.5405 19:-2.6874 20:-5.1701 21:-5.3622 22:-3.3448 23:0.97241 24:-1.2538 25:2.7367 
-0.38532740406895394 1:-2.0785 2:-3.7615 3:-7.5261 4:-3.9224 5:2.9535 6:0.044195 7:2.7857 8:2.0268 9:2.7315 10:2.6332 11:1.9771 12:3.3416 13:1.99 14:-0.31495 15:-2.9667 16:-3.483 17:-3.2246 18:-2.6009 19:-0.55063 20:3.1897 21:0.84515 22:5.7908 23:4.0271 24:0.98355 25:-2.2027 
-0.36992033398573176 1:2.1 2:-5.7532 3:-4.6038 4:-2.1694 5:-0.036555 6:-3.0245 7:-0.96883 8:-0.2828 9:2.0896 10:2.6277 11:1.9879 12:2.2513 13:4.0184 14:6.6336 15:3.1473 16:-3.0385 17:-6.2532 18:-6.445 19:-3.9138 20:-0.93277 21:1.8358 22:-0.55281 23:1.8219 24:1.8651 25:3.138 
-0.36859933453001026 1:0.63825 2:1.5209 3:0.55732 4:0.60262 5:0.33408 6:0.62317 7:-0.17069 8:1.7029 9:2.1885 10:0.18796 11:-3.5706 12:-4.1281 13:-4.9611 14:-3.4539 15:0.40949 16:1.6604 17:0.83753 18:2.0048 19:1.6603 20:0.56149 21:1.5074 22:0.84648 23:2.8589 24:-0.47873 25:-4.8232 
-1.0 1:-0.84783 2:1.5356 3:1.9442 4:0.14091 5:-1.0871 6:0.15978 7:0.11946 8:-1.2654 9:-3.3884 10:-2.7832 11:-4.2815 12:-4.4617 13:-4.5542 14:-3.386 15:-1.432 16:-1.2596 17:-1.1495 18:-0.68154 19:-0.60412 20:0.047892 21:0.52993 22:0.73597 23:0.84516 24:0.022615 25:-0.35575 
-0.3577027844314196 1:1.07 2:3.0599 3:4.6659 4:3.8304 5:0.65892 6:-5.0171 7:-3.6268 8:-3.13 9:-4.1516 10:-3.029 11:-0.16713 12:-0.72435 13:0.52789 14:1.1065 15:0.37006 16:1.4098 17:2.2479 18:3.9062 19:3.4825 20:-2.6671 21:-9.1925 22:-3.8992 23:-7.0929 24:-2.4026 25:0.10497 
-0.3878816256369388 1:0.13643 2:5.2794 3:1.3096 4:0.94838 5:3.8514 6:5.9046 7:6.2773 8:5.265 9:2.0161 10:-2.8383 11:-2.4754 12:-3.0759 13:-9.0975 14:-5.6356 15:4.9679 16:2.1633 17:3.2043 18:1.7614 19:2.1558 20:2.9903 21:5.3671 22:7.5762 23:4.8721 24:-1.7197 25:0.02598 
-0.4223465532405856 1:0.8404 2:0.41599 3:-0.40912 4:-1.6672 5:-1.1153 6:-0.012591 7:-1.9181 8:3.2763 9:3.2798 10:-0.62178 11:-3.9395 12:0.6539 13:2.0513 14:-0.016911 15:-0.84321 16:-2.1786 17:-4.3022 18:-2.9115 19:-2.862 20:-3.2905 21:0.16153 22:2.7615 23:2.191 24:0.98268 25:-0.57015 
-0.3862525688472273 1:-0.54419 2:3.3808 3:4.6535 4:3.1081 5:3.5393 6:4.7916 7:2.8962 8:1.7289 9:2.6096 10:-1.489 11:-1.3141 12:-4.6898 13:-5.3567 14:-4.2167 15:-3.6355 16:-0.78536 17:1.9332 18:1.8586 19:2.6595 20:3.7604 21:5.4882 22:3.7336 23:2.1531 24:3.17 25:5.6673 
-0.38781784441464034 1:3.3094 2:1.9105 3:1.217 4:-2.069 5:-3.9348 6:-7.3068 7:-3.4876 8:-5.212 9:-2.2164 10:2.2306 11:4.277 12:4.8796 13:3.7898 14:3.9149 15:4.2346 16:3.4268 17:0.96584 18:-7.5315 19:-6.3703 20:-7.009 21:-1.156 22:0.90435 23:3.6839 24:2.9217 25:5.6085 
-0.3876659059859791 1:1.4251 2:5.6156 3:3.0669 4:-5.6904 5:-10.6061 6:-4.5869 7:-5.5594 8:-3.4346 9:2.2282 10:3.6542 11:3.8139 12:2.789 13:5.1707 14:4.4053 15:0.26289 16:3.6034 17:6.1016 18:-0.88375 19:-12.497 20:-11.4015 21:-5.3763 22:-0.59404 23:3.4354 24:2.9609 25:1.3723 
-0.38621940659721044 1:1.0107 2:-0.58085 3:0.19564 4:3.6794 5:3.0269 6:4.0265 7:2.4043 8:5.2241 9:0.44762 10:-8.8814 11:-7.5674 12:-3.851 13:-2.3902 14:-0.67538 15:1.6448 16:0.014921 17:1.5927 18:2.3762 19:3.8239 20:2.2947 21:1.5428 22:2.435 23:7.6406 24:-5.8919 25:2.5919 
-0.6094643025684839 1:3.9069 2:-0.05504 3:0.097842 4:-0.092389 5:0.51743 6:-2.6559 7:-1.2214 8:-1.9629 9:-0.72155 10:1.4434 11:0.029042 12:-2.7009 13:-0.77617 14:0.70651 15:0.66875 16:-0.21667 17:-0.20728 18:0.70028 19:-2.2554 20:-2.5528 21:-1.8739 22:-2.2856 23:1.4918 24:2.0202 25:-2.959 
-0.3880770986693104 1:0.59491 2:-0.85326 3:-0.35506 4:-0.094382 5:0.73142 6:1.8889 7:2.5595 8:4.1661 9:5.4776 10:-1.4923 11:-4.0915 12:-3.2622 13:-1.2454 14:-4.0854 15:-3.2652 16:-1.4642 17:0.24039 18:0.14908 19:1.1612 20:1.7491 21:3.0775 22:3.482 23:3.2364 24:6.0261 25:-0.75418 
-0.3850749321634913 1:-1.5867 2:1.4113 3:2.8153 4:0.93581 5:-1.7921 6:-3.3901 7:-3.8412 8:-5.1582 9:-3.4007 10:-0.83179 11:2.6089 12:0.93064 13:-2.2306 14:-3.0984 15:-1.9207 16:-0.31752 17:2.7835 18:4.3988 19:-0.92134 20:0.082776 21:0.64758 22:-5.8833 23:-5.2713 24:-4.6434 25:-1.3823 
-0.38468482083194105 1:1.601 2:1.3595 3:0.68365 4:4.0243 5:7.3565 6:-0.021626 7:-6.2464 8:-3.4116 9:-3.3343 10:-1.801 11:-0.17814 12:0.64732 13:0.14924 14:0.3512 15:0.27866 16:-0.82009 17:0.27607 18:2.5358 19:3.7709 20:4.2518 21:-2.6228 22:-7.8764 23:-4.5556 24:-0.32581 25:1.9579 
-0.37335238050143366 1:-4.1861 2:-2.9884 3:-4.1306 4:-2.0198 5:6.2335 6:7.748 7:7.4995 8:3.1166 9:-0.19011 10:-1.2415 11:-2.5403 12:-1.9294 13:-3.31 14:-3.6993 15:-2.1036 16:-3.7324 17:-3.2125 18:1.5791 19:5.8434 20:8.9755 21:5.309 22:1.7763 23:-0.80454 24:-0.85462 25:-3.8809 
-0.3505849310945497 1:-3.2937 2:-2.3288 3:-3.611 4:-1.9236 5:-2.6099 6:0.45578 7:0.94747 8:3.0961 9:1.1992 10:0.019719 11:-1.9895 12:-2.2913 13:-3.0518 14:-6.3019 15:-6.9181 16:-5.4131 17:-1.5143 18:-3.0494 19:-1.9767 20:0.3459 21:1.0869 22:2.6796 23:3.0537 24:0.69567 25:-3.5652 
-0.3878614935819123 1:3.0026 2:3.1684 3:-8.6172 4:-8.8169 5:-4.0634 6:0.037034 7:0.48871 8:2.3901 9:-0.86378 10:-0.94167 11:-0.25976 12:1.6441 13:2.5747 14:10.6996 15:5.8175 16:3.6692 17:-0.68541 18:-2.6102 19:-11.8791 20:-6.491 21:-2.9447 22:3.3161 23:0.41936 24:1.1158 25:4.4987 
-0.4183589294308659 1:0.4646 2:2.1998 3:1.6262 4:-2.1379 5:-2.9144 6:4.2204 7:3.8534 8:-0.064983 9:-0.64252 10:-3.3696 11:-2.4059 12:-3.084 13:-1.0888 14:-1.689 15:-1.1206 16:0.82473 17:2.6819 18:-0.82194 19:0.77717 20:4.8024 21:-0.24924 22:-0.53916 23:-2.5188 24:-2.5755 25:-0.31082 
-0.4182342231980646 1:0.1497 2:-0.19909 3:0.42176 4:-0.47211 5:-3.556 6:-1.5704 7:-1.4274 8:5.3279 9:1.6284 10:2.9204 11:3.2195 12:2.3846 13:0.99417 14:-0.26564 15:-0.58293 16:-3.4648 17:-2.2897 18:0.49274 19:-1.5832 20:-4.6262 21:-1.1864 22:1.6574 23:2.927 24:3.7315 25:-0.46556 
-0.3716876501553906 1:1.6632 2:2.8361 3:-6.2367 4:-7.7799 5:-5.5653 6:-1.4131 7:1.4395 8:2.5294 9:1.3073 10:2.92 11:3.5928 12:3.6733 13:3.2385 14:2.429 15:0.60637 16:-3.4087 17:-4.723 18:-6.4531 19:-6.9108 20:-1.5479 21:-0.69781 22:1.7449 23:3.603 24:4.709 25:2.5496 
-0.38042321556888814 1:-1.2789 2:-3.119 3:-4.7684 4:-4.1164 5:4.8205 6:4.0257 7:6.3725 8:1.7185 9:-1.6157 10:-1.9422 11:0.80554 12:0.67483 13:-1.0166 14:-0.76028 15:-1.5916 16:-4.2465 17:-5.6152 18:4.7758 19:9.0207 20:5.9269 21:-0.11751 22:-1.5755 23:-1.0512 24:-1.9401 25:-0.49863 
-0.3857714754549701 1:6.1142 2:-9.2646 3:-6.5785 4:-5.9491 5:-4.2726 6:1.5367 7:2.9668 8:-0.57113 9:2.9784 10:1.8815 11:2.5561 12:2.1678 13:3.2385 14:2.3519 15:0.01047 16:-9.4449 17:-7.2106 18:-3.1879 19:1.0344 20:5.0206 21:1.6023 22:0.7388 23:2.604 24:1.0332 25:2.2336 
-0.35861153614217584 1:5.5593 2:8.0017 3:5.4612 4:0.17651 5:-2.6251 6:-0.39685 7:-2.2646 8:-1.5596 9:-1.8703 10:-0.82798 11:-0.65117 12:-0.38241 13:-4.2636 14:-2.5996 15:5.6757 16:7.9279 17:2.1763 18:-0.0296 19:0.0024202 20:-1.2033 21:-1.1556 22:-0.012037 23:-1.2098 24:-1.1853 25:-3.8049 
-0.41604559222908327 1:0.63223 2:2.6355 3:-1.1859 4:0.39177 5:2.5166 6:-1.3026 7:-1.2412 8:2.7728 9:-2.3433 10:-1.9048 11:0.54787 12:-0.22565 13:0.96301 14:-1.1391 15:0.8672 16:6.8133 17:-4.9465 18:3.1032 19:-0.54292 20:0.60819 21:-2.4615 22:-0.14384 23:-1.9175 24:-1.4512 25:-0.8815 
-0.367511138553607 1:2.3108 2:0.22744 3:-1.1495 4:-1.1877 5:0.16061 6:-1.571 7:-1.8674 8:-2.7455 9:-1.9241 10:-5.4914 11:-0.19604 12:9.9325 13:4.6678 14:1.7895 15:1.4941 16:-0.024688 17:-2.0433 18:-0.93316 19:-3.2565 20:-2.8384 21:-2.4921 22:-4.1866 23:-3.1329 24:-3.698 25:6.6468 
-0.3658729197837348 1:-1.884 2:-1.4229 3:-0.11462 4:0.82022 5:2.6083 6:3.2091 7:2.0961 8:-0.43438 9:-1.7508 10:-3.7737 11:-2.5968 12:-4.1058 13:-6.0994 14:-4.235 15:-4.5944 16:-3.1399 17:-2.0153 18:1.8332 19:3.1185 20:1.7497 21:1.6152 22:0.40735 23:-0.46451 24:-1.592 25:-4.6476 
-0.46162813568515737 1:-0.5821 2:-2.9094 3:5.1776 4:2.7833 5:1.9129 6:-0.74496 7:-0.34359 8:1.3819 9:0.23775 10:0.39962 11:0.098883 12:-0.74708 13:-1.6907 14:-3.8208 15:0.11979 16:-0.90905 17:3.0159 18:3.1725 19:2.9305 20:0.92597 21:0.6815 22:0.93682 23:-1.8843 24:-1.6575 25:-2.226 
-0.38495476265821993 1:-3.3518 2:-1.0261 3:-1.6385 4:-1.0828 5:-1.7207 6:-0.44132 7:-1.4174 8:-2.1734 9:-1.7588 10:-2.4732 11:7.3381 12:5.3004 13:1.6441 14:-1.9031 15:-0.41083 16:0.71528 17:-1.0629 18:-1.2021 19:0.0034005 20:-2.1454 21:-3.7725 22:-2.6395 23:-4.1476 24:5.2333 25:-0.70214 
-0.44080160274273306 1:3.3732 2:0.62353 3:-0.55607 4:-0.54262 5:-0.020958 6:-0.97497 7:-4.1335 8:-2.4455 9:-3.7238 10:0.049672 11:-0.40625 12:-0.73481 13:1.7733 14:2.0524 15:1.1595 16:0.43734 17:-0.0041637 18:-0.65553 19:-0.82098 20:-1.9538 21:-1.8004 22:-2.3638 23:-3.9354 24:-0.28404 25:6.442 
-0.38235838109861453 1:-2.7597 2:-2.6335 3:-2.5198 4:-2.6715 5:-2.3185 6:1.7601 7:5.6664 8:6.2987 9:7.7666 10:3.3974 11:-1.3365 12:-2.4885 13:-2.8155 14:-2.1204 15:-3.0168 16:-4.1253 17:-0.51157 18:-2.091 19:-4.7287 20:4.3356 21:8.1239 22:6.676 23:1.055 24:0.53735 25:-2.4191 
-0.6641524971303756 1:1.2077 2:1.2474 3:2.3529 4:1.9437 5:1.5835 6:-0.54975 7:-1.3132 8:-2.4519 9:-2.92 10:-3.4617 11:-1.0492 12:-2.5976 13:-0.6925 14:0.9607 15:-1.6966 16:-2.273 17:2.3589 18:2.571 19:0.74576 20:0.8706 21:-0.11203 22:-1.6257 23:-2.1243 24:-2.3551 25:1.523 
-0.38771174868824876 1:-12.0986 2:-7.5607 3:1.6495 4:-2.356 5:0.58375 6:3.6721 7:4.0492 8:4.9015 9:6.2149 10:5.7779 11:4.0272 12:1.0306 13:-3.4726 14:-10.8734 15:-11.2975 16:-4.3752 17:1.2431 18:0.97506 19:3.0477 20:3.3697 21:4.8125 22:5.1473 23:6.0569 24:5.1593 25:-6.0791 
-0.3880841095181983 1:0.083396 2:2.2736 3:-10.382 4:-8.0678 5:-6.5954 6:-5.6134 7:-1.6467 8:1.2401 9:3.4886 10:0.75804 11:-0.77706 12:0.70434 13:-2.4905 14:-3.0571 15:-1.0765 16:-0.78678 17:2.0122 18:-3.879 19:-6.6237 20:-5.562 21:-4.1927 22:-2.9134 23:-0.76094 24:1.9423 25:0.73332 
-0.38780723806750084 1:-4.0967 2:-8.8844 3:-6.1101 4:-2.8205 5:-1.833 6:-0.52725 7:3.2155 8:-1.2875 9:4.551 10:3.6662 11:3.4998 12:3.76 13:2.9555 14:-0.78816 15:-2.9483 16:-5.8581 17:-9.6988 18:-11.6361 19:-8.267 20:-5.3217 21:-3.3981 22:3.3481 23:0.60452 24:0.043488 25:1.0179 
-0.4378189994707045 1:-1.6266 2:1.1576 3:0.7658 4:-1.6836 5:-0.707 6:0.020698 7:0.66765 8:-1.1424 9:-1.1669 10:4.0918 11:5.6713 12:1.3844 13:1.6712 14:-1.0807 15:-1.2421 16:2.6141 17:1.3188 18:-0.28486 19:-1.2694 20:-2.3499 21:-3.7046 22:-2.1038 23:2.2519 24:1.691 25:-0.28537 
-0.3798180620792623 1:0.81363 2:3.1227 3:3.2779 4:3.1039 5:4.5633 6:5.4239 7:4.1829 8:3.2585 9:-6.2167 10:-10.3447 11:-8.8305 12:-5.5292 13:-1.4491 14:1.2123 15:4.195 16:3.9542 17:3.2327 18:3.5657 19:4.5373 20:5.0371 21:2.9129 22:-0.59764 23:-7.5752 24:-6.177 25:0.97516 
-0.3878540968944535 1:3.9057 2:6.2932 3:5.4069 4:5.6149 5:2.5579 6:0.11286 7:-7.7163 8:-11.5158 9:-8.9116 10:-2.7629 11:1.2449 12:3.8175 13:4.9159 14:3.7358 15:3.5301 16:7.4629 17:6.6334 18:7.7585 19:5.8828 20:-1.2702 21:-5.7963 22:-7.2703 23:-9.4126 24:-7.2698 25:4.815 
-0.3436826256666448 1:5.1838 2:6.7539 3:5.165 4:0.73603 5:-1.7118 6:-0.47869 7:-1.6999 8:-2.3996 9:-3.0612 10:-1.7721 11:-1.5139 12:-3.7208 13:-4.3927 14:1.2426 15:5.6895 16:8.4418 17:5.0753 18:1.0236 19:-1.3507 20:-0.47104 21:-0.5863 22:-2.8957 23:-4.2489 24:-2.381 25:-0.36776 
-0.39164544514264366 1:-0.72063 2:-4.3342 3:1.6216 4:1.3029 5:0.77999 6:5.2934 7:2.1034 8:1.5053 9:-0.31014 10:-0.12441 11:-0.11216 12:-0.34436 13:-0.45875 14:-0.35045 15:-3.8034 16:-3.089 17:1.5333 18:0.37935 19:4.6806 20:4.143 21:4.5946 22:-0.106 23:-5.1648 24:-2.8903 25:-0.3904 
-0.3853444096327598 1:2.4848 2:2.6332 3:2.1525 4:2.529 5:1.3264 6:-1.0487 7:-1.8227 8:1.0161 9:-5.4631 10:-6.3899 11:-5.5635 12:0.15335 13:4.8741 14:-0.90801 15:5.0056 16:0.25879 17:2.486 18:-0.42989 19:0.6742 20:3.6707 21:0.11627 22:0.67657 23:0.53691 24:-6.2015 25:3.5412 
-0.35511241114528735 1:0.052448 2:-1.1408 3:-3.1475 4:-4.0353 5:-3.1519 6:-0.89718 7:-0.32264 8:1.2001 9:3.299 10:2.0994 11:1.607 12:2.1283 13:1.587 14:2.2698 15:0.75008 16:-0.89171 17:-2.6497 18:-6.5794 19:-4.062 20:-0.97376 21:2.2663 22:1.3819 23:3.9501 24:3.0363 25:0.24902 
-0.35268529835442025 1:1.2647 2:0.81695 3:-1.1508 4:-0.97008 5:-3.7915 6:-5.3177 7:-4.5188 8:-1.2856 9:1.7432 10:0.78568 11:2.946 12:2.0615 13:2.4768 14:3.2328 15:2.1069 16:0.40973 17:-0.35073 18:-1.3887 19:-3.5356 20:-6.2095 21:-3.2259 22:-1.2931 23:-1.0335 24:0.37571 25:1.0334 
-0.38700809800880515 1:0.53122 2:-11.7165 3:-5.5038 4:-6.5479 5:-1.0083 6:4.9064 7:1.1462 8:1.8308 9:4.013 10:3.3454 11:2.3866 12:2.0084 13:5.6279 14:6.0538 15:-2.6046 16:-13.8571 17:-8.3379 18:-5.299 19:-1.2622 20:3.749 21:1.5008 22:1.4528 23:3.8323 24:5.2978 25:4.9423 
-0.5198526168438665 1:-3.0217 2:1.6171 3:2.0907 4:-1.0612 5:2.422 6:3.1727 7:-0.72819 8:-1.4653 9:-1.4739 10:-2.1498 11:-2.5757 12:-1.0367 13:0.72923 14:-0.88906 15:1.9977 16:2.3547 17:-0.0053493 18:2.6218 19:2.4787 20:0.52842 21:-2.0924 22:-1.0816 23:-0.53924 24:-2.6979 25:-3.1861 
-0.38408968551859296 1:3.4791 2:2.9671 3:1.8646 4:-2.0152 5:-1.0386 6:-2.6313 7:-0.95143 8:-6.3798 9:-4.6577 10:2.7088 11:2.8172 12:2.4288 13:0.6053 14:0.11441 15:2.319 16:0.013101 17:-0.3823 18:-0.46101 19:-2.5695 20:-2.0508 21:-0.49357 22:-3.5694 23:-3.5658 24:2.871 25:2.3696 
-0.3862052278624357 1:1.7502 2:3.8101 3:3.9892 4:3.9333 5:4.3526 6:4.0357 7:2.7086 8:-0.095169 9:-5.583 10:-5.2978 11:-5.3869 12:-4.6737 13:-5.6928 14:-1.5168 15:1.4451 16:2.9621 17:3.5337 18:4.0242 19:3.7871 20:3.4943 21:3.4789 22:2.9866 23:0.91861 24:1.2583 25:-2.1849 
-0.4906279301414318 1:0.64149 2:0.041342 3:-0.90155 4:-0.95689 5:-0.85325 6:0.87094 7:0.59287 8:-0.99447 9:1.8926 10:-0.39433 11:1.8876 12:4.0842 13:-2.8139 14:-2.7327 15:-2.4503 16:1.456 17:-2.1608 18:-2.8881 19:-2.5889 20:-1.4567 21:-0.072704 22:1.9846 23:-1.4861 24:2.9628 25:0.099239 
-0.3862612758132774 1:2.3775 2:2.6293 3:2.932 4:-1.4558 5:-9.2152 6:-8.1184 7:-1.4575 8:0.98833 9:4.3226 10:3.2282 11:2.9584 12:4.3806 13:4.3017 14:3.8292 15:2.4455 16:0.74078 17:-3.1638 18:-6.3488 19:-4.8507 20:-1.2341 21:0.85589 22:1.4376 23:-0.53579 24:2.2446 25:2.4509 
-0.3658230542769076 1:0.54527 2:-0.69792 3:-2.209 4:-2.6209 5:-2.3713 6:-3.1312 7:-1.8455 8:-1.0417 9:-3.5865 10:-3.8587 11:1.1019 12:7.0512 13:6.7374 14:4.9576 15:-1.0183 16:-1.9259 17:0.33357 18:-0.62295 19:-2.3174 20:-1.9791 21:-1.8653 22:-2.7993 23:-3.1552 24:-1.5082 25:6.0249 
-0.41201747333304983 1:-2.1734 2:-1.0618 3:-0.84979 4:-1.6674 5:-3.2657 6:0.31008 7:-1.5243 8:-0.010305 9:3.5276 10:1.5361 11:2.1853 12:0.36511 13:0.02314 14:0.32942 15:2.3364 16:0.18466 17:-3.1347 18:-3.4181 19:-2.2818 20:2.0869 21:0.23703 22:5.4301 23:3.1922 24:1.6321 25:1.7649 
-0.3884487797521222 1:-5.5458 2:-1.6738 3:-1.645 4:-1.423 5:-0.38908 6:-0.051941 7:-1.1966 8:-0.05679 9:-0.062277 10:-0.37356 11:3.5844 12:7.3222 13:7.6141 14:-5.4877 15:-6.5688 16:-2.169 17:0.37095 18:-4.3342 19:-0.59417 20:1.6274 21:-1.6991 22:-1.0089 23:0.29218 24:0.74451 25:-4.0233 
-0.39903146976954645 1:0.92389 2:-0.13591 3:-0.55741 4:0.39449 5:0.41719 6:-0.0033543 7:-2.0626 8:-1.8859 9:-5.1919 10:1.2722 11:0.54479 12:5.0839 13:4.155 14:2.8907 15:-1.7984 16:0.71813 17:-3.0793 18:1.6234 19:0.43778 20:-0.33993 21:-2.1535 22:-2.0241 23:-4.8441 24:-1.4597 25:3.0298 
-0.38731457124821417 1:1.6136 2:-3.5955 3:-5.2502 4:-6.1555 5:0.72663 6:0.66601 7:4.8341 8:5.2542 9:8.0927 10:3.0701 11:2.2188 12:-0.83382 13:-5.8973 14:-5.2195 15:-2.4366 16:-3.288 17:-2.7209 18:1.5102 19:4.4748 20:3.6813 21:3.4618 22:4.6718 23:5.0327 24:4.1079 25:-1.3568 
-0.38782976678378817 1:-1.5231 2:-0.43219 3:0.75183 4:1.0447 5:0.84228 6:-2.5603 7:-3.0148 8:-0.24969 9:2.2367 10:3.8283 11:9.2105 12:11.4711 13:-0.88772 14:4.4839 15:0.55094 16:-3.7626 17:-10.04 18:-2.9552 19:-5.2874 20:1.5431 21:0.34388 22:2.4356 23:2.7041 24:4.5559 25:-2.3428 
-0.3876297648866756 1:2.0427 2:2.4327 3:1.735 4:-1.0687 5:-0.25678 6:1.6832 7:-6.2066 8:-9.0159 9:-5.7838 10:3.8726 11:-0.25992 12:-1.1084 13:2.5538 14:1.4301 15:1.6816 16:3.7776 17:2.1592 18:-0.87686 19:1.7872 20:0.67995 21:-12.4282 22:-8.9125 23:2.7724 24:-2.6976 25:2.8813 
-0.5562012154708001 1:-1.3768 2:-0.99328 3:-1.7307 4:-2.7862 5:1.414 6:1.6664 7:-0.70697 8:-0.093468 9:2.8013 10:-0.46256 11:0.14655 12:-0.691 13:-2.6928 14:-3.4874 15:-0.20276 16:-3.5812 17:-2.8187 18:0.92014 19:-0.69144 20:-2.9511 21:-3.813 22:-2.4522 23:0.31883 24:0.8272 25:-1.9021 
-0.38014993804907 1:-0.086957 2:0.48204 3:-3.5043 4:-7.179 5:-7.3636 6:-3.2274 7:0.13012 8:3.45 9:-0.051942 10:3.3669 11:2.7734 12:0.3963 13:5.0281 14:2.2603 15:2.1096 16:-1.4907 17:-2.5153 18:-1.7468 19:-5.5792 20:-7.4806 21:0.90066 22:0.36748 23:3.3913 24:3.7923 25:1.4013 
-0.38012447995005366 1:-1.6579 2:-1.9472 3:-2.6825 4:-1.7673 5:-2.0621 6:-3.9348 7:0.79487 8:8.1031 9:9.118 10:3.5374 11:-0.79631 12:-1.1666 13:-3.0547 14:-1.4818 15:-1.9272 16:-2.9301 17:-1.9922 18:-4.4094 19:-1.8848 20:1.2328 21:4.677 22:7.1635 23:6.5403 24:2.9521 25:-0.98254 
-0.36666897311663355 1:2.0584 2:3.0023 3:3.0993 4:2.2008 5:-1.2901 6:-7.9418 7:-4.0372 8:-4.3319 9:-3.961 10:-0.16983 11:0.019204 12:1.6438 13:0.67586 14:0.46299 15:1.0708 16:2.9431 17:3.2815 18:6.3616 19:-0.033556 20:1.4527 21:-9.1712 22:-3.2384 23:-7.0659 24:-3.4236 25:1.0021 
-0.345957659103404 1:2.9795 2:1.9868 3:0.47847 4:-0.88752 5:-0.76148 6:-1.5847 7:1.0527 8:2.3159 9:-0.77797 10:-0.070381 11:-3.011 12:-6.5213 13:-4.6683 14:-2.0096 15:-4.7944 16:1.513 17:0.34435 18:-1.1584 19:-0.032457 20:1.4396 21:0.47549 22:1.954 23:3.5211 24:-1.0799 25:-2.2279 
-0.3788171450143592 1:1.6307 2:0.56671 3:-5.1617 4:-6.3361 5:-3.2551 6:-2.2141 7:-1.0472 8:0.78831 9:1.6697 10:1.7589 11:3.267 12:5.0183 13:4.6686 14:2.3249 15:2.1679 16:0.081219 17:0.48423 18:-2.921 19:-5.8303 20:-6.8471 21:-6.3632 22:-2.0133 23:0.76886 24:1.7306 25:1.5931 
-0.5825050059117911 1:-0.20909 2:0.2281 3:2.627 4:3.0126 5:0.25171 6:-1.7908 7:-2.0114 8:-1.2269 9:-1.9569 10:0.084355 11:-3.095 12:-0.31329 13:0.74427 14:-0.31665 15:-1.5111 16:-1.9939 17:1.1312 18:3.4837 19:0.40549 20:-1.5993 21:-1.6136 22:-1.8391 23:-2.322 24:-1.5423 25:-1.241 
-0.3879245018304601 1:-0.70421 2:-1.9142 3:-11.1318 4:-10.7007 5:7.365 6:0.4259 7:2.0596 8:5.164 9:3.4274 10:2.627 11:3.1 12:3.0073 13:0.63594 14:-1.4529 15:-3.7696 16:-6.3704 17:-7.951 18:-6.3695 19:6.4109 20:-0.6674 21:0.45116 22:4.2983 23:4.2782 24:2.8962 25:1.5162 
-0.3876470105933247 1:4.1876 2:1.3772 3:2.3695 4:3.3444 5:3.1638 6:2.6443 7:-1.1222 8:-4.191 9:-3.9063 10:-8.6897 11:-9.5122 12:-0.85366 13:-0.89971 14:2.4842 15:1.802 16:0.53446 17:1.1063 18:2.1329 19:0.27549 20:1.6431 21:0.92337 22:5.2333 23:7.2626 24:2.8481 25:3.0696 
-0.38854897557315815 1:-1.5663 2:0.17017 3:1.232 4:1.2975 5:0.89843 6:0.77752 7:0.73036 8:-0.23807 9:0.32081 10:1.0429 11:0.89146 12:-0.84126 13:8.7981 14:-3.9009 15:2.6578 16:-0.83579 17:-3.3157 18:-2.9758 19:-6.3106 20:-6.1124 21:-2.7209 22:-2.4481 23:-6.1449 24:2.4631 25:-0.088474 
-0.5206010281825818 1:-2.9075 2:-2.6199 3:-2.226 4:-2.3004 5:2.4106 6:-0.27081 7:-1.181 8:-1.2149 9:-1.6407 10:-2.5399 11:-0.71899 12:-0.18651 13:1.852 14:4.3417 15:-0.12071 16:-2.1168 17:-1.98 18:-3.5034 19:-1.2811 20:2.1066 21:0.65432 22:-2.2186 23:-1.4483 24:-1.1343 25:-1.6407 
-0.3688327624913954 1:-1.5437 2:-1.5092 3:-3.6717 4:-5.0447 5:1.3434 6:8.1261 7:8.8804 8:3.5573 9:-2.3967 10:-0.075863 11:-1.8577 12:-1.7945 13:-2.9896 14:-1.9222 15:-2.5748 16:-2.6211 17:-5.754 18:1.9214 19:8.362 20:8.5175 21:3.3679 22:-1.8391 23:-0.34758 24:-1.6277 25:-2.498 
-0.35985721177442526 1:-4.4411 2:-1.3993 3:0.45253 4:-1.4757 5:1.9626 6:3.5375 7:5.009 8:3.5024 9:-0.044873 10:-0.71334 11:-2.8427 12:-3.7012 13:-4.0741 14:-5.6304 15:-5.1132 16:-4.13 17:0.58574 18:-0.36948 19:3.6684 20:1.869 21:0.76197 22:2.3392 23:2.0453 24:1.7198 25:-4.0779 
-0.30160303398177546 1:8.7095 2:4.5858 3:0.82815 4:-1.2231 5:-1.7104 6:-1.4985 7:-1.9177 8:-2.2399 9:-1.4524 10:-1.5104 11:-3.4539 12:-4.1967 13:5.7658 14:6.9936 15:6.6587 16:3.5259 17:-0.54785 18:-0.47559 19:-1.776 20:-1.7878 21:-2.8261 22:-2.223 23:-2.423 24:-4.3801 25:4.7879 
-0.38142997447242105 1:2.29 2:1.9179 3:3.5063 4:3.5613 5:3.2469 6:2.4036 7:-0.94228 8:-8.5991 9:-4.2653 10:-1.3366 11:-4.3668 12:-0.044779 13:0.57977 14:0.98068 15:2.4598 16:2.1962 17:2.505 18:1.9972 19:3.5156 20:2.1598 21:-5.056 22:-10.895 23:-3.522 24:-2.0999 25:1.9611 
-0.37639223237077835 1:1.4704 2:3.2585 3:2.4976 4:3.2521 5:3.386 6:3.0002 7:4.023 8:2.6026 9:0.72232 10:-5.9294 11:-5.9804 12:-5.2994 13:-1.5587 14:4.1876 15:1.3544 16:1.2912 17:3.0659 18:3.3725 19:2.0478 20:2.4778 21:1.5999 22:1.6961 23:0.23109 24:-14.8174 25:2.0367 
-0.44170945584156185 1:0.74278 2:-1.3967 3:0.17464 4:-3.0494 5:0.010024 6:-1.7241 7:1.3036 8:-2.37 9:-0.29524 10:1.0025 11:0.61784 12:0.66044 13:-1.9596 14:-0.62696 15:5.9657 16:-0.54085 17:2.2719 18:5.773 19:3.5917 20:2.6185 21:-1.326 22:-1.546 23:0.056349 24:-1.8477 25:1.5814 
-0.38727007864074214 1:0.17829 2:-1.1201 3:-2.2514 4:-5.8416 5:-3.6882 6:-5.9354 7:-4.4361 8:-7.0082 9:-0.16327 10:0.20227 11:-0.19498 12:0.65522 13:1.4587 14:1.6686 15:1.7107 16:0.65211 17:-3.5309 18:-7.3233 19:-3.6378 20:-5.4533 21:-3.688 22:-5.9982 23:-0.42453 24:0.51615 25:2.4949 
-0.36832141246450933 1:-0.97867 2:-1.4451 3:1.8748 4:0.55222 5:3.2245 6:2.0808 7:1.9319 8:0.091075 9:-1.3122 10:-1.3777 11:0.39634 12:-2.4327 13:-9.6898 14:-4.0838 15:1.6245 16:0.67947 17:0.9064 18:2.0101 19:3.1965 20:1.877 21:2.2096 22:1.6805 23:-1.6687 24:-0.31446 25:-6.6353 
-0.3006103626880307 1:-0.54149 2:1.0619 3:0.93352 4:-0.11044 5:0.67834 6:0.71413 7:1.4238 8:2.8723 9:1.2195 10:0.78533 11:-2.7188 12:-9.1948 13:-4.8618 14:-1.1791 15:-2.1083 16:-0.23801 17:0.85584 18:1.6436 19:1.8585 20:1.8318 21:2.2515 22:3.0195 23:1.91 24:-0.52871 25:-2.7491 
-0.3875928422353339 1:0.49095 2:-0.46793 3:0.11002 4:1.0452 5:1.8437 6:10.7584 7:-0.83171 8:-0.68211 9:-6.5236 10:-0.39248 11:-3.682 12:-1.3648 13:0.49006 14:-1.7167 15:-1.612 16:-0.31942 17:-0.78496 18:0.057019 19:2.299 20:2.5706 21:5.6864 22:1.5892 23:-2.5395 24:-7.868 25:0.95137 
-0.3831064588853917 1:1.0549 2:2.4899 3:1.0359 4:-6.8029 5:-8.442 6:-3.6986 7:-0.25374 8:-1.4072 9:0.91924 10:1.6826 11:3.6642 12:1.8961 13:3.9301 14:2.0179 15:2.784 16:-2.3984 17:-1.0215 18:-10.808 19:-5.0971 20:-3.215 21:-0.45424 22:0.072718 23:3.783 24:2.0098 25:2.0254 
-0.37729755886349925 1:1.8707 2:4.0616 3:8.0659 4:1.0341 5:-0.30372 6:-3.5174 7:-0.60685 8:-2.7053 9:-2.279 10:-1.1291 11:0.051963 12:-1.5014 13:-0.69176 14:-0.87694 15:0.2214 16:1.6011 17:4.1008 18:6.8418 19:-0.96241 20:-0.72539 21:-3.2426 22:-1.5043 23:-2.9008 24:-2.6273 25:1.5739 
-0.3877295746309882 1:1.9206 2:-2.6988 3:-6.263 4:-6.0564 5:-3.9576 6:-2.485 7:-2.2724 8:-1.6057 9:-4.5357 10:-2.815 11:-3.8402 12:-3.1919 13:-6.1323 14:-8.2385 15:-6.7768 16:-8.7964 17:-6.2476 18:-2.548 19:0.64458 20:2.6929 21:3.404 22:2.6353 23:0.87799 24:-0.48443 25:-3.3691 
-0.3678692989760926 1:-0.13264 2:1.2159 3:-1.366 4:-0.22137 5:-1.0341 6:-3.6993 7:-1.4655 8:0.25298 9:2.6393 10:4.126 11:2.2101 12:1.0939 13:0.48455 14:-1.0363 15:-0.014003 16:-0.20328 17:-2.5375 18:-0.71082 19:-1.7129 20:-4.0055 21:-3.5938 22:4.7945 23:7.8532 24:2.7994 25:-0.25474 
-0.35426250188711306 1:-3.4742 2:-3.3849 3:-3.028 4:-2.18 5:0.22521 6:3.8656 7:5.1905 8:6.3485 9:3.8294 10:0.98211 11:-1.1726 12:-0.80564 13:-1.5651 14:-1.7514 15:-1.4192 16:-1.5486 17:-4.1453 18:-3.0622 19:1.7586 20:4.4372 21:4.5082 22:4.3168 23:0.89986 24:0.18947 25:-3.9587 
-0.3879693045787927 1:-4.9152 2:-2.7385 3:-1.5345 4:-3.6749 5:-3.9984 6:7.7168 7:13.9546 8:8.1285 9:7.0136 10:3.9974 11:-1.1025 12:-5.3155 13:-5.4753 14:-7.7822 15:-6.1969 16:-6.7461 17:-4.2979 18:-1.593 19:-2.3196 20:0.46957 21:5.7259 22:6.2006 23:10.536 24:8.4522 25:-5.5158 
-0.3876328668251488 1:2.7537 2:7.5601 3:4.1867 4:1.4983 5:5.1505 6:2.8091 7:-7.0748 8:-7.4579 9:-4.6468 10:-7.0632 11:-1.8802 12:-0.97513 13:2.178 14:3.9913 15:3.471 16:5.5105 17:6.6275 18:6.0249 19:4.9236 20:1.8229 21:-0.30032 22:-5.2404 23:-9.2899 24:-5.4198 25:2.6353 
-0.3736656617263329 1:3.5582 2:0.53112 3:-5.1929 4:-9.3204 5:-3.8797 6:-0.86347 7:-0.12645 8:2.5407 9:1.1074 10:1.5755 11:0.84273 12:1.8728 13:3.6973 14:1.6714 15:3.7071 16:2.5 17:-3.3456 18:-6.5264 19:-2.9179 20:-2.3977 21:-2.8301 22:0.61666 23:2.6527 24:1.8991 25:2.8183 
-0.3774574721454613 1:-7.8993 2:-6.2662 3:-4.8607 4:-1.4181 5:2.213 6:2.3973 7:0.7426 8:2.4372 9:3.5476 10:4.2231 11:0.39901 12:1.3709 13:1.2821 14:-6.6654 15:-7.1108 16:-4.7149 17:-1.4933 18:2.8058 19:1.9717 20:4.4758 21:3.4115 22:1.7637 23:3.8 24:1.9363 25:-3.0989 
-0.350857829303511 1:-2.3731 2:-4.2435 3:-3.7096 4:-2.0863 5:-3.3522 6:1.1182 7:1.8546 8:6.1877 9:5.9308 10:1.3335 11:0.68463 12:0.89875 13:-0.94856 14:-1.9683 15:-0.3521 16:-0.91737 17:-3.186 18:-3.2782 19:-1.9862 20:-0.6103 21:2.1276 22:4.8535 23:3.7041 24:0.52558 25:-1.5729 
-0.38768873096888185 1:0.90472 2:1.5118 3:5.9296 4:2.7476 5:4.6177 6:4.7663 7:7.1274 8:6.6262 9:1.3378 10:-7.0513 11:-9.3104 12:-9.8061 13:-8.6083 14:-2.5939 15:1.9618 16:3.3149 17:4.3913 18:2.9617 19:4.4355 20:6.8639 21:7.1167 22:2.4246 23:1.289 24:-1.3677 25:2.4381 
-0.38758654113273244 1:-1.4876 2:2.6348 3:6.5556 4:7.6039 5:4.3948 6:-1.4297 7:-1.2968 8:-1.0589 9:-0.83533 10:-2.2192 11:-2.3044 12:-3.0561 13:-4.9335 14:-1.8537 15:5.522 16:7.5669 17:4.6986 18:2.7037 19:-0.81059 20:-0.44849 21:-2.0455 22:-2.3473 23:-3.1379 24:-4.2732 25:-4.082 
-0.38722750445205006 1:-7.0663 2:-4.0816 3:1.1261 4:-0.18833 5:4.0367 6:3.1489 7:2.7502 8:0.66391 9:1.6714 10:1.4181 11:0.89543 12:1.4927 13:0.73883 14:-0.20215 15:-7.5985 16:-2.1859 17:-2.2713 18:0.11219 19:6.0348 20:2.8633 21:1.011 22:1.2947 23:0.93676 24:4.345 25:-1.3349 
-0.3879497475759746 1:0.5714 2:0.97416 3:4.3916 4:7.4938 5:7.1135 6:3.4437 7:-1.4042 8:-7.3422 9:-1.5705 10:1.003 11:-3.4449 12:-1.6687 13:-1.3439 14:-1.3127 15:-1.537 16:-0.09494 17:1.3729 18:2.7228 19:5.8853 20:10.6071 21:7.2556 22:-2.1975 23:-2.4211 24:-3.2249 25:-0.18029 
-0.36914016792712884 1:-1.1788 2:0.43914 3:2.582 4:3.6602 5:0.53578 6:-2.5274 7:-4.3895 8:-5.6758 9:-2.1476 10:-2.4437 11:1.9537 12:2.8077 13:3.6149 14:1.2666 15:-0.5813 16:0.74881 17:1.8961 18:1.8083 19:-0.36392 20:-3.5292 21:-4.9869 22:-3.7622 23:-4.0273 24:0.20959 25:-1.0131 
-0.37665465574203283 1:1.3936 2:4.1442 3:-1.6887 4:-1.6596 5:-2.3078 6:-4.7182 7:-2.2056 8:0.36218 9:3.7706 10:5.6078 11:2.2404 12:0.093772 13:-1.1012 14:0.68603 15:0.16656 16:-0.75514 17:0.072095 18:-0.041613 19:-2.7087 20:-2.8242 21:-1.4925 22:2.282 23:0.81771 24:4.9688 25:-1.9777 
-0.3494468861089761 1:7.5035 2:7.5287 3:4.6358 4:0.63362 5:-2.144 6:-1.8138 7:-0.045124 8:-2.0122 9:-1.7496 10:-1.6559 11:-2.4475 12:-3.1089 13:-2.1076 14:3.8643 15:4.1729 16:6.3974 17:2.0708 18:-0.95442 19:-1.6252 20:-1.6183 21:-0.52953 22:-0.58312 23:-1.8929 24:-0.73372 25:-2.2193 
-0.3844116665659704 1:-5.204 2:-3.421 3:0.61174 4:2.7931 5:3.2399 6:2.4318 7:1.6625 8:3.0136 9:3.3126 10:4.4407 11:4.263 12:1.5005 13:-5.3804 14:-6.6156 15:-5.9343 16:-0.78222 17:-2.1501 18:1.6932 19:1.4644 20:1.7533 21:2.2969 22:2.6116 23:2.8746 24:2.3846 25:-6.3412 
-0.3824320271892225 1:2.1874 2:2.9149 3:4.2186 4:2.7144 5:-4.8104 6:-6.2525 7:-4.6276 8:0.49979 9:-1.63 10:-1.4205 11:-0.063508 12:0.33616 13:-0.7538 14:0.54743 15:0.69099 16:1.2121 17:1.8788 18:2.6476 19:1.4811 20:-1.9221 21:-3.3383 22:-3.6213 23:-2.6331 24:-2.1803 25:1.2822 
