svm_type c_svc
kernel_type rbf
gamma 0.04
nr_class 2
total_sv 248
rho 0.5884874071055739
label 1 0
nr_sv 87 161
SV
1.0 1:-0.71318 2:-0.6703 3:-0.20161 4:1.823 5:0.83824 6:2.6553 7:1.8974 8:-0.51994 9:-2.053 10:-1.5309 11:-1.9761 12:-3.5559 13:-0.77268 14:0.576 15:2.727 16:1.449 17:1.073 18:-0.23818 19:-0.13951 20:0.012781 21:-0.24927 22:-0.3158 23:-0.4186 24:-0.28331 25:-0.21156 
1.0 1:4.6621 2:0.57344 3:-2.2051 4:-3.2723 5:-2.1018 6:-0.23543 7:0.30725 8:-1.0741 9:-0.60141 10:-0.37025 11:0.061618 12:1.2603 13:1.2438 14:1.5861 15:-0.23579 16:-5.874 17:-5.2436 18:-5.6194 19:-4.2097 20:-0.52445 21:2.2065 22:2.8798 23:3.4379 24:0.85767 25:9.6393 
1.0 1:-3.4285 2:-3.969 3:-2.5229 4:-0.40438 5:-0.4078 6:-1.3821 7:-1.3954 8:-2.9933 9:-2.3004 10:-0.9784 11:-1.963 12:-1.4282 13:1.5917 14:0.39969 15:0.12019 16:-0.31765 17:-0.62456 18:-2.3623 19:-3.1599 20:-1.6446 21:-2.1296 22:-2.1633 23:1.3375 24:0.010961 25:-4.7861 
1.0 1:0.86705 2:-7.4944 3:-19.8796 4:-12.133 5:-6.1852 6:-2.9761 7:-1.5819 8:-2.1901 9:0.40248 10:3.1305 11:2.0187 12:2.02 13:5.1928 14:5.2907 15:4.3934 16:4.4725 17:4.4675 18:3.9839 19:3.584 20:2.7127 21:1.5344 22:-0.20885 23:-1.3807 24:-2.3352 25:4.6671 
0.28591032466229255 1:-0.24602 2:-0.36384 3:-0.81202 4:-1.167 5:-1.0013 6:-0.68817 7:-0.15346 8:-0.21337 9:0.0066704 10:-0.46901 11:0.0071692 12:-0.14262 13:0.28686 14:-0.21757 15:-0.68376 16:-0.98462 17:-0.70215 18:-1.0097 19:-1.403 20:-1.8731 21:-0.52583 22:-0.84097 23:-3.3439 24:-2.6352 25:-0.29393 
1.0 1:1.7799 2:-0.13921 3:0.46111 4:0.87797 5:5.0587 6:4.2143 7:2.4081 8:2.6934 9:3.0004 10:1.8882 11:1.313 12:0.020589 13:-0.74885 14:-1.9117 15:-3.2438 16:-3.2874 17:-2.1864 18:-0.88356 19:0.22115 20:0.55848 21:0.32073 22:0.021177 23:0.35453 24:0.01105 25:1.4586 
0.33443742682161626 1:-0.69774 2:-0.50292 3:0.29756 4:0.50381 5:0.85733 6:1.0495 7:0.99625 8:1.0859 9:1.2624 10:1.3717 11:1.5521 12:1.9197 13:1.336 14:1.7956 15:2.2272 16:1.3404 17:1.1128 18:0.6129 19:-0.054819 20:0.07893 21:2.1328 22:1.9023 23:-0.36323 24:-1.7033 25:-0.79979 
0.59847891268152 1:2.3399 2:2.4854 3:2.855 4:2.5365 5:2.1304 6:1.799 7:1.9701 8:1.4691 9:1.7075 10:1.8528 11:1.4073 12:0.9235 13:1.6465 14:1.7428 15:2.0137 16:1.6812 17:1.2065 18:0.47339 19:0.055991 20:0.21103 21:-0.13149 22:-0.2307 23:0.0050461 24:0.07325 25:1.7063 
0.0016917013449671097 1:0.85 2:-0.67836 3:-0.32918 4:0.74881 5:-0.11392 6:1.0499 7:0.36431 8:0.52712 9:-1.2863 10:-1.3283 11:-0.73342 12:-1.66 13:-2.5731 14:-2.6256 15:-2.2708 16:-2.2927 17:-1.6468 18:-2.3855 19:-1.5635 20:-1.3423 21:-0.38641 22:-0.13862 23:-0.012608 24:0.067112 25:0.44268 
1.0 1:1.0111 2:-4.3387 3:-3.4074 4:-1.2235 5:-3.7394 6:-5.8174 7:-2.7371 8:-3.2285 9:-4.5546 10:-4.9827 11:-4.0398 12:-2.0956 13:-0.43542 14:0.053098 15:-0.10162 16:0.53137 17:1.1518 18:2.1467 19:2.404 20:2.2751 21:2.6983 22:3.1308 23:2.6022 24:2.102 25:1.764 
1.0 1:2.8353 2:4.9756 3:9.0616 4:13.7114 5:8.1098 6:4.0138 7:0.31936 8:-1.6756 9:0.11233 10:-1.5119 11:0.90505 12:-0.9664 13:-0.74829 14:-3.7782 15:-4.9598 16:-3.784 17:-1.2568 18:2.1509 19:2.7805 20:4.1551 21:3.8922 22:3.3854 23:3.5118 24:3.3858 25:1.6819 
0.46068354782532567 1:-1.2174 2:-2.2545 3:-3.36 4:-3.6358 5:-4.0304 6:-4.1571 7:-3.2987 8:-2.3959 9:-2.0672 10:-0.9696 11:-0.025221 12:-1.3503 13:-1.3989 14:-0.74532 15:-0.73067 16:-0.46189 17:-0.3452 18:-0.18799 19:-0.019055 20:0.058752 21:0.03838 22:0.081233 23:0.09528 24:0.087271 25:-0.60267 
1.0 1:-2.1603 2:0.51839 3:-3.2673 4:-1.2358 5:-3.8186 6:-4.0049 7:-4.7059 8:-4.925 9:-3.6245 10:-2.2427 11:-2.1207 12:0.082259 13:2.8356 14:1.5346 15:0.49346 16:-0.20903 17:0.21135 18:0.26373 19:-0.22052 20:-1.0688 21:-0.19291 22:-1.0207 23:-0.32555 24:0.52983 25:-2.7928 
1.0 1:3.1159 2:4.7802 3:1.3333 4:-2.0437 5:-2.4975 6:1.0147 7:-3.1014 8:2.2184 9:2.4081 10:-2.6691 11:-6.9749 12:-6.9631 13:-6.3869 14:-4.0987 15:-3.437 16:-0.21665 17:-4.1674 18:-2.8355 19:-1.048 20:-0.99516 21:-4.352 22:-9.4475 23:-3.9408 24:-1.9033 25:1.7904 
1.0 1:-7.5234 2:-7.1492 3:-3.1459 4:-0.73015 5:-3.0408 6:-1.877 7:-1.6675 8:-4.4106 9:-7.5053 10:-6.0156 11:-8.2887 12:-1.8005 13:-0.83019 14:-1.651 15:-1.185 16:-0.087402 17:0.94956 18:2.1226 19:1.3726 20:0.16239 21:-0.92445 22:-0.26822 23:1.0225 24:0.28755 25:-7.6493 
1.0 1:-1.1928 2:0.69719 3:10.3309 4:3.4678 5:1.7307 6:0.26554 7:-0.34252 8:-0.43856 9:0.028009 10:0.3187 11:0.80219 12:1.0792 13:1.22 14:1.1316 15:1.5768 16:1.2832 17:0.74911 18:0.84835 19:1.5862 20:0.4591 21:0.84557 22:0.81475 23:0.41529 24:0.18685 25:-5.3316 
1.0 1:2.8139 2:3.4064 3:2.2229 4:-1.6881 5:-4.6674 6:-3.3401 7:-0.71467 8:0.82432 9:4.6232 10:-1.4613 11:-7.0789 12:-7.4371 13:-8.8656 14:-5.3053 15:-2.8937 16:-2.4168 17:-4.3419 18:-2.8827 19:-2.4343 20:-3.9345 21:-3.0847 22:-1.2022 23:-4.086 24:-7.7241 25:-0.47227 
0.38045659320519754 1:-1.1586 2:-1.0866 3:-0.63891 4:-0.88291 5:-0.27231 6:1.6863 7:2.466 8:2.0116 9:2.5094 10:2.3732 11:1.7452 12:1.8324 13:0.62084 14:0.42523 15:0.84439 16:0.71874 17:-0.42609 18:0.53341 19:-0.19252 20:0.19402 21:0.47222 22:0.11377 23:0.031956 24:-0.15319 25:-1.8983 
1.0 1:-2.6072 2:-5.3919 3:-4.6428 4:-0.8096 5:-0.18337 6:-1.0473 7:2.1654 8:0.41656 9:-4.1705 10:-6.4888 11:-6.498 12:-3.2758 13:-0.86533 14:-1.0303 15:-1.6347 16:-1.5324 17:-1.6149 18:-2.7429 19:-5.9226 20:-5.9109 21:-12.0692 22:-7.8767 23:-4.8993 24:-2.7321 25:-1.6234 
1.0 1:2.0508 2:0.67224 3:-0.25078 4:-0.27199 5:-1.2361 6:-0.14914 7:0.99098 8:1.8275 9:2.4054 10:4.1852 11:2.6208 12:2.4808 13:3.8233 14:2.2383 15:2.7209 16:-0.48518 17:-0.47719 18:-0.80366 19:-1.4422 20:-2.7726 21:-0.0058502 22:-1.0548 23:3.1974 24:2.2259 25:2.0189 
1.0 1:-1.4929 2:-2.7374 3:-3.2097 4:-5.6901 5:-6.4933 6:-6.58 7:-8.732 8:-6.691 9:-2.7063 10:-1.3801 11:-0.021411 12:1.7087 13:2.174 14:3.3683 15:3.783 16:3.9644 17:3.1063 18:2.4265 19:1.3497 20:1.3667 21:0.46868 22:0.39165 23:1.0475 24:1.0477 25:-1.0713 
0.5203544902854446 1:0.23949 2:-0.68095 3:-0.61921 4:0.25167 5:2.3018 6:3.3702 7:3.903 8:3.8398 9:1.6877 10:0.52497 11:0.38499 12:0.63744 13:0.71 14:0.077707 15:0.016659 16:0.26637 17:0.85033 18:0.52953 19:0.13926 20:0.87766 21:0.67477 22:0.27489 23:-0.048104 24:0.28171 25:0.70587 
0.2119627398897933 1:0.058594 2:-0.053037 3:-0.05101 4:-0.078492 5:0.025238 6:0.43571 7:0.36013 8:0.80862 9:0.89089 10:1.2345 11:0.486 12:0.24343 13:0.093171 14:1.0618 15:0.88812 16:2.8115 17:1.6177 18:2.8681 19:2.5291 20:2.2736 21:1.2821 22:0.89608 23:0.89793 24:-0.90803 25:0.12289 
1.0 1:-5.1735 2:-3.1895 3:-1.5757 4:0.19787 5:1.7589 6:2.6595 7:2.5782 8:2.4057 9:2.5514 10:2.6585 11:2.1281 12:1.23 13:0.74165 14:0.63039 15:0.23437 16:0.10076 17:0.66612 18:0.58091 19:0.4194 20:0.30977 21:0.10001 22:0.49798 23:-0.034301 24:0.098611 25:-7.0296 
0.51686874262912 1:0.016925 2:-1.1409 3:-0.41047 4:0.97215 5:0.050259 6:2.1968 7:0.44732 8:1.0299 9:1.5998 10:1.5946 11:0.53123 12:0.055835 13:0.043388 14:0.13212 15:0.34564 16:0.0022754 17:1.076 18:1.5648 19:1.9521 20:2.2768 21:1.6979 22:2.3235 23:1.7804 24:0.6717 25:-0.2801 
1.0 1:3.5797 2:3.2187 3:2.1281 4:3.3159 5:6.0495 6:5.3805 7:5.1862 8:3.8549 9:0.91816 10:-0.24499 11:3.5344 12:2.2448 13:1.1688 14:0.50539 15:0.3244 16:0.31508 17:0.081164 18:0.25558 19:0.09267 20:0.13732 21:0.22143 22:0.11573 23:-0.015752 24:-0.26538 25:0.56622 
1.0 1:3.4261 2:4.6098 3:2.2416 4:0.40684 5:-0.015738 6:0.038416 7:-0.62631 8:-1.467 9:-2.0842 10:-2.3586 11:-2.0993 12:-1.8274 13:-1.3878 14:-0.94267 15:-0.46402 16:-0.34338 17:-0.12525 18:0.018001 19:0.20786 20:0.33618 21:-0.029396 22:-0.30041 23:-0.31394 24:-0.5494 25:3.0854 
1.0 1:-0.15853 2:-0.091909 3:-0.14509 4:-0.13675 5:-0.092325 6:-0.26952 7:-0.20714 8:0.15935 9:-0.55624 10:-0.37069 11:-0.59349 12:0.6703 13:1.0035 14:0.44826 15:-1.0551 16:-3.0152 17:-2.4806 18:-1.7515 19:-0.42722 20:3.7019 21:5.0761 22:3.303 23:4.5417 24:2.4203 25:0.83349 
0.7273494104207051 1:0.0063965 2:0.75882 3:1.8459 4:2.2745 5:1.1238 6:0.12426 7:0.40639 8:-0.62416 9:-1.6986 10:-2.3357 11:-2.0423 12:-1.1858 13:-0.31943 14:0.038669 15:0.84045 16:-0.90057 17:3.0825 18:0.51447 19:-0.36764 20:0.097486 21:-0.0054326 22:0.71404 23:0.85044 24:0.14057 25:-0.20196 
1.0 1:0.42487 2:1.0248 3:1.4262 4:2.0543 5:4.6785 6:3.7596 7:-0.0070048 8:0.8809 9:0.92272 10:1.581 11:4.0897 12:4.9869 13:5.9762 14:2.9324 15:1.0391 16:0.31676 17:-1.1789 18:-0.4929 19:-2.1531 20:-3.6493 21:-2.8544 22:-1.9743 23:-1.2685 24:-0.62436 25:-2.1663 
1.0 1:2.7729 2:2.8254 3:2.2366 4:2.2226 5:2.0909 6:1.6288 7:1.5437 8:1.5436 9:2.4265 10:2.6912 11:2.7247 12:1.6871 13:4.9518 14:3.3426 15:0.56758 16:0.22956 17:-0.23182 18:0.95125 19:0.03468 20:-1.7244 21:-5.7153 22:-9.9899 23:-13.5136 24:-6.2857 25:2.5595 
1.0 1:-1.4207 2:-1.9412 3:-2.2844 4:-2.651 5:-3.3003 6:-3.0443 7:-3.1188 8:-3.5828 9:-3.5534 10:-3.8624 11:-2.9587 12:-2.2715 13:-2.1073 14:-1.9494 15:-1.7191 16:-1.8299 17:-1.5173 18:-1.1119 19:-1.1958 20:-0.85088 21:-0.64414 22:-0.29274 23:-0.083717 24:-0.21691 25:-1.107 
0.9114565489190148 1:-2.1652 2:-3.7534 3:-4.4446 4:-4.1937 5:-4.1911 6:-3.2583 7:-1.4845 8:-0.52215 9:-0.19896 10:-0.5107 11:-0.014058 12:0.52609 13:0.77542 14:0.68145 15:0.46066 16:-0.042552 17:0.05591 18:-0.006946 19:-0.11817 20:-0.070337 21:-0.04914 22:-0.30003 23:-0.062308 24:0.28597 25:-1.4569 
1.0 1:0.082109 2:-1.0202 3:0.69334 4:-0.25629 5:1.0663 6:0.1992 7:7.3271 8:2.8632 9:1.924 10:-3.9591 11:-4.2376 12:-5.0016 13:-6.1448 14:-6.9756 15:-6.4616 16:-3.4084 17:-1.3991 18:-2.098 19:0.4041 20:-0.36591 21:-0.57246 22:-0.20816 23:-0.16291 24:-0.91468 25:0.17769 
1.0 1:0.13011 2:-0.3171 3:5.4786 4:1.967 5:-1.5444 6:-0.079368 7:-0.52733 8:-0.63958 9:-1.2575 10:-0.41355 11:-1.7653 12:-1.2464 13:-0.47687 14:-1.2817 15:-0.40874 16:0.56421 17:-0.14802 18:-0.27174 19:0.46508 20:-0.44933 21:-0.3059 22:0.73072 23:1.8051 24:-1.1083 25:2.2187 
1.0 1:-0.048761 2:0.13305 3:0.76177 4:-0.18259 5:-0.15256 6:1.8211 7:2.977 8:1.0179 9:3.2286 10:0.1616 11:-3.0136 12:-3.0306 13:-3.2967 14:-3.6538 15:-4.418 16:-3.5944 17:-4.2156 18:-3.0273 19:-2.0065 20:-1.7614 21:-1.4125 22:-0.096913 23:-0.4927 24:0.29099 25:0.1371 
0.04493403175472931 1:-0.2289 2:-0.010395 3:0.067894 4:0.1469 5:0.044264 6:0.39473 7:1.2781 8:1.2219 9:0.59697 10:-0.28538 11:0.39309 12:0.6267 13:1.9674 14:0.97099 15:0.7182 16:0.60039 17:-1.9271 18:-1.0788 19:-0.34906 20:0.23702 21:0.21204 22:-0.083692 23:2.0694 24:0.73144 25:-0.44373 
1.0 1:-2.5016 2:-0.4117 3:0.04681 4:0.12527 5:-0.368 6:-0.99342 7:-1.1239 8:-0.92764 9:-0.45099 10:-0.70941 11:0.2609 12:0.070177 13:1.3852 14:-0.40808 15:0.035039 16:2.0827 17:-2.4853 18:1.9521 19:1.3781 20:-2.4378 21:3.4268 22:2.6836 23:-3.6423 24:-0.22958 25:3.0099 
1.0 1:-1.7 2:0.36193 3:1.9723 4:-0.66317 5:2.4321 6:1.9604 7:-3.3799 8:-4.0881 9:-1.5834 10:-0.91072 11:-2.4099 12:-3.3829 13:-2.7839 14:-2.6112 15:-1.1654 16:-0.88062 17:-1.902 18:-1.5219 19:-0.89529 20:0.036407 21:1.0786 22:-0.016782 23:0.078499 24:2.1297 25:2.2465 
0.07957491430982334 1:1.0972 2:-0.067771 3:-0.31422 4:0.019794 5:-0.51869 6:-0.336 7:-0.10416 8:0.71197 9:1.8921 10:0.49221 11:0.76512 12:0.14841 13:0.73269 14:0.16461 15:1.0354 16:2.5359 17:1.5645 18:2.5536 19:0.59309 20:0.96344 21:0.6951 22:1.562 23:0.19366 24:0.81109 25:0.35184 
1.0 1:-10.3539 2:-7.6804 3:-3.0393 4:-0.093 5:-0.052211 6:-0.080479 7:-1.8618 8:3.8837 9:-0.52712 10:0.66328 11:0.95366 12:-1.5484 13:-4.3992 14:-2.9347 15:-3.4252 16:-4.0807 17:-3.9593 18:-4.0565 19:-4.4941 20:-2.8671 21:-1.2819 22:-1.8096 23:-1.1331 24:-0.8906 25:-5.5463 
0.021901492870974433 1:-1.5662 2:-1.9405 3:-1.9034 4:-0.95624 5:-1.4431 6:-0.82293 7:-0.48661 8:-0.36819 9:-0.56962 10:-0.45374 11:-1.4129 12:-2.0393 13:-1.1896 14:-0.73336 15:-1.0153 16:-0.90595 17:0.30235 18:-0.22597 19:-0.28953 20:0.39197 21:1.8489 22:1.3563 23:0.20981 24:0.090539 25:-1.6633 
1.0 1:-11.2265 2:-8.6465 3:-8.8034 4:-10.1881 5:-2.2568 6:0.026011 7:0.79416 8:0.33041 9:0.16236 10:-1.2555 11:2.2445 12:0.41808 13:1.1994 14:1.5318 15:-0.10964 16:-1.5086 17:-4.252 18:-4.0757 19:-2.3359 20:-2.2663 21:-3.0482 22:-3.0513 23:-2.7687 24:-2.6111 25:-10.8301 
1.0 1:-1.6571 2:-1.0235 3:0.088888 4:0.29271 5:0.81009 6:0.30542 7:0.080913 8:0.3271 9:0.12743 10:0.53317 11:0.82231 12:-0.070874 13:-1.2614 14:0.35318 15:4.2789 16:4.0892 17:-2.2818 18:-0.085457 19:2.8526 20:-1.4894 21:-0.22825 22:-4.7007 23:0.89171 24:0.84779 25:-0.78137 
1.0 1:-8.9194 2:-5.7424 3:-4.0052 4:-2.0994 5:-1.0824 6:-0.64771 7:-0.28925 8:-0.033672 9:-1.4811 10:-1.049 11:-1.2498 12:-0.84576 13:-2.5392 14:-3.0167 15:-2.7676 16:-3.2617 17:-1.218 18:-0.34241 19:-1.3726 20:-1.627 21:-1.3672 22:-2.2545 23:-2.9646 24:-1.2209 25:-11.1301 
1.0 1:0.98341 2:1.9023 3:3.4736 4:2.986 5:3.2615 6:3.2468 7:1.2523 8:0.57589 9:-0.88455 10:-3.5524 11:-4.5277 12:-3.6384 13:-3.5984 14:-4.1171 15:-6.1553 16:-5.0917 17:-3.947 18:-4.2767 19:-2.9837 20:-2.3863 21:-2.363 22:-0.73063 23:0.63955 24:-1.5764 25:2.2696 
0.1154388828087991 1:1.4844 2:1.0438 3:1.1505 4:0.79313 5:0.15642 6:-0.37652 7:-0.68417 8:0.60304 9:0.49829 10:1.4219 11:1.1852 12:-0.53042 13:-0.6678 14:0.46791 15:0.76891 16:0.50835 17:0.98881 18:0.29297 19:0.70193 20:0.5345 21:1.3162 22:1.4161 23:0.9054 24:1.9504 25:1.7166 
1.0 1:0.039793 2:0.059507 3:-0.0055903 4:0.2792 5:1.0859 6:1.3262 7:1.4012 8:2.1711 9:2.781 10:3.1273 11:3.5406 12:3.2368 13:3.159 14:2.9588 15:3.0766 16:3.1385 17:2.8752 18:2.4324 19:2.6307 20:2.4128 21:2.8423 22:2.5721 23:2.7669 24:2.3104 25:-0.18051 
0.0115313312849444 1:-0.92992 2:-1.0776 3:-1.2172 4:-1.3276 5:-1.8319 6:-1.7593 7:-1.5696 8:-1.6268 9:-1.3528 10:-0.76469 11:-0.78822 12:-1.0022 13:-0.98754 14:-1.3377 15:-2.0966 16:-1.8138 17:-2.8547 18:-2.1922 19:-1.198 20:-1.673 21:-1.4135 22:-0.78988 23:-0.78574 24:-0.77283 25:-0.8352 
0.9254081845840121 1:1.2253 2:1.9506 3:3.1118 4:3.1726 5:2.3592 6:1.872 7:0.61931 8:-0.89 9:-0.98847 10:-0.74076 11:-1.2721 12:-1.3257 13:-1.4661 14:-1.7798 15:-2.382 16:-3.6956 17:-3.4221 18:-2.6911 19:-2.5616 20:-2.4261 21:-1.5371 22:-1.1869 23:-0.53451 24:0.049573 25:0.18807 
1.0 1:-0.25711 2:-0.33381 3:1.6225 4:0.49111 5:0.5565 6:0.95605 7:1.7 8:-1.3321 9:-3.4211 10:-2.9859 11:-4.0573 12:-3.5292 13:-2.9892 14:-3.549 15:-3.1285 16:-2.9399 17:-3.7299 18:-3.9736 19:-3.3623 20:-1.9471 21:-0.44634 22:0.72194 23:0.73961 24:-0.24566 25:-0.37892 
0.36430958142081166 1:2.1661 2:2.3815 3:1.6767 4:1.2293 5:1.378 6:0.73869 7:-0.062912 8:0.25944 9:-0.08237 10:-0.34171 11:-0.13421 12:-1.4703 13:-1.6868 14:-1.7115 15:-1.4871 16:-1.0618 17:-0.55784 18:-0.36471 19:0.042877 20:-0.52094 21:-0.66166 22:0.27918 23:1.8766 24:0.6529 25:-1.0103 
0.6171650725995811 1:1.064 2:-0.7747 3:-1.943 4:-1.375 5:-1.2562 6:-2.1592 7:-1.6671 8:-1.8057 9:-2.362 10:-2.5998 11:-2.3142 12:-1.6829 13:-0.55856 14:0.23958 15:0.52518 16:0.73207 17:0.10217 18:-0.46458 19:-0.56361 20:-0.54672 21:-0.2804 22:-0.46295 23:-0.88706 24:-1.2085 25:1.8181 
0.2248690052569425 1:0.36657 2:0.18456 3:-0.029426 4:-0.15327 5:-0.32065 6:-0.25816 7:-0.46109 8:-0.54301 9:-0.51144 10:-0.59472 11:-0.022224 12:0.57518 13:1.4028 14:0.58842 15:-0.33284 16:-0.95708 17:-0.24068 18:-0.2995 19:-0.49803 20:-2.01 21:-2.8068 22:1.7605 23:0.75461 24:-0.57719 25:-0.14195 
0.557444858392432 1:0.19262 2:-2.2709 3:-1.0577 4:-3.4465 5:-3.4629 6:-2.7378 7:-2.6856 8:-1.1258 9:-0.24695 10:0.049553 11:0.20319 12:0.050832 13:0.10249 14:0.26222 15:0.32403 16:0.35558 17:0.13024 18:-0.095959 19:-0.20669 20:-0.46674 21:-0.87147 22:-1.1296 23:-0.80144 24:-1.1105 25:0.63617 
1.0 1:-3.9612 2:-3.4533 3:-2.9643 4:-2.034 5:-1.0661 6:-0.95359 7:-1.0956 8:-0.72699 9:-0.29041 10:-0.49629 11:-0.85362 12:-1.0058 13:-0.51699 14:-0.21009 15:-0.10353 16:0.47041 17:0.72915 18:1.0861 19:1.4288 20:1.9516 21:2.547 22:2.1634 23:2.4579 24:1.5064 25:-4.0953 
0.8154431129749621 1:-2.8107 2:-3.713 3:-2.7117 4:0.38585 5:-0.35819 6:-0.55666 7:-0.32091 8:-0.16232 9:-0.15797 10:0.12026 11:0.44647 12:1.0801 13:1.7559 14:2.7518 15:2.0516 16:0.76377 17:0.05118 18:-0.8856 19:1.5179 20:-0.08969 21:-1.4159 22:0.1609 23:0.95768 24:-0.48546 25:-2.9396 
1.0 1:-5.4062 2:-5.8114 3:-6.9448 4:-8.9487 5:-6.662 6:-9.2316 7:-5.7007 8:-4.5962 9:-1.8852 10:0.015967 11:-0.58228 12:-0.71172 13:-0.69686 14:-0.47338 15:0.17481 16:-0.63674 17:0.096179 18:0.013175 19:-0.81082 20:-3.4075 21:-4.6717 22:-4.0899 23:-4.164 24:-3.8721 25:-1.8199 
0.7602227690609231 1:0.33038 2:0.43455 3:0.71444 4:0.11163 5:-1.0126 6:-0.073479 7:-1.2512 8:2.6703 9:0.79825 10:-0.87214 11:0.5771 12:-0.31565 13:-0.77788 14:-0.83596 15:-1.7411 16:-1.1188 17:-0.749 18:0.60958 19:0.07498 20:-0.98719 21:-1.0504 22:-1.6979 23:-0.33425 24:2.0428 25:-0.20831 
0.20066259593620708 1:-2.2868 2:-2.74 3:-1.7046 4:-0.89478 5:-0.12311 6:-0.15657 7:-0.50291 8:0.01627 9:0.54659 10:-0.14647 11:-1.2446 12:-0.078278 13:0.86601 14:0.59159 15:0.46919 16:2.414 17:1.6453 18:0.086213 19:-0.44847 20:0.080258 21:1.3012 22:1.6481 23:1.5343 24:0.33231 25:-2.3262 
0.25401508119277805 1:-0.95346 2:-0.89591 3:-1.0468 4:-1.0239 5:-0.88236 6:-1.0439 7:-0.72586 8:-0.87963 9:-1.043 10:-1.5057 11:-1.2455 12:-0.76828 13:-0.55497 14:-0.007963 15:0.85526 16:1.1872 17:2.2395 18:1.6608 19:0.94357 20:0.55108 21:-0.38876 22:-0.58175 23:2.598 24:1.6737 25:-1.0348 
0.6996824132809767 1:1.2698 2:1.59 3:1.7336 4:1.6619 5:1.9784 6:2.2375 7:1.4927 8:0.96209 9:0.84572 10:0.66641 11:0.57806 12:0.1823 13:0.37539 14:0.43989 15:-0.23294 16:-0.70716 17:-0.94696 18:-1.7135 19:-2.418 20:-2.6405 21:-2.3263 22:-1.9515 23:-1.495 24:-1.0887 25:1.6759 
1.0 1:0.47438 2:0.31638 3:0.13399 4:0.44474 5:0.20504 6:0.19194 7:0.85477 8:0.89877 9:0.71241 10:0.97414 11:0.53912 12:-0.17005 13:0.9608 14:-0.26768 15:0.0064032 16:3.7603 17:-0.34728 18:4.0166 19:4.7624 20:2.6634 21:-0.5154 22:-3.1023 23:-2.9724 24:-2.901 25:0.13268 
1.0 1:-4.4643 2:-4.1313 3:-0.95285 4:-1.28 5:-2.065 6:-0.40052 7:-1.1116 8:-0.89046 9:1.1161 10:1.5956 11:2.3277 12:2.7116 13:3.9759 14:3.9796 15:4.153 16:5.7074 17:4.1089 18:1.96 19:0.36756 20:-0.1149 21:-0.38752 22:-0.33697 23:0.046924 24:-0.020062 25:0.81735 
1.0 1:3.4645 2:3.3183 3:3.4506 4:3.4198 5:3.0594 6:2.8186 7:2.2027 8:1.6759 9:0.33039 10:0.30591 11:1.0966 12:0.68231 13:-0.40956 14:-0.66654 15:0.16385 16:0.57818 17:-0.055835 18:-0.38597 19:-0.41655 20:-0.23086 21:-1.1239 22:-0.10696 23:-1.0959 24:-1.0494 25:4.3489 
1.0 1:5.7663 2:0.055142 3:-2.4531 4:0.097254 5:0.49127 6:0.22934 7:-0.32298 8:-2.6719 9:1.2645 10:-0.84326 11:-0.46378 12:-0.025034 13:-1.3419 14:-3.1748 15:-1.2345 16:1.5137 17:1.5952 18:2.1431 19:1.4267 20:2.5171 21:4.1111 22:3.0163 23:3.2365 24:4.3168 25:6.3732 
0.38249275628660606 1:-2.0922 2:-1.8379 3:-2.4659 4:-2.4844 5:-0.15984 6:0.42167 7:1.0727 8:-1.7577 9:-0.60102 10:-0.88753 11:0.34936 12:0.84603 13:-0.47162 14:-0.51563 15:0.71123 16:-0.18558 17:-1.4396 18:0.40348 19:-0.16518 20:-0.59624 21:0.35038 22:0.25361 23:0.2956 24:0.68038 25:-1.5489 
0.6466285566619144 1:-0.47003 2:-0.42929 3:0.83286 4:0.43814 5:1.0718 6:1.6313 7:0.09775 8:-1.2128 9:-1.4544 10:-1.9926 11:-2.8681 12:-3.4523 13:-3.8061 14:-4.3705 15:-4.8066 16:-4.382 17:-3.9974 18:-3.853 19:-3.0648 20:-1.9163 21:-1.3571 22:-1.0906 23:-0.7828 24:-0.72868 25:-1.6564 
0.6140219689560451 1:-1.1229 2:-0.96676 3:-0.85493 4:-1.0753 5:-1.3725 6:-0.52646 7:-0.23293 8:-0.51203 9:-0.49876 10:-0.98172 11:-0.74822 12:-1.2425 13:-1.9288 14:-2.8797 15:-2.4295 16:-1.4999 17:-1.8712 18:-2.1957 19:-1.5059 20:-1.7797 21:-1.3849 22:-1.3203 23:-2.0077 24:-1.7818 25:-0.58419 
0.40880325847008403 1:-0.083835 2:-0.2624 3:-0.2428 4:0.11157 5:0.80074 6:1.062 7:1.0797 8:1.6375 9:2.1308 10:1.675 11:1.7652 12:1.2474 13:1.5536 14:0.87259 15:0.46793 16:-0.67746 17:-1.1915 18:-1.7521 19:-1.2935 20:-0.86837 21:-0.28382 22:0.20499 23:-1.8023 24:-1.6533 25:-0.54977 
0.9514841007292743 1:-5.8706 2:-3.3373 3:-1.1609 4:-0.99779 5:-0.80847 6:-0.11756 7:0.20558 8:0.28717 9:0.70273 10:0.75064 11:0.97369 12:0.94113 13:1.1695 14:1.4306 15:1.1331 16:0.94647 17:0.76188 18:0.48659 19:0.40128 20:0.4719 21:0.2641 22:0.63971 23:0.60995 24:0.53815 25:-6.9219 
1.0 1:0.22171 2:0.034895 3:0.069654 4:-0.047104 5:-0.0050544 6:0.0026048 7:-0.046748 8:-0.37622 9:0.3663 10:0.88304 11:1.024 12:0.97445 13:1.2772 14:1.4289 15:0.67096 16:0.31206 17:1.3332 18:1.4953 19:1.9071 20:0.62742 21:-0.70692 22:-3.0244 23:-4.2969 24:-4.5618 25:0.3602 
1.0 1:0.11721 2:-1.6573 3:1.2457 4:-0.58976 5:1.6965 6:-0.069468 7:-3.4685 8:-4.0755 9:-0.64547 10:0.37675 11:0.6235 12:-0.52973 13:-0.86296 14:-1.2242 15:-1.7689 16:-1.7844 17:-0.94712 18:1.2492 19:0.82347 20:0.23252 21:-0.091759 22:-0.03552 23:0.21375 24:0.26506 25:-3.0986 
0.49011018698100944 1:0.80834 2:1.1461 3:-0.67385 4:0.10226 5:0.77746 6:-0.25098 7:-1.157 8:-0.52325 9:-0.50665 10:-0.14825 11:0.3048 12:-1.8729 13:-2.6196 14:-0.53902 15:0.038497 16:-2.4554 17:-2.7052 18:-1.2251 19:0.55641 20:0.57588 21:-0.40647 22:-0.29315 23:0.97054 24:-0.54106 25:-0.50477 
0.938999815599418 1:2.1228 2:2.6013 3:1.1147 4:-0.29073 5:-0.078805 6:0.37312 7:1.0674 8:0.91992 9:1.2037 10:1.2325 11:1.6273 12:0.92121 13:0.80075 14:1.4415 15:1.5781 16:0.90803 17:0.92375 18:2.3882 19:3.0411 20:0.65841 21:0.24714 22:1.9636 23:1.2421 24:-0.41671 25:3.4531 
1.0 1:0.16415 2:-0.14185 3:-1.2683 4:-0.58787 5:-2.057 6:-0.72096 7:-0.28565 8:-0.71645 9:-1.6413 10:0.091507 11:0.40543 12:0.83748 13:1.5395 14:2.1275 15:2.2774 16:2.3578 17:2.2593 18:3.2605 19:3.5711 20:3.8224 21:3.9294 22:4.3403 23:4.1927 24:4.4062 25:1.1572 
1.0 1:0.64793 2:0.30381 3:0.57827 4:1.2141 5:1.3063 6:1.532 7:1.8829 8:1.0795 9:1.5023 10:1.9327 11:2.2093 12:3.0091 13:4.0229 14:4.6143 15:7.0695 16:6.5616 17:5.5873 18:3.9475 19:2.8779 20:1.5818 21:0.86147 22:0.37741 23:0.27983 24:0.1418 25:0.66509 
0.24754492478294735 1:-0.63126 2:-0.60388 3:0.12508 4:-1.4756 5:-1.1882 6:-0.20092 7:-1.0563 8:-0.90881 9:-1.4395 10:-2.0821 11:-2.1677 12:-1.7181 13:-1.3878 14:-0.76635 15:0.48151 16:1.4403 17:1.9504 18:1.6411 19:1.1278 20:0.60982 21:-0.39543 22:-0.10109 23:0.86695 24:0.81601 25:-0.1686 
1.0 1:0.35926 2:0.017531 3:0.53701 4:2.1049 5:3.112 6:4.9507 7:4.6064 8:3.7939 9:2.9001 10:2.6026 11:0.087858 12:-1.2871 13:0.80087 14:0.74131 15:0.24578 16:-0.039905 17:-1.4987 18:-0.49604 19:-0.35903 20:-0.62441 21:1.5782 22:0.6861 23:0.19494 24:0.27796 25:0.30794 
0.4988821969044812 1:-1.3738 2:-1.8395 3:-0.80812 4:0.48188 5:-0.62983 6:-1.9433 7:-2.0581 8:-1.5863 9:-1.434 10:-1.8725 11:-2.4367 12:-1.7083 13:-0.56839 14:-0.018901 15:-0.40724 16:-1.4049 17:-0.81131 18:1.6605 19:2.1369 20:1.0519 21:0.39946 22:0.5159 23:0.66593 24:1.2311 25:-0.4832 
1.0 1:1.1347 2:1.0215 3:0.40534 4:2.2705 5:2.3604 6:2.3658 7:2.1494 8:1.9259 9:2.3381 10:0.87133 11:1.9369 12:1.2615 13:-0.13465 14:-2.3585 15:-3.2554 16:-4.1971 17:-4.3722 18:-4.88 19:-4.6183 20:-2.6494 21:-2.1323 22:-1.17 23:0.81123 24:1.5754 25:3.5119 
0.8050846760555095 1:-0.084629 2:0.067475 3:-0.098321 4:-0.051725 5:0.067468 6:-0.31775 7:-0.54835 8:-0.35178 9:-0.055499 10:-0.6243 11:0.72333 12:-0.16914 13:-0.41317 14:0.045494 15:-0.064723 16:-0.83218 17:-1.5749 18:0.93139 19:1.7914 20:-0.33279 21:-0.27768 22:3.172 23:1.2637 24:-4.2954 25:0.38718 
0.5264923151752837 1:-0.22614 2:-0.25354 3:1.0188E-4 4:-0.14746 5:-0.011959 6:-0.38187 7:-0.69973 8:-0.91716 9:-1.5288 10:-1.963 11:-1.8945 12:-2.1674 13:-3.2444 14:-3.5377 15:-2.7786 16:-3.4475 17:-3.2229 18:-2.6293 19:-2.8455 20:-3.657 21:-2.2536 22:-0.18921 23:-0.57841 24:-0.30518 25:-0.24657 
1.0 1:-0.8496 2:-2.0211 3:-4.2349 4:-5.2637 5:-6.3924 6:-5.4328 7:-5.1202 8:-5.7177 9:-4.3172 10:-3.2923 11:-2.4145 12:-1.626 13:-0.63962 14:0.38594 15:1.5732 16:2.2208 17:1.4307 18:2.4655 19:3.0995 20:1.7764 21:0.29393 22:-0.29084 23:-0.49983 24:-0.24969 25:-0.45445 
1.0 1:-4.1312 2:-5.6651 3:-6.6334 4:-6.0831 5:-9.175 6:-5.0741 7:-3.4291 8:-2.8028 9:-1.4698 10:-1.1027 11:-0.26356 12:1.2981 13:1.5994 14:3.1318 15:4.1915 16:4.1141 17:3.1828 18:2.3766 19:1.5 20:-0.19028 21:-0.62483 22:0.21549 23:0.48299 24:0.28206 25:0.27375 
1.0 1:1.6252 2:1.3756 3:0.94774 4:0.725 5:0.28166 6:0.18802 7:0.31267 8:0.49646 9:0.38497 10:0.00882 11:0.032194 12:-0.027189 13:-1.014 14:-0.63446 15:0.026414 16:-0.81189 17:-3.713 18:-2.7096 19:0.37133 20:1.8602 21:2.8515 22:0.083122 23:4.1435 24:-5.9101 25:2.1024 
1.0 1:-2.8117 2:-3.6732 3:2.2646 4:-1.7471 5:-3.8369 6:-3.7817 7:-4.3014 8:-4.9775 9:-4.953 10:-2.1748 11:0.20222 12:0.41669 13:0.33012 14:1.2832 15:2.1197 16:3.0027 17:2.4851 18:1.5197 19:0.8441 20:0.93258 21:1.5572 22:2.2987 23:2.563 24:2.2547 25:-0.85444 
-0.46373820825298206 1:0.86243 2:-1.9426 3:1.1815 4:-1.8054 5:-2.3001 6:-0.39592 7:0.051816 8:-1.0388 9:-0.3992 10:1.5836 11:1.4877 12:1.034 13:2.647 14:4.4257 15:2.7655 16:-0.96239 17:0.060219 18:-5.8272 19:-1.9165 20:-0.43764 21:1.3773 22:0.12675 23:-0.563 24:1.4977 25:3.5556 
-0.3796137348876375 1:-4.4411 2:-1.3993 3:0.45253 4:-1.4757 5:1.9626 6:3.5375 7:5.009 8:3.5024 9:-0.044873 10:-0.71334 11:-2.8427 12:-3.7012 13:-4.0741 14:-5.6304 15:-5.1132 16:-4.13 17:0.58574 18:-0.36948 19:3.6684 20:1.869 21:0.76197 22:2.3392 23:2.0453 24:1.7198 25:-4.0779 
-0.38849460215003667 1:-1.6521 2:-4.5811 3:4.6219 4:7.7716 5:6.9852 6:3.2658 7:-1.582 8:-0.82964 9:-0.78551 10:-2.448 11:-2.471 12:-2.224 13:-2.48 14:-2.4375 15:-2.2347 16:-1.4242 17:4.9772 18:7.5074 19:5.9271 20:2.0011 21:-0.75464 22:-1.2169 23:-2.1455 24:-2.984 25:0.022086 
-0.410479890531146 1:-3.0809 2:-2.7926 3:-3.4306 4:0.13348 5:-1.51 6:3.5106 7:5.0589 8:-1.0157 9:-3.6363 10:-5.0788 11:-1.6356 12:0.030478 13:-2.8281 14:-4.4033 15:-5.8577 16:-3.776 17:-2.4769 18:-0.13879 19:4.5351 20:6.7321 21:5.5989 22:5.2628 23:-0.08825 24:-1.5204 25:-3.5674 
-0.411515452571624 1:2.5289 2:1.5481 3:1.1656 4:0.48976 5:-1.4876 6:-3.8299 7:-4.6763 8:-8.5698 9:-6.6998 10:-6.5181 11:0.43111 12:-1.3291 13:-1.3482 14:0.27727 15:3.3033 16:1.8664 17:0.38532 18:0.087469 19:-0.69294 20:-5.6164 21:-4.4453 22:-6.6943 23:-7.8391 24:-7.7146 25:2.7595 
-0.41111476432541993 1:3.04 2:3.6117 3:4.0776 4:-0.99307 5:3.1459 6:5.3824 7:-5.4053 8:-9.6005 9:-7.3386 10:-4.048 11:-0.5897 12:2.8525 13:-0.28871 14:3.1422 15:4.0141 16:5.699 17:1.9656 18:3.7913 19:2.1853 20:2.1484 21:-9.497 22:-5.5892 23:-3.6326 24:-3.3995 25:0.56864 
-0.4114014010942382 1:-0.34521 2:3.1258 3:3.7587 4:3.3342 5:2.5345 6:2.0365 7:3.337 8:3.7047 9:2.14 10:0.79591 11:0.35321 12:-13.9256 13:-9.8855 14:-3.6967 15:-0.23128 16:2.01 17:4.1175 18:3.8285 19:4.3386 20:4.926 21:5.3038 22:3.9573 23:-0.050173 24:-3.8376 25:-7.0967 
-0.3937306911958248 1:-5.9985 2:-2.2815 3:3.9356 4:2.9855 5:0.12554 6:4.6207 7:3.8182 8:3.0781 9:2.6891 10:0.33591 11:3.4511 12:3.2471 13:-8.9482 14:-7.7318 15:-9.0913 16:-0.24331 17:5.8147 18:3.205 19:3.05 20:1.7177 21:2.6852 22:3.0662 23:0.72836 24:3.8545 25:-7.1549 
-0.4101319878342777 1:-3.2967 2:-3.0326 3:2.3526 4:7.9519 5:0.13826 6:1.7904 7:1.8336 8:2.6818 9:-0.074162 10:-2.3722 11:-0.20368 12:-1.2166 13:-7.7399 14:-5.4278 15:2.6883 16:-0.59856 17:-0.35764 18:2.9847 19:3.4275 20:1.8387 21:2.0443 22:3.291 23:-1.2974 24:-2.3015 25:-5.6916 
-0.3594124495161548 1:3.5737 2:0.94637 3:-0.68909 4:0.43095 5:-0.61719 6:-1.8509 7:-2.268 8:-0.49088 9:-2.3027 10:-3.3864 11:-1.4226 12:5.6203 13:5.2176 14:5.1706 15:1.2759 16:-0.49754 17:-0.82172 18:0.54349 19:-2.1288 20:-2.0058 21:-2.6089 22:-1.691 23:-2.7592 24:-3.2363 25:6.1748 
-0.4321744615227704 1:0.4646 2:2.1998 3:1.6262 4:-2.1379 5:-2.9144 6:4.2204 7:3.8534 8:-0.064983 9:-0.64252 10:-3.3696 11:-2.4059 12:-3.084 13:-1.0888 14:-1.689 15:-1.1206 16:0.82473 17:2.6819 18:-0.82194 19:0.77717 20:4.8024 21:-0.24924 22:-0.53916 23:-2.5188 24:-2.5755 25:-0.31082 
-0.414032443653127 1:3.8377 2:-0.87658 3:3.4586 4:2.1401 5:0.036526 6:2.711 7:10.7357 8:0.25329 9:-4.4501 10:-3.4165 11:-2.5472 12:-3.0802 13:-2.6798 14:-2.9646 15:-5.4778 16:-3.6418 17:-4.7736 18:1.1529 19:0.043409 20:-0.93149 21:1.004 22:2.7845 23:1.4557 24:0.59843 25:1.1703 
-0.4112175617342077 1:2.5973 2:0.78993 3:-10.9148 4:-3.3033 5:-1.4084 6:0.9805 7:-1.9353 8:1.4141 9:-1.2432 10:0.06287 11:1.9119 12:1.7918 13:3.8075 14:2.7714 15:1.2933 16:5.7227 17:4.624 18:-1.3874 19:-3.2885 20:-3.0034 21:-3.6359 22:-1.0434 23:0.85772 24:1.0023 25:2.8675 
-0.41018001723657027 1:4.4448 2:-6.0227 3:-6.2279 4:-5.1666 5:-2.9206 6:2.3268 7:1.8491 8:-0.80544 9:-0.83111 10:4.1478 11:4.4608 12:4.2423 13:0.83902 14:2.4177 15:1.7791 16:-7.287 17:-6.0796 18:-4.627 19:-3.2396 20:1.5776 21:1.502 22:0.16398 23:1.4255 24:5.2075 25:3.5647 
-0.3874674785035696 1:-1.2734 2:-0.70889 3:0.16001 4:0.54224 5:0.88653 6:1.801 7:2.0763 8:2.9548 9:4.4327 10:-0.21061 11:-2.3036 12:-3.3039 13:-3.1002 14:-3.3577 15:-2.3396 16:-0.2106 17:-0.21223 18:1.2754 19:1.5878 20:1.5102 21:2.2543 22:1.539 23:4.3735 24:-1.7752 25:-1.0255 
-0.5069950838733699 1:1.351 2:3.0583 3:0.41841 4:-1.6869 5:-1.8134 6:-0.95624 7:-1.2554 8:-3.0948 9:-0.14921 10:1.0527 11:1.4253 12:-1.0048 13:-1.0195 14:0.88161 15:1.745 16:0.25027 17:-1.3828 18:-2.7329 19:-1.6165 20:-1.6091 21:-2.8537 22:-0.18758 23:3.0535 24:1.661 25:-3.5373 
-0.41320918615314317 1:-1.694 2:6.826 3:2.5944 4:-1.6109 5:0.61479 6:-6.6312 7:-2.2424 8:-0.53923 9:0.17842 10:-0.56022 11:-0.8308 12:0.1567 13:0.18467 14:0.5501 15:0.37726 16:0.49465 17:2.1646 18:-3.9299 19:-0.48811 20:-1.09 21:-6.5191 22:-3.1218 23:-2.3102 24:0.25272 25:0.89106 
-0.9005461821919221 1:-0.84783 2:1.5356 3:1.9442 4:0.14091 5:-1.0871 6:0.15978 7:0.11946 8:-1.2654 9:-3.3884 10:-2.7832 11:-4.2815 12:-4.4617 13:-4.5542 14:-3.386 15:-1.432 16:-1.2596 17:-1.1495 18:-0.68154 19:-0.60412 20:0.047892 21:0.52993 22:0.73597 23:0.84516 24:0.022615 25:-0.35575 
-0.405707287409916 1:-7.4646 2:-4.652 3:-0.7655 4:2.0607 5:3.194 6:3.5806 7:4.507 8:4.3886 9:5.4254 10:4.9036 11:3.9465 12:-0.047193 13:-5.4309 14:-9.8466 15:-9.4575 16:-4.2002 17:-2.6485 18:1.2398 19:3.5004 20:4.6537 21:5.1596 22:4.3196 23:5.0067 24:4.1006 25:-1.4923 
-0.4112097578129324 1:-5.3781 2:-1.9049 3:-3.9294 4:-1.0976 5:-2.6319 6:-3.2567 7:-1.0043 8:1.3469 9:-0.23644 10:0.93144 11:0.80153 12:3.1276 13:2.7392 14:4.8719 15:9.2604 16:0.79132 17:-2.0199 18:-5.3597 19:-4.7045 20:-0.86695 21:-2.2953 22:-3.4244 23:-0.41261 24:-0.62147 25:8.2712 
-0.41154409451762636 1:1.9206 2:-2.6988 3:-6.263 4:-6.0564 5:-3.9576 6:-2.485 7:-2.2724 8:-1.6057 9:-4.5357 10:-2.815 11:-3.8402 12:-3.1919 13:-6.1323 14:-8.2385 15:-6.7768 16:-8.7964 17:-6.2476 18:-2.548 19:0.64458 20:2.6929 21:3.404 22:2.6353 23:0.87799 24:-0.48443 25:-3.3691 
-0.5933950992166687 1:0.22963 2:-0.022889 3:-0.32511 4:0.052111 5:0.58033 6:1.0123 7:0.26217 8:0.60581 9:-0.23585 10:-1.1194 11:-1.3822 12:-3.5216 13:-2.6842 14:-0.75852 15:-0.40826 16:-2.8711 17:0.077788 18:-1.3009 19:0.63483 20:1.7655 21:2.9084 22:5.208 23:3.4878 24:-2.1505 25:0.11699 
-0.40963219151304836 1:0.16133 2:-5.0296 3:-3.353 4:-0.90643 5:0.44129 6:0.67318 7:-0.26994 8:2.5376 9:2.8098 10:-0.92563 11:-1.3342 12:4.0822 13:1.1275 14:-2.1814 15:-2.378 16:2.3458 17:-7.6631 18:-4.2924 19:0.72268 20:-1.4562 21:0.20403 22:1.6999 23:0.67451 24:2.045 25:-1.612 
-0.42584587802623863 1:-4.8989 2:-2.8571 3:0.14371 4:1.5538 5:2.6085 6:-0.30469 7:-0.27106 8:1.7003 9:-1.3377 10:1.3546 11:2.1928 12:-0.03623 13:-4.5598 14:-3.1679 15:-1.8726 16:-3.1988 17:-2.9999 18:-1.051 19:-1.0338 20:-0.65997 21:0.3891 22:2.8749 23:3.8756 24:2.1377 25:-1.4252 
-0.46365960081076185 1:-4.0046 2:2.5088 3:-0.1579 4:0.030743 5:1.906 6:2.5528 7:2.2593 8:2.5838 9:1.4979 10:1.3227 11:-2.0787 12:-0.92153 13:-2.846 14:-4.0296 15:0.27129 16:-0.65024 17:-0.91183 18:0.08165 19:-0.70733 20:-1.0685 21:3.4531 22:1.593 23:0.72153 24:3.6787 25:2.3542 
-0.4148857449743473 1:0.35077 2:-0.67407 3:2.8861 4:0.41001 5:4.3552 6:-0.74854 7:2.3813 8:-2.8228 9:-8.0885 10:-2.9417 11:1.0487 12:1.5493 13:0.19103 14:-0.76888 15:-0.42099 16:-2.2927 17:0.69558 18:2.5699 19:5.9199 20:0.87098 21:-1.9707 22:1.3805 23:1.3998 24:-5.3908 25:0.7717 
-0.41204983785754834 1:-1.0308 2:0.69981 3:0.5407 4:0.66502 5:1.06 6:0.60583 7:-0.36318 8:0.60376 9:0.7192 10:1.0324 11:1.5955 12:1.2765 13:0.18206 14:-0.51342 15:1.3449 16:-2.1881 17:3.1164 18:4.5023 19:-3.9624 20:8.9181 21:7.8076 22:-4.5906 23:1.2129 24:0.75685 25:-0.46018 
-0.41124679849912654 1:-2.711 2:-0.12066 3:1.1188 4:-1.6987 5:-1.8143 6:2.352 7:0.96058 8:-0.70463 9:-0.18877 10:6.8018 11:0.90986 12:-12.3786 13:-2.0278 14:4.4743 15:-1.1942 16:-7.1881 17:-3.5608 18:-0.51671 19:0.54836 20:0.24076 21:0.82797 22:2.2447 23:3.5166 24:2.3124 25:-4.0708 
-0.3479253841639742 1:3.8637 2:-0.29863 3:-1.6624 4:-1.605 5:-0.97443 6:-2.3107 7:-2.6397 8:-2.3096 9:-3.417 10:-2.4629 11:1.5837 12:6.0945 13:7.7519 14:1.3784 15:-1.4557 16:-0.71366 17:-1.7168 18:-2.4299 19:-2.7622 20:-2.2519 21:-2.5886 22:-2.4346 23:-2.585 24:-0.65235 25:6.8481 
-0.383862609648487 1:-5.4588 2:-2.6445 3:1.2159 4:1.9894 5:-1.5869 6:2.1557 7:4.3829 8:2.6153 9:1.8109 10:4.4125 11:5.4784 12:3.5552 13:-11.0082 14:-7.5972 15:-6.1189 16:-2.3278 17:1.8807 18:1.9989 19:-0.19173 20:2.5229 21:4.6754 22:2.6252 23:1.0057 24:4.8252 25:-5.3898 
-0.41142567949909165 1:-10.7277 2:-7.8545 3:-2.2671 4:1.4623 5:1.1523 6:2.4635 7:2.9499 8:4.5069 9:5.7593 10:5.0725 11:3.1787 12:0.94743 13:-3.6551 14:-20.4611 15:-11.2743 16:-7.0785 17:2.6735 18:4.136 19:5.4279 20:4.6947 21:4.658 22:5.3926 23:6.0007 24:4.9963 25:-9.8365 
-0.40976223904989617 1:-1.3904 2:-1.0232 3:-4.0864 4:-9.2215 5:2.4134 6:-3.3022 7:-1.7094 8:3.8811 9:1.8165 10:2.178 11:2.8265 12:2.5799 13:-0.31186 14:0.13255 15:1.3141 16:0.31055 17:-9.3221 18:-4.8645 19:0.74966 20:-1.6829 21:1.8615 22:2.6413 23:1.3925 24:0.35781 25:-0.42565 
-0.40475940026463825 1:4.1328 2:0.60277 3:0.1819 4:1.5384 5:0.55757 6:-0.22129 7:-3.5524 8:-3.5717 9:-2.8448 10:-2.6164 11:1.5109 12:-0.52134 13:1.0803 14:3.0892 15:1.67 16:2.7434 17:1.6271 18:-0.99397 19:-2.0978 20:-3.3236 21:-5.3456 22:-4.886 23:-0.23014 24:-0.9024 25:1.7926 
-0.3793892411312494 1:1.2647 2:0.81695 3:-1.1508 4:-0.97008 5:-3.7915 6:-5.3177 7:-4.5188 8:-1.2856 9:1.7432 10:0.78568 11:2.946 12:2.0615 13:2.4768 14:3.2328 15:2.1069 16:0.40973 17:-0.35073 18:-1.3887 19:-3.5356 20:-6.2095 21:-3.2259 22:-1.2931 23:-1.0335 24:0.37571 25:1.0334 
-0.41163125720735194 1:-2.9009 2:-0.41596 3:-3.1571 4:2.3417 5:-4.0598 6:-1.9851 7:-13.8433 8:-7.6825 9:-7.1233 10:-1.3335 11:0.50054 12:5.9584 13:4.9361 14:-0.69542 15:-0.6816 16:-1.581 17:-3.2785 18:-1.6894 19:2.1196 20:-4.0342 21:-7.746 22:-5.631 23:-6.3053 24:-4.8835 25:-1.9637 
-0.40003295021208585 1:8.2303 2:3.2917 3:-2.6898 4:-1.397 5:-1.1211 6:-1.5284 7:-0.55375 8:-1.3412 9:-1.5209 10:-1.5553 11:-1.7917 12:-1.5696 13:3.576 14:11.0638 15:5.3917 16:-3.7125 17:-1.5049 18:-1.8901 19:-1.6297 20:-3.2233 21:-3.0398 22:-2.4302 23:-1.8651 24:-3.3487 25:4.219 
-0.41158135236838395 1:10.7588 2:8.1796 3:1.1218 4:-1.3534 5:-2.4701 6:-1.7725 7:-2.0104 8:-3.5258 9:-4.3103 10:-3.4991 11:-3.521 12:0.21731 13:2.9469 14:6.4756 15:8.8135 16:8.209 17:0.9878 18:-1.165 19:-2.8257 20:-4.0838 21:-4.3247 22:-5.4034 23:-4.4322 24:-4.0088 25:5.3882 
-0.572919790245808 1:-2.1844 2:-2.8064 3:-3.5668 4:-3.9724 5:-2.5924 6:-1.2328 7:0.68703 8:0.8597 9:-0.93295 10:-0.75366 11:-0.53594 12:-0.38524 13:-2.2813 14:-0.52243 15:1.908 16:2.8258 17:2.1099 18:2.1217 19:2.4065 20:3.7127 21:3.2198 22:3.9174 23:0.57209 24:-2.3303 25:-1.3955 
-0.4112775900929559 1:-3.7043 2:-0.51662 3:3.496 4:4.474 5:4.0689 6:2.3638 7:2.5196 8:2.5253 9:3.0851 10:1.0653 11:-4.405 12:-7.6814 13:-8.9798 14:-11.3801 15:-1.7703 16:2.9288 17:4.8992 18:6.1938 19:4.1766 20:3.548 21:4.2054 22:5.1432 23:4.9766 24:4.6544 25:-2.525 
-0.3920619430479939 1:-3.2363 2:-1.9935 3:0.58474 4:2.0979 5:3.647 6:3.524 7:3.1744 8:1.941 9:1.5354 10:1.2607 11:3.4426 12:0.21756 13:-7.5859 14:-5.2706 15:-2.9198 16:-1.3201 17:0.94044 18:2.5425 19:3.0312 20:4.5504 21:5.599 22:4.9145 23:4.8131 24:2.3561 25:-6.802 
-0.4030747394935079 1:2.8168 2:2.6757 3:2.7826 4:3.034 5:3.5276 6:3.4444 7:2.9505 8:2.1203 9:1.0613 10:-4.2616 11:-6.6723 12:-6.4541 13:-2.966 14:1.9611 15:1.4618 16:1.715 17:1.8898 18:4.5461 19:4.6999 20:4.5292 21:4.5213 22:0.49266 23:-3.318 24:-6.7947 25:1.1879 
-0.37777602506230273 1:2.9795 2:1.9868 3:0.47847 4:-0.88752 5:-0.76148 6:-1.5847 7:1.0527 8:2.3159 9:-0.77797 10:-0.070381 11:-3.011 12:-6.5213 13:-4.6683 14:-2.0096 15:-4.7944 16:1.513 17:0.34435 18:-1.1584 19:-0.032457 20:1.4396 21:0.47549 22:1.954 23:3.5211 24:-1.0799 25:-2.2279 
-0.4118829191390941 1:0.14831 2:2.8393 3:2.1351 4:-0.046344 5:0.73397 6:-1.1054 7:-1.2681 8:-2.9108 9:-6.3192 10:-5.659 11:-6.5106 12:-1.9111 13:-2.1953 14:0.20791 15:3.4333 16:3.503 17:1.3617 18:-0.42125 19:-0.82897 20:-0.85945 21:-0.046238 22:-0.5905 23:-2.9394 24:-4.083 25:-1.2876 
-0.4064412530188016 1:-6.7318 2:-9.647 3:-6.2917 4:-0.62478 5:0.76906 6:2.1625 7:5.0995 8:5.4278 9:4.9172 10:4.5536 11:3.8506 12:4.4819 13:2.3236 14:-7.1326 15:-11.3309 16:-10.4512 17:-5.7704 18:-1.5406 19:3.5722 20:1.9915 21:4.2992 22:5.3941 23:5.2736 24:6.8609 25:-4.5577 
-0.41079037741957325 1:0.73513 2:0.6582 3:1.5336 4:3.5335 5:-0.18777 6:-9.1637 7:-5.8726 8:-8.6836 9:-4.7279 10:-0.82573 11:2.7409 12:3.2929 13:-0.95655 14:0.19548 15:2.5926 16:3.4532 17:2.6409 18:6.9123 19:-0.15817 20:-6.7315 21:-4.7439 22:-3.5421 23:-2.6076 24:3.931 25:0.11249 
-0.3912677154098968 1:-7.8993 2:-6.2662 3:-4.8607 4:-1.4181 5:2.213 6:2.3973 7:0.7426 8:2.4372 9:3.5476 10:4.2231 11:0.39901 12:1.3709 13:1.2821 14:-6.6654 15:-7.1108 16:-4.7149 17:-1.4933 18:2.8058 19:1.9717 20:4.4758 21:3.4115 22:1.7637 23:3.8 24:1.9363 25:-3.0989 
-0.77266113476124 1:-2.0352 2:-1.1021 3:-2.0566 4:-2.3525 5:2.3653 6:-1.4211 7:0.34318 8:-0.43972 9:-0.50042 10:2.556 11:-0.18402 12:-0.45886 13:-0.5478 14:-0.83326 15:-1.2856 16:-0.43222 17:1.1126 18:-1.605 19:2.3618 20:1.1269 21:-3.0729 22:-1.1285 23:0.19669 24:2.0676 25:-1.162 
-0.37943333012657 1:2.8053 2:2.1179 3:2.8466 4:0.94134 5:-2.8972 6:-4.9465 7:-5.441 8:-4.3131 9:-0.59422 10:1.1847 11:0.96663 12:2.052 13:2.705 14:2.7011 15:1.5418 16:2.0901 17:2.6625 18:1.5405 19:-2.6874 20:-5.1701 21:-5.3622 22:-3.3448 23:0.97241 24:-1.2538 25:2.7367 
-0.3825330468380799 1:7.5035 2:7.5287 3:4.6358 4:0.63362 5:-2.144 6:-1.8138 7:-0.045124 8:-2.0122 9:-1.7496 10:-1.6559 11:-2.4475 12:-3.1089 13:-2.1076 14:3.8643 15:4.1729 16:6.3974 17:2.0708 18:-0.95442 19:-1.6252 20:-1.6183 21:-0.52953 22:-0.58312 23:-1.8929 24:-0.73372 25:-2.2193 
-0.4184582304646988 1:1.3422 2:1.507 3:2.7058 4:3.0472 5:3.5494 6:1.7656 7:0.88204 8:1.2059 9:1.2676 10:0.86565 11:-1.5768 12:-4.5451 13:-4.756 14:2.5587 15:4.4693 16:-2.4868 17:6.0014 18:3.1716 19:0.31006 20:-0.38582 21:-0.66395 22:-0.4644 23:-1.0472 24:-2.4226 25:-1.2838 
-0.40831182715214737 1:-3.4223 2:1.8674 3:3.312 4:0.66685 5:0.61238 6:3.8363 7:3.0936 8:1.1555 9:1.6246 10:4.2608 11:-3.7046 12:-9.5129 13:-6.9875 14:-2.0134 15:-2.4565 16:-0.29081 17:2.6518 18:1.6417 19:1.4154 20:4.6933 21:2.7981 22:2.8643 23:2.9267 24:3.2207 25:-3.469 
-0.4031469286900821 1:3.7537 2:1.3202 3:-1.1526 4:-3.0879 5:-6.5987 6:-4.2906 7:-3.923 8:1.5812 9:3.6223 10:-0.661 11:1.1567 12:2.5076 13:1.9958 14:1.5572 15:3.2555 16:2.4839 17:-2.4401 18:-6.5143 19:-3.3027 20:-3.8077 21:1.3074 22:-0.30504 23:1.8209 24:0.83983 25:1.2077 
-0.4011258566998343 1:2.1963 2:2.0486 3:1.5731 4:5.5415 5:3.8883 6:2.6534 7:2.2895 8:4.375 9:-2.1232 10:-10.1011 11:-4.7679 12:-4.1088 13:-4.6314 14:-0.31427 15:1.81 16:2.0661 17:0.7066 18:5.4843 19:4.1203 20:2.6256 21:3.1692 22:3.4961 23:0.21757 24:-9.0638 25:-0.69488 
-0.41153547670451157 1:2.4848 2:2.6332 3:2.1525 4:2.529 5:1.3264 6:-1.0487 7:-1.8227 8:1.0161 9:-5.4631 10:-6.3899 11:-5.5635 12:0.15335 13:4.8741 14:-0.90801 15:5.0056 16:0.25879 17:2.486 18:-0.42989 19:0.6742 20:3.6707 21:0.11627 22:0.67657 23:0.53691 24:-6.2015 25:3.5412 
-0.4113743487790855 1:-1.5663 2:0.17017 3:1.232 4:1.2975 5:0.89843 6:0.77752 7:0.73036 8:-0.23807 9:0.32081 10:1.0429 11:0.89146 12:-0.84126 13:8.7981 14:-3.9009 15:2.6578 16:-0.83579 17:-3.3157 18:-2.9758 19:-6.3106 20:-6.1124 21:-2.7209 22:-2.4481 23:-6.1449 24:2.4631 25:-0.088474 
-0.4167745386118286 1:-2.2535 2:-1.6796 3:-2.7099 4:0.28529 5:-1.4146 6:-0.76398 7:-1.9533 8:-1.1944 9:-0.44383 10:-1.1481 11:-4.6558 12:-3.5929 13:8.732 14:2.6094 15:-1.8528 16:0.0076571 17:3.2372 18:3.2528 19:-0.42084 20:-1.7896 21:-0.54468 22:-2.0072 23:-0.85579 24:-0.34428 25:2.4426 
-0.41182297642398863 1:2.9946 2:3.7421 3:3.7575 4:4.5984 5:4.2178 6:3.7135 7:3.4619 8:-15.4778 9:-9.25 10:-3.5026 11:-0.19343 12:2.2592 13:2.6063 14:2.3599 15:4.1614 16:3.923 17:4.1104 18:6.2002 19:5.8239 20:3.1668 21:-6.3742 22:-13.7293 23:-8.0068 24:1.393 25:4.2164 
-0.3843274654059611 1:-6.0798 2:-4.0649 3:-0.83391 4:2.2997 5:1.6838 6:-0.015078 7:3.7098 8:4.215 9:1.1659 10:2.9866 11:5.3561 12:1.791 13:-8.6991 14:-8.1602 15:-6.6546 16:-0.25939 17:5.5841 18:0.12233 19:1.0894 20:2.3499 21:2.594 22:2.26 23:4.1179 24:2.8864 25:-6.9717 
-0.392172354800379 1:5.4835 2:0.52451 3:-2.3444 4:-0.53206 5:-0.81485 6:-1.6647 7:-1.2697 8:-0.3846 9:-1.4383 10:-1.4554 11:-2.1558 12:-2.8044 13:6.727 14:6.043 15:1.3883 16:-0.84662 17:-0.53589 18:-0.29063 19:-1.79 20:-2.0994 21:-1.385 22:-2.3257 23:-1.8166 24:-2.0382 25:5.485 
-0.40739840726186494 1:-0.40276 2:2.2987 3:3.621 4:3.707 5:-3.0395 6:-0.45229 7:0.0064457 8:-1.468 9:-1.9845 10:-4.3175 11:-1.792 12:-0.20804 13:-0.95429 14:-2.9854 15:-1.6924 16:5.6384 17:5.6967 18:-0.61851 19:0.26511 20:2.8448 21:-1.279 22:-2.0665 23:-1.6423 24:-3.5272 25:-2.8422 
-0.411194905827252 1:1.2919 2:-1.2505 3:4.2289 4:3.5268 5:-1.7969 6:-13.2003 7:-10.7364 8:-3.2578 9:0.68093 10:8.5028 11:1.8298 12:-0.73832 13:3.2038 14:2.863 15:3.2183 16:1.057 17:3.5784 18:4.4692 19:-12.0928 20:-9.3292 21:-1.2586 22:-7.4797 23:1.0618 24:2.0374 25:4.8703 
-0.4116831071473488 1:4.8805 2:3.3178 3:0.01964 4:-2.9668 5:-8.9086 6:-9.2323 7:-12.188 8:-8.4521 9:-5.0749 10:-4.1234 11:-0.75699 12:1.6048 13:1.1416 14:1.3729 15:0.80932 16:1.1854 17:1.9694 18:3.6618 19:1.5458 20:3.2193 21:4.5228 22:1.0363 23:-2.2325 24:-1.242 25:4.1102 
-0.4101041426433219 1:-1.1308 2:5.1303 3:5.0361 4:-0.09386 5:1.2583 6:2.6674 7:1.5844 8:-2.6411 9:-4.9263 10:-5.1122 11:-7.5122 12:-9.5177 13:-7.7797 14:-5.7777 15:-6.7746 16:-3.8685 17:-3.5711 18:0.0051661 19:0.43445 20:0.039909 21:-0.43758 22:1.4393 23:2.0045 24:1.5069 25:-0.18241 
-0.40890689712263484 1:-0.72652 2:-1.0112 3:-0.60247 4:-2.7168 5:-5.587 6:-4.0547 7:-2.3766 8:0.67272 9:-3.4641 10:-3.029 11:7.6686 12:6.0209 13:5.3267 14:0.25473 15:2.095 16:-0.21673 17:-1.9544 18:-1.5789 19:-3.1363 20:-4.7561 21:-2.2466 22:0.6086 23:-1.2709 24:-2.0734 25:-0.50263 
-0.38106306909099236 1:-3.5092 2:-2.7184 3:-0.71103 4:1.6966 5:1.3204 6:3.3305 7:2.2458 8:1.3519 9:1.0971 10:2.209 11:1.8972 12:-0.095986 13:-1.2166 14:-1.9223 15:-4.4273 16:-6.3046 17:-1.794 18:-1.3628 19:-1.5844 20:3.6694 21:2.7352 22:2.444 23:1.5211 24:0.59254 25:-1.3664 
-0.44493324760045316 1:-1.6785 2:-1.5985 3:-1.0415 4:-0.13356 5:4.1451 6:2.5932 7:-2.4099 8:-3.6423 9:-3.3427 10:-1.2884 11:-3.0474 12:-3.2756 13:-2.8956 14:-3.4908 15:-2.2888 16:-0.51601 17:1.4284 18:4.3391 19:1.2971 20:-0.043221 21:-1.4967 22:-3.1778 23:-3.0172 24:-0.77603 25:-1.6232 
-0.410887420543851 1:6.3193 2:4.2978 3:-1.5541 4:-5.9828 5:1.6601 6:-4.5913 7:-4.3669 8:-3.5661 9:3.8741 10:3.1445 11:0.67515 12:1.1289 13:0.030432 14:-0.059129 15:5.4593 16:3.4032 17:-0.7179 18:-3.454 19:-1.5056 20:-7.0159 21:-4.591 22:-2.7126 23:1.5978 24:3.4604 25:1.757 
-0.4100061590043188 1:-9.1181 2:-5.8095 3:-1.5567 4:0.43735 5:0.8721 6:1.9728 7:3.2182 8:2.1265 9:0.99891 10:-1.0933 11:-0.83014 12:-4.4758 13:-8.3759 14:-7.5673 15:-7.4772 16:-4.5384 17:-2.3432 18:1.8684 19:3.3532 20:-0.57399 21:2.8678 22:1.7526 23:-0.022362 24:-0.84622 25:-8.8333 
-0.4030641797942285 1:1.0107 2:-0.58085 3:0.19564 4:3.6794 5:3.0269 6:4.0265 7:2.4043 8:5.2241 9:0.44762 10:-8.8814 11:-7.5674 12:-3.851 13:-2.3902 14:-0.67538 15:1.6448 16:0.014921 17:1.5927 18:2.3762 19:3.8239 20:2.2947 21:1.5428 22:2.435 23:7.6406 24:-5.8919 25:2.5919 
-0.42412631979424514 1:-2.193 2:-2.1075 3:-5.9914 4:-7.2626 5:-5.3745 6:-1.6187 7:-2.9622 8:-3.5154 9:2.4048 10:0.3656 11:1.7683 12:2.2255 13:1.5505 14:-0.003337 15:-1.4531 16:-1.1645 17:-3.1536 18:-2.5029 19:-3.617 20:-2.7277 21:-0.51192 22:-2.1002 23:-0.53841 24:4.4976 25:-0.41747 
-0.41135477630661227 1:-0.43558 2:-4.1168 3:-7.5464 4:-4.0256 5:-1.6422 6:0.34857 7:3.1235 8:-0.32015 9:-3.0259 10:-3.6467 11:-5.1416 12:-5.8261 13:-0.60433 14:1.1271 15:0.93336 16:-1.8018 17:-5.0072 18:-9.6534 19:-7.3546 20:-5.4397 21:-2.9447 22:-3.5708 23:0.86297 24:0.88522 25:-2.8888 
-0.3527103570355847 1:-2.6218 2:-4.5192 3:-3.1011 4:-2.6423 5:-3.1585 6:0.56353 7:0.16189 8:0.98689 9:2.0459 10:2.6635 11:1.0329 12:1.2141 13:0.7207 14:0.94742 15:-1.0445 16:-2.3278 17:-7.909 18:-3.4883 19:-1.5361 20:-0.3928 21:-0.25921 22:-0.2174 23:2.0908 24:2.4696 25:-0.81986 
-0.40719977970963994 1:2.1 2:-5.7532 3:-4.6038 4:-2.1694 5:-0.036555 6:-3.0245 7:-0.96883 8:-0.2828 9:2.0896 10:2.6277 11:1.9879 12:2.2513 13:4.0184 14:6.6336 15:3.1473 16:-3.0385 17:-6.2532 18:-6.445 19:-3.9138 20:-0.93277 21:1.8358 22:-0.55281 23:1.8219 24:1.8651 25:3.138 
-0.40717343183599425 1:2.0702 2:2.2946 3:-0.036112 4:-4.4563 5:-4.91 6:-2.9287 7:-5.5136 8:-3.0916 9:0.81332 10:1.0422 11:2.6022 12:1.891 13:2.3678 14:4.7521 15:3.7608 16:1.8516 17:-2.2499 18:-10.4318 19:-6.3492 20:1.5202 21:1.3802 22:0.92212 23:1.8749 24:4.3477 25:1.6541 
-0.4150041819309874 1:0.80488 2:3.0452 3:5.4041 4:4.1436 5:-8.2684 6:-2.0971 7:0.33402 8:-2.4754 9:0.29181 10:0.41648 11:0.29701 12:2.6735 13:-2.0979 14:-4.6936 15:-4.5888 16:-2.0815 17:-1.8222 18:1.5063 19:2.2366 20:-0.85052 21:-1.9415 22:-0.48751 23:0.10562 24:1.8804 25:1.0823 
-0.40256423175860023 1:-3.4457 2:-3.9897 3:0.55537 4:1.8981 5:3.7797 6:4.6853 7:3.4239 8:6.782 9:4.5848 10:5.1965 11:2.8486 12:-3.9943 13:-8.3536 14:-7.3029 15:-3.2597 16:-1.5677 17:1.2809 18:1.9161 19:2.2947 20:4.9766 21:4.0132 22:5.0548 23:6.5536 24:5.6022 25:-3.7677 
-0.39048419479763224 1:-2.3731 2:-4.2435 3:-3.7096 4:-2.0863 5:-3.3522 6:1.1182 7:1.8546 8:6.1877 9:5.9308 10:1.3335 11:0.68463 12:0.89875 13:-0.94856 14:-1.9683 15:-0.3521 16:-0.91737 17:-3.186 18:-3.2782 19:-1.9862 20:-0.6103 21:2.1276 22:4.8535 23:3.7041 24:0.52558 25:-1.5729 
-0.40893050864903874 1:-1.9725 2:-0.80627 3:1.6593 4:-0.42369 5:-0.78023 6:3.6128 7:0.35158 8:-0.87936 9:2.1571 10:4.6003 11:1.1445 12:-4.5456 13:0.011653 14:-5.6668 15:-5.2509 16:-1.6218 17:-0.35145 18:1.6892 19:-1.7216 20:3.3735 21:-0.39433 22:2.0994 23:0.39492 24:9.3578 25:-4.0045 
-0.3326791686928669 1:-5.4486 2:-2.8881 3:2.6932 4:1.6604 5:1.3366 6:3.0077 7:2.2077 8:2.9675 9:1.5071 10:1.4659 11:0.027066 12:-0.089961 13:-1.5803 14:-3.9473 15:-7.0496 16:-7.3417 17:-0.56647 18:0.93755 19:1.0536 20:2.9399 21:2.7097 22:2.1608 23:1.4617 24:1.0757 25:-3.9995 
-0.4845770667642721 1:-2.7468 2:-0.60099 3:1.1234 4:3.8718 5:0.4369 6:-3.1065 7:2.3253 8:3.6831 9:0.56477 10:-0.725 11:-0.97058 12:-2.3056 13:-2.1152 14:-2.0159 15:0.38549 16:0.30077 17:-0.10663 18:0.93998 19:-0.05874 20:-1.4992 21:4.1294 22:1.6173 23:0.27289 24:-0.86211 25:-1.4578 
-0.41177617995872545 1:0.94281 2:3.4044 3:0.48064 4:-3.012 5:-5.3105 6:-5.9409 7:-6.2128 8:-1.5074 9:-2.4623 10:1.4754 11:-0.22724 12:-3.5488 13:-3.8408 14:-1.5993 15:-0.15579 16:6.4075 17:0.5459 18:-0.0042019 19:-3.378 20:-7.2529 21:-9.1163 22:-6.5212 23:-2.8952 24:-1.1017 25:-2.9526 
-0.44116979625992475 1:0.63223 2:2.6355 3:-1.1859 4:0.39177 5:2.5166 6:-1.3026 7:-1.2412 8:2.7728 9:-2.3433 10:-1.9048 11:0.54787 12:-0.22565 13:0.96301 14:-1.1391 15:0.8672 16:6.8133 17:-4.9465 18:3.1032 19:-0.54292 20:0.60819 21:-2.4615 22:-0.14384 23:-1.9175 24:-1.4512 25:-0.8815 
-0.4117837148347459 1:2.0427 2:2.4327 3:1.735 4:-1.0687 5:-0.25678 6:1.6832 7:-6.2066 8:-9.0159 9:-5.7838 10:3.8726 11:-0.25992 12:-1.1084 13:2.5538 14:1.4301 15:1.6816 16:3.7776 17:2.1592 18:-0.87686 19:1.7872 20:0.67995 21:-12.4282 22:-8.9125 23:2.7724 24:-2.6976 25:2.8813 
-0.4106552925533782 1:3.3094 2:1.9105 3:1.217 4:-2.069 5:-3.9348 6:-7.3068 7:-3.4876 8:-5.212 9:-2.2164 10:2.2306 11:4.277 12:4.8796 13:3.7898 14:3.9149 15:4.2346 16:3.4268 17:0.96584 18:-7.5315 19:-6.3703 20:-7.009 21:-1.156 22:0.90435 23:3.6839 24:2.9217 25:5.6085 
-0.3610736465291068 1:-0.39868 2:-2.3519 3:-1.0424 4:-2.5382 5:-2.6435 6:-2.5912 7:-3.7768 8:0.54959 9:6.5868 10:7.1423 11:3.2456 12:-0.12591 13:-0.33334 14:0.13505 15:-0.25031 16:-1.5316 17:-1.2548 18:-2.6015 19:-2.2436 20:-4.1244 21:-3.0765 22:4.0496 23:4.8063 24:6.3868 25:-0.4819 
-0.4076430083254223 1:-1.3754 2:-4.3974 3:-2.9335 4:-0.17773 5:1.7726 6:1.6569 7:-2.6246 8:0.68261 9:0.66294 10:2.8492 11:3.1806 12:-1.5499 13:-1.7386 14:-2.3555 15:-3.4845 16:-3.1955 17:-0.82793 18:-0.79707 19:-1.3377 20:6.1963 21:5.2424 22:2.5643 23:-2.1467 24:2.6043 25:-0.24491 
-0.4032389753923402 1:1.4558 2:0.8983 3:1.0293 4:0.72376 5:0.84809 6:3.0154 7:2.9386 8:1.4831 9:-5.0375 10:-7.6946 11:-7.6368 12:-1.9303 13:4.0152 14:1.7848 15:1.3927 16:0.24567 17:1.0613 18:2.0436 19:1.612 20:2.4192 21:1.318 22:-0.56517 23:-10.3883 24:-7.5186 25:1.4169 
-0.3770954958775446 1:-0.42686 2:-1.1235 3:-1.6801 4:-2.0787 5:-3.0935 6:-2.781 7:-2.744 8:-2.5612 9:0.20553 10:5.8372 11:7.7448 12:2.8445 13:1.1567 14:-0.11176 15:-1.1667 16:-2.3261 17:-3.9402 18:-1.5315 19:-1.3442 20:-4.0149 21:-1.8424 22:2.182 23:2.7038 24:4.179 25:-0.82881 
-0.4271954540174934 1:1.36 2:-0.65928 3:-1.0686 4:3.1209 5:0.36345 6:-1.2362 7:2.373 8:-2.0911 9:0.097805 10:3.3683 11:-0.72764 12:-2.7842 13:6.7135 14:-2.0936 15:0.13751 16:-1.1088 17:0.51407 18:1.183 19:-1.84 20:-1.7934 21:-4.2142 22:-0.41526 23:-4.4338 24:0.04969 25:0.59052 
-0.399598327204323 1:2.5235 2:2.9624 3:2.0021 4:3.5748 5:2.7652 6:0.8111 7:-3.3921 8:-4.4788 9:-8.2902 10:-2.8156 11:-2.927 12:1.0444 13:-0.68629 14:1.8226 15:1.062 16:1.5087 17:1.7268 18:2.0154 19:2.7599 20:1.6314 21:-2.1495 22:-5.1907 23:-6.5849 24:-3.638 25:2.1023 
-0.408109301238213 1:-8.0601 2:-10.1111 3:-4.6003 4:-1.4337 5:0.58855 6:1.8439 7:3.8694 8:3.8823 9:3.754 10:3.335 11:4.1647 12:3.9103 13:1.7072 14:-0.11979 15:-5.3977 16:-8.3045 17:-8.9802 18:-1.4871 19:1.7503 20:3.2783 21:4.4777 22:5.1488 23:4.9372 24:4.1283 25:1.3436 
-0.4068720974058711 1:-1.6598 2:-2.8452 3:-2.0377 4:3.0275 5:5.0731 6:5.6688 7:2.1495 8:-0.83155 9:-2.063 10:-0.59679 11:-2.8112 12:-2.6275 13:-2.0825 14:-2.8661 15:-3.336 16:-3.4692 17:3.7344 18:5.7633 19:6.7963 20:7.0459 21:2.7389 22:-2.5247 23:-1.7398 24:-2.5409 25:-2.1086 
-0.4109009161034526 1:2.3628 2:-12.149 3:-12.0802 4:-8.3879 5:-3.1344 6:0.86296 7:4.0416 8:4.1194 9:3.1392 10:4.1752 11:4.646 12:3.729 13:2.4628 14:0.13581 15:-5.7347 16:-14.173 17:-9.8606 18:-5.9351 19:-0.97075 20:2.838 21:2.7996 22:3.5523 23:3.9273 24:5.1069 25:2.569 
-0.3868057847449735 1:-1.5811 2:-1.8577 3:1.0825 4:7.9971 5:7.0397 6:4.0862 7:0.73818 8:-1.0399 9:-1.9073 10:-1.1975 11:-2.3993 12:-3.5477 13:-2.7885 14:-4.1207 15:-2.3595 16:-0.43324 17:1.4192 18:8.4755 19:8.4009 20:1.8799 21:-1.6106 22:-1.9339 23:-2.1683 24:-2.356 25:-4.0953 
-0.4106531865415194 1:0.53122 2:-11.7165 3:-5.5038 4:-6.5479 5:-1.0083 6:4.9064 7:1.1462 8:1.8308 9:4.013 10:3.3454 11:2.3866 12:2.0084 13:5.6279 14:6.0538 15:-2.6046 16:-13.8571 17:-8.3379 18:-5.299 19:-1.2622 20:3.749 21:1.5008 22:1.4528 23:3.8323 24:5.2978 25:4.9423 
-0.45834377940013754 1:0.86676 2:-0.066762 3:0.22075 4:0.50811 5:0.56218 6:1.1676 7:1.9763 8:-0.34023 9:-5.6395 10:-3.424 11:-4.5759 12:-2.0216 13:0.90593 14:1.4372 15:1.0141 16:0.44293 17:0.68791 18:0.24725 19:-0.33699 20:1.0954 21:1.211 22:-1.2155 23:-6.2607 24:-2.2478 25:2.3345 
-0.4118276757417407 1:0.35897 2:0.90102 3:-2.8594 4:-12.9339 5:-4.3337 6:3.1356 7:0.73388 8:-0.14151 9:2.1724 10:2.6433 11:1.7559 12:1.3506 13:1.5787 14:0.79703 15:-3.7081 16:1.2519 17:-7.4359 18:-12.8242 19:2.0333 20:1.3126 21:-2.6168 22:1.6811 23:1.3853 24:0.54375 25:-1.0089 
-0.403323038957071 1:0.6424 2:0.43953 3:1.0888 4:2.9434 5:6.8048 6:1.7815 7:-0.82866 8:-2.7373 9:-3.4448 10:-4.4172 11:-5.3482 12:0.040137 13:2.4472 14:-0.10994 15:1.6933 16:1.6138 17:3.4284 18:5.1165 19:3.9964 20:2.1596 21:-2.5318 22:-2.4866 23:-3.9491 24:-2.8599 25:0.65686 
-0.3786954426748985 1:0.63825 2:1.5209 3:0.55732 4:0.60262 5:0.33408 6:0.62317 7:-0.17069 8:1.7029 9:2.1885 10:0.18796 11:-3.5706 12:-4.1281 13:-4.9611 14:-3.4539 15:0.40949 16:1.6604 17:0.83753 18:2.0048 19:1.6603 20:0.56149 21:1.5074 22:0.84648 23:2.8589 24:-0.47873 25:-4.8232 
-0.40481201341281303 1:-1.1788 2:0.43914 3:2.582 4:3.6602 5:0.53578 6:-2.5274 7:-4.3895 8:-5.6758 9:-2.1476 10:-2.4437 11:1.9537 12:2.8077 13:3.6149 14:1.2666 15:-0.5813 16:0.74881 17:1.8961 18:1.8083 19:-0.36392 20:-3.5292 21:-4.9869 22:-3.7622 23:-4.0273 24:0.20959 25:-1.0131 
-0.3979001745991435 1:1.8518 2:0.60852 3:0.69478 4:-0.22867 5:-1.8745 6:-1.4178 7:-3.609 8:-3.0568 9:-0.9974 10:0.36649 11:0.57277 12:3.9934 13:-1.1056 14:2.5212 15:3.8741 16:-0.53463 17:-4.6577 18:-5.3078 19:-3.7561 20:-3.9672 21:-2.8637 22:-2.8869 23:-0.45443 24:0.8938 25:-1.8705 
-0.4060275405967491 1:1.7022 2:1.4352 3:1.215 4:2.9007 5:2.2988 6:1.4904 7:3.6554 8:3.2731 9:5.8357 10:-3.6716 11:-5.5289 12:-3.3529 13:-3.1411 14:-4.9376 15:-0.428 16:0.43673 17:0.22654 18:0.13453 19:0.54598 20:0.21895 21:0.36986 22:1.7069 23:3.292 24:4.5188 25:-0.082788 
-0.42049956618109285 1:-4.8807 2:5.3942 3:1.7389 4:2.2835 5:1.7749 6:4.8348 7:-5.2754 8:2.3269 9:-4.0597 10:-1.6178 11:-1.5886 12:-3.0105 13:-0.23644 14:0.13984 15:1.3009 16:-0.53613 17:-2.3648 18:-0.51787 19:2.3558 20:0.99128 21:0.039565 22:-0.92215 23:-1.2553 24:-1.7676 25:-0.67125 
-0.4115719766300323 1:-4.7821 2:-2.7097 3:-3.856 4:-3.7526 5:-2.011 6:0.66433 7:-0.90441 8:-3.9689 9:1.0318 10:2.7883 11:1.6417 12:0.20835 13:1.6744 14:4.4543 15:3.797 16:-6.9155 17:1.1578 18:-3.1822 19:-4.2855 20:-0.52725 21:-0.85827 22:-2.5095 23:-1.5598 24:0.44925 25:2.8984 
-0.41213394941380455 1:-3.4007 2:1.3147 3:-6.5644 4:-4.9752 5:-2.5235 6:-0.14718 7:2.3489 8:-1.2156 9:-1.4945 10:0.55736 11:0.79898 12:-0.1116 13:2.2595 14:6.4939 15:-3.2221 16:-1.2992 17:1.8759 18:-4.0472 19:-5.6957 20:-4.3294 21:0.056432 22:1.4857 23:2.3408 24:0.39501 25:-1.2718 
-0.4109052866424306 1:1.4309 2:-2.0857 3:-9.8957 4:-4.254 5:-0.2642 6:0.36245 7:-5.2256 8:-4.2182 9:1.1007 10:2.5655 11:4.1259 12:4.1165 13:4.0871 14:5.5237 15:4.2578 16:4.2839 17:1.411 18:-0.55888 19:-8.1906 20:-7.6292 21:-1.609 22:-3.9065 23:-2.4395 24:-1.4485 25:3.688 
-0.4109953015359833 1:4.6302 2:3.8964 3:2.9163 4:3.682 5:-9.2521 6:-10.0672 7:-1.8559 8:-4.1244 9:-0.83639 10:3.1433 11:2.7563 12:3.9688 13:5.5442 14:4.1064 15:4.1951 16:2.751 17:2.0719 18:0.46158 19:-10.0292 20:-8.6343 21:-6.0602 22:0.36441 23:3.1668 24:2.7605 25:2.3094 
-0.48533353857928246 1:-2.2645 2:2.2527 3:0.70623 4:-1.6631 5:1.2838 6:2.3614 7:1.8932 8:0.74372 9:0.75967 10:0.16907 11:-0.45144 12:-0.91863 13:-2.6171 14:-3.7311 15:-2.0655 16:-3.233 17:1.6648 18:0.85724 19:2.0846 20:2.1093 21:1.9654 22:1.0719 23:-0.18619 24:-1.6543 25:-2.5502 
-0.4265564360794856 1:-1.3239 2:-2.1563 3:-0.5565 4:0.18029 5:-2.3301 6:0.090393 7:-0.060655 8:1.6865 9:3.5081 10:5.1026 11:5.6174 12:0.48238 13:-3.0973 14:-2.1212 15:-4.3573 16:-1.3013 17:-1.1513 18:-1.5539 19:0.016404 20:-0.85315 21:-0.54394 22:-0.69207 23:2.0121 24:2.3065 25:-0.96977 
-0.4088655795136875 1:-0.75498 2:-4.596 3:-5.2637 4:-5.8661 5:-9.6731 6:-2.6527 7:1.0211 8:-0.73066 9:1.297 10:2.0822 11:2.2704 12:1.5381 13:3.212 14:3.6067 15:-1.5578 16:-4.7222 17:-3.5258 18:0.61427 19:-2.7795 20:-2.6546 21:-0.19412 22:1.6926 23:3.1818 24:2.0379 25:3.2385 
-0.402749663353792 1:-0.81987 2:-2.094 3:-1.8556 4:-2.7009 5:-2.8225 6:-1.6529 7:-2.3139 8:-4.5565 9:-4.0358 10:4.3597 11:5.8762 12:6.3797 13:3.0915 14:1.7793 15:-0.22105 16:-1.8151 17:-1.9224 18:-1.5148 19:-2.549 20:-4.1226 21:-3.6364 22:-3.5059 23:-0.13077 24:3.8641 25:0.58714 
-0.39993460171916945 1:-1.4876 2:2.6348 3:6.5556 4:7.6039 5:4.3948 6:-1.4297 7:-1.2968 8:-1.0589 9:-0.83533 10:-2.2192 11:-2.3044 12:-3.0561 13:-4.9335 14:-1.8537 15:5.522 16:7.5669 17:4.6986 18:2.7037 19:-0.81059 20:-0.44849 21:-2.0455 22:-2.3473 23:-3.1379 24:-4.2732 25:-4.082 
-0.4145929037680616 1:5.1294 2:-1.6724 3:3.1996 4:0.53548 5:-7.1558 6:-1.6437 7:-0.78057 8:-0.94034 9:0.61377 10:0.1298 11:0.20504 12:2.0615 13:1.7609 14:5.1616 15:-5.0301 16:0.3656 17:0.34501 18:0.8975 19:1.2477 20:3.4363 21:-3.1963 22:-0.84603 23:-0.80049 24:-0.67833 25:2.4261 
-0.3927444302622354 1:-5.3164 2:-7.0459 3:-2.7074 4:0.47641 5:2.9995 6:4.3933 7:3.8396 8:3.6579 9:3.4363 10:2.8234 11:2.0902 12:0.23009 13:0.18199 14:-9.556 15:-7.309 16:-2.5187 17:-1.9863 18:0.24411 19:1.9788 20:1.5967 21:3.1684 22:3.4203 23:3.4209 24:2.9452 25:-7.9892 
-0.4115478831915139 1:0.31232 2:-0.20527 3:-1.8826 4:-4.2798 5:-11.1064 6:-8.8738 7:-6.6135 8:-0.12004 9:0.53961 10:-2.1951 11:0.32109 12:5.3223 13:3.0653 14:-0.30525 15:0.1073 16:1.6662 17:-1.6753 18:-2.1747 19:-3.6075 20:-11.2225 21:-6.7299 22:-4.1932 23:-0.71761 24:-4.272 25:1.9175 
-0.4406892923626317 1:0.58742 2:-1.884 3:3.056 4:1.0721 5:-1.0949 6:1.6917 7:2.4352 8:1.6181 9:-4.5866 10:0.090439 11:-1.11 12:-2.5553 13:-0.14502 14:0.45519 15:3.7447 16:0.78348 17:0.15135 18:0.5363 19:1.3198 20:-0.043866 21:4.0663 22:4.672 23:-1.4197 24:0.070312 25:2.7 
-0.41112606381598343 1:0.4867 2:4.2662 3:8.776 4:1.8203 5:-11.0068 6:-6.1556 7:-3.3371 8:-2.7434 9:2.047 10:1.4254 11:2.2587 12:4.0336 13:4.6731 14:3.4635 15:2.953 16:2.8646 17:5.9497 18:-9.3545 19:-9.8545 20:-5.3611 21:-2.7131 22:-0.61392 23:2.6281 24:1.8417 25:2.6662 
-0.396043799502314 1:-7.1725 2:-5.8116 3:-5.4239 4:-3.2255 5:-0.68229 6:1.9971 7:1.4217 8:1.92 9:3.9967 10:5.0622 11:3.582 12:1.4224 13:2.4633 14:-3.5772 15:-8.4492 16:-7.4118 17:-2.9925 18:-1.319 19:0.83199 20:3.137 21:3.9446 22:5.078 23:5.6712 24:6.2275 25:-2.6002 
-0.41179247464064195 1:-3.2764 2:-3.9347 3:-1.515 4:-0.8768 5:0.55187 6:0.28572 7:-1.7144 8:-1.6416 9:0.38355 10:1.1598 11:1.9683 12:1.8063 13:2.8795 14:2.9904 15:3.0042 16:3.6495 17:3.1875 18:5.4307 19:5.3687 20:3.5373 21:-1.3651 22:-5.1903 23:-8.7994 24:-14.8817 25:-2.3424 
-0.41288951991540845 1:2.9309 2:-2.7244 3:-2.7477 4:-3.1048 5:-4.9968 6:-2.193 7:0.47301 8:1.3703 9:-0.69604 10:-0.53145 11:2.069 12:1.0438 13:-1.0147 14:0.15054 15:6.1458 16:-0.18053 17:-4.1625 18:2.2778 19:2.1322 20:-4.9384 21:-2.2789 22:-1.4397 23:-1.0316 24:0.41937 25:7.6292 
-0.4111105470095652 1:0.88736 2:-4.2471 3:0.74809 4:-2.2934 5:-9.1128 6:-5.7805 7:1.7078 8:-0.40245 9:0.72272 10:4.1642 11:1.9977 12:0.53579 13:1.7081 14:0.99581 15:0.68535 16:-2.0475 17:-6.4047 18:-8.4275 19:-9.7442 20:-5.6354 21:-4.7093 22:1.7906 23:-1.0453 24:1.5981 25:0.60195 
-0.4104207731195726 1:-0.85697 2:-1.6093 3:-1.5903 4:-1.214 5:-4.5316 6:-4.0858 7:1.3429 8:2.0512 9:0.5401 10:0.3499 11:1.5976 12:0.55877 13:-0.43611 14:5.2946 15:-0.87627 16:-2.4651 17:-7.5248 18:-0.71108 19:-2.9087 20:-3.7255 21:0.2029 22:0.49812 23:0.23012 24:1.4383 25:0.60013 
-0.37016695096539887 1:-1.908 2:-4.0385 3:-3.2955 4:-1.6588 5:-1.5488 6:-2.847 7:-0.71674 8:2.294 9:2.6388 10:2.184 11:1.4781 12:0.1962 13:-0.499 14:-1.5406 15:-3.8925 16:-6.3468 17:-5.0583 18:-2.1417 19:0.5066 20:1.3592 21:-1.259 22:0.84176 23:2.9985 24:3.1308 25:-1.4143 
-0.41188158766609084 1:-0.12066 2:-2.2864 3:-0.42011 4:1.4011 5:1.678 6:2.8301 7:1.1997 8:3.475 9:-0.40095 10:-0.67244 11:3.9291 12:3.5346 13:-13.6364 14:2.0067 15:1.1062 16:-2.7874 17:-2.4735 18:-0.21372 19:-1.8204 20:-2.9912 21:3.2573 22:-1.21 23:0.58526 24:-3.0944 25:3.213 
-0.4095016880806525 1:2.1795 2:2.3279 3:1.653 4:1.6268 5:3.5782 6:3.9305 7:2.6846 8:3.3628 9:4.8139 10:-4.0674 11:-8.6053 12:-4.9406 13:-6.9479 14:-2.912 15:4.6443 16:1.7187 17:-0.66447 18:2.3374 19:3.8021 20:2.3051 21:3.5339 22:5.6606 23:0.070685 24:-4.0948 25:-5.5062 
-0.41930681844824447 1:-2.4628 2:-1.1107 3:-3.1027 4:-1.1097 5:-5.1002 6:0.78051 7:2.7672 8:2.114 9:0.95761 10:-1.7668 11:1.1648 12:2.83 13:-1.3257 14:-1.7178 15:-2.082 16:-1.8034 17:-0.77295 18:-4.855 19:-0.90451 20:4.1649 21:3.2846 22:4.2861 23:-0.81907 24:0.49773 25:-1.8575 
-0.4069234392732011 1:1.9094 2:4.2001 3:2.4674 4:2.1014 5:3.8836 6:2.9488 7:-3.3137 8:-8.2223 9:-6.4041 10:-6.5299 11:0.3493 12:4.5642 13:3.0688 14:2.678 15:3.7305 16:2.8998 17:1.3964 18:1.3833 19:2.0735 20:1.7294 21:-1.5303 22:-9.1236 23:-5.9785 24:-7.1393 25:2.4583 
-0.41196944008840236 1:-0.40523 2:-0.84593 3:0.068032 4:5.2652 5:1.9255 6:-4.7216 7:-1.4416 8:-2.0395 9:-6.3528 10:-3.9573 11:0.92159 12:-0.41568 13:0.94111 14:0.29821 15:1.2059 16:0.46792 17:-1.1047 18:1.0579 19:2.4977 20:1.9095 21:-7.7366 22:-3.0901 23:0.16036 24:-3.3782 25:1.7085 
-0.41116907342376025 1:5.3928 2:2.9346 3:1.3839 4:5.5632 5:3.6187 6:1.1923 7:-1.7876 8:-4.001 9:0.22937 10:-0.31919 11:-7.2391 12:-1.9634 13:-0.028149 14:0.80045 15:0.24154 16:1.8355 17:0.43896 18:2.178 19:4.0702 20:4.5571 21:0.72761 22:-2.6445 23:0.23714 24:-3.074 25:-2.6509 
-0.40966226484010615 1:-4.7374 2:-0.776 3:-0.029325 4:1.5373 5:2.5178 6:0.87996 7:1.0676 8:0.18162 9:0.54461 10:4.7939 11:2.2225 12:-2.5472 13:0.69934 14:-6.0938 15:-5.4952 16:-0.93143 17:2.1131 18:2.9519 19:2.3738 20:-0.91828 21:0.096988 22:2.2809 23:-0.75559 24:3.6961 25:-8.2677 
-0.402837426512713 1:1.4689 2:0.80442 3:1.6064 4:1.5085 5:1.8751 6:2.7386 7:3.0166 8:0.10005 9:-3.6317 10:-8.0129 11:-6.4118 12:-6.268 13:-2.2439 14:-1.3163 15:-0.28068 16:0.63343 17:2.171 18:1.0892 19:1.0133 20:1.1216 21:1.1542 22:6.0629 23:1.0567 24:-7.3112 25:0.84235 
-0.4197938023903422 1:-2.5487 2:-4.8605 3:-1.9989 4:5.6149 5:2.0058 6:0.85343 7:2.6848 8:4.49 9:0.1361 10:-1.3828 11:-4.8568 12:-3.2303 13:0.66121 14:-0.33481 15:-0.38934 16:1.001 17:2.0779 18:2.0586 19:1.5428 20:-2.2409 21:2.0034 22:-1.9465 23:-1.4166 24:-1.7681 25:-2.4437 
-0.4252611719412125 1:1.5816 2:1.6317 3:0.61525 4:0.024491 5:0.023939 6:4.3438 7:-2.5754 8:-1.1907 9:4.5805 10:-6.7238 11:-3.1064 12:-2.8371 13:-1.5757 14:0.20393 15:0.17011 16:1.2793 17:1.5707 18:0.76503 19:-0.010119 20:2.4908 21:2.7122 22:2.5138 23:-1.9142 24:2.1313 25:1.4772 
-0.41066377178947006 1:4.7083 2:3.6838 3:4.1559 4:4.6863 5:4.074 6:1.8716 7:0.94582 8:-1.7104 9:-7.1504 10:-9.2105 11:-5.0286 12:-2.4682 13:0.11754 14:2.6627 15:2.8475 16:3.7647 17:3.7991 18:4.4319 19:3.2453 20:4.7602 21:4.0262 22:-4.6823 23:-6.5281 24:-4.7944 25:4.6043 
-0.45310594085780576 1:0.75081 2:0.85089 3:0.76116 4:-0.78242 5:-0.62595 6:0.48585 7:0.49182 8:4.0541 9:-2.9082 10:2.2171 11:-0.37043 12:-4.3967 13:-3.4122 14:0.54596 15:0.38882 16:-0.27074 17:0.88391 18:0.41209 19:-0.12778 20:0.23392 21:0.34941 22:3.9943 23:2.498 24:-3.3126 25:0.37193 
-0.4116655350181843 1:1.9081 2:6.1059 3:4.167 4:3.4422 5:3.8909 6:2.3642 7:2.1833 8:1.9614 9:1.3836 10:3.6521 11:2.8025 12:2.031 13:-0.59581 14:-2.1756 15:-7.6265 16:-12.0074 17:-6.7075 18:0.047911 19:0.90725 20:1.827 21:2.9165 22:3.3276 23:3.6024 24:2.6353 25:1.1091 
-0.3838838514173274 1:-1.9681 2:-2.1981 3:-0.69365 4:0.50808 5:0.19669 6:-2.2141 7:-3.4541 8:3.02 9:7.2877 10:5.3374 11:2.6925 12:-1.6674 13:-1.4596 14:-0.7644 15:-1.5234 16:-2.6676 17:-2.015 18:-1.2227 19:-1.8415 20:-3.2516 21:-3.4954 22:5.0413 23:8.3103 24:5.4024 25:-3.7353 
-0.41791767386100503 1:-0.15498 2:0.03978 3:3.0483 4:0.94729 5:0.071703 6:0.81344 7:3.8211 8:1.2266 9:-5.6019 10:-0.19666 11:-1.7545 12:-2.4012 13:-0.48594 14:-0.02729 15:1.8635 16:3.2581 17:-1.8989 18:0.55392 19:-1.0385 20:1.3454 21:2.8677 22:3.5087 23:2.7046 24:-2.0114 25:3.4959 
-0.4081041988411343 1:-10.1232 2:-4.1331 3:-2.1154 4:-1.0245 5:0.70552 6:0.30694 7:2.6131 8:3.4555 9:2.6459 10:2.3794 11:4.0309 12:3.4705 13:-0.18919 14:-12.2428 15:-9.1945 16:0.063085 17:-0.13008 18:-0.94147 19:1.8803 20:0.95613 21:1.3173 22:-0.034954 23:0.29046 24:0.55288 25:-7.6161 
-0.41140540879110926 1:0.13643 2:5.2794 3:1.3096 4:0.94838 5:3.8514 6:5.9046 7:6.2773 8:5.265 9:2.0161 10:-2.8383 11:-2.4754 12:-3.0759 13:-9.0975 14:-5.6356 15:4.9679 16:2.1633 17:3.2043 18:1.7614 19:2.1558 20:2.9903 21:5.3671 22:7.5762 23:4.8721 24:-1.7197 25:0.02598 
-0.3946270357821021 1:1.9048 2:1.0566 3:1.1041 4:1.1155 5:0.22926 6:-4.3864 7:-6.3167 8:0.73454 9:-1.8944 10:-0.032751 11:3.0076 12:3.1025 13:1.0679 14:1.9216 15:3.8412 16:0.51177 17:-1.7014 18:-0.018613 19:-0.65733 20:-6.0363 21:-4.1841 22:1.4585 23:-2.5326 24:-0.15268 25:0.17261 
-0.3809651396782875 1:5.1838 2:6.7539 3:5.165 4:0.73603 5:-1.7118 6:-0.47869 7:-1.6999 8:-2.3996 9:-3.0612 10:-1.7721 11:-1.5139 12:-3.7208 13:-4.3927 14:1.2426 15:5.6895 16:8.4418 17:5.0753 18:1.0236 19:-1.3507 20:-0.47104 21:-0.5863 22:-2.8957 23:-4.2489 24:-2.381 25:-0.36776 
-0.41057050071171464 1:2.5595 2:4.5172 3:0.98106 4:-1.9581 5:-10.7207 6:-5.0074 7:-2.9776 8:-1.0663 9:0.53829 10:0.78512 11:-0.79525 12:-0.088662 13:-0.31083 14:0.63488 15:0.93333 16:3.0134 17:6.2552 18:1.9523 19:-3.6058 20:-4.8951 21:-3.7292 22:-0.49148 23:0.73203 24:0.99755 25:1.7867 
-0.5583533499342325 1:3.316 2:0.97302 3:-2.4536 4:-2.5232 5:-2.5649 6:-1.1618 7:-0.98678 8:1.1171 9:0.77423 10:-0.671 11:0.0019151 12:-0.84478 13:-0.53324 14:1.4523 15:2.931 16:-0.26256 17:-1.2772 18:-0.70928 19:-1.2542 20:-1.1345 21:-2.9781 22:-3.4964 23:2.3563 24:1.2906 25:-1.619 
-0.40474285486495326 1:3.5331 2:2.7526 3:2.0987 4:1.1733 5:-1.3592 6:-5.0743 7:-6.98 8:-2.9941 9:-4.3017 10:1.3564 11:6.1138 12:2.1078 13:3.989 14:4.0069 15:3.6829 16:3.6834 17:2.3648 18:0.86205 19:-1.7355 20:-4.9364 21:-9.5288 22:-5.1807 23:-3.9351 24:0.98109 25:2.9124 
-0.5157839283718328 1:-1.0009 2:3.7253 3:1.9038 4:1.4021 5:0.46348 6:-0.45307 7:0.7444 8:0.43684 9:-3.1146 10:-0.73574 11:-3.4707 12:-3.4532 13:-0.70143 14:-0.47103 15:-2.2333 16:3.052 17:4.1614 18:2.5989 19:0.47825 20:-0.42124 21:-0.70022 22:-0.14123 23:-1.9811 24:-2.3201 25:-0.19162 
-0.39130883961698204 1:-3.013 2:-0.67175 3:-5.2652 4:-2.2181 5:-0.40302 6:-0.81601 7:2.2017 8:6.6518 9:3.611 10:1.8222 11:-0.07966 12:-0.39223 13:0.17624 14:-1.3156 15:-3.2508 16:-5.8768 17:-4.3342 18:-6.9362 19:-1.6897 20:-0.43336 21:-0.39725 22:2.171 23:4.3581 24:1.972 25:-0.5462 
-0.4047462080142821 1:2.4318 2:1.6682 3:2.1095 4:1.6984 5:3.7309 6:1.0827 7:2.2912 8:4.9102 9:5.2981 10:-8.2349 11:-9.7339 12:-8.4947 13:-1.7856 14:-0.54517 15:2.4821 16:2.5016 17:2.0858 18:2.6059 19:2.7007 20:2.0626 21:0.24984 22:2.2787 23:3.2186 24:-4.363 25:0.555 
-0.4103237539096286 1:4.2502 2:1.3923 3:1.2032 4:-0.48905 5:-3.6036 6:-7.3013 7:-6.3114 8:-2.5749 9:2.7814 10:1.8996 11:5.2118 12:4.8111 13:4.3718 14:2.7114 15:2.3162 16:-1.7678 17:-7.232 18:-9.304 19:-8.2551 20:-5.043 21:2.2346 22:1.7228 23:2.6874 24:5.6507 25:4.0667 
-0.3486363183577317 1:-4.689 2:-2.391 3:1.7002 4:-0.21398 5:0.52529 6:4.0341 7:3.0767 8:2.0838 9:1.7184 10:2.3575 11:0.46039 12:-0.1614 13:-2.5472 14:-6.72 15:-5.067 16:-1.8771 17:1.9116 18:-0.43059 19:1.2102 20:5.018 21:2.8481 22:1.6809 23:1.6899 24:0.9637 25:-6.1169 
-0.3968656410872968 1:-3.8957 2:4.8007 3:6.1582 4:5.5867 5:1.313 6:0.15836 7:-0.68285 8:-4.0375 9:-1.4177 10:-1.7402 11:-2.3135 12:-2.2181 13:-4.5726 14:-2.1027 15:2.023 16:3.9955 17:6.5735 18:3.759 19:0.82039 20:-1.1086 21:-1.79 22:-1.0141 23:-1.6881 24:-0.62865 25:-3.0886 
-0.4101136551253474 1:-3.6752 2:-7.2327 3:-8.0627 4:-3.9865 5:-2.61 6:-3.1319 7:1.9815 8:2.4348 9:-0.062916 10:-0.36842 11:5.5715 12:3.8309 13:0.55139 14:3.0643 15:6.1477 16:-0.69157 17:-8.0658 18:-6.7586 19:-3.2248 20:-1.1089 21:0.48952 22:0.11503 23:0.018513 24:0.84391 25:2.3278 
-0.4095712996392234 1:1.1142 2:-1.2066 3:-3.6892 4:-1.6834 5:0.62792 6:-1.2578 7:3.6184 8:3.1991 9:4.3095 10:6.009 11:3.7284 12:-1.8246 13:-10.0677 14:-2.919 15:-5.3601 16:-3.3296 17:-3.7268 18:-1.531 19:-1.1741 20:1.0364 21:-1.061 22:0.71964 23:5.6876 24:4.6543 25:-1.4191 
-0.5668789788968742 1:1.9078 2:-0.99379 3:2.3805 4:2.5781 5:1.2307 6:1.2717 7:0.35983 8:-0.41101 9:-1.6782 10:-2.1591 11:-3.5593 12:-5.6116 13:-3.6087 14:0.47043 15:0.087464 16:0.20328 17:2.0695 18:3.3506 19:1.839 20:1.5291 21:1.0786 22:0.78786 23:-0.25767 24:-1.088 25:1.0809 
-0.41054864392236984 1:-3.7916 2:-2.6654 3:0.57975 4:-2.3193 5:-0.52665 6:-3.3629 7:-4.8687 8:-3.0259 9:3.9774 10:4.2052 11:1.415 12:0.033093 13:-1.2165 14:-1.6419 15:-1.1248 16:-0.0052348 17:3.3258 18:-2.7873 19:0.97405 20:-4.2505 21:-3.266 22:1.508 23:4.0979 24:1.3614 25:-0.40315 
-0.39637363958466854 1:0.70661 2:-1.6607 3:0.46268 4:-0.26736 5:-0.35763 6:-1.2258 7:-0.44167 8:-1.6179 9:-3.9696 10:-1.97 11:1.7456 12:4.1705 13:3.5936 14:1.8405 15:-0.75004 16:-0.015399 17:-0.69454 18:-0.90703 19:-1.8383 20:-0.35229 21:-2.0145 22:-2.7836 23:-1.8695 24:-0.19419 25:5.574 
-0.3589237084615869 1:-2.6994 2:-4.8015 3:-5.1096 4:-5.5318 5:-4.4773 6:0.50849 7:-2.6365 8:2.5799 9:3.4225 10:2.2187 11:1.8405 12:1.4277 13:0.61349 14:-0.28781 15:-1.0137 16:-4.2997 17:-6.6546 18:-5.0985 19:-0.28684 20:0.39192 21:-0.34553 22:2.5493 23:5.6189 24:1.4511 25:-0.9725 
-0.4056934946294081 1:-0.46258 2:-1.9289 3:-1.323 4:-2.4049 5:-7.0674 6:-4.2229 7:4.4437 8:3.9858 9:4.5809 10:-0.15962 11:-2.5273 12:0.82575 13:0.079325 14:-0.82415 15:-2.4284 16:-0.99877 17:-0.43078 18:-2.624 19:-2.761 20:-1.4971 21:4.4373 22:6.397 23:4.025 24:-0.23001 25:-1.9651 
-0.41716832418224675 1:2.4945 2:-1.1034 3:6.1959 4:2.2108 5:2.0555 6:-0.85318 7:-2.4197 8:-3.4766 9:-0.79286 10:-3.1441 11:-1.7837 12:1.5383 13:-0.74238 14:-0.38752 15:2.3134 16:0.26932 17:4.2448 18:1.738 19:4.1913 20:-1.6598 21:-2.3817 22:-2.8475 23:-5.0226 24:-2.8932 25:-0.71576 
-0.37506428805993186 1:-0.94332 2:-0.89832 3:-0.95401 4:0.040284 5:-0.68111 6:-2.0274 7:-5.8175 8:-3.3273 9:2.9602 10:7.2906 11:6.8137 12:3.1007 13:-0.5373 14:-1.3796 15:-0.76401 16:-0.083657 17:-2.3059 18:-2.4856 19:-1.656 20:-4.1364 21:-4.4975 22:3.2871 23:4.5684 24:8.085 25:-1.1364 
-0.41009702326185266 1:-1.0359 2:-1.2471 3:-4.2252 4:-4.8193 5:0.17619 6:-3.7916 7:1.3062 8:10.5266 9:5.2922 10:0.51476 11:0.029723 12:-0.73845 13:-1.2302 14:-2.6589 15:-3.4637 16:-1.7598 17:-2.6742 18:-2.8661 19:-0.12528 20:2.9608 21:7.4422 22:3.4062 23:0.53583 24:0.3299 25:-1.7773 
