svm_type c_svc
kernel_type rbf
gamma 0.04
nr_class 2
total_sv 259
rho 0.6114865308741109
label 1 0
nr_sv 88 171
SV
1.0 1:-0.71318 2:-0.6703 3:-0.20161 4:1.823 5:0.83824 6:2.6553 7:1.8974 8:-0.51994 9:-2.053 10:-1.5309 11:-1.9761 12:-3.5559 13:-0.77268 14:0.576 15:2.727 16:1.449 17:1.073 18:-0.23818 19:-0.13951 20:0.012781 21:-0.24927 22:-0.3158 23:-0.4186 24:-0.28331 25:-0.21156 
1.0 1:4.6621 2:0.57344 3:-2.2051 4:-3.2723 5:-2.1018 6:-0.23543 7:0.30725 8:-1.0741 9:-0.60141 10:-0.37025 11:0.061618 12:1.2603 13:1.2438 14:1.5861 15:-0.23579 16:-5.874 17:-5.2436 18:-5.6194 19:-4.2097 20:-0.52445 21:2.2065 22:2.8798 23:3.4379 24:0.85767 25:9.6393 
1.0 1:-3.4285 2:-3.969 3:-2.5229 4:-0.40438 5:-0.4078 6:-1.3821 7:-1.3954 8:-2.9933 9:-2.3004 10:-0.9784 11:-1.963 12:-1.4282 13:1.5917 14:0.39969 15:0.12019 16:-0.31765 17:-0.62456 18:-2.3623 19:-3.1599 20:-1.6446 21:-2.1296 22:-2.1633 23:1.3375 24:0.010961 25:-4.7861 
1.0 1:0.86705 2:-7.4944 3:-19.8796 4:-12.133 5:-6.1852 6:-2.9761 7:-1.5819 8:-2.1901 9:0.40248 10:3.1305 11:2.0187 12:2.02 13:5.1928 14:5.2907 15:4.3934 16:4.4725 17:4.4675 18:3.9839 19:3.584 20:2.7127 21:1.5344 22:-0.20885 23:-1.3807 24:-2.3352 25:4.6671 
0.3365936793217522 1:-0.24602 2:-0.36384 3:-0.81202 4:-1.167 5:-1.0013 6:-0.68817 7:-0.15346 8:-0.21337 9:0.0066704 10:-0.46901 11:0.0071692 12:-0.14262 13:0.28686 14:-0.21757 15:-0.68376 16:-0.98462 17:-0.70215 18:-1.0097 19:-1.403 20:-1.8731 21:-0.52583 22:-0.84097 23:-3.3439 24:-2.6352 25:-0.29393 
1.0 1:1.7799 2:-0.13921 3:0.46111 4:0.87797 5:5.0587 6:4.2143 7:2.4081 8:2.6934 9:3.0004 10:1.8882 11:1.313 12:0.020589 13:-0.74885 14:-1.9117 15:-3.2438 16:-3.2874 17:-2.1864 18:-0.88356 19:0.22115 20:0.55848 21:0.32073 22:0.021177 23:0.35453 24:0.01105 25:1.4586 
0.23256792036804713 1:-0.69774 2:-0.50292 3:0.29756 4:0.50381 5:0.85733 6:1.0495 7:0.99625 8:1.0859 9:1.2624 10:1.3717 11:1.5521 12:1.9197 13:1.336 14:1.7956 15:2.2272 16:1.3404 17:1.1128 18:0.6129 19:-0.054819 20:0.07893 21:2.1328 22:1.9023 23:-0.36323 24:-1.7033 25:-0.79979 
0.47555216098474257 1:2.3399 2:2.4854 3:2.855 4:2.5365 5:2.1304 6:1.799 7:1.9701 8:1.4691 9:1.7075 10:1.8528 11:1.4073 12:0.9235 13:1.6465 14:1.7428 15:2.0137 16:1.6812 17:1.2065 18:0.47339 19:0.055991 20:0.21103 21:-0.13149 22:-0.2307 23:0.0050461 24:0.07325 25:1.7063 
1.0 1:1.0111 2:-4.3387 3:-3.4074 4:-1.2235 5:-3.7394 6:-5.8174 7:-2.7371 8:-3.2285 9:-4.5546 10:-4.9827 11:-4.0398 12:-2.0956 13:-0.43542 14:0.053098 15:-0.10162 16:0.53137 17:1.1518 18:2.1467 19:2.404 20:2.2751 21:2.6983 22:3.1308 23:2.6022 24:2.102 25:1.764 
1.0 1:2.8353 2:4.9756 3:9.0616 4:13.7114 5:8.1098 6:4.0138 7:0.31936 8:-1.6756 9:0.11233 10:-1.5119 11:0.90505 12:-0.9664 13:-0.74829 14:-3.7782 15:-4.9598 16:-3.784 17:-1.2568 18:2.1509 19:2.7805 20:4.1551 21:3.8922 22:3.3854 23:3.5118 24:3.3858 25:1.6819 
0.4886090185183708 1:-1.2174 2:-2.2545 3:-3.36 4:-3.6358 5:-4.0304 6:-4.1571 7:-3.2987 8:-2.3959 9:-2.0672 10:-0.9696 11:-0.025221 12:-1.3503 13:-1.3989 14:-0.74532 15:-0.73067 16:-0.46189 17:-0.3452 18:-0.18799 19:-0.019055 20:0.058752 21:0.03838 22:0.081233 23:0.09528 24:0.087271 25:-0.60267 
1.0 1:-2.1603 2:0.51839 3:-3.2673 4:-1.2358 5:-3.8186 6:-4.0049 7:-4.7059 8:-4.925 9:-3.6245 10:-2.2427 11:-2.1207 12:0.082259 13:2.8356 14:1.5346 15:0.49346 16:-0.20903 17:0.21135 18:0.26373 19:-0.22052 20:-1.0688 21:-0.19291 22:-1.0207 23:-0.32555 24:0.52983 25:-2.7928 
1.0 1:3.1159 2:4.7802 3:1.3333 4:-2.0437 5:-2.4975 6:1.0147 7:-3.1014 8:2.2184 9:2.4081 10:-2.6691 11:-6.9749 12:-6.9631 13:-6.3869 14:-4.0987 15:-3.437 16:-0.21665 17:-4.1674 18:-2.8355 19:-1.048 20:-0.99516 21:-4.352 22:-9.4475 23:-3.9408 24:-1.9033 25:1.7904 
1.0 1:-7.5234 2:-7.1492 3:-3.1459 4:-0.73015 5:-3.0408 6:-1.877 7:-1.6675 8:-4.4106 9:-7.5053 10:-6.0156 11:-8.2887 12:-1.8005 13:-0.83019 14:-1.651 15:-1.185 16:-0.087402 17:0.94956 18:2.1226 19:1.3726 20:0.16239 21:-0.92445 22:-0.26822 23:1.0225 24:0.28755 25:-7.6493 
1.0 1:-1.1928 2:0.69719 3:10.3309 4:3.4678 5:1.7307 6:0.26554 7:-0.34252 8:-0.43856 9:0.028009 10:0.3187 11:0.80219 12:1.0792 13:1.22 14:1.1316 15:1.5768 16:1.2832 17:0.74911 18:0.84835 19:1.5862 20:0.4591 21:0.84557 22:0.81475 23:0.41529 24:0.18685 25:-5.3316 
1.0 1:2.8139 2:3.4064 3:2.2229 4:-1.6881 5:-4.6674 6:-3.3401 7:-0.71467 8:0.82432 9:4.6232 10:-1.4613 11:-7.0789 12:-7.4371 13:-8.8656 14:-5.3053 15:-2.8937 16:-2.4168 17:-4.3419 18:-2.8827 19:-2.4343 20:-3.9345 21:-3.0847 22:-1.2022 23:-4.086 24:-7.7241 25:-0.47227 
0.41612391107404284 1:-1.1586 2:-1.0866 3:-0.63891 4:-0.88291 5:-0.27231 6:1.6863 7:2.466 8:2.0116 9:2.5094 10:2.3732 11:1.7452 12:1.8324 13:0.62084 14:0.42523 15:0.84439 16:0.71874 17:-0.42609 18:0.53341 19:-0.19252 20:0.19402 21:0.47222 22:0.11377 23:0.031956 24:-0.15319 25:-1.8983 
1.0 1:-2.6072 2:-5.3919 3:-4.6428 4:-0.8096 5:-0.18337 6:-1.0473 7:2.1654 8:0.41656 9:-4.1705 10:-6.4888 11:-6.498 12:-3.2758 13:-0.86533 14:-1.0303 15:-1.6347 16:-1.5324 17:-1.6149 18:-2.7429 19:-5.9226 20:-5.9109 21:-12.0692 22:-7.8767 23:-4.8993 24:-2.7321 25:-1.6234 
1.0 1:2.0508 2:0.67224 3:-0.25078 4:-0.27199 5:-1.2361 6:-0.14914 7:0.99098 8:1.8275 9:2.4054 10:4.1852 11:2.6208 12:2.4808 13:3.8233 14:2.2383 15:2.7209 16:-0.48518 17:-0.47719 18:-0.80366 19:-1.4422 20:-2.7726 21:-0.0058502 22:-1.0548 23:3.1974 24:2.2259 25:2.0189 
1.0 1:-1.4929 2:-2.7374 3:-3.2097 4:-5.6901 5:-6.4933 6:-6.58 7:-8.732 8:-6.691 9:-2.7063 10:-1.3801 11:-0.021411 12:1.7087 13:2.174 14:3.3683 15:3.783 16:3.9644 17:3.1063 18:2.4265 19:1.3497 20:1.3667 21:0.46868 22:0.39165 23:1.0475 24:1.0477 25:-1.0713 
0.5233698342579841 1:0.23949 2:-0.68095 3:-0.61921 4:0.25167 5:2.3018 6:3.3702 7:3.903 8:3.8398 9:1.6877 10:0.52497 11:0.38499 12:0.63744 13:0.71 14:0.077707 15:0.016659 16:0.26637 17:0.85033 18:0.52953 19:0.13926 20:0.87766 21:0.67477 22:0.27489 23:-0.048104 24:0.28171 25:0.70587 
0.1740775717709188 1:0.058594 2:-0.053037 3:-0.05101 4:-0.078492 5:0.025238 6:0.43571 7:0.36013 8:0.80862 9:0.89089 10:1.2345 11:0.486 12:0.24343 13:0.093171 14:1.0618 15:0.88812 16:2.8115 17:1.6177 18:2.8681 19:2.5291 20:2.2736 21:1.2821 22:0.89608 23:0.89793 24:-0.90803 25:0.12289 
1.0 1:-5.1735 2:-3.1895 3:-1.5757 4:0.19787 5:1.7589 6:2.6595 7:2.5782 8:2.4057 9:2.5514 10:2.6585 11:2.1281 12:1.23 13:0.74165 14:0.63039 15:0.23437 16:0.10076 17:0.66612 18:0.58091 19:0.4194 20:0.30977 21:0.10001 22:0.49798 23:-0.034301 24:0.098611 25:-7.0296 
0.6326607423544717 1:0.016925 2:-1.1409 3:-0.41047 4:0.97215 5:0.050259 6:2.1968 7:0.44732 8:1.0299 9:1.5998 10:1.5946 11:0.53123 12:0.055835 13:0.043388 14:0.13212 15:0.34564 16:0.0022754 17:1.076 18:1.5648 19:1.9521 20:2.2768 21:1.6979 22:2.3235 23:1.7804 24:0.6717 25:-0.2801 
1.0 1:3.5797 2:3.2187 3:2.1281 4:3.3159 5:6.0495 6:5.3805 7:5.1862 8:3.8549 9:0.91816 10:-0.24499 11:3.5344 12:2.2448 13:1.1688 14:0.50539 15:0.3244 16:0.31508 17:0.081164 18:0.25558 19:0.09267 20:0.13732 21:0.22143 22:0.11573 23:-0.015752 24:-0.26538 25:0.56622 
1.0 1:3.4261 2:4.6098 3:2.2416 4:0.40684 5:-0.015738 6:0.038416 7:-0.62631 8:-1.467 9:-2.0842 10:-2.3586 11:-2.0993 12:-1.8274 13:-1.3878 14:-0.94267 15:-0.46402 16:-0.34338 17:-0.12525 18:0.018001 19:0.20786 20:0.33618 21:-0.029396 22:-0.30041 23:-0.31394 24:-0.5494 25:3.0854 
1.0 1:-0.15853 2:-0.091909 3:-0.14509 4:-0.13675 5:-0.092325 6:-0.26952 7:-0.20714 8:0.15935 9:-0.55624 10:-0.37069 11:-0.59349 12:0.6703 13:1.0035 14:0.44826 15:-1.0551 16:-3.0152 17:-2.4806 18:-1.7515 19:-0.42722 20:3.7019 21:5.0761 22:3.303 23:4.5417 24:2.4203 25:0.83349 
0.6764688193253385 1:0.0063965 2:0.75882 3:1.8459 4:2.2745 5:1.1238 6:0.12426 7:0.40639 8:-0.62416 9:-1.6986 10:-2.3357 11:-2.0423 12:-1.1858 13:-0.31943 14:0.038669 15:0.84045 16:-0.90057 17:3.0825 18:0.51447 19:-0.36764 20:0.097486 21:-0.0054326 22:0.71404 23:0.85044 24:0.14057 25:-0.20196 
1.0 1:0.42487 2:1.0248 3:1.4262 4:2.0543 5:4.6785 6:3.7596 7:-0.0070048 8:0.8809 9:0.92272 10:1.581 11:4.0897 12:4.9869 13:5.9762 14:2.9324 15:1.0391 16:0.31676 17:-1.1789 18:-0.4929 19:-2.1531 20:-3.6493 21:-2.8544 22:-1.9743 23:-1.2685 24:-0.62436 25:-2.1663 
1.0 1:2.7729 2:2.8254 3:2.2366 4:2.2226 5:2.0909 6:1.6288 7:1.5437 8:1.5436 9:2.4265 10:2.6912 11:2.7247 12:1.6871 13:4.9518 14:3.3426 15:0.56758 16:0.22956 17:-0.23182 18:0.95125 19:0.03468 20:-1.7244 21:-5.7153 22:-9.9899 23:-13.5136 24:-6.2857 25:2.5595 
0.8955053341660746 1:-1.4207 2:-1.9412 3:-2.2844 4:-2.651 5:-3.3003 6:-3.0443 7:-3.1188 8:-3.5828 9:-3.5534 10:-3.8624 11:-2.9587 12:-2.2715 13:-2.1073 14:-1.9494 15:-1.7191 16:-1.8299 17:-1.5173 18:-1.1119 19:-1.1958 20:-0.85088 21:-0.64414 22:-0.29274 23:-0.083717 24:-0.21691 25:-1.107 
0.9010798094514212 1:-2.1652 2:-3.7534 3:-4.4446 4:-4.1937 5:-4.1911 6:-3.2583 7:-1.4845 8:-0.52215 9:-0.19896 10:-0.5107 11:-0.014058 12:0.52609 13:0.77542 14:0.68145 15:0.46066 16:-0.042552 17:0.05591 18:-0.006946 19:-0.11817 20:-0.070337 21:-0.04914 22:-0.30003 23:-0.062308 24:0.28597 25:-1.4569 
1.0 1:0.082109 2:-1.0202 3:0.69334 4:-0.25629 5:1.0663 6:0.1992 7:7.3271 8:2.8632 9:1.924 10:-3.9591 11:-4.2376 12:-5.0016 13:-6.1448 14:-6.9756 15:-6.4616 16:-3.4084 17:-1.3991 18:-2.098 19:0.4041 20:-0.36591 21:-0.57246 22:-0.20816 23:-0.16291 24:-0.91468 25:0.17769 
1.0 1:0.13011 2:-0.3171 3:5.4786 4:1.967 5:-1.5444 6:-0.079368 7:-0.52733 8:-0.63958 9:-1.2575 10:-0.41355 11:-1.7653 12:-1.2464 13:-0.47687 14:-1.2817 15:-0.40874 16:0.56421 17:-0.14802 18:-0.27174 19:0.46508 20:-0.44933 21:-0.3059 22:0.73072 23:1.8051 24:-1.1083 25:2.2187 
1.0 1:-0.048761 2:0.13305 3:0.76177 4:-0.18259 5:-0.15256 6:1.8211 7:2.977 8:1.0179 9:3.2286 10:0.1616 11:-3.0136 12:-3.0306 13:-3.2967 14:-3.6538 15:-4.418 16:-3.5944 17:-4.2156 18:-3.0273 19:-2.0065 20:-1.7614 21:-1.4125 22:-0.096913 23:-0.4927 24:0.29099 25:0.1371 
0.09951012602535426 1:-0.2289 2:-0.010395 3:0.067894 4:0.1469 5:0.044264 6:0.39473 7:1.2781 8:1.2219 9:0.59697 10:-0.28538 11:0.39309 12:0.6267 13:1.9674 14:0.97099 15:0.7182 16:0.60039 17:-1.9271 18:-1.0788 19:-0.34906 20:0.23702 21:0.21204 22:-0.083692 23:2.0694 24:0.73144 25:-0.44373 
1.0 1:-2.5016 2:-0.4117 3:0.04681 4:0.12527 5:-0.368 6:-0.99342 7:-1.1239 8:-0.92764 9:-0.45099 10:-0.70941 11:0.2609 12:0.070177 13:1.3852 14:-0.40808 15:0.035039 16:2.0827 17:-2.4853 18:1.9521 19:1.3781 20:-2.4378 21:3.4268 22:2.6836 23:-3.6423 24:-0.22958 25:3.0099 
1.0 1:-1.7 2:0.36193 3:1.9723 4:-0.66317 5:2.4321 6:1.9604 7:-3.3799 8:-4.0881 9:-1.5834 10:-0.91072 11:-2.4099 12:-3.3829 13:-2.7839 14:-2.6112 15:-1.1654 16:-0.88062 17:-1.902 18:-1.5219 19:-0.89529 20:0.036407 21:1.0786 22:-0.016782 23:0.078499 24:2.1297 25:2.2465 
8.676194010563497E-4 1:1.0972 2:-0.067771 3:-0.31422 4:0.019794 5:-0.51869 6:-0.336 7:-0.10416 8:0.71197 9:1.8921 10:0.49221 11:0.76512 12:0.14841 13:0.73269 14:0.16461 15:1.0354 16:2.5359 17:1.5645 18:2.5536 19:0.59309 20:0.96344 21:0.6951 22:1.562 23:0.19366 24:0.81109 25:0.35184 
1.0 1:-10.3539 2:-7.6804 3:-3.0393 4:-0.093 5:-0.052211 6:-0.080479 7:-1.8618 8:3.8837 9:-0.52712 10:0.66328 11:0.95366 12:-1.5484 13:-4.3992 14:-2.9347 15:-3.4252 16:-4.0807 17:-3.9593 18:-4.0565 19:-4.4941 20:-2.8671 21:-1.2819 22:-1.8096 23:-1.1331 24:-0.8906 25:-5.5463 
0.006076975854533213 1:-1.5662 2:-1.9405 3:-1.9034 4:-0.95624 5:-1.4431 6:-0.82293 7:-0.48661 8:-0.36819 9:-0.56962 10:-0.45374 11:-1.4129 12:-2.0393 13:-1.1896 14:-0.73336 15:-1.0153 16:-0.90595 17:0.30235 18:-0.22597 19:-0.28953 20:0.39197 21:1.8489 22:1.3563 23:0.20981 24:0.090539 25:-1.6633 
1.0 1:-11.2265 2:-8.6465 3:-8.8034 4:-10.1881 5:-2.2568 6:0.026011 7:0.79416 8:0.33041 9:0.16236 10:-1.2555 11:2.2445 12:0.41808 13:1.1994 14:1.5318 15:-0.10964 16:-1.5086 17:-4.252 18:-4.0757 19:-2.3359 20:-2.2663 21:-3.0482 22:-3.0513 23:-2.7687 24:-2.6111 25:-10.8301 
1.0 1:-1.6571 2:-1.0235 3:0.088888 4:0.29271 5:0.81009 6:0.30542 7:0.080913 8:0.3271 9:0.12743 10:0.53317 11:0.82231 12:-0.070874 13:-1.2614 14:0.35318 15:4.2789 16:4.0892 17:-2.2818 18:-0.085457 19:2.8526 20:-1.4894 21:-0.22825 22:-4.7007 23:0.89171 24:0.84779 25:-0.78137 
1.0 1:-8.9194 2:-5.7424 3:-4.0052 4:-2.0994 5:-1.0824 6:-0.64771 7:-0.28925 8:-0.033672 9:-1.4811 10:-1.049 11:-1.2498 12:-0.84576 13:-2.5392 14:-3.0167 15:-2.7676 16:-3.2617 17:-1.218 18:-0.34241 19:-1.3726 20:-1.627 21:-1.3672 22:-2.2545 23:-2.9646 24:-1.2209 25:-11.1301 
1.0 1:0.98341 2:1.9023 3:3.4736 4:2.986 5:3.2615 6:3.2468 7:1.2523 8:0.57589 9:-0.88455 10:-3.5524 11:-4.5277 12:-3.6384 13:-3.5984 14:-4.1171 15:-6.1553 16:-5.0917 17:-3.947 18:-4.2767 19:-2.9837 20:-2.3863 21:-2.363 22:-0.73063 23:0.63955 24:-1.5764 25:2.2696 
0.15833929518759204 1:1.4844 2:1.0438 3:1.1505 4:0.79313 5:0.15642 6:-0.37652 7:-0.68417 8:0.60304 9:0.49829 10:1.4219 11:1.1852 12:-0.53042 13:-0.6678 14:0.46791 15:0.76891 16:0.50835 17:0.98881 18:0.29297 19:0.70193 20:0.5345 21:1.3162 22:1.4161 23:0.9054 24:1.9504 25:1.7166 
1.0 1:0.039793 2:0.059507 3:-0.0055903 4:0.2792 5:1.0859 6:1.3262 7:1.4012 8:2.1711 9:2.781 10:3.1273 11:3.5406 12:3.2368 13:3.159 14:2.9588 15:3.0766 16:3.1385 17:2.8752 18:2.4324 19:2.6307 20:2.4128 21:2.8423 22:2.5721 23:2.7669 24:2.3104 25:-0.18051 
0.8598914465363132 1:1.2253 2:1.9506 3:3.1118 4:3.1726 5:2.3592 6:1.872 7:0.61931 8:-0.89 9:-0.98847 10:-0.74076 11:-1.2721 12:-1.3257 13:-1.4661 14:-1.7798 15:-2.382 16:-3.6956 17:-3.4221 18:-2.6911 19:-2.5616 20:-2.4261 21:-1.5371 22:-1.1869 23:-0.53451 24:0.049573 25:0.18807 
0.9380645957818804 1:-0.25711 2:-0.33381 3:1.6225 4:0.49111 5:0.5565 6:0.95605 7:1.7 8:-1.3321 9:-3.4211 10:-2.9859 11:-4.0573 12:-3.5292 13:-2.9892 14:-3.549 15:-3.1285 16:-2.9399 17:-3.7299 18:-3.9736 19:-3.3623 20:-1.9471 21:-0.44634 22:0.72194 23:0.73961 24:-0.24566 25:-0.37892 
0.3243906974886754 1:2.1661 2:2.3815 3:1.6767 4:1.2293 5:1.378 6:0.73869 7:-0.062912 8:0.25944 9:-0.08237 10:-0.34171 11:-0.13421 12:-1.4703 13:-1.6868 14:-1.7115 15:-1.4871 16:-1.0618 17:-0.55784 18:-0.36471 19:0.042877 20:-0.52094 21:-0.66166 22:0.27918 23:1.8766 24:0.6529 25:-1.0103 
0.3741651391569569 1:1.064 2:-0.7747 3:-1.943 4:-1.375 5:-1.2562 6:-2.1592 7:-1.6671 8:-1.8057 9:-2.362 10:-2.5998 11:-2.3142 12:-1.6829 13:-0.55856 14:0.23958 15:0.52518 16:0.73207 17:0.10217 18:-0.46458 19:-0.56361 20:-0.54672 21:-0.2804 22:-0.46295 23:-0.88706 24:-1.2085 25:1.8181 
0.1474075533425004 1:0.36657 2:0.18456 3:-0.029426 4:-0.15327 5:-0.32065 6:-0.25816 7:-0.46109 8:-0.54301 9:-0.51144 10:-0.59472 11:-0.022224 12:0.57518 13:1.4028 14:0.58842 15:-0.33284 16:-0.95708 17:-0.24068 18:-0.2995 19:-0.49803 20:-2.01 21:-2.8068 22:1.7605 23:0.75461 24:-0.57719 25:-0.14195 
0.5282731512178432 1:0.19262 2:-2.2709 3:-1.0577 4:-3.4465 5:-3.4629 6:-2.7378 7:-2.6856 8:-1.1258 9:-0.24695 10:0.049553 11:0.20319 12:0.050832 13:0.10249 14:0.26222 15:0.32403 16:0.35558 17:0.13024 18:-0.095959 19:-0.20669 20:-0.46674 21:-0.87147 22:-1.1296 23:-0.80144 24:-1.1105 25:0.63617 
1.0 1:-3.9612 2:-3.4533 3:-2.9643 4:-2.034 5:-1.0661 6:-0.95359 7:-1.0956 8:-0.72699 9:-0.29041 10:-0.49629 11:-0.85362 12:-1.0058 13:-0.51699 14:-0.21009 15:-0.10353 16:0.47041 17:0.72915 18:1.0861 19:1.4288 20:1.9516 21:2.547 22:2.1634 23:2.4579 24:1.5064 25:-4.0953 
0.8342778699506606 1:-2.8107 2:-3.713 3:-2.7117 4:0.38585 5:-0.35819 6:-0.55666 7:-0.32091 8:-0.16232 9:-0.15797 10:0.12026 11:0.44647 12:1.0801 13:1.7559 14:2.7518 15:2.0516 16:0.76377 17:0.05118 18:-0.8856 19:1.5179 20:-0.08969 21:-1.4159 22:0.1609 23:0.95768 24:-0.48546 25:-2.9396 
1.0 1:-5.4062 2:-5.8114 3:-6.9448 4:-8.9487 5:-6.662 6:-9.2316 7:-5.7007 8:-4.5962 9:-1.8852 10:0.015967 11:-0.58228 12:-0.71172 13:-0.69686 14:-0.47338 15:0.17481 16:-0.63674 17:0.096179 18:0.013175 19:-0.81082 20:-3.4075 21:-4.6717 22:-4.0899 23:-4.164 24:-3.8721 25:-1.8199 
0.7374089991087287 1:0.33038 2:0.43455 3:0.71444 4:0.11163 5:-1.0126 6:-0.073479 7:-1.2512 8:2.6703 9:0.79825 10:-0.87214 11:0.5771 12:-0.31565 13:-0.77788 14:-0.83596 15:-1.7411 16:-1.1188 17:-0.749 18:0.60958 19:0.07498 20:-0.98719 21:-1.0504 22:-1.6979 23:-0.33425 24:2.0428 25:-0.20831 
0.2292814643543955 1:-2.2868 2:-2.74 3:-1.7046 4:-0.89478 5:-0.12311 6:-0.15657 7:-0.50291 8:0.01627 9:0.54659 10:-0.14647 11:-1.2446 12:-0.078278 13:0.86601 14:0.59159 15:0.46919 16:2.414 17:1.6453 18:0.086213 19:-0.44847 20:0.080258 21:1.3012 22:1.6481 23:1.5343 24:0.33231 25:-2.3262 
0.28855744243928066 1:-0.95346 2:-0.89591 3:-1.0468 4:-1.0239 5:-0.88236 6:-1.0439 7:-0.72586 8:-0.87963 9:-1.043 10:-1.5057 11:-1.2455 12:-0.76828 13:-0.55497 14:-0.007963 15:0.85526 16:1.1872 17:2.2395 18:1.6608 19:0.94357 20:0.55108 21:-0.38876 22:-0.58175 23:2.598 24:1.6737 25:-1.0348 
0.45542869455834806 1:1.2698 2:1.59 3:1.7336 4:1.6619 5:1.9784 6:2.2375 7:1.4927 8:0.96209 9:0.84572 10:0.66641 11:0.57806 12:0.1823 13:0.37539 14:0.43989 15:-0.23294 16:-0.70716 17:-0.94696 18:-1.7135 19:-2.418 20:-2.6405 21:-2.3263 22:-1.9515 23:-1.495 24:-1.0887 25:1.6759 
1.0 1:0.47438 2:0.31638 3:0.13399 4:0.44474 5:0.20504 6:0.19194 7:0.85477 8:0.89877 9:0.71241 10:0.97414 11:0.53912 12:-0.17005 13:0.9608 14:-0.26768 15:0.0064032 16:3.7603 17:-0.34728 18:4.0166 19:4.7624 20:2.6634 21:-0.5154 22:-3.1023 23:-2.9724 24:-2.901 25:0.13268 
1.0 1:-4.4643 2:-4.1313 3:-0.95285 4:-1.28 5:-2.065 6:-0.40052 7:-1.1116 8:-0.89046 9:1.1161 10:1.5956 11:2.3277 12:2.7116 13:3.9759 14:3.9796 15:4.153 16:5.7074 17:4.1089 18:1.96 19:0.36756 20:-0.1149 21:-0.38752 22:-0.33697 23:0.046924 24:-0.020062 25:0.81735 
1.0 1:3.4645 2:3.3183 3:3.4506 4:3.4198 5:3.0594 6:2.8186 7:2.2027 8:1.6759 9:0.33039 10:0.30591 11:1.0966 12:0.68231 13:-0.40956 14:-0.66654 15:0.16385 16:0.57818 17:-0.055835 18:-0.38597 19:-0.41655 20:-0.23086 21:-1.1239 22:-0.10696 23:-1.0959 24:-1.0494 25:4.3489 
1.0 1:5.7663 2:0.055142 3:-2.4531 4:0.097254 5:0.49127 6:0.22934 7:-0.32298 8:-2.6719 9:1.2645 10:-0.84326 11:-0.46378 12:-0.025034 13:-1.3419 14:-3.1748 15:-1.2345 16:1.5137 17:1.5952 18:2.1431 19:1.4267 20:2.5171 21:4.1111 22:3.0163 23:3.2365 24:4.3168 25:6.3732 
0.5471860063998903 1:-2.0922 2:-1.8379 3:-2.4659 4:-2.4844 5:-0.15984 6:0.42167 7:1.0727 8:-1.7577 9:-0.60102 10:-0.88753 11:0.34936 12:0.84603 13:-0.47162 14:-0.51563 15:0.71123 16:-0.18558 17:-1.4396 18:0.40348 19:-0.16518 20:-0.59624 21:0.35038 22:0.25361 23:0.2956 24:0.68038 25:-1.5489 
0.5627033463118073 1:-0.38797 2:-0.41568 3:-0.92231 4:-0.46486 5:-0.96025 6:-1.2975 7:-0.82369 8:-1.8181 9:-2.8296 10:-2.7004 11:-2.4689 12:-1.7358 13:-0.99859 14:-2.3052 15:-3.0302 16:-0.69995 17:-0.13712 18:0.24916 19:0.69388 20:1.6406 21:1.4295 22:1.2852 23:1.2103 24:1.1445 25:-0.13987 
1.0 1:1.4535 2:1.6061 3:1.0729 4:-0.60216 5:-2.5161 6:-3.3297 7:-3.849 8:-3.8469 9:-3.3794 10:-2.0287 11:-0.52303 12:0.69991 13:0.46527 14:-0.29046 15:-0.60729 16:-0.29476 17:-0.11279 18:0.42152 19:0.35606 20:-0.36525 21:-0.2594 22:0.57853 23:0.064669 24:-0.032072 25:1.4371 
1.0 1:-5.9879 2:-5.738 3:-4.1026 4:-3.5343 5:-4.6444 6:-0.95723 7:2.225 8:1.2252 9:1.5583 10:1.7047 11:-0.74342 12:1.707 13:1.4476 14:-3.8148 15:1.615 16:1.1547 17:-0.57161 18:-0.55248 19:-0.94755 20:-0.97108 21:-0.37571 22:-1.5044 23:-0.46537 24:0.31609 25:-2.987 
0.988787515207664 1:0.87936 2:1.0874 3:1.8278 4:2.2381 5:2.122 6:2.1871 7:2.428 8:2.1376 9:0.51509 10:0.28612 11:-0.35378 12:-1.4272 13:-3.1367 14:-1.5932 15:-1.3108 16:-1.838 17:-0.52245 18:-1.6909 19:-1.0477 20:-2.4847 21:-0.95271 22:-3.3895 23:-2.5292 24:-1.5485 25:1.3735 
0.7803912024093036 1:0.10798 2:-0.47006 3:0.41415 4:-0.43007 5:-1.958 6:-2.6303 7:-2.9996 8:-3.1287 9:-3.5945 10:-3.4021 11:-3.6387 12:-3.6844 13:-3.23 14:-2.9601 15:-2.0096 16:-0.98034 17:-0.4636 18:-0.11654 19:0.056057 20:0.11489 21:0.09891 22:0.09076 23:0.13745 24:0.11801 25:0.58931 
0.15676703793138044 1:0.35677 2:-0.43377 3:-0.67364 4:0.82131 5:0.97071 6:1.0418 7:1.452 8:1.1296 9:1.1384 10:2.3566 11:2.8314 12:2.9622 13:1.9401 14:2.2012 15:1.7354 16:1.1569 17:0.53182 18:0.33386 19:0.29626 20:0.28487 21:0.07188 22:0.044395 23:0.1674 24:0.25488 25:0.93445 
0.6314819384258646 1:1.8441 2:2.2331 3:1.8034 4:0.02462 5:-0.62229 6:-0.28459 7:0.33805 8:0.42012 9:0.63665 10:0.75528 11:1.0944 12:1.459 13:1.9984 14:2.4135 15:2.6199 16:2.4141 17:2.102 18:1.5656 19:1.0364 20:0.69997 21:-0.36174 22:0.15962 23:-1.0479 24:-1.0636 25:2.0778 
0.6721178006632669 1:-0.47003 2:-0.42929 3:0.83286 4:0.43814 5:1.0718 6:1.6313 7:0.09775 8:-1.2128 9:-1.4544 10:-1.9926 11:-2.8681 12:-3.4523 13:-3.8061 14:-4.3705 15:-4.8066 16:-4.382 17:-3.9974 18:-3.853 19:-3.0648 20:-1.9163 21:-1.3571 22:-1.0906 23:-0.7828 24:-0.72868 25:-1.6564 
0.6096787802075255 1:-1.1229 2:-0.96676 3:-0.85493 4:-1.0753 5:-1.3725 6:-0.52646 7:-0.23293 8:-0.51203 9:-0.49876 10:-0.98172 11:-0.74822 12:-1.2425 13:-1.9288 14:-2.8797 15:-2.4295 16:-1.4999 17:-1.8712 18:-2.1957 19:-1.5059 20:-1.7797 21:-1.3849 22:-1.3203 23:-2.0077 24:-1.7818 25:-0.58419 
0.5122955337952817 1:-0.083835 2:-0.2624 3:-0.2428 4:0.11157 5:0.80074 6:1.062 7:1.0797 8:1.6375 9:2.1308 10:1.675 11:1.7652 12:1.2474 13:1.5536 14:0.87259 15:0.46793 16:-0.67746 17:-1.1915 18:-1.7521 19:-1.2935 20:-0.86837 21:-0.28382 22:0.20499 23:-1.8023 24:-1.6533 25:-0.54977 
0.9485208048590654 1:-5.8706 2:-3.3373 3:-1.1609 4:-0.99779 5:-0.80847 6:-0.11756 7:0.20558 8:0.28717 9:0.70273 10:0.75064 11:0.97369 12:0.94113 13:1.1695 14:1.4306 15:1.1331 16:0.94647 17:0.76188 18:0.48659 19:0.40128 20:0.4719 21:0.2641 22:0.63971 23:0.60995 24:0.53815 25:-6.9219 
1.0 1:0.22171 2:0.034895 3:0.069654 4:-0.047104 5:-0.0050544 6:0.0026048 7:-0.046748 8:-0.37622 9:0.3663 10:0.88304 11:1.024 12:0.97445 13:1.2772 14:1.4289 15:0.67096 16:0.31206 17:1.3332 18:1.4953 19:1.9071 20:0.62742 21:-0.70692 22:-3.0244 23:-4.2969 24:-4.5618 25:0.3602 
1.0 1:0.11721 2:-1.6573 3:1.2457 4:-0.58976 5:1.6965 6:-0.069468 7:-3.4685 8:-4.0755 9:-0.64547 10:0.37675 11:0.6235 12:-0.52973 13:-0.86296 14:-1.2242 15:-1.7689 16:-1.7844 17:-0.94712 18:1.2492 19:0.82347 20:0.23252 21:-0.091759 22:-0.03552 23:0.21375 24:0.26506 25:-3.0986 
0.5443857560322508 1:0.80834 2:1.1461 3:-0.67385 4:0.10226 5:0.77746 6:-0.25098 7:-1.157 8:-0.52325 9:-0.50665 10:-0.14825 11:0.3048 12:-1.8729 13:-2.6196 14:-0.53902 15:0.038497 16:-2.4554 17:-2.7052 18:-1.2251 19:0.55641 20:0.57588 21:-0.40647 22:-0.29315 23:0.97054 24:-0.54106 25:-0.50477 
0.7649817864325212 1:2.1228 2:2.6013 3:1.1147 4:-0.29073 5:-0.078805 6:0.37312 7:1.0674 8:0.91992 9:1.2037 10:1.2325 11:1.6273 12:0.92121 13:0.80075 14:1.4415 15:1.5781 16:0.90803 17:0.92375 18:2.3882 19:3.0411 20:0.65841 21:0.24714 22:1.9636 23:1.2421 24:-0.41671 25:3.4531 
1.0 1:0.16415 2:-0.14185 3:-1.2683 4:-0.58787 5:-2.057 6:-0.72096 7:-0.28565 8:-0.71645 9:-1.6413 10:0.091507 11:0.40543 12:0.83748 13:1.5395 14:2.1275 15:2.2774 16:2.3578 17:2.2593 18:3.2605 19:3.5711 20:3.8224 21:3.9294 22:4.3403 23:4.1927 24:4.4062 25:1.1572 
1.0 1:0.64793 2:0.30381 3:0.57827 4:1.2141 5:1.3063 6:1.532 7:1.8829 8:1.0795 9:1.5023 10:1.9327 11:2.2093 12:3.0091 13:4.0229 14:4.6143 15:7.0695 16:6.5616 17:5.5873 18:3.9475 19:2.8779 20:1.5818 21:0.86147 22:0.37741 23:0.27983 24:0.1418 25:0.66509 
0.11342278787939757 1:-0.63126 2:-0.60388 3:0.12508 4:-1.4756 5:-1.1882 6:-0.20092 7:-1.0563 8:-0.90881 9:-1.4395 10:-2.0821 11:-2.1677 12:-1.7181 13:-1.3878 14:-0.76635 15:0.48151 16:1.4403 17:1.9504 18:1.6411 19:1.1278 20:0.60982 21:-0.39543 22:-0.10109 23:0.86695 24:0.81601 25:-0.1686 
1.0 1:0.35926 2:0.017531 3:0.53701 4:2.1049 5:3.112 6:4.9507 7:4.6064 8:3.7939 9:2.9001 10:2.6026 11:0.087858 12:-1.2871 13:0.80087 14:0.74131 15:0.24578 16:-0.039905 17:-1.4987 18:-0.49604 19:-0.35903 20:-0.62441 21:1.5782 22:0.6861 23:0.19494 24:0.27796 25:0.30794 
0.22143328607244794 1:-1.3738 2:-1.8395 3:-0.80812 4:0.48188 5:-0.62983 6:-1.9433 7:-2.0581 8:-1.5863 9:-1.434 10:-1.8725 11:-2.4367 12:-1.7083 13:-0.56839 14:-0.018901 15:-0.40724 16:-1.4049 17:-0.81131 18:1.6605 19:2.1369 20:1.0519 21:0.39946 22:0.5159 23:0.66593 24:1.2311 25:-0.4832 
1.0 1:1.1347 2:1.0215 3:0.40534 4:2.2705 5:2.3604 6:2.3658 7:2.1494 8:1.9259 9:2.3381 10:0.87133 11:1.9369 12:1.2615 13:-0.13465 14:-2.3585 15:-3.2554 16:-4.1971 17:-4.3722 18:-4.88 19:-4.6183 20:-2.6494 21:-2.1323 22:-1.17 23:0.81123 24:1.5754 25:3.5119 
0.9242809081240435 1:-0.084629 2:0.067475 3:-0.098321 4:-0.051725 5:0.067468 6:-0.31775 7:-0.54835 8:-0.35178 9:-0.055499 10:-0.6243 11:0.72333 12:-0.16914 13:-0.41317 14:0.045494 15:-0.064723 16:-0.83218 17:-1.5749 18:0.93139 19:1.7914 20:-0.33279 21:-0.27768 22:3.172 23:1.2637 24:-4.2954 25:0.38718 
0.47067676391228297 1:-0.22614 2:-0.25354 3:1.0188E-4 4:-0.14746 5:-0.011959 6:-0.38187 7:-0.69973 8:-0.91716 9:-1.5288 10:-1.963 11:-1.8945 12:-2.1674 13:-3.2444 14:-3.5377 15:-2.7786 16:-3.4475 17:-3.2229 18:-2.6293 19:-2.8455 20:-3.657 21:-2.2536 22:-0.18921 23:-0.57841 24:-0.30518 25:-0.24657 
-1.0 1:-0.48815 2:-0.51403 3:-0.78885 4:-2.0493 5:0.11413 6:1.1091 7:1.0428 8:-0.40938 9:1.5137 10:1.0662 11:0.44763 12:-0.34648 13:-1.6578 14:-2.8217 15:-0.41913 16:-0.23037 17:-1.5247 18:-1.6403 19:-0.5731 20:0.95033 21:1.3652 22:1.6537 23:0.39074 24:0.19327 25:-0.38232 
-0.3685086357929847 1:3.1201 2:1.6693 3:-2.7563 4:-6.0814 5:-5.666 6:-7.3888 7:-3.4891 8:0.41716 9:1.3243 10:2.5897 11:2.589 12:2.1459 13:3.7602 14:5.6362 15:3.128 16:3.2509 17:1.0534 18:-7.312 19:-8.2016 20:-5.9721 21:-4.0587 22:1.6449 23:2.3879 24:1.729 25:3.7229 
-0.3739974664780256 1:0.16133 2:-5.0296 3:-3.353 4:-0.90643 5:0.44129 6:0.67318 7:-0.26994 8:2.5376 9:2.8098 10:-0.92563 11:-1.3342 12:4.0822 13:1.1275 14:-2.1814 15:-2.378 16:2.3458 17:-7.6631 18:-4.2924 19:0.72268 20:-1.4562 21:0.20403 22:1.6999 23:0.67451 24:2.045 25:-1.612 
-0.38821195903785494 1:-2.711 2:-0.12066 3:1.1188 4:-1.6987 5:-1.8143 6:2.352 7:0.96058 8:-0.70463 9:-0.18877 10:6.8018 11:0.90986 12:-12.3786 13:-2.0278 14:4.4743 15:-1.1942 16:-7.1881 17:-3.5608 18:-0.51671 19:0.54836 20:0.24076 21:0.82797 22:2.2447 23:3.5166 24:2.3124 25:-4.0708 
-0.38403339167155487 1:1.4036 2:-9.8184 3:-7.1042 4:-5.8946 5:-1.3093 6:4.2617 7:0.70943 8:2.5778 9:0.365 10:1.4958 11:5.2576 12:-1.1216 13:4.7649 14:6.4591 15:-5.1927 16:-9.4302 17:-5.4652 18:-4.8352 19:1.1103 20:3.6765 21:-0.79681 22:2.7791 23:3.1752 24:4.1228 25:2.9924 
-0.3796662924079806 1:-7.4944 2:-3.0574 3:-4.2435 4:-3.1849 5:0.65455 6:0.87906 7:0.90436 8:-0.25178 9:0.42408 10:0.55307 11:0.81587 12:2.1226 13:5.5478 14:3.035 15:-2.355 16:-6.6129 17:-2.626 18:-3.2601 19:-2.6578 20:0.94582 21:1.3592 22:-0.20891 23:1.4496 24:1.6831 25:-3.0103 
-0.3852668057657181 1:-2.5128 2:-9.1573 3:-6.0992 4:-3.3778 5:-3.4974 6:5.4718 7:3.0095 8:3.025 9:4.2691 10:3.4214 11:0.59439 12:1.1922 13:0.35828 14:-0.4188 15:-6.8577 16:-7.6461 17:-5.04 18:-3.6133 19:4.8016 20:5.4741 21:2.7462 22:3.0887 23:3.1517 24:2.6137 25:2.373 
-0.3187191466733159 1:-1.908 2:-4.0385 3:-3.2955 4:-1.6588 5:-1.5488 6:-2.847 7:-0.71674 8:2.294 9:2.6388 10:2.184 11:1.4781 12:0.1962 13:-0.499 14:-1.5406 15:-3.8925 16:-6.3468 17:-5.0583 18:-2.1417 19:0.5066 20:1.3592 21:-1.259 22:0.84176 23:2.9985 24:3.1308 25:-1.4143 
-0.38848011995499404 1:-3.2764 2:-3.9347 3:-1.515 4:-0.8768 5:0.55187 6:0.28572 7:-1.7144 8:-1.6416 9:0.38355 10:1.1598 11:1.9683 12:1.8063 13:2.8795 14:2.9904 15:3.0042 16:3.6495 17:3.1875 18:5.4307 19:5.3687 20:3.5373 21:-1.3651 22:-5.1903 23:-8.7994 24:-14.8817 25:-2.3424 
-0.38699396540250475 1:3.0454 2:0.79568 3:1.5878 4:3.3793 5:1.4336 6:-0.15965 7:2.9248 8:-8.4968 9:-6.9727 10:-4.2667 11:-1.6465 12:-0.10473 13:2.6562 14:2.8058 15:2.4376 16:1.6401 17:3.5458 18:0.8211 19:-0.15825 20:1.5946 21:-0.65448 22:-5.3261 23:-7.2238 24:-3.2091 25:2.1353 
-0.38626845128100723 1:10.7588 2:8.1796 3:1.1218 4:-1.3534 5:-2.4701 6:-1.7725 7:-2.0104 8:-3.5258 9:-4.3103 10:-3.4991 11:-3.521 12:0.21731 13:2.9469 14:6.4756 15:8.8135 16:8.209 17:0.9878 18:-1.165 19:-2.8257 20:-4.0838 21:-4.3247 22:-5.4034 23:-4.4322 24:-4.0088 25:5.3882 
-0.38795867172059806 1:4.8023 2:4.5593 3:4.6036 4:3.8346 5:6.1988 6:4.2542 7:2.038 8:-0.43707 9:-2.5198 10:-6.6514 11:-0.9815 12:0.012122 13:-1.4439 14:0.9356 15:1.5222 16:2.8726 17:4.6765 18:4.5828 19:6.8264 20:4.5137 21:5.8235 22:2.4663 23:-4.1241 24:-9.575 25:1.5232 
-0.3763733652340049 1:4.4448 2:-6.0227 3:-6.2279 4:-5.1666 5:-2.9206 6:2.3268 7:1.8491 8:-0.80544 9:-0.83111 10:4.1478 11:4.4608 12:4.2423 13:0.83902 14:2.4177 15:1.7791 16:-7.287 17:-6.0796 18:-4.627 19:-3.2396 20:1.5776 21:1.502 22:0.16398 23:1.4255 24:5.2075 25:3.5647 
-0.3910502553407777 1:-3.7916 2:-2.6654 3:0.57975 4:-2.3193 5:-0.52665 6:-3.3629 7:-4.8687 8:-3.0259 9:3.9774 10:4.2052 11:1.415 12:0.033093 13:-1.2165 14:-1.6419 15:-1.1248 16:-0.0052348 17:3.3258 18:-2.7873 19:0.97405 20:-4.2505 21:-3.266 22:1.508 23:4.0979 24:1.3614 25:-0.40315 
-0.3872245970305131 1:1.3491 2:-0.8021 3:-0.021569 4:1.6832 5:-3.0331 6:-1.9366 7:-3.256 8:-9.0847 9:-6.4546 10:4.1744 11:0.75615 12:-0.70435 13:2.1165 14:2.8899 15:1.4184 16:1.1241 17:0.024631 18:-1.7134 19:-1.2084 20:-3.1952 21:-2.3987 22:-5.5621 23:-6.9858 24:-3.7648 25:1.9448 
-0.38780870119292077 1:4.6302 2:3.8964 3:2.9163 4:3.682 5:-9.2521 6:-10.0672 7:-1.8559 8:-4.1244 9:-0.83639 10:3.1433 11:2.7563 12:3.9688 13:5.5442 14:4.1064 15:4.1951 16:2.751 17:2.0719 18:0.46158 19:-10.0292 20:-8.6343 21:-6.0602 22:0.36441 23:3.1668 24:2.7605 25:2.3094 
-0.3742859315487747 1:-2.4216 2:-1.7755 3:-3.2508 4:-0.26713 5:-0.4405 6:3.6729 7:6.352 8:2.8697 9:1.0373 10:0.30618 11:-1.6999 12:-1.5366 13:-2.2441 14:-1.2261 15:-1.7078 16:-4.7198 17:-0.24959 18:-0.74354 19:4.7225 20:7.8506 21:2.9173 22:-0.86011 23:1.6063 24:-1.0629 25:-2.9943 
-0.3200494706568348 1:0.54527 2:-0.69792 3:-2.209 4:-2.6209 5:-2.3713 6:-3.1312 7:-1.8455 8:-1.0417 9:-3.5865 10:-3.8587 11:1.1019 12:7.0512 13:6.7374 14:4.9576 15:-1.0183 16:-1.9259 17:0.33357 18:-0.62295 19:-2.3174 20:-1.9791 21:-1.8653 22:-2.7993 23:-3.1552 24:-1.5082 25:6.0249 
-0.3853699528883905 1:-0.086957 2:0.48204 3:-3.5043 4:-7.179 5:-7.3636 6:-3.2274 7:0.13012 8:3.45 9:-0.051942 10:3.3669 11:2.7734 12:0.3963 13:5.0281 14:2.2603 15:2.1096 16:-1.4907 17:-2.5153 18:-1.7468 19:-5.5792 20:-7.4806 21:0.90066 22:0.36748 23:3.3913 24:3.7923 25:1.4013 
-0.38835577317383213 1:5.1079 2:2.8276 3:-8.7883 4:2.6862 5:-4.0991 6:-4.7177 7:-2.4679 8:0.85588 9:1.9608 10:0.29257 11:1.5476 12:4.916 13:2.3325 14:0.98675 15:3.6125 16:5.1633 17:-0.40275 18:-6.6722 19:-1.7353 20:-3.9128 21:-3.4398 22:-1.3295 23:-1.3825 24:-0.89634 25:-0.98937 
-0.383798198521074 1:-2.2799 2:-1.919 3:-5.2806 4:-5.3611 5:1.9269 6:4.6653 7:4.9897 8:4.0871 9:0.23309 10:1.8146 11:1.344 12:-0.68892 13:-0.086836 14:-1.5993 15:-2.9944 16:-1.4503 17:-2.524 18:-4.3668 19:-2.6196 20:2.0231 21:5.7257 22:4.3282 23:0.56671 24:0.022374 25:-2.4342 
-0.42705284674012045 1:-4.0046 2:2.5088 3:-0.1579 4:0.030743 5:1.906 6:2.5528 7:2.2593 8:2.5838 9:1.4979 10:1.3227 11:-2.0787 12:-0.92153 13:-2.846 14:-4.0296 15:0.27129 16:-0.65024 17:-0.91183 18:0.08165 19:-0.70733 20:-1.0685 21:3.4531 22:1.593 23:0.72153 24:3.6787 25:2.3542 
-0.3881873474474608 1:6.3193 2:4.2978 3:-1.5541 4:-5.9828 5:1.6601 6:-4.5913 7:-4.3669 8:-3.5661 9:3.8741 10:3.1445 11:0.67515 12:1.1289 13:0.030432 14:-0.059129 15:5.4593 16:3.4032 17:-0.7179 18:-3.454 19:-1.5056 20:-7.0159 21:-4.591 22:-2.7126 23:1.5978 24:3.4604 25:1.757 
-0.42784787351310966 1:0.58742 2:-1.884 3:3.056 4:1.0721 5:-1.0949 6:1.6917 7:2.4352 8:1.6181 9:-4.5866 10:0.090439 11:-1.11 12:-2.5553 13:-0.14502 14:0.45519 15:3.7447 16:0.78348 17:0.15135 18:0.5363 19:1.3198 20:-0.043866 21:4.0663 22:4.672 23:-1.4197 24:0.070312 25:2.7 
-0.3887186692474501 1:-5.3513 2:10.4331 3:9.9462 4:3.2809 5:-2.0171 6:-1.8292 7:0.12232 8:-0.80931 9:-0.75519 10:-2.9658 11:-1.1031 12:-1.9442 13:-3.8231 14:-4.6974 15:1.2889 16:5.5651 17:4.9496 18:3.8687 19:1.1701 20:-1.2553 21:-1.4698 22:1.3443 23:-1.1408 24:-3.3583 25:-3.5612 
-0.3888484518094303 1:-6.9746 2:-3.0432 3:-4.6486 4:-1.5362 5:-0.16938 6:5.1544 7:4.4893 8:1.802 9:8.3822 10:6.5504 11:8.1053 12:4.4423 13:0.1931 14:-13.0959 15:-10.567 16:-7.4665 17:-4.116 18:-0.94864 19:1.281 20:4.8456 21:4.3545 22:3.7484 23:6.6265 24:4.924 25:-10.2684 
-0.3956999914417411 1:-4.8807 2:5.3942 3:1.7389 4:2.2835 5:1.7749 6:4.8348 7:-5.2754 8:2.3269 9:-4.0597 10:-1.6178 11:-1.5886 12:-3.0105 13:-0.23644 14:0.13984 15:1.3009 16:-0.53613 17:-2.3648 18:-0.51787 19:2.3558 20:0.99128 21:0.039565 22:-0.92215 23:-1.2553 24:-1.7676 25:-0.67125 
-0.3867866685452857 1:4.8391 2:4.2757 3:4.7446 4:2.3804 5:2.9744 6:-2.2696 7:-7.2605 8:-3.9646 9:-3.918 10:-4.6403 11:0.93991 12:1.6847 13:5.112 14:0.65837 15:4.3479 16:5.2515 17:3.4623 18:4.0477 19:4.5729 20:-0.062501 21:-12.5275 22:-6.0494 23:-3.5621 24:-3.2924 25:-0.083581 
-0.3867620479090398 1:5.225 2:5.4309 3:6.4765 4:2.7855 5:-2.4427 6:-6.5205 7:-3.029 8:-5.6478 9:-7.7636 10:1.4725 11:2.3314 12:1.5844 13:3.8794 14:4.0629 15:3.5185 16:5.6871 17:5.6631 18:5.607 19:0.87104 20:-2.6244 21:-5.4793 22:-4.9837 23:-4.0908 24:-1.7701 25:3.7082 
-0.3726042137248554 1:-0.42686 2:-1.1235 3:-1.6801 4:-2.0787 5:-3.0935 6:-2.781 7:-2.744 8:-2.5612 9:0.20553 10:5.8372 11:7.7448 12:2.8445 13:1.1567 14:-0.11176 15:-1.1667 16:-2.3261 17:-3.9402 18:-1.5315 19:-1.3442 20:-4.0149 21:-1.8424 22:2.182 23:2.7038 24:4.179 25:-0.82881 
-0.3777639882898972 1:-7.7523 2:-4.6883 3:-2.0651 4:1.0309 5:-0.077216 6:1.193 7:3.9795 8:2.0624 9:2.0743 10:4.4014 11:1.6518 12:-1.5324 13:-1.3317 14:-5.269 15:-8.2374 16:-6.3441 17:0.27941 18:-1.3679 19:-0.32229 20:1.9652 21:1.9046 22:1.7091 23:2.2343 24:-0.2073 25:-7.9741 
-0.3683868755542225 1:-1.6521 2:-4.5811 3:4.6219 4:7.7716 5:6.9852 6:3.2658 7:-1.582 8:-0.82964 9:-0.78551 10:-2.448 11:-2.471 12:-2.224 13:-2.48 14:-2.4375 15:-2.2347 16:-1.4242 17:4.9772 18:7.5074 19:5.9271 20:2.0011 21:-0.75464 22:-1.2169 23:-2.1455 24:-2.984 25:0.022086 
-0.4366576586803869 1:-0.032458 2:2.459 3:3.6929 4:0.3861 5:0.84583 6:-0.51323 7:-3.1598 8:-5.7567 9:-2.6408 10:-1.2323 11:-1.0123 12:1.7959 13:3.8887 14:1.9335 15:-0.8157 16:1.9578 17:2.6427 18:0.36557 19:0.62949 20:0.13538 21:-2.4311 22:-3.0385 23:-0.014425 24:-2.5558 25:0.61772 
-0.3385991282410942 1:2.659 2:0.32172 3:-1.1989 4:-1.1572 5:-2.5213 6:-1.1135 7:-3.5023 8:-2.9571 9:-2.9873 10:4.3998 11:6.1975 12:4.4002 13:3.2144 14:2.8925 15:1.9164 16:-1.118 17:-0.61157 18:-2.2205 19:-1.5765 20:-1.8491 21:-3.4374 22:-3.8261 23:-1.5558 24:4.4834 25:-0.11726 
-0.3875285821395759 1:-0.13264 2:1.2159 3:-1.366 4:-0.22137 5:-1.0341 6:-3.6993 7:-1.4655 8:0.25298 9:2.6393 10:4.126 11:2.2101 12:1.0939 13:0.48455 14:-1.0363 15:-0.014003 16:-0.20328 17:-2.5375 18:-0.71082 19:-1.7129 20:-4.0055 21:-3.5938 22:4.7945 23:7.8532 24:2.7994 25:-0.25474 
-0.3866595935209797 1:-7.4646 2:-4.652 3:-0.7655 4:2.0607 5:3.194 6:3.5806 7:4.507 8:4.3886 9:5.4254 10:4.9036 11:3.9465 12:-0.047193 13:-5.4309 14:-9.8466 15:-9.4575 16:-4.2002 17:-2.6485 18:1.2398 19:3.5004 20:4.6537 21:5.1596 22:4.3196 23:5.0067 24:4.1006 25:-1.4923 
-0.3875589978910315 1:4.6564 2:3.9506 3:1.5699 4:-2.2163 5:-5.9134 6:-5.925 7:-7.292 8:-3.007 9:0.63167 10:0.084759 11:0.93135 12:4.3793 13:4.8463 14:4.0427 15:3.4411 16:3.5462 17:3.3614 18:2.2086 19:0.34685 20:-9.605 21:-14.345 22:-7.1682 23:-0.59513 24:1.22 25:5.0357 
-0.3878972342092903 1:2.8936 2:4.2341 3:5.2831 4:4.7491 5:4.175 6:1.8834 7:1.1219 8:-14.1993 9:-7.1834 10:-0.51141 11:-0.11047 12:1.2768 13:1.7277 14:1.1078 15:2.0783 16:3.7828 17:4.2245 18:5.1091 19:3.9989 20:1.4973 21:-7.2497 22:-5.4995 23:-4.9931 24:-0.92835 25:3.3728 
-0.3869945504071547 1:3.04 2:3.6117 3:4.0776 4:-0.99307 5:3.1459 6:5.3824 7:-5.4053 8:-9.6005 9:-7.3386 10:-4.048 11:-0.5897 12:2.8525 13:-0.28871 14:3.1422 15:4.0141 16:5.699 17:1.9656 18:3.7913 19:2.1853 20:2.1484 21:-9.497 22:-5.5892 23:-3.6326 24:-3.3995 25:0.56864 
-0.5699267969146821 1:-0.2719 2:3.6197 3:3.0824 4:0.96595 5:-0.26115 6:-0.18805 7:-0.83206 8:-0.96344 9:-1.1289 10:-3.1805 11:-3.5007 12:-3.814 13:-2.9604 14:1.027 15:1.2398 16:1.6241 17:1.4687 18:1.9208 19:2.4278 20:1.7192 21:0.74781 22:0.86114 23:-0.66918 24:-1.6129 25:-1.7449 
-0.3820527140490442 1:-4.3626 2:-6.04 3:-3.5479 4:-0.31805 5:1.0262 6:1.0925 7:0.88199 8:0.99431 9:2.7529 10:0.15353 11:1.2767 12:4.0162 13:-0.13845 14:-2.8165 15:3.9758 16:-3.3476 17:-3.271 18:-1.6365 19:-0.32082 20:-0.027914 21:-1.7513 22:1.7564 23:2.5679 24:1.9954 25:-1.0407 
-0.38152739134401664 1:2.3729 2:5.1495 3:4.0839 4:-8.0722 5:-8.1881 6:-7.0696 7:-1.8077 8:5.3356 9:-3.6366 10:2.5425 11:1.3518 12:2.4207 13:1.2356 14:1.3489 15:5.1263 16:3.4296 17:-0.43856 18:-11.1977 19:-8.8574 20:-3.0215 21:1.7779 22:3.9156 23:-1.0711 24:3.1303 25:1.6423 
-0.3801097123687106 1:0.68934 2:6.9878 3:0.89708 4:-2.1528 5:-1.9963 6:-2.7817 7:-3.3241 8:-2.1283 9:-3.8658 10:-1.1227 11:3.0614 12:1.2102 13:-0.55553 14:1.0746 15:2.1885 16:1.3827 17:0.60428 18:-0.6784 19:-1.2836 20:-2.2501 21:-3.7465 22:-5.7621 23:-5.9104 24:-4.5427 25:1.5617 
-0.38175151716115646 1:3.6741 2:2.7968 3:-0.42649 4:0.62374 5:-0.07566 6:-11.2308 7:-7.6807 8:-1.8311 9:-1.2042 10:1.6149 11:2.7372 12:0.65408 13:1.3093 14:1.1184 15:2.2091 16:0.79831 17:1.6527 18:-0.059844 19:0.48989 20:-7.5967 21:-5.7171 22:-1.5387 23:-1.0714 24:-0.63148 25:2.9107 
-0.44756654822190844 1:1.6494 2:0.22656 3:0.38804 4:1.8786 5:0.72646 6:-1.2416 7:-0.72971 8:-0.36787 9:-4.8723 10:-2.8503 11:-0.15513 12:1.8046 13:0.52885 14:1.7076 15:1.9129 16:0.33812 17:-0.51906 18:-2.0431 19:0.78964 20:-0.313 21:-3.1604 22:0.8523 23:-6.2869 24:-0.76581 25:3.8136 
-0.38782503448432565 1:2.4318 2:1.6682 3:2.1095 4:1.6984 5:3.7309 6:1.0827 7:2.2912 8:4.9102 9:5.2981 10:-8.2349 11:-9.7339 12:-8.4947 13:-1.7856 14:-0.54517 15:2.4821 16:2.5016 17:2.0858 18:2.6059 19:2.7007 20:2.0626 21:0.24984 22:2.2787 23:3.2186 24:-4.363 25:0.555 
-0.36186322349382 1:-0.60715 2:-2.3886 3:-6.5739 4:-4.4386 5:-2.1604 6:-0.5235 7:1.7869 8:0.50547 9:1.2306 10:1.8602 11:2.6982 12:3.7165 13:5.6103 14:6.7333 15:0.76433 16:-4.5136 17:-9.5107 18:-5.7357 19:-3.5999 20:-0.59874 21:0.84932 22:1.9225 23:2.3685 24:0.80305 25:4.7495 
-0.3532216550934004 1:-1.7878 2:-6.2471 3:-3.7199 4:-0.10001 5:-0.7861 6:2.7438 7:0.804 8:-0.085579 9:0.82545 10:2.1617 11:0.15274 12:0.60329 13:-2.1426 14:-2.9101 15:-2.3326 16:-5.4732 17:-3.9939 18:-1.2559 19:0.96716 20:1.9334 21:1.1867 22:1.5638 23:2.518 24:1.5884 25:-1.1041 
-0.3882924653176215 1:0.35077 2:-0.67407 3:2.8861 4:0.41001 5:4.3552 6:-0.74854 7:2.3813 8:-2.8228 9:-8.0885 10:-2.9417 11:1.0487 12:1.5493 13:0.19103 14:-0.76888 15:-0.42099 16:-2.2927 17:0.69558 18:2.5699 19:5.9199 20:0.87098 21:-1.9707 22:1.3805 23:1.3998 24:-5.3908 25:0.7717 
-0.40950032546415527 1:-3.122 2:-5.1887 3:-3.8887 4:-2.4855 5:-0.48173 6:0.88166 7:0.51526 8:0.7557 9:-1.112 10:-1.3541 11:-0.50625 12:3.3549 13:2.3056 14:-0.40889 15:2.575 16:0.77399 17:-4.4606 18:-4.3568 19:-2.446 20:-2.6312 21:1.5048 22:1.8155 23:0.83333 24:-0.60445 25:-1.3143 
-0.3873298627029389 1:2.5289 2:1.5481 3:1.1656 4:0.48976 5:-1.4876 6:-3.8299 7:-4.6763 8:-8.5698 9:-6.6998 10:-6.5181 11:0.43111 12:-1.3291 13:-1.3482 14:0.27727 15:3.3033 16:1.8664 17:0.38532 18:0.087469 19:-0.69294 20:-5.6164 21:-4.4453 22:-6.6943 23:-7.8391 24:-7.7146 25:2.7595 
-0.3883358830967323 1:1.4251 2:5.6156 3:3.0669 4:-5.6904 5:-10.6061 6:-4.5869 7:-5.5594 8:-3.4346 9:2.2282 10:3.6542 11:3.8139 12:2.789 13:5.1707 14:4.4053 15:0.26289 16:3.6034 17:6.1016 18:-0.88375 19:-12.497 20:-11.4015 21:-5.3763 22:-0.59404 23:3.4354 24:2.9609 25:1.3723 
-0.3879650920392983 1:4.5912 2:1.8522 3:0.88524 4:4.5914 5:4.7205 6:-9.1714 7:-9.9256 8:-3.1186 9:-1.2685 10:-2.2125 11:0.872 12:-0.19145 13:1.2279 14:0.34664 15:4.9511 16:2.1038 17:2.2518 18:5.1771 19:3.6919 20:-1.799 21:-7.9399 22:-7.1521 23:-2.6988 24:0.9529 25:2.7714 
-0.3883347199223681 1:2.481 2:2.6016 3:1.1522 4:2.332 5:2.3673 6:-0.28882 7:-0.42581 8:0.23531 9:-6.9846 10:-8.238 11:3.4062 12:1.8163 13:2.1905 14:3.06 15:2.6943 16:0.96388 17:2.6062 18:3.8372 19:0.12852 20:-0.35357 21:2.0497 22:-6.6158 23:-13.1201 24:-2.5836 25:6.8103 
-0.387959354744186 1:2.3262 2:1.2098 3:0.93975 4:-0.60715 5:-4.7611 6:-5.2437 7:-5.8455 8:-4.4576 9:1.529 10:3.3137 11:2.6137 12:4.1528 13:3.782 14:2.9117 15:0.91837 16:2.2702 17:3.3989 18:2.7766 19:1.9266 20:-2.854 21:-2.7476 22:-7.5137 23:-7.1218 24:-5.7665 25:1.7173 
-0.3885958847444483 1:8.8411 2:6.4932 3:1.9535 4:1.0071 5:2.8355 6:0.60564 7:0.50449 8:0.18533 9:-3.1258 10:-5.1392 11:-5.6659 12:-6.4942 13:-3.9531 14:2.6198 15:3.7085 16:2.6908 17:2.6071 18:1.5348 19:2.0728 20:3.4461 21:0.59223 22:1.3536 23:3.9663 24:3.2734 25:0.67963 
-0.3883418604806058 1:3.1713 2:5.0295 3:2.0201 4:1.9039 5:4.424 6:6.1317 7:-1.2187 8:0.2079 9:3.2137 10:-1.5985 11:-11.0847 12:-8.4322 13:-5.4822 14:-0.82131 15:4.6573 16:1.0257 17:4.3085 18:5.6782 19:5.0414 20:3.3387 21:-0.011082 22:0.89321 23:1.9466 24:-8.4412 25:-6.1898 
-0.3877625100060141 1:-1.9387 2:-4.7096 3:-4.7477 4:1.0905 5:-1.0741 6:3.8413 7:4.387 8:2.9548 9:2.6143 10:0.10065 11:0.50866 12:0.3801 13:-0.21644 14:0.1866 15:-0.18597 16:-3.8065 17:-4.2227 18:-0.39029 19:-1.8565 20:1.1715 21:8.6336 22:1.44 23:-0.96197 24:-0.96497 25:-0.66453 
-0.3881619252863194 1:2.5973 2:0.78993 3:-10.9148 4:-3.3033 5:-1.4084 6:0.9805 7:-1.9353 8:1.4141 9:-1.2432 10:0.06287 11:1.9119 12:1.7918 13:3.8075 14:2.7714 15:1.2933 16:5.7227 17:4.624 18:-1.3874 19:-3.2885 20:-3.0034 21:-3.6359 22:-1.0434 23:0.85772 24:1.0023 25:2.8675 
-0.38231796417422553 1:-1.888 2:-3.989 3:-3.1474 4:-5.7546 5:-3.8482 6:-0.33934 7:2.8507 8:1.8405 9:0.87985 10:1.4878 11:0.68619 12:2.6247 13:0.58604 14:4.4028 15:-1.0838 16:4.1708 17:-3.221 18:-6.79 19:-1.9793 20:-2.1445 21:-1.8289 22:0.078428 23:0.76896 24:1.2722 25:1.9518 
-0.37476764280847646 1:6.1142 2:-9.2646 3:-6.5785 4:-5.9491 5:-4.2726 6:1.5367 7:2.9668 8:-0.57113 9:2.9784 10:1.8815 11:2.5561 12:2.1678 13:3.2385 14:2.3519 15:0.01047 16:-9.4449 17:-7.2106 18:-3.1879 19:1.0344 20:5.0206 21:1.6023 22:0.7388 23:2.604 24:1.0332 25:2.2336 
-0.3816719578515155 1:2.3628 2:-12.149 3:-12.0802 4:-8.3879 5:-3.1344 6:0.86296 7:4.0416 8:4.1194 9:3.1392 10:4.1752 11:4.646 12:3.729 13:2.4628 14:0.13581 15:-5.7347 16:-14.173 17:-9.8606 18:-5.9351 19:-0.97075 20:2.838 21:2.7996 22:3.5523 23:3.9273 24:5.1069 25:2.569 
-0.3638661403789454 1:5.9627 2:4.5967 3:1.7794 4:-2.2077 5:-2.0928 6:-2.7822 7:-3.2671 8:-2.4717 9:-2.2601 10:-2.5069 11:-1.2145 12:0.87079 13:7.384 14:8.5132 15:4.8677 16:1.4245 17:-2.3437 18:-2.3216 19:-1.9654 20:-1.7864 21:-2.1835 22:-4.7611 23:-4.1635 24:-1.8989 25:4.0928 
-0.3380311856443902 1:-7.1725 2:-5.8116 3:-5.4239 4:-3.2255 5:-0.68229 6:1.9971 7:1.4217 8:1.92 9:3.9967 10:5.0622 11:3.582 12:1.4224 13:2.4633 14:-3.5772 15:-8.4492 16:-7.4118 17:-2.9925 18:-1.319 19:0.83199 20:3.137 21:3.9446 22:5.078 23:5.6712 24:6.2275 25:-2.6002 
-0.3880000353155348 1:-10.4901 2:-10.3109 3:1.2176 4:3.0152 5:5.5642 6:2.8393 7:4.0196 8:5.621 9:6.7818 10:6.9009 11:4.5798 12:0.38995 13:-4.7136 14:-11.6945 15:-14.0908 16:-6.9936 17:3.5713 18:4.6114 19:2.2919 20:3.142 21:4.4207 22:4.4302 23:6.0487 24:7.4274 25:-2.6898 
-0.3696160893615376 1:-0.023453 2:0.42025 3:-1.0848 4:0.90762 5:3.6779 6:2.4139 7:0.85992 8:-0.17604 9:0.88282 10:-0.66809 11:-2.2586 12:-4.0099 13:-3.5488 14:-4.3508 15:-0.87552 16:1.0749 17:-0.44383 18:1.3827 19:2.1556 20:2.1628 21:2.0434 22:1.0851 23:-0.012611 24:-1.8305 25:-1.5207 
-0.38794270650385115 1:-1.6401 2:-2.0652 3:-1.9641 4:-2.6023 5:-3.511 6:-2.8275 7:0.31775 8:2.162 9:1.2576 10:0.93721 11:-1.1717 12:3.1197 13:2.9851 14:0.5876 15:0.34108 16:-0.5367 17:-4.2161 18:-8.3352 19:-9.7771 20:-8.0036 21:-5.2587 22:-5.4499 23:-1.321 24:-1.2562 25:-1.4136 
-0.38366472635086524 1:-1.9225 2:4.0357 3:-1.65 4:-3.6426 5:-4.1386 6:-5.959 7:-3.0388 8:-1.7052 9:0.19735 10:1.9382 11:2.1852 12:2.8533 13:4.0555 14:-1.0584 15:2.1361 16:1.6156 17:-2.1976 18:-1.6382 19:-6.1525 20:-4.0573 21:0.19318 22:-0.62112 23:1.1607 24:4.046 25:2.3608 
-0.4386648245871374 1:-1.8457 2:-2.0661 3:-0.015107 4:-1.1264 5:-0.86785 6:1.5608 7:1.7791 8:-0.37754 9:-1.4314 10:-1.0238 11:-1.4437 12:-2.9941 13:-2.6769 14:0.91304 15:1.8082 16:-2.9927 17:-2.796 18:-1.3176 19:3.9734 20:2.6833 21:0.30729 22:-3.0497 23:5.8491 24:2.0998 25:-0.10232 
-0.3519893841731526 1:2.3108 2:0.22744 3:-1.1495 4:-1.1877 5:0.16061 6:-1.571 7:-1.8674 8:-2.7455 9:-1.9241 10:-5.4914 11:-0.19604 12:9.9325 13:4.6678 14:1.7895 15:1.4941 16:-0.024688 17:-2.0433 18:-0.93316 19:-3.2565 20:-2.8384 21:-2.4921 22:-4.1866 23:-3.1329 24:-3.698 25:6.6468 
-0.38133947485458763 1:-3.8545 2:-5.1616 3:-1.3241 4:-3.7912 5:1.9247 6:-1.7022 7:-0.97292 8:1.4285 9:1.0072 10:1.7871 11:2.1382 12:1.8805 13:0.67619 14:-1.3131 15:-1.7799 16:-3.1809 17:-3.3022 18:-1.7781 19:-1.9229 20:1.2175 21:0.99826 22:2.5671 23:2.1446 24:1.3571 25:-2.4317 
-0.38459738751526185 1:0.60199 2:-0.81751 3:-3.0353 4:1.4817 5:0.94728 6:2.7325 7:3.3497 8:4.106 9:-5.7638 10:-1.0352 11:4.87 12:-6.7606 13:-4.9912 14:-1.1389 15:2.256 16:0.36315 17:-0.13778 18:-0.86972 19:-0.16184 20:0.042512 21:-1.1265 22:5.8235 23:2.239 24:-0.38478 25:-0.35143 
-0.3804887734702576 1:-9.7822 2:-7.0632 3:-3.2695 4:-3.1789 5:-4.2493 6:0.5559 7:5.0762 8:3.0684 9:2.1052 10:1.9997 11:1.3699 12:1.0583 13:-3.0336 14:-7.4466 15:-7.0731 16:-7.9132 17:-2.6723 18:-2.2537 19:-0.22256 20:0.20793 21:3.726 22:4.321 23:4.163 24:0.93425 25:-7.5171 
-0.3683102981724035 1:-2.7504 2:-4.4198 3:2.6944 4:6.9592 5:4.2711 6:-0.016274 7:-0.80835 8:-0.74954 9:0.75542 10:-2.7679 11:-3.0269 12:-2.4994 13:-3.9143 14:-3.6701 15:-1.0854 16:1.5223 17:4.9265 18:7.0567 19:1.9882 20:-0.66918 21:-0.81479 22:0.6099 23:-3.0325 24:-1.1542 25:-1.4628 
-0.4372611835116816 1:0.86243 2:-1.9426 3:1.1815 4:-1.8054 5:-2.3001 6:-0.39592 7:0.051816 8:-1.0388 9:-0.3992 10:1.5836 11:1.4877 12:1.034 13:2.647 14:4.4257 15:2.7655 16:-0.96239 17:0.060219 18:-5.8272 19:-1.9165 20:-0.43764 21:1.3773 22:0.12675 23:-0.563 24:1.4977 25:3.5556 
-0.38722760229444286 1:-5.8505 2:-8.8187 3:-8.107 4:-6.079 5:-2.1119 6:2.0254 7:2.1218 8:-0.41747 9:4.3329 10:3.4214 11:4.6851 12:1.5375 13:3.3523 14:4.1182 15:0.17702 16:-11.1866 17:-7.5692 18:-2.3976 19:0.21325 20:1.6395 21:1.7321 22:0.46842 23:4.0939 24:4.1053 25:6.3605 
-0.3881811858333265 1:-0.64901 2:4.7186 3:4.4153 4:5.7431 5:3.0569 6:4.8679 7:3.6097 8:3.1895 9:-13.4703 10:-9.2879 11:-6.0104 12:-2.668 13:4.5585 14:0.66215 15:-0.96454 16:5.3396 17:3.6198 18:1.9873 19:1.9515 20:5.6983 21:2.0933 22:-5.2387 23:-8.4319 24:-6.6983 25:2.7502 
-0.38746963022228403 1:-0.46258 2:-1.9289 3:-1.323 4:-2.4049 5:-7.0674 6:-4.2229 7:4.4437 8:3.9858 9:4.5809 10:-0.15962 11:-2.5273 12:0.82575 13:0.079325 14:-0.82415 15:-2.4284 16:-0.99877 17:-0.43078 18:-2.624 19:-2.761 20:-1.4971 21:4.4373 22:6.397 23:4.025 24:-0.23001 25:-1.9651 
-0.3987110230980826 1:-0.15498 2:0.03978 3:3.0483 4:0.94729 5:0.071703 6:0.81344 7:3.8211 8:1.2266 9:-5.6019 10:-0.19666 11:-1.7545 12:-2.4012 13:-0.48594 14:-0.02729 15:1.8635 16:3.2581 17:-1.8989 18:0.55392 19:-1.0385 20:1.3454 21:2.8677 22:3.5087 23:2.7046 24:-2.0114 25:3.4959 
-0.40751177005067735 1:0.30397 2:1.9329 3:3.6139 4:2.0051 5:1.1426 6:0.3552 7:0.67564 8:1.5939 9:1.4504 10:1.4831 11:-0.66588 12:-2.5263 13:-4.6543 14:-4.5389 15:0.38212 16:1.6524 17:1.2518 18:1.632 19:2.643 20:2.812 21:-1.0157 22:2.0339 23:1.4769 24:1.174 25:-3.5181 
-0.369753897131455 1:-6.0498 2:-2.7331 3:-2.9456 4:0.1646 5:2.4116 6:2.2863 7:1.7396 8:0.76654 9:2.7508 10:-2.2965 11:0.80877 12:-2.1363 13:-6.3202 14:-5.6851 15:-4.3758 16:-2.2364 17:-1.0615 18:0.43154 19:1.9988 20:2.9617 21:3.2332 22:3.7027 23:2.3656 24:2.8447 25:-5.0491 
-0.38648421389144133 1:2.4484 2:2.5256 3:-2.188 4:-0.50042 5:-7.5796 6:-9.6664 7:-4.8904 8:0.43476 9:-1.492 10:2.8195 11:3.2636 12:2.6898 13:0.73867 14:2.6049 15:2.2085 16:2.392 17:0.78886 18:4.1856 19:-6.8126 20:-10.6917 21:-4.491 22:0.59774 23:-0.075071 24:1.7853 25:2.4466 
-0.3882388910566765 1:0.4867 2:4.2662 3:8.776 4:1.8203 5:-11.0068 6:-6.1556 7:-3.3371 8:-2.7434 9:2.047 10:1.4254 11:2.2587 12:4.0336 13:4.6731 14:3.4635 15:2.953 16:2.8646 17:5.9497 18:-9.3545 19:-9.8545 20:-5.3611 21:-2.7131 22:-0.61392 23:2.6281 24:1.8417 25:2.6662 
-0.3638752317177709 1:2.1 2:-5.7532 3:-4.6038 4:-2.1694 5:-0.036555 6:-3.0245 7:-0.96883 8:-0.2828 9:2.0896 10:2.6277 11:1.9879 12:2.2513 13:4.0184 14:6.6336 15:3.1473 16:-3.0385 17:-6.2532 18:-6.445 19:-3.9138 20:-0.93277 21:1.8358 22:-0.55281 23:1.8219 24:1.8651 25:3.138 
-0.3880746597554844 1:1.173 2:0.27595 3:-0.43701 4:-0.046653 5:2.3267 6:1.6662 7:0.41178 8:-8.9214 9:-2.7585 10:-1.0804 11:-3.437 12:-4.6037 13:-2.2876 14:1.2805 15:4.4218 16:-4.0432 17:-0.64342 18:6.8896 19:-1.7751 20:-0.010169 21:3.1159 22:2.2617 23:-9.695 24:-1.7241 25:0.90702 
-0.3889979743340001 1:0.13079 2:-0.21045 3:3.4149 4:5.221 5:-7.5688 6:-0.07981 7:4.8639 8:-2.9552 9:-6.5728 10:-2.1918 11:0.074128 12:0.50022 13:1.2732 14:0.21161 15:-0.51033 16:-1.8939 17:4.3159 18:2.5319 19:0.64805 20:1.3736 21:-2.5358 22:0.23925 23:-6.1234 24:-1.0553 25:0.59082 
-0.3884031354702174 1:-2.0189 2:-2.1186 3:-1.3112 4:-0.25069 5:3.3198 6:4.0544 7:0.50264 8:-1.4274 9:-4.5904 10:-5.7463 11:-5.5304 12:-4.5143 13:-2.702 14:-0.98339 15:-0.90622 16:-1.2362 17:-3.1714 18:-0.74097 19:-0.54315 20:-2.4098 21:-4.2251 22:-5.4477 23:-6.1536 24:-9.0307 25:-0.31479 
-0.38897747807069216 1:2.2791 2:-0.85018 3:-3.1752 4:-1.6476 5:-0.35223 6:-5.4441 7:-0.70303 8:0.61091 9:0.22219 10:0.59584 11:3.6449 12:1.2732 13:0.81682 14:0.54431 15:1.1364 16:2.4931 17:-2.9379 18:1.3648 19:-4.1591 20:-9.005 21:1.9307 22:-1.095 23:2.1858 24:2.19 25:2.0739 
-0.38744967859972107 1:-5.3781 2:-1.9049 3:-3.9294 4:-1.0976 5:-2.6319 6:-3.2567 7:-1.0043 8:1.3469 9:-0.23644 10:0.93144 11:0.80153 12:3.1276 13:2.7392 14:4.8719 15:9.2604 16:0.79132 17:-2.0199 18:-5.3597 19:-4.7045 20:-0.86695 21:-2.2953 22:-3.4244 23:-0.41261 24:-0.62147 25:8.2712 
-0.3833082565610417 1:2.1963 2:2.0486 3:1.5731 4:5.5415 5:3.8883 6:2.6534 7:2.2895 8:4.375 9:-2.1232 10:-10.1011 11:-4.7679 12:-4.1088 13:-4.6314 14:-0.31427 15:1.81 16:2.0661 17:0.7066 18:5.4843 19:4.1203 20:2.6256 21:3.1692 22:3.4961 23:0.21757 24:-9.0638 25:-0.69488 
-0.38294817241689966 1:-6.7318 2:-9.647 3:-6.2917 4:-0.62478 5:0.76906 6:2.1625 7:5.0995 8:5.4278 9:4.9172 10:4.5536 11:3.8506 12:4.4819 13:2.3236 14:-7.1326 15:-11.3309 16:-10.4512 17:-5.7704 18:-1.5406 19:3.5722 20:1.9915 21:4.2992 22:5.3941 23:5.2736 24:6.8609 25:-4.5577 
-0.393548903361829 1:1.0183 2:2.9356 3:-1.3568 4:-3.416 5:0.94978 6:-5.1838 7:-3.5707 8:-0.20686 9:-2.2627 10:0.26199 11:0.92451 12:2.59 13:1.5295 14:0.12483 15:-3.4054 16:6.0147 17:2.4248 18:-0.25933 19:0.50292 20:2.7404 21:-5.5363 22:-1.3175 23:0.28187 24:-1.6503 25:0.82752 
-0.3878394526277424 1:-6.9149 2:-6.8255 3:-3.8087 4:2.5106 5:2.116 6:-1.9493 7:4.0477 8:4.5628 9:3.3114 10:1.3324 11:4.0707 12:5.7948 13:-3.0256 14:-9.4349 15:-6.3243 16:-7.0398 17:1.6283 18:4.8917 19:2.2581 20:1.114 21:2.322 22:2.1936 23:1.8524 24:1.758 25:-10.7452 
-0.42345165617991126 1:-1.5652 2:0.82137 3:0.071068 4:-1.0542 5:4.4971 6:5.3891 7:0.13919 8:3.3873 9:3.2071 10:1.861 11:-0.55891 12:0.97539 13:-0.17555 14:-1.3226 15:-0.68117 16:-4.3542 17:-4.971 18:-4.9581 19:1.6353 20:-1.3597 21:-2.9676 22:2.1315 23:3.1848 24:1.6238 25:-0.96215 
-0.3670637916953157 1:3.9818 2:-8.9387 3:-8.4379 4:-7.6173 5:-3.914 6:2.5087 7:2.8441 8:0.30645 9:3.4102 10:3.5849 11:2.9948 12:4.7928 13:3.8375 14:3.6314 15:-5.3293 16:-10.1481 17:-7.7438 18:-4.9644 19:-2.5434 20:2.6801 21:1.023 22:3.2746 23:2.5498 24:3.4263 25:4.4394 
-0.38818715738076903 1:3.0991 2:4.5808 3:3.0155 4:5.0596 5:1.2649 6:-10.0958 7:-5.9966 8:-5.1069 9:-3.3227 10:0.51082 11:1.6706 12:0.37878 13:4.0231 14:3.5964 15:4.0704 16:1.7354 17:3.357 18:5.2764 19:-7.5423 20:-10.0228 21:-6.4325 22:-5.9938 23:-0.56545 24:3.7005 25:2.8968 
-0.39702413918482626 1:-1.3239 2:-2.1563 3:-0.5565 4:0.18029 5:-2.3301 6:0.090393 7:-0.060655 8:1.6865 9:3.5081 10:5.1026 11:5.6174 12:0.48238 13:-3.0973 14:-2.1212 15:-4.3573 16:-1.3013 17:-1.1513 18:-1.5539 19:0.016404 20:-0.85315 21:-0.54394 22:-0.69207 23:2.0121 24:2.3065 25:-0.96977 
-0.3849757869942617 1:2.0584 2:3.0023 3:3.0993 4:2.2008 5:-1.2901 6:-7.9418 7:-4.0372 8:-4.3319 9:-3.961 10:-0.16983 11:0.019204 12:1.6438 13:0.67586 14:0.46299 15:1.0708 16:2.9431 17:3.2815 18:6.3616 19:-0.033556 20:1.4527 21:-9.1712 22:-3.2384 23:-7.0659 24:-3.4236 25:1.0021 
-0.40354274911384613 1:2.3664 2:-0.64958 3:2.3733 4:1.5618 5:1.5577 6:-2.4944 7:0.56934 8:-2.656 9:-5.2289 10:-1.73 11:-1.1395 12:-1.1752 13:-1.0135 14:0.8295 15:2.3257 16:0.61229 17:0.11301 18:3.9367 19:3.9222 20:1.6275 21:-6.1424 22:-1.2922 23:0.34139 24:-2.4558 25:3.896 
-0.36691202218712804 1:5.7873 2:1.98 3:-2.4629 4:-9.9167 5:-6.9168 6:-5.8419 7:-2.6276 8:3.2922 9:2.0247 10:2.6561 11:1.641 12:2.5871 13:3.6623 14:1.3452 15:3.0522 16:2.8552 17:-0.29556 18:-9.4275 19:-7.2888 20:-5.0218 21:-0.29866 22:2.3095 23:2.6935 24:0.9888 25:3.6176 
-0.3897012757818066 1:-1.5663 2:0.17017 3:1.232 4:1.2975 5:0.89843 6:0.77752 7:0.73036 8:-0.23807 9:0.32081 10:1.0429 11:0.89146 12:-0.84126 13:8.7981 14:-3.9009 15:2.6578 16:-0.83579 17:-3.3157 18:-2.9758 19:-6.3106 20:-6.1124 21:-2.7209 22:-2.4481 23:-6.1449 24:2.4631 25:-0.088474 
-0.5034177190398519 1:-1.142 2:1.2468 3:1.0572 4:1.6747 5:-0.4922 6:-1.0557 7:-4.4508 8:-1.1079 9:-0.78149 10:-1.3187 11:5.344 12:1.0311 13:3.0411 14:1.5515 15:-0.224 16:-0.030054 17:0.98683 18:2.0988 19:0.84221 20:-1.6956 21:-1.9412 22:-2.9645 23:-0.83823 24:0.33308 25:-0.7542 
-0.34027106266479634 1:-8.4477 2:-6.5784 3:-5.318 4:-5.3782 5:-1.5783 6:2.677 7:3.8945 8:3.2231 9:3.3136 10:3.8364 11:3.6205 12:2.8568 13:1.8098 14:-3.5707 15:-10.8104 16:-7.1586 17:-2.9997 18:-0.49355 19:2.1708 20:3.8932 21:3.3104 22:3.9261 23:4.0121 24:4.2915 25:1.0937 
-0.2843140891967906 1:-1.0115 2:-0.39203 3:-0.75858 4:0.089442 5:2.9904 6:1.5582 7:1.5594 8:1.0265 9:-0.26635 10:-1.4309 11:-1.8516 12:-3.2059 13:-5.2097 14:-3.5823 15:-3.2835 16:1.0903 17:1.7175 18:1.645 19:3.5941 20:2.1338 21:1.6337 22:1.555 23:0.66259 24:-0.73789 25:-4.8664 
-0.6051072055078182 1:0.19142 2:0.0066376 3:0.2662 4:0.111 5:-0.57007 6:0.16226 7:-0.33175 8:-0.19246 9:0.18025 10:-0.72481 11:-0.18767 12:0.384 13:-0.90331 14:1.5119 15:1.2076 16:-0.85293 17:6.1338 18:0.68126 19:3.9139 20:-0.98489 21:3.5875 22:-1.2703 23:-1.265 24:-2.2029 25:-0.41466 
-0.39012593289519526 1:9.5809 2:4.6068 3:0.79797 4:0.06422 5:2.844 6:-0.78438 7:1.8308 8:-1.4358 9:-0.62238 10:-6.5387 11:-4.6083 12:-0.25249 13:0.099294 14:-0.46199 15:1.8124 16:1.8384 17:0.5998 18:0.76591 19:1.1962 20:2.0052 21:-0.045939 22:-0.63884 23:1.0199 24:-7.7504 25:-0.35717 
-0.3433675393738371 1:1.5656 2:-3.0084 3:-7.0425 4:-2.2144 5:-4.4783 6:-0.72527 7:-0.98652 8:1.0006 9:1.5625 10:1.9412 11:1.8824 12:2.4089 13:1.5457 14:1.702 15:0.054594 16:-3.9164 17:-5.3337 18:-4.9857 19:-4.6842 20:-1.4978 21:-0.56378 22:1.6502 23:2.1506 24:2.6791 25:2.9851 
-0.3887012128772783 1:3.7502 2:2.3656 3:-1.3548 4:-0.68266 5:-1.9147 6:-3.8632 7:-5.8854 8:-3.7438 9:-7.6018 10:-7.1875 11:-4.0608 12:-1.848 13:0.22989 14:3.3028 15:3.1569 16:2.7028 17:1.4519 18:6.112 19:4.9341 20:-7.4385 21:-3.8445 22:-4.9449 23:-14.4574 24:-7.7238 25:2.7784 
-0.35786342392420145 1:2.8053 2:2.1179 3:2.8466 4:0.94134 5:-2.8972 6:-4.9465 7:-5.441 8:-4.3131 9:-0.59422 10:1.1847 11:0.96663 12:2.052 13:2.705 14:2.7011 15:1.5418 16:2.0901 17:2.6625 18:1.5405 19:-2.6874 20:-5.1701 21:-5.3622 22:-3.3448 23:0.97241 24:-1.2538 25:2.7367 
-0.38004038906481463 1:3.5331 2:2.7526 3:2.0987 4:1.1733 5:-1.3592 6:-5.0743 7:-6.98 8:-2.9941 9:-4.3017 10:1.3564 11:6.1138 12:2.1078 13:3.989 14:4.0069 15:3.6829 16:3.6834 17:2.3648 18:0.86205 19:-1.7355 20:-4.9364 21:-9.5288 22:-5.1807 23:-3.9351 24:0.98109 25:2.9124 
-0.3246748151862605 1:-2.6218 2:-4.5192 3:-3.1011 4:-2.6423 5:-3.1585 6:0.56353 7:0.16189 8:0.98689 9:2.0459 10:2.6635 11:1.0329 12:1.2141 13:0.7207 14:0.94742 15:-1.0445 16:-2.3278 17:-7.909 18:-3.4883 19:-1.5361 20:-0.3928 21:-0.25921 22:-0.2174 23:2.0908 24:2.4696 25:-0.81986 
-0.41068416935305907 1:-0.39598 2:0.5754 3:1.4683 4:-0.91373 5:-2.164 6:0.30341 7:0.91283 8:2.2633 9:3.9403 10:-1.5444 11:-0.42096 12:-0.10815 13:-3.7819 14:-2.179 15:-3.6326 16:0.34641 17:2.2493 18:2.2578 19:-1.1277 20:0.61025 21:1.3784 22:2.9853 23:0.5511 24:6.1654 25:-2.4466 
-0.3887196854820521 1:3.4816 2:2.7787 3:3.2129 4:0.48676 5:-3.1357 6:-3.4936 7:-6.5308 8:-3.217 9:-0.50159 10:0.13372 11:0.49956 12:-0.99219 13:-0.70289 14:2.8534 15:6.523 16:7.9322 17:9.195 18:6.0986 19:2.5137 20:1.4417 21:0.7299 22:-2.0101 23:-4.7056 24:-0.8185 25:3.3759 
-0.3735887798566221 1:-3.013 2:-0.67175 3:-5.2652 4:-2.2181 5:-0.40302 6:-0.81601 7:2.2017 8:6.6518 9:3.611 10:1.8222 11:-0.07966 12:-0.39223 13:0.17624 14:-1.3156 15:-3.2508 16:-5.8768 17:-4.3342 18:-6.9362 19:-1.6897 20:-0.43336 21:-0.39725 22:2.171 23:4.3581 24:1.972 25:-0.5462 
-0.3882813770679335 1:4.2199 2:3.8286 3:1.3724 4:1.7275 5:0.37662 6:-16.5276 7:-9.4908 8:-4.4895 9:0.37248 10:0.8909 11:-0.35753 12:3.1252 13:4.1883 14:4.4094 15:5.4007 16:5.4672 17:4.3264 18:1.904 19:-0.19707 20:-7.4884 21:-13.5501 22:-7.2357 23:0.30993 24:1.3923 25:7.9679 
-0.582323168229878 1:0.22963 2:-0.022889 3:-0.32511 4:0.052111 5:0.58033 6:1.0123 7:0.26217 8:0.60581 9:-0.23585 10:-1.1194 11:-1.3822 12:-3.5216 13:-2.6842 14:-0.75852 15:-0.40826 16:-2.8711 17:0.077788 18:-1.3009 19:0.63483 20:1.7655 21:2.9084 22:5.208 23:3.4878 24:-2.1505 25:0.11699 
-0.40525796854315976 1:-2.7382 2:1.1111 3:0.19572 4:-0.49375 5:2.6582 6:3.039 7:0.60047 8:-1.5559 9:-2.3158 10:-2.7955 11:-3.9775 12:-1.9201 13:-3.1852 14:-1.1915 15:-1.2914 16:1.4667 17:2.5197 18:-0.03318 19:1.4106 20:3.1981 21:0.82402 22:-0.023537 23:-2.3055 24:-3.3979 25:-2.4048 
-0.3852812502782637 1:1.7022 2:1.4352 3:1.215 4:2.9007 5:2.2988 6:1.4904 7:3.6554 8:3.2731 9:5.8357 10:-3.6716 11:-5.5289 12:-3.3529 13:-3.1411 14:-4.9376 15:-0.428 16:0.43673 17:0.22654 18:0.13453 19:0.54598 20:0.21895 21:0.36986 22:1.7069 23:3.292 24:4.5188 25:-0.082788 
-0.3899270170904716 1:-5.371 2:-4.1501 3:-2.6203 4:2.7116 5:1.6842 6:1.4132 7:-0.46593 8:-2.5504 9:-1.3702 10:0.84285 11:-2.4625 12:0.98464 13:-4.6587 14:-4.7622 15:-5.4694 16:-6.673 17:-4.9663 18:-0.70133 19:0.49395 20:3.18 21:0.13004 22:-3.5108 23:-5.379 24:-2.4803 25:-2.3461 
-0.3734457862370815 1:-6.5283 2:-3.1253 3:0.46144 4:2.3069 5:3.534 6:2.562 7:3.7928 8:4.247 9:1.5826 10:0.31097 11:3.9778 12:3.7462 13:-10.1808 14:-8.4201 15:-5.1618 16:-4.1654 17:-1.9916 18:3.0266 19:2.4881 20:0.90536 21:4.048 22:4.2297 23:1.5166 24:0.42504 25:-5.7359 
-0.5630365168023872 1:-2.8945 2:-4.579 3:-0.76048 4:-0.489 5:0.098975 6:-0.24317 7:0.28888 8:-0.4307 9:0.37103 10:0.92996 11:1.4927 12:2.5981 13:1.9822 14:2.9964 15:2.0433 16:-3.5271 17:-1.8152 18:-3.4069 19:-2.8249 20:-1.1257 21:-1.4933 22:-0.18259 23:-0.05831 24:-1.6424 25:-0.96461 
-0.33166443078523633 1:-0.81987 2:-2.094 3:-1.8556 4:-2.7009 5:-2.8225 6:-1.6529 7:-2.3139 8:-4.5565 9:-4.0358 10:4.3597 11:5.8762 12:6.3797 13:3.0915 14:1.7793 15:-0.22105 16:-1.8151 17:-1.9224 18:-1.5148 19:-2.549 20:-4.1226 21:-3.6364 22:-3.5059 23:-0.13077 24:3.8641 25:0.58714 
-0.37445528903886877 1:-1.2617 2:-1.8193 3:-3.0356 4:-0.078448 5:1.991 6:4.624 7:6.4698 8:2.0499 9:-0.1067 10:-0.48133 11:-1.6955 12:-1.4673 13:-2.6252 14:-2.193 15:-0.70911 16:-2.6113 17:-4.1248 18:3.7112 19:7.2239 20:7.4678 21:5.4346 22:1.8865 23:-1.3014 24:-2.8346 25:-2.4059 
-0.38779803947292885 1:3.1086 2:-0.31326 3:-3.6816 4:2.2645 5:-5.7074 6:-9.6173 7:-6.5055 8:5.8369 9:-0.51365 10:-0.21661 11:3.4948 12:2.0769 13:1.5823 14:0.055587 15:-0.33597 16:-0.90309 17:-2.0787 18:-1.0092 19:-3.5777 20:-6.9534 21:-6.6803 22:1.1874 23:3.5661 24:1.1762 25:3.0835 
-0.3883806206159194 1:3.1996 2:3.7932 3:1.0552 4:-13.5704 5:-8.9061 6:-5.3359 7:-0.73129 8:1.8088 9:2.2359 10:4.2556 11:3.8956 12:1.5326 13:2.4807 14:0.63181 15:2.97 16:0.22374 17:1.688 18:-0.78034 19:-4.2044 20:-11.2858 21:-9.1202 22:-2.6339 23:0.37648 24:4.7353 25:2.1077 
-0.38472085706193054 1:3.1874 2:3.1301 3:2.7937 4:5.0461 5:4.9693 6:6.2333 7:4.4749 8:2.9479 9:-0.41909 10:-10.013 11:-10.8691 12:-4.9923 13:-3.5658 14:-2.9872 15:0.8064 16:3.2873 17:4.7923 18:5.0162 19:6.1389 20:5.4454 21:3.3035 22:2.0978 23:-2.5839 24:-7.7014 25:-1.0946 
-0.3630604890081322 1:7.7351 2:4.8963 3:1.4805 4:-1.2896 5:-2.6347 6:-0.96926 7:-2.412 8:-3.4369 9:-2.8698 10:-1.835 11:-3.4115 12:-2.7421 13:5.9905 14:10.0063 15:8.2705 16:2.6122 17:-2.6091 18:-2.5025 19:-2.0585 20:-2.3371 21:-2.539 22:-1.2728 23:-1.7846 24:-3.9704 25:4.7718 
-0.39989211064831914 1:-2.193 2:-2.1075 3:-5.9914 4:-7.2626 5:-5.3745 6:-1.6187 7:-2.9622 8:-3.5154 9:2.4048 10:0.3656 11:1.7683 12:2.2255 13:1.5505 14:-0.003337 15:-1.4531 16:-1.1645 17:-3.1536 18:-2.5029 19:-3.617 20:-2.7277 21:-0.51192 22:-2.1002 23:-0.53841 24:4.4976 25:-0.41747 
-0.38697989735070504 1:-3.2628 2:-1.767 3:0.2816 4:-0.21958 5:-1.1192 6:-0.72632 7:2.3008 8:-0.4045 9:-0.057367 10:6.6287 11:3.8273 12:-4.6123 13:0.86698 14:0.67416 15:-7.0224 16:-3.6284 17:-0.29405 18:-1.4717 19:-0.025056 20:0.36206 21:2.7325 22:2.5679 23:1.285 24:1.0513 25:-6.4806 
-0.38830414279361586 1:1.4209 2:3.1927 3:2.626 4:0.90638 5:5.8119 6:-4.3771 7:-10.2023 8:-7.9724 9:-0.76497 10:3.1081 11:2.1975 12:-0.0042885 13:1.9279 14:1.4269 15:4.6785 16:1.6756 17:1.9373 18:3.337 19:1.5301 20:-12.1279 21:-8.4627 22:-4.8613 23:0.42484 24:3.2744 25:3.5923 
-0.3824170425115851 1:-0.064733 2:-1.4902 3:-5.5157 4:-5.723 5:1.318 6:-2.6946 7:0.56777 8:3.7368 9:2.8359 10:0.7921 11:-0.30356 12:1.4584 13:0.92854 14:1.0222 15:2.2114 16:2.8197 17:-3.5966 18:-7.5398 19:-0.29761 20:-2.3144 21:-0.78755 22:5.2408 23:2.7005 24:1.7289 25:0.54941 
-0.3884267680558052 1:-9.8815 2:-8.1189 3:-3.1421 4:-1.6143 5:-3.0145 6:1.1811 7:2.945 8:2.4679 9:3.0347 10:2.7966 11:6.211 12:5.0417 13:4.5746 14:3.5764 15:-0.35364 16:-13.7659 17:-9.7493 18:-6.1188 19:-3.4204 20:1.2557 21:4.5056 22:3.8128 23:3.6822 24:3.3089 25:0.38288 
-0.3627262958649728 1:-1.2887 2:0.27808 3:-10.3187 4:-3.7562 5:-1.2723 6:-0.081949 7:1.0124 8:2.365 9:2.6656 10:1.6724 11:2.1312 12:3.2879 13:0.57911 14:1.8339 15:-0.37014 16:-4.0127 17:-8.0674 18:-3.31 19:-1.6903 20:-0.37386 21:1.1244 22:2.4958 23:1.6328 24:0.86865 25:1.5207 
-0.3621129263823055 1:-3.2363 2:-1.9935 3:0.58474 4:2.0979 5:3.647 6:3.524 7:3.1744 8:1.941 9:1.5354 10:1.2607 11:3.4426 12:0.21756 13:-7.5859 14:-5.2706 15:-2.9198 16:-1.3201 17:0.94044 18:2.5425 19:3.0312 20:4.5504 21:5.599 22:4.9145 23:4.8131 24:2.3561 25:-6.802 
-0.3688897319951592 1:-1.8921 2:-0.94903 3:-0.4065 4:2.0139 5:3.021 6:1.6772 7:1.4397 8:2.3148 9:0.66437 10:1.7904 11:0.69955 12:3.9607 13:-10.1194 14:-6.9047 15:-2.1309 16:-1.6437 17:1.0647 18:1.4798 19:1.5114 20:1.444 21:1.3051 22:1.6873 23:2.1086 24:2.2363 25:-6.7348 
-0.3897384572896557 1:2.0195 2:1.7946 3:2.8333 4:-1.4844 5:-2.1309 6:1.0718 7:0.88807 8:1.3437 9:4.8121 10:0.30702 11:-4.1989 12:-1.1694 13:-0.66558 14:-0.86213 15:-1.2005 16:-0.08327 17:-1.5654 18:-6.0106 19:-4.1205 20:-0.27655 21:5.8923 22:4.0991 23:1.8949 24:0.14084 25:1.6677 
-0.3880175860945975 1:1.857 2:1.406 3:2.0694 4:-0.48215 5:-6.0643 6:-8.0811 7:-7.5353 8:-2.1002 9:2.3911 10:6.0838 11:4.2504 12:3.1764 13:2.1355 14:3.5917 15:4.013 16:0.93954 17:-3.725 18:-7.6322 19:-5.8577 20:-4.0492 21:1.5332 22:-0.68381 23:0.81025 24:7.1717 25:2.8693 
-0.40142438386911455 1:-1.3702 2:-2.2146 3:-3.8976 4:-1.0122 5:1.8648 6:0.87257 7:0.3661 8:-0.64552 9:-2.1327 10:-3.4935 11:-5.301 12:-6.6203 13:-5.7655 14:-3.4913 15:-0.5909 16:0.89153 17:2.3205 18:2.5802 19:1.6601 20:0.10524 21:0.20479 22:0.31626 23:0.038391 24:-0.19873 25:-0.13508 
-0.44662454205143093 1:0.75081 2:0.85089 3:0.76116 4:-0.78242 5:-0.62595 6:0.48585 7:0.49182 8:4.0541 9:-2.9082 10:2.2171 11:-0.37043 12:-4.3967 13:-3.4122 14:0.54596 15:0.38882 16:-0.27074 17:0.88391 18:0.41209 19:-0.12778 20:0.23392 21:0.34941 22:3.9943 23:2.498 24:-3.3126 25:0.37193 
-0.40325190213612033 1:-0.92197 2:1.7021 3:0.013894 4:-2.1866 5:-2.2274 6:-7.7923 7:2.8052 8:0.60874 9:2.1448 10:3.3206 11:-0.8503 12:-0.17782 13:-0.71422 14:0.18113 15:-0.62186 16:-0.68215 17:-0.38634 18:-2.1867 19:-2.8327 20:-3.7424 21:0.86706 22:-0.42701 23:2.3733 24:0.16477 25:0.7714 
-0.3824259863842277 1:-0.54016 2:3.2836 3:2.6536 4:0.33824 5:1.559 6:1.1477 7:-0.55505 8:-0.34456 9:-0.98216 10:3.265 11:-9.029 12:-4.5429 13:-0.57141 14:0.73515 15:1.1883 16:3.1014 17:1.588 18:1.7591 19:0.81749 20:2.323 21:3.9289 22:2.2711 23:-2.4426 24:-2.1126 25:-0.77199 
-0.3876089731803309 1:0.88736 2:-4.2471 3:0.74809 4:-2.2934 5:-9.1128 6:-5.7805 7:1.7078 8:-0.40245 9:0.72272 10:4.1642 11:1.9977 12:0.53579 13:1.7081 14:0.99581 15:0.68535 16:-2.0475 17:-6.4047 18:-8.4275 19:-9.7442 20:-5.6354 21:-4.7093 22:1.7906 23:-1.0453 24:1.5981 25:0.60195 
-0.390455407774646 1:0.56597 2:-0.35471 3:-0.32509 4:1.1298 5:2.1982 6:0.86651 7:2.0416 8:1.8024 9:1.0969 10:2.3076 11:1.0899 12:0.40705 13:1.2142 14:-1.5532 15:-11.0599 16:-8.9288 17:1.1748 18:-1.1253 19:2.1121 20:3.4921 21:1.9128 22:1.2114 23:1.1039 24:1.92 25:0.81493 
-0.3873063219355521 1:3.0752 2:-1.2268 3:0.045666 4:-0.25783 5:-11.3249 6:-7.7166 7:2.4145 8:-1.3365 9:0.51813 10:3.3243 11:2.8223 12:0.3141 13:2.7156 14:2.0479 15:-0.79157 16:-0.68934 17:0.10891 18:-0.34038 19:-7.8324 20:-5.2702 21:0.35062 22:1.2629 23:0.97099 24:2.6732 25:2.2308 
-0.4324394638777981 1:2.0025 2:1.6219 3:0.66211 4:-0.92414 5:-1.9007 6:-2.0825 7:-3.0917 8:-3.3952 9:-2.9411 10:-1.4371 11:-0.1891 12:0.26399 13:2.4944 14:0.30523 15:1.5072 16:3.1377 17:1.4475 18:0.45424 19:-2.8373 20:-3.6101 21:-4.6672 22:-1.8987 23:-3.2322 24:-1.9372 25:-0.19376 
-0.38332157339054906 1:-1.407 2:-1.1461 3:-1.0013 4:-2.6728 5:-2.2622 6:-3.3783 7:-3.2228 8:2.0157 9:4.4062 10:4.8396 11:7.2638 12:2.5386 13:-2.9733 14:-2.1905 15:-1.4302 16:-1.49 17:-2.5351 18:-2.0313 19:-0.29374 20:-1.8783 21:-4.8504 22:-0.76754 23:6.2433 24:7.8877 25:-4.4632 
-0.4183743923821305 1:-0.96326 2:1.0322 3:1.2723 4:3.2601 5:-0.69794 6:-2.0985 7:-3.0027 8:-3.4962 9:1.2592 10:3.5731 11:1.8081 12:-1.354 13:-1.9676 14:-3.6847 15:-2.3547 16:-1.5887 17:2.1316 18:1.9794 19:0.9336 20:-2.9545 21:-4.4252 22:-2.3601 23:-2.1576 24:-1.0302 25:-2.7164 
-0.38817902781564606 1:-8.7684 2:-4.5542 3:5.0094 4:4.1084 5:0.2676 6:0.91234 7:3.3853 8:5.0877 9:2.0703 10:2.8024 11:0.70333 12:-0.55718 13:-7.9683 14:-7.3614 15:-4.8222 16:4.9163 17:3.4585 18:3.4296 19:3.4947 20:0.71659 21:0.63928 22:2.7973 23:3.126 24:0.41673 25:-6.5866 
-0.3804327384769537 1:0.43535 2:2.7477 3:7.4726 4:5.5219 5:3.4367 6:1.3468 7:-1.166 8:-2.6322 9:-3.2817 10:-3.0804 11:-2.1537 12:-1.306 13:-2.4563 14:-1.7042 15:2.3438 16:5.0446 17:4.5973 18:0.71275 19:1.3514 20:0.30082 21:-0.81185 22:-2.7758 23:-2.681 24:-2.3731 25:-0.4959 
-0.38979996678262724 1:-4.7864 2:-0.84632 3:-0.92495 4:0.50193 5:2.251 6:2.8896 7:0.35027 8:1.9952 9:0.78142 10:2.8046 11:0.48624 12:-1.0298 13:1.0684 14:-7.4109 15:-2.4112 16:-0.91163 17:-1.9502 18:1.3517 19:1.3402 20:1.9752 21:-0.21745 22:0.72349 23:5.3061 24:4.0848 25:-9.9688 
-0.38541348882575494 1:-0.28771 2:0.72962 3:1.421 4:1.6973 5:1.9722 6:2.7115 7:4.0855 8:8.7166 9:5.6781 10:2.3557 11:-6.5954 12:-1.5013 13:-2.5766 14:-2.4009 15:-3.3898 16:-2.4648 17:1.168 18:1.2197 19:2.6606 20:1.5566 21:1.2659 22:1.3679 23:1.5793 24:6.2289 25:-0.61933 
-0.38833418761082933 1:-1.4286 2:1.5943 3:-0.86971 4:-4.2871 5:-4.0565 6:-1.7224 7:0.28769 8:0.93671 9:2.22 10:-1.712 11:3.8504 12:-1.7541 13:2.8707 14:2.3137 15:5.7534 16:2.3082 17:1.1809 18:-4.5795 19:-4.1383 20:-2.5922 21:-1.6419 22:-1.4003 23:1.1032 24:-1.3165 25:4.7046 
-0.3914847648394375 1:3.8377 2:-0.87658 3:3.4586 4:2.1401 5:0.036526 6:2.711 7:10.7357 8:0.25329 9:-4.4501 10:-3.4165 11:-2.5472 12:-3.0802 13:-2.6798 14:-2.9646 15:-5.4778 16:-3.6418 17:-4.7736 18:1.1529 19:0.043409 20:-0.93149 21:1.004 22:2.7845 23:1.4557 24:0.59843 25:1.1703 
-0.38783640636275546 1:0.17829 2:-1.1201 3:-2.2514 4:-5.8416 5:-3.6882 6:-5.9354 7:-4.4361 8:-7.0082 9:-0.16327 10:0.20227 11:-0.19498 12:0.65522 13:1.4587 14:1.6686 15:1.7107 16:0.65211 17:-3.5309 18:-7.3233 19:-3.6378 20:-5.4533 21:-3.688 22:-5.9982 23:-0.42453 24:0.51615 25:2.4949 
-0.3504281073437814 1:0.069454 2:1.6052 3:3.8588 4:3.5319 5:2.8543 6:0.8506 7:-0.6525 8:-0.95377 9:-2.0084 10:-4.291 11:-3.419 12:-5.7213 13:-2.4497 14:0.45264 15:0.93921 16:0.42575 17:2.0717 18:2.6961 19:3.1076 20:2.0728 21:0.4177 22:-0.52223 23:-2.7387 24:-5.2281 25:1.1521 
-0.3876034548501899 1:-1.0359 2:-1.2471 3:-4.2252 4:-4.8193 5:0.17619 6:-3.7916 7:1.3062 8:10.5266 9:5.2922 10:0.51476 11:0.029723 12:-0.73845 13:-1.2302 14:-2.6589 15:-3.4637 16:-1.7598 17:-2.6742 18:-2.8661 19:-0.12528 20:2.9608 21:7.4422 22:3.4062 23:0.53583 24:0.3299 25:-1.7773 
-0.38747427215286423 1:2.8382 2:3.0766 3:3.8677 4:-1.1492 5:0.98444 6:3.3731 7:0.68619 8:-7.5049 9:-6.2545 10:-6.6376 11:-3.1193 12:6.1693 13:3.9231 14:2.6846 15:3.1856 16:3.506 17:2.9191 18:-1.3254 19:2.7429 20:3.5108 21:-7.9447 22:-7.148 23:-7.6047 24:-0.40922 25:1.9193 
-0.40536265455697146 1:-0.19927 2:2.2133 3:2.114 4:-0.0077048 5:2.9348 6:0.5338 7:-0.15649 8:0.46097 9:3.0029 10:0.88788 11:-0.9963 12:-2.9327 13:-0.53275 14:0.74868 15:-0.68985 16:-3.4997 17:-2.5755 18:-3.992 19:-4.066 20:-4.5921 21:-4.8255 22:-3.0036 23:-0.036815 24:1.0347 25:-7.0744 
-0.38896788525676235 1:-2.4067 2:-4.3286 3:1.5829 4:-3.0896 5:0.20549 6:8.0355 7:3.2799 8:3.094 9:0.2372 10:0.58231 11:2.1344 12:3.4284 13:0.77724 14:-0.414 15:-3.6955 16:-4.7362 17:-2.897 18:1.5525 19:0.24151 20:6.3404 21:3.0135 22:1.9362 23:-0.46503 24:1.1975 25:1.4312 
-0.3849729832873282 1:-4.5241 2:-4.5247 3:-1.144 4:-5.4352 5:-2.2208 6:2.0635 7:-0.86365 8:2.9917 9:2.7325 10:0.32854 11:-0.013988 12:-2.0758 13:-2.9294 14:-5.5877 15:-7.595 16:-7.0525 17:-2.5076 18:-3.4432 19:-2.075 20:-0.55339 21:-1.3057 22:0.96637 23:4.1984 24:1.0494 25:-3.778 
-0.3881945365883178 1:3.2129 2:4.0498 3:4.1262 4:5.2984 5:4.9276 6:4.6469 7:0.91821 8:-3.1612 9:-8.283 10:-9.4229 11:-3.9251 12:0.36788 13:1.3779 14:4.0733 15:4.1622 16:3.6076 17:4.3495 18:5.1338 19:4.5651 20:1.7148 21:-0.4809 22:-8.7783 23:-6.2841 24:-5.1752 25:1.442 
-0.3930435638006903 1:2.1874 2:2.9149 3:4.2186 4:2.7144 5:-4.8104 6:-6.2525 7:-4.6276 8:0.49979 9:-1.63 10:-1.4205 11:-0.063508 12:0.33616 13:-0.7538 14:0.54743 15:0.69099 16:1.2121 17:1.8788 18:2.6476 19:1.4811 20:-1.9221 21:-3.3383 22:-3.6213 23:-2.6331 24:-2.1803 25:1.2822 
-0.4090515832460101 1:-2.8139 2:-1.7273 3:-7.0395 4:-4.0995 5:-0.7905 6:0.83294 7:-0.50446 8:-1.511 9:-2.498 10:2.0083 11:0.72092 12:1.0643 13:4.269 14:1.6535 15:-2.2483 16:-2.1313 17:2.0299 18:-3.4949 19:-1.497 20:0.23425 21:-1.159 22:-1.9651 23:-1.752 24:0.28539 25:1.794 
-0.374489308746903 1:1.0629 2:4.4792 3:3.1315 4:-5.4026 5:-7.6077 6:-6.4722 7:-0.2914 8:2.8758 9:1.9658 10:1.0091 11:1.8694 12:2.363 13:2.4653 14:1.7787 15:1.3239 16:3.3373 17:0.57437 18:-9.3251 19:-8.752 20:-4.6977 21:-1.3878 22:4.5758 23:2.659 24:1.8602 25:1.1179 
-0.38690779010912457 1:-3.4007 2:1.3147 3:-6.5644 4:-4.9752 5:-2.5235 6:-0.14718 7:2.3489 8:-1.2156 9:-1.4945 10:0.55736 11:0.79898 12:-0.1116 13:2.2595 14:6.4939 15:-3.2221 16:-1.2992 17:1.8759 18:-4.0472 19:-5.6957 20:-4.3294 21:0.056432 22:1.4857 23:2.3408 24:0.39501 25:-1.2718 
-0.3871858697539576 1:2.4945 2:-1.1034 3:6.1959 4:2.2108 5:2.0555 6:-0.85318 7:-2.4197 8:-3.4766 9:-0.79286 10:-3.1441 11:-1.7837 12:1.5383 13:-0.74238 14:-0.38752 15:2.3134 16:0.26932 17:4.2448 18:1.738 19:4.1913 20:-1.6598 21:-2.3817 22:-2.8475 23:-5.0226 24:-2.8932 25:-0.71576 
-0.3884386693177813 1:-0.10455 2:0.75726 3:0.92292 4:2.3308 5:3.2711 6:3.8105 7:3.8596 8:3.7769 9:5.6434 10:7.33 11:4.2047 12:-7.0081 13:-5.8184 14:-0.79475 15:-2.5298 16:-3.8562 17:-1.8694 18:1.0022 19:3.1909 20:2.2468 21:0.9164 22:1.1781 23:3.6022 24:6.007 25:-3.5163 
-0.3883526402658157 1:0.35897 2:0.90102 3:-2.8594 4:-12.9339 5:-4.3337 6:3.1356 7:0.73388 8:-0.14151 9:2.1724 10:2.6433 11:1.7559 12:1.3506 13:1.5787 14:0.79703 15:-3.7081 16:1.2519 17:-7.4359 18:-12.8242 19:2.0333 20:1.3126 21:-2.6168 22:1.6811 23:1.3853 24:0.54375 25:-1.0089 
-0.3847956107333927 1:1.5826 2:3.642 3:2.8885 4:2.7465 5:2.359 6:0.98767 7:-8.2482 8:-5.0359 9:-2.4614 10:-0.31899 11:0.32805 12:3.2652 13:3.7879 14:0.7229 15:2.3848 16:1.102 17:1.8123 18:1.6313 19:-0.30207 20:1.6523 21:-8.7225 22:-6.4933 23:-3.3202 24:0.87718 25:3.1247 
-0.3923720355376417 1:-0.72063 2:-4.3342 3:1.6216 4:1.3029 5:0.77999 6:5.2934 7:2.1034 8:1.5053 9:-0.31014 10:-0.12441 11:-0.11216 12:-0.34436 13:-0.45875 14:-0.35045 15:-3.8034 16:-3.089 17:1.5333 18:0.37935 19:4.6806 20:4.143 21:4.5946 22:-0.106 23:-5.1648 24:-2.8903 25:-0.3904 
-0.31550298206933663 1:3.8637 2:-0.29863 3:-1.6624 4:-1.605 5:-0.97443 6:-2.3107 7:-2.6397 8:-2.3096 9:-3.417 10:-2.4629 11:1.5837 12:6.0945 13:7.7519 14:1.3784 15:-1.4557 16:-0.71366 17:-1.7168 18:-2.4299 19:-2.7622 20:-2.2519 21:-2.5886 22:-2.4346 23:-2.585 24:-0.65235 25:6.8481 
