svm_type c_svc
kernel_type rbf
gamma 0.04
nr_class 2
total_sv 260
rho 0.6218824075697361
label 1 0
nr_sv 88 172
SV
1.0 1:-0.71318 2:-0.6703 3:-0.20161 4:1.823 5:0.83824 6:2.6553 7:1.8974 8:-0.51994 9:-2.053 10:-1.5309 11:-1.9761 12:-3.5559 13:-0.77268 14:0.576 15:2.727 16:1.449 17:1.073 18:-0.23818 19:-0.13951 20:0.012781 21:-0.24927 22:-0.3158 23:-0.4186 24:-0.28331 25:-0.21156 
1.0 1:4.6621 2:0.57344 3:-2.2051 4:-3.2723 5:-2.1018 6:-0.23543 7:0.30725 8:-1.0741 9:-0.60141 10:-0.37025 11:0.061618 12:1.2603 13:1.2438 14:1.5861 15:-0.23579 16:-5.874 17:-5.2436 18:-5.6194 19:-4.2097 20:-0.52445 21:2.2065 22:2.8798 23:3.4379 24:0.85767 25:9.6393 
1.0 1:-3.4285 2:-3.969 3:-2.5229 4:-0.40438 5:-0.4078 6:-1.3821 7:-1.3954 8:-2.9933 9:-2.3004 10:-0.9784 11:-1.963 12:-1.4282 13:1.5917 14:0.39969 15:0.12019 16:-0.31765 17:-0.62456 18:-2.3623 19:-3.1599 20:-1.6446 21:-2.1296 22:-2.1633 23:1.3375 24:0.010961 25:-4.7861 
1.0 1:0.86705 2:-7.4944 3:-19.8796 4:-12.133 5:-6.1852 6:-2.9761 7:-1.5819 8:-2.1901 9:0.40248 10:3.1305 11:2.0187 12:2.02 13:5.1928 14:5.2907 15:4.3934 16:4.4725 17:4.4675 18:3.9839 19:3.584 20:2.7127 21:1.5344 22:-0.20885 23:-1.3807 24:-2.3352 25:4.6671 
0.3437071585877146 1:-0.24602 2:-0.36384 3:-0.81202 4:-1.167 5:-1.0013 6:-0.68817 7:-0.15346 8:-0.21337 9:0.0066704 10:-0.46901 11:0.0071692 12:-0.14262 13:0.28686 14:-0.21757 15:-0.68376 16:-0.98462 17:-0.70215 18:-1.0097 19:-1.403 20:-1.8731 21:-0.52583 22:-0.84097 23:-3.3439 24:-2.6352 25:-0.29393 
1.0 1:1.7799 2:-0.13921 3:0.46111 4:0.87797 5:5.0587 6:4.2143 7:2.4081 8:2.6934 9:3.0004 10:1.8882 11:1.313 12:0.020589 13:-0.74885 14:-1.9117 15:-3.2438 16:-3.2874 17:-2.1864 18:-0.88356 19:0.22115 20:0.55848 21:0.32073 22:0.021177 23:0.35453 24:0.01105 25:1.4586 
0.25467269333548953 1:-0.69774 2:-0.50292 3:0.29756 4:0.50381 5:0.85733 6:1.0495 7:0.99625 8:1.0859 9:1.2624 10:1.3717 11:1.5521 12:1.9197 13:1.336 14:1.7956 15:2.2272 16:1.3404 17:1.1128 18:0.6129 19:-0.054819 20:0.07893 21:2.1328 22:1.9023 23:-0.36323 24:-1.7033 25:-0.79979 
0.5499882744088473 1:2.3399 2:2.4854 3:2.855 4:2.5365 5:2.1304 6:1.799 7:1.9701 8:1.4691 9:1.7075 10:1.8528 11:1.4073 12:0.9235 13:1.6465 14:1.7428 15:2.0137 16:1.6812 17:1.2065 18:0.47339 19:0.055991 20:0.21103 21:-0.13149 22:-0.2307 23:0.0050461 24:0.07325 25:1.7063 
1.0 1:1.0111 2:-4.3387 3:-3.4074 4:-1.2235 5:-3.7394 6:-5.8174 7:-2.7371 8:-3.2285 9:-4.5546 10:-4.9827 11:-4.0398 12:-2.0956 13:-0.43542 14:0.053098 15:-0.10162 16:0.53137 17:1.1518 18:2.1467 19:2.404 20:2.2751 21:2.6983 22:3.1308 23:2.6022 24:2.102 25:1.764 
1.0 1:2.8353 2:4.9756 3:9.0616 4:13.7114 5:8.1098 6:4.0138 7:0.31936 8:-1.6756 9:0.11233 10:-1.5119 11:0.90505 12:-0.9664 13:-0.74829 14:-3.7782 15:-4.9598 16:-3.784 17:-1.2568 18:2.1509 19:2.7805 20:4.1551 21:3.8922 22:3.3854 23:3.5118 24:3.3858 25:1.6819 
0.44031094559299155 1:-1.2174 2:-2.2545 3:-3.36 4:-3.6358 5:-4.0304 6:-4.1571 7:-3.2987 8:-2.3959 9:-2.0672 10:-0.9696 11:-0.025221 12:-1.3503 13:-1.3989 14:-0.74532 15:-0.73067 16:-0.46189 17:-0.3452 18:-0.18799 19:-0.019055 20:0.058752 21:0.03838 22:0.081233 23:0.09528 24:0.087271 25:-0.60267 
1.0 1:-2.1603 2:0.51839 3:-3.2673 4:-1.2358 5:-3.8186 6:-4.0049 7:-4.7059 8:-4.925 9:-3.6245 10:-2.2427 11:-2.1207 12:0.082259 13:2.8356 14:1.5346 15:0.49346 16:-0.20903 17:0.21135 18:0.26373 19:-0.22052 20:-1.0688 21:-0.19291 22:-1.0207 23:-0.32555 24:0.52983 25:-2.7928 
1.0 1:3.1159 2:4.7802 3:1.3333 4:-2.0437 5:-2.4975 6:1.0147 7:-3.1014 8:2.2184 9:2.4081 10:-2.6691 11:-6.9749 12:-6.9631 13:-6.3869 14:-4.0987 15:-3.437 16:-0.21665 17:-4.1674 18:-2.8355 19:-1.048 20:-0.99516 21:-4.352 22:-9.4475 23:-3.9408 24:-1.9033 25:1.7904 
1.0 1:-7.5234 2:-7.1492 3:-3.1459 4:-0.73015 5:-3.0408 6:-1.877 7:-1.6675 8:-4.4106 9:-7.5053 10:-6.0156 11:-8.2887 12:-1.8005 13:-0.83019 14:-1.651 15:-1.185 16:-0.087402 17:0.94956 18:2.1226 19:1.3726 20:0.16239 21:-0.92445 22:-0.26822 23:1.0225 24:0.28755 25:-7.6493 
1.0 1:-1.1928 2:0.69719 3:10.3309 4:3.4678 5:1.7307 6:0.26554 7:-0.34252 8:-0.43856 9:0.028009 10:0.3187 11:0.80219 12:1.0792 13:1.22 14:1.1316 15:1.5768 16:1.2832 17:0.74911 18:0.84835 19:1.5862 20:0.4591 21:0.84557 22:0.81475 23:0.41529 24:0.18685 25:-5.3316 
1.0 1:2.8139 2:3.4064 3:2.2229 4:-1.6881 5:-4.6674 6:-3.3401 7:-0.71467 8:0.82432 9:4.6232 10:-1.4613 11:-7.0789 12:-7.4371 13:-8.8656 14:-5.3053 15:-2.8937 16:-2.4168 17:-4.3419 18:-2.8827 19:-2.4343 20:-3.9345 21:-3.0847 22:-1.2022 23:-4.086 24:-7.7241 25:-0.47227 
0.3547415493740241 1:-1.1586 2:-1.0866 3:-0.63891 4:-0.88291 5:-0.27231 6:1.6863 7:2.466 8:2.0116 9:2.5094 10:2.3732 11:1.7452 12:1.8324 13:0.62084 14:0.42523 15:0.84439 16:0.71874 17:-0.42609 18:0.53341 19:-0.19252 20:0.19402 21:0.47222 22:0.11377 23:0.031956 24:-0.15319 25:-1.8983 
1.0 1:-2.6072 2:-5.3919 3:-4.6428 4:-0.8096 5:-0.18337 6:-1.0473 7:2.1654 8:0.41656 9:-4.1705 10:-6.4888 11:-6.498 12:-3.2758 13:-0.86533 14:-1.0303 15:-1.6347 16:-1.5324 17:-1.6149 18:-2.7429 19:-5.9226 20:-5.9109 21:-12.0692 22:-7.8767 23:-4.8993 24:-2.7321 25:-1.6234 
1.0 1:2.0508 2:0.67224 3:-0.25078 4:-0.27199 5:-1.2361 6:-0.14914 7:0.99098 8:1.8275 9:2.4054 10:4.1852 11:2.6208 12:2.4808 13:3.8233 14:2.2383 15:2.7209 16:-0.48518 17:-0.47719 18:-0.80366 19:-1.4422 20:-2.7726 21:-0.0058502 22:-1.0548 23:3.1974 24:2.2259 25:2.0189 
1.0 1:-1.4929 2:-2.7374 3:-3.2097 4:-5.6901 5:-6.4933 6:-6.58 7:-8.732 8:-6.691 9:-2.7063 10:-1.3801 11:-0.021411 12:1.7087 13:2.174 14:3.3683 15:3.783 16:3.9644 17:3.1063 18:2.4265 19:1.3497 20:1.3667 21:0.46868 22:0.39165 23:1.0475 24:1.0477 25:-1.0713 
0.8360772039029104 1:0.23949 2:-0.68095 3:-0.61921 4:0.25167 5:2.3018 6:3.3702 7:3.903 8:3.8398 9:1.6877 10:0.52497 11:0.38499 12:0.63744 13:0.71 14:0.077707 15:0.016659 16:0.26637 17:0.85033 18:0.52953 19:0.13926 20:0.87766 21:0.67477 22:0.27489 23:-0.048104 24:0.28171 25:0.70587 
0.425560968016885 1:0.058594 2:-0.053037 3:-0.05101 4:-0.078492 5:0.025238 6:0.43571 7:0.36013 8:0.80862 9:0.89089 10:1.2345 11:0.486 12:0.24343 13:0.093171 14:1.0618 15:0.88812 16:2.8115 17:1.6177 18:2.8681 19:2.5291 20:2.2736 21:1.2821 22:0.89608 23:0.89793 24:-0.90803 25:0.12289 
1.0 1:-5.1735 2:-3.1895 3:-1.5757 4:0.19787 5:1.7589 6:2.6595 7:2.5782 8:2.4057 9:2.5514 10:2.6585 11:2.1281 12:1.23 13:0.74165 14:0.63039 15:0.23437 16:0.10076 17:0.66612 18:0.58091 19:0.4194 20:0.30977 21:0.10001 22:0.49798 23:-0.034301 24:0.098611 25:-7.0296 
0.5271205963113043 1:0.016925 2:-1.1409 3:-0.41047 4:0.97215 5:0.050259 6:2.1968 7:0.44732 8:1.0299 9:1.5998 10:1.5946 11:0.53123 12:0.055835 13:0.043388 14:0.13212 15:0.34564 16:0.0022754 17:1.076 18:1.5648 19:1.9521 20:2.2768 21:1.6979 22:2.3235 23:1.7804 24:0.6717 25:-0.2801 
1.0 1:3.5797 2:3.2187 3:2.1281 4:3.3159 5:6.0495 6:5.3805 7:5.1862 8:3.8549 9:0.91816 10:-0.24499 11:3.5344 12:2.2448 13:1.1688 14:0.50539 15:0.3244 16:0.31508 17:0.081164 18:0.25558 19:0.09267 20:0.13732 21:0.22143 22:0.11573 23:-0.015752 24:-0.26538 25:0.56622 
1.0 1:3.4261 2:4.6098 3:2.2416 4:0.40684 5:-0.015738 6:0.038416 7:-0.62631 8:-1.467 9:-2.0842 10:-2.3586 11:-2.0993 12:-1.8274 13:-1.3878 14:-0.94267 15:-0.46402 16:-0.34338 17:-0.12525 18:0.018001 19:0.20786 20:0.33618 21:-0.029396 22:-0.30041 23:-0.31394 24:-0.5494 25:3.0854 
1.0 1:-0.15853 2:-0.091909 3:-0.14509 4:-0.13675 5:-0.092325 6:-0.26952 7:-0.20714 8:0.15935 9:-0.55624 10:-0.37069 11:-0.59349 12:0.6703 13:1.0035 14:0.44826 15:-1.0551 16:-3.0152 17:-2.4806 18:-1.7515 19:-0.42722 20:3.7019 21:5.0761 22:3.303 23:4.5417 24:2.4203 25:0.83349 
0.7298886886874609 1:0.0063965 2:0.75882 3:1.8459 4:2.2745 5:1.1238 6:0.12426 7:0.40639 8:-0.62416 9:-1.6986 10:-2.3357 11:-2.0423 12:-1.1858 13:-0.31943 14:0.038669 15:0.84045 16:-0.90057 17:3.0825 18:0.51447 19:-0.36764 20:0.097486 21:-0.0054326 22:0.71404 23:0.85044 24:0.14057 25:-0.20196 
1.0 1:0.42487 2:1.0248 3:1.4262 4:2.0543 5:4.6785 6:3.7596 7:-0.0070048 8:0.8809 9:0.92272 10:1.581 11:4.0897 12:4.9869 13:5.9762 14:2.9324 15:1.0391 16:0.31676 17:-1.1789 18:-0.4929 19:-2.1531 20:-3.6493 21:-2.8544 22:-1.9743 23:-1.2685 24:-0.62436 25:-2.1663 
1.0 1:2.7729 2:2.8254 3:2.2366 4:2.2226 5:2.0909 6:1.6288 7:1.5437 8:1.5436 9:2.4265 10:2.6912 11:2.7247 12:1.6871 13:4.9518 14:3.3426 15:0.56758 16:0.22956 17:-0.23182 18:0.95125 19:0.03468 20:-1.7244 21:-5.7153 22:-9.9899 23:-13.5136 24:-6.2857 25:2.5595 
0.016913505343466716 1:1.3497 2:0.9925 3:0.73269 4:0.73573 5:0.8356 6:0.69233 7:0.7758 8:0.39018 9:0.61501 10:0.3866 11:0.56975 12:0.64522 13:0.84577 14:1.3887 15:1.4219 16:1.4244 17:0.79073 18:0.84993 19:0.75286 20:0.83334 21:1.2668 22:1.4834 23:2.2662 24:2.4138 25:1.0398 
0.8971074418380054 1:-1.4207 2:-1.9412 3:-2.2844 4:-2.651 5:-3.3003 6:-3.0443 7:-3.1188 8:-3.5828 9:-3.5534 10:-3.8624 11:-2.9587 12:-2.2715 13:-2.1073 14:-1.9494 15:-1.7191 16:-1.8299 17:-1.5173 18:-1.1119 19:-1.1958 20:-0.85088 21:-0.64414 22:-0.29274 23:-0.083717 24:-0.21691 25:-1.107 
0.9075459278170114 1:-2.1652 2:-3.7534 3:-4.4446 4:-4.1937 5:-4.1911 6:-3.2583 7:-1.4845 8:-0.52215 9:-0.19896 10:-0.5107 11:-0.014058 12:0.52609 13:0.77542 14:0.68145 15:0.46066 16:-0.042552 17:0.05591 18:-0.006946 19:-0.11817 20:-0.070337 21:-0.04914 22:-0.30003 23:-0.062308 24:0.28597 25:-1.4569 
1.0 1:0.082109 2:-1.0202 3:0.69334 4:-0.25629 5:1.0663 6:0.1992 7:7.3271 8:2.8632 9:1.924 10:-3.9591 11:-4.2376 12:-5.0016 13:-6.1448 14:-6.9756 15:-6.4616 16:-3.4084 17:-1.3991 18:-2.098 19:0.4041 20:-0.36591 21:-0.57246 22:-0.20816 23:-0.16291 24:-0.91468 25:0.17769 
1.0 1:0.13011 2:-0.3171 3:5.4786 4:1.967 5:-1.5444 6:-0.079368 7:-0.52733 8:-0.63958 9:-1.2575 10:-0.41355 11:-1.7653 12:-1.2464 13:-0.47687 14:-1.2817 15:-0.40874 16:0.56421 17:-0.14802 18:-0.27174 19:0.46508 20:-0.44933 21:-0.3059 22:0.73072 23:1.8051 24:-1.1083 25:2.2187 
1.0 1:-0.048761 2:0.13305 3:0.76177 4:-0.18259 5:-0.15256 6:1.8211 7:2.977 8:1.0179 9:3.2286 10:0.1616 11:-3.0136 12:-3.0306 13:-3.2967 14:-3.6538 15:-4.418 16:-3.5944 17:-4.2156 18:-3.0273 19:-2.0065 20:-1.7614 21:-1.4125 22:-0.096913 23:-0.4927 24:0.29099 25:0.1371 
0.06391322578910895 1:-0.2289 2:-0.010395 3:0.067894 4:0.1469 5:0.044264 6:0.39473 7:1.2781 8:1.2219 9:0.59697 10:-0.28538 11:0.39309 12:0.6267 13:1.9674 14:0.97099 15:0.7182 16:0.60039 17:-1.9271 18:-1.0788 19:-0.34906 20:0.23702 21:0.21204 22:-0.083692 23:2.0694 24:0.73144 25:-0.44373 
1.0 1:-2.5016 2:-0.4117 3:0.04681 4:0.12527 5:-0.368 6:-0.99342 7:-1.1239 8:-0.92764 9:-0.45099 10:-0.70941 11:0.2609 12:0.070177 13:1.3852 14:-0.40808 15:0.035039 16:2.0827 17:-2.4853 18:1.9521 19:1.3781 20:-2.4378 21:3.4268 22:2.6836 23:-3.6423 24:-0.22958 25:3.0099 
1.0 1:-1.7 2:0.36193 3:1.9723 4:-0.66317 5:2.4321 6:1.9604 7:-3.3799 8:-4.0881 9:-1.5834 10:-0.91072 11:-2.4099 12:-3.3829 13:-2.7839 14:-2.6112 15:-1.1654 16:-0.88062 17:-1.902 18:-1.5219 19:-0.89529 20:0.036407 21:1.0786 22:-0.016782 23:0.078499 24:2.1297 25:2.2465 
0.20804788707967256 1:1.0972 2:-0.067771 3:-0.31422 4:0.019794 5:-0.51869 6:-0.336 7:-0.10416 8:0.71197 9:1.8921 10:0.49221 11:0.76512 12:0.14841 13:0.73269 14:0.16461 15:1.0354 16:2.5359 17:1.5645 18:2.5536 19:0.59309 20:0.96344 21:0.6951 22:1.562 23:0.19366 24:0.81109 25:0.35184 
1.0 1:-10.3539 2:-7.6804 3:-3.0393 4:-0.093 5:-0.052211 6:-0.080479 7:-1.8618 8:3.8837 9:-0.52712 10:0.66328 11:0.95366 12:-1.5484 13:-4.3992 14:-2.9347 15:-3.4252 16:-4.0807 17:-3.9593 18:-4.0565 19:-4.4941 20:-2.8671 21:-1.2819 22:-1.8096 23:-1.1331 24:-0.8906 25:-5.5463 
0.17863326818001377 1:-0.26732 2:-0.0018961 3:-0.4259 4:0.073868 5:-0.02062 6:1.2578 7:1.1746 8:-0.0089798 9:0.083933 10:-0.32333 11:-0.44172 12:0.2183 13:0.43761 14:0.87126 15:0.40784 16:0.61095 17:0.6841 18:0.52929 19:0.89404 20:-0.29995 21:-0.68028 22:2.9798 23:-0.32541 24:-2.4882 25:-1.43 
1.0 1:-11.2265 2:-8.6465 3:-8.8034 4:-10.1881 5:-2.2568 6:0.026011 7:0.79416 8:0.33041 9:0.16236 10:-1.2555 11:2.2445 12:0.41808 13:1.1994 14:1.5318 15:-0.10964 16:-1.5086 17:-4.252 18:-4.0757 19:-2.3359 20:-2.2663 21:-3.0482 22:-3.0513 23:-2.7687 24:-2.6111 25:-10.8301 
1.0 1:-1.6571 2:-1.0235 3:0.088888 4:0.29271 5:0.81009 6:0.30542 7:0.080913 8:0.3271 9:0.12743 10:0.53317 11:0.82231 12:-0.070874 13:-1.2614 14:0.35318 15:4.2789 16:4.0892 17:-2.2818 18:-0.085457 19:2.8526 20:-1.4894 21:-0.22825 22:-4.7007 23:0.89171 24:0.84779 25:-0.78137 
1.0 1:-8.9194 2:-5.7424 3:-4.0052 4:-2.0994 5:-1.0824 6:-0.64771 7:-0.28925 8:-0.033672 9:-1.4811 10:-1.049 11:-1.2498 12:-0.84576 13:-2.5392 14:-3.0167 15:-2.7676 16:-3.2617 17:-1.218 18:-0.34241 19:-1.3726 20:-1.627 21:-1.3672 22:-2.2545 23:-2.9646 24:-1.2209 25:-11.1301 
1.0 1:0.98341 2:1.9023 3:3.4736 4:2.986 5:3.2615 6:3.2468 7:1.2523 8:0.57589 9:-0.88455 10:-3.5524 11:-4.5277 12:-3.6384 13:-3.5984 14:-4.1171 15:-6.1553 16:-5.0917 17:-3.947 18:-4.2767 19:-2.9837 20:-2.3863 21:-2.363 22:-0.73063 23:0.63955 24:-1.5764 25:2.2696 
0.0965388499112164 1:1.4844 2:1.0438 3:1.1505 4:0.79313 5:0.15642 6:-0.37652 7:-0.68417 8:0.60304 9:0.49829 10:1.4219 11:1.1852 12:-0.53042 13:-0.6678 14:0.46791 15:0.76891 16:0.50835 17:0.98881 18:0.29297 19:0.70193 20:0.5345 21:1.3162 22:1.4161 23:0.9054 24:1.9504 25:1.7166 
1.0 1:0.039793 2:0.059507 3:-0.0055903 4:0.2792 5:1.0859 6:1.3262 7:1.4012 8:2.1711 9:2.781 10:3.1273 11:3.5406 12:3.2368 13:3.159 14:2.9588 15:3.0766 16:3.1385 17:2.8752 18:2.4324 19:2.6307 20:2.4128 21:2.8423 22:2.5721 23:2.7669 24:2.3104 25:-0.18051 
0.11601910312775951 1:-0.14484 2:-0.075002 3:-0.066324 4:0.38024 5:0.45679 6:0.51794 7:0.47346 8:0.038406 9:-0.0437 10:-0.49998 11:-0.98149 12:-1.0523 13:-1.1482 14:-1.6322 15:-2.3436 16:-2.7858 17:-2.7434 18:-2.5166 19:-3.2571 20:-2.9529 21:-1.6879 22:-1.0443 23:-0.37927 24:-0.26885 25:0.34312 
0.9037519461888376 1:1.2253 2:1.9506 3:3.1118 4:3.1726 5:2.3592 6:1.872 7:0.61931 8:-0.89 9:-0.98847 10:-0.74076 11:-1.2721 12:-1.3257 13:-1.4661 14:-1.7798 15:-2.382 16:-3.6956 17:-3.4221 18:-2.6911 19:-2.5616 20:-2.4261 21:-1.5371 22:-1.1869 23:-0.53451 24:0.049573 25:0.18807 
1.0 1:-0.25711 2:-0.33381 3:1.6225 4:0.49111 5:0.5565 6:0.95605 7:1.7 8:-1.3321 9:-3.4211 10:-2.9859 11:-4.0573 12:-3.5292 13:-2.9892 14:-3.549 15:-3.1285 16:-2.9399 17:-3.7299 18:-3.9736 19:-3.3623 20:-1.9471 21:-0.44634 22:0.72194 23:0.73961 24:-0.24566 25:-0.37892 
0.3398092347430355 1:2.1661 2:2.3815 3:1.6767 4:1.2293 5:1.378 6:0.73869 7:-0.062912 8:0.25944 9:-0.08237 10:-0.34171 11:-0.13421 12:-1.4703 13:-1.6868 14:-1.7115 15:-1.4871 16:-1.0618 17:-0.55784 18:-0.36471 19:0.042877 20:-0.52094 21:-0.66166 22:0.27918 23:1.8766 24:0.6529 25:-1.0103 
0.4161820542515265 1:1.064 2:-0.7747 3:-1.943 4:-1.375 5:-1.2562 6:-2.1592 7:-1.6671 8:-1.8057 9:-2.362 10:-2.5998 11:-2.3142 12:-1.6829 13:-0.55856 14:0.23958 15:0.52518 16:0.73207 17:0.10217 18:-0.46458 19:-0.56361 20:-0.54672 21:-0.2804 22:-0.46295 23:-0.88706 24:-1.2085 25:1.8181 
0.3664817718060393 1:0.36657 2:0.18456 3:-0.029426 4:-0.15327 5:-0.32065 6:-0.25816 7:-0.46109 8:-0.54301 9:-0.51144 10:-0.59472 11:-0.022224 12:0.57518 13:1.4028 14:0.58842 15:-0.33284 16:-0.95708 17:-0.24068 18:-0.2995 19:-0.49803 20:-2.01 21:-2.8068 22:1.7605 23:0.75461 24:-0.57719 25:-0.14195 
0.5979951251358788 1:0.19262 2:-2.2709 3:-1.0577 4:-3.4465 5:-3.4629 6:-2.7378 7:-2.6856 8:-1.1258 9:-0.24695 10:0.049553 11:0.20319 12:0.050832 13:0.10249 14:0.26222 15:0.32403 16:0.35558 17:0.13024 18:-0.095959 19:-0.20669 20:-0.46674 21:-0.87147 22:-1.1296 23:-0.80144 24:-1.1105 25:0.63617 
1.0 1:-3.9612 2:-3.4533 3:-2.9643 4:-2.034 5:-1.0661 6:-0.95359 7:-1.0956 8:-0.72699 9:-0.29041 10:-0.49629 11:-0.85362 12:-1.0058 13:-0.51699 14:-0.21009 15:-0.10353 16:0.47041 17:0.72915 18:1.0861 19:1.4288 20:1.9516 21:2.547 22:2.1634 23:2.4579 24:1.5064 25:-4.0953 
0.8459956252635277 1:-2.8107 2:-3.713 3:-2.7117 4:0.38585 5:-0.35819 6:-0.55666 7:-0.32091 8:-0.16232 9:-0.15797 10:0.12026 11:0.44647 12:1.0801 13:1.7559 14:2.7518 15:2.0516 16:0.76377 17:0.05118 18:-0.8856 19:1.5179 20:-0.08969 21:-1.4159 22:0.1609 23:0.95768 24:-0.48546 25:-2.9396 
1.0 1:-5.4062 2:-5.8114 3:-6.9448 4:-8.9487 5:-6.662 6:-9.2316 7:-5.7007 8:-4.5962 9:-1.8852 10:0.015967 11:-0.58228 12:-0.71172 13:-0.69686 14:-0.47338 15:0.17481 16:-0.63674 17:0.096179 18:0.013175 19:-0.81082 20:-3.4075 21:-4.6717 22:-4.0899 23:-4.164 24:-3.8721 25:-1.8199 
0.784048722414286 1:0.33038 2:0.43455 3:0.71444 4:0.11163 5:-1.0126 6:-0.073479 7:-1.2512 8:2.6703 9:0.79825 10:-0.87214 11:0.5771 12:-0.31565 13:-0.77788 14:-0.83596 15:-1.7411 16:-1.1188 17:-0.749 18:0.60958 19:0.07498 20:-0.98719 21:-1.0504 22:-1.6979 23:-0.33425 24:2.0428 25:-0.20831 
0.23849316855543032 1:-2.2868 2:-2.74 3:-1.7046 4:-0.89478 5:-0.12311 6:-0.15657 7:-0.50291 8:0.01627 9:0.54659 10:-0.14647 11:-1.2446 12:-0.078278 13:0.86601 14:0.59159 15:0.46919 16:2.414 17:1.6453 18:0.086213 19:-0.44847 20:0.080258 21:1.3012 22:1.6481 23:1.5343 24:0.33231 25:-2.3262 
0.4067062601151677 1:-0.95346 2:-0.89591 3:-1.0468 4:-1.0239 5:-0.88236 6:-1.0439 7:-0.72586 8:-0.87963 9:-1.043 10:-1.5057 11:-1.2455 12:-0.76828 13:-0.55497 14:-0.007963 15:0.85526 16:1.1872 17:2.2395 18:1.6608 19:0.94357 20:0.55108 21:-0.38876 22:-0.58175 23:2.598 24:1.6737 25:-1.0348 
0.5015807079238678 1:1.2698 2:1.59 3:1.7336 4:1.6619 5:1.9784 6:2.2375 7:1.4927 8:0.96209 9:0.84572 10:0.66641 11:0.57806 12:0.1823 13:0.37539 14:0.43989 15:-0.23294 16:-0.70716 17:-0.94696 18:-1.7135 19:-2.418 20:-2.6405 21:-2.3263 22:-1.9515 23:-1.495 24:-1.0887 25:1.6759 
1.0 1:0.47438 2:0.31638 3:0.13399 4:0.44474 5:0.20504 6:0.19194 7:0.85477 8:0.89877 9:0.71241 10:0.97414 11:0.53912 12:-0.17005 13:0.9608 14:-0.26768 15:0.0064032 16:3.7603 17:-0.34728 18:4.0166 19:4.7624 20:2.6634 21:-0.5154 22:-3.1023 23:-2.9724 24:-2.901 25:0.13268 
1.0 1:-4.4643 2:-4.1313 3:-0.95285 4:-1.28 5:-2.065 6:-0.40052 7:-1.1116 8:-0.89046 9:1.1161 10:1.5956 11:2.3277 12:2.7116 13:3.9759 14:3.9796 15:4.153 16:5.7074 17:4.1089 18:1.96 19:0.36756 20:-0.1149 21:-0.38752 22:-0.33697 23:0.046924 24:-0.020062 25:0.81735 
1.0 1:3.4645 2:3.3183 3:3.4506 4:3.4198 5:3.0594 6:2.8186 7:2.2027 8:1.6759 9:0.33039 10:0.30591 11:1.0966 12:0.68231 13:-0.40956 14:-0.66654 15:0.16385 16:0.57818 17:-0.055835 18:-0.38597 19:-0.41655 20:-0.23086 21:-1.1239 22:-0.10696 23:-1.0959 24:-1.0494 25:4.3489 
1.0 1:5.7663 2:0.055142 3:-2.4531 4:0.097254 5:0.49127 6:0.22934 7:-0.32298 8:-2.6719 9:1.2645 10:-0.84326 11:-0.46378 12:-0.025034 13:-1.3419 14:-3.1748 15:-1.2345 16:1.5137 17:1.5952 18:2.1431 19:1.4267 20:2.5171 21:4.1111 22:3.0163 23:3.2365 24:4.3168 25:6.3732 
0.39838164006539295 1:-2.0922 2:-1.8379 3:-2.4659 4:-2.4844 5:-0.15984 6:0.42167 7:1.0727 8:-1.7577 9:-0.60102 10:-0.88753 11:0.34936 12:0.84603 13:-0.47162 14:-0.51563 15:0.71123 16:-0.18558 17:-1.4396 18:0.40348 19:-0.16518 20:-0.59624 21:0.35038 22:0.25361 23:0.2956 24:0.68038 25:-1.5489 
0.1521927345086403 1:-0.68439 2:-0.3337 3:-0.37687 4:-0.71802 5:-0.73694 6:-0.83017 7:-1.0621 8:-1.1463 9:-1.0916 10:-1.6016 11:-1.8654 12:-1.3895 13:-1.1618 14:-2.2367 15:-2.653 16:-2.5248 17:-2.2468 18:-2.1161 19:-2.3067 20:-1.8621 21:-1.6651 22:-1.8282 23:-1.2589 24:-0.99899 25:0.11304 
0.6796455907256136 1:-0.38797 2:-0.41568 3:-0.92231 4:-0.46486 5:-0.96025 6:-1.2975 7:-0.82369 8:-1.8181 9:-2.8296 10:-2.7004 11:-2.4689 12:-1.7358 13:-0.99859 14:-2.3052 15:-3.0302 16:-0.69995 17:-0.13712 18:0.24916 19:0.69388 20:1.6406 21:1.4295 22:1.2852 23:1.2103 24:1.1445 25:-0.13987 
1.0 1:1.4535 2:1.6061 3:1.0729 4:-0.60216 5:-2.5161 6:-3.3297 7:-3.849 8:-3.8469 9:-3.3794 10:-2.0287 11:-0.52303 12:0.69991 13:0.46527 14:-0.29046 15:-0.60729 16:-0.29476 17:-0.11279 18:0.42152 19:0.35606 20:-0.36525 21:-0.2594 22:0.57853 23:0.064669 24:-0.032072 25:1.4371 
1.0 1:-5.9879 2:-5.738 3:-4.1026 4:-3.5343 5:-4.6444 6:-0.95723 7:2.225 8:1.2252 9:1.5583 10:1.7047 11:-0.74342 12:1.707 13:1.4476 14:-3.8148 15:1.615 16:1.1547 17:-0.57161 18:-0.55248 19:-0.94755 20:-0.97108 21:-0.37571 22:-1.5044 23:-0.46537 24:0.31609 25:-2.987 
1.0 1:0.87936 2:1.0874 3:1.8278 4:2.2381 5:2.122 6:2.1871 7:2.428 8:2.1376 9:0.51509 10:0.28612 11:-0.35378 12:-1.4272 13:-3.1367 14:-1.5932 15:-1.3108 16:-1.838 17:-0.52245 18:-1.6909 19:-1.0477 20:-2.4847 21:-0.95271 22:-3.3895 23:-2.5292 24:-1.5485 25:1.3735 
1.0 1:0.10798 2:-0.47006 3:0.41415 4:-0.43007 5:-1.958 6:-2.6303 7:-2.9996 8:-3.1287 9:-3.5945 10:-3.4021 11:-3.6387 12:-3.6844 13:-3.23 14:-2.9601 15:-2.0096 16:-0.98034 17:-0.4636 18:-0.11654 19:0.056057 20:0.11489 21:0.09891 22:0.09076 23:0.13745 24:0.11801 25:0.58931 
0.1882742072608395 1:0.35677 2:-0.43377 3:-0.67364 4:0.82131 5:0.97071 6:1.0418 7:1.452 8:1.1296 9:1.1384 10:2.3566 11:2.8314 12:2.9622 13:1.9401 14:2.2012 15:1.7354 16:1.1569 17:0.53182 18:0.33386 19:0.29626 20:0.28487 21:0.07188 22:0.044395 23:0.1674 24:0.25488 25:0.93445 
0.6407479780580401 1:1.8441 2:2.2331 3:1.8034 4:0.02462 5:-0.62229 6:-0.28459 7:0.33805 8:0.42012 9:0.63665 10:0.75528 11:1.0944 12:1.459 13:1.9984 14:2.4135 15:2.6199 16:2.4141 17:2.102 18:1.5656 19:1.0364 20:0.69997 21:-0.36174 22:0.15962 23:-1.0479 24:-1.0636 25:2.0778 
0.932433110572513 1:-0.47003 2:-0.42929 3:0.83286 4:0.43814 5:1.0718 6:1.6313 7:0.09775 8:-1.2128 9:-1.4544 10:-1.9926 11:-2.8681 12:-3.4523 13:-3.8061 14:-4.3705 15:-4.8066 16:-4.382 17:-3.9974 18:-3.853 19:-3.0648 20:-1.9163 21:-1.3571 22:-1.0906 23:-0.7828 24:-0.72868 25:-1.6564 
0.6306589674648496 1:-1.1229 2:-0.96676 3:-0.85493 4:-1.0753 5:-1.3725 6:-0.52646 7:-0.23293 8:-0.51203 9:-0.49876 10:-0.98172 11:-0.74822 12:-1.2425 13:-1.9288 14:-2.8797 15:-2.4295 16:-1.4999 17:-1.8712 18:-2.1957 19:-1.5059 20:-1.7797 21:-1.3849 22:-1.3203 23:-2.0077 24:-1.7818 25:-0.58419 
0.4548967781222431 1:-0.083835 2:-0.2624 3:-0.2428 4:0.11157 5:0.80074 6:1.062 7:1.0797 8:1.6375 9:2.1308 10:1.675 11:1.7652 12:1.2474 13:1.5536 14:0.87259 15:0.46793 16:-0.67746 17:-1.1915 18:-1.7521 19:-1.2935 20:-0.86837 21:-0.28382 22:0.20499 23:-1.8023 24:-1.6533 25:-0.54977 
0.9639459626323551 1:-5.8706 2:-3.3373 3:-1.1609 4:-0.99779 5:-0.80847 6:-0.11756 7:0.20558 8:0.28717 9:0.70273 10:0.75064 11:0.97369 12:0.94113 13:1.1695 14:1.4306 15:1.1331 16:0.94647 17:0.76188 18:0.48659 19:0.40128 20:0.4719 21:0.2641 22:0.63971 23:0.60995 24:0.53815 25:-6.9219 
1.0 1:0.22171 2:0.034895 3:0.069654 4:-0.047104 5:-0.0050544 6:0.0026048 7:-0.046748 8:-0.37622 9:0.3663 10:0.88304 11:1.024 12:0.97445 13:1.2772 14:1.4289 15:0.67096 16:0.31206 17:1.3332 18:1.4953 19:1.9071 20:0.62742 21:-0.70692 22:-3.0244 23:-4.2969 24:-4.5618 25:0.3602 
1.0 1:0.11721 2:-1.6573 3:1.2457 4:-0.58976 5:1.6965 6:-0.069468 7:-3.4685 8:-4.0755 9:-0.64547 10:0.37675 11:0.6235 12:-0.52973 13:-0.86296 14:-1.2242 15:-1.7689 16:-1.7844 17:-0.94712 18:1.2492 19:0.82347 20:0.23252 21:-0.091759 22:-0.03552 23:0.21375 24:0.26506 25:-3.0986 
0.529690652203081 1:0.80834 2:1.1461 3:-0.67385 4:0.10226 5:0.77746 6:-0.25098 7:-1.157 8:-0.52325 9:-0.50665 10:-0.14825 11:0.3048 12:-1.8729 13:-2.6196 14:-0.53902 15:0.038497 16:-2.4554 17:-2.7052 18:-1.2251 19:0.55641 20:0.57588 21:-0.40647 22:-0.29315 23:0.97054 24:-0.54106 25:-0.50477 
0.7920118878805588 1:2.1228 2:2.6013 3:1.1147 4:-0.29073 5:-0.078805 6:0.37312 7:1.0674 8:0.91992 9:1.2037 10:1.2325 11:1.6273 12:0.92121 13:0.80075 14:1.4415 15:1.5781 16:0.90803 17:0.92375 18:2.3882 19:3.0411 20:0.65841 21:0.24714 22:1.9636 23:1.2421 24:-0.41671 25:3.4531 
1.0 1:0.16415 2:-0.14185 3:-1.2683 4:-0.58787 5:-2.057 6:-0.72096 7:-0.28565 8:-0.71645 9:-1.6413 10:0.091507 11:0.40543 12:0.83748 13:1.5395 14:2.1275 15:2.2774 16:2.3578 17:2.2593 18:3.2605 19:3.5711 20:3.8224 21:3.9294 22:4.3403 23:4.1927 24:4.4062 25:1.1572 
1.0 1:-0.8496 2:-2.0211 3:-4.2349 4:-5.2637 5:-6.3924 6:-5.4328 7:-5.1202 8:-5.7177 9:-4.3172 10:-3.2923 11:-2.4145 12:-1.626 13:-0.63962 14:0.38594 15:1.5732 16:2.2208 17:1.4307 18:2.4655 19:3.0995 20:1.7764 21:0.29393 22:-0.29084 23:-0.49983 24:-0.24969 25:-0.45445 
1.0 1:-4.1312 2:-5.6651 3:-6.6334 4:-6.0831 5:-9.175 6:-5.0741 7:-3.4291 8:-2.8028 9:-1.4698 10:-1.1027 11:-0.26356 12:1.2981 13:1.5994 14:3.1318 15:4.1915 16:4.1141 17:3.1828 18:2.3766 19:1.5 20:-0.19028 21:-0.62483 22:0.21549 23:0.48299 24:0.28206 25:0.27375 
1.0 1:1.6252 2:1.3756 3:0.94774 4:0.725 5:0.28166 6:0.18802 7:0.31267 8:0.49646 9:0.38497 10:0.00882 11:0.032194 12:-0.027189 13:-1.014 14:-0.63446 15:0.026414 16:-0.81189 17:-3.713 18:-2.7096 19:0.37133 20:1.8602 21:2.8515 22:0.083122 23:4.1435 24:-5.9101 25:2.1024 
1.0 1:-2.8117 2:-3.6732 3:2.2646 4:-1.7471 5:-3.8369 6:-3.7817 7:-4.3014 8:-4.9775 9:-4.953 10:-2.1748 11:0.20222 12:0.41669 13:0.33012 14:1.2832 15:2.1197 16:3.0027 17:2.4851 18:1.5197 19:0.8441 20:0.93258 21:1.5572 22:2.2987 23:2.563 24:2.2547 25:-0.85444 
-0.37773940148953933 1:0.73513 2:0.6582 3:1.5336 4:3.5335 5:-0.18777 6:-9.1637 7:-5.8726 8:-8.6836 9:-4.7279 10:-0.82573 11:2.7409 12:3.2929 13:-0.95655 14:0.19548 15:2.5926 16:3.4532 17:2.6409 18:6.9123 19:-0.15817 20:-6.7315 21:-4.7439 22:-3.5421 23:-2.6076 24:3.931 25:0.11249 
-0.3401902682066703 1:-2.6994 2:-4.8015 3:-5.1096 4:-5.5318 5:-4.4773 6:0.50849 7:-2.6365 8:2.5799 9:3.4225 10:2.2187 11:1.8405 12:1.4277 13:0.61349 14:-0.28781 15:-1.0137 16:-4.2997 17:-6.6546 18:-5.0985 19:-0.28684 20:0.39192 21:-0.34553 22:2.5493 23:5.6189 24:1.4511 25:-0.9725 
-0.42632554481818075 1:-1.4511 2:-0.77298 3:-0.89613 4:1.0855 5:3.2745 6:0.7606 7:-1.0071 8:1.7877 9:2.727 10:0.7469 11:-0.31646 12:-1.5885 13:-1.3713 14:-1.2899 15:0.88448 16:-1.1698 17:2.9257 18:-2.8411 19:3.6686 20:-0.52823 21:-4.0648 22:4.4025 23:2.8511 24:0.67775 25:-0.96172 
-0.37920402350825355 1:2.9309 2:-2.7244 3:-2.7477 4:-3.1048 5:-4.9968 6:-2.193 7:0.47301 8:1.3703 9:-0.69604 10:-0.53145 11:2.069 12:1.0438 13:-1.0147 14:0.15054 15:6.1458 16:-0.18053 17:-4.1625 18:2.2778 19:2.1322 20:-4.9384 21:-2.2789 22:-1.4397 23:-1.0316 24:0.41937 25:7.6292 
-0.37753398306194585 1:3.1874 2:3.1301 3:2.7937 4:5.0461 5:4.9693 6:6.2333 7:4.4749 8:2.9479 9:-0.41909 10:-10.013 11:-10.8691 12:-4.9923 13:-3.5658 14:-2.9872 15:0.8064 16:3.2873 17:4.7923 18:5.0162 19:6.1389 20:5.4454 21:3.3035 22:2.0978 23:-2.5839 24:-7.7014 25:-1.0946 
-0.3783158598992084 1:-0.70421 2:-1.9142 3:-11.1318 4:-10.7007 5:7.365 6:0.4259 7:2.0596 8:5.164 9:3.4274 10:2.627 11:3.1 12:3.0073 13:0.63594 14:-1.4529 15:-3.7696 16:-6.3704 17:-7.951 18:-6.3695 19:6.4109 20:-0.6674 21:0.45116 22:4.2983 23:4.2782 24:2.8962 25:1.5162 
-0.36275124043050955 1:-0.97867 2:-1.4451 3:1.8748 4:0.55222 5:3.2245 6:2.0808 7:1.9319 8:0.091075 9:-1.3122 10:-1.3777 11:0.39634 12:-2.4327 13:-9.6898 14:-4.0838 15:1.6245 16:0.67947 17:0.9064 18:2.0101 19:3.1965 20:1.877 21:2.2096 22:1.6805 23:-1.6687 24:-0.31446 25:-6.6353 
-0.3355680575611977 1:-4.8792 2:-3.1712 3:-5.1334 4:-4.1654 5:-5.1115 6:-1.0503 7:-0.21574 8:2.2066 9:3.2627 10:2.5315 11:1.7988 12:0.70945 13:-0.99092 14:-0.96582 15:-2.0888 16:-3.8236 17:-7.0319 18:-5.2426 19:-3.7262 20:-0.51323 21:-0.01823 22:2.4612 23:3.0116 24:2.614 25:-4.8168 
-0.37583097460852183 1:-4.5241 2:-4.5247 3:-1.144 4:-5.4352 5:-2.2208 6:2.0635 7:-0.86365 8:2.9917 9:2.7325 10:0.32854 11:-0.013988 12:-2.0758 13:-2.9294 14:-5.5877 15:-7.595 16:-7.0525 17:-2.5076 18:-3.4432 19:-2.075 20:-0.55339 21:-1.3057 22:0.96637 23:4.1984 24:1.0494 25:-3.778 
-0.3764579562813316 1:-7.4646 2:-4.652 3:-0.7655 4:2.0607 5:3.194 6:3.5806 7:4.507 8:4.3886 9:5.4254 10:4.9036 11:3.9465 12:-0.047193 13:-5.4309 14:-9.8466 15:-9.4575 16:-4.2002 17:-2.6485 18:1.2398 19:3.5004 20:4.6537 21:5.1596 22:4.3196 23:5.0067 24:4.1006 25:-1.4923 
-0.36407355078268416 1:2.6042 2:3.6019 3:5.9818 4:3.3037 5:-1.3728 6:-8.4122 7:-6.5256 8:-7.2047 9:-5.5267 10:2.2463 11:2.3023 12:1.5215 13:5.405 14:3.8681 15:2.8565 16:3.9332 17:3.8208 18:1.7439 19:0.05325 20:-4.2271 21:-3.3941 22:-6.5173 23:-6.6922 24:0.29539 25:5.316 
-0.3752505459474042 1:-1.1308 2:5.1303 3:5.0361 4:-0.09386 5:1.2583 6:2.6674 7:1.5844 8:-2.6411 9:-4.9263 10:-5.1122 11:-7.5122 12:-9.5177 13:-7.7797 14:-5.7777 15:-6.7746 16:-3.8685 17:-3.5711 18:0.0051661 19:0.43445 20:0.039909 21:-0.43758 22:1.4393 23:2.0045 24:1.5069 25:-0.18241 
-0.46863093742609413 1:0.60658 2:-0.37144 3:0.64963 4:2.0081 5:2.5303 6:-0.13246 7:2.2384 8:2.7571 9:0.83539 10:-0.56028 11:-0.14288 12:-2.2363 13:-5.0166 14:-0.19407 15:-0.97064 16:-1.8697 17:4.5034 18:2.3012 19:3.0842 20:-0.93642 21:-1.1085 22:0.22192 23:-0.058701 24:-1.0327 25:-1.1661 
-0.3709136553639321 1:-2.1629 2:0.95327 3:0.19562 4:2.0013 5:2.957 6:1.3589 7:2.7739 8:0.76391 9:0.80346 10:2.4219 11:-2.3374 12:-4.0493 13:-2.5761 14:-9.9324 15:-5.408 16:4.4247 17:0.16789 18:0.63588 19:3.0116 20:3.1642 21:2.2725 22:3.796 23:2.2684 24:0.26952 25:-7.0979 
-0.37322164724303064 1:2.2298 2:1.4654 3:1.598 4:-2.1111 5:-2.3411 6:-0.79682 7:-1.7197 8:-4.6631 9:-2.7287 10:1.9338 11:1.972 12:1.621 13:7.5497 14:-1.5594 15:2.4042 16:1.8121 17:1.237 18:1.131 19:0.51593 20:-1.0183 21:-2.778 22:-3.6692 23:-3.437 24:1.5435 25:0.25616 
-0.37638293434765396 1:2.9451 2:-0.68699 3:1.7956 4:2.6137 5:1.7857 6:-0.80652 7:0.19034 8:2.5515 9:0.81175 10:-2.5678 11:0.51311 12:3.0228 13:-5.2211 14:-9.6468 15:-1.713 16:0.18659 17:-0.63594 18:3.4716 19:3.7731 20:2.5327 21:2.3036 22:-1.3546 23:-1.8978 24:-1.5567 25:-3.5611 
-0.37832262697302554 1:-5.3781 2:-1.9049 3:-3.9294 4:-1.0976 5:-2.6319 6:-3.2567 7:-1.0043 8:1.3469 9:-0.23644 10:0.93144 11:0.80153 12:3.1276 13:2.7392 14:4.8719 15:9.2604 16:0.79132 17:-2.0199 18:-5.3597 19:-4.7045 20:-0.86695 21:-2.2953 22:-3.4244 23:-0.41261 24:-0.62147 25:8.2712 
-0.37782305018011436 1:2.481 2:2.6016 3:1.1522 4:2.332 5:2.3673 6:-0.28882 7:-0.42581 8:0.23531 9:-6.9846 10:-8.238 11:3.4062 12:1.8163 13:2.1905 14:3.06 15:2.6943 16:0.96388 17:2.6062 18:3.8372 19:0.12852 20:-0.35357 21:2.0497 22:-6.6158 23:-13.1201 24:-2.5836 25:6.8103 
-0.37580833372981537 1:3.5581 2:5.2828 3:5.0155 4:-11.0266 5:-7.1728 6:-5.4765 7:-3.0943 8:-0.13318 9:2.0394 10:-0.42307 11:2.3365 12:3.022 13:1.252 14:2.6261 15:0.36218 16:4.2703 17:5.2085 18:-9.2818 19:-5.5637 20:-3.9421 21:-2.6095 22:-0.30424 23:1.4564 24:-0.28172 25:1.6078 
-0.37497722737209466 1:0.60199 2:-0.81751 3:-3.0353 4:1.4817 5:0.94728 6:2.7325 7:3.3497 8:4.106 9:-5.7638 10:-1.0352 11:4.87 12:-6.7606 13:-4.9912 14:-1.1389 15:2.256 16:0.36315 17:-0.13778 18:-0.86972 19:-0.16184 20:0.042512 21:-1.1265 22:5.8235 23:2.239 24:-0.38478 25:-0.35143 
-0.37687856452839213 1:-10.1232 2:-4.1331 3:-2.1154 4:-1.0245 5:0.70552 6:0.30694 7:2.6131 8:3.4555 9:2.6459 10:2.3794 11:4.0309 12:3.4705 13:-0.18919 14:-12.2428 15:-9.1945 16:0.063085 17:-0.13008 18:-0.94147 19:1.8803 20:0.95613 21:1.3173 22:-0.034954 23:0.29046 24:0.55288 25:-7.6161 
-0.3769392158451745 1:6.7537 2:4.0498 3:1.5662 4:1.4128 5:2.9547 6:1.1087 7:-0.23169 8:2.3849 9:-0.97588 10:-8.7117 11:-8.9763 12:-7.6026 13:-1.2391 14:3.1968 15:4.5837 16:2.6983 17:3.7499 18:0.92654 19:4.5657 20:3.031 21:0.29875 22:2.5041 23:-0.41164 24:-7.9632 25:1.4533 
-0.3781950415889722 1:0.039203 2:1.8946 3:0.81354 4:4.3912 5:3.7288 6:2.0539 7:2.3004 8:-0.86673 9:-1.2787 10:2.8553 11:2.4102 12:-11.9272 13:-9.5803 14:1.4083 15:1.0039 16:3.139 17:1.8609 18:1.4894 19:2.8658 20:3.6502 21:1.0715 22:-1.0677 23:0.4229 24:-0.63395 25:-8.5926 
-0.39843295966762493 1:-2.6879 2:0.42166 3:0.95829 4:0.76664 5:-2.1749 6:-7.2319 7:2.06 8:-2.3148 9:0.5919 10:0.5193 11:-1.6286 12:-3.5816 13:-3.7403 14:-2.0506 15:-0.87729 16:3.0221 17:1.7318 18:-0.9339 19:0.89586 20:-1.9694 21:-1.1792 22:-1.4302 23:-2.6466 24:-2.219 25:-0.84788 
-0.37768729425985365 1:1.4309 2:-2.0857 3:-9.8957 4:-4.254 5:-0.2642 6:0.36245 7:-5.2256 8:-4.2182 9:1.1007 10:2.5655 11:4.1259 12:4.1165 13:4.0871 14:5.5237 15:4.2578 16:4.2839 17:1.411 18:-0.55888 19:-8.1906 20:-7.6292 21:-1.609 22:-3.9065 23:-2.4395 24:-1.4485 25:3.688 
-0.3875445461205861 1:1.3364 2:-0.079899 3:-0.87152 4:-1.1253 5:1.5013 6:-5.7495 7:-5.2555 8:0.57293 9:-1.1866 10:0.97691 11:2.7469 12:1.1788 13:1.0827 14:0.49625 15:-0.37948 16:-0.16517 17:1.4032 18:-1.3244 19:0.76438 20:-2.9325 21:-3.8341 22:-2.1107 23:1.1787 24:-0.89169 25:0.62211 
-0.3774374423433235 1:1.6307 2:0.56671 3:-5.1617 4:-6.3361 5:-3.2551 6:-2.2141 7:-1.0472 8:0.78831 9:1.6697 10:1.7589 11:3.267 12:5.0183 13:4.6686 14:2.3249 15:2.1679 16:0.081219 17:0.48423 18:-2.921 19:-5.8303 20:-6.8471 21:-6.3632 22:-2.0133 23:0.76886 24:1.7306 25:1.5931 
-0.3783673332840814 1:4.1876 2:1.3772 3:2.3695 4:3.3444 5:3.1638 6:2.6443 7:-1.1222 8:-4.191 9:-3.9063 10:-8.6897 11:-9.5122 12:-0.85366 13:-0.89971 14:2.4842 15:1.802 16:0.53446 17:1.1063 18:2.1329 19:0.27549 20:1.6431 21:0.92337 22:5.2333 23:7.2626 24:2.8481 25:3.0696 
-0.37767573685379097 1:0.85301 2:-0.6544 3:-4.1095 4:-6.512 5:-7.3192 6:-3.4491 7:8.455 8:2.4613 9:2.558 10:3.2322 11:3.2782 12:2.0528 13:1.6878 14:3.1373 15:-0.55912 16:-4.7858 17:-6.305 18:-4.7317 19:-4.2564 20:5.7317 21:2.8021 22:1.0527 23:2.9369 24:3.0452 25:0.64662 
-0.3781648575278101 1:0.083396 2:2.2736 3:-10.382 4:-8.0678 5:-6.5954 6:-5.6134 7:-1.6467 8:1.2401 9:3.4886 10:0.75804 11:-0.77706 12:0.70434 13:-2.4905 14:-3.0571 15:-1.0765 16:-0.78678 17:2.0122 18:-3.879 19:-6.6237 20:-5.562 21:-4.1927 22:-2.9134 23:-0.76094 24:1.9423 25:0.73332 
-0.42827673421538015 1:-3.122 2:-5.1887 3:-3.8887 4:-2.4855 5:-0.48173 6:0.88166 7:0.51526 8:0.7557 9:-1.112 10:-1.3541 11:-0.50625 12:3.3549 13:2.3056 14:-0.40889 15:2.575 16:0.77399 17:-4.4606 18:-4.3568 19:-2.446 20:-2.6312 21:1.5048 22:1.8155 23:0.83333 24:-0.60445 25:-1.3143 
-0.37773129099230773 1:3.1996 2:3.7932 3:1.0552 4:-13.5704 5:-8.9061 6:-5.3359 7:-0.73129 8:1.8088 9:2.2359 10:4.2556 11:3.8956 12:1.5326 13:2.4807 14:0.63181 15:2.97 16:0.22374 17:1.688 18:-0.78034 19:-4.2044 20:-11.2858 21:-9.1202 22:-2.6339 23:0.37648 24:4.7353 25:2.1077 
-0.3099966594684269 1:2.9568 2:2.8691 3:3.1694 4:4.7161 5:3.5898 6:3.826 7:2.0185 8:-1.4068 9:-9.8904 10:-5.4977 11:-4.1685 12:-0.9763 13:2.0659 14:3.6617 15:3.2842 16:3.2778 17:3.6948 18:3.4289 19:2.9361 20:2.383 21:0.31125 22:-8.461 23:-7.0371 24:-3.0959 25:2.7378 
-0.3672620979856312 1:0.51711 2:1.1875 3:0.05348 4:0.64786 5:-2.7123 6:-9.3729 7:-5.8676 8:-0.43087 9:-1.2727 10:-0.11317 11:0.058224 12:0.7531 13:2.2179 14:1.7472 15:2.1066 16:1.3401 17:0.75364 18:0.56932 19:0.81559 20:-3.1362 21:-6.8716 22:-5.905 23:-3.8969 24:1.5565 25:1.7997 
-0.37761546412519587 1:-8.0601 2:-10.1111 3:-4.6003 4:-1.4337 5:0.58855 6:1.8439 7:3.8694 8:3.8823 9:3.754 10:3.335 11:4.1647 12:3.9103 13:1.7072 14:-0.11979 15:-5.3977 16:-8.3045 17:-8.9802 18:-1.4871 19:1.7503 20:3.2783 21:4.4777 22:5.1488 23:4.9372 24:4.1283 25:1.3436 
-0.715760508324294 1:-0.65148 2:0.7741 3:-0.60877 4:-3.2389 5:0.070176 6:1.1 7:0.98903 8:-1.5425 9:-3.2432 10:-3.5751 11:-4.7314 12:-5.2344 13:-4.4203 14:-3.2081 15:-3.4863 16:-2.9477 17:-2.1789 18:-1.8492 19:-1.4034 20:-1.5386 21:-1.8448 22:-1.4377 23:-0.96781 24:-0.35226 25:-0.61091 
-0.4323247188574805 1:-0.91475 2:0.46312 3:0.46769 4:2.1381 5:-0.3271 6:-0.99299 7:-1.3304 8:-3.3458 9:-3.7996 10:-5.2865 11:-4.9078 12:-5.0768 13:-3.088 14:0.39575 15:1.666 16:0.75918 17:1.8097 18:1.4963 19:-0.07136 20:-0.67345 21:1.9073 22:0.3337 23:-1.3266 24:5.7584 25:0.52655 
-0.3777742126277387 1:3.9057 2:6.2932 3:5.4069 4:5.6149 5:2.5579 6:0.11286 7:-7.7163 8:-11.5158 9:-8.9116 10:-2.7629 11:1.2449 12:3.8175 13:4.9159 14:3.7358 15:3.5301 16:7.4629 17:6.6334 18:7.7585 19:5.8828 20:-1.2702 21:-5.7963 22:-7.2703 23:-9.4126 24:-7.2698 25:4.815 
-0.3610526267085634 1:-1.884 2:-1.4229 3:-0.11462 4:0.82022 5:2.6083 6:3.2091 7:2.0961 8:-0.43438 9:-1.7508 10:-3.7737 11:-2.5968 12:-4.1058 13:-6.0994 14:-4.235 15:-4.5944 16:-3.1399 17:-2.0153 18:1.8332 19:3.1185 20:1.7497 21:1.6152 22:0.40735 23:-0.46451 24:-1.592 25:-4.6476 
-0.3737406008212558 1:1.2652 2:1.4412 3:1.9346 4:5.1768 5:6.681 6:5.777 7:2.4619 8:-0.96185 9:-6.1696 10:-6.3123 11:-5.5782 12:-1.6168 13:0.4111 14:1.1892 15:1.9284 16:2.6132 17:3.6459 18:4.4699 19:4.3992 20:2.7881 21:1.4071 22:1.5073 23:-9.541 24:-4.2577 25:0.9695 
-0.3781789415431678 1:2.9397 2:1.3687 3:0.9488 4:2.8488 5:1.4362 6:-0.69361 7:-0.63785 8:-3.5359 9:-4.5945 10:-1.4974 11:-0.8221 12:5.2648 13:5.9885 14:3.7878 15:1.0535 16:2.7388 17:2.3692 18:1.4197 19:-3.198 20:-0.95389 21:-1.1186 22:-3.5124 23:0.2721 24:-13.6689 25:6.2225 
-0.37380326729408947 1:2.0584 2:3.0023 3:3.0993 4:2.2008 5:-1.2901 6:-7.9418 7:-4.0372 8:-4.3319 9:-3.961 10:-0.16983 11:0.019204 12:1.6438 13:0.67586 14:0.46299 15:1.0708 16:2.9431 17:3.2815 18:6.3616 19:-0.033556 20:1.4527 21:-9.1712 22:-3.2384 23:-7.0659 24:-3.4236 25:1.0021 
-0.3735957379032745 1:-0.85697 2:-1.6093 3:-1.5903 4:-1.214 5:-4.5316 6:-4.0858 7:1.3429 8:2.0512 9:0.5401 10:0.3499 11:1.5976 12:0.55877 13:-0.43611 14:5.2946 15:-0.87627 16:-2.4651 17:-7.5248 18:-0.71108 19:-2.9087 20:-3.7255 21:0.2029 22:0.49812 23:0.23012 24:1.4383 25:0.60013 
-0.3544841717761943 1:4.7083 2:3.6838 3:4.1559 4:4.6863 5:4.074 6:1.8716 7:0.94582 8:-1.7104 9:-7.1504 10:-9.2105 11:-5.0286 12:-2.4682 13:0.11754 14:2.6627 15:2.8475 16:3.7647 17:3.7991 18:4.4319 19:3.2453 20:4.7602 21:4.0262 22:-4.6823 23:-6.5281 24:-4.7944 25:4.6043 
-0.3777494408815378 1:2.2477 2:1.3044 3:1.7863 4:2.9334 5:-1.6072 6:-2.8388 7:0.68051 8:-1.6449 9:-9.6481 10:-6.2785 11:4.2265 12:-1.2333 13:-2.6411 14:2.2418 15:4.2807 16:1.0273 17:0.49371 18:1.028 19:2.3302 20:0.8254 21:-2.8297 22:-0.96881 23:-1.4914 24:-8.9861 25:2.9143 
-0.37712328609477436 1:-8.7684 2:-4.5542 3:5.0094 4:4.1084 5:0.2676 6:0.91234 7:3.3853 8:5.0877 9:2.0703 10:2.8024 11:0.70333 12:-0.55718 13:-7.9683 14:-7.3614 15:-4.8222 16:4.9163 17:3.4585 18:3.4296 19:3.4947 20:0.71659 21:0.63928 22:2.7973 23:3.126 24:0.41673 25:-6.5866 
-0.4712338506215826 1:-2.2645 2:2.2527 3:0.70623 4:-1.6631 5:1.2838 6:2.3614 7:1.8932 8:0.74372 9:0.75967 10:0.16907 11:-0.45144 12:-0.91863 13:-2.6171 14:-3.7311 15:-2.0655 16:-3.233 17:1.6648 18:0.85724 19:2.0846 20:2.1093 21:1.9654 22:1.0719 23:-0.18619 24:-1.6543 25:-2.5502 
-0.3781615907526381 1:6.6695 2:1.5485 3:6.0048 4:-4.7131 5:-12.0179 6:-6.1949 7:-3.7952 8:-1.3129 9:2.4917 10:1.7833 11:1.8967 12:1.253 13:5.6555 14:2.2541 15:0.4684 16:3.0508 17:2.2501 18:-0.97666 19:-8.454 20:-6.4517 21:-4.5752 22:-4.4173 23:1.383 24:3.1429 25:5.8062 
-0.4211121594028413 1:-4.7616 2:-2.5614 3:-1.8063 4:-2.5964 5:-2.0992 6:-1.1613 7:1.0203 8:1.7352 9:0.82444 10:1.1024 11:0.38531 12:1.8298 13:-0.062768 14:4.4011 15:-0.62834 16:-2.1282 17:0.17677 18:-4.7018 19:-3.4097 20:-1.7326 21:1.4451 22:0.83853 23:-0.81625 24:-1.3237 25:0.72514 
-0.5346526467086736 1:4.3864 2:-2.3825 3:-1.1487 4:-1.4965 5:-1.3761 6:-2.367 7:-3.1697 8:-3.2346 9:-0.82394 10:1.1355 11:2.9944 12:-0.21186 13:-0.64752 14:2.0932 15:3.2052 16:-0.44 17:-1.7919 18:-0.19949 19:0.63221 20:-1.6991 21:-0.92511 22:0.97726 23:-1.6245 24:0.75976 25:0.31634 
-0.3786246201123783 1:-1.5663 2:0.17017 3:1.232 4:1.2975 5:0.89843 6:0.77752 7:0.73036 8:-0.23807 9:0.32081 10:1.0429 11:0.89146 12:-0.84126 13:8.7981 14:-3.9009 15:2.6578 16:-0.83579 17:-3.3157 18:-2.9758 19:-6.3106 20:-6.1124 21:-2.7209 22:-2.4481 23:-6.1449 24:2.4631 25:-0.088474 
-0.4327783346933933 1:-0.17094 2:0.50073 3:-1.5243 4:-0.99437 5:-2.009 6:-3.1653 7:-1.4939 8:-1.3264 9:1.9223 10:2.6814 11:-0.3421 12:2.152 13:3.2711 14:0.5685 15:-1.9492 16:-2.6768 17:-3.7435 18:-3.9058 19:-2.9555 20:-4.4544 21:-0.50571 22:1.5815 23:-0.59635 24:-1.4584 25:0.96996 
-0.3779294161857059 1:0.021451 2:0.12477 3:-0.59681 4:0.97397 5:-2.7454 6:-4.008 7:1.0141 8:9.9519 9:4.4373 10:-4.7392 11:5.6595 12:0.88794 13:-1.1384 14:-2.3135 15:-2.4838 16:-0.3609 17:-1.4217 18:-1.4765 19:-4.9479 20:2.8754 21:5.1365 22:5.5968 23:0.91346 24:-3.0231 25:0.037989 
-0.37632532492110204 1:-2.0785 2:-3.7615 3:-7.5261 4:-3.9224 5:2.9535 6:0.044195 7:2.7857 8:2.0268 9:2.7315 10:2.6332 11:1.9771 12:3.3416 13:1.99 14:-0.31495 15:-2.9667 16:-3.483 17:-3.2246 18:-2.6009 19:-0.55063 20:3.1897 21:0.84515 22:5.7908 23:4.0271 24:0.98355 25:-2.2027 
-0.38220121536074075 1:1.0976 2:-0.038998 3:-0.45187 4:3.1425 5:2.9979 6:1.5306 7:-3.7338 8:-3.0825 9:-0.030799 10:-1.1987 11:-4.4034 12:-3.378 13:1.5184 14:2.5538 15:0.22043 16:0.36849 17:-0.3638 18:0.5219 19:2.3006 20:-4.0625 21:-0.77528 22:-5.0724 23:-5.4091 24:3.2084 25:1.7512 
-0.3749989904176341 1:-0.60715 2:-2.3886 3:-6.5739 4:-4.4386 5:-2.1604 6:-0.5235 7:1.7869 8:0.50547 9:1.2306 10:1.8602 11:2.6982 12:3.7165 13:5.6103 14:6.7333 15:0.76433 16:-4.5136 17:-9.5107 18:-5.7357 19:-3.5999 20:-0.59874 21:0.84932 22:1.9225 23:2.3685 24:0.80305 25:4.7495 
-0.37886374393783057 1:1.9977 2:2.5421 3:-0.24386 4:7.5028 5:-0.23887 6:-1.3173 7:-1.8227 8:-2.7922 9:-4.5283 10:-2.276 11:-0.52528 12:0.99861 13:-0.066587 14:-2.0278 15:-1.4235 16:0.83483 17:1.7925 18:1.5091 19:4.356 20:1.4665 21:-0.22637 22:-1.8424 23:-5.2404 24:-2.9104 25:0.017425 
-0.46148885033496534 1:-0.4986 2:-1.4925 3:7.2156 4:1.374 5:0.2363 6:0.31246 7:-0.5474 8:-1.0609 9:1.6732 10:2.0298 11:-1.6916 12:0.68855 13:-2.7266 14:2.5172 15:1.3875 16:1.3145 17:5.1571 18:2.1885 19:-0.34164 20:-0.29281 21:0.20644 22:0.72067 23:-0.85389 24:-0.83597 25:0.083765 
-0.3760401292977018 1:1.9094 2:4.2001 3:2.4674 4:2.1014 5:3.8836 6:2.9488 7:-3.3137 8:-8.2223 9:-6.4041 10:-6.5299 11:0.3493 12:4.5642 13:3.0688 14:2.678 15:3.7305 16:2.8998 17:1.3964 18:1.3833 19:2.0735 20:1.7294 21:-1.5303 22:-9.1236 23:-5.9785 24:-7.1393 25:2.4583 
-0.36012413730854964 1:2.9795 2:1.9868 3:0.47847 4:-0.88752 5:-0.76148 6:-1.5847 7:1.0527 8:2.3159 9:-0.77797 10:-0.070381 11:-3.011 12:-6.5213 13:-4.6683 14:-2.0096 15:-4.7944 16:1.513 17:0.34435 18:-1.1584 19:-0.032457 20:1.4396 21:0.47549 22:1.954 23:3.5211 24:-1.0799 25:-2.2279 
-0.40834336315122616 1:0.093681 2:-0.6139 3:1.467 4:-3.0908 5:-1.5708 6:3.9216 7:2.3724 8:2.2683 9:1.7619 10:-1.0053 11:-0.5563 12:-0.70847 13:0.8477 14:-0.42156 15:-0.14417 16:-2.4547 17:0.98291 18:-2.4787 19:1.4674 20:-2.331 21:-1.3458 22:6.6224 23:2.1896 24:3.0295 25:1.3961 
-0.3843460328989011 1:-0.48981 2:-0.85323 3:-0.44426 4:-1.9072 5:-2.5912 6:-1.865 7:-2.974 8:4.1758 9:4.5946 10:0.64059 11:3.9435 12:-6.6417 13:-4.2753 14:-3.5946 15:-0.2344 16:-0.7963 17:-0.81606 18:-1.4634 19:-1.4003 20:1.6303 21:2.3222 22:-0.30035 23:-1.3124 24:-1.3198 25:-0.68069 
-0.38595472467978664 1:-1.3754 2:-4.3974 3:-2.9335 4:-0.17773 5:1.7726 6:1.6569 7:-2.6246 8:0.68261 9:0.66294 10:2.8492 11:3.1806 12:-1.5499 13:-1.7386 14:-2.3555 15:-3.4845 16:-3.1955 17:-0.82793 18:-0.79707 19:-1.3377 20:6.1963 21:5.2424 22:2.5643 23:-2.1467 24:2.6043 25:-0.24491 
-0.36284149115095676 1:0.019325 2:1.6893 3:2.4488 4:2.1497 5:2.4883 6:0.18592 7:-3.4569 8:-3.1257 9:-3.5981 10:-4.4901 11:-3.6415 12:-2.4571 13:0.1526 14:0.192 15:0.4881 16:1.6212 17:3.3591 18:2.681 19:1.7482 20:-0.98962 21:-1.004 22:-0.37959 23:-2.0248 24:-4.8296 25:1.7412 
-0.3780474146087655 1:0.4867 2:4.2662 3:8.776 4:1.8203 5:-11.0068 6:-6.1556 7:-3.3371 8:-2.7434 9:2.047 10:1.4254 11:2.2587 12:4.0336 13:4.6731 14:3.4635 15:2.953 16:2.8646 17:5.9497 18:-9.3545 19:-9.8545 20:-5.3611 21:-2.7131 22:-0.61392 23:2.6281 24:1.8417 25:2.6662 
-1.0 1:-0.84783 2:1.5356 3:1.9442 4:0.14091 5:-1.0871 6:0.15978 7:0.11946 8:-1.2654 9:-3.3884 10:-2.7832 11:-4.2815 12:-4.4617 13:-4.5542 14:-3.386 15:-1.432 16:-1.2596 17:-1.1495 18:-0.68154 19:-0.60412 20:0.047892 21:0.52993 22:0.73597 23:0.84516 24:0.022615 25:-0.35575 
-0.5634846841319918 1:-0.24989 2:-0.4599 3:-0.5824 4:-1.3815 5:0.74082 6:0.88233 7:-2.5402 8:-0.43904 9:2.5369 10:-0.8519 11:-1.2248 12:1.7204 13:2.089 14:0.29753 15:3.7032 16:3.3654 17:0.7571 18:0.46015 19:5.8033 20:3.4312 21:1.3089 22:-1.9717 23:-1.2725 24:-0.61672 25:-0.31934 
-0.37723894745247527 1:2.3262 2:1.2098 3:0.93975 4:-0.60715 5:-4.7611 6:-5.2437 7:-5.8455 8:-4.4576 9:1.529 10:3.3137 11:2.6137 12:4.1528 13:3.782 14:2.9117 15:0.91837 16:2.2702 17:3.3989 18:2.7766 19:1.9266 20:-2.854 21:-2.7476 22:-7.5137 23:-7.1218 24:-5.7665 25:1.7173 
-0.37219743364523156 1:5.7873 2:1.98 3:-2.4629 4:-9.9167 5:-6.9168 6:-5.8419 7:-2.6276 8:3.2922 9:2.0247 10:2.6561 11:1.641 12:2.5871 13:3.6623 14:1.3452 15:3.0522 16:2.8552 17:-0.29556 18:-9.4275 19:-7.2888 20:-5.0218 21:-0.29866 22:2.3095 23:2.6935 24:0.9888 25:3.6176 
-0.369640783071102 1:-4.7864 2:-0.84632 3:-0.92495 4:0.50193 5:2.251 6:2.8896 7:0.35027 8:1.9952 9:0.78142 10:2.8046 11:0.48624 12:-1.0298 13:1.0684 14:-7.4109 15:-2.4112 16:-0.91163 17:-1.9502 18:1.3517 19:1.3402 20:1.9752 21:-0.21745 22:0.72349 23:5.3061 24:4.0848 25:-9.9688 
-0.4022178941526759 1:-0.032458 2:2.459 3:3.6929 4:0.3861 5:0.84583 6:-0.51323 7:-3.1598 8:-5.7567 9:-2.6408 10:-1.2323 11:-1.0123 12:1.7959 13:3.8887 14:1.9335 15:-0.8157 16:1.9578 17:2.6427 18:0.36557 19:0.62949 20:0.13538 21:-2.4311 22:-3.0385 23:-0.014425 24:-2.5558 25:0.61772 
-0.6065703838969743 1:-1.628 2:-1.6164 3:1.0557 4:2.807 5:0.36465 6:-0.76844 7:-0.32632 8:-0.77816 9:-0.40516 10:-1.0551 11:-0.94646 12:-2.6857 13:2.7855 14:0.55483 15:-2.6053 16:1.5515 17:1.5207 18:0.64591 19:-0.54518 20:1.3476 21:-2.8368 22:-2.9287 23:-2.1079 24:-2.1729 25:-0.053756 
-0.3476884945135169 1:0.63825 2:1.5209 3:0.55732 4:0.60262 5:0.33408 6:0.62317 7:-0.17069 8:1.7029 9:2.1885 10:0.18796 11:-3.5706 12:-4.1281 13:-4.9611 14:-3.4539 15:0.40949 16:1.6604 17:0.83753 18:2.0048 19:1.6603 20:0.56149 21:1.5074 22:0.84648 23:2.8589 24:-0.47873 25:-4.8232 
-0.36484441641018334 1:-1.8921 2:-0.94903 3:-0.4065 4:2.0139 5:3.021 6:1.6772 7:1.4397 8:2.3148 9:0.66437 10:1.7904 11:0.69955 12:3.9607 13:-10.1194 14:-6.9047 15:-2.1309 16:-1.6437 17:1.0647 18:1.4798 19:1.5114 20:1.444 21:1.3051 22:1.6873 23:2.1086 24:2.2363 25:-6.7348 
-0.37841187024598355 1:-0.13467 2:-1.5793 3:-0.31344 4:2.3274 5:-0.42196 6:-1.9744 7:-2.3258 8:-5.1322 9:7.4206 10:1.3357 11:-0.11347 12:-0.79192 13:-1.4693 14:-0.28598 15:0.5287 16:0.63703 17:-1.574 18:-1.2759 19:4.4774 20:2.0296 21:-1.6249 22:3.365 23:-1.5502 24:-10.0401 25:-0.95835 
-0.3781694781128109 1:2.6788 2:2.3126 3:3.2757 4:2.3393 5:-1.308 6:-4.1657 7:-3.2374 8:-9.5105 9:-6.2632 10:1.0187 11:0.45893 12:2.9519 13:3.9212 14:1.1354 15:4.2674 16:5.3753 17:1.6979 18:-8.2569 19:-4.2008 20:-5.9092 21:-9.2324 22:-9.1246 23:-6.5318 24:-1.7632 25:0.69018 
-0.3733978003039638 1:1.294 2:1.5239 3:1.6681 4:2.073 5:0.78359 6:1.3213 7:-3.9033 8:-7.6221 9:-5.1743 10:0.16321 11:0.09333 12:3.6441 13:4.0064 14:2.3337 15:1.2704 16:1.433 17:0.44462 18:2.2387 19:-1.1805 20:3.233 21:-8.7511 22:-5.786 23:-3.4579 24:-1.1813 25:2.2667 
-0.37924654151294573 1:-2.4067 2:-4.3286 3:1.5829 4:-3.0896 5:0.20549 6:8.0355 7:3.2799 8:3.094 9:0.2372 10:0.58231 11:2.1344 12:3.4284 13:0.77724 14:-0.414 15:-3.6955 16:-4.7362 17:-2.897 18:1.5525 19:0.24151 20:6.3404 21:3.0135 22:1.9362 23:-0.46503 24:1.1975 25:1.4312 
-0.3682127758392271 1:-7.7523 2:-4.6883 3:-2.0651 4:1.0309 5:-0.077216 6:1.193 7:3.9795 8:2.0624 9:2.0743 10:4.4014 11:1.6518 12:-1.5324 13:-1.3317 14:-5.269 15:-8.2374 16:-6.3441 17:0.27941 18:-1.3679 19:-0.32229 20:1.9652 21:1.9046 22:1.7091 23:2.2343 24:-0.2073 25:-7.9741 
-0.37910440549457014 1:-2.7671 2:-1.1155 3:2.2006 4:4.6448 5:2.1851 6:0.87071 7:-0.61876 8:-0.24146 9:1.4385 10:-2.5238 11:-4.6937 12:-5.0723 13:-10.8901 14:-11.7652 15:-9.4019 16:-6.0857 17:-7.18 18:-4.108 19:-1.0088 20:-0.33293 21:0.48509 22:-1.3598 23:-0.29926 24:-0.38353 25:-3.1721 
-0.38081880827458725 1:3.1766 2:-3.0428 3:-0.95299 4:2.6512 5:-1.6607 6:0.18788 7:7.3083 8:2.6957 9:2.0475 10:-0.40131 11:0.30767 12:-6.5317 13:-10.4523 14:-12.1222 15:-6.1457 16:-7.8991 17:-2.7605 18:-0.7963 19:1.1209 20:0.028824 21:-0.096747 22:0.066658 23:-1.327 24:1.5251 25:-0.24736 
-0.3771019728103186 1:2.8382 2:3.0766 3:3.8677 4:-1.1492 5:0.98444 6:3.3731 7:0.68619 8:-7.5049 9:-6.2545 10:-6.6376 11:-3.1193 12:6.1693 13:3.9231 14:2.6846 15:3.1856 16:3.506 17:2.9191 18:-1.3254 19:2.7429 20:3.5108 21:-7.9447 22:-7.148 23:-7.6047 24:-0.40922 25:1.9193 
-0.3760997113852976 1:0.7599 2:-2.976 3:-2.1843 4:-5.2963 5:0.30935 6:-2.1936 7:-3.5922 8:0.29489 9:-1.2399 10:2.145 11:4.4884 12:5.9783 13:4.8017 14:-4.3659 15:-1.7637 16:0.81065 17:-3.4882 18:-4.5922 19:-1.0621 20:0.28372 21:-2.6101 22:-1.2964 23:-0.078718 24:0.85256 25:-7.1435 
-0.3420235863723106 1:-1.5828 2:-3.033 3:2.3692 4:1.8887 5:-0.30785 6:-0.55665 7:4.2099 8:4.3319 9:1.6064 10:-0.36799 11:-2.3562 12:-1.976 13:-2.1302 14:-2.2108 15:-4.2787 16:-1.5409 17:1.6994 18:2.133 19:2.1517 20:0.72217 21:3.2453 22:1.8725 23:-1.0531 24:-3.6042 25:-2.6036 
-0.37714012749289394 1:3.0175 2:-2.5942 3:-5.5703 4:-2.7674 5:-1.4869 6:-1.0034 7:0.20892 8:-2.5955 9:-1.2179 10:4.1709 11:3.51 12:1.5081 13:0.015657 14:2.9025 15:-1.2832 16:-4.2512 17:-4.3042 18:-2.7664 19:-1.3648 20:-2.2853 21:-4.6887 22:4.1942 23:6.8008 24:4.8532 25:1.5375 
-0.41202189151753793 1:2.0025 2:1.6219 3:0.66211 4:-0.92414 5:-1.9007 6:-2.0825 7:-3.0917 8:-3.3952 9:-2.9411 10:-1.4371 11:-0.1891 12:0.26399 13:2.4944 14:0.30523 15:1.5072 16:3.1377 17:1.4475 18:0.45424 19:-2.8373 20:-3.6101 21:-4.6672 22:-1.8987 23:-3.2322 24:-1.9372 25:-0.19376 
-0.5211998765843109 1:1.351 2:3.0583 3:0.41841 4:-1.6869 5:-1.8134 6:-0.95624 7:-1.2554 8:-3.0948 9:-0.14921 10:1.0527 11:1.4253 12:-1.0048 13:-1.0195 14:0.88161 15:1.745 16:0.25027 17:-1.3828 18:-2.7329 19:-1.6165 20:-1.6091 21:-2.8537 22:-0.18758 23:3.0535 24:1.661 25:-3.5373 
-0.3764782214572678 1:-5.371 2:-4.1501 3:-2.6203 4:2.7116 5:1.6842 6:1.4132 7:-0.46593 8:-2.5504 9:-1.3702 10:0.84285 11:-2.4625 12:0.98464 13:-4.6587 14:-4.7622 15:-5.4694 16:-6.673 17:-4.9663 18:-0.70133 19:0.49395 20:3.18 21:0.13004 22:-3.5108 23:-5.379 24:-2.4803 25:-2.3461 
-0.3780178841583392 1:0.13079 2:-0.21045 3:3.4149 4:5.221 5:-7.5688 6:-0.07981 7:4.8639 8:-2.9552 9:-6.5728 10:-2.1918 11:0.074128 12:0.50022 13:1.2732 14:0.21161 15:-0.51033 16:-1.8939 17:4.3159 18:2.5319 19:0.64805 20:1.3736 21:-2.5358 22:0.23925 23:-6.1234 24:-1.0553 25:0.59082 
-0.37784654578496457 1:-9.8815 2:-8.1189 3:-3.1421 4:-1.6143 5:-3.0145 6:1.1811 7:2.945 8:2.4679 9:3.0347 10:2.7966 11:6.211 12:5.0417 13:4.5746 14:3.5764 15:-0.35364 16:-13.7659 17:-9.7493 18:-6.1188 19:-3.4204 20:1.2557 21:4.5056 22:3.8128 23:3.6822 24:3.3089 25:0.38288 
-0.37606045916125225 1:1.1852 2:7.1253 3:3.0213 4:0.079117 5:-3.8323 6:-5.5314 7:-2.6438 8:-1.4814 9:-2.2489 10:-0.9832 11:-0.94978 12:-0.21563 13:0.38179 14:0.61252 15:1.768 16:3.2716 17:5.5177 18:6.367 19:0.033665 20:-0.99178 21:-3.7549 22:-1.3926 23:-1.1633 24:-1.4684 25:1.2164 
-0.48879435591709286 1:-1.3216 2:0.4796 3:2.2233 4:0.014609 5:-1.0184 6:-1.6079 7:-2.0103 8:-2.5461 9:-0.96094 10:-1.5521 11:0.54715 12:1.3473 13:-1.6624 14:-1.9816 15:2.3713 16:2.8497 17:-0.17739 18:0.18904 19:-1.8532 20:3.9778 21:0.23271 22:-0.11547 23:-4.0102 24:1.4937 25:-2.1148 
-0.3780833179351727 1:-3.5875 2:-11.2383 3:-6.0707 4:-0.27338 5:0.51325 6:4.3196 7:3.4802 8:2.1621 9:2.1782 10:2.0173 11:1.388 12:1.8384 13:-1.1866 14:-1.895 15:-8.3416 16:-7.2592 17:2.3827 18:3.4977 19:2.0717 20:4.0653 21:2.7682 22:2.5172 23:1.8809 24:1.6587 25:0.77096 
-0.37092648078617657 1:-9.0518 2:-5.2904 3:-3.5929 4:0.041858 5:-2.6142 6:1.6012 7:1.0643 8:1.1523 9:2.1302 10:2.3743 11:4.4267 12:4.8336 13:1.2646 14:-2.8501 15:-4.0889 16:-4.5687 17:-3.6379 18:-2.511 19:-2.659 20:2.0982 21:2.4413 22:2.195 23:2.6837 24:1.4544 25:-4.8096 
-0.40078158436681005 1:-1.001 2:-2.5281 3:-2.0258 4:-1.724 5:-1.206 6:-0.0090686 7:0.28737 8:-1.6819 9:-1.5341 10:3.0414 11:4.5831 12:0.12353 13:-2.987 14:3.8857 15:2.6449 16:-0.77184 17:-0.2045 18:-0.32694 19:-2.3967 20:-0.50124 21:-0.51217 22:-2.0195 23:-3.083 24:4.9994 25:-0.26354 
-0.4045472459279298 1:-3.0368 2:0.42414 3:0.98747 4:-1.1359 5:-0.11982 6:-0.76961 7:-1.8185 8:-0.51646 9:-0.06679 10:1.3361 11:2.4056 12:3.3108 13:6.5506 14:0.98645 15:-3.6336 16:-2.206 17:-0.61734 18:-1.7279 19:-1.2917 20:0.25865 21:0.082556 22:-1.7921 23:-0.62026 24:0.55177 25:-4.9037 
-0.37801337825025283 1:0.13643 2:5.2794 3:1.3096 4:0.94838 5:3.8514 6:5.9046 7:6.2773 8:5.265 9:2.0161 10:-2.8383 11:-2.4754 12:-3.0759 13:-9.0975 14:-5.6356 15:4.9679 16:2.1633 17:3.2043 18:1.7614 19:2.1558 20:2.9903 21:5.3671 22:7.5762 23:4.8721 24:-1.7197 25:0.02598 
-0.3776164866062967 1:1.5939 2:-6.5755 3:-4.9881 4:-2.27 5:-2.78 6:-3.0154 7:2.3549 8:2.6318 9:5.0521 10:4.3003 11:4.5797 12:5.9575 13:3.8855 14:4.5813 15:0.73914 16:-1.8234 17:-12.2808 18:-10.0311 19:-6.6898 20:-2.9566 21:-2.0421 22:0.30128 23:4.7029 24:4.6 25:4.4049 
-0.373949767310447 1:-0.99251 2:-1.053 3:-3.354 4:-3.826 5:-3.5457 6:1.3387 7:-0.033525 8:2.8906 9:5.0414 10:3.6705 11:0.66301 12:-1.709 13:-0.23993 14:1.286 15:0.91501 16:-1.1875 17:-1.8363 18:-2.1085 19:-3.7282 20:-1.5874 21:-3.3024 22:5.8608 23:2.6367 24:0.94038 25:1.8715 
-0.39122721272586497 1:0.19842 2:0.42949 3:0.36895 4:-3.4603 5:-1.4392 6:-1.1103 7:0.8086 8:-0.59946 9:3.6648 10:3.4355 11:0.50145 12:-0.48123 13:-1.3721 14:-0.51168 15:-0.19248 16:0.14119 17:0.15968 18:-1.8358 19:-4.8045 20:-1.3219 21:1.3975 22:2.4735 23:5.3209 24:3.1445 25:-2.7461 
-0.403328717999445 1:0.63223 2:2.6355 3:-1.1859 4:0.39177 5:2.5166 6:-1.3026 7:-1.2412 8:2.7728 9:-2.3433 10:-1.9048 11:0.54787 12:-0.22565 13:0.96301 14:-1.1391 15:0.8672 16:6.8133 17:-4.9465 18:3.1032 19:-0.54292 20:0.60819 21:-2.4615 22:-0.14384 23:-1.9175 24:-1.4512 25:-0.8815 
-0.373060465921654 1:-5.4588 2:-2.6445 3:1.2159 4:1.9894 5:-1.5869 6:2.1557 7:4.3829 8:2.6153 9:1.8109 10:4.4125 11:5.4784 12:3.5552 13:-11.0082 14:-7.5972 15:-6.1189 16:-2.3278 17:1.8807 18:1.9989 19:-0.19173 20:2.5229 21:4.6754 22:2.6252 23:1.0057 24:4.8252 25:-5.3898 
-0.3778676925197151 1:-10.7277 2:-7.8545 3:-2.2671 4:1.4623 5:1.1523 6:2.4635 7:2.9499 8:4.5069 9:5.7593 10:5.0725 11:3.1787 12:0.94743 13:-3.6551 14:-20.4611 15:-11.2743 16:-7.0785 17:2.6735 18:4.136 19:5.4279 20:4.6947 21:4.658 22:5.3926 23:6.0007 24:4.9963 25:-9.8365 
-0.37012798875661057 1:-6.3674 2:-4.1163 3:0.11535 4:2.3024 5:1.4244 6:-0.89546 7:2.8077 8:4.3684 9:1.6942 10:4.5433 11:4.5734 12:0.43836 13:-5.9432 14:-6.9667 15:-4.3693 16:-5.1079 17:-0.66133 18:2.2951 19:2.17 20:2.6034 21:5.0513 22:2.6983 23:6.0901 24:1.7726 25:-8.3731 
-0.3938874330822811 1:-0.19927 2:2.2133 3:2.114 4:-0.0077048 5:2.9348 6:0.5338 7:-0.15649 8:0.46097 9:3.0029 10:0.88788 11:-0.9963 12:-2.9327 13:-0.53275 14:0.74868 15:-0.68985 16:-3.4997 17:-2.5755 18:-3.992 19:-4.066 20:-4.5921 21:-4.8255 22:-3.0036 23:-0.036815 24:1.0347 25:-7.0744 
-0.37837517023558925 1:1.9206 2:-2.6988 3:-6.263 4:-6.0564 5:-3.9576 6:-2.485 7:-2.2724 8:-1.6057 9:-4.5357 10:-2.815 11:-3.8402 12:-3.1919 13:-6.1323 14:-8.2385 15:-6.7768 16:-8.7964 17:-6.2476 18:-2.548 19:0.64458 20:2.6929 21:3.404 22:2.6353 23:0.87799 24:-0.48443 25:-3.3691 
-0.37774447627207874 1:4.2199 2:3.8286 3:1.3724 4:1.7275 5:0.37662 6:-16.5276 7:-9.4908 8:-4.4895 9:0.37248 10:0.8909 11:-0.35753 12:3.1252 13:4.1883 14:4.4094 15:5.4007 16:5.4672 17:4.3264 18:1.904 19:-0.19707 20:-7.4884 21:-13.5501 22:-7.2357 23:0.30993 24:1.3923 25:7.9679 
-0.3499377997176509 1:-4.6826 2:-1.0346 3:-0.021983 4:1.6429 5:3.1518 6:1.463 7:1.3866 8:0.76076 9:2.2996 10:1.4623 11:0.82013 12:0.30784 13:-2.4134 14:-6.1735 15:-3.3024 16:-1.0373 17:-0.037345 18:5.1126 19:2.451 20:1.6368 21:1.9796 22:1.9125 23:1.3936 24:-0.055853 25:-7.471 
-0.34517000614958493 1:0.069454 2:1.6052 3:3.8588 4:3.5319 5:2.8543 6:0.8506 7:-0.6525 8:-0.95377 9:-2.0084 10:-4.291 11:-3.419 12:-5.7213 13:-2.4497 14:0.45264 15:0.93921 16:0.42575 17:2.0717 18:2.6961 19:3.1076 20:2.0728 21:0.4177 22:-0.52223 23:-2.7387 24:-5.2281 25:1.1521 
-0.3784112847657641 1:-1.553 2:2.864 3:3.4601 4:1.3948 5:0.95822 6:1.1332 7:3.0681 8:0.80775 9:2.3999 10:-0.56164 11:-10.0272 12:-9.0371 13:1.4251 14:-1.2652 15:-2.3781 16:2.6517 17:5.134 18:1.1603 19:0.59623 20:3.0818 21:2.8525 22:0.2931 23:0.22429 24:2.3338 25:1.9125 
-0.4148845854057346 1:1.5591 2:-0.19992 3:-1.2342 4:0.7435 5:0.6677 6:-2.6052 7:6.0794 8:1.6264 9:-0.17655 10:-3.5178 11:-4.673 12:-4.4052 13:-2.4307 14:-2.1367 15:0.6171 16:1.3928 17:-0.42427 18:-1.7722 19:-1.5832 20:-0.99619 21:0.030189 22:-0.48937 23:2.3771 24:0.39064 25:2.6488 
-0.4024868967068574 1:-0.0302 2:-0.47206 3:1.1452 4:-0.22831 5:0.46676 6:-0.77042 7:-0.17921 8:0.81123 9:-1.0322 10:1.6035 11:-0.79372 12:-1.5738 13:0.65629 14:2.2537 15:0.99245 16:-0.18697 17:-1.0247 18:-0.90013 19:2.7249 20:2.9087 21:-5.2314 22:0.75693 23:8.3383 24:-1.9144 25:0.15567 
-0.37998971576370993 1:-0.72063 2:-4.3342 3:1.6216 4:1.3029 5:0.77999 6:5.2934 7:2.1034 8:1.5053 9:-0.31014 10:-0.12441 11:-0.11216 12:-0.34436 13:-0.45875 14:-0.35045 15:-3.8034 16:-3.089 17:1.5333 18:0.37935 19:4.6806 20:4.143 21:4.5946 22:-0.106 23:-5.1648 24:-2.8903 25:-0.3904 
-0.4036959497194824 1:-1.4263 2:0.67151 3:4.2275 4:-5.0332 5:2.6344 6:2.5976 7:1.5674 8:0.39035 9:-1.1158 10:-1.6491 11:-1.6566 12:-0.96059 13:-0.018425 14:-0.35925 15:0.1958 16:4.4422 17:2.3995 18:-3.3177 19:-3.1883 20:1.9115 21:0.27652 22:-1.2093 23:-1.559 24:-0.29984 25:-0.65099 
-0.35120749471236357 1:2.8053 2:2.1179 3:2.8466 4:0.94134 5:-2.8972 6:-4.9465 7:-5.441 8:-4.3131 9:-0.59422 10:1.1847 11:0.96663 12:2.052 13:2.705 14:2.7011 15:1.5418 16:2.0901 17:2.6625 18:1.5405 19:-2.6874 20:-5.1701 21:-5.3622 22:-3.3448 23:0.97241 24:-1.2538 25:2.7367 
-0.5839894013287915 1:-1.3553 2:-2.0081 3:-0.36702 4:-0.22412 5:0.19626 6:1.0999 7:-1.3186 8:-1.2985 9:1.7413 10:0.40385 11:-1.6035 12:0.52512 13:-2.7487 14:-1.4045 15:-0.77283 16:-2.3264 17:-1.6408 18:3.8478 19:1.1722 20:-0.92265 21:-4.1141 22:-2.3433 23:-0.66662 24:-1.8632 25:-2.6677 
-0.37106201460203403 1:-5.5458 2:-1.6738 3:-1.645 4:-1.423 5:-0.38908 6:-0.051941 7:-1.1966 8:-0.05679 9:-0.062277 10:-0.37356 11:3.5844 12:7.3222 13:7.6141 14:-5.4877 15:-6.5688 16:-2.169 17:0.37095 18:-4.3342 19:-0.59417 20:1.6274 21:-1.6991 22:-1.0089 23:0.29218 24:0.74451 25:-4.0233 
-0.3778972247017977 1:-2.4829 2:3.8634 3:2.6306 4:2.4998 5:2.7724 6:3.4426 7:0.65807 8:1.3594 9:4.3297 10:7.3849 11:-8.5304 12:-10.717 13:-3.9301 14:1.5614 15:1.1241 16:3.6938 17:3.0278 18:0.65743 19:0.73762 20:1.3074 21:2.4451 22:2.5151 23:-0.41252 24:-1.3227 25:-7.8756 
-0.36340483321364514 1:5.225 2:5.4309 3:6.4765 4:2.7855 5:-2.4427 6:-6.5205 7:-3.029 8:-5.6478 9:-7.7636 10:1.4725 11:2.3314 12:1.5844 13:3.8794 14:4.0629 15:3.5185 16:5.6871 17:5.6631 18:5.607 19:0.87104 20:-2.6244 21:-5.4793 22:-4.9837 23:-4.0908 24:-1.7701 25:3.7082 
-0.3905568986632944 1:-1.6728 2:-3.7098 3:-2.4938 4:-2.1525 5:-1.8089 6:-0.91758 7:0.72207 8:1.7302 9:2.5355 10:0.89574 11:0.77174 12:1.9888 13:3.3916 14:3.6368 15:2.3418 16:-1.8869 17:-4.0305 18:-4.1551 19:-3.7604 20:-0.53295 21:-0.79372 22:-0.68362 23:2.771 24:3.031 25:0.072803 
-0.314205550837002 1:3.2129 2:4.0498 3:4.1262 4:5.2984 5:4.9276 6:4.6469 7:0.91821 8:-3.1612 9:-8.283 10:-9.4229 11:-3.9251 12:0.36788 13:1.3779 14:4.0733 15:4.1622 16:3.6076 17:4.3495 18:5.1338 19:4.5651 20:1.7148 21:-0.4809 22:-8.7783 23:-6.2841 24:-5.1752 25:1.442 
-0.3780352414391344 1:-3.8136 2:-0.6204 3:4.0975 4:3.928 5:4.7548 6:4.6229 7:3.9061 8:4.8592 9:4.3016 10:1.9739 11:0.52924 12:-5.1535 13:-12.8707 14:-9.0104 15:-3.5222 16:-0.3784 17:2.6255 18:4.1912 19:4.7079 20:4.8275 21:4.9948 22:4.8207 23:3.5128 24:1.2559 25:-7.837 
-0.36549408794947374 1:1.0629 2:4.4792 3:3.1315 4:-5.4026 5:-7.6077 6:-6.4722 7:-0.2914 8:2.8758 9:1.9658 10:1.0091 11:1.8694 12:2.363 13:2.4653 14:1.7787 15:1.3239 16:3.3373 17:0.57437 18:-9.3251 19:-8.752 20:-4.6977 21:-1.3878 22:4.5758 23:2.659 24:1.8602 25:1.1179 
-0.37818450318776176 1:-2.9009 2:-0.41596 3:-3.1571 4:2.3417 5:-4.0598 6:-1.9851 7:-13.8433 8:-7.6825 9:-7.1233 10:-1.3335 11:0.50054 12:5.9584 13:4.9361 14:-0.69542 15:-0.6816 16:-1.581 17:-3.2785 18:-1.6894 19:2.1196 20:-4.0342 21:-7.746 22:-5.631 23:-6.3053 24:-4.8835 25:-1.9637 
-0.37881941253453516 1:-5.5366 2:-7.8818 3:-8.4451 4:-6.2031 5:-4.6861 6:-0.25772 7:0.72594 8:-1.264 9:-1.8892 10:-0.86733 11:2.8654 12:0.1458 13:0.10205 14:1.7835 15:0.36013 16:-1.7876 17:-3.1221 18:-6.6703 19:-7.6273 20:-6.1558 21:-5.7012 22:-5.1206 23:-4.1296 24:-3.4111 25:-3.3352 
-0.3796986558566148 1:0.35077 2:-0.67407 3:2.8861 4:0.41001 5:4.3552 6:-0.74854 7:2.3813 8:-2.8228 9:-8.0885 10:-2.9417 11:1.0487 12:1.5493 13:0.19103 14:-0.76888 15:-0.42099 16:-2.2927 17:0.69558 18:2.5699 19:5.9199 20:0.87098 21:-1.9707 22:1.3805 23:1.3998 24:-5.3908 25:0.7717 
-0.3753259937865645 1:2.4228 2:0.10717 3:1.3641 4:-1.7495 5:1.562 6:-5.3999 7:-2.547 8:-2.556 9:-0.73108 10:-0.40455 11:2.5432 12:3.1873 13:2.0926 14:0.94289 15:4.4177 16:2.4624 17:3.3805 18:-3.7678 19:-2.5492 20:-11.5039 21:-3.9119 22:-3.5731 23:-0.30778 24:0.84275 25:1.7773 
-0.37785271455498143 1:-2.7769 2:1.6849 3:5.3911 4:-0.83619 5:1.0016 6:-4.8302 7:-5.0861 8:-6.4728 9:-6.1814 10:-4.0343 11:-1.9241 12:-2.3785 13:0.83029 14:-1.5882 15:-4.8368 16:-2.5507 17:0.61065 18:-4.9687 19:-5.419 20:-8.5249 21:-6.366 22:-2.3458 23:-1.7238 24:-0.50613 25:-3.3798 
-1.0 1:0.22249 2:0.58114 3:1.1005 4:0.023629 5:0.52182 6:0.40408 7:0.92937 8:0.88206 9:1.5632 10:0.55732 11:1.4844 12:1.6387 13:0.79612 14:-1.4183 15:-0.17307 16:5.3085 17:2.194 18:0.94585 19:1.2363 20:0.78592 21:0.65709 22:1.3425 23:2.1465 24:-0.0087201 25:0.14363 
-0.3783435986401224 1:-0.43558 2:-4.1168 3:-7.5464 4:-4.0256 5:-1.6422 6:0.34857 7:3.1235 8:-0.32015 9:-3.0259 10:-3.6467 11:-5.1416 12:-5.8261 13:-0.60433 14:1.1271 15:0.93336 16:-1.8018 17:-5.0072 18:-9.6534 19:-7.3546 20:-5.4397 21:-2.9447 22:-3.5708 23:0.86297 24:0.88522 25:-2.8888 
-0.5431181790024711 1:-2.1844 2:-2.8064 3:-3.5668 4:-3.9724 5:-2.5924 6:-1.2328 7:0.68703 8:0.8597 9:-0.93295 10:-0.75366 11:-0.53594 12:-0.38524 13:-2.2813 14:-0.52243 15:1.908 16:2.8258 17:2.1099 18:2.1217 19:2.4065 20:3.7127 21:3.2198 22:3.9174 23:0.57209 24:-2.3303 25:-1.3955 
-0.3780300682172402 1:-0.83243 2:-1.6503 3:-3.0042 4:-1.7988 5:1.9792 6:-4.6905 7:0.69887 8:-5.0578 9:-6.8703 10:-3.6932 11:3.2432 12:5.1599 13:3.276 14:-0.37282 15:-1.6659 16:-1.6012 17:-5.6291 18:-2.3645 19:3.9281 20:-7.541 21:-3.0919 22:-5.5934 23:-7.6119 24:-4.9462 25:-0.46289 
-0.3761278891633344 1:1.4558 2:0.8983 3:1.0293 4:0.72376 5:0.84809 6:3.0154 7:2.9386 8:1.4831 9:-5.0375 10:-7.6946 11:-7.6368 12:-1.9303 13:4.0152 14:1.7848 15:1.3927 16:0.24567 17:1.0613 18:2.0436 19:1.612 20:2.4192 21:1.318 22:-0.56517 23:-10.3883 24:-7.5186 25:1.4169 
-0.377652652952939 1:3.1086 2:-0.31326 3:-3.6816 4:2.2645 5:-5.7074 6:-9.6173 7:-6.5055 8:5.8369 9:-0.51365 10:-0.21661 11:3.4948 12:2.0769 13:1.5823 14:0.055587 15:-0.33597 16:-0.90309 17:-2.0787 18:-1.0092 19:-3.5777 20:-6.9534 21:-6.6803 22:1.1874 23:3.5661 24:1.1762 25:3.0835 
-0.37298978703162505 1:-13.1613 2:-6.3551 3:-0.27609 4:-1.118 5:4.3501 6:2.5774 7:0.076139 8:1.6366 9:1.496 10:-0.65376 11:-0.75739 12:1.4398 13:-0.058905 14:-2.9342 15:-6.6133 16:0.70348 17:-1.4488 18:-0.065856 19:3.5929 20:2.2283 21:2.9664 22:2.127 23:2.5057 24:1.6904 25:1.1065 
-0.3777787938689424 1:-2.7994 2:-3.9968 3:-1.7911 4:6.3646 5:3.8177 6:-0.87448 7:-0.53564 8:-5.7227 9:0.23918 10:-1.6558 11:-2.5384 12:-3.1209 13:-2.3506 14:-1.6549 15:-1.8413 16:-1.4574 17:0.29781 18:5.9494 19:1.5052 20:-8.3487 21:-4.8398 22:-1.8344 23:1.4633 24:-2.0937 25:-2.5113 
-0.37960144800751494 1:-0.63144 2:0.21539 3:-1.3507 4:6.4016 5:1.7424 6:-1.8788 7:-3.1993 8:-0.85846 9:0.24011 10:-0.093764 11:4.2082 12:0.58202 13:-2.1054 14:-3.7996 15:-4.3608 16:-2.8486 17:3.5282 18:4.488 19:1.7486 20:-0.55922 21:-0.34477 22:1.6339 23:1.3974 24:-2.8948 25:-1.8304 
-0.3779898999931616 1:4.6564 2:3.9506 3:1.5699 4:-2.2163 5:-5.9134 6:-5.925 7:-7.292 8:-3.007 9:0.63167 10:0.084759 11:0.93135 12:4.3793 13:4.8463 14:4.0427 15:3.4411 16:3.5462 17:3.3614 18:2.2086 19:0.34685 20:-9.605 21:-14.345 22:-7.1682 23:-0.59513 24:1.22 25:5.0357 
-0.37578866740939587 1:-1.0148 2:-4.0598 3:-3.682 4:-5.1831 5:-3.5835 6:-1.3203 7:4.8896 8:2.8745 9:-0.46952 10:0.034588 11:0.29134 12:-2.3537 13:-3.9992 14:3.1506 15:-1.7918 16:-1.0414 17:-4.4884 18:-6.5312 19:-5.806 20:-2.0785 21:-2.6648 22:4.381 23:1.8734 24:-0.78781 25:-1.7974 
-0.37767253150783797 1:0.31516 2:0.86366 3:0.66464 4:-10.3871 5:-8.2183 6:-7.7553 7:-2.8551 8:-0.26493 9:1.5286 10:5.2354 11:3.0115 12:2.6477 13:2.9859 14:-0.6501 15:-0.75661 16:-2.3038 17:-0.44894 18:-5.9864 19:-9.0655 20:-9.4261 21:0.084519 22:0.43246 23:-1.6268 24:2.2191 25:3.193 
-0.6218278328100506 1:-0.20909 2:0.2281 3:2.627 4:3.0126 5:0.25171 6:-1.7908 7:-2.0114 8:-1.2269 9:-1.9569 10:0.084355 11:-3.095 12:-0.31329 13:0.74427 14:-0.31665 15:-1.5111 16:-1.9939 17:1.1312 18:3.4837 19:0.40549 20:-1.5993 21:-1.6136 22:-1.8391 23:-2.322 24:-1.5423 25:-1.241 
-0.3697240250945326 1:-6.9796 2:3.9394 3:1.2599 4:0.12138 5:3.771 6:2.0995 7:3.4192 8:3.0572 9:2.5998 10:1.5953 11:-1.4869 12:0.34225 13:-5.2899 14:-8.6506 15:-0.2318 16:0.72616 17:2.6629 18:1.552 19:2.9423 20:2.2299 21:2.1092 22:2.5422 23:2.3122 24:-0.05529 25:-10.5881 
-0.35013806976889017 1:2.5317 2:3.9433 3:2.9109 4:2.3124 5:1.8345 6:-0.50889 7:-0.22914 8:-0.14322 9:-7.2352 10:-7.3969 11:-4.7442 12:-4.2196 13:-3.2841 14:1.321 15:1.9298 16:1.4968 17:3.1172 18:2.2067 19:1.1896 20:0.24745 21:-0.67686 22:-0.75918 23:-0.46282 24:-5.5657 25:0.01546 
-0.3749781552018009 1:-1.694 2:6.826 3:2.5944 4:-1.6109 5:0.61479 6:-6.6312 7:-2.2424 8:-0.53923 9:0.17842 10:-0.56022 11:-0.8308 12:0.1567 13:0.18467 14:0.5501 15:0.37726 16:0.49465 17:2.1646 18:-3.9299 19:-0.48811 20:-1.09 21:-6.5191 22:-3.1218 23:-2.3102 24:0.25272 25:0.89106 
-0.37359212560127064 1:-1.2734 2:-0.70889 3:0.16001 4:0.54224 5:0.88653 6:1.801 7:2.0763 8:2.9548 9:4.4327 10:-0.21061 11:-2.3036 12:-3.3039 13:-3.1002 14:-3.3577 15:-2.3396 16:-0.2106 17:-0.21223 18:1.2754 19:1.5878 20:1.5102 21:2.2543 22:1.539 23:4.3735 24:-1.7752 25:-1.0255 
-0.3946105695022687 1:-6.0228 2:-3.7535 3:-1.4263 4:1.1962 5:0.25158 6:1.829 7:2.0181 8:-1.2988 9:1.3526 10:0.33683 11:0.25553 12:-0.68852 13:-2.8746 14:-3.0942 15:-3.9703 16:-5.4599 17:-4.3994 18:-1.289 19:1.7912 20:-1.0477 21:-0.29855 22:0.14152 23:0.46754 24:0.68031 25:-3.6119 
-0.37759234541955944 1:-3.2628 2:-1.767 3:0.2816 4:-0.21958 5:-1.1192 6:-0.72632 7:2.3008 8:-0.4045 9:-0.057367 10:6.6287 11:3.8273 12:-4.6123 13:0.86698 14:0.67416 15:-7.0224 16:-3.6284 17:-0.29405 18:-1.4717 19:-0.025056 20:0.36206 21:2.7325 22:2.5679 23:1.285 24:1.0513 25:-6.4806 
-0.3734430808571703 1:1.4689 2:0.80442 3:1.6064 4:1.5085 5:1.8751 6:2.7386 7:3.0166 8:0.10005 9:-3.6317 10:-8.0129 11:-6.4118 12:-6.268 13:-2.2439 14:-1.3163 15:-0.28068 16:0.63343 17:2.171 18:1.0892 19:1.0133 20:1.1216 21:1.1542 22:6.0629 23:1.0567 24:-7.3112 25:0.84235 
-0.3787026413551808 1:0.12049 2:-0.19938 3:0.06643 4:-1.1266 5:0.36173 6:5.1611 7:6.1389 8:-0.64349 9:-4.4048 10:-0.20976 11:0.52307 12:-2.7456 13:2.6736 14:-0.40831 15:-3.5608 16:-6.4199 17:-6.6653 18:-5.0936 19:3.0361 20:3.5626 21:2.7566 22:-0.1717 23:-0.7113 24:0.9456 25:0.36383 
-0.3780130454290125 1:-0.40276 2:2.2987 3:3.621 4:3.707 5:-3.0395 6:-0.45229 7:0.0064457 8:-1.468 9:-1.9845 10:-4.3175 11:-1.792 12:-0.20804 13:-0.95429 14:-2.9854 15:-1.6924 16:5.6384 17:5.6967 18:-0.61851 19:0.26511 20:2.8448 21:-1.279 22:-2.0665 23:-1.6423 24:-3.5272 25:-2.8422 
-0.40661496722194 1:-0.29988 2:3.4792 3:3.5233 4:-0.68819 5:-4.0342 6:3.517 7:4.1273 8:-0.84234 9:-0.53183 10:2.3085 11:0.90033 12:1.8949 13:0.05039 14:-2.0709 15:-3.8138 16:0.43407 17:-0.59437 18:0.70761 19:1.9738 20:2.7951 21:1.2438 22:0.50034 23:0.54948 24:1.193 25:-1.9219 
-0.3777768123600053 1:1.8263 2:3.3662 3:2.4516 4:2.1074 5:-2.6072 6:-9.0337 7:-7.384 8:-5.3706 9:-4.2094 10:-0.85779 11:1.5957 12:1.7675 13:4.3648 14:4.8179 15:1.3695 16:0.37091 17:1.02 18:2.4411 19:3.3165 20:5.3207 21:2.1636 22:-0.12887 23:-7.8299 24:-9.3612 25:2.2803 
-0.3795090875183308 1:0.56597 2:-0.35471 3:-0.32509 4:1.1298 5:2.1982 6:0.86651 7:2.0416 8:1.8024 9:1.0969 10:2.3076 11:1.0899 12:0.40705 13:1.2142 14:-1.5532 15:-11.0599 16:-8.9288 17:1.1748 18:-1.1253 19:2.1121 20:3.4921 21:1.9128 22:1.2114 23:1.1039 24:1.92 25:0.81493 
-0.3690321252343104 1:-7.4944 2:-3.0574 3:-4.2435 4:-3.1849 5:0.65455 6:0.87906 7:0.90436 8:-0.25178 9:0.42408 10:0.55307 11:0.81587 12:2.1226 13:5.5478 14:3.035 15:-2.355 16:-6.6129 17:-2.626 18:-3.2601 19:-2.6578 20:0.94582 21:1.3592 22:-0.20891 23:1.4496 24:1.6831 25:-3.0103 
-0.40766786806595956 1:-0.2459 2:-0.695 3:-0.76169 4:0.56509 5:1.1073 6:1.1598 7:2.5094 8:2.4824 9:0.89654 10:-0.21793 11:-1.0799 12:0.40758 13:0.25748 14:0.44216 15:2.0149 16:4.6168 17:-2.5198 18:-0.91326 19:1.5755 20:-0.099458 21:-3.0345 22:-0.0086139 23:4.6203 24:-7.7362 25:-0.30031 
-0.45620019312581706 1:0.75081 2:0.85089 3:0.76116 4:-0.78242 5:-0.62595 6:0.48585 7:0.49182 8:4.0541 9:-2.9082 10:2.2171 11:-0.37043 12:-4.3967 13:-3.4122 14:0.54596 15:0.38882 16:-0.27074 17:0.88391 18:0.41209 19:-0.12778 20:0.23392 21:0.34941 22:3.9943 23:2.498 24:-3.3126 25:0.37193 
-0.5081618016705884 1:-2.9075 2:-2.6199 3:-2.226 4:-2.3004 5:2.4106 6:-0.27081 7:-1.181 8:-1.2149 9:-1.6407 10:-2.5399 11:-0.71899 12:-0.18651 13:1.852 14:4.3417 15:-0.12071 16:-2.1168 17:-1.98 18:-3.5034 19:-1.2811 20:2.1066 21:0.65432 22:-2.2186 23:-1.4483 24:-1.1343 25:-1.6407 
-0.5177418382842501 1:-0.18481 2:1.7096 3:0.20372 4:0.25405 5:-0.57181 6:-1.6307 7:-2.7938 8:2.2853 9:-1.1414 10:-1.9023 11:4.9855 12:0.78763 13:0.98566 14:1.442 15:0.0063255 16:0.58327 17:1.1426 18:0.54601 19:-0.76026 20:-2.9236 21:-2.1761 22:-1.8692 23:0.7582 24:0.15942 25:0.59696 
-0.3718997908080583 1:-7.0663 2:-4.0816 3:1.1261 4:-0.18833 5:4.0367 6:3.1489 7:2.7502 8:0.66391 9:1.6714 10:1.4181 11:0.89543 12:1.4927 13:0.73883 14:-0.20215 15:-7.5985 16:-2.1859 17:-2.2713 18:0.11219 19:6.0348 20:2.8633 21:1.011 22:1.2947 23:0.93676 24:4.345 25:-1.3349 
-0.3777832601819441 1:2.5222 2:1.2437 3:2.1896 4:2.5331 5:-3.84 6:-4.1104 7:-3.0199 8:-8.5824 9:-5.3673 10:4.9823 11:-2.546 12:0.37614 13:5.566 14:3.6179 15:1.7984 16:1.6258 17:3.1662 18:2.306 19:-2.6162 20:-3.6148 21:-10.2969 22:-14.3248 23:-7.8875 24:-4.2627 25:6.6877 
-0.4447170360631442 1:-2.7468 2:-0.60099 3:1.1234 4:3.8718 5:0.4369 6:-3.1065 7:2.3253 8:3.6831 9:0.56477 10:-0.725 11:-0.97058 12:-2.3056 13:-2.1152 14:-2.0159 15:0.38549 16:0.30077 17:-0.10663 18:0.93998 19:-0.05874 20:-1.4992 21:4.1294 22:1.6173 23:0.27289 24:-0.86211 25:-1.4578 
-0.3465401620883028 1:-1.142 2:1.2468 3:1.0572 4:1.6747 5:-0.4922 6:-1.0557 7:-4.4508 8:-1.1079 9:-0.78149 10:-1.3187 11:5.344 12:1.0311 13:3.0411 14:1.5515 15:-0.224 16:-0.030054 17:0.98683 18:2.0988 19:0.84221 20:-1.6956 21:-1.9412 22:-2.9645 23:-0.83823 24:0.33308 25:-0.7542 
-0.40541839180186345 1:-3.2046 2:-4.1064 3:-3.4893 4:-1.1722 5:-0.42217 6:0.55926 7:0.76429 8:-0.41475 9:3.651 10:2.6668 11:-0.16644 12:-1.5998 13:-2.2251 14:-2.4204 15:-1.7355 16:-3.8956 17:-4.1723 18:-1.1168 19:-5.035 20:-1.71 21:0.12563 22:-0.6125 23:2.476 24:0.73434 25:-1.7002 
-0.37129668799055243 1:2.3729 2:5.1495 3:4.0839 4:-8.0722 5:-8.1881 6:-7.0696 7:-1.8077 8:5.3356 9:-3.6366 10:2.5425 11:1.3518 12:2.4207 13:1.2356 14:1.3489 15:5.1263 16:3.4296 17:-0.43856 18:-11.1977 19:-8.8574 20:-3.0215 21:1.7779 22:3.9156 23:-1.0711 24:3.1303 25:1.6423 
-0.37843292186104277 1:0.35897 2:0.90102 3:-2.8594 4:-12.9339 5:-4.3337 6:3.1356 7:0.73388 8:-0.14151 9:2.1724 10:2.6433 11:1.7559 12:1.3506 13:1.5787 14:0.79703 15:-3.7081 16:1.2519 17:-7.4359 18:-12.8242 19:2.0333 20:1.3126 21:-2.6168 22:1.6811 23:1.3853 24:0.54375 25:-1.0089 
-0.3779356891303392 1:2.0702 2:2.2946 3:-0.036112 4:-4.4563 5:-4.91 6:-2.9287 7:-5.5136 8:-3.0916 9:0.81332 10:1.0422 11:2.6022 12:1.891 13:2.3678 14:4.7521 15:3.7608 16:1.8516 17:-2.2499 18:-10.4318 19:-6.3492 20:1.5202 21:1.3802 22:0.92212 23:1.8749 24:4.3477 25:1.6541 
-0.39362845674727615 1:-2.193 2:-2.1075 3:-5.9914 4:-7.2626 5:-5.3745 6:-1.6187 7:-2.9622 8:-3.5154 9:2.4048 10:0.3656 11:1.7683 12:2.2255 13:1.5505 14:-0.003337 15:-1.4531 16:-1.1645 17:-3.1536 18:-2.5029 19:-3.617 20:-2.7277 21:-0.51192 22:-2.1002 23:-0.53841 24:4.4976 25:-0.41747 
-0.37742931109742267 1:0.22785 2:2.7989 3:2.9572 4:4.9668 5:3.4629 6:1.8085 7:1.1097 8:2.0556 9:3.1425 10:6.1552 11:4.8907 12:-0.76082 13:-4.5573 14:-8.7745 15:-8.9743 16:-4.4851 17:0.2452 18:2.7612 19:2.8599 20:4.5562 21:2.8755 22:1.5219 23:0.91148 24:2.4211 25:-6.1968 
-0.37696846667456724 1:4.4448 2:-6.0227 3:-6.2279 4:-5.1666 5:-2.9206 6:2.3268 7:1.8491 8:-0.80544 9:-0.83111 10:4.1478 11:4.4608 12:4.2423 13:0.83902 14:2.4177 15:1.7791 16:-7.287 17:-6.0796 18:-4.627 19:-3.2396 20:1.5776 21:1.502 22:0.16398 23:1.4255 24:5.2075 25:3.5647 
-0.3766173390614322 1:3.1843 2:3.5392 3:3.5691 4:1.0577 5:-2.3434 6:-8.2588 7:-4.6444 8:-1.4544 9:-0.52505 10:1.1992 11:-0.83011 12:3.2409 13:2.5097 14:4.1535 15:5.0584 16:4.1477 17:2.987 18:3.9331 19:-6.7838 20:-13.2301 21:-6.1558 22:-0.77896 23:1.0381 24:0.67258 25:2.2748 
-0.39620912938995334 1:-1.7493 2:-1.2005 3:-3.9339 4:-1.3696 5:-0.57131 6:-0.091297 7:0.10478 8:1.0669 9:2.0905 10:3.3144 11:6.3957 12:3.7397 13:-1.5154 14:-3.7283 15:-3.5011 16:-2.409 17:-1.4742 18:-1.9024 19:-1.5891 20:-1.3064 21:-0.29074 22:0.11384 23:0.18237 24:0.88163 25:-2.921 
-0.3783550285757519 1:3.8489 2:2.7849 3:-5.9794 4:3.1029 5:1.7436 6:-4.9903 7:-1.2651 8:0.4082 9:1.5118 10:0.94509 11:-0.44892 12:-1.1892 13:-0.93016 14:3.4348 15:2.8305 16:1.0089 17:-4.92 18:-1.4026 19:-2.4572 20:-5.8788 21:-2.6456 22:0.22695 23:1.0318 24:1.7927 25:-0.77607 
