svm_type c_svc
kernel_type rbf
gamma 0.04
nr_class 2
total_sv 673
rho 0.9089910941241117
label 1 0
nr_sv 79 594
SV
1.0 1:-0.71318 2:-0.6703 3:-0.20161 4:1.823 5:0.83824 6:2.6553 7:1.8974 8:-0.51994 9:-2.053 10:-1.5309 11:-1.9761 12:-3.5559 13:-0.77268 14:0.576 15:2.727 16:1.449 17:1.073 18:-0.23818 19:-0.13951 20:0.012781 21:-0.24927 22:-0.3158 23:-0.4186 24:-0.28331 25:-0.21156 
1.0 1:4.6621 2:0.57344 3:-2.2051 4:-3.2723 5:-2.1018 6:-0.23543 7:0.30725 8:-1.0741 9:-0.60141 10:-0.37025 11:0.061618 12:1.2603 13:1.2438 14:1.5861 15:-0.23579 16:-5.874 17:-5.2436 18:-5.6194 19:-4.2097 20:-0.52445 21:2.2065 22:2.8798 23:3.4379 24:0.85767 25:9.6393 
1.0 1:-3.4285 2:-3.969 3:-2.5229 4:-0.40438 5:-0.4078 6:-1.3821 7:-1.3954 8:-2.9933 9:-2.3004 10:-0.9784 11:-1.963 12:-1.4282 13:1.5917 14:0.39969 15:0.12019 16:-0.31765 17:-0.62456 18:-2.3623 19:-3.1599 20:-1.6446 21:-2.1296 22:-2.1633 23:1.3375 24:0.010961 25:-4.7861 
1.0 1:0.86705 2:-7.4944 3:-19.8796 4:-12.133 5:-6.1852 6:-2.9761 7:-1.5819 8:-2.1901 9:0.40248 10:3.1305 11:2.0187 12:2.02 13:5.1928 14:5.2907 15:4.3934 16:4.4725 17:4.4675 18:3.9839 19:3.584 20:2.7127 21:1.5344 22:-0.20885 23:-1.3807 24:-2.3352 25:4.6671 
0.45156431417752185 1:-0.24602 2:-0.36384 3:-0.81202 4:-1.167 5:-1.0013 6:-0.68817 7:-0.15346 8:-0.21337 9:0.0066704 10:-0.46901 11:0.0071692 12:-0.14262 13:0.28686 14:-0.21757 15:-0.68376 16:-0.98462 17:-0.70215 18:-1.0097 19:-1.403 20:-1.8731 21:-0.52583 22:-0.84097 23:-3.3439 24:-2.6352 25:-0.29393 
1.0 1:1.7799 2:-0.13921 3:0.46111 4:0.87797 5:5.0587 6:4.2143 7:2.4081 8:2.6934 9:3.0004 10:1.8882 11:1.313 12:0.020589 13:-0.74885 14:-1.9117 15:-3.2438 16:-3.2874 17:-2.1864 18:-0.88356 19:0.22115 20:0.55848 21:0.32073 22:0.021177 23:0.35453 24:0.01105 25:1.4586 
0.4966644389564552 1:-0.69774 2:-0.50292 3:0.29756 4:0.50381 5:0.85733 6:1.0495 7:0.99625 8:1.0859 9:1.2624 10:1.3717 11:1.5521 12:1.9197 13:1.336 14:1.7956 15:2.2272 16:1.3404 17:1.1128 18:0.6129 19:-0.054819 20:0.07893 21:2.1328 22:1.9023 23:-0.36323 24:-1.7033 25:-0.79979 
0.7817298726619906 1:2.3399 2:2.4854 3:2.855 4:2.5365 5:2.1304 6:1.799 7:1.9701 8:1.4691 9:1.7075 10:1.8528 11:1.4073 12:0.9235 13:1.6465 14:1.7428 15:2.0137 16:1.6812 17:1.2065 18:0.47339 19:0.055991 20:0.21103 21:-0.13149 22:-0.2307 23:0.0050461 24:0.07325 25:1.7063 
1.0 1:1.0111 2:-4.3387 3:-3.4074 4:-1.2235 5:-3.7394 6:-5.8174 7:-2.7371 8:-3.2285 9:-4.5546 10:-4.9827 11:-4.0398 12:-2.0956 13:-0.43542 14:0.053098 15:-0.10162 16:0.53137 17:1.1518 18:2.1467 19:2.404 20:2.2751 21:2.6983 22:3.1308 23:2.6022 24:2.102 25:1.764 
0.16968884880096552 1:0.31031 2:-0.10538 3:-0.11734 4:-0.31626 5:-0.035528 6:0.4101 7:0.13224 8:3.5369E-4 9:0.94184 10:1.6665 11:0.9072 12:1.5952 13:1.8694 14:1.0759 15:0.76859 16:1.0747 17:0.97245 18:0.89495 19:1.0894 20:1.2476 21:1.4421 22:1.7192 23:1.6804 24:1.5353 25:1.8246 
1.0 1:2.8353 2:4.9756 3:9.0616 4:13.7114 5:8.1098 6:4.0138 7:0.31936 8:-1.6756 9:0.11233 10:-1.5119 11:0.90505 12:-0.9664 13:-0.74829 14:-3.7782 15:-4.9598 16:-3.784 17:-1.2568 18:2.1509 19:2.7805 20:4.1551 21:3.8922 22:3.3854 23:3.5118 24:3.3858 25:1.6819 
1.0 1:-1.4207 2:-1.9412 3:-2.2844 4:-2.651 5:-3.3003 6:-3.0443 7:-3.1188 8:-3.5828 9:-3.5534 10:-3.8624 11:-2.9587 12:-2.2715 13:-2.1073 14:-1.9494 15:-1.7191 16:-1.8299 17:-1.5173 18:-1.1119 19:-1.1958 20:-0.85088 21:-0.64414 22:-0.29274 23:-0.083717 24:-0.21691 25:-1.107 
1.0 1:-2.1652 2:-3.7534 3:-4.4446 4:-4.1937 5:-4.1911 6:-3.2583 7:-1.4845 8:-0.52215 9:-0.19896 10:-0.5107 11:-0.014058 12:0.52609 13:0.77542 14:0.68145 15:0.46066 16:-0.042552 17:0.05591 18:-0.006946 19:-0.11817 20:-0.070337 21:-0.04914 22:-0.30003 23:-0.062308 24:0.28597 25:-1.4569 
1.0 1:0.082109 2:-1.0202 3:0.69334 4:-0.25629 5:1.0663 6:0.1992 7:7.3271 8:2.8632 9:1.924 10:-3.9591 11:-4.2376 12:-5.0016 13:-6.1448 14:-6.9756 15:-6.4616 16:-3.4084 17:-1.3991 18:-2.098 19:0.4041 20:-0.36591 21:-0.57246 22:-0.20816 23:-0.16291 24:-0.91468 25:0.17769 
1.0 1:0.13011 2:-0.3171 3:5.4786 4:1.967 5:-1.5444 6:-0.079368 7:-0.52733 8:-0.63958 9:-1.2575 10:-0.41355 11:-1.7653 12:-1.2464 13:-0.47687 14:-1.2817 15:-0.40874 16:0.56421 17:-0.14802 18:-0.27174 19:0.46508 20:-0.44933 21:-0.3059 22:0.73072 23:1.8051 24:-1.1083 25:2.2187 
1.0 1:-0.048761 2:0.13305 3:0.76177 4:-0.18259 5:-0.15256 6:1.8211 7:2.977 8:1.0179 9:3.2286 10:0.1616 11:-3.0136 12:-3.0306 13:-3.2967 14:-3.6538 15:-4.418 16:-3.5944 17:-4.2156 18:-3.0273 19:-2.0065 20:-1.7614 21:-1.4125 22:-0.096913 23:-0.4927 24:0.29099 25:0.1371 
0.29950216101026905 1:-0.2289 2:-0.010395 3:0.067894 4:0.1469 5:0.044264 6:0.39473 7:1.2781 8:1.2219 9:0.59697 10:-0.28538 11:0.39309 12:0.6267 13:1.9674 14:0.97099 15:0.7182 16:0.60039 17:-1.9271 18:-1.0788 19:-0.34906 20:0.23702 21:0.21204 22:-0.083692 23:2.0694 24:0.73144 25:-0.44373 
1.0 1:-2.5016 2:-0.4117 3:0.04681 4:0.12527 5:-0.368 6:-0.99342 7:-1.1239 8:-0.92764 9:-0.45099 10:-0.70941 11:0.2609 12:0.070177 13:1.3852 14:-0.40808 15:0.035039 16:2.0827 17:-2.4853 18:1.9521 19:1.3781 20:-2.4378 21:3.4268 22:2.6836 23:-3.6423 24:-0.22958 25:3.0099 
1.0 1:-1.7 2:0.36193 3:1.9723 4:-0.66317 5:2.4321 6:1.9604 7:-3.3799 8:-4.0881 9:-1.5834 10:-0.91072 11:-2.4099 12:-3.3829 13:-2.7839 14:-2.6112 15:-1.1654 16:-0.88062 17:-1.902 18:-1.5219 19:-0.89529 20:0.036407 21:1.0786 22:-0.016782 23:0.078499 24:2.1297 25:2.2465 
0.4805175987889633 1:1.0972 2:-0.067771 3:-0.31422 4:0.019794 5:-0.51869 6:-0.336 7:-0.10416 8:0.71197 9:1.8921 10:0.49221 11:0.76512 12:0.14841 13:0.73269 14:0.16461 15:1.0354 16:2.5359 17:1.5645 18:2.5536 19:0.59309 20:0.96344 21:0.6951 22:1.562 23:0.19366 24:0.81109 25:0.35184 
1.0 1:-10.3539 2:-7.6804 3:-3.0393 4:-0.093 5:-0.052211 6:-0.080479 7:-1.8618 8:3.8837 9:-0.52712 10:0.66328 11:0.95366 12:-1.5484 13:-4.3992 14:-2.9347 15:-3.4252 16:-4.0807 17:-3.9593 18:-4.0565 19:-4.4941 20:-2.8671 21:-1.2819 22:-1.8096 23:-1.1331 24:-0.8906 25:-5.5463 
0.12575510004100848 1:-1.5662 2:-1.9405 3:-1.9034 4:-0.95624 5:-1.4431 6:-0.82293 7:-0.48661 8:-0.36819 9:-0.56962 10:-0.45374 11:-1.4129 12:-2.0393 13:-1.1896 14:-0.73336 15:-1.0153 16:-0.90595 17:0.30235 18:-0.22597 19:-0.28953 20:0.39197 21:1.8489 22:1.3563 23:0.20981 24:0.090539 25:-1.6633 
0.14331605764233463 1:-0.26732 2:-0.0018961 3:-0.4259 4:0.073868 5:-0.02062 6:1.2578 7:1.1746 8:-0.0089798 9:0.083933 10:-0.32333 11:-0.44172 12:0.2183 13:0.43761 14:0.87126 15:0.40784 16:0.61095 17:0.6841 18:0.52929 19:0.89404 20:-0.29995 21:-0.68028 22:2.9798 23:-0.32541 24:-2.4882 25:-1.43 
1.0 1:-11.2265 2:-8.6465 3:-8.8034 4:-10.1881 5:-2.2568 6:0.026011 7:0.79416 8:0.33041 9:0.16236 10:-1.2555 11:2.2445 12:0.41808 13:1.1994 14:1.5318 15:-0.10964 16:-1.5086 17:-4.252 18:-4.0757 19:-2.3359 20:-2.2663 21:-3.0482 22:-3.0513 23:-2.7687 24:-2.6111 25:-10.8301 
1.0 1:-1.6571 2:-1.0235 3:0.088888 4:0.29271 5:0.81009 6:0.30542 7:0.080913 8:0.3271 9:0.12743 10:0.53317 11:0.82231 12:-0.070874 13:-1.2614 14:0.35318 15:4.2789 16:4.0892 17:-2.2818 18:-0.085457 19:2.8526 20:-1.4894 21:-0.22825 22:-4.7007 23:0.89171 24:0.84779 25:-0.78137 
1.0 1:-8.9194 2:-5.7424 3:-4.0052 4:-2.0994 5:-1.0824 6:-0.64771 7:-0.28925 8:-0.033672 9:-1.4811 10:-1.049 11:-1.2498 12:-0.84576 13:-2.5392 14:-3.0167 15:-2.7676 16:-3.2617 17:-1.218 18:-0.34241 19:-1.3726 20:-1.627 21:-1.3672 22:-2.2545 23:-2.9646 24:-1.2209 25:-11.1301 
1.0 1:0.98341 2:1.9023 3:3.4736 4:2.986 5:3.2615 6:3.2468 7:1.2523 8:0.57589 9:-0.88455 10:-3.5524 11:-4.5277 12:-3.6384 13:-3.5984 14:-4.1171 15:-6.1553 16:-5.0917 17:-3.947 18:-4.2767 19:-2.9837 20:-2.3863 21:-2.363 22:-0.73063 23:0.63955 24:-1.5764 25:2.2696 
0.2639384582395085 1:1.4844 2:1.0438 3:1.1505 4:0.79313 5:0.15642 6:-0.37652 7:-0.68417 8:0.60304 9:0.49829 10:1.4219 11:1.1852 12:-0.53042 13:-0.6678 14:0.46791 15:0.76891 16:0.50835 17:0.98881 18:0.29297 19:0.70193 20:0.5345 21:1.3162 22:1.4161 23:0.9054 24:1.9504 25:1.7166 
1.0 1:0.039793 2:0.059507 3:-0.0055903 4:0.2792 5:1.0859 6:1.3262 7:1.4012 8:2.1711 9:2.781 10:3.1273 11:3.5406 12:3.2368 13:3.159 14:2.9588 15:3.0766 16:3.1385 17:2.8752 18:2.4324 19:2.6307 20:2.4128 21:2.8423 22:2.5721 23:2.7669 24:2.3104 25:-0.18051 
0.046966980011387445 1:-0.92992 2:-1.0776 3:-1.2172 4:-1.3276 5:-1.8319 6:-1.7593 7:-1.5696 8:-1.6268 9:-1.3528 10:-0.76469 11:-0.78822 12:-1.0022 13:-0.98754 14:-1.3377 15:-2.0966 16:-1.8138 17:-2.8547 18:-2.1922 19:-1.198 20:-1.673 21:-1.4135 22:-0.78988 23:-0.78574 24:-0.77283 25:-0.8352 
1.0 1:1.2253 2:1.9506 3:3.1118 4:3.1726 5:2.3592 6:1.872 7:0.61931 8:-0.89 9:-0.98847 10:-0.74076 11:-1.2721 12:-1.3257 13:-1.4661 14:-1.7798 15:-2.382 16:-3.6956 17:-3.4221 18:-2.6911 19:-2.5616 20:-2.4261 21:-1.5371 22:-1.1869 23:-0.53451 24:0.049573 25:0.18807 
0.019894457195294833 1:0.48777 2:0.45487 3:0.86756 4:0.28961 5:-0.10751 6:-0.064838 7:0.59737 8:0.93058 9:0.26084 10:0.051705 11:0.68557 12:1.1358 13:0.78073 14:1.5935 15:-0.5744 16:0.51589 17:0.7254 18:-0.29195 19:-2.1897 20:0.72146 21:0.033845 22:1.3172 23:0.84594 24:-1.2229 25:0.42012 
1.0 1:-0.25711 2:-0.33381 3:1.6225 4:0.49111 5:0.5565 6:0.95605 7:1.7 8:-1.3321 9:-3.4211 10:-2.9859 11:-4.0573 12:-3.5292 13:-2.9892 14:-3.549 15:-3.1285 16:-2.9399 17:-3.7299 18:-3.9736 19:-3.3623 20:-1.9471 21:-0.44634 22:0.72194 23:0.73961 24:-0.24566 25:-0.37892 
0.6890847595001401 1:2.1661 2:2.3815 3:1.6767 4:1.2293 5:1.378 6:0.73869 7:-0.062912 8:0.25944 9:-0.08237 10:-0.34171 11:-0.13421 12:-1.4703 13:-1.6868 14:-1.7115 15:-1.4871 16:-1.0618 17:-0.55784 18:-0.36471 19:0.042877 20:-0.52094 21:-0.66166 22:0.27918 23:1.8766 24:0.6529 25:-1.0103 
0.04122253825071677 1:-1.2443 2:-1.2684 3:-0.9055 4:-0.20197 5:-0.22965 6:-1.1303 7:-2.227 8:-2.3371 9:-2.4542 10:-1.9621 11:-1.1425 12:-1.3363 13:-0.61741 14:-0.48587 15:-0.87859 16:-1.181 17:-1.2229 18:-1.7378 19:-1.8331 20:-1.263 21:-1.5819 22:-0.68982 23:-0.84059 24:-0.28315 25:-1.3262 
0.6639195759414037 1:1.064 2:-0.7747 3:-1.943 4:-1.375 5:-1.2562 6:-2.1592 7:-1.6671 8:-1.8057 9:-2.362 10:-2.5998 11:-2.3142 12:-1.6829 13:-0.55856 14:0.23958 15:0.52518 16:0.73207 17:0.10217 18:-0.46458 19:-0.56361 20:-0.54672 21:-0.2804 22:-0.46295 23:-0.88706 24:-1.2085 25:1.8181 
0.34366224610480084 1:0.36657 2:0.18456 3:-0.029426 4:-0.15327 5:-0.32065 6:-0.25816 7:-0.46109 8:-0.54301 9:-0.51144 10:-0.59472 11:-0.022224 12:0.57518 13:1.4028 14:0.58842 15:-0.33284 16:-0.95708 17:-0.24068 18:-0.2995 19:-0.49803 20:-2.01 21:-2.8068 22:1.7605 23:0.75461 24:-0.57719 25:-0.14195 
0.8685593526030956 1:0.19262 2:-2.2709 3:-1.0577 4:-3.4465 5:-3.4629 6:-2.7378 7:-2.6856 8:-1.1258 9:-0.24695 10:0.049553 11:0.20319 12:0.050832 13:0.10249 14:0.26222 15:0.32403 16:0.35558 17:0.13024 18:-0.095959 19:-0.20669 20:-0.46674 21:-0.87147 22:-1.1296 23:-0.80144 24:-1.1105 25:0.63617 
1.0 1:-3.9612 2:-3.4533 3:-2.9643 4:-2.034 5:-1.0661 6:-0.95359 7:-1.0956 8:-0.72699 9:-0.29041 10:-0.49629 11:-0.85362 12:-1.0058 13:-0.51699 14:-0.21009 15:-0.10353 16:0.47041 17:0.72915 18:1.0861 19:1.4288 20:1.9516 21:2.547 22:2.1634 23:2.4579 24:1.5064 25:-4.0953 
1.0 1:-2.8107 2:-3.713 3:-2.7117 4:0.38585 5:-0.35819 6:-0.55666 7:-0.32091 8:-0.16232 9:-0.15797 10:0.12026 11:0.44647 12:1.0801 13:1.7559 14:2.7518 15:2.0516 16:0.76377 17:0.05118 18:-0.8856 19:1.5179 20:-0.08969 21:-1.4159 22:0.1609 23:0.95768 24:-0.48546 25:-2.9396 
1.0 1:-5.4062 2:-5.8114 3:-6.9448 4:-8.9487 5:-6.662 6:-9.2316 7:-5.7007 8:-4.5962 9:-1.8852 10:0.015967 11:-0.58228 12:-0.71172 13:-0.69686 14:-0.47338 15:0.17481 16:-0.63674 17:0.096179 18:0.013175 19:-0.81082 20:-3.4075 21:-4.6717 22:-4.0899 23:-4.164 24:-3.8721 25:-1.8199 
0.9443092652011591 1:0.33038 2:0.43455 3:0.71444 4:0.11163 5:-1.0126 6:-0.073479 7:-1.2512 8:2.6703 9:0.79825 10:-0.87214 11:0.5771 12:-0.31565 13:-0.77788 14:-0.83596 15:-1.7411 16:-1.1188 17:-0.749 18:0.60958 19:0.07498 20:-0.98719 21:-1.0504 22:-1.6979 23:-0.33425 24:2.0428 25:-0.20831 
0.3801218583988157 1:-2.2868 2:-2.74 3:-1.7046 4:-0.89478 5:-0.12311 6:-0.15657 7:-0.50291 8:0.01627 9:0.54659 10:-0.14647 11:-1.2446 12:-0.078278 13:0.86601 14:0.59159 15:0.46919 16:2.414 17:1.6453 18:0.086213 19:-0.44847 20:0.080258 21:1.3012 22:1.6481 23:1.5343 24:0.33231 25:-2.3262 
0.27002247920104466 1:-0.95346 2:-0.89591 3:-1.0468 4:-1.0239 5:-0.88236 6:-1.0439 7:-0.72586 8:-0.87963 9:-1.043 10:-1.5057 11:-1.2455 12:-0.76828 13:-0.55497 14:-0.007963 15:0.85526 16:1.1872 17:2.2395 18:1.6608 19:0.94357 20:0.55108 21:-0.38876 22:-0.58175 23:2.598 24:1.6737 25:-1.0348 
0.6760543367046922 1:1.2698 2:1.59 3:1.7336 4:1.6619 5:1.9784 6:2.2375 7:1.4927 8:0.96209 9:0.84572 10:0.66641 11:0.57806 12:0.1823 13:0.37539 14:0.43989 15:-0.23294 16:-0.70716 17:-0.94696 18:-1.7135 19:-2.418 20:-2.6405 21:-2.3263 22:-1.9515 23:-1.495 24:-1.0887 25:1.6759 
1.0 1:0.47438 2:0.31638 3:0.13399 4:0.44474 5:0.20504 6:0.19194 7:0.85477 8:0.89877 9:0.71241 10:0.97414 11:0.53912 12:-0.17005 13:0.9608 14:-0.26768 15:0.0064032 16:3.7603 17:-0.34728 18:4.0166 19:4.7624 20:2.6634 21:-0.5154 22:-3.1023 23:-2.9724 24:-2.901 25:0.13268 
1.0 1:-4.4643 2:-4.1313 3:-0.95285 4:-1.28 5:-2.065 6:-0.40052 7:-1.1116 8:-0.89046 9:1.1161 10:1.5956 11:2.3277 12:2.7116 13:3.9759 14:3.9796 15:4.153 16:5.7074 17:4.1089 18:1.96 19:0.36756 20:-0.1149 21:-0.38752 22:-0.33697 23:0.046924 24:-0.020062 25:0.81735 
1.0 1:3.4645 2:3.3183 3:3.4506 4:3.4198 5:3.0594 6:2.8186 7:2.2027 8:1.6759 9:0.33039 10:0.30591 11:1.0966 12:0.68231 13:-0.40956 14:-0.66654 15:0.16385 16:0.57818 17:-0.055835 18:-0.38597 19:-0.41655 20:-0.23086 21:-1.1239 22:-0.10696 23:-1.0959 24:-1.0494 25:4.3489 
1.0 1:5.7663 2:0.055142 3:-2.4531 4:0.097254 5:0.49127 6:0.22934 7:-0.32298 8:-2.6719 9:1.2645 10:-0.84326 11:-0.46378 12:-0.025034 13:-1.3419 14:-3.1748 15:-1.2345 16:1.5137 17:1.5952 18:2.1431 19:1.4267 20:2.5171 21:4.1111 22:3.0163 23:3.2365 24:4.3168 25:6.3732 
0.7233850604814749 1:-2.0922 2:-1.8379 3:-2.4659 4:-2.4844 5:-0.15984 6:0.42167 7:1.0727 8:-1.7577 9:-0.60102 10:-0.88753 11:0.34936 12:0.84603 13:-0.47162 14:-0.51563 15:0.71123 16:-0.18558 17:-1.4396 18:0.40348 19:-0.16518 20:-0.59624 21:0.35038 22:0.25361 23:0.2956 24:0.68038 25:-1.5489 
0.7968381804723152 1:-0.38797 2:-0.41568 3:-0.92231 4:-0.46486 5:-0.96025 6:-1.2975 7:-0.82369 8:-1.8181 9:-2.8296 10:-2.7004 11:-2.4689 12:-1.7358 13:-0.99859 14:-2.3052 15:-3.0302 16:-0.69995 17:-0.13712 18:0.24916 19:0.69388 20:1.6406 21:1.4295 22:1.2852 23:1.2103 24:1.1445 25:-0.13987 
1.0 1:1.4535 2:1.6061 3:1.0729 4:-0.60216 5:-2.5161 6:-3.3297 7:-3.849 8:-3.8469 9:-3.3794 10:-2.0287 11:-0.52303 12:0.69991 13:0.46527 14:-0.29046 15:-0.60729 16:-0.29476 17:-0.11279 18:0.42152 19:0.35606 20:-0.36525 21:-0.2594 22:0.57853 23:0.064669 24:-0.032072 25:1.4371 
1.0 1:-5.9879 2:-5.738 3:-4.1026 4:-3.5343 5:-4.6444 6:-0.95723 7:2.225 8:1.2252 9:1.5583 10:1.7047 11:-0.74342 12:1.707 13:1.4476 14:-3.8148 15:1.615 16:1.1547 17:-0.57161 18:-0.55248 19:-0.94755 20:-0.97108 21:-0.37571 22:-1.5044 23:-0.46537 24:0.31609 25:-2.987 
1.0 1:0.87936 2:1.0874 3:1.8278 4:2.2381 5:2.122 6:2.1871 7:2.428 8:2.1376 9:0.51509 10:0.28612 11:-0.35378 12:-1.4272 13:-3.1367 14:-1.5932 15:-1.3108 16:-1.838 17:-0.52245 18:-1.6909 19:-1.0477 20:-2.4847 21:-0.95271 22:-3.3895 23:-2.5292 24:-1.5485 25:1.3735 
1.0 1:0.10798 2:-0.47006 3:0.41415 4:-0.43007 5:-1.958 6:-2.6303 7:-2.9996 8:-3.1287 9:-3.5945 10:-3.4021 11:-3.6387 12:-3.6844 13:-3.23 14:-2.9601 15:-2.0096 16:-0.98034 17:-0.4636 18:-0.11654 19:0.056057 20:0.11489 21:0.09891 22:0.09076 23:0.13745 24:0.11801 25:0.58931 
0.4847212368330228 1:0.35677 2:-0.43377 3:-0.67364 4:0.82131 5:0.97071 6:1.0418 7:1.452 8:1.1296 9:1.1384 10:2.3566 11:2.8314 12:2.9622 13:1.9401 14:2.2012 15:1.7354 16:1.1569 17:0.53182 18:0.33386 19:0.29626 20:0.28487 21:0.07188 22:0.044395 23:0.1674 24:0.25488 25:0.93445 
0.6995304990219345 1:1.8441 2:2.2331 3:1.8034 4:0.02462 5:-0.62229 6:-0.28459 7:0.33805 8:0.42012 9:0.63665 10:0.75528 11:1.0944 12:1.459 13:1.9984 14:2.4135 15:2.6199 16:2.4141 17:2.102 18:1.5656 19:1.0364 20:0.69997 21:-0.36174 22:0.15962 23:-1.0479 24:-1.0636 25:2.0778 
0.06892826984028966 1:-0.039814 2:0.02949 3:-0.084493 4:-0.32535 5:-0.3978 6:-0.054727 7:-0.37387 8:-0.63862 9:-0.20644 10:-0.18507 11:-0.11604 12:0.032217 13:-0.050571 14:-0.093543 15:-0.13408 16:0.019568 17:-0.14546 18:-0.5796 19:0.11854 20:1.6181 21:1.3693 22:-0.81128 23:-0.61697 24:2.6459 25:-0.11582 
0.9534836031539609 1:-0.47003 2:-0.42929 3:0.83286 4:0.43814 5:1.0718 6:1.6313 7:0.09775 8:-1.2128 9:-1.4544 10:-1.9926 11:-2.8681 12:-3.4523 13:-3.8061 14:-4.3705 15:-4.8066 16:-4.382 17:-3.9974 18:-3.853 19:-3.0648 20:-1.9163 21:-1.3571 22:-1.0906 23:-0.7828 24:-0.72868 25:-1.6564 
0.7414374839281743 1:-1.1229 2:-0.96676 3:-0.85493 4:-1.0753 5:-1.3725 6:-0.52646 7:-0.23293 8:-0.51203 9:-0.49876 10:-0.98172 11:-0.74822 12:-1.2425 13:-1.9288 14:-2.8797 15:-2.4295 16:-1.4999 17:-1.8712 18:-2.1957 19:-1.5059 20:-1.7797 21:-1.3849 22:-1.3203 23:-2.0077 24:-1.7818 25:-0.58419 
0.733923743272605 1:-0.083835 2:-0.2624 3:-0.2428 4:0.11157 5:0.80074 6:1.062 7:1.0797 8:1.6375 9:2.1308 10:1.675 11:1.7652 12:1.2474 13:1.5536 14:0.87259 15:0.46793 16:-0.67746 17:-1.1915 18:-1.7521 19:-1.2935 20:-0.86837 21:-0.28382 22:0.20499 23:-1.8023 24:-1.6533 25:-0.54977 
1.0 1:-5.8706 2:-3.3373 3:-1.1609 4:-0.99779 5:-0.80847 6:-0.11756 7:0.20558 8:0.28717 9:0.70273 10:0.75064 11:0.97369 12:0.94113 13:1.1695 14:1.4306 15:1.1331 16:0.94647 17:0.76188 18:0.48659 19:0.40128 20:0.4719 21:0.2641 22:0.63971 23:0.60995 24:0.53815 25:-6.9219 
1.0 1:0.22171 2:0.034895 3:0.069654 4:-0.047104 5:-0.0050544 6:0.0026048 7:-0.046748 8:-0.37622 9:0.3663 10:0.88304 11:1.024 12:0.97445 13:1.2772 14:1.4289 15:0.67096 16:0.31206 17:1.3332 18:1.4953 19:1.9071 20:0.62742 21:-0.70692 22:-3.0244 23:-4.2969 24:-4.5618 25:0.3602 
1.0 1:0.11721 2:-1.6573 3:1.2457 4:-0.58976 5:1.6965 6:-0.069468 7:-3.4685 8:-4.0755 9:-0.64547 10:0.37675 11:0.6235 12:-0.52973 13:-0.86296 14:-1.2242 15:-1.7689 16:-1.7844 17:-0.94712 18:1.2492 19:0.82347 20:0.23252 21:-0.091759 22:-0.03552 23:0.21375 24:0.26506 25:-3.0986 
0.6453159276504243 1:0.80834 2:1.1461 3:-0.67385 4:0.10226 5:0.77746 6:-0.25098 7:-1.157 8:-0.52325 9:-0.50665 10:-0.14825 11:0.3048 12:-1.8729 13:-2.6196 14:-0.53902 15:0.038497 16:-2.4554 17:-2.7052 18:-1.2251 19:0.55641 20:0.57588 21:-0.40647 22:-0.29315 23:0.97054 24:-0.54106 25:-0.50477 
0.9597673199023641 1:2.1228 2:2.6013 3:1.1147 4:-0.29073 5:-0.078805 6:0.37312 7:1.0674 8:0.91992 9:1.2037 10:1.2325 11:1.6273 12:0.92121 13:0.80075 14:1.4415 15:1.5781 16:0.90803 17:0.92375 18:2.3882 19:3.0411 20:0.65841 21:0.24714 22:1.9636 23:1.2421 24:-0.41671 25:3.4531 
1.0 1:0.16415 2:-0.14185 3:-1.2683 4:-0.58787 5:-2.057 6:-0.72096 7:-0.28565 8:-0.71645 9:-1.6413 10:0.091507 11:0.40543 12:0.83748 13:1.5395 14:2.1275 15:2.2774 16:2.3578 17:2.2593 18:3.2605 19:3.5711 20:3.8224 21:3.9294 22:4.3403 23:4.1927 24:4.4062 25:1.1572 
1.0 1:0.64793 2:0.30381 3:0.57827 4:1.2141 5:1.3063 6:1.532 7:1.8829 8:1.0795 9:1.5023 10:1.9327 11:2.2093 12:3.0091 13:4.0229 14:4.6143 15:7.0695 16:6.5616 17:5.5873 18:3.9475 19:2.8779 20:1.5818 21:0.86147 22:0.37741 23:0.27983 24:0.1418 25:0.66509 
0.2117718638735022 1:-0.63126 2:-0.60388 3:0.12508 4:-1.4756 5:-1.1882 6:-0.20092 7:-1.0563 8:-0.90881 9:-1.4395 10:-2.0821 11:-2.1677 12:-1.7181 13:-1.3878 14:-0.76635 15:0.48151 16:1.4403 17:1.9504 18:1.6411 19:1.1278 20:0.60982 21:-0.39543 22:-0.10109 23:0.86695 24:0.81601 25:-0.1686 
1.0 1:0.35926 2:0.017531 3:0.53701 4:2.1049 5:3.112 6:4.9507 7:4.6064 8:3.7939 9:2.9001 10:2.6026 11:0.087858 12:-1.2871 13:0.80087 14:0.74131 15:0.24578 16:-0.039905 17:-1.4987 18:-0.49604 19:-0.35903 20:-0.62441 21:1.5782 22:0.6861 23:0.19494 24:0.27796 25:0.30794 
0.36405097883002047 1:-1.3738 2:-1.8395 3:-0.80812 4:0.48188 5:-0.62983 6:-1.9433 7:-2.0581 8:-1.5863 9:-1.434 10:-1.8725 11:-2.4367 12:-1.7083 13:-0.56839 14:-0.018901 15:-0.40724 16:-1.4049 17:-0.81131 18:1.6605 19:2.1369 20:1.0519 21:0.39946 22:0.5159 23:0.66593 24:1.2311 25:-0.4832 
1.0 1:1.1347 2:1.0215 3:0.40534 4:2.2705 5:2.3604 6:2.3658 7:2.1494 8:1.9259 9:2.3381 10:0.87133 11:1.9369 12:1.2615 13:-0.13465 14:-2.3585 15:-3.2554 16:-4.1971 17:-4.3722 18:-4.88 19:-4.6183 20:-2.6494 21:-2.1323 22:-1.17 23:0.81123 24:1.5754 25:3.5119 
1.0 1:-0.084629 2:0.067475 3:-0.098321 4:-0.051725 5:0.067468 6:-0.31775 7:-0.54835 8:-0.35178 9:-0.055499 10:-0.6243 11:0.72333 12:-0.16914 13:-0.41317 14:0.045494 15:-0.064723 16:-0.83218 17:-1.5749 18:0.93139 19:1.7914 20:-0.33279 21:-0.27768 22:3.172 23:1.2637 24:-4.2954 25:0.38718 
0.6784172406364438 1:-0.22614 2:-0.25354 3:1.0188E-4 4:-0.14746 5:-0.011959 6:-0.38187 7:-0.69973 8:-0.91716 9:-1.5288 10:-1.963 11:-1.8945 12:-2.1674 13:-3.2444 14:-3.5377 15:-2.7786 16:-3.4475 17:-3.2229 18:-2.6293 19:-2.8455 20:-3.657 21:-2.2536 22:-0.18921 23:-0.57841 24:-0.30518 25:-0.24657 
0.3966908257020617 1:-0.78551 2:-0.18629 3:0.033242 4:0.24583 5:0.098636 6:-3.9972E-4 7:0.098747 8:0.047686 9:-0.26876 10:-0.80253 11:-0.90269 12:-1.0118 13:-0.59708 14:-0.062712 15:0.60986 16:1.6991 17:1.8937 18:1.3751 19:1.3804 20:1.4861 21:1.6265 22:1.5149 23:2.4447 24:0.61618 25:-0.64694 
1.0 1:-0.8496 2:-2.0211 3:-4.2349 4:-5.2637 5:-6.3924 6:-5.4328 7:-5.1202 8:-5.7177 9:-4.3172 10:-3.2923 11:-2.4145 12:-1.626 13:-0.63962 14:0.38594 15:1.5732 16:2.2208 17:1.4307 18:2.4655 19:3.0995 20:1.7764 21:0.29393 22:-0.29084 23:-0.49983 24:-0.24969 25:-0.45445 
1.0 1:-4.1312 2:-5.6651 3:-6.6334 4:-6.0831 5:-9.175 6:-5.0741 7:-3.4291 8:-2.8028 9:-1.4698 10:-1.1027 11:-0.26356 12:1.2981 13:1.5994 14:3.1318 15:4.1915 16:4.1141 17:3.1828 18:2.3766 19:1.5 20:-0.19028 21:-0.62483 22:0.21549 23:0.48299 24:0.28206 25:0.27375 
1.0 1:1.6252 2:1.3756 3:0.94774 4:0.725 5:0.28166 6:0.18802 7:0.31267 8:0.49646 9:0.38497 10:0.00882 11:0.032194 12:-0.027189 13:-1.014 14:-0.63446 15:0.026414 16:-0.81189 17:-3.713 18:-2.7096 19:0.37133 20:1.8602 21:2.8515 22:0.083122 23:4.1435 24:-5.9101 25:2.1024 
1.0 1:-2.8117 2:-3.6732 3:2.2646 4:-1.7471 5:-3.8369 6:-3.7817 7:-4.3014 8:-4.9775 9:-4.953 10:-2.1748 11:0.20222 12:0.41669 13:0.33012 14:1.2832 15:2.1197 16:3.0027 17:2.4851 18:1.5197 19:0.8441 20:0.93258 21:1.5572 22:2.2987 23:2.563 24:2.2547 25:-0.85444 
-0.09068379854662101 1:5.0582 2:2.1629 3:-2.5678 4:-2.6832 5:-11.3834 6:-6.0045 7:0.6254 8:1.9534 9:3.3611 10:3.5575 11:5.0931 12:-2.712 13:-9.0878 14:6.0523 15:5.1054 16:3.6968 17:5.9881 18:4.94 19:-4.9361 20:-11.0928 21:-5.1641 22:3.1922 23:2.9296 24:4.9391 25:5.777 
-0.08958133290204257 1:0.19349 2:-4.8068 3:-11.5571 4:-6.2505 5:-4.7427 6:-0.90947 7:-0.31731 8:1.1753 9:4.2288 10:5.3376 11:5.7631 12:6.6596 13:5.0568 14:1.1544 15:1.8792 16:-11.7911 17:-13.3421 18:-2.1649 19:-0.38702 20:0.79445 21:2.4957 22:3.9725 23:3.8518 24:6.0208 25:3.7184 
-0.08876428976102092 1:-12.0986 2:-7.5607 3:1.6495 4:-2.356 5:0.58375 6:3.6721 7:4.0492 8:4.9015 9:6.2149 10:5.7779 11:4.0272 12:1.0306 13:-3.4726 14:-10.8734 15:-11.2975 16:-4.3752 17:1.2431 18:0.97506 19:3.0477 20:3.3697 21:4.8125 22:5.1473 23:6.0569 24:5.1593 25:-6.0791 
-0.0865450606160605 1:-6.8566 2:-3.0251 3:1.6217 4:3.0161 5:4.3017 6:3.7553 7:3.9521 8:5.2311 9:4.3899 10:2.2824 11:-0.78861 12:-6.5322 13:-6.773 14:-6.5583 15:-0.13612 16:-0.37234 17:2.7207 18:3.4084 19:4.6652 20:5.67 21:5.4884 22:4.605 23:3.1738 24:-0.79589 25:-6.8853 
-0.08641822667862513 1:0.32346 2:3.5504 3:5.1715 4:4.307 5:3.8249 6:4.2989 7:3.1938 8:1.7828 9:-5.0691 10:-6.3473 11:-1.4759 12:-4.8632 13:-2.57 14:-0.010935 15:-1.594 16:2.1983 17:2.9053 18:2.5436 19:2.9648 20:5.4378 21:3.3686 22:3.2496 23:-1.7958 24:-7.9355 25:0.26433 
-0.07436827061215534 1:3.2129 2:4.0498 3:4.1262 4:5.2984 5:4.9276 6:4.6469 7:0.91821 8:-3.1612 9:-8.283 10:-9.4229 11:-3.9251 12:0.36788 13:1.3779 14:4.0733 15:4.1622 16:3.6076 17:4.3495 18:5.1338 19:4.5651 20:1.7148 21:-0.4809 22:-8.7783 23:-6.2841 24:-5.1752 25:1.442 
-0.0905364675820568 1:2.9946 2:3.7421 3:3.7575 4:4.5984 5:4.2178 6:3.7135 7:3.4619 8:-15.4778 9:-9.25 10:-3.5026 11:-0.19343 12:2.2592 13:2.6063 14:2.3599 15:4.1614 16:3.923 17:4.1104 18:6.2002 19:5.8239 20:3.1668 21:-6.3742 22:-13.7293 23:-8.0068 24:1.393 25:4.2164 
-0.08910699312510091 1:3.1843 2:3.5392 3:3.5691 4:1.0577 5:-2.3434 6:-8.2588 7:-4.6444 8:-1.4544 9:-0.52505 10:1.1992 11:-0.83011 12:3.2409 13:2.5097 14:4.1535 15:5.0584 16:4.1477 17:2.987 18:3.9331 19:-6.7838 20:-13.2301 21:-6.1558 22:-0.77896 23:1.0381 24:0.67258 25:2.2748 
-0.08768111432772543 1:2.3775 2:2.6293 3:2.932 4:-1.4558 5:-9.2152 6:-8.1184 7:-1.4575 8:0.98833 9:4.3226 10:3.2282 11:2.9584 12:4.3806 13:4.3017 14:3.8292 15:2.4455 16:0.74078 17:-3.1638 18:-6.3488 19:-4.8507 20:-1.2341 21:0.85589 22:1.4376 23:-0.53579 24:2.2446 25:2.4509 
-0.08788150619667774 1:2.1217 2:-1.5668 3:-9.2688 4:-6.1368 5:-6.6297 6:-0.9489 7:1.4799 8:3.0039 9:3.4544 10:3.7172 11:4.5925 12:4.891 13:4.0529 14:-0.080782 15:1.4273 16:-6.445 17:-12.2984 18:-7.509 19:-2.1222 20:1.3187 21:2.4909 22:3.0018 23:2.9552 24:2.5918 25:4.0791 
-0.0783540881726082 1:-8.4477 2:-6.5784 3:-5.318 4:-5.3782 5:-1.5783 6:2.677 7:3.8945 8:3.2231 9:3.3136 10:3.8364 11:3.6205 12:2.8568 13:1.8098 14:-3.5707 15:-10.8104 16:-7.1586 17:-2.9997 18:-0.49355 19:2.1708 20:3.8932 21:3.3104 22:3.9261 23:4.0121 24:4.2915 25:1.0937 
-0.09030115923962762 1:1.6136 2:-3.5955 3:-5.2502 4:-6.1555 5:0.72663 6:0.66601 7:4.8341 8:5.2542 9:8.0927 10:3.0701 11:2.2188 12:-0.83382 13:-5.8973 14:-5.2195 15:-2.4366 16:-3.288 17:-2.7209 18:1.5102 19:4.4748 20:3.6813 21:3.4618 22:4.6718 23:5.0327 24:4.1079 25:-1.3568 
-0.08991937352588456 1:-1.2205 2:-2.9752 3:1.4709 4:4.9051 5:5.9342 6:6.1092 7:5.3571 8:3.2346 9:1.8231 10:0.36749 11:-9.8407 12:-3.2571 13:-3.1171 14:-3.1589 15:-0.28596 16:1.9357 17:5.5179 18:4.7339 19:4.9192 20:3.4514 21:3.8409 22:2.1772 23:-2.6743 24:-7.9831 25:-1.9398 
-0.09104438590975819 1:-1.0689 2:1.9489 3:3.9278 4:3.9456 5:4.152 6:4.1555 7:3.3663 8:2.2944 9:2.9156 10:-10.7318 11:-6.0951 12:-2.1913 13:-2.7334 14:-0.28812 15:3.7417 16:5.3964 17:4.5398 18:4.9089 19:3.1294 20:2.7469 21:1.5708 22:-4.179 23:-11.5605 24:-5.8977 25:-2.6533 
-0.0892589249683077 1:-0.22872 2:0.63307 3:2.5402 4:6.771 5:2.7848 6:0.84996 7:2.9305 8:0.25993 9:-2.8364 10:-3.7757 11:-2.9893 12:-3.2543 13:-0.96919 14:1.466 15:2.5319 16:2.0131 17:2.8821 18:4.3011 19:3.3874 20:1.4637 21:0.41697 22:-8.9817 23:-7.4658 24:-5.5831 25:-1.3943 
-0.09002481678444847 1:-10.4901 2:-10.3109 3:1.2176 4:3.0152 5:5.5642 6:2.8393 7:4.0196 8:5.621 9:6.7818 10:6.9009 11:4.5798 12:0.38995 13:-4.7136 14:-11.6945 15:-14.0908 16:-6.9936 17:3.5713 18:4.6114 19:2.2919 20:3.142 21:4.4207 22:4.4302 23:6.0487 24:7.4274 25:-2.6898 
-0.08561355799581169 1:1.1003 2:2.2581 3:1.6827 4:2.144 5:3.1163 6:3.7548 7:4.8116 8:4.1983 9:2.0078 10:0.014504 11:-3.0283 12:-9.2955 13:-5.1002 14:-1.5021 15:0.59539 16:2.2657 17:4.9355 18:4.1056 19:4.4655 20:4.7436 21:4.8475 22:4.6795 23:3.1646 24:-0.34811 25:-3.6287 
-0.08632799001283982 1:1.2652 2:1.4412 3:1.9346 4:5.1768 5:6.681 6:5.777 7:2.4619 8:-0.96185 9:-6.1696 10:-6.3123 11:-5.5782 12:-1.6168 13:0.4111 14:1.1892 15:1.9284 16:2.6132 17:3.6459 18:4.4699 19:4.3992 20:2.7881 21:1.4071 22:1.5073 23:-9.541 24:-4.2577 25:0.9695 
-0.08950832690661996 1:2.8936 2:4.2341 3:5.2831 4:4.7491 5:4.175 6:1.8834 7:1.1219 8:-14.1993 9:-7.1834 10:-0.51141 11:-0.11047 12:1.2768 13:1.7277 14:1.1078 15:2.0783 16:3.7828 17:4.2245 18:5.1091 19:3.9989 20:1.4973 21:-7.2497 22:-5.4995 23:-4.9931 24:-0.92835 25:3.3728 
-0.0904307405536609 1:4.6302 2:3.8964 3:2.9163 4:3.682 5:-9.2521 6:-10.0672 7:-1.8559 8:-4.1244 9:-0.83639 10:3.1433 11:2.7563 12:3.9688 13:5.5442 14:4.1064 15:4.1951 16:2.751 17:2.0719 18:0.46158 19:-10.0292 20:-8.6343 21:-6.0602 22:0.36441 23:3.1668 24:2.7605 25:2.3094 
-0.08173618239145389 1:1.9831 2:-3.8346 3:-4.2424 4:-5.3131 5:-4.8806 6:-2.3677 7:2.2913 8:3.664 9:2.0381 10:2.9277 11:3.267 12:4.2222 13:4.1752 14:3.7885 15:-0.27379 16:-9.3457 17:-6.6662 18:-2.7618 19:-1.463 20:-1.9146 21:1.0599 22:2.4022 23:2.6992 24:5.882 25:1.9146 
-0.0556814507821253 1:-5.3017 2:-2.8484 3:-4.1848 4:-0.638 5:2.0119 6:3.6251 7:3.4779 8:4.3395 9:3.6679 10:1.2834 11:0.7404 12:0.87 13:-2.4111 14:-6.3083 15:-5.4881 16:-3.3484 17:-2.0285 18:0.39731 19:3.4835 20:3.9683 21:2.827 22:3.106 23:3.7188 24:3.2854 25:-6.929 
-0.08357403012440623 1:-1.1393 2:0.87638 3:2.0268 4:3.7738 5:4.0933 6:5.5008 7:5.2495 8:3.1855 9:0.12059 10:0.55609 11:-4.5153 12:-2.8668 13:-3.1502 14:0.47589 15:-0.65445 16:-0.64342 17:3.7335 18:2.8286 19:2.115 20:3.2157 21:3.0359 22:2.4936 23:-0.19811 24:-3.7687 25:-3.5193 
-0.08025304205140965 1:0.81363 2:3.1227 3:3.2779 4:3.1039 5:4.5633 6:5.4239 7:4.1829 8:3.2585 9:-6.2167 10:-10.3447 11:-8.8305 12:-5.5292 13:-1.4491 14:1.2123 15:4.195 16:3.9542 17:3.2327 18:3.5657 19:4.5373 20:5.0371 21:2.9129 22:-0.59764 23:-7.5752 24:-6.177 25:0.97516 
-0.06773870641707072 1:2.9568 2:2.8691 3:3.1694 4:4.7161 5:3.5898 6:3.826 7:2.0185 8:-1.4068 9:-9.8904 10:-5.4977 11:-4.1685 12:-0.9763 13:2.0659 14:3.6617 15:3.2842 16:3.2778 17:3.6948 18:3.4289 19:2.9361 20:2.383 21:0.31125 22:-8.461 23:-7.0371 24:-3.0959 25:2.7378 
-0.08367453855466724 1:3.3262 2:3.9834 3:3.7384 4:3.5976 5:1.1987 6:-7.691 7:-8.1208 8:-4.6852 9:-2.7378 10:2.1686 11:3.9222 12:3.9232 13:2.9166 14:2.954 15:2.6636 16:2.8247 17:2.8695 18:2.0984 19:-1.7973 20:-11.7946 21:-5.7167 22:-3.6789 23:-2.8677 24:0.33706 25:2.6546 
-0.08936883024373353 1:3.3094 2:1.9105 3:1.217 4:-2.069 5:-3.9348 6:-7.3068 7:-3.4876 8:-5.212 9:-2.2164 10:2.2306 11:4.277 12:4.8796 13:3.7898 14:3.9149 15:4.2346 16:3.4268 17:0.96584 18:-7.5315 19:-6.3703 20:-7.009 21:-1.156 22:0.90435 23:3.6839 24:2.9217 25:5.6085 
-0.08958542994960661 1:2.7848 2:-0.83519 3:-8.5778 4:-12.3618 5:-7.0164 6:-3.7436 7:-2.2718 8:1.8137 9:4.4817 10:4.7976 11:5.0478 12:5.4501 13:5.7194 14:5.2455 15:3.6064 16:-6.0068 17:-10.6964 18:-6.3906 19:-2.2193 20:-3.413 21:-2.5728 22:4.245 23:6.1223 24:6.1298 25:5.6044 
-0.0762076755115551 1:-7.1725 2:-5.8116 3:-5.4239 4:-3.2255 5:-0.68229 6:1.9971 7:1.4217 8:1.92 9:3.9967 10:5.0622 11:3.582 12:1.4224 13:2.4633 14:-3.5772 15:-8.4492 16:-7.4118 17:-2.9925 18:-1.319 19:0.83199 20:3.137 21:3.9446 22:5.078 23:5.6712 24:6.2275 25:-2.6002 
-0.07424823667361563 1:-3.2363 2:-1.9935 3:0.58474 4:2.0979 5:3.647 6:3.524 7:3.1744 8:1.941 9:1.5354 10:1.2607 11:3.4426 12:0.21756 13:-7.5859 14:-5.2706 15:-2.9198 16:-1.3201 17:0.94044 18:2.5425 19:3.0312 20:4.5504 21:5.599 22:4.9145 23:4.8131 24:2.3561 25:-6.802 
-0.08050766911773223 1:2.8168 2:2.6757 3:2.7826 4:3.034 5:3.5276 6:3.4444 7:2.9505 8:2.1203 9:1.0613 10:-4.2616 11:-6.6723 12:-6.4541 13:-2.966 14:1.9611 15:1.4618 16:1.715 17:1.8898 18:4.5461 19:4.6999 20:4.5292 21:4.5213 22:0.49266 23:-3.318 24:-6.7947 25:1.1879 
-0.08684503176023275 1:1.5948 2:2.0745 3:3.1916 4:2.48 5:1.2579 6:-2.2453 7:-4.878 8:-4.0142 9:-6.3148 10:-0.24856 11:3.1773 12:1.5897 13:1.3497 14:1.5494 15:0.61397 16:2.5009 17:4.0898 18:4.2599 19:1.6779 20:2.8013 21:-8.5144 22:-11.0044 23:-3.5502 24:1.0513 25:2.6078 
-0.0838633867505248 1:3.1201 2:1.6693 3:-2.7563 4:-6.0814 5:-5.666 6:-7.3888 7:-3.4891 8:0.41716 9:1.3243 10:2.5897 11:2.589 12:2.1459 13:3.7602 14:5.6362 15:3.128 16:3.2509 17:1.0534 18:-7.312 19:-8.2016 20:-5.9721 21:-4.0587 22:1.6449 23:2.3879 24:1.729 25:3.7229 
-0.08910803627371505 1:-8.0601 2:-10.1111 3:-4.6003 4:-1.4337 5:0.58855 6:1.8439 7:3.8694 8:3.8823 9:3.754 10:3.335 11:4.1647 12:3.9103 13:1.7072 14:-0.11979 15:-5.3977 16:-8.3045 17:-8.9802 18:-1.4871 19:1.7503 20:3.2783 21:4.4777 22:5.1488 23:4.9372 24:4.1283 25:1.3436 
-0.09105202542314883 1:-3.502 2:-1.0419 3:1.1958 4:3.2977 5:5.5629 6:5.8563 7:5.975 8:5.6169 9:1.4132 10:0.21531 11:-6.3095 12:-13.8732 13:-7.6738 14:-6.2112 15:-2.953 16:1.8076 17:4.2371 18:4.2486 19:4.1385 20:4.2078 21:3.7806 22:5.1796 23:6.8048 24:5.9426 25:-7.7538 
-0.08345088137893887 1:4.3455 2:3.4839 3:4.4954 4:3.1071 5:6.5033 6:5.6167 7:5.0261 8:2.5516 9:-8.9389 10:-11.682 11:-8.6835 12:-2.9297 13:0.7491 14:2.774 15:3.8342 16:3.5427 17:3.6696 18:3.4809 19:6.386 20:6.9806 21:5.3237 22:0.50604 23:-8.2395 24:-7.9347 25:1.3728 
-0.0909538714968009 1:4.2199 2:3.8286 3:1.3724 4:1.7275 5:0.37662 6:-16.5276 7:-9.4908 8:-4.4895 9:0.37248 10:0.8909 11:-0.35753 12:3.1252 13:4.1883 14:4.4094 15:5.4007 16:5.4672 17:4.3264 18:1.904 19:-0.19707 20:-7.4884 21:-13.5501 22:-7.2357 23:0.30993 24:1.3923 25:7.9679 
-0.09046293419176568 1:-9.8815 2:-8.1189 3:-3.1421 4:-1.6143 5:-3.0145 6:1.1811 7:2.945 8:2.4679 9:3.0347 10:2.7966 11:6.211 12:5.0417 13:4.5746 14:3.5764 15:-0.35364 16:-13.7659 17:-9.7493 18:-6.1188 19:-3.4204 20:1.2557 21:4.5056 22:3.8128 23:3.6822 24:3.3089 25:0.38288 
-0.08979931902287322 1:-1.8787 2:0.72558 3:2.0576 4:3.726 5:2.728 6:3.7545 7:4.724 8:5.2006 9:5.5016 10:-2.1505 11:-10.5824 12:-7.1968 13:-6.1394 14:-1.5974 15:-2.7531 16:-3.0982 17:0.78806 18:3.8203 19:4.4201 20:4.3364 21:5.1359 22:5.4372 23:4.0606 24:1.4381 25:-6.4444 
-0.08113287591893803 1:4.7083 2:3.6838 3:4.1559 4:4.6863 5:4.074 6:1.8716 7:0.94582 8:-1.7104 9:-7.1504 10:-9.2105 11:-5.0286 12:-2.4682 13:0.11754 14:2.6627 15:2.8475 16:3.7647 17:3.7991 18:4.4319 19:3.2453 20:4.7602 21:4.0262 22:-4.6823 23:-6.5281 24:-4.7944 25:4.6043 
-0.0857935669485639 1:3.5331 2:2.7526 3:2.0987 4:1.1733 5:-1.3592 6:-5.0743 7:-6.98 8:-2.9941 9:-4.3017 10:1.3564 11:6.1138 12:2.1078 13:3.989 14:4.0069 15:3.6829 16:3.6834 17:2.3648 18:0.86205 19:-1.7355 20:-4.9364 21:-9.5288 22:-5.1807 23:-3.9351 24:0.98109 25:2.9124 
-0.08986360754892575 1:1.6182 2:-9.9647 3:-6.5978 4:-5.5426 5:-7.0049 6:-2.357 7:0.026 8:3.7167 9:2.5995 10:4.4298 11:4.587 12:4.9178 13:5.265 14:4.8339 15:1.2506 16:-1.806 17:-8.7856 18:-6.5196 19:-6.1342 20:-2.6014 21:1.443 22:2.2954 23:2.8132 24:3.2405 25:5.4697 
-0.08816469621204348 1:-7.4646 2:-4.652 3:-0.7655 4:2.0607 5:3.194 6:3.5806 7:4.507 8:4.3886 9:5.4254 10:4.9036 11:3.9465 12:-0.047193 13:-5.4309 14:-9.8466 15:-9.4575 16:-4.2002 17:-2.6485 18:1.2398 19:3.5004 20:4.6537 21:5.1596 22:4.3196 23:5.0067 24:4.1006 25:-1.4923 
-0.08836033255903336 1:3.1874 2:3.1301 3:2.7937 4:5.0461 5:4.9693 6:6.2333 7:4.4749 8:2.9479 9:-0.41909 10:-10.013 11:-10.8691 12:-4.9923 13:-3.5658 14:-2.9872 15:0.8064 16:3.2873 17:4.7923 18:5.0162 19:6.1389 20:5.4454 21:3.3035 22:2.0978 23:-2.5839 24:-7.7014 25:-1.0946 
-0.09066700281263368 1:2.7537 2:7.5601 3:4.1867 4:1.4983 5:5.1505 6:2.8091 7:-7.0748 8:-7.4579 9:-4.6468 10:-7.0632 11:-1.8802 12:-0.97513 13:2.178 14:3.9913 15:3.471 16:5.5105 17:6.6275 18:6.0249 19:4.9236 20:1.8229 21:-0.30032 22:-5.2404 23:-9.2899 24:-5.4198 25:2.6353 
-0.09107407907892434 1:2.0389 2:-1.1799 3:-13.9119 4:-7.0861 5:-3.8348 6:-2.5226 7:3.4433 8:-1.1733 9:2.6454 10:-3.4262 11:3.0893 12:6.7283 13:3.0749 14:7.5833 15:7.5116 16:1.1223 17:-2.3844 18:-6.0703 19:-10.3052 20:-14.5927 21:-7.5694 22:-5.3334 23:1.0722 24:2.2102 25:6.5386 
-0.0892102615596711 1:-6.7318 2:-9.647 3:-6.2917 4:-0.62478 5:0.76906 6:2.1625 7:5.0995 8:5.4278 9:4.9172 10:4.5536 11:3.8506 12:4.4819 13:2.3236 14:-7.1326 15:-11.3309 16:-10.4512 17:-5.7704 18:-1.5406 19:3.5722 20:1.9915 21:4.2992 22:5.3941 23:5.2736 24:6.8609 25:-4.5577 
-0.08602622716921345 1:-3.8136 2:-0.6204 3:4.0975 4:3.928 5:4.7548 6:4.6229 7:3.9061 8:4.8592 9:4.3016 10:1.9739 11:0.52924 12:-5.1535 13:-12.8707 14:-9.0104 15:-3.5222 16:-0.3784 17:2.6255 18:4.1912 19:4.7079 20:4.8275 21:4.9948 22:4.8207 23:3.5128 24:1.2559 25:-7.837 
-0.08758974995607405 1:2.9437 2:3.283 3:3.3404 4:3.3167 5:3.2968 6:2.3674 7:0.57739 8:0.36269 9:-1.9219 10:-10.0835 11:-7.2369 12:-1.5845 13:-0.1591 14:2.639 15:2.761 16:3.5318 17:3.9236 18:4.3239 19:4.8282 20:4.2272 21:1.0722 22:-0.39866 23:-5.0698 24:-13.1832 25:2.3779 
-0.09022944678971509 1:4.6564 2:3.9506 3:1.5699 4:-2.2163 5:-5.9134 6:-5.925 7:-7.292 8:-3.007 9:0.63167 10:0.084759 11:0.93135 12:4.3793 13:4.8463 14:4.0427 15:3.4411 16:3.5462 17:3.3614 18:2.2086 19:0.34685 20:-9.605 21:-14.345 22:-7.1682 23:-0.59513 24:1.22 25:5.0357 
-0.08515279989327235 1:1.6632 2:2.8361 3:-6.2367 4:-7.7799 5:-5.5653 6:-1.4131 7:1.4395 8:2.5294 9:1.3073 10:2.92 11:3.5928 12:3.6733 13:3.2385 14:2.429 15:0.60637 16:-3.4087 17:-4.723 18:-6.4531 19:-6.9108 20:-1.5479 21:-0.69781 22:1.7449 23:3.603 24:4.709 25:2.5496 
-0.06956887480039042 1:-5.3164 2:-7.0459 3:-2.7074 4:0.47641 5:2.9995 6:4.3933 7:3.8396 8:3.6579 9:3.4363 10:2.8234 11:2.0902 12:0.23009 13:0.18199 14:-9.556 15:-7.309 16:-2.5187 17:-1.9863 18:0.24411 19:1.9788 20:1.5967 21:3.1684 22:3.4203 23:3.4209 24:2.9452 25:-7.9892 
-0.08685464275169999 1:1.7502 2:3.8101 3:3.9892 4:3.9333 5:4.3526 6:4.0357 7:2.7086 8:-0.095169 9:-5.583 10:-5.2978 11:-5.3869 12:-4.6737 13:-5.6928 14:-1.5168 15:1.4451 16:2.9621 17:3.5337 18:4.0242 19:3.7871 20:3.4943 21:3.4789 22:2.9866 23:0.91861 24:1.2583 25:-2.1849 
-0.07937886853509603 1:3.1658 2:3.22 3:3.2882 4:2.0837 5:1.1484 6:-2.2793 7:-0.053683 8:-5.0467 9:-4.9036 10:-5.6213 11:-4.8506 12:-1.8039 13:2.3098 14:3.542 15:3.9939 16:3.7112 17:4.5402 18:3.9055 19:1.8695 20:-0.3783 21:-4.1116 22:-6.0157 23:-6.0827 24:-3.7484 25:4.5054 
-0.08571929913096672 1:5.0954 2:4.0216 3:1.4263 4:0.57919 5:-3.8859 6:-8.9742 7:-6.3236 8:-5.0212 9:0.099093 10:0.25408 11:1.8248 12:2.4165 13:4.4812 14:4.1368 15:3.9607 16:3.7411 17:3.3762 18:-0.58081 19:-3.4805 20:-7.1002 21:-3.8389 22:-5.2554 23:-1.7446 24:2.3888 25:5.2198 
-0.0898555059577667 1:4.8543 2:0.7759 3:-2.5683 4:-11.0147 5:-8.7765 6:-5.8462 7:-3.0848 8:1.1518 9:2.7085 10:4.1335 11:4.7576 12:5.3701 13:4.7014 14:3.535 15:2.8585 16:-1.0114 17:-10.3422 18:-7.3751 19:-4.3236 20:-4.233 21:-2.1008 22:0.67275 23:3.9868 24:4.9167 25:5.2694 
-0.08924423602257003 1:2.3628 2:-12.149 3:-12.0802 4:-8.3879 5:-3.1344 6:0.86296 7:4.0416 8:4.1194 9:3.1392 10:4.1752 11:4.646 12:3.729 13:2.4628 14:0.13581 15:-5.7347 16:-14.173 17:-9.8606 18:-5.9351 19:-0.97075 20:2.838 21:2.7996 22:3.5523 23:3.9273 24:5.1069 25:2.569 
-0.09038239953905267 1:-10.7277 2:-7.8545 3:-2.2671 4:1.4623 5:1.1523 6:2.4635 7:2.9499 8:4.5069 9:5.7593 10:5.0725 11:3.1787 12:0.94743 13:-3.6551 14:-20.4611 15:-11.2743 16:-7.0785 17:2.6735 18:4.136 19:5.4279 20:4.6947 21:4.658 22:5.3926 23:6.0007 24:4.9963 25:-9.8365 
-0.08906705697719898 1:-0.34521 2:3.1258 3:3.7587 4:3.3342 5:2.5345 6:2.0365 7:3.337 8:3.7047 9:2.14 10:0.79591 11:0.35321 12:-13.9256 13:-9.8855 14:-3.6967 15:-0.23128 16:2.01 17:4.1175 18:3.8285 19:4.3386 20:4.926 21:5.3038 22:3.9573 23:-0.050173 24:-3.8376 25:-7.0967 
-0.09078056811259672 1:-3.2764 2:-3.9347 3:-1.515 4:-0.8768 5:0.55187 6:0.28572 7:-1.7144 8:-1.6416 9:0.38355 10:1.1598 11:1.9683 12:1.8063 13:2.8795 14:2.9904 15:3.0042 16:3.6495 17:3.1875 18:5.4307 19:5.3687 20:3.5373 21:-1.3651 22:-5.1903 23:-8.7994 24:-14.8817 25:-2.3424 
-0.07648503023761188 1:0.53646 2:2.06 3:2.3544 4:0.98342 5:1.6678 6:2.5061 7:3.8554 8:5.2821 9:2.5994 10:-1.7475 11:-3.6191 12:-6.8599 13:-4.3489 14:-5.7123 15:-2.1388 16:-1.4302 17:0.85727 18:1.3734 19:1.5051 20:1.4411 21:3.1156 22:4.7774 23:6.1488 24:4.0087 25:-1.7937 
-0.06466324432858767 1:2.5235 2:2.9624 3:2.0021 4:3.5748 5:2.7652 6:0.8111 7:-3.3921 8:-4.4788 9:-8.2902 10:-2.8156 11:-2.927 12:1.0444 13:-0.68629 14:1.8226 15:1.062 16:1.5087 17:1.7268 18:2.0154 19:2.7599 20:1.6314 21:-2.1495 22:-5.1907 23:-6.5849 24:-3.638 25:2.1023 
-0.05136108547097146 1:2.8053 2:2.1179 3:2.8466 4:0.94134 5:-2.8972 6:-4.9465 7:-5.441 8:-4.3131 9:-0.59422 10:1.1847 11:0.96663 12:2.052 13:2.705 14:2.7011 15:1.5418 16:2.0901 17:2.6625 18:1.5405 19:-2.6874 20:-5.1701 21:-5.3622 22:-3.3448 23:0.97241 24:-1.2538 25:2.7367 
-0.06077493373774409 1:1.5656 2:-3.0084 3:-7.0425 4:-2.2144 5:-4.4783 6:-0.72527 7:-0.98652 8:1.0006 9:1.5625 10:1.9412 11:1.8824 12:2.4089 13:1.5457 14:1.702 15:0.054594 16:-3.9164 17:-5.3337 18:-4.9857 19:-4.6842 20:-1.4978 21:-0.56378 22:1.6502 23:2.1506 24:2.6791 25:2.9851 
-0.0277682101652524 1:-5.883 2:-4.6404 3:-1.1518 4:1.1004 5:0.13834 6:1.0493 7:1.8155 8:1.5596 9:0.67706 10:1.7556 11:2.0383 12:1.3017 13:-2.4439 14:-5.1831 15:-4.9183 16:-3.1157 17:-1.4045 18:1.0817 19:0.47589 20:1.9143 21:2.6173 22:3.3545 23:1.4393 24:2.367 25:-3.8487 
-0.07989653999802372 1:0.63825 2:1.5209 3:0.55732 4:0.60262 5:0.33408 6:0.62317 7:-0.17069 8:1.7029 9:2.1885 10:0.18796 11:-3.5706 12:-4.1281 13:-4.9611 14:-3.4539 15:0.40949 16:1.6604 17:0.83753 18:2.0048 19:1.6603 20:0.56149 21:1.5074 22:0.84648 23:2.8589 24:-0.47873 25:-4.8232 
-0.1230442691493018 1:0.86676 2:-0.066762 3:0.22075 4:0.50811 5:0.56218 6:1.1676 7:1.9763 8:-0.34023 9:-5.6395 10:-3.424 11:-4.5759 12:-2.0216 13:0.90593 14:1.4372 15:1.0141 16:0.44293 17:0.68791 18:0.24725 19:-0.33699 20:1.0954 21:1.211 22:-1.2155 23:-6.2607 24:-2.2478 25:2.3345 
-0.06416372377591936 1:-1.1788 2:0.43914 3:2.582 4:3.6602 5:0.53578 6:-2.5274 7:-4.3895 8:-5.6758 9:-2.1476 10:-2.4437 11:1.9537 12:2.8077 13:3.6149 14:1.2666 15:-0.5813 16:0.74881 17:1.8961 18:1.8083 19:-0.36392 20:-3.5292 21:-4.9869 22:-3.7622 23:-4.0273 24:0.20959 25:-1.0131 
-0.08310648325491922 1:3.7537 2:1.3202 3:-1.1526 4:-3.0879 5:-6.5987 6:-4.2906 7:-3.923 8:1.5812 9:3.6223 10:-0.661 11:1.1567 12:2.5076 13:1.9958 14:1.5572 15:3.2555 16:2.4839 17:-2.4401 18:-6.5143 19:-3.3027 20:-3.8077 21:1.3074 22:-0.30504 23:1.8209 24:0.83983 25:1.2077 
-0.07345620685467254 1:1.0145 2:-4.4872 3:-7.372 4:-3.3222 5:-4.1093 6:-0.75979 7:1.6711 8:2.436 9:2.485 10:3.5828 11:2.6308 12:3.4138 13:4.5709 14:1.3594 15:-2.8434 16:-5.9672 17:-6.8713 18:-1.3224 19:-1.9733 20:0.16355 21:2.2653 22:3.5707 23:2.1883 24:2.2019 25:3.5776 
-0.08554720807614001 1:-5.5713 2:-1.3935 3:3.1148 4:5.5408 5:1.4184 6:4.5585 7:2.9958 8:1.5514 9:1.7737 10:3.678 11:4.606 12:-1.5446 13:-4.9278 14:-11.6239 15:-4.7679 16:-2.418 17:1.3096 18:2.8629 19:3.3126 20:3.4718 21:2.9098 22:2.5633 23:1.6813 24:3.546 25:-7.7499 
-0.07753710151971331 1:1.1949 2:3.042 3:2.9053 4:3.1439 5:2.8349 6:1.5995 7:3.6953 8:1.4206 9:-1.9734 10:-9.644 11:-7.2482 12:-3.821 13:-1.2798 14:3.3952 15:1.4277 16:2.5782 17:2.4618 18:2.1986 19:2.024 20:1.5372 21:4.0073 22:2.324 23:-0.85174 24:-5.3443 25:-1.1584 
-0.08396273138260515 1:4.3619 2:3.6836 3:3.3315 4:3.5059 5:4.4072 6:0.81437 7:-4.3098 8:-5.189 9:-8.8223 10:-4.3603 11:-2.1368 12:-2.2005 13:5.1812 14:-0.51735 15:2.6098 16:1.7142 17:2.3978 18:1.6387 19:3.0795 20:0.97064 21:-4.0157 22:-7.0013 23:-3.3509 24:-3.1953 25:3.1778 
-0.0882226530635326 1:4.9682 2:3.9033 3:4.4324 4:2.6086 5:2.1027 6:-3.1396 7:-7.91 8:-2.9552 9:0.30579 10:-0.53756 11:-0.48911 12:3.1915 13:3.3646 14:2.8637 15:3.5807 16:2.0532 17:4.5295 18:-1.8084 19:-2.0226 20:-12.1797 21:-4.2861 22:-6.0651 23:-0.92962 24:2.4271 25:4.1423 
-0.08858111429479373 1:2.0702 2:2.2946 3:-0.036112 4:-4.4563 5:-4.91 6:-2.9287 7:-5.5136 8:-3.0916 9:0.81332 10:1.0422 11:2.6022 12:1.891 13:2.3678 14:4.7521 15:3.7608 16:1.8516 17:-2.2499 18:-10.4318 19:-6.3492 20:1.5202 21:1.3802 22:0.92212 23:1.8749 24:4.3477 25:1.6541 
-0.08576043021429021 1:-9.0518 2:-5.2904 3:-3.5929 4:0.041858 5:-2.6142 6:1.6012 7:1.0643 8:1.1523 9:2.1302 10:2.3743 11:4.4267 12:4.8336 13:1.2646 14:-2.8501 15:-4.0889 16:-4.5687 17:-3.6379 18:-2.511 19:-2.659 20:2.0982 21:2.4413 22:2.195 23:2.6837 24:1.4544 25:-4.8096 
-0.08962233848414464 1:-3.7043 2:-0.51662 3:3.496 4:4.474 5:4.0689 6:2.3638 7:2.5196 8:2.5253 9:3.0851 10:1.0653 11:-4.405 12:-7.6814 13:-8.9798 14:-11.3801 15:-1.7703 16:2.9288 17:4.8992 18:6.1938 19:4.1766 20:3.548 21:4.2054 22:5.1432 23:4.9766 24:4.6544 25:-2.525 
-0.08490789003143472 1:1.4558 2:0.8983 3:1.0293 4:0.72376 5:0.84809 6:3.0154 7:2.9386 8:1.4831 9:-5.0375 10:-7.6946 11:-7.6368 12:-1.9303 13:4.0152 14:1.7848 15:1.3927 16:0.24567 17:1.0613 18:2.0436 19:1.612 20:2.4192 21:1.318 22:-0.56517 23:-10.3883 24:-7.5186 25:1.4169 
-0.09046423135443865 1:0.73513 2:0.6582 3:1.5336 4:3.5335 5:-0.18777 6:-9.1637 7:-5.8726 8:-8.6836 9:-4.7279 10:-0.82573 11:2.7409 12:3.2929 13:-0.95655 14:0.19548 15:2.5926 16:3.4532 17:2.6409 18:6.9123 19:-0.15817 20:-6.7315 21:-4.7439 22:-3.5421 23:-2.6076 24:3.931 25:0.11249 
-0.08655351068549771 1:-0.75498 2:-4.596 3:-5.2637 4:-5.8661 5:-9.6731 6:-2.6527 7:1.0211 8:-0.73066 9:1.297 10:2.0822 11:2.2704 12:1.5381 13:3.212 14:3.6067 15:-1.5578 16:-4.7222 17:-3.5258 18:0.61427 19:-2.7795 20:-2.6546 21:-0.19412 22:1.6926 23:3.1818 24:2.0379 25:3.2385 
-0.08312366838976396 1:-5.4888 2:-6.8287 3:-0.20424 4:1.3011 5:0.61247 6:1.0471 7:2.1014 8:1.2571 9:2.1672 10:2.1197 11:3.196 12:3.1806 13:-0.96728 14:-12.5173 15:-6.7412 16:-3.2857 17:-3.7112 18:0.65275 19:2.7175 20:3.0074 21:2.9358 22:3.0086 23:3.2538 24:3.4837 25:-10.5814 
-0.08357028537770622 1:0.065577 2:1.9324 3:2.0135 4:0.91213 5:0.36556 6:1.0982 7:2.2604 8:2.8484 9:4.8656 10:-1.0841 11:-9.6915 12:-8.6315 13:-7.7092 14:-2.2403 15:-0.16104 16:1.836 17:0.66969 18:1.0633 19:1.8401 20:3.0363 21:2.4208 22:3.4948 23:2.7316 24:-1.8447 25:-2.1135 
-0.08635579933696574 1:2.29 2:1.9179 3:3.5063 4:3.5613 5:3.2469 6:2.4036 7:-0.94228 8:-8.5991 9:-4.2653 10:-1.3366 11:-4.3668 12:-0.044779 13:0.57977 14:0.98068 15:2.4598 16:2.1962 17:2.505 18:1.9972 19:3.5156 20:2.1598 21:-5.056 22:-10.895 23:-3.522 24:-2.0999 25:1.9611 
-0.0908821262473784 1:3.0026 2:3.1684 3:-8.6172 4:-8.8169 5:-4.0634 6:0.037034 7:0.48871 8:2.3901 9:-0.86378 10:-0.94167 11:-0.25976 12:1.6441 13:2.5747 14:10.6996 15:5.8175 16:3.6692 17:-0.68541 18:-2.6102 19:-11.8791 20:-6.491 21:-2.9447 22:3.3161 23:0.41936 24:1.1158 25:4.4987 
-0.08896238679977879 1:-10.1232 2:-4.1331 3:-2.1154 4:-1.0245 5:0.70552 6:0.30694 7:2.6131 8:3.4555 9:2.6459 10:2.3794 11:4.0309 12:3.4705 13:-0.18919 14:-12.2428 15:-9.1945 16:0.063085 17:-0.13008 18:-0.94147 19:1.8803 20:0.95613 21:1.3173 22:-0.034954 23:0.29046 24:0.55288 25:-7.6161 
-0.041630159599204034 1:-0.54149 2:1.0619 3:0.93352 4:-0.11044 5:0.67834 6:0.71413 7:1.4238 8:2.8723 9:1.2195 10:0.78533 11:-2.7188 12:-9.1948 13:-4.8618 14:-1.1791 15:-2.1083 16:-0.23801 17:0.85584 18:1.6436 19:1.8585 20:1.8318 21:2.2515 22:3.0195 23:1.91 24:-0.52871 25:-2.7491 
-0.08530204630241278 1:1.601 2:1.3595 3:0.68365 4:4.0243 5:7.3565 6:-0.021626 7:-6.2464 8:-3.4116 9:-3.3343 10:-1.801 11:-0.17814 12:0.64732 13:0.14924 14:0.3512 15:0.27866 16:-0.82009 17:0.27607 18:2.5358 19:3.7709 20:4.2518 21:-2.6228 22:-7.8764 23:-4.5556 24:-0.32581 25:1.9579 
-0.08420454389894855 1:3.5582 2:0.53112 3:-5.1929 4:-9.3204 5:-3.8797 6:-0.86347 7:-0.12645 8:2.5407 9:1.1074 10:1.5755 11:0.84273 12:1.8728 13:3.6973 14:1.6714 15:3.7071 16:2.5 17:-3.3456 18:-6.5264 19:-2.9179 20:-2.3977 21:-2.8301 22:0.61666 23:2.6527 24:1.8991 25:2.8183 
-0.06024970876575624 1:-5.204 2:-3.421 3:0.61174 4:2.7931 5:3.2399 6:2.4318 7:1.6625 8:3.0136 9:3.3126 10:4.4407 11:4.263 12:1.5005 13:-5.3804 14:-6.6156 15:-5.9343 16:-0.78222 17:-2.1501 18:1.6932 19:1.4644 20:1.7533 21:2.2969 22:2.6116 23:2.8746 24:2.3846 25:-6.3412 
-0.08209425266201972 1:1.4689 2:0.80442 3:1.6064 4:1.5085 5:1.8751 6:2.7386 7:3.0166 8:0.10005 9:-3.6317 10:-8.0129 11:-6.4118 12:-6.268 13:-2.2439 14:-1.3163 15:-0.28068 16:0.63343 17:2.171 18:1.0892 19:1.0133 20:1.1216 21:1.1542 22:6.0629 23:1.0567 24:-7.3112 25:0.84235 
-0.08470342063498147 1:2.0584 2:3.0023 3:3.0993 4:2.2008 5:-1.2901 6:-7.9418 7:-4.0372 8:-4.3319 9:-3.961 10:-0.16983 11:0.019204 12:1.6438 13:0.67586 14:0.46299 15:1.0708 16:2.9431 17:3.2815 18:6.3616 19:-0.033556 20:1.4527 21:-9.1712 22:-3.2384 23:-7.0659 24:-3.4236 25:1.0021 
-0.08823555561682198 1:1.0176 2:-5.2321 3:-6.6576 4:-2.7981 5:0.062272 6:-0.051609 7:-1.8928 8:-0.90795 9:-2.6303 10:-1.0869 11:0.53509 12:1.4701 13:2.0111 14:2.4191 15:1.2474 16:-1.4789 17:-7.6894 18:-4.3493 19:-3.0151 20:-1.5309 21:0.50851 22:-0.88027 23:-0.32722 24:0.32342 25:4.491 
-0.061367159287621875 1:-3.9927 2:-2.4431 3:-0.39105 4:-0.94061 5:-0.28713 6:0.81227 7:0.76915 8:1.4344 9:2.3142 10:5.7448 11:4.2868 12:-2.2515 13:-6.3719 14:-2.9913 15:-1.4345 16:-1.1277 17:0.20169 18:-0.097662 19:-1.0821 20:-0.57641 21:0.75059 22:2.8479 23:2.8328 24:3.2184 25:-4.1418 
-0.09071745588749505 1:0.49095 2:-0.46793 3:0.11002 4:1.0452 5:1.8437 6:10.7584 7:-0.83171 8:-0.68211 9:-6.5236 10:-0.39248 11:-3.682 12:-1.3648 13:0.49006 14:-1.7167 15:-1.612 16:-0.31942 17:-0.78496 18:0.057019 19:2.299 20:2.5706 21:5.6864 22:1.5892 23:-2.5395 24:-7.868 25:0.95137 
-0.09007336081099164 1:2.5595 2:4.5172 3:0.98106 4:-1.9581 5:-10.7207 6:-5.0074 7:-2.9776 8:-1.0663 9:0.53829 10:0.78512 11:-0.79525 12:-0.088662 13:-0.31083 14:0.63488 15:0.93333 16:3.0134 17:6.2552 18:1.9523 19:-3.6058 20:-4.8951 21:-3.7292 22:-0.49148 23:0.73203 24:0.99755 25:1.7867 
-0.1262163949341937 1:-3.0368 2:0.42414 3:0.98747 4:-1.1359 5:-0.11982 6:-0.76961 7:-1.8185 8:-0.51646 9:-0.06679 10:1.3361 11:2.4056 12:3.3108 13:6.5506 14:0.98645 15:-3.6336 16:-2.206 17:-0.61734 18:-1.7279 19:-1.2917 20:0.25865 21:0.082556 22:-1.7921 23:-0.62026 24:0.55177 25:-4.9037 
-0.06207761652552771 1:-1.2734 2:-0.70889 3:0.16001 4:0.54224 5:0.88653 6:1.801 7:2.0763 8:2.9548 9:4.4327 10:-0.21061 11:-2.3036 12:-3.3039 13:-3.1002 14:-3.3577 15:-2.3396 16:-0.2106 17:-0.21223 18:1.2754 19:1.5878 20:1.5102 21:2.2543 22:1.539 23:4.3735 24:-1.7752 25:-1.0255 
-0.08989704638410653 1:2.1874 2:2.9149 3:4.2186 4:2.7144 5:-4.8104 6:-6.2525 7:-4.6276 8:0.49979 9:-1.63 10:-1.4205 11:-0.063508 12:0.33616 13:-0.7538 14:0.54743 15:0.69099 16:1.2121 17:1.8788 18:2.6476 19:1.4811 20:-1.9221 21:-3.3383 22:-3.6213 23:-2.6331 24:-2.1803 25:1.2822 
-0.09128391215376083 1:-5.2605 2:-5.6102 3:-3.8037 4:-4.6294 5:-3.0788 6:-1.6367 7:-1.1141 8:0.26494 9:0.049175 10:1.3878 11:2.674 12:3.3736 13:3.8284 14:3.0482 15:-1.595 16:-3.932 17:-3.7972 18:-0.83229 19:-2.3328 20:-1.1786 21:-0.489 22:-0.029912 23:-0.5386 24:0.68058 25:1.1994 
-0.08171517908191099 1:1.7022 2:1.4352 3:1.215 4:2.9007 5:2.2988 6:1.4904 7:3.6554 8:3.2731 9:5.8357 10:-3.6716 11:-5.5289 12:-3.3529 13:-3.1411 14:-4.9376 15:-0.428 16:0.43673 17:0.22654 18:0.13453 19:0.54598 20:0.21895 21:0.36986 22:1.7069 23:3.292 24:4.5188 25:-0.082788 
-0.08127171445764515 1:1.07 2:3.0599 3:4.6659 4:3.8304 5:0.65892 6:-5.0171 7:-3.6268 8:-3.13 9:-4.1516 10:-3.029 11:-0.16713 12:-0.72435 13:0.52789 14:1.1065 15:0.37006 16:1.4098 17:2.2479 18:3.9062 19:3.4825 20:-2.6671 21:-9.1925 22:-3.8992 23:-7.0929 24:-2.4026 25:0.10497 
-0.3076889660597136 1:-2.8945 2:-4.579 3:-0.76048 4:-0.489 5:0.098975 6:-0.24317 7:0.28888 8:-0.4307 9:0.37103 10:0.92996 11:1.4927 12:2.5981 13:1.9822 14:2.9964 15:2.0433 16:-3.5271 17:-1.8152 18:-3.4069 19:-2.8249 20:-1.1257 21:-1.4933 22:-0.18259 23:-0.05831 24:-1.6424 25:-0.96461 
-0.061520576129278665 1:0.59491 2:-0.85326 3:-0.35506 4:-0.094382 5:0.73142 6:1.8889 7:2.5595 8:4.1661 9:5.4776 10:-1.4923 11:-4.0915 12:-3.2622 13:-1.2454 14:-4.0854 15:-3.2652 16:-1.4642 17:0.24039 18:0.14908 19:1.1612 20:1.7491 21:3.0775 22:3.482 23:3.2364 24:6.0261 25:-0.75418 
-0.0814852501647766 1:1.8707 2:4.0616 3:8.0659 4:1.0341 5:-0.30372 6:-3.5174 7:-0.60685 8:-2.7053 9:-2.279 10:-1.1291 11:0.051963 12:-1.5014 13:-0.69176 14:-0.87694 15:0.2214 16:1.6011 17:4.1008 18:6.8418 19:-0.96241 20:-0.72539 21:-3.2426 22:-1.5043 23:-2.9008 24:-2.6273 25:1.5739 
-0.0835270864026501 1:-7.4944 2:-3.0574 3:-4.2435 4:-3.1849 5:0.65455 6:0.87906 7:0.90436 8:-0.25178 9:0.42408 10:0.55307 11:0.81587 12:2.1226 13:5.5478 14:3.035 15:-2.355 16:-6.6129 17:-2.626 18:-3.2601 19:-2.6578 20:0.94582 21:1.3592 22:-0.20891 23:1.4496 24:1.6831 25:-3.0103 
-0.08389755732294206 1:-0.90228 2:-2.2822 3:-0.66403 4:0.66588 5:0.58257 6:0.031807 7:1.5709 8:6.0718 9:5.6826 10:1.5461 11:-1.2396 12:-5.0888 13:0.15206 14:-4.8355 15:-1.8183 16:-1.3601 17:0.82868 18:0.14545 19:0.53766 20:-0.037072 21:1.1953 22:3.6483 23:9.0099 24:5.2337 25:-0.32663 
-0.08990761701212154 1:1.7078 2:3.2096 3:4.3535 4:-2.7223 5:-6.6231 6:-6.0927 7:-5.0621 8:-4.7502 9:-2.4446 10:-0.032768 11:-0.9426 12:0.31877 13:1.3302 14:2.2927 15:2.4277 16:3.1026 17:4.4031 18:7.4894 19:3.0227 20:-2.9262 21:-10.2724 22:-4.924 23:-1.2807 24:-3.3645 25:-0.54802 
-0.07811450127652579 1:-1.7493 2:-1.2005 3:-3.9339 4:-1.3696 5:-0.57131 6:-0.091297 7:0.10478 8:1.0669 9:2.0905 10:3.3144 11:6.3957 12:3.7397 13:-1.5154 14:-3.7283 15:-3.5011 16:-2.409 17:-1.4742 18:-1.9024 19:-1.5891 20:-1.3064 21:-0.29074 22:0.11384 23:0.18237 24:0.88163 25:-2.921 
-0.1563743382098761 1:0.6056 2:0.48756 3:1.137 4:2.6304 5:3.2745 6:4.3417 7:3.4622 8:-1.8185 9:-4.0708 10:-2.1371 11:-0.65883 12:-0.98747 13:-1.8514 14:1.8685 15:-0.19392 16:-1.9225 17:-1.0191 18:-0.54674 19:1.5956 20:2.8002 21:2.8604 22:2.7862 23:-0.33829 24:-1.4513 25:-0.49253 
-0.09029620212085762 1:4.7403 2:1.5421 3:-2.4345 4:-4.8065 5:-3.1992 6:-0.27986 7:-0.98642 8:-1.6336 9:-0.71555 10:-2.0127 11:-0.91581 12:0.40049 13:1.5171 14:3.1611 15:2.8785 16:5.5239 17:2.7281 18:-1.6983 19:-7.4077 20:-1.8971 21:-1.9412 22:-4.947 23:-2.0731 24:-1.1027 25:5.8651 
-0.0719225807967199 1:-1.3239 2:-2.1563 3:-0.5565 4:0.18029 5:-2.3301 6:0.090393 7:-0.060655 8:1.6865 9:3.5081 10:5.1026 11:5.6174 12:0.48238 13:-3.0973 14:-2.1212 15:-4.3573 16:-1.3013 17:-1.1513 18:-1.5539 19:0.016404 20:-0.85315 21:-0.54394 22:-0.69207 23:2.0121 24:2.3065 25:-0.96977 
-0.09075980697417634 1:0.5714 2:0.97416 3:4.3916 4:7.4938 5:7.1135 6:3.4437 7:-1.4042 8:-7.3422 9:-1.5705 10:1.003 11:-3.4449 12:-1.6687 13:-1.3439 14:-1.3127 15:-1.537 16:-0.09494 17:1.3729 18:2.7228 19:5.8853 20:10.6071 21:7.2556 22:-2.1975 23:-2.4211 24:-3.2249 25:-0.18029 
-0.0802530115470914 1:-0.89106 2:-6.8071 3:-1.759 4:-3.3171 5:-3.1686 6:-0.24889 7:-0.046007 8:0.24269 9:0.43695 10:0.85483 11:1.2596 12:3.5235 13:6.6392 14:5.4518 15:4.3909 16:-3.1821 17:-0.5404 18:-5.1245 19:-2.9871 20:-2.0494 21:-3.5239 22:0.94222 23:-0.21967 24:-0.29861 25:3.8475 
-0.09593296348592381 1:-0.28209 2:0.169 3:-2.6191 4:-1.3234 5:-0.46549 6:1.2987 7:2.054 8:2.5878 9:2.4086 10:1.1531 11:-1.7983 12:-6.0736 13:-2.3491 14:-1.3355 15:-3.1192 16:-2.2578 17:-0.09226 18:-3.2699 19:-0.62452 20:0.65194 21:2.0023 22:1.8177 23:1.2195 24:5.4786 25:-1.1685 
-0.08260829382018794 1:1.1852 2:7.1253 3:3.0213 4:0.079117 5:-3.8323 6:-5.5314 7:-2.6438 8:-1.4814 9:-2.2489 10:-0.9832 11:-0.94978 12:-0.21563 13:0.38179 14:0.61252 15:1.768 16:3.2716 17:5.5177 18:6.367 19:0.033665 20:-0.99178 21:-3.7549 22:-1.3926 23:-1.1633 24:-1.4684 25:1.2164 
-0.08899920372940215 1:-5.5458 2:-1.6738 3:-1.645 4:-1.423 5:-0.38908 6:-0.051941 7:-1.1966 8:-0.05679 9:-0.062277 10:-0.37356 11:3.5844 12:7.3222 13:7.6141 14:-5.4877 15:-6.5688 16:-2.169 17:0.37095 18:-4.3342 19:-0.59417 20:1.6274 21:-1.6991 22:-1.0089 23:0.29218 24:0.74451 25:-4.0233 
-0.2882090918738983 1:0.22963 2:-0.022889 3:-0.32511 4:0.052111 5:0.58033 6:1.0123 7:0.26217 8:0.60581 9:-0.23585 10:-1.1194 11:-1.3822 12:-3.5216 13:-2.6842 14:-0.75852 15:-0.40826 16:-2.8711 17:0.077788 18:-1.3009 19:0.63483 20:1.7655 21:2.9084 22:5.208 23:3.4878 24:-2.1505 25:0.11699 
-0.07953130091802206 1:2.1 2:-5.7532 3:-4.6038 4:-2.1694 5:-0.036555 6:-3.0245 7:-0.96883 8:-0.2828 9:2.0896 10:2.6277 11:1.9879 12:2.2513 13:4.0184 14:6.6336 15:3.1473 16:-3.0385 17:-6.2532 18:-6.445 19:-3.9138 20:-0.93277 21:1.8358 22:-0.55281 23:1.8219 24:1.8651 25:3.138 
-0.08951979410601073 1:-0.10455 2:0.75726 3:0.92292 4:2.3308 5:3.2711 6:3.8105 7:3.8596 8:3.7769 9:5.6434 10:7.33 11:4.2047 12:-7.0081 13:-5.8184 14:-0.79475 15:-2.5298 16:-3.8562 17:-1.8694 18:1.0022 19:3.1909 20:2.2468 21:0.9164 22:1.1781 23:3.6022 24:6.007 25:-3.5163 
-0.09124808874157608 1:1.2492 2:1.7881 3:4.7815 4:5.2051 5:2.1721 6:-0.81152 7:-2.8675 8:-3.4054 9:-0.68794 10:-2.1058 11:-0.69699 12:2.7543 13:1.7925 14:0.97262 15:2.1366 16:0.38505 17:1.0013 18:1.7757 19:4.7995 20:6.5515 21:3.1196 22:-2.8174 23:-5.7669 24:-3.7359 25:2.0838 
-0.06714464387309432 1:-1.6728 2:-3.7098 3:-2.4938 4:-2.1525 5:-1.8089 6:-0.91758 7:0.72207 8:1.7302 9:2.5355 10:0.89574 11:0.77174 12:1.9888 13:3.3916 14:3.6368 15:2.3418 16:-1.8869 17:-4.0305 18:-4.1551 19:-3.7604 20:-0.53295 21:-0.79372 22:-0.68362 23:2.771 24:3.031 25:0.072803 
-0.051309163686453246 1:-2.252 2:0.16901 3:1.2493 4:1.1728 5:0.52811 6:1.7069 7:1.6435 8:1.6513 9:3.6905 10:3.7858 11:0.58023 12:-3.828 13:-3.229 14:-3.239 15:-1.7514 16:-2.0055 17:-0.51446 18:-0.187 19:-0.11209 20:0.89414 21:2.3056 22:4.1696 23:5.5536 24:3.9592 25:-1.7276 
-0.0831449572241546 1:3.5912 2:4.8629 3:4.6955 4:4.76 5:5.7311 6:2.1891 7:-4.7014 8:-4.3214 9:-2.0734 10:-5.1175 11:-0.26847 12:1.1796 13:-0.99628 14:0.5215 15:-0.10754 16:0.52171 17:2.4798 18:4.243 19:5.1898 20:3.41 21:-1.1916 22:-6.3649 23:-5.5426 24:-2.5586 25:1.7529 
-0.0900785403453467 1:-5.3781 2:-1.9049 3:-3.9294 4:-1.0976 5:-2.6319 6:-3.2567 7:-1.0043 8:1.3469 9:-0.23644 10:0.93144 11:0.80153 12:3.1276 13:2.7392 14:4.8719 15:9.2604 16:0.79132 17:-2.0199 18:-5.3597 19:-4.7045 20:-0.86695 21:-2.2953 22:-3.4244 23:-0.41261 24:-0.62147 25:8.2712 
-0.08765617949826197 1:-0.28771 2:0.72962 3:1.421 4:1.6973 5:1.9722 6:2.7115 7:4.0855 8:8.7166 9:5.6781 10:2.3557 11:-6.5954 12:-1.5013 13:-2.5766 14:-2.4009 15:-3.3898 16:-2.4648 17:1.168 18:1.2197 19:2.6606 20:1.5566 21:1.2659 22:1.3679 23:1.5793 24:6.2289 25:-0.61933 
-0.0739463774710917 1:0.93235 2:4.0572 3:5.195 4:3.3251 5:-1.6668 6:-1.6171 7:-6.0764 8:-3.0425 9:-2.081 10:-0.91305 11:0.65712 12:-0.41887 13:1.4527 14:2.2829 15:1.927 16:2.3053 17:5.338 18:4.7966 19:-1.0046 20:-2.344 21:-4.0629 22:-5.2257 23:-2.3803 24:-4.3294 25:-0.11958 
-0.08195891064698013 1:-0.60715 2:-2.3886 3:-6.5739 4:-4.4386 5:-2.1604 6:-0.5235 7:1.7869 8:0.50547 9:1.2306 10:1.8602 11:2.6982 12:3.7165 13:5.6103 14:6.7333 15:0.76433 16:-4.5136 17:-9.5107 18:-5.7357 19:-3.5999 20:-0.59874 21:0.84932 22:1.9225 23:2.3685 24:0.80305 25:4.7495 
-0.05762913567221699 1:-3.5928 2:-0.92322 3:0.18857 4:1.974 5:0.86412 6:0.17983 7:0.8704 8:2.9743 9:4.3845 10:6.6485 11:0.8485 12:-1.3073 13:-4.3054 14:-3.1207 15:-3.2369 16:-2.4182 17:1.1803 18:-0.11722 19:0.44351 20:0.24929 21:0.56909 22:0.47294 23:2.2123 24:4.4887 25:-2.8507 
-0.08058717207917103 1:0.6424 2:0.43953 3:1.0888 4:2.9434 5:6.8048 6:1.7815 7:-0.82866 8:-2.7373 9:-3.4448 10:-4.4172 11:-5.3482 12:0.040137 13:2.4472 14:-0.10994 15:1.6933 16:1.6138 17:3.4284 18:5.1165 19:3.9964 20:2.1596 21:-2.5318 22:-2.4866 23:-3.9491 24:-2.8599 25:0.65686 
-0.08947665348056444 1:-4.0046 2:-0.94068 3:-5.0282 4:-0.77163 5:1.1319 6:0.69773 7:2.3649 8:1.8113 9:2.5818 10:2.6142 11:3.5627 12:5.1286 13:8.5634 14:3.6103 15:1.3072 16:-6.7184 17:-0.40803 18:-4.1143 19:-3.9041 20:-3.5075 21:-0.072713 22:0.4599 23:0.21374 24:0.10869 25:-5.1901 
-0.26360696142272544 1:-2.1844 2:-2.8064 3:-3.5668 4:-3.9724 5:-2.5924 6:-1.2328 7:0.68703 8:0.8597 9:-0.93295 10:-0.75366 11:-0.53594 12:-0.38524 13:-2.2813 14:-0.52243 15:1.908 16:2.8258 17:2.1099 18:2.1217 19:2.4065 20:3.7127 21:3.2198 22:3.9174 23:0.57209 24:-2.3303 25:-1.3955 
-0.09074064527349529 1:4.8805 2:3.3178 3:0.01964 4:-2.9668 5:-8.9086 6:-9.2323 7:-12.188 8:-8.4521 9:-5.0749 10:-4.1234 11:-0.75699 12:1.6048 13:1.1416 14:1.3729 15:0.80932 16:1.1854 17:1.9694 18:3.6618 19:1.5458 20:3.2193 21:4.5228 22:1.0363 23:-2.2325 24:-1.242 25:4.1102 
-0.09060835936747447 1:-0.70421 2:-1.9142 3:-11.1318 4:-10.7007 5:7.365 6:0.4259 7:2.0596 8:5.164 9:3.4274 10:2.627 11:3.1 12:3.0073 13:0.63594 14:-1.4529 15:-3.7696 16:-6.3704 17:-7.951 18:-6.3695 19:6.4109 20:-0.6674 21:0.45116 22:4.2983 23:4.2782 24:2.8962 25:1.5162 
-0.0895305207831535 1:-3.5875 2:-11.2383 3:-6.0707 4:-0.27338 5:0.51325 6:4.3196 7:3.4802 8:2.1621 9:2.1782 10:2.0173 11:1.388 12:1.8384 13:-1.1866 14:-1.895 15:-8.3416 16:-7.2592 17:2.3827 18:3.4977 19:2.0717 20:4.0653 21:2.7682 22:2.5172 23:1.8809 24:1.6587 25:0.77096 
-0.08842725051163122 1:-6.9796 2:3.9394 3:1.2599 4:0.12138 5:3.771 6:2.0995 7:3.4192 8:3.0572 9:2.5998 10:1.5953 11:-1.4869 12:0.34225 13:-5.2899 14:-8.6506 15:-0.2318 16:0.72616 17:2.6629 18:1.552 19:2.9423 20:2.2299 21:2.1092 22:2.5422 23:2.3122 24:-0.05529 25:-10.5881 
-0.09005242552530797 1:0.039203 2:1.8946 3:0.81354 4:4.3912 5:3.7288 6:2.0539 7:2.3004 8:-0.86673 9:-1.2787 10:2.8553 11:2.4102 12:-11.9272 13:-9.5803 14:1.4083 15:1.0039 16:3.139 17:1.8609 18:1.4894 19:2.8658 20:3.6502 21:1.0715 22:-1.0677 23:0.4229 24:-0.63395 25:-8.5926 
-0.09054115465977233 1:0.58299 2:2.0522 3:3.2975 4:1.5806 5:1.5929 6:2.5949 7:0.21394 8:-2.7526 9:0.84738 10:-2.0088 11:-12.1022 12:-5.4059 13:0.34298 14:1.3219 15:2.8837 16:4.1869 17:2.4522 18:1.8636 19:1.7718 20:1.261 21:-1.7711 22:-0.30895 23:0.27089 24:-11.231 25:0.92948 
-0.08911409896433342 1:2.481 2:2.6016 3:1.1522 4:2.332 5:2.3673 6:-0.28882 7:-0.42581 8:0.23531 9:-6.9846 10:-8.238 11:3.4062 12:1.8163 13:2.1905 14:3.06 15:2.6943 16:0.96388 17:2.6062 18:3.8372 19:0.12852 20:-0.35357 21:2.0497 22:-6.6158 23:-13.1201 24:-2.5836 25:6.8103 
-0.08932965928783679 1:-2.081 2:4.4747 3:2.7461 4:2.8691 5:0.32086 6:1.1448 7:-0.8409 8:-9.7942 9:-4.2986 10:-0.059484 11:2.5965 12:2.8699 13:1.9737 14:2.2927 15:1.1557 16:1.8321 17:2.3006 18:0.48524 19:-1.1752 20:-0.035774 21:-5.5187 22:-8.6852 23:-2.4266 24:2.7463 25:6.5594 
-0.47761352255806316 1:1.1175 2:-0.029426 3:1.0419 4:0.023267 5:1.689 6:0.8904 7:0.012519 8:-0.055035 9:-0.76725 10:-0.31943 11:0.11908 12:0.28611 13:2.4364 14:1.0779 15:0.56377 16:0.9695 17:0.48565 18:-0.98123 19:1.6187 20:1.647 21:-5.9233 22:1.8804 23:1.7971 24:-1.969 25:0.3886 
-0.09102606277539721 1:2.5222 2:1.2437 3:2.1896 4:2.5331 5:-3.84 6:-4.1104 7:-3.0199 8:-8.5824 9:-5.3673 10:4.9823 11:-2.546 12:0.37614 13:5.566 14:3.6179 15:1.7984 16:1.6258 17:3.1662 18:2.306 19:-2.6162 20:-3.6148 21:-10.2969 22:-14.3248 23:-7.8875 24:-4.2627 25:6.6877 
-0.08681503436177689 1:2.2791 2:-0.85018 3:-3.1752 4:-1.6476 5:-0.35223 6:-5.4441 7:-0.70303 8:0.61091 9:0.22219 10:0.59584 11:3.6449 12:1.2732 13:0.81682 14:0.54431 15:1.1364 16:2.4931 17:-2.9379 18:1.3648 19:-4.1591 20:-9.005 21:1.9307 22:-1.095 23:2.1858 24:2.19 25:2.0739 
-0.09085676412635943 1:0.35897 2:0.90102 3:-2.8594 4:-12.9339 5:-4.3337 6:3.1356 7:0.73388 8:-0.14151 9:2.1724 10:2.6433 11:1.7559 12:1.3506 13:1.5787 14:0.79703 15:-3.7081 16:1.2519 17:-7.4359 18:-12.8242 19:2.0333 20:1.3126 21:-2.6168 22:1.6811 23:1.3853 24:0.54375 25:-1.0089 
-0.08614736720222284 1:-6.5568 2:-5.4483 3:-2.3986 4:1.8261 5:0.76583 6:2.9201 7:2.8788 8:2.228 9:3.186 10:1.7266 11:-0.65577 12:0.72581 13:0.66207 14:-3.1428 15:-13.5303 16:-6.4328 17:-0.57813 18:1.0609 19:1.6531 20:3.7063 21:0.80434 22:3.4458 23:3.1622 24:1.4337 25:-1.0553 
-0.07837700087625753 1:-0.97867 2:-1.4451 3:1.8748 4:0.55222 5:3.2245 6:2.0808 7:1.9319 8:0.091075 9:-1.3122 10:-1.3777 11:0.39634 12:-2.4327 13:-9.6898 14:-4.0838 15:1.6245 16:0.67947 17:0.9064 18:2.0101 19:3.1965 20:1.877 21:2.2096 22:1.6805 23:-1.6687 24:-0.31446 25:-6.6353 
-0.0858971521997725 1:2.4848 2:2.6332 3:2.1525 4:2.529 5:1.3264 6:-1.0487 7:-1.8227 8:1.0161 9:-5.4631 10:-6.3899 11:-5.5635 12:0.15335 13:4.8741 14:-0.90801 15:5.0056 16:0.25879 17:2.486 18:-0.42989 19:0.6742 20:3.6707 21:0.11627 22:0.67657 23:0.53691 24:-6.2015 25:3.5412 
-0.07467583679923376 1:1.9048 2:1.0566 3:1.1041 4:1.1155 5:0.22926 6:-4.3864 7:-6.3167 8:0.73454 9:-1.8944 10:-0.032751 11:3.0076 12:3.1025 13:1.0679 14:1.9216 15:3.8412 16:0.51177 17:-1.7014 18:-0.018613 19:-0.65733 20:-6.0363 21:-4.1841 22:1.4585 23:-2.5326 24:-0.15268 25:0.17261 
-0.08561426524238935 1:-0.064733 2:-1.4902 3:-5.5157 4:-5.723 5:1.318 6:-2.6946 7:0.56777 8:3.7368 9:2.8359 10:0.7921 11:-0.30356 12:1.4584 13:0.92854 14:1.0222 15:2.2114 16:2.8197 17:-3.5966 18:-7.5398 19:-0.29761 20:-2.3144 21:-0.78755 22:5.2408 23:2.7005 24:1.7289 25:0.54941 
-0.0892545848857456 1:2.9451 2:-0.68699 3:1.7956 4:2.6137 5:1.7857 6:-0.80652 7:0.19034 8:2.5515 9:0.81175 10:-2.5678 11:0.51311 12:3.0228 13:-5.2211 14:-9.6468 15:-1.713 16:0.18659 17:-0.63594 18:3.4716 19:3.7731 20:2.5327 21:2.3036 22:-1.3546 23:-1.8978 24:-1.5567 25:-3.5611 
-0.08697682060233371 1:2.1552 2:5.7644 3:2.6673 4:0.27437 5:3.6168 6:2.1316 7:-0.020696 8:2.1928 9:0.8599 10:-2.5699 11:-8.672 12:0.33734 13:-1.4291 14:0.3618 15:3.3157 16:2.1355 17:1.7651 18:1.4267 19:1.1795 20:0.29245 21:-2.3943 22:-1.496 23:-1.4682 24:-4.0657 25:-3.2731 
-0.09072918322943527 1:2.0427 2:2.4327 3:1.735 4:-1.0687 5:-0.25678 6:1.6832 7:-6.2066 8:-9.0159 9:-5.7838 10:3.8726 11:-0.25992 12:-1.1084 13:2.5538 14:1.4301 15:1.6816 16:3.7776 17:2.1592 18:-0.87686 19:1.7872 20:0.67995 21:-12.4282 22:-8.9125 23:2.7724 24:-2.6976 25:2.8813 
-0.08244550348437824 1:2.9463 2:0.3777 3:0.60773 4:1.0376 5:-6.806 6:-8.0464 7:-2.602 8:0.41659 9:-0.066404 10:1.2456 11:3.3591 12:1.6301 13:0.73017 14:1.9338 15:0.44043 16:-0.29335 17:2.1928 18:1.6424 19:-8.2328 20:-5.5818 21:-2.7304 22:-0.41728 23:-1.6929 24:3.7162 25:2.6755 
-0.08849720348332152 1:-1.3904 2:-1.0232 3:-4.0864 4:-9.2215 5:2.4134 6:-3.3022 7:-1.7094 8:3.8811 9:1.8165 10:2.178 11:2.8265 12:2.5799 13:-0.31186 14:0.13255 15:1.3141 16:0.31055 17:-9.3221 18:-4.8645 19:0.74966 20:-1.6829 21:1.8615 22:2.6413 23:1.3925 24:0.35781 25:-0.42565 
-0.08907782069023401 1:-13.1613 2:-6.3551 3:-0.27609 4:-1.118 5:4.3501 6:2.5774 7:0.076139 8:1.6366 9:1.496 10:-0.65376 11:-0.75739 12:1.4398 13:-0.058905 14:-2.9342 15:-6.6133 16:0.70348 17:-1.4488 18:-0.065856 19:3.5929 20:2.2283 21:2.9664 22:2.127 23:2.5057 24:1.6904 25:1.1065 
-0.08748963142256752 1:-1.553 2:2.864 3:3.4601 4:1.3948 5:0.95822 6:1.1332 7:3.0681 8:0.80775 9:2.3999 10:-0.56164 11:-10.0272 12:-9.0371 13:1.4251 14:-1.2652 15:-2.3781 16:2.6517 17:5.134 18:1.1603 19:0.59623 20:3.0818 21:2.8525 22:0.2931 23:0.22429 24:2.3338 25:1.9125 
-0.07698183904471938 1:3.3212 2:0.88249 3:1.8699 4:2.0247 5:0.39846 6:-0.34607 7:0.39683 8:-0.7935 9:-6.2514 10:-3.2419 11:1.0683 12:-1.6565 13:1.4695 14:5.6569 15:2.2344 16:0.92927 17:1.7111 18:1.5658 19:-0.71062 20:-1.1626 21:-1.2028 22:-6.8795 23:-8.6301 24:-2.6629 25:3.4095 
-0.10349111496542371 1:1.36 2:-0.65928 3:-1.0686 4:3.1209 5:0.36345 6:-1.2362 7:2.373 8:-2.0911 9:0.097805 10:3.3683 11:-0.72764 12:-2.7842 13:6.7135 14:-2.0936 15:0.13751 16:-1.1088 17:0.51407 18:1.183 19:-1.84 20:-1.7934 21:-4.2142 22:-0.41526 23:-4.4338 24:0.04969 25:0.59052 
-0.09101901133450054 1:2.6788 2:2.3126 3:3.2757 4:2.3393 5:-1.308 6:-4.1657 7:-3.2374 8:-9.5105 9:-6.2632 10:1.0187 11:0.45893 12:2.9519 13:3.9212 14:1.1354 15:4.2674 16:5.3753 17:1.6979 18:-8.2569 19:-4.2008 20:-5.9092 21:-9.2324 22:-9.1246 23:-6.5318 24:-1.7632 25:0.69018 
-0.08632929235587573 1:-0.086957 2:0.48204 3:-3.5043 4:-7.179 5:-7.3636 6:-3.2274 7:0.13012 8:3.45 9:-0.051942 10:3.3669 11:2.7734 12:0.3963 13:5.0281 14:2.2603 15:2.1096 16:-1.4907 17:-2.5153 18:-1.7468 19:-5.5792 20:-7.4806 21:0.90066 22:0.36748 23:3.3913 24:3.7923 25:1.4013 
-0.08630229821867243 1:-2.1629 2:0.95327 3:0.19562 4:2.0013 5:2.957 6:1.3589 7:2.7739 8:0.76391 9:0.80346 10:2.4219 11:-2.3374 12:-4.0493 13:-2.5761 14:-9.9324 15:-5.408 16:4.4247 17:0.16789 18:0.63588 19:3.0116 20:3.1642 21:2.2725 22:3.796 23:2.2684 24:0.26952 25:-7.0979 
-0.09031218479691339 1:2.2477 2:1.3044 3:1.7863 4:2.9334 5:-1.6072 6:-2.8388 7:0.68051 8:-1.6449 9:-9.6481 10:-6.2785 11:4.2265 12:-1.2333 13:-2.6411 14:2.2418 15:4.2807 16:1.0273 17:0.49371 18:1.028 19:2.3302 20:0.8254 21:-2.8297 22:-0.96881 23:-1.4914 24:-8.9861 25:2.9143 
-0.08623795864945953 1:3.0752 2:-1.2268 3:0.045666 4:-0.25783 5:-11.3249 6:-7.7166 7:2.4145 8:-1.3365 9:0.51813 10:3.3243 11:2.8223 12:0.3141 13:2.7156 14:2.0479 15:-0.79157 16:-0.68934 17:0.10891 18:-0.34038 19:-7.8324 20:-5.2702 21:0.35062 22:1.2629 23:0.97099 24:2.6732 25:2.2308 
-0.08104203732539242 1:-1.5326 2:-7.5653 3:-5.6107 4:2.0906 5:0.69708 6:-0.022339 7:2.8146 8:3.388 9:2.0996 10:-1.1038 11:1.2096 12:0.43055 13:0.9651 14:-0.45978 15:-0.88104 16:-4.6753 17:-5.3196 18:-2.3536 19:2.5197 20:2.6829 21:2.987 22:2.7335 23:1.5995 24:1.9739 25:0.65101 
-0.08803120166484371 1:-3.2967 2:-3.0326 3:2.3526 4:7.9519 5:0.13826 6:1.7904 7:1.8336 8:2.6818 9:-0.074162 10:-2.3722 11:-0.20368 12:-1.2166 13:-7.7399 14:-5.4278 15:2.6883 16:-0.59856 17:-0.35764 18:2.9847 19:3.4275 20:1.8387 21:2.0443 22:3.291 23:-1.2974 24:-2.3015 25:-5.6916 
-0.1493190615030917 1:0.74278 2:-1.3967 3:0.17464 4:-3.0494 5:0.010024 6:-1.7241 7:1.3036 8:-2.37 9:-0.29524 10:1.0025 11:0.61784 12:0.66044 13:-1.9596 14:-0.62696 15:5.9657 16:-0.54085 17:2.2719 18:5.773 19:3.5917 20:2.6185 21:-1.326 22:-1.546 23:0.056349 24:-1.8477 25:1.5814 
-0.10277918165859058 1:-1.3702 2:-2.2146 3:-3.8976 4:-1.0122 5:1.8648 6:0.87257 7:0.3661 8:-0.64552 9:-2.1327 10:-3.4935 11:-5.301 12:-6.6203 13:-5.7655 14:-3.4913 15:-0.5909 16:0.89153 17:2.3205 18:2.5802 19:1.6601 20:0.10524 21:0.20479 22:0.31626 23:0.038391 24:-0.19873 25:-0.13508 
-0.09397177155781178 1:3.1766 2:-3.0428 3:-0.95299 4:2.6512 5:-1.6607 6:0.18788 7:7.3083 8:2.6957 9:2.0475 10:-0.40131 11:0.30767 12:-6.5317 13:-10.4523 14:-12.1222 15:-6.1457 16:-7.8991 17:-2.7605 18:-0.7963 19:1.1209 20:0.028824 21:-0.096747 22:0.066658 23:-1.327 24:1.5251 25:-0.24736 
-0.14218157968922454 1:-0.91475 2:0.46312 3:0.46769 4:2.1381 5:-0.3271 6:-0.99299 7:-1.3304 8:-3.3458 9:-3.7996 10:-5.2865 11:-4.9078 12:-5.0768 13:-3.088 14:0.39575 15:1.666 16:0.75918 17:1.8097 18:1.4963 19:-0.07136 20:-0.67345 21:1.9073 22:0.3337 23:-1.3266 24:5.7584 25:0.52655 
-0.09110938732215706 1:0.26386 2:0.059832 3:3.7281 4:3.9314 5:-3.0506 6:-2.3528 7:4.4893 8:8.9908 9:3.2738 10:5.5214 11:2.2686 12:-5.258 13:-5.6896 14:-13.3188 15:-15.4242 16:-7.4673 17:-4.3027 18:-2.8429 19:-0.33083 20:0.75355 21:0.68877 22:-0.11303 23:-1.0787 24:-0.85871 25:-2.4376 
-0.09119525364576712 1:-5.7436 2:-14.2835 3:-9.1101 4:-0.38932 5:0.81812 6:1.8319 7:3.5384 8:0.69801 9:3.9207 10:4.0647 11:1.606 12:1.2638 13:2.9614 14:2.4592 15:-6.1735 16:-8.1531 17:-10.6969 18:-11.1408 19:-14.061 20:-7.5998 21:-2.7075 22:-0.85337 23:1.2132 24:-1.0525 25:-9.5627 
-0.07592725096430933 1:-0.89708 2:2.7064 3:0.60092 4:0.28973 5:0.65803 6:0.44065 7:-1.9196 8:-3.5757 9:-0.3306 10:-6.1835 11:-8.1074 12:-7.1311 13:-1.2149 14:1.7701 15:2.1373 16:1.5699 17:2.4964 18:4.333 19:2.5987 20:1.5267 21:1.9824 22:1.6324 23:-0.61867 24:-4.6846 25:-1.1693 
-0.09003172897696105 1:0.39568 2:2.372 3:-1.4457 4:1.755 5:-3.8793 6:-6.9393 7:-7.0628 8:-0.26775 9:-0.81394 10:0.77352 11:-0.65786 12:5.4994 13:1.3947 14:2.4003 15:0.74949 16:0.026782 17:0.30944 18:-2.1288 19:-2.064 20:-6.7657 21:-9.3789 22:0.34405 23:0.019825 24:-0.17613 25:-6.3927 
-0.10038876063058097 1:-0.0302 2:-0.47206 3:1.1452 4:-0.22831 5:0.46676 6:-0.77042 7:-0.17921 8:0.81123 9:-1.0322 10:1.6035 11:-0.79372 12:-1.5738 13:0.65629 14:2.2537 15:0.99245 16:-0.18697 17:-1.0247 18:-0.90013 19:2.7249 20:2.9087 21:-5.2314 22:0.75693 23:8.3383 24:-1.9144 25:0.15567 
-1.0 1:-0.48815 2:-0.51403 3:-0.78885 4:-2.0493 5:0.11413 6:1.1091 7:1.0428 8:-0.40938 9:1.5137 10:1.0662 11:0.44763 12:-0.34648 13:-1.6578 14:-2.8217 15:-0.41913 16:-0.23037 17:-1.5247 18:-1.6403 19:-0.5731 20:0.95033 21:1.3652 22:1.6537 23:0.39074 24:0.19327 25:-0.38232 
-0.09294912460225534 1:-1.3584 2:-1.3215 3:0.45389 4:0.4903 5:0.060308 6:2.0715 7:4.2044 8:6.3144 9:7.0045 10:-1.0176 11:2.2513 12:-3.5506 13:-4.0971 14:-9.3363 15:-7.3837 16:-7.6386 17:-7.8927 18:-5.1781 19:-1.7094 20:-0.82156 21:-0.42994 22:-1.6403 23:-2.1368 24:-0.89832 25:-2.1496 
-0.09095854098571697 1:3.7502 2:2.3656 3:-1.3548 4:-0.68266 5:-1.9147 6:-3.8632 7:-5.8854 8:-3.7438 9:-7.6018 10:-7.1875 11:-4.0608 12:-1.848 13:0.22989 14:3.3028 15:3.1569 16:2.7028 17:1.4519 18:6.112 19:4.9341 20:-7.4385 21:-3.8445 22:-4.9449 23:-14.4574 24:-7.7238 25:2.7784 
-0.09079109900857 1:3.1086 2:-0.31326 3:-3.6816 4:2.2645 5:-5.7074 6:-9.6173 7:-6.5055 8:5.8369 9:-0.51365 10:-0.21661 11:3.4948 12:2.0769 13:1.5823 14:0.055587 15:-0.33597 16:-0.90309 17:-2.0787 18:-1.0092 19:-3.5777 20:-6.9534 21:-6.6803 22:1.1874 23:3.5661 24:1.1762 25:3.0835 
-0.12570003677859498 1:-1.5652 2:0.82137 3:0.071068 4:-1.0542 5:4.4971 6:5.3891 7:0.13919 8:3.3873 9:3.2071 10:1.861 11:-0.55891 12:0.97539 13:-0.17555 14:-1.3226 15:-0.68117 16:-4.3542 17:-4.971 18:-4.9581 19:1.6353 20:-1.3597 21:-2.9676 22:2.1315 23:3.1848 24:1.6238 25:-0.96215 
-0.09058650130143418 1:-1.0176 2:1.7398 3:1.7355 4:5.7812 5:1.6765 6:-0.16202 7:-0.10578 8:-2.508 9:-5.1888 10:-6.6921 11:-8.5787 12:-6.6567 13:-3.8223 14:-4.1088 15:3.1472 16:1.5891 17:0.86186 18:5.8341 19:5.11 20:2.3749 21:2.6415 22:5.2281 23:-6.0661 24:-4.7314 25:-0.4604 
-0.08997705975169869 1:1.3491 2:-0.8021 3:-0.021569 4:1.6832 5:-3.0331 6:-1.9366 7:-3.256 8:-9.0847 9:-6.4546 10:4.1744 11:0.75615 12:-0.70435 13:2.1165 14:2.8899 15:1.4184 16:1.1241 17:0.024631 18:-1.7134 19:-1.2084 20:-3.1952 21:-2.3987 22:-5.5621 23:-6.9858 24:-3.7648 25:1.9448 
-0.07123186979254736 1:-1.1916 2:-1.7141 3:-1.5276 4:-1.1811 5:-6.9288 6:-6.6401 7:-1.0297 8:-0.52745 9:-0.011108 10:2.8253 11:2.1643 12:2.0552 13:2.3332 14:1.6721 15:-1.6909 16:-2.1675 17:-0.84754 18:-3.5824 19:-7.605 20:-5.5044 21:1.1572 22:-0.32335 23:-1.5016 24:3.4093 25:0.52565 
-0.07340586404220507 1:-7.7523 2:-4.6883 3:-2.0651 4:1.0309 5:-0.077216 6:1.193 7:3.9795 8:2.0624 9:2.0743 10:4.4014 11:1.6518 12:-1.5324 13:-1.3317 14:-5.269 15:-8.2374 16:-6.3441 17:0.27941 18:-1.3679 19:-0.32229 20:1.9652 21:1.9046 22:1.7091 23:2.2343 24:-0.2073 25:-7.9741 
-0.051823494545772064 1:1.4253 2:2.2182 3:1.6583 4:2.3301 5:0.035705 6:0.093931 7:-2.6138 8:-4.7152 9:-5.9056 10:-7.3329 11:-5.9208 12:-2.3622 13:0.67007 14:1.1104 15:0.55094 16:2.0917 17:2.8371 18:2.7025 19:2.4872 20:1.0777 21:0.97231 22:-1.1246 23:-0.55809 24:-4.2808 25:1.1025 
-0.09121739169576648 1:-1.5663 2:0.17017 3:1.232 4:1.2975 5:0.89843 6:0.77752 7:0.73036 8:-0.23807 9:0.32081 10:1.0429 11:0.89146 12:-0.84126 13:8.7981 14:-3.9009 15:2.6578 16:-0.83579 17:-3.3157 18:-2.9758 19:-6.3106 20:-6.1124 21:-2.7209 22:-2.4481 23:-6.1449 24:2.4631 25:-0.088474 
-0.8458914553839245 1:-0.84783 2:1.5356 3:1.9442 4:0.14091 5:-1.0871 6:0.15978 7:0.11946 8:-1.2654 9:-3.3884 10:-2.7832 11:-4.2815 12:-4.4617 13:-4.5542 14:-3.386 15:-1.432 16:-1.2596 17:-1.1495 18:-0.68154 19:-0.60412 20:0.047892 21:0.52993 22:0.73597 23:0.84516 24:0.022615 25:-0.35575 
-0.0916588632934281 1:-2.7671 2:-1.1155 3:2.2006 4:4.6448 5:2.1851 6:0.87071 7:-0.61876 8:-0.24146 9:1.4385 10:-2.5238 11:-4.6937 12:-5.0723 13:-10.8901 14:-11.7652 15:-9.4019 16:-6.0857 17:-7.18 18:-4.108 19:-1.0088 20:-0.33293 21:0.48509 22:-1.3598 23:-0.29926 24:-0.38353 25:-3.1721 
-0.08787913149381082 1:2.5289 2:1.5481 3:1.1656 4:0.48976 5:-1.4876 6:-3.8299 7:-4.6763 8:-8.5698 9:-6.6998 10:-6.5181 11:0.43111 12:-1.3291 13:-1.3482 14:0.27727 15:3.3033 16:1.8664 17:0.38532 18:0.087469 19:-0.69294 20:-5.6164 21:-4.4453 22:-6.6943 23:-7.8391 24:-7.7146 25:2.7595 
-0.08989562272616407 1:0.88736 2:-4.2471 3:0.74809 4:-2.2934 5:-9.1128 6:-5.7805 7:1.7078 8:-0.40245 9:0.72272 10:4.1642 11:1.9977 12:0.53579 13:1.7081 14:0.99581 15:0.68535 16:-2.0475 17:-6.4047 18:-8.4275 19:-9.7442 20:-5.6354 21:-4.7093 22:1.7906 23:-1.0453 24:1.5981 25:0.60195 
-0.0940203344719888 1:3.8377 2:-0.87658 3:3.4586 4:2.1401 5:0.036526 6:2.711 7:10.7357 8:0.25329 9:-4.4501 10:-3.4165 11:-2.5472 12:-3.0802 13:-2.6798 14:-2.9646 15:-5.4778 16:-3.6418 17:-4.7736 18:1.1529 19:0.043409 20:-0.93149 21:1.004 22:2.7845 23:1.4557 24:0.59843 25:1.1703 
-0.08981964917031471 1:2.9115 2:4.7168 3:2.0039 4:-0.21593 5:-0.12019 6:1.8854 7:-3.4721 8:-4.8685 9:0.9796 10:-8.6713 11:-7.5068 12:-3.6744 13:0.18603 14:0.20564 15:-1.9752 16:2.3111 17:4.9571 18:2.979 19:0.92013 20:0.35849 21:-3.3211 22:-6.4905 23:-5.5726 24:-8.3586 25:-0.95834 
-0.0908583050099195 1:0.31232 2:-0.20527 3:-1.8826 4:-4.2798 5:-11.1064 6:-8.8738 7:-6.6135 8:-0.12004 9:0.53961 10:-2.1951 11:0.32109 12:5.3223 13:3.0653 14:-0.30525 15:0.1073 16:1.6662 17:-1.6753 18:-2.1747 19:-3.6075 20:-11.2225 21:-6.7299 22:-4.1932 23:-0.71761 24:-4.272 25:1.9175 
-0.08780289947843849 1:-9.7822 2:-7.0632 3:-3.2695 4:-3.1789 5:-4.2493 6:0.5559 7:5.0762 8:3.0684 9:2.1052 10:1.9997 11:1.3699 12:1.0583 13:-3.0336 14:-7.4466 15:-7.0731 16:-7.9132 17:-2.6723 18:-2.2537 19:-0.22256 20:0.20793 21:3.726 22:4.321 23:4.163 24:0.93425 25:-7.5171 
-0.0695993551697023 1:1.3259 2:2.2572 3:3.9089 4:0.63954 5:1.3409 6:1.4948 7:1.6979 8:0.31242 9:-0.62889 10:-4.4343 11:-8.1899 12:-5.7788 13:-5.4187 14:-3.2925 15:-1.1304 16:1.1448 17:3.9269 18:0.45501 19:0.70339 20:5.4087 21:1.7147 22:1.2819 23:-1.0801 24:-3.302 25:-0.17096 
-0.08964084563794075 1:1.6655 2:1.5456 3:1.2222 4:1.6817 5:1.1431 6:-3.4038 7:-8.2061 8:-7.4287 9:-6.2671 10:-2.8585 11:-2.2038 12:-0.63581 13:3.8221 14:3.5427 15:1.4271 16:2.7799 17:1.3317 18:0.7037 19:0.40806 20:-1.4755 21:-1.3362 22:-10.8151 23:-9.5811 24:-8.1066 25:2.0006 
-0.09061344552323888 1:0.31516 2:0.86366 3:0.66464 4:-10.3871 5:-8.2183 6:-7.7553 7:-2.8551 8:-0.26493 9:1.5286 10:5.2354 11:3.0115 12:2.6477 13:2.9859 14:-0.6501 15:-0.75661 16:-2.3038 17:-0.44894 18:-5.9864 19:-9.0655 20:-9.4261 21:0.084519 22:0.43246 23:-1.6268 24:2.2191 25:3.193 
-0.08603542811056515 1:-8.0913 2:-6.856 3:-2.9325 4:-1.0219 5:1.5345 6:4.7261 7:4.2765 8:2.169 9:2.7908 10:1.9439 11:0.21638 12:-0.7363 13:-1.4127 14:-3.1133 15:-7.6397 16:-7.9543 17:-5.8111 18:-4.45 19:1.1456 20:1.6923 21:1.9271 22:2.5381 23:3.2757 24:2.5208 25:-8.3131 
-0.06367199586398092 1:2.5317 2:3.9433 3:2.9109 4:2.3124 5:1.8345 6:-0.50889 7:-0.22914 8:-0.14322 9:-7.2352 10:-7.3969 11:-4.7442 12:-4.2196 13:-3.2841 14:1.321 15:1.9298 16:1.4968 17:3.1172 18:2.2067 19:1.1896 20:0.24745 21:-0.67686 22:-0.75918 23:-0.46282 24:-5.5657 25:0.01546 
-0.08708325602726265 1:1.3285 2:0.51335 3:-6.0281 4:-6.4687 5:-6.5794 6:-3.8743 7:-1.2755 8:-1.4808 9:-1.6069 10:2.7968 11:2.1232 12:1.6252 13:0.95479 14:1.7867 15:-0.10993 16:0.50038 17:-0.79074 18:-4.4729 19:-6.5388 20:-4.1588 21:-5.1375 22:-3.7148 23:-3.059 24:-0.092645 25:0.77259 
-0.06805629499195597 1:-6.0498 2:-2.7331 3:-2.9456 4:0.1646 5:2.4116 6:2.2863 7:1.7396 8:0.76654 9:2.7508 10:-2.2965 11:0.80877 12:-2.1363 13:-6.3202 14:-5.6851 15:-4.3758 16:-2.2364 17:-1.0615 18:0.43154 19:1.9988 20:2.9617 21:3.2332 22:3.7027 23:2.3656 24:2.8447 25:-5.0491 
-0.08763073473521825 1:2.9599 2:2.5458 3:3.2652 4:1.4901 5:1.7963 6:1.7729 7:-0.21031 8:-0.47147 9:-3.2786 10:-8.4713 11:-6.113 12:-5.9252 13:-1.0764 14:2.6147 15:2.1304 16:1.4437 17:1.5527 18:1.6913 19:2.8063 20:1.5242 21:-1.6284 22:-8.5913 23:-7.8566 24:-7.0894 25:3.9476 
-0.059000296789660726 1:1.1214 2:0.14272 3:-1.8385 4:-0.97891 5:-3.0714 6:-6.2151 7:-4.7485 8:-3.7403 9:-1.3609 10:-0.31082 11:1.8194 12:3.4965 13:2.562 14:3.0699 15:2.2863 16:1.9893 17:-0.39237 18:0.88075 19:-4.2811 20:-4.9104 21:-7.3001 22:-4.0773 23:-0.88998 24:-0.89533 25:1.7965 
-0.06514241339539867 1:-4.8792 2:-3.1712 3:-5.1334 4:-4.1654 5:-5.1115 6:-1.0503 7:-0.21574 8:2.2066 9:3.2627 10:2.5315 11:1.7988 12:0.70945 13:-0.99092 14:-0.96582 15:-2.0888 16:-3.8236 17:-7.0319 18:-5.2426 19:-3.7262 20:-0.51323 21:-0.01823 22:2.4612 23:3.0116 24:2.614 25:-4.8168 
-0.07846352234555728 1:-1.884 2:-1.4229 3:-0.11462 4:0.82022 5:2.6083 6:3.2091 7:2.0961 8:-0.43438 9:-1.7508 10:-3.7737 11:-2.5968 12:-4.1058 13:-6.0994 14:-4.235 15:-4.5944 16:-3.1399 17:-2.0153 18:1.8332 19:3.1185 20:1.7497 21:1.6152 22:0.40735 23:-0.46451 24:-1.592 25:-4.6476 
-0.0714985636550659 1:0.14831 2:2.8393 3:2.1351 4:-0.046344 5:0.73397 6:-1.1054 7:-1.2681 8:-2.9108 9:-6.3192 10:-5.659 11:-6.5106 12:-1.9111 13:-2.1953 14:0.20791 15:3.4333 16:3.503 17:1.3617 18:-0.42125 19:-0.82897 20:-0.85945 21:-0.046238 22:-0.5905 23:-2.9394 24:-4.083 25:-1.2876 
-0.08852323734727013 1:0.17829 2:-1.1201 3:-2.2514 4:-5.8416 5:-3.6882 6:-5.9354 7:-4.4361 8:-7.0082 9:-0.16327 10:0.20227 11:-0.19498 12:0.65522 13:1.4587 14:1.6686 15:1.7107 16:0.65211 17:-3.5309 18:-7.3233 19:-3.6378 20:-5.4533 21:-3.688 22:-5.9982 23:-0.42453 24:0.51615 25:2.4949 
-0.056915463247822616 1:-3.5898 2:-4.2136 3:-4.7608 4:-2.9034 5:-3.739 6:-2.904 7:-1.1201 8:1.0751 9:3.4447 10:3.749 11:2.4918 12:1.5659 13:0.054198 14:-0.13261 15:-5.0004 16:-4.3525 17:-4.5863 18:-3.8187 19:-4.5469 20:-2.6276 21:-1.0966 22:1.4241 23:2.6681 24:3.5109 25:-1.2328 
-0.08957542444381231 1:-9.1181 2:-5.8095 3:-1.5567 4:0.43735 5:0.8721 6:1.9728 7:3.2182 8:2.1265 9:0.99891 10:-1.0933 11:-0.83014 12:-4.4758 13:-8.3759 14:-7.5673 15:-7.4772 16:-4.5384 17:-2.3432 18:1.8684 19:3.3532 20:-0.57399 21:2.8678 22:1.7526 23:-0.022362 24:-0.84622 25:-8.8333 
-0.08944625097130571 1:0.14371 2:1.2979 3:0.78573 4:1.1872 5:-0.97544 6:-1.0267 7:0.47943 8:-2.2378 9:-6.1432 10:-9.5862 11:-9.6003 12:-4.6552 13:-9.5444 14:1.4016 15:-0.16198 16:0.3012 17:1.1054 18:1.4027 19:0.38669 20:-0.066396 21:1.6132 22:-0.71915 23:-2.0632 24:-5.8077 25:-0.56302 
-0.09120879667122922 1:-4.0967 2:-8.8844 3:-6.1101 4:-2.8205 5:-1.833 6:-0.52725 7:3.2155 8:-1.2875 9:4.551 10:3.6662 11:3.4998 12:3.76 13:2.9555 14:-0.78816 15:-2.9483 16:-5.8581 17:-9.6988 18:-11.6361 19:-8.267 20:-5.3217 21:-3.3981 22:3.3481 23:0.60452 24:0.043488 25:1.0179 
-0.038638173198891894 1:-1.8132 2:2.5476 3:1.3314 4:-1.3123 5:2.686 6:3.8797 7:3.1129 8:1.8693 9:0.82082 10:-0.50158 11:-1.1534 12:-3.2959 13:-5.4734 14:-4.6676 15:-3.4617 16:0.26142 17:0.039711 18:1.4929 19:2.2112 20:1.7968 21:3.9946 22:2.7301 23:1.3725 24:1.7206 25:-3.8018 
-0.017405570279722678 1:0.069454 2:1.6052 3:3.8588 4:3.5319 5:2.8543 6:0.8506 7:-0.6525 8:-0.95377 9:-2.0084 10:-4.291 11:-3.419 12:-5.7213 13:-2.4497 14:0.45264 15:0.93921 16:0.42575 17:2.0717 18:2.6961 19:3.1076 20:2.0728 21:0.4177 22:-0.52223 23:-2.7387 24:-5.2281 25:1.1521 
-0.06855802733501587 1:2.4284 2:1.728 3:2.103 4:1.6896 5:-0.017334 6:-0.89482 7:-4.1265 8:-2.4909 9:-4.3798 10:-1.7835 11:3.1466 12:0.040919 13:-0.088765 14:2.2629 15:2.28 16:3.1078 17:3.7796 18:2.2926 19:-0.16856 20:-1.6079 21:-4.0485 22:-6.0389 23:-4.6855 24:-3.6614 25:3.0079 
-0.054433679492882386 1:1.2647 2:0.81695 3:-1.1508 4:-0.97008 5:-3.7915 6:-5.3177 7:-4.5188 8:-1.2856 9:1.7432 10:0.78568 11:2.946 12:2.0615 13:2.4768 14:3.2328 15:2.1069 16:0.40973 17:-0.35073 18:-1.3887 19:-3.5356 20:-6.2095 21:-3.2259 22:-1.2931 23:-1.0335 24:0.37571 25:1.0334 
-0.06750550193689453 1:-2.6994 2:-4.8015 3:-5.1096 4:-5.5318 5:-4.4773 6:0.50849 7:-2.6365 8:2.5799 9:3.4225 10:2.2187 11:1.8405 12:1.4277 13:0.61349 14:-0.28781 15:-1.0137 16:-4.2997 17:-6.6546 18:-5.0985 19:-0.28684 20:0.39192 21:-0.34553 22:2.5493 23:5.6189 24:1.4511 25:-0.9725 
-0.05244138449324859 1:-4.689 2:-2.391 3:1.7002 4:-0.21398 5:0.52529 6:4.0341 7:3.0767 8:2.0838 9:1.7184 10:2.3575 11:0.46039 12:-0.1614 13:-2.5472 14:-6.72 15:-5.067 16:-1.8771 17:1.9116 18:-0.43059 19:1.2102 20:5.018 21:2.8481 22:1.6809 23:1.6899 24:0.9637 25:-6.1169 
-0.034246369150494976 1:2.2732 2:5.2611 3:2.8462 4:1.4059 5:1.9705 6:0.94729 7:0.34883 8:-0.31619 9:-0.85384 10:-4.6353 11:-6.4741 12:-5.5783 13:-0.74448 14:-0.66401 15:-0.84714 16:2.5731 17:3.4133 18:2.0674 19:3.1754 20:2.0452 21:1.0846 22:0.1379 23:-1.0585 24:-3.9287 25:-1.3274 
-0.07926952196807915 1:0.51711 2:1.1875 3:0.05348 4:0.64786 5:-2.7123 6:-9.3729 7:-5.8676 8:-0.43087 9:-1.2727 10:-0.11317 11:0.058224 12:0.7531 13:2.2179 14:1.7472 15:2.1066 16:1.3401 17:0.75364 18:0.56932 19:0.81559 20:-3.1362 21:-6.8716 22:-5.905 23:-3.8969 24:1.5565 25:1.7997 
-0.04812578324150644 1:-2.6218 2:-4.5192 3:-3.1011 4:-2.6423 5:-3.1585 6:0.56353 7:0.16189 8:0.98689 9:2.0459 10:2.6635 11:1.0329 12:1.2141 13:0.7207 14:0.94742 15:-1.0445 16:-2.3278 17:-7.909 18:-3.4883 19:-1.5361 20:-0.3928 21:-0.25921 22:-0.2174 23:2.0908 24:2.4696 25:-0.81986 
-0.06041123316820114 1:-5.4486 2:-2.8881 3:2.6932 4:1.6604 5:1.3366 6:3.0077 7:2.2077 8:2.9675 9:1.5071 10:1.4659 11:0.027066 12:-0.089961 13:-1.5803 14:-3.9473 15:-7.0496 16:-7.3417 17:-0.56647 18:0.93755 19:1.0536 20:2.9399 21:2.7097 22:2.1608 23:1.4617 24:1.0757 25:-3.9995 
-0.08885064656505554 1:1.3422 2:1.507 3:2.7058 4:3.0472 5:3.5494 6:1.7656 7:0.88204 8:1.2059 9:1.2676 10:0.86565 11:-1.5768 12:-4.5451 13:-4.756 14:2.5587 15:4.4693 16:-2.4868 17:6.0014 18:3.1716 19:0.31006 20:-0.38582 21:-0.66395 22:-0.4644 23:-1.0472 24:-2.4226 25:-1.2838 
-0.054101238620655474 1:3.6946 2:3.5215 3:3.7401 4:2.7638 5:2.2821 6:0.49873 7:-0.35573 8:-1.2047 9:-4.2098 10:-6.391 11:-5.1254 12:0.47061 13:-0.41678 14:2.9001 15:2.5287 16:0.73355 17:2.1775 18:3.1738 19:2.4052 20:0.40548 21:-1.101 22:-3.5797 23:-5.8518 24:-5.7216 25:0.64728 
-0.038726833334429236 1:1.8592 2:2.2017 3:1.5397 4:-0.060083 5:-1.5939 6:-4.0213 7:-5.9953 8:-4.1725 9:1.453 10:0.99864 11:1.3175 12:2.6582 13:2.5541 14:0.67654 15:1.9899 16:2.0182 17:1.0555 18:0.4426 19:-0.74895 20:-3.6003 21:-6.36 22:-3.2139 23:0.10071 24:-0.39168 25:1.8225 
-0.04468135009458568 1:0.052448 2:-1.1408 3:-3.1475 4:-4.0353 5:-3.1519 6:-0.89718 7:-0.32264 8:1.2001 9:3.299 10:2.0994 11:1.607 12:2.1283 13:1.587 14:2.2698 15:0.75008 16:-0.89171 17:-2.6497 18:-6.5794 19:-4.062 20:-0.97376 21:2.2663 22:1.3819 23:3.9501 24:3.0363 25:0.24902 
-0.06556831296092439 1:-3.5092 2:-2.7184 3:-0.71103 4:1.6966 5:1.3204 6:3.3305 7:2.2458 8:1.3519 9:1.0971 10:2.209 11:1.8972 12:-0.095986 13:-1.2166 14:-1.9223 15:-4.4273 16:-6.3046 17:-1.794 18:-1.3628 19:-1.5844 20:3.6694 21:2.7352 22:2.444 23:1.5211 24:0.59254 25:-1.3664 
-0.16526210457101115 1:1.9078 2:-0.99379 3:2.3805 4:2.5781 5:1.2307 6:1.2717 7:0.35983 8:-0.41101 9:-1.6782 10:-2.1591 11:-3.5593 12:-5.6116 13:-3.6087 14:0.47043 15:0.087464 16:0.20328 17:2.0695 18:3.3506 19:1.839 20:1.5291 21:1.0786 22:0.78786 23:-0.25767 24:-1.088 25:1.0809 
-0.06599510051098648 1:4.1328 2:0.60277 3:0.1819 4:1.5384 5:0.55757 6:-0.22129 7:-3.5524 8:-3.5717 9:-2.8448 10:-2.6164 11:1.5109 12:-0.52134 13:1.0803 14:3.0892 15:1.67 16:2.7434 17:1.6271 18:-0.99397 19:-2.0978 20:-3.3236 21:-5.3456 22:-4.886 23:-0.23014 24:-0.9024 25:1.7926 
-0.08911309091827954 1:-1.6401 2:-2.0652 3:-1.9641 4:-2.6023 5:-3.511 6:-2.8275 7:0.31775 8:2.162 9:1.2576 10:0.93721 11:-1.1717 12:3.1197 13:2.9851 14:0.5876 15:0.34108 16:-0.5367 17:-4.2161 18:-8.3352 19:-9.7771 20:-8.0036 21:-5.2587 22:-5.4499 23:-1.321 24:-1.2562 25:-1.4136 
-0.10116166241748817 1:-3.8545 2:-5.1616 3:-1.3241 4:-3.7912 5:1.9247 6:-1.7022 7:-0.97292 8:1.4285 9:1.0072 10:1.7871 11:2.1382 12:1.8805 13:0.67619 14:-1.3131 15:-1.7799 16:-3.1809 17:-3.3022 18:-1.7781 19:-1.9229 20:1.2175 21:0.99826 22:2.5671 23:2.1446 24:1.3571 25:-2.4317 
-0.11612283889618433 1:-0.023453 2:0.42025 3:-1.0848 4:0.90762 5:3.6779 6:2.4139 7:0.85992 8:-0.17604 9:0.88282 10:-0.66809 11:-2.2586 12:-4.0099 13:-3.5488 14:-4.3508 15:-0.87552 16:1.0749 17:-0.44383 18:1.3827 19:2.1556 20:2.1628 21:2.0434 22:1.0851 23:-0.012611 24:-1.8305 25:-1.5207 
-0.12094084059912685 1:0.63223 2:2.6355 3:-1.1859 4:0.39177 5:2.5166 6:-1.3026 7:-1.2412 8:2.7728 9:-2.3433 10:-1.9048 11:0.54787 12:-0.22565 13:0.96301 14:-1.1391 15:0.8672 16:6.8133 17:-4.9465 18:3.1032 19:-0.54292 20:0.60819 21:-2.4615 22:-0.14384 23:-1.9175 24:-1.4512 25:-0.8815 
-0.0915530795684768 1:-5.5366 2:-7.8818 3:-8.4451 4:-6.2031 5:-4.6861 6:-0.25772 7:0.72594 8:-1.264 9:-1.8892 10:-0.86733 11:2.8654 12:0.1458 13:0.10205 14:1.7835 15:0.36013 16:-1.7876 17:-3.1221 18:-6.6703 19:-7.6273 20:-6.1558 21:-5.7012 22:-5.1206 23:-4.1296 24:-3.4111 25:-3.3352 
-0.09168592969867932 1:-1.0308 2:0.69981 3:0.5407 4:0.66502 5:1.06 6:0.60583 7:-0.36318 8:0.60376 9:0.7192 10:1.0324 11:1.5955 12:1.2765 13:0.18206 14:-0.51342 15:1.3449 16:-2.1881 17:3.1164 18:4.5023 19:-3.9624 20:8.9181 21:7.8076 22:-4.5906 23:1.2129 24:0.75685 25:-0.46018 
-0.08932165474189281 1:-1.1308 2:5.1303 3:5.0361 4:-0.09386 5:1.2583 6:2.6674 7:1.5844 8:-2.6411 9:-4.9263 10:-5.1122 11:-7.5122 12:-9.5177 13:-7.7797 14:-5.7777 15:-6.7746 16:-3.8685 17:-3.5711 18:0.0051661 19:0.43445 20:0.039909 21:-0.43758 22:1.4393 23:2.0045 24:1.5069 25:-0.18241 
-0.08662665537159756 1:0.68934 2:6.9878 3:0.89708 4:-2.1528 5:-1.9963 6:-2.7817 7:-3.3241 8:-2.1283 9:-3.8658 10:-1.1227 11:3.0614 12:1.2102 13:-0.55553 14:1.0746 15:2.1885 16:1.3827 17:0.60428 18:-0.6784 19:-1.2836 20:-2.2501 21:-3.7465 22:-5.7621 23:-5.9104 24:-4.5427 25:1.5617 
-0.5323864463170367 1:-0.65148 2:0.7741 3:-0.60877 4:-3.2389 5:0.070176 6:1.1 7:0.98903 8:-1.5425 9:-3.2432 10:-3.5751 11:-4.7314 12:-5.2344 13:-4.4203 14:-3.2081 15:-3.4863 16:-2.9477 17:-2.1789 18:-1.8492 19:-1.4034 20:-1.5386 21:-1.8448 22:-1.4377 23:-0.96781 24:-0.35226 25:-0.61091 
-0.0877483322513078 1:0.34056 2:-1.0704 3:-1.7983 4:-4.4684 5:-7.2306 6:-4.0506 7:-3.4981 8:-0.75138 9:2.5725 10:2.1824 11:-0.21081 12:2.0601 13:2.1662 14:1.5229 15:1.9664 16:-0.5457 17:-3.1215 18:-6.0591 19:-7.6745 20:-9.5669 21:-8.5051 22:-7.2344 23:-3.5039 24:-1.7034 25:1.9796 
-0.06253941349138373 1:-1.908 2:-4.0385 3:-3.2955 4:-1.6588 5:-1.5488 6:-2.847 7:-0.71674 8:2.294 9:2.6388 10:2.184 11:1.4781 12:0.1962 13:-0.499 14:-1.5406 15:-3.8925 16:-6.3468 17:-5.0583 18:-2.1417 19:0.5066 20:1.3592 21:-1.259 22:0.84176 23:2.9985 24:3.1308 25:-1.4143 
-0.019754792502139632 1:-1.0115 2:-0.39203 3:-0.75858 4:0.089442 5:2.9904 6:1.5582 7:1.5594 8:1.0265 9:-0.26635 10:-1.4309 11:-1.8516 12:-3.2059 13:-5.2097 14:-3.5823 15:-3.2835 16:1.0903 17:1.7175 18:1.645 19:3.5941 20:2.1338 21:1.6337 22:1.555 23:0.66259 24:-0.73789 25:-4.8664 
-0.2110978317668972 1:4.1229 2:1.6956 3:0.95241 4:1.4919 5:0.80552 6:0.15083 7:-1.7616 8:-4.9038 9:-4.596 10:-3.9309 11:-2.4319 12:-0.78935 13:-0.20946 14:-0.66011 15:1.4675 16:1.8395 17:1.6425 18:0.09238 19:0.53984 20:-0.6358 21:0.21843 22:-0.87993 23:0.060603 24:-2.9718 25:0.020878 
-0.12925931386642198 1:-0.17094 2:0.50073 3:-1.5243 4:-0.99437 5:-2.009 6:-3.1653 7:-1.4939 8:-1.3264 9:1.9223 10:2.6814 11:-0.3421 12:2.152 13:3.2711 14:0.5685 15:-1.9492 16:-2.6768 17:-3.7435 18:-3.9058 19:-2.9555 20:-4.4544 21:-0.50571 22:1.5815 23:-0.59635 24:-1.4584 25:0.96996 
-0.0962268857492883 1:-3.2046 2:-4.1064 3:-3.4893 4:-1.1722 5:-0.42217 6:0.55926 7:0.76429 8:-0.41475 9:3.651 10:2.6668 11:-0.16644 12:-1.5998 13:-2.2251 14:-2.4204 15:-1.7355 16:-3.8956 17:-4.1723 18:-1.1168 19:-5.035 20:-1.71 21:0.12563 22:-0.6125 23:2.476 24:0.73434 25:-1.7002 
-0.1178687037506615 1:-2.2645 2:2.2527 3:0.70623 4:-1.6631 5:1.2838 6:2.3614 7:1.8932 8:0.74372 9:0.75967 10:0.16907 11:-0.45144 12:-0.91863 13:-2.6171 14:-3.7311 15:-2.0655 16:-3.233 17:1.6648 18:0.85724 19:2.0846 20:2.1093 21:1.9654 22:1.0719 23:-0.18619 24:-1.6543 25:-2.5502 
-0.12454629758042825 1:-1.0009 2:3.7253 3:1.9038 4:1.4021 5:0.46348 6:-0.45307 7:0.7444 8:0.43684 9:-3.1146 10:-0.73574 11:-3.4707 12:-3.4532 13:-0.70143 14:-0.47103 15:-2.2333 16:3.052 17:4.1614 18:2.5989 19:0.47825 20:-0.42124 21:-0.70022 22:-0.14123 23:-1.9811 24:-2.3201 25:-0.19162 
-0.12920308664043043 1:3.3732 2:0.62353 3:-0.55607 4:-0.54262 5:-0.020958 6:-0.97497 7:-4.1335 8:-2.4455 9:-3.7238 10:0.049672 11:-0.40625 12:-0.73481 13:1.7733 14:2.0524 15:1.1595 16:0.43734 17:-0.0041637 18:-0.65553 19:-0.82098 20:-1.9538 21:-1.8004 22:-2.3638 23:-3.9354 24:-0.28404 25:6.442 
-0.1461144739002737 1:0.64149 2:0.041342 3:-0.90155 4:-0.95689 5:-0.85325 6:0.87094 7:0.59287 8:-0.99447 9:1.8926 10:-0.39433 11:1.8876 12:4.0842 13:-2.8139 14:-2.7327 15:-2.4503 16:1.456 17:-2.1608 18:-2.8881 19:-2.5889 20:-1.4567 21:-0.072704 22:1.9846 23:-1.4861 24:2.9628 25:0.099239 
-0.09823359357410108 1:-0.32572 2:0.074132 3:-2.5632 4:-4.8106 5:-6.8103 6:-9.1668 7:-7.356 8:-5.9567 9:-4.9062 10:-3.1868 11:-2.0102 12:-1.4567 13:-0.52381 14:2.4055 15:1.4143 16:0.51459 17:-0.048813 18:-1.8529 19:2.1333 20:3.4671 21:-2.1839 22:-5.0946 23:-4.3647 24:-4.2594 25:1.9949 
-0.08913998127256982 1:-0.069751 2:0.03084 3:-0.87818 4:-2.4258 5:-2.0598 6:1.7098 7:0.56969 8:1.5014 9:1.3297 10:1.8888 11:5.343 12:2.3251 13:-2.7353 14:-3.8658 15:-5.0743 16:-5.1683 17:-4.6583 18:-2.3974 19:-1.9049 20:5.5618 21:1.1019 22:-2.898 23:4.1448 24:3.6547 25:-0.21038 
-0.07623811471713123 1:-4.4411 2:-1.3993 3:0.45253 4:-1.4757 5:1.9626 6:3.5375 7:5.009 8:3.5024 9:-0.044873 10:-0.71334 11:-2.8427 12:-3.7012 13:-4.0741 14:-5.6304 15:-5.1132 16:-4.13 17:0.58574 18:-0.36948 19:3.6684 20:1.869 21:0.76197 22:2.3392 23:2.0453 24:1.7198 25:-4.0779 
-0.018024660879217735 1:0.019325 2:1.6893 3:2.4488 4:2.1497 5:2.4883 6:0.18592 7:-3.4569 8:-3.1257 9:-3.5981 10:-4.4901 11:-3.6415 12:-2.4571 13:0.1526 14:0.192 15:0.4881 16:1.6212 17:3.3591 18:2.681 19:1.7482 20:-0.98962 21:-1.004 22:-0.37959 23:-2.0248 24:-4.8296 25:1.7412 
-0.19861758252394343 1:-1.1061 2:-0.40001 3:0.91588 4:-0.42365 5:-3.6137 6:-0.085918 7:-2.7054 8:-0.9004 9:1.7679 10:-1.9489 11:0.7712 12:0.19964 13:1.7598 14:1.3593 15:-0.58364 16:-0.5537 17:-1.0068 18:-1.8171 19:-2.612 20:-4.8272 21:-1.7751 22:-3.538 23:-1.4304 24:3.773 25:-0.58239 
-0.04856840043175065 1:-4.9955 2:-4.6638 3:-4.4046 4:-0.19602 5:-0.9412 6:1.4912 7:2.6221 8:2.0043 9:2.1318 10:0.85941 11:-0.082255 12:-0.79915 13:-1.3665 14:-2.1219 15:-2.7131 16:-3.5929 17:-2.7248 18:-3.5498 19:-0.33721 20:-1.1432 21:1.728 22:3.5178 23:2.5077 24:0.51617 25:-1.5061 
-0.1724704823440268 1:-0.2719 2:3.6197 3:3.0824 4:0.96595 5:-0.26115 6:-0.18805 7:-0.83206 8:-0.96344 9:-1.1289 10:-3.1805 11:-3.5007 12:-3.814 13:-2.9604 14:1.027 15:1.2398 16:1.6241 17:1.4687 18:1.9208 19:2.4278 20:1.7192 21:0.74781 22:0.86114 23:-0.66918 24:-1.6129 25:-1.7449 
-0.4513799888715891 1:0.061458 2:0.48684 3:-0.63231 4:-1.4578 5:-2.2122 6:-3.0918 7:-2.9981 8:-5.4779 9:-1.6607 10:-2.4148 11:-2.4197 12:2.0629 13:2.045 14:1.4846 15:0.71753 16:0.30685 17:-0.044458 18:-0.16228 19:-1.0086 20:-1.4842 21:-3.4623 22:-1.5147 23:-1.2105 24:-0.25765 25:0.16555 
-0.08081899539784335 1:-3.013 2:-0.67175 3:-5.2652 4:-2.2181 5:-0.40302 6:-0.81601 7:2.2017 8:6.6518 9:3.611 10:1.8222 11:-0.07966 12:-0.39223 13:0.17624 14:-1.3156 15:-3.2508 16:-5.8768 17:-4.3342 18:-6.9362 19:-1.6897 20:-0.43336 21:-0.39725 22:2.171 23:4.3581 24:1.972 25:-0.5462 
-0.09720519233524992 1:-4.8807 2:5.3942 3:1.7389 4:2.2835 5:1.7749 6:4.8348 7:-5.2754 8:2.3269 9:-4.0597 10:-1.6178 11:-1.5886 12:-3.0105 13:-0.23644 14:0.13984 15:1.3009 16:-0.53613 17:-2.3648 18:-0.51787 19:2.3558 20:0.99128 21:0.039565 22:-0.92215 23:-1.2553 24:-1.7676 25:-0.67125 
-0.10416047548166794 1:-7.0854 2:-7.5757 3:-5.6925 4:-3.4631 5:-2.4534 6:-2.1874 7:-1.7484 8:-0.18443 9:-0.99863 10:-0.9441 11:-1.4528 12:-1.6095 13:2.6467 14:1.6202 15:-3.2851 16:-5.8332 17:-5.0046 18:-3.8314 19:-2.1309 20:-1.2125 21:-1.266 22:-2.1847 23:-3.1255 24:-2.7819 25:-7.2892 
-0.08758202387468017 1:-0.68825 2:2.2004 3:2.3307 4:-0.853 5:-3.1385 6:-4.3267 7:-2.4361 8:-2.5319 9:-3.9599 10:-6.0637 11:-2.7466 12:1.8281 13:2.542 14:1.6311 15:2.1073 16:0.072808 17:3.1533 18:1.4456 19:-0.22122 20:-1.1744 21:-0.96597 22:-4.0999 23:-5.4047 24:-7.3959 25:0.92758 
-0.08041676248042019 1:-0.32491 2:-1.7458 3:-3.1714 4:-2.4395 5:-3.905 6:-6.9591 7:-0.35528 8:-0.64408 9:-1.3587 10:1.8119 11:-0.5587 12:1.4395 13:2.7648 14:1.9033 15:-0.61066 16:-2.857 17:-2.0784 18:-2.7057 19:-3.668 20:-5.4074 21:0.28175 22:1.3546 23:-1.0615 24:1.7476 25:0.80068 
-0.09508212262015858 1:-6.0228 2:-3.7535 3:-1.4263 4:1.1962 5:0.25158 6:1.829 7:2.0181 8:-1.2988 9:1.3526 10:0.33683 11:0.25553 12:-0.68852 13:-2.8746 14:-3.0942 15:-3.9703 16:-5.4599 17:-4.3994 18:-1.289 19:1.7912 20:-1.0477 21:-0.29855 22:0.14152 23:0.46754 24:0.68031 25:-3.6119 
-0.23071482857594405 1:1.2077 2:1.2474 3:2.3529 4:1.9437 5:1.5835 6:-0.54975 7:-1.3132 8:-2.4519 9:-2.92 10:-3.4617 11:-1.0492 12:-2.5976 13:-0.6925 14:0.9607 15:-1.6966 16:-2.273 17:2.3589 18:2.571 19:0.74576 20:0.8706 21:-0.11203 22:-1.6257 23:-2.1243 24:-2.3551 25:1.523 
-0.08450913249508757 1:1.8518 2:0.60852 3:0.69478 4:-0.22867 5:-1.8745 6:-1.4178 7:-3.609 8:-3.0568 9:-0.9974 10:0.36649 11:0.57277 12:3.9934 13:-1.1056 14:2.5212 15:3.8741 16:-0.53463 17:-4.6577 18:-5.3078 19:-3.7561 20:-3.9672 21:-2.8637 22:-2.8869 23:-0.45443 24:0.8938 25:-1.8705 
-0.13873050625127892 1:-2.2726 2:-2.6382 3:-4.3422 4:-0.50957 5:-3.5987 6:-2.1632 7:-1.464 8:-1.7495 9:4.2572 10:0.14377 11:1.0532 12:1.9213 13:0.54117 14:-0.79508 15:-2.0062 16:-1.7169 17:-3.5622 18:-3.987 19:-1.4147 20:-2.2394 21:-2.4564 22:-0.35485 23:2.5293 24:-0.22285 25:-1.2083 
-0.02415038311091388 1:-2.3477 2:-1.7174 3:-2.3425 4:-1.8176 5:0.60842 6:1.068 7:0.74671 8:2.0134 9:1.2167 10:0.78788 11:0.11283 12:-1.9472 13:-2.8033 14:-2.6744 15:-2.8647 16:-2.3566 17:-0.14826 18:-2.7412 19:0.68124 20:3.7654 21:1.7539 22:2.32 23:1.0312 24:-0.38132 25:-3.6533 
-0.09158594000028476 1:-2.7382 2:1.1111 3:0.19572 4:-0.49375 5:2.6582 6:3.039 7:0.60047 8:-1.5559 9:-2.3158 10:-2.7955 11:-3.9775 12:-1.9201 13:-3.1852 14:-1.1915 15:-1.2914 16:1.4667 17:2.5197 18:-0.03318 19:1.4106 20:3.1981 21:0.82402 22:-0.023537 23:-2.3055 24:-3.3979 25:-2.4048 
-0.07778373682376075 1:2.0025 2:1.6219 3:0.66211 4:-0.92414 5:-1.9007 6:-2.0825 7:-3.0917 8:-3.3952 9:-2.9411 10:-1.4371 11:-0.1891 12:0.26399 13:2.4944 14:0.30523 15:1.5072 16:3.1377 17:1.4475 18:0.45424 19:-2.8373 20:-3.6101 21:-4.6672 22:-1.8987 23:-3.2322 24:-1.9372 25:-0.19376 
-0.10013798799989954 1:-2.193 2:-2.1075 3:-5.9914 4:-7.2626 5:-5.3745 6:-1.6187 7:-2.9622 8:-3.5154 9:2.4048 10:0.3656 11:1.7683 12:2.2255 13:1.5505 14:-0.003337 15:-1.4531 16:-1.1645 17:-3.1536 18:-2.5029 19:-3.617 20:-2.7277 21:-0.51192 22:-2.1002 23:-0.53841 24:4.4976 25:-0.41747 
-0.07979988974086878 1:-4.5241 2:-4.5247 3:-1.144 4:-5.4352 5:-2.2208 6:2.0635 7:-0.86365 8:2.9917 9:2.7325 10:0.32854 11:-0.013988 12:-2.0758 13:-2.9294 14:-5.5877 15:-7.595 16:-7.0525 17:-2.5076 18:-3.4432 19:-2.075 20:-0.55339 21:-1.3057 22:0.96637 23:4.1984 24:1.0494 25:-3.778 
-0.041816185237233044 1:-2.5306 2:2.2246 3:0.98685 4:1.0973 5:1.7399 6:2.5313 7:-1.0503 8:-1.8967 9:-3.5178 10:-4.5553 11:-4.8988 12:-3.3338 13:-4.6394 14:1.6921 15:-1.9466 16:0.5087 17:2.512 18:0.19346 19:1.1362 20:1.3771 21:0.92788 22:0.071639 23:-3.3206 24:-3.3724 25:-2.9847 
-0.08314516228909716 1:2.3322 2:5.3099 3:1.096 4:0.7508 5:-2.1308 6:-1.6759 7:-3.781 8:-8.2385 9:-3.969 10:-5.8649 11:-1.8274 12:-2.8637 13:0.93532 14:0.90232 15:2.0892 16:1.717 17:1.2767 18:0.38925 19:-0.48463 20:-0.55675 21:-3.3112 22:-6.4024 23:-7.0038 24:-4.3475 25:-0.10367 
-0.08705862130411463 1:1.3695 2:-1.2901 3:-1.2217 4:-5.2763 5:-6.7312 6:-6.4712 7:-2.7354 8:-3.9977 9:-5.5125 10:-1.6468 11:1.2215 12:2.3173 13:3.6057 14:1.5533 15:0.27296 16:-1.4879 17:-1.7249 18:-2.5481 19:-4.9171 20:-3.2618 21:-3.1997 22:-4.032 23:-1.8574 24:-1.6026 25:3.0482 
-0.09778375606817634 1:2.3229 2:1.6811 3:2.3565 4:2.64 5:1.1479 6:-1.7104 7:-4.3277 8:-1.266 9:-3.7167 10:-2.9152 11:-0.60053 12:-2.9098 13:-4.8876 14:-2.6721 15:0.092358 16:0.41143 17:-1.7382 18:-2.3177 19:1.2663 20:-3.288 21:-7.1624 22:3.1389 23:3.5081 24:2.3202 25:4.1767 
-0.3034543885252098 1:0.19142 2:0.0066376 3:0.2662 4:0.111 5:-0.57007 6:0.16226 7:-0.33175 8:-0.19246 9:0.18025 10:-0.72481 11:-0.18767 12:0.384 13:-0.90331 14:1.5119 15:1.2076 16:-0.85293 17:6.1338 18:0.68126 19:3.9139 20:-0.98489 21:3.5875 22:-1.2703 23:-1.265 24:-2.2029 25:-0.41466 
-0.22776129293377204 1:-3.4474 2:-2.817 3:-2.2526 4:-2.4118 5:-1.3809 6:-1.8558 7:-1.5471 8:-1.0383 9:-1.6087 10:-2.272 11:-2.688 12:-2.5599 13:-2.4152 14:-2.978 15:-4.7038 16:-5.6597 17:-5.1928 18:-4.1681 19:-3.7947 20:-3.6031 21:-2.5829 22:-1.9799 23:-1.5457 24:-0.80915 25:-4.5007 
-0.0901477458442457 1:-0.041858 2:-2.9017 3:-3.7315 4:-6.6567 5:-7.5509 6:-4.6087 7:-4.7257 8:-3.0261 9:-1.8725 10:1.3677 11:-0.47124 12:2.3277 13:2.2529 14:2.7479 15:-0.0099727 16:0.0024984 17:-0.0413 18:-2.3774 19:-4.3068 20:-6.7771 21:-9.5493 22:-9.2477 23:-7.7925 24:-4.1115 25:0.22777 
-0.08177656959475833 1:-3.2937 2:-2.3288 3:-3.611 4:-1.9236 5:-2.6099 6:0.45578 7:0.94747 8:3.0961 9:1.1992 10:0.019719 11:-1.9895 12:-2.2913 13:-3.0518 14:-6.3019 15:-6.9181 16:-5.4131 17:-1.5143 18:-3.0494 19:-1.9767 20:0.3459 21:1.0869 22:2.6796 23:3.0537 24:0.69567 25:-3.5652 
-0.09049171757783075 1:3.4816 2:2.7787 3:3.2129 4:0.48676 5:-3.1357 6:-3.4936 7:-6.5308 8:-3.217 9:-0.50159 10:0.13372 11:0.49956 12:-0.99219 13:-0.70289 14:2.8534 15:6.523 16:7.9322 17:9.195 18:6.0986 19:2.5137 20:1.4417 21:0.7299 22:-2.0101 23:-4.7056 24:-0.8185 25:3.3759 
-0.09075804733811545 1:0.7599 2:-2.976 3:-2.1843 4:-5.2963 5:0.30935 6:-2.1936 7:-3.5922 8:0.29489 9:-1.2399 10:2.145 11:4.4884 12:5.9783 13:4.8017 14:-4.3659 15:-1.7637 16:0.81065 17:-3.4882 18:-4.5922 19:-1.0621 20:0.28372 21:-2.6101 22:-1.2964 23:-0.078718 24:0.85256 25:-7.1435 
-0.08840065441630046 1:1.7968 2:-1.9264 3:-4.601 4:-2.5696 5:1.8102 6:1.9547 7:2.6247 8:4.2165 9:4.1531 10:-2.0555 11:-3.7933 12:-3.4459 13:-4.0799 14:0.48691 15:-2.7971 16:1.126 17:-2.1677 18:-2.0592 19:1.6157 20:4.2719 21:1.1068 22:3.1579 23:6.9541 24:3.9419 25:-2.3379 
-0.09079750100489156 1:2.3664 2:-0.64958 3:2.3733 4:1.5618 5:1.5577 6:-2.4944 7:0.56934 8:-2.656 9:-5.2289 10:-1.73 11:-1.1395 12:-1.1752 13:-1.0135 14:0.8295 15:2.3257 16:0.61229 17:0.11301 18:3.9367 19:3.9222 20:1.6275 21:-6.1424 22:-1.2922 23:0.34139 24:-2.4558 25:3.896 
