svm_type c_svc
kernel_type rbf
gamma 0.04
nr_class 2
total_sv 236
rho 0.6248618158826095
label 1 0
nr_sv 80 156
SV
1.0 1:-0.71318 2:-0.6703 3:-0.20161 4:1.823 5:0.83824 6:2.6553 7:1.8974 8:-0.51994 9:-2.053 10:-1.5309 11:-1.9761 12:-3.5559 13:-0.77268 14:0.576 15:2.727 16:1.449 17:1.073 18:-0.23818 19:-0.13951 20:0.012781 21:-0.24927 22:-0.3158 23:-0.4186 24:-0.28331 25:-0.21156 
1.0 1:4.6621 2:0.57344 3:-2.2051 4:-3.2723 5:-2.1018 6:-0.23543 7:0.30725 8:-1.0741 9:-0.60141 10:-0.37025 11:0.061618 12:1.2603 13:1.2438 14:1.5861 15:-0.23579 16:-5.874 17:-5.2436 18:-5.6194 19:-4.2097 20:-0.52445 21:2.2065 22:2.8798 23:3.4379 24:0.85767 25:9.6393 
1.0 1:-3.4285 2:-3.969 3:-2.5229 4:-0.40438 5:-0.4078 6:-1.3821 7:-1.3954 8:-2.9933 9:-2.3004 10:-0.9784 11:-1.963 12:-1.4282 13:1.5917 14:0.39969 15:0.12019 16:-0.31765 17:-0.62456 18:-2.3623 19:-3.1599 20:-1.6446 21:-2.1296 22:-2.1633 23:1.3375 24:0.010961 25:-4.7861 
1.0 1:0.86705 2:-7.4944 3:-19.8796 4:-12.133 5:-6.1852 6:-2.9761 7:-1.5819 8:-2.1901 9:0.40248 10:3.1305 11:2.0187 12:2.02 13:5.1928 14:5.2907 15:4.3934 16:4.4725 17:4.4675 18:3.9839 19:3.584 20:2.7127 21:1.5344 22:-0.20885 23:-1.3807 24:-2.3352 25:4.6671 
0.31943284856378046 1:-0.24602 2:-0.36384 3:-0.81202 4:-1.167 5:-1.0013 6:-0.68817 7:-0.15346 8:-0.21337 9:0.0066704 10:-0.46901 11:0.0071692 12:-0.14262 13:0.28686 14:-0.21757 15:-0.68376 16:-0.98462 17:-0.70215 18:-1.0097 19:-1.403 20:-1.8731 21:-0.52583 22:-0.84097 23:-3.3439 24:-2.6352 25:-0.29393 
1.0 1:1.7799 2:-0.13921 3:0.46111 4:0.87797 5:5.0587 6:4.2143 7:2.4081 8:2.6934 9:3.0004 10:1.8882 11:1.313 12:0.020589 13:-0.74885 14:-1.9117 15:-3.2438 16:-3.2874 17:-2.1864 18:-0.88356 19:0.22115 20:0.55848 21:0.32073 22:0.021177 23:0.35453 24:0.01105 25:1.4586 
0.2941974128932058 1:-0.69774 2:-0.50292 3:0.29756 4:0.50381 5:0.85733 6:1.0495 7:0.99625 8:1.0859 9:1.2624 10:1.3717 11:1.5521 12:1.9197 13:1.336 14:1.7956 15:2.2272 16:1.3404 17:1.1128 18:0.6129 19:-0.054819 20:0.07893 21:2.1328 22:1.9023 23:-0.36323 24:-1.7033 25:-0.79979 
0.5102629713993324 1:2.3399 2:2.4854 3:2.855 4:2.5365 5:2.1304 6:1.799 7:1.9701 8:1.4691 9:1.7075 10:1.8528 11:1.4073 12:0.9235 13:1.6465 14:1.7428 15:2.0137 16:1.6812 17:1.2065 18:0.47339 19:0.055991 20:0.21103 21:-0.13149 22:-0.2307 23:0.0050461 24:0.07325 25:1.7063 
1.0 1:1.0111 2:-4.3387 3:-3.4074 4:-1.2235 5:-3.7394 6:-5.8174 7:-2.7371 8:-3.2285 9:-4.5546 10:-4.9827 11:-4.0398 12:-2.0956 13:-0.43542 14:0.053098 15:-0.10162 16:0.53137 17:1.1518 18:2.1467 19:2.404 20:2.2751 21:2.6983 22:3.1308 23:2.6022 24:2.102 25:1.764 
0.03604519328232307 1:0.31031 2:-0.10538 3:-0.11734 4:-0.31626 5:-0.035528 6:0.4101 7:0.13224 8:3.5369E-4 9:0.94184 10:1.6665 11:0.9072 12:1.5952 13:1.8694 14:1.0759 15:0.76859 16:1.0747 17:0.97245 18:0.89495 19:1.0894 20:1.2476 21:1.4421 22:1.7192 23:1.6804 24:1.5353 25:1.8246 
1.0 1:2.8353 2:4.9756 3:9.0616 4:13.7114 5:8.1098 6:4.0138 7:0.31936 8:-1.6756 9:0.11233 10:-1.5119 11:0.90505 12:-0.9664 13:-0.74829 14:-3.7782 15:-4.9598 16:-3.784 17:-1.2568 18:2.1509 19:2.7805 20:4.1551 21:3.8922 22:3.3854 23:3.5118 24:3.3858 25:1.6819 
0.8690405370756521 1:-1.2174 2:-2.2545 3:-3.36 4:-3.6358 5:-4.0304 6:-4.1571 7:-3.2987 8:-2.3959 9:-2.0672 10:-0.9696 11:-0.025221 12:-1.3503 13:-1.3989 14:-0.74532 15:-0.73067 16:-0.46189 17:-0.3452 18:-0.18799 19:-0.019055 20:0.058752 21:0.03838 22:0.081233 23:0.09528 24:0.087271 25:-0.60267 
1.0 1:-2.1603 2:0.51839 3:-3.2673 4:-1.2358 5:-3.8186 6:-4.0049 7:-4.7059 8:-4.925 9:-3.6245 10:-2.2427 11:-2.1207 12:0.082259 13:2.8356 14:1.5346 15:0.49346 16:-0.20903 17:0.21135 18:0.26373 19:-0.22052 20:-1.0688 21:-0.19291 22:-1.0207 23:-0.32555 24:0.52983 25:-2.7928 
1.0 1:3.1159 2:4.7802 3:1.3333 4:-2.0437 5:-2.4975 6:1.0147 7:-3.1014 8:2.2184 9:2.4081 10:-2.6691 11:-6.9749 12:-6.9631 13:-6.3869 14:-4.0987 15:-3.437 16:-0.21665 17:-4.1674 18:-2.8355 19:-1.048 20:-0.99516 21:-4.352 22:-9.4475 23:-3.9408 24:-1.9033 25:1.7904 
1.0 1:-7.5234 2:-7.1492 3:-3.1459 4:-0.73015 5:-3.0408 6:-1.877 7:-1.6675 8:-4.4106 9:-7.5053 10:-6.0156 11:-8.2887 12:-1.8005 13:-0.83019 14:-1.651 15:-1.185 16:-0.087402 17:0.94956 18:2.1226 19:1.3726 20:0.16239 21:-0.92445 22:-0.26822 23:1.0225 24:0.28755 25:-7.6493 
1.0 1:-1.1928 2:0.69719 3:10.3309 4:3.4678 5:1.7307 6:0.26554 7:-0.34252 8:-0.43856 9:0.028009 10:0.3187 11:0.80219 12:1.0792 13:1.22 14:1.1316 15:1.5768 16:1.2832 17:0.74911 18:0.84835 19:1.5862 20:0.4591 21:0.84557 22:0.81475 23:0.41529 24:0.18685 25:-5.3316 
1.0 1:2.8139 2:3.4064 3:2.2229 4:-1.6881 5:-4.6674 6:-3.3401 7:-0.71467 8:0.82432 9:4.6232 10:-1.4613 11:-7.0789 12:-7.4371 13:-8.8656 14:-5.3053 15:-2.8937 16:-2.4168 17:-4.3419 18:-2.8827 19:-2.4343 20:-3.9345 21:-3.0847 22:-1.2022 23:-4.086 24:-7.7241 25:-0.47227 
0.3970615822211309 1:-1.1586 2:-1.0866 3:-0.63891 4:-0.88291 5:-0.27231 6:1.6863 7:2.466 8:2.0116 9:2.5094 10:2.3732 11:1.7452 12:1.8324 13:0.62084 14:0.42523 15:0.84439 16:0.71874 17:-0.42609 18:0.53341 19:-0.19252 20:0.19402 21:0.47222 22:0.11377 23:0.031956 24:-0.15319 25:-1.8983 
1.0 1:-2.6072 2:-5.3919 3:-4.6428 4:-0.8096 5:-0.18337 6:-1.0473 7:2.1654 8:0.41656 9:-4.1705 10:-6.4888 11:-6.498 12:-3.2758 13:-0.86533 14:-1.0303 15:-1.6347 16:-1.5324 17:-1.6149 18:-2.7429 19:-5.9226 20:-5.9109 21:-12.0692 22:-7.8767 23:-4.8993 24:-2.7321 25:-1.6234 
1.0 1:2.0508 2:0.67224 3:-0.25078 4:-0.27199 5:-1.2361 6:-0.14914 7:0.99098 8:1.8275 9:2.4054 10:4.1852 11:2.6208 12:2.4808 13:3.8233 14:2.2383 15:2.7209 16:-0.48518 17:-0.47719 18:-0.80366 19:-1.4422 20:-2.7726 21:-0.0058502 22:-1.0548 23:3.1974 24:2.2259 25:2.0189 
1.0 1:-1.4929 2:-2.7374 3:-3.2097 4:-5.6901 5:-6.4933 6:-6.58 7:-8.732 8:-6.691 9:-2.7063 10:-1.3801 11:-0.021411 12:1.7087 13:2.174 14:3.3683 15:3.783 16:3.9644 17:3.1063 18:2.4265 19:1.3497 20:1.3667 21:0.46868 22:0.39165 23:1.0475 24:1.0477 25:-1.0713 
0.5316561393917807 1:0.23949 2:-0.68095 3:-0.61921 4:0.25167 5:2.3018 6:3.3702 7:3.903 8:3.8398 9:1.6877 10:0.52497 11:0.38499 12:0.63744 13:0.71 14:0.077707 15:0.016659 16:0.26637 17:0.85033 18:0.52953 19:0.13926 20:0.87766 21:0.67477 22:0.27489 23:-0.048104 24:0.28171 25:0.70587 
0.5320279126370364 1:0.058594 2:-0.053037 3:-0.05101 4:-0.078492 5:0.025238 6:0.43571 7:0.36013 8:0.80862 9:0.89089 10:1.2345 11:0.486 12:0.24343 13:0.093171 14:1.0618 15:0.88812 16:2.8115 17:1.6177 18:2.8681 19:2.5291 20:2.2736 21:1.2821 22:0.89608 23:0.89793 24:-0.90803 25:0.12289 
1.0 1:-5.1735 2:-3.1895 3:-1.5757 4:0.19787 5:1.7589 6:2.6595 7:2.5782 8:2.4057 9:2.5514 10:2.6585 11:2.1281 12:1.23 13:0.74165 14:0.63039 15:0.23437 16:0.10076 17:0.66612 18:0.58091 19:0.4194 20:0.30977 21:0.10001 22:0.49798 23:-0.034301 24:0.098611 25:-7.0296 
0.5448612975086082 1:0.016925 2:-1.1409 3:-0.41047 4:0.97215 5:0.050259 6:2.1968 7:0.44732 8:1.0299 9:1.5998 10:1.5946 11:0.53123 12:0.055835 13:0.043388 14:0.13212 15:0.34564 16:0.0022754 17:1.076 18:1.5648 19:1.9521 20:2.2768 21:1.6979 22:2.3235 23:1.7804 24:0.6717 25:-0.2801 
1.0 1:3.5797 2:3.2187 3:2.1281 4:3.3159 5:6.0495 6:5.3805 7:5.1862 8:3.8549 9:0.91816 10:-0.24499 11:3.5344 12:2.2448 13:1.1688 14:0.50539 15:0.3244 16:0.31508 17:0.081164 18:0.25558 19:0.09267 20:0.13732 21:0.22143 22:0.11573 23:-0.015752 24:-0.26538 25:0.56622 
1.0 1:3.4261 2:4.6098 3:2.2416 4:0.40684 5:-0.015738 6:0.038416 7:-0.62631 8:-1.467 9:-2.0842 10:-2.3586 11:-2.0993 12:-1.8274 13:-1.3878 14:-0.94267 15:-0.46402 16:-0.34338 17:-0.12525 18:0.018001 19:0.20786 20:0.33618 21:-0.029396 22:-0.30041 23:-0.31394 24:-0.5494 25:3.0854 
1.0 1:-0.15853 2:-0.091909 3:-0.14509 4:-0.13675 5:-0.092325 6:-0.26952 7:-0.20714 8:0.15935 9:-0.55624 10:-0.37069 11:-0.59349 12:0.6703 13:1.0035 14:0.44826 15:-1.0551 16:-3.0152 17:-2.4806 18:-1.7515 19:-0.42722 20:3.7019 21:5.0761 22:3.303 23:4.5417 24:2.4203 25:0.83349 
0.7937748726348963 1:0.0063965 2:0.75882 3:1.8459 4:2.2745 5:1.1238 6:0.12426 7:0.40639 8:-0.62416 9:-1.6986 10:-2.3357 11:-2.0423 12:-1.1858 13:-0.31943 14:0.038669 15:0.84045 16:-0.90057 17:3.0825 18:0.51447 19:-0.36764 20:0.097486 21:-0.0054326 22:0.71404 23:0.85044 24:0.14057 25:-0.20196 
1.0 1:0.42487 2:1.0248 3:1.4262 4:2.0543 5:4.6785 6:3.7596 7:-0.0070048 8:0.8809 9:0.92272 10:1.581 11:4.0897 12:4.9869 13:5.9762 14:2.9324 15:1.0391 16:0.31676 17:-1.1789 18:-0.4929 19:-2.1531 20:-3.6493 21:-2.8544 22:-1.9743 23:-1.2685 24:-0.62436 25:-2.1663 
1.0 1:2.7729 2:2.8254 3:2.2366 4:2.2226 5:2.0909 6:1.6288 7:1.5437 8:1.5436 9:2.4265 10:2.6912 11:2.7247 12:1.6871 13:4.9518 14:3.3426 15:0.56758 16:0.22956 17:-0.23182 18:0.95125 19:0.03468 20:-1.7244 21:-5.7153 22:-9.9899 23:-13.5136 24:-6.2857 25:2.5595 
0.2060527614153696 1:1.3497 2:0.9925 3:0.73269 4:0.73573 5:0.8356 6:0.69233 7:0.7758 8:0.39018 9:0.61501 10:0.3866 11:0.56975 12:0.64522 13:0.84577 14:1.3887 15:1.4219 16:1.4244 17:0.79073 18:0.84993 19:0.75286 20:0.83334 21:1.2668 22:1.4834 23:2.2662 24:2.4138 25:1.0398 
0.025514340811395336 1:-0.14484 2:-0.075002 3:-0.066324 4:0.38024 5:0.45679 6:0.51794 7:0.47346 8:0.038406 9:-0.0437 10:-0.49998 11:-0.98149 12:-1.0523 13:-1.1482 14:-1.6322 15:-2.3436 16:-2.7858 17:-2.7434 18:-2.5166 19:-3.2571 20:-2.9529 21:-1.6879 22:-1.0443 23:-0.37927 24:-0.26885 25:0.34312 
0.12684052862243284 1:-0.92992 2:-1.0776 3:-1.2172 4:-1.3276 5:-1.8319 6:-1.7593 7:-1.5696 8:-1.6268 9:-1.3528 10:-0.76469 11:-0.78822 12:-1.0022 13:-0.98754 14:-1.3377 15:-2.0966 16:-1.8138 17:-2.8547 18:-2.1922 19:-1.198 20:-1.673 21:-1.4135 22:-0.78988 23:-0.78574 24:-0.77283 25:-0.8352 
0.9519389484056184 1:1.2253 2:1.9506 3:3.1118 4:3.1726 5:2.3592 6:1.872 7:0.61931 8:-0.89 9:-0.98847 10:-0.74076 11:-1.2721 12:-1.3257 13:-1.4661 14:-1.7798 15:-2.382 16:-3.6956 17:-3.4221 18:-2.6911 19:-2.5616 20:-2.4261 21:-1.5371 22:-1.1869 23:-0.53451 24:0.049573 25:0.18807 
0.013213347545975997 1:0.48777 2:0.45487 3:0.86756 4:0.28961 5:-0.10751 6:-0.064838 7:0.59737 8:0.93058 9:0.26084 10:0.051705 11:0.68557 12:1.1358 13:0.78073 14:1.5935 15:-0.5744 16:0.51589 17:0.7254 18:-0.29195 19:-2.1897 20:0.72146 21:0.033845 22:1.3172 23:0.84594 24:-1.2229 25:0.42012 
1.0 1:-0.25711 2:-0.33381 3:1.6225 4:0.49111 5:0.5565 6:0.95605 7:1.7 8:-1.3321 9:-3.4211 10:-2.9859 11:-4.0573 12:-3.5292 13:-2.9892 14:-3.549 15:-3.1285 16:-2.9399 17:-3.7299 18:-3.9736 19:-3.3623 20:-1.9471 21:-0.44634 22:0.72194 23:0.73961 24:-0.24566 25:-0.37892 
0.4035288783137975 1:2.1661 2:2.3815 3:1.6767 4:1.2293 5:1.378 6:0.73869 7:-0.062912 8:0.25944 9:-0.08237 10:-0.34171 11:-0.13421 12:-1.4703 13:-1.6868 14:-1.7115 15:-1.4871 16:-1.0618 17:-0.55784 18:-0.36471 19:0.042877 20:-0.52094 21:-0.66166 22:0.27918 23:1.8766 24:0.6529 25:-1.0103 
0.42336848605762933 1:1.064 2:-0.7747 3:-1.943 4:-1.375 5:-1.2562 6:-2.1592 7:-1.6671 8:-1.8057 9:-2.362 10:-2.5998 11:-2.3142 12:-1.6829 13:-0.55856 14:0.23958 15:0.52518 16:0.73207 17:0.10217 18:-0.46458 19:-0.56361 20:-0.54672 21:-0.2804 22:-0.46295 23:-0.88706 24:-1.2085 25:1.8181 
0.20968544573975667 1:0.36657 2:0.18456 3:-0.029426 4:-0.15327 5:-0.32065 6:-0.25816 7:-0.46109 8:-0.54301 9:-0.51144 10:-0.59472 11:-0.022224 12:0.57518 13:1.4028 14:0.58842 15:-0.33284 16:-0.95708 17:-0.24068 18:-0.2995 19:-0.49803 20:-2.01 21:-2.8068 22:1.7605 23:0.75461 24:-0.57719 25:-0.14195 
0.7251401704775884 1:0.19262 2:-2.2709 3:-1.0577 4:-3.4465 5:-3.4629 6:-2.7378 7:-2.6856 8:-1.1258 9:-0.24695 10:0.049553 11:0.20319 12:0.050832 13:0.10249 14:0.26222 15:0.32403 16:0.35558 17:0.13024 18:-0.095959 19:-0.20669 20:-0.46674 21:-0.87147 22:-1.1296 23:-0.80144 24:-1.1105 25:0.63617 
1.0 1:-3.9612 2:-3.4533 3:-2.9643 4:-2.034 5:-1.0661 6:-0.95359 7:-1.0956 8:-0.72699 9:-0.29041 10:-0.49629 11:-0.85362 12:-1.0058 13:-0.51699 14:-0.21009 15:-0.10353 16:0.47041 17:0.72915 18:1.0861 19:1.4288 20:1.9516 21:2.547 22:2.1634 23:2.4579 24:1.5064 25:-4.0953 
0.8661989040671529 1:-2.8107 2:-3.713 3:-2.7117 4:0.38585 5:-0.35819 6:-0.55666 7:-0.32091 8:-0.16232 9:-0.15797 10:0.12026 11:0.44647 12:1.0801 13:1.7559 14:2.7518 15:2.0516 16:0.76377 17:0.05118 18:-0.8856 19:1.5179 20:-0.08969 21:-1.4159 22:0.1609 23:0.95768 24:-0.48546 25:-2.9396 
1.0 1:-5.4062 2:-5.8114 3:-6.9448 4:-8.9487 5:-6.662 6:-9.2316 7:-5.7007 8:-4.5962 9:-1.8852 10:0.015967 11:-0.58228 12:-0.71172 13:-0.69686 14:-0.47338 15:0.17481 16:-0.63674 17:0.096179 18:0.013175 19:-0.81082 20:-3.4075 21:-4.6717 22:-4.0899 23:-4.164 24:-3.8721 25:-1.8199 
0.8330079568885752 1:0.33038 2:0.43455 3:0.71444 4:0.11163 5:-1.0126 6:-0.073479 7:-1.2512 8:2.6703 9:0.79825 10:-0.87214 11:0.5771 12:-0.31565 13:-0.77788 14:-0.83596 15:-1.7411 16:-1.1188 17:-0.749 18:0.60958 19:0.07498 20:-0.98719 21:-1.0504 22:-1.6979 23:-0.33425 24:2.0428 25:-0.20831 
0.29429224195564613 1:-2.2868 2:-2.74 3:-1.7046 4:-0.89478 5:-0.12311 6:-0.15657 7:-0.50291 8:0.01627 9:0.54659 10:-0.14647 11:-1.2446 12:-0.078278 13:0.86601 14:0.59159 15:0.46919 16:2.414 17:1.6453 18:0.086213 19:-0.44847 20:0.080258 21:1.3012 22:1.6481 23:1.5343 24:0.33231 25:-2.3262 
0.28044029164232853 1:-0.95346 2:-0.89591 3:-1.0468 4:-1.0239 5:-0.88236 6:-1.0439 7:-0.72586 8:-0.87963 9:-1.043 10:-1.5057 11:-1.2455 12:-0.76828 13:-0.55497 14:-0.007963 15:0.85526 16:1.1872 17:2.2395 18:1.6608 19:0.94357 20:0.55108 21:-0.38876 22:-0.58175 23:2.598 24:1.6737 25:-1.0348 
0.4765940968630833 1:1.2698 2:1.59 3:1.7336 4:1.6619 5:1.9784 6:2.2375 7:1.4927 8:0.96209 9:0.84572 10:0.66641 11:0.57806 12:0.1823 13:0.37539 14:0.43989 15:-0.23294 16:-0.70716 17:-0.94696 18:-1.7135 19:-2.418 20:-2.6405 21:-2.3263 22:-1.9515 23:-1.495 24:-1.0887 25:1.6759 
1.0 1:0.47438 2:0.31638 3:0.13399 4:0.44474 5:0.20504 6:0.19194 7:0.85477 8:0.89877 9:0.71241 10:0.97414 11:0.53912 12:-0.17005 13:0.9608 14:-0.26768 15:0.0064032 16:3.7603 17:-0.34728 18:4.0166 19:4.7624 20:2.6634 21:-0.5154 22:-3.1023 23:-2.9724 24:-2.901 25:0.13268 
1.0 1:-4.4643 2:-4.1313 3:-0.95285 4:-1.28 5:-2.065 6:-0.40052 7:-1.1116 8:-0.89046 9:1.1161 10:1.5956 11:2.3277 12:2.7116 13:3.9759 14:3.9796 15:4.153 16:5.7074 17:4.1089 18:1.96 19:0.36756 20:-0.1149 21:-0.38752 22:-0.33697 23:0.046924 24:-0.020062 25:0.81735 
1.0 1:3.4645 2:3.3183 3:3.4506 4:3.4198 5:3.0594 6:2.8186 7:2.2027 8:1.6759 9:0.33039 10:0.30591 11:1.0966 12:0.68231 13:-0.40956 14:-0.66654 15:0.16385 16:0.57818 17:-0.055835 18:-0.38597 19:-0.41655 20:-0.23086 21:-1.1239 22:-0.10696 23:-1.0959 24:-1.0494 25:4.3489 
1.0 1:5.7663 2:0.055142 3:-2.4531 4:0.097254 5:0.49127 6:0.22934 7:-0.32298 8:-2.6719 9:1.2645 10:-0.84326 11:-0.46378 12:-0.025034 13:-1.3419 14:-3.1748 15:-1.2345 16:1.5137 17:1.5952 18:2.1431 19:1.4267 20:2.5171 21:4.1111 22:3.0163 23:3.2365 24:4.3168 25:6.3732 
0.5034607465464136 1:-2.0922 2:-1.8379 3:-2.4659 4:-2.4844 5:-0.15984 6:0.42167 7:1.0727 8:-1.7577 9:-0.60102 10:-0.88753 11:0.34936 12:0.84603 13:-0.47162 14:-0.51563 15:0.71123 16:-0.18558 17:-1.4396 18:0.40348 19:-0.16518 20:-0.59624 21:0.35038 22:0.25361 23:0.2956 24:0.68038 25:-1.5489 
0.5822483752477001 1:-0.38797 2:-0.41568 3:-0.92231 4:-0.46486 5:-0.96025 6:-1.2975 7:-0.82369 8:-1.8181 9:-2.8296 10:-2.7004 11:-2.4689 12:-1.7358 13:-0.99859 14:-2.3052 15:-3.0302 16:-0.69995 17:-0.13712 18:0.24916 19:0.69388 20:1.6406 21:1.4295 22:1.2852 23:1.2103 24:1.1445 25:-0.13987 
1.0 1:1.4535 2:1.6061 3:1.0729 4:-0.60216 5:-2.5161 6:-3.3297 7:-3.849 8:-3.8469 9:-3.3794 10:-2.0287 11:-0.52303 12:0.69991 13:0.46527 14:-0.29046 15:-0.60729 16:-0.29476 17:-0.11279 18:0.42152 19:0.35606 20:-0.36525 21:-0.2594 22:0.57853 23:0.064669 24:-0.032072 25:1.4371 
1.0 1:-5.9879 2:-5.738 3:-4.1026 4:-3.5343 5:-4.6444 6:-0.95723 7:2.225 8:1.2252 9:1.5583 10:1.7047 11:-0.74342 12:1.707 13:1.4476 14:-3.8148 15:1.615 16:1.1547 17:-0.57161 18:-0.55248 19:-0.94755 20:-0.97108 21:-0.37571 22:-1.5044 23:-0.46537 24:0.31609 25:-2.987 
1.0 1:0.87936 2:1.0874 3:1.8278 4:2.2381 5:2.122 6:2.1871 7:2.428 8:2.1376 9:0.51509 10:0.28612 11:-0.35378 12:-1.4272 13:-3.1367 14:-1.5932 15:-1.3108 16:-1.838 17:-0.52245 18:-1.6909 19:-1.0477 20:-2.4847 21:-0.95271 22:-3.3895 23:-2.5292 24:-1.5485 25:1.3735 
1.0 1:0.10798 2:-0.47006 3:0.41415 4:-0.43007 5:-1.958 6:-2.6303 7:-2.9996 8:-3.1287 9:-3.5945 10:-3.4021 11:-3.6387 12:-3.6844 13:-3.23 14:-2.9601 15:-2.0096 16:-0.98034 17:-0.4636 18:-0.11654 19:0.056057 20:0.11489 21:0.09891 22:0.09076 23:0.13745 24:0.11801 25:0.58931 
0.27658376123461065 1:0.35677 2:-0.43377 3:-0.67364 4:0.82131 5:0.97071 6:1.0418 7:1.452 8:1.1296 9:1.1384 10:2.3566 11:2.8314 12:2.9622 13:1.9401 14:2.2012 15:1.7354 16:1.1569 17:0.53182 18:0.33386 19:0.29626 20:0.28487 21:0.07188 22:0.044395 23:0.1674 24:0.25488 25:0.93445 
0.6563412747290176 1:1.8441 2:2.2331 3:1.8034 4:0.02462 5:-0.62229 6:-0.28459 7:0.33805 8:0.42012 9:0.63665 10:0.75528 11:1.0944 12:1.459 13:1.9984 14:2.4135 15:2.6199 16:2.4141 17:2.102 18:1.5656 19:1.0364 20:0.69997 21:-0.36174 22:0.15962 23:-1.0479 24:-1.0636 25:2.0778 
0.9793413564827987 1:-0.47003 2:-0.42929 3:0.83286 4:0.43814 5:1.0718 6:1.6313 7:0.09775 8:-1.2128 9:-1.4544 10:-1.9926 11:-2.8681 12:-3.4523 13:-3.8061 14:-4.3705 15:-4.8066 16:-4.382 17:-3.9974 18:-3.853 19:-3.0648 20:-1.9163 21:-1.3571 22:-1.0906 23:-0.7828 24:-0.72868 25:-1.6564 
0.6006354074632907 1:-1.1229 2:-0.96676 3:-0.85493 4:-1.0753 5:-1.3725 6:-0.52646 7:-0.23293 8:-0.51203 9:-0.49876 10:-0.98172 11:-0.74822 12:-1.2425 13:-1.9288 14:-2.8797 15:-2.4295 16:-1.4999 17:-1.8712 18:-2.1957 19:-1.5059 20:-1.7797 21:-1.3849 22:-1.3203 23:-2.0077 24:-1.7818 25:-0.58419 
0.39936988800888573 1:-0.083835 2:-0.2624 3:-0.2428 4:0.11157 5:0.80074 6:1.062 7:1.0797 8:1.6375 9:2.1308 10:1.675 11:1.7652 12:1.2474 13:1.5536 14:0.87259 15:0.46793 16:-0.67746 17:-1.1915 18:-1.7521 19:-1.2935 20:-0.86837 21:-0.28382 22:0.20499 23:-1.8023 24:-1.6533 25:-0.54977 
0.9655684980477047 1:-5.8706 2:-3.3373 3:-1.1609 4:-0.99779 5:-0.80847 6:-0.11756 7:0.20558 8:0.28717 9:0.70273 10:0.75064 11:0.97369 12:0.94113 13:1.1695 14:1.4306 15:1.1331 16:0.94647 17:0.76188 18:0.48659 19:0.40128 20:0.4719 21:0.2641 22:0.63971 23:0.60995 24:0.53815 25:-6.9219 
1.0 1:0.22171 2:0.034895 3:0.069654 4:-0.047104 5:-0.0050544 6:0.0026048 7:-0.046748 8:-0.37622 9:0.3663 10:0.88304 11:1.024 12:0.97445 13:1.2772 14:1.4289 15:0.67096 16:0.31206 17:1.3332 18:1.4953 19:1.9071 20:0.62742 21:-0.70692 22:-3.0244 23:-4.2969 24:-4.5618 25:0.3602 
1.0 1:0.11721 2:-1.6573 3:1.2457 4:-0.58976 5:1.6965 6:-0.069468 7:-3.4685 8:-4.0755 9:-0.64547 10:0.37675 11:0.6235 12:-0.52973 13:-0.86296 14:-1.2242 15:-1.7689 16:-1.7844 17:-0.94712 18:1.2492 19:0.82347 20:0.23252 21:-0.091759 22:-0.03552 23:0.21375 24:0.26506 25:-3.0986 
0.41232982707961185 1:0.80834 2:1.1461 3:-0.67385 4:0.10226 5:0.77746 6:-0.25098 7:-1.157 8:-0.52325 9:-0.50665 10:-0.14825 11:0.3048 12:-1.8729 13:-2.6196 14:-0.53902 15:0.038497 16:-2.4554 17:-2.7052 18:-1.2251 19:0.55641 20:0.57588 21:-0.40647 22:-0.29315 23:0.97054 24:-0.54106 25:-0.50477 
0.7886252114576198 1:2.1228 2:2.6013 3:1.1147 4:-0.29073 5:-0.078805 6:0.37312 7:1.0674 8:0.91992 9:1.2037 10:1.2325 11:1.6273 12:0.92121 13:0.80075 14:1.4415 15:1.5781 16:0.90803 17:0.92375 18:2.3882 19:3.0411 20:0.65841 21:0.24714 22:1.9636 23:1.2421 24:-0.41671 25:3.4531 
1.0 1:0.16415 2:-0.14185 3:-1.2683 4:-0.58787 5:-2.057 6:-0.72096 7:-0.28565 8:-0.71645 9:-1.6413 10:0.091507 11:0.40543 12:0.83748 13:1.5395 14:2.1275 15:2.2774 16:2.3578 17:2.2593 18:3.2605 19:3.5711 20:3.8224 21:3.9294 22:4.3403 23:4.1927 24:4.4062 25:1.1572 
1.0 1:0.64793 2:0.30381 3:0.57827 4:1.2141 5:1.3063 6:1.532 7:1.8829 8:1.0795 9:1.5023 10:1.9327 11:2.2093 12:3.0091 13:4.0229 14:4.6143 15:7.0695 16:6.5616 17:5.5873 18:3.9475 19:2.8779 20:1.5818 21:0.86147 22:0.37741 23:0.27983 24:0.1418 25:0.66509 
0.149410727306279 1:-0.63126 2:-0.60388 3:0.12508 4:-1.4756 5:-1.1882 6:-0.20092 7:-1.0563 8:-0.90881 9:-1.4395 10:-2.0821 11:-2.1677 12:-1.7181 13:-1.3878 14:-0.76635 15:0.48151 16:1.4403 17:1.9504 18:1.6411 19:1.1278 20:0.60982 21:-0.39543 22:-0.10109 23:0.86695 24:0.81601 25:-0.1686 
1.0 1:0.35926 2:0.017531 3:0.53701 4:2.1049 5:3.112 6:4.9507 7:4.6064 8:3.7939 9:2.9001 10:2.6026 11:0.087858 12:-1.2871 13:0.80087 14:0.74131 15:0.24578 16:-0.039905 17:-1.4987 18:-0.49604 19:-0.35903 20:-0.62441 21:1.5782 22:0.6861 23:0.19494 24:0.27796 25:0.30794 
0.2695272215419613 1:-1.3738 2:-1.8395 3:-0.80812 4:0.48188 5:-0.62983 6:-1.9433 7:-2.0581 8:-1.5863 9:-1.434 10:-1.8725 11:-2.4367 12:-1.7083 13:-0.56839 14:-0.018901 15:-0.40724 16:-1.4049 17:-0.81131 18:1.6605 19:2.1369 20:1.0519 21:0.39946 22:0.5159 23:0.66593 24:1.2311 25:-0.4832 
1.0 1:1.1347 2:1.0215 3:0.40534 4:2.2705 5:2.3604 6:2.3658 7:2.1494 8:1.9259 9:2.3381 10:0.87133 11:1.9369 12:1.2615 13:-0.13465 14:-2.3585 15:-3.2554 16:-4.1971 17:-4.3722 18:-4.88 19:-4.6183 20:-2.6494 21:-2.1323 22:-1.17 23:0.81123 24:1.5754 25:3.5119 
0.8429625507681212 1:-0.084629 2:0.067475 3:-0.098321 4:-0.051725 5:0.067468 6:-0.31775 7:-0.54835 8:-0.35178 9:-0.055499 10:-0.6243 11:0.72333 12:-0.16914 13:-0.41317 14:0.045494 15:-0.064723 16:-0.83218 17:-1.5749 18:0.93139 19:1.7914 20:-0.33279 21:-0.27768 22:3.172 23:1.2637 24:-4.2954 25:0.38718 
0.5901731542865304 1:-0.22614 2:-0.25354 3:1.0188E-4 4:-0.14746 5:-0.011959 6:-0.38187 7:-0.69973 8:-0.91716 9:-1.5288 10:-1.963 11:-1.8945 12:-2.1674 13:-3.2444 14:-3.5377 15:-2.7786 16:-3.4475 17:-3.2229 18:-2.6293 19:-2.8455 20:-3.657 21:-2.2536 22:-0.18921 23:-0.57841 24:-0.30518 25:-0.24657 
1.0 1:-0.8496 2:-2.0211 3:-4.2349 4:-5.2637 5:-6.3924 6:-5.4328 7:-5.1202 8:-5.7177 9:-4.3172 10:-3.2923 11:-2.4145 12:-1.626 13:-0.63962 14:0.38594 15:1.5732 16:2.2208 17:1.4307 18:2.4655 19:3.0995 20:1.7764 21:0.29393 22:-0.29084 23:-0.49983 24:-0.24969 25:-0.45445 
1.0 1:-4.1312 2:-5.6651 3:-6.6334 4:-6.0831 5:-9.175 6:-5.0741 7:-3.4291 8:-2.8028 9:-1.4698 10:-1.1027 11:-0.26356 12:1.2981 13:1.5994 14:3.1318 15:4.1915 16:4.1141 17:3.1828 18:2.3766 19:1.5 20:-0.19028 21:-0.62483 22:0.21549 23:0.48299 24:0.28206 25:0.27375 
1.0 1:1.6252 2:1.3756 3:0.94774 4:0.725 5:0.28166 6:0.18802 7:0.31267 8:0.49646 9:0.38497 10:0.00882 11:0.032194 12:-0.027189 13:-1.014 14:-0.63446 15:0.026414 16:-0.81189 17:-3.713 18:-2.7096 19:0.37133 20:1.8602 21:2.8515 22:0.083122 23:4.1435 24:-5.9101 25:2.1024 
1.0 1:-2.8117 2:-3.6732 3:2.2646 4:-1.7471 5:-3.8369 6:-3.7817 7:-4.3014 8:-4.9775 9:-4.953 10:-2.1748 11:0.20222 12:0.41669 13:0.33012 14:1.2832 15:2.1197 16:3.0027 17:2.4851 18:1.5197 19:0.8441 20:0.93258 21:1.5572 22:2.2987 23:2.563 24:2.2547 25:-0.85444 
-0.3652183984271258 1:-1.8921 2:-0.94903 3:-0.4065 4:2.0139 5:3.021 6:1.6772 7:1.4397 8:2.3148 9:0.66437 10:1.7904 11:0.69955 12:3.9607 13:-10.1194 14:-6.9047 15:-2.1309 16:-1.6437 17:1.0647 18:1.4798 19:1.5114 20:1.444 21:1.3051 22:1.6873 23:2.1086 24:2.2363 25:-6.7348 
-0.3607219875582179 1:-1.5317 2:-1.6347 3:-1.2263 4:-4.1444 5:-4.3001 6:2.5812 7:6.6783 8:7.1354 9:3.5443 10:-0.3619 11:-0.32567 12:-1.1588 13:-1.0308 14:-1.8749 15:-2.789 16:-1.5425 17:-3.8842 18:-3.3414 19:-0.57255 20:4.3166 21:8.6061 22:4.8326 23:-1.2811 24:-0.76421 25:-0.62101 
-0.3707935404712449 1:-1.888 2:-3.989 3:-3.1474 4:-5.7546 5:-3.8482 6:-0.33934 7:2.8507 8:1.8405 9:0.87985 10:1.4878 11:0.68619 12:2.6247 13:0.58604 14:4.4028 15:-1.0838 16:4.1708 17:-3.221 18:-6.79 19:-1.9793 20:-2.1445 21:-1.8289 22:0.078428 23:0.76896 24:1.2722 25:1.9518 
-0.3745990949899804 1:1.4309 2:-2.0857 3:-9.8957 4:-4.254 5:-0.2642 6:0.36245 7:-5.2256 8:-4.2182 9:1.1007 10:2.5655 11:4.1259 12:4.1165 13:4.0871 14:5.5237 15:4.2578 16:4.2839 17:1.411 18:-0.55888 19:-8.1906 20:-7.6292 21:-1.609 22:-3.9065 23:-2.4395 24:-1.4485 25:3.688 
-0.36453980871053304 1:0.34056 2:-1.0704 3:-1.7983 4:-4.4684 5:-7.2306 6:-4.0506 7:-3.4981 8:-0.75138 9:2.5725 10:2.1824 11:-0.21081 12:2.0601 13:2.1662 14:1.5229 15:1.9664 16:-0.5457 17:-3.1215 18:-6.0591 19:-7.6745 20:-9.5669 21:-8.5051 22:-7.2344 23:-3.5039 24:-1.7034 25:1.9796 
-0.36782957731358956 1:-2.7597 2:-2.6335 3:-2.5198 4:-2.6715 5:-2.3185 6:1.7601 7:5.6664 8:6.2987 9:7.7666 10:3.3974 11:-1.3365 12:-2.4885 13:-2.8155 14:-2.1204 15:-3.0168 16:-4.1253 17:-0.51157 18:-2.091 19:-4.7287 20:4.3356 21:8.1239 22:6.676 23:1.055 24:0.53735 25:-2.4191 
-0.3741614484885696 1:-2.193 2:-2.1075 3:-5.9914 4:-7.2626 5:-5.3745 6:-1.6187 7:-2.9622 8:-3.5154 9:2.4048 10:0.3656 11:1.7683 12:2.2255 13:1.5505 14:-0.003337 15:-1.4531 16:-1.1645 17:-3.1536 18:-2.5029 19:-3.617 20:-2.7277 21:-0.51192 22:-2.1002 23:-0.53841 24:4.4976 25:-0.41747 
-0.5420609173528895 1:-0.24989 2:-0.4599 3:-0.5824 4:-1.3815 5:0.74082 6:0.88233 7:-2.5402 8:-0.43904 9:2.5369 10:-0.8519 11:-1.2248 12:1.7204 13:2.089 14:0.29753 15:3.7032 16:3.3654 17:0.7571 18:0.46015 19:5.8033 20:3.4312 21:1.3089 22:-1.9717 23:-1.2725 24:-0.61672 25:-0.31934 
-0.3734401394104763 1:6.7537 2:4.0498 3:1.5662 4:1.4128 5:2.9547 6:1.1087 7:-0.23169 8:2.3849 9:-0.97588 10:-8.7117 11:-8.9763 12:-7.6026 13:-1.2391 14:3.1968 15:4.5837 16:2.6983 17:3.7499 18:0.92654 19:4.5657 20:3.031 21:0.29875 22:2.5041 23:-0.41164 24:-7.9632 25:1.4533 
-0.35850479114161454 1:-4.4411 2:-1.3993 3:0.45253 4:-1.4757 5:1.9626 6:3.5375 7:5.009 8:3.5024 9:-0.044873 10:-0.71334 11:-2.8427 12:-3.7012 13:-4.0741 14:-5.6304 15:-5.1132 16:-4.13 17:0.58574 18:-0.36948 19:3.6684 20:1.869 21:0.76197 22:2.3392 23:2.0453 24:1.7198 25:-4.0779 
-0.374475448328522 1:4.8391 2:4.2757 3:4.7446 4:2.3804 5:2.9744 6:-2.2696 7:-7.2605 8:-3.9646 9:-3.918 10:-4.6403 11:0.93991 12:1.6847 13:5.112 14:0.65837 15:4.3479 16:5.2515 17:3.4623 18:4.0477 19:4.5729 20:-0.062501 21:-12.5275 22:-6.0494 23:-3.5621 24:-3.2924 25:-0.083581 
-0.3701164921696713 1:-5.3513 2:10.4331 3:9.9462 4:3.2809 5:-2.0171 6:-1.8292 7:0.12232 8:-0.80931 9:-0.75519 10:-2.9658 11:-1.1031 12:-1.9442 13:-3.8231 14:-4.6974 15:1.2889 16:5.5651 17:4.9496 18:3.8687 19:1.1701 20:-1.2553 21:-1.4698 22:1.3443 23:-1.1408 24:-3.3583 25:-3.5612 
-0.3672959548601173 1:-6.5283 2:-3.1253 3:0.46144 4:2.3069 5:3.534 6:2.562 7:3.7928 8:4.247 9:1.5826 10:0.31097 11:3.9778 12:3.7462 13:-10.1808 14:-8.4201 15:-5.1618 16:-4.1654 17:-1.9916 18:3.0266 19:2.4881 20:0.90536 21:4.048 22:4.2297 23:1.5166 24:0.42504 25:-5.7359 
-0.3748468591824472 1:-0.12066 2:-2.2864 3:-0.42011 4:1.4011 5:1.678 6:2.8301 7:1.1997 8:3.475 9:-0.40095 10:-0.67244 11:3.9291 12:3.5346 13:-13.6364 14:2.0067 15:1.1062 16:-2.7874 17:-2.4735 18:-0.21372 19:-1.8204 20:-2.9912 21:3.2573 22:-1.21 23:0.58526 24:-3.0944 25:3.213 
-0.3721696384725448 1:1.7502 2:3.8101 3:3.9892 4:3.9333 5:4.3526 6:4.0357 7:2.7086 8:-0.095169 9:-5.583 10:-5.2978 11:-5.3869 12:-4.6737 13:-5.6928 14:-1.5168 15:1.4451 16:2.9621 17:3.5337 18:4.0242 19:3.7871 20:3.4943 21:3.4789 22:2.9866 23:0.91861 24:1.2583 25:-2.1849 
-0.3749657290533903 1:2.9397 2:1.3687 3:0.9488 4:2.8488 5:1.4362 6:-0.69361 7:-0.63785 8:-3.5359 9:-4.5945 10:-1.4974 11:-0.8221 12:5.2648 13:5.9885 14:3.7878 15:1.0535 16:2.7388 17:2.3692 18:1.4197 19:-3.198 20:-0.95389 21:-1.1186 22:-3.5124 23:0.2721 24:-13.6689 25:6.2225 
-0.37481557634756985 1:5.1838 2:6.7539 3:5.165 4:0.73603 5:-1.7118 6:-0.47869 7:-1.6999 8:-2.3996 9:-3.0612 10:-1.7721 11:-1.5139 12:-3.7208 13:-4.3927 14:1.2426 15:5.6895 16:8.4418 17:5.0753 18:1.0236 19:-1.3507 20:-0.47104 21:-0.5863 22:-2.8957 23:-4.2489 24:-2.381 25:-0.36776 
-0.36363345926357415 1:-2.4216 2:-1.7755 3:-3.2508 4:-0.26713 5:-0.4405 6:3.6729 7:6.352 8:2.8697 9:1.0373 10:0.30618 11:-1.6999 12:-1.5366 13:-2.2441 14:-1.2261 15:-1.7078 16:-4.7198 17:-0.24959 18:-0.74354 19:4.7225 20:7.8506 21:2.9173 22:-0.86011 23:1.6063 24:-1.0629 25:-2.9943 
-0.37041490873704436 1:-0.68825 2:2.2004 3:2.3307 4:-0.853 5:-3.1385 6:-4.3267 7:-2.4361 8:-2.5319 9:-3.9599 10:-6.0637 11:-2.7466 12:1.8281 13:2.542 14:1.6311 15:2.1073 16:0.072808 17:3.1533 18:1.4456 19:-0.22122 20:-1.1744 21:-0.96597 22:-4.0999 23:-5.4047 24:-7.3959 25:0.92758 
-0.37546141559255897 1:1.0043 2:1.4736 3:2.5709 4:0.95008 5:0.67976 6:-3.3408 7:-8.9456 8:-7.146 9:-0.53697 10:1.7361 11:1.7936 12:3.5804 13:5.2656 14:1.6867 15:4.4876 16:6.5086 17:5.9795 18:3.5583 19:0.73404 20:-1.3387 21:-3.35 22:-8.955 23:-10.4821 24:1.0089 25:1.4032 
-0.3746515644504341 1:2.5973 2:0.78993 3:-10.9148 4:-3.3033 5:-1.4084 6:0.9805 7:-1.9353 8:1.4141 9:-1.2432 10:0.06287 11:1.9119 12:1.7918 13:3.8075 14:2.7714 15:1.2933 16:5.7227 17:4.624 18:-1.3874 19:-3.2885 20:-3.0034 21:-3.6359 22:-1.0434 23:0.85772 24:1.0023 25:2.8675 
-0.48991996680161554 1:-3.0217 2:1.6171 3:2.0907 4:-1.0612 5:2.422 6:3.1727 7:-0.72819 8:-1.4653 9:-1.4739 10:-2.1498 11:-2.5757 12:-1.0367 13:0.72923 14:-0.88906 15:1.9977 16:2.3547 17:-0.0053493 18:2.6218 19:2.4787 20:0.52842 21:-2.0924 22:-1.0816 23:-0.53924 24:-2.6979 25:-3.1861 
-0.2943623781718259 1:5.708 2:5.1491 3:2.9131 4:0.11841 5:-0.16541 6:-0.47544 7:-0.92916 8:-2.8413 9:-3.3716 10:-2.479 11:-4.2042 12:-4.8387 13:5.8908 14:7.41 15:5.9035 16:2.6851 17:-1.4006 18:-2.4482 19:-0.6016 20:0.42218 21:-0.53021 22:-1.8475 23:-2.6662 24:-2.909 25:5.0299 
-0.37473110887598066 1:1.9081 2:6.1059 3:4.167 4:3.4422 5:3.8909 6:2.3642 7:2.1833 8:1.9614 9:1.3836 10:3.6521 11:2.8025 12:2.031 13:-0.59581 14:-2.1756 15:-7.6265 16:-12.0074 17:-6.7075 18:0.047911 19:0.90725 20:1.827 21:2.9165 22:3.3276 23:3.6024 24:2.6353 25:1.1091 
-0.472008437421261 1:-1.1061 2:-0.40001 3:0.91588 4:-0.42365 5:-3.6137 6:-0.085918 7:-2.7054 8:-0.9004 9:1.7679 10:-1.9489 11:0.7712 12:0.19964 13:1.7598 14:1.3593 15:-0.58364 16:-0.5537 17:-1.0068 18:-1.8171 19:-2.612 20:-4.8272 21:-1.7751 22:-3.538 23:-1.4304 24:3.773 25:-0.58239 
-0.37069630894223793 1:0.54475 2:-1.9219 3:-1.9355 4:-1.6114 5:-2.5395 6:-1.6963 7:-2.2498 8:-0.21649 9:3.0999 10:8.7067 11:2.468 12:-4.5973 13:-1.4844 14:-0.13841 15:-0.99135 16:-2.6553 17:-0.1816 18:-2.2037 19:0.048301 20:-3.8194 21:-3.8406 22:1.8991 23:3.636 24:-0.16282 25:2.3842 
-0.37325057116546856 1:4.9682 2:3.9033 3:4.4324 4:2.6086 5:2.1027 6:-3.1396 7:-7.91 8:-2.9552 9:0.30579 10:-0.53756 11:-0.48911 12:3.1915 13:3.3646 14:2.8637 15:3.5807 16:2.0532 17:4.5295 18:-1.8084 19:-2.0226 20:-12.1797 21:-4.2861 22:-6.0651 23:-0.92962 24:2.4271 25:4.1423 
-0.3681789271080778 1:2.3322 2:5.3099 3:1.096 4:0.7508 5:-2.1308 6:-1.6759 7:-3.781 8:-8.2385 9:-3.969 10:-5.8649 11:-1.8274 12:-2.8637 13:0.93532 14:0.90232 15:2.0892 16:1.717 17:1.2767 18:0.38925 19:-0.48463 20:-0.55675 21:-3.3112 22:-6.4024 23:-7.0038 24:-4.3475 25:-0.10367 
-0.3739062843853622 1:4.3455 2:3.4839 3:4.4954 4:3.1071 5:6.5033 6:5.6167 7:5.0261 8:2.5516 9:-8.9389 10:-11.682 11:-8.6835 12:-2.9297 13:0.7491 14:2.774 15:3.8342 16:3.5427 17:3.6696 18:3.4809 19:6.386 20:6.9806 21:5.3237 22:0.50604 23:-8.2395 24:-7.9347 25:1.3728 
-0.3787094260190999 1:-3.8986 2:-4.0368 3:-0.69485 4:0.45773 5:-1.4381 6:-1.5525 7:0.93329 8:0.94113 9:0.85189 10:0.60178 11:3.8941 12:2.4342 13:-6.7073 14:-1.1782 15:-0.048292 16:-3.8482 17:-4.4299 18:-1.7122 19:0.10593 20:0.71072 21:-0.75204 22:1.0873 23:1.5309 24:0.15277 25:-4.8845 
-0.3675374891871461 1:1.0176 2:-5.2321 3:-6.6576 4:-2.7981 5:0.062272 6:-0.051609 7:-1.8928 8:-0.90795 9:-2.6303 10:-1.0869 11:0.53509 12:1.4701 13:2.0111 14:2.4191 15:1.2474 16:-1.4789 17:-7.6894 18:-4.3493 19:-3.0151 20:-1.5309 21:0.50851 22:-0.88027 23:-0.32722 24:0.32342 25:4.491 
-0.44647207582045445 1:0.58742 2:-1.884 3:3.056 4:1.0721 5:-1.0949 6:1.6917 7:2.4352 8:1.6181 9:-4.5866 10:0.090439 11:-1.11 12:-2.5553 13:-0.14502 14:0.45519 15:3.7447 16:0.78348 17:0.15135 18:0.5363 19:1.3198 20:-0.043866 21:4.0663 22:4.672 23:-1.4197 24:0.070312 25:2.7 
-0.37514498996261797 1:2.9946 2:3.7421 3:3.7575 4:4.5984 5:4.2178 6:3.7135 7:3.4619 8:-15.4778 9:-9.25 10:-3.5026 11:-0.19343 12:2.2592 13:2.6063 14:2.3599 15:4.1614 16:3.923 17:4.1104 18:6.2002 19:5.8239 20:3.1668 21:-6.3742 22:-13.7293 23:-8.0068 24:1.393 25:4.2164 
-0.37158764643436154 1:1.9094 2:4.2001 3:2.4674 4:2.1014 5:3.8836 6:2.9488 7:-3.3137 8:-8.2223 9:-6.4041 10:-6.5299 11:0.3493 12:4.5642 13:3.0688 14:2.678 15:3.7305 16:2.8998 17:1.3964 18:1.3833 19:2.0735 20:1.7294 21:-1.5303 22:-9.1236 23:-5.9785 24:-7.1393 25:2.4583 
-0.3802426818962034 1:-0.63144 2:0.21539 3:-1.3507 4:6.4016 5:1.7424 6:-1.8788 7:-3.1993 8:-0.85846 9:0.24011 10:-0.093764 11:4.2082 12:0.58202 13:-2.1054 14:-3.7996 15:-4.3608 16:-2.8486 17:3.5282 18:4.488 19:1.7486 20:-0.55922 21:-0.34477 22:1.6339 23:1.3974 24:-2.8948 25:-1.8304 
-0.37497669361056635 1:-2.4829 2:3.8634 3:2.6306 4:2.4998 5:2.7724 6:3.4426 7:0.65807 8:1.3594 9:4.3297 10:7.3849 11:-8.5304 12:-10.717 13:-3.9301 14:1.5614 15:1.1241 16:3.6938 17:3.0278 18:0.65743 19:0.73762 20:1.3074 21:2.4451 22:2.5151 23:-0.41252 24:-1.3227 25:-7.8756 
-0.5078944143294049 1:-0.2719 2:3.6197 3:3.0824 4:0.96595 5:-0.26115 6:-0.18805 7:-0.83206 8:-0.96344 9:-1.1289 10:-3.1805 11:-3.5007 12:-3.814 13:-2.9604 14:1.027 15:1.2398 16:1.6241 17:1.4687 18:1.9208 19:2.4278 20:1.7192 21:0.74781 22:0.86114 23:-0.66918 24:-1.6129 25:-1.7449 
-0.32426441241525933 1:1.5656 2:-3.0084 3:-7.0425 4:-2.2144 5:-4.4783 6:-0.72527 7:-0.98652 8:1.0006 9:1.5625 10:1.9412 11:1.8824 12:2.4089 13:1.5457 14:1.702 15:0.054594 16:-3.9164 17:-5.3337 18:-4.9857 19:-4.6842 20:-1.4978 21:-0.56378 22:1.6502 23:2.1506 24:2.6791 25:2.9851 
-0.3733301237230935 1:8.7721 2:0.93706 3:-0.62166 4:-1.1132 5:-0.3371 6:-0.7678 7:-3.1717 8:-5.3404 9:-4.2889 10:0.66346 11:-1.0582 12:-0.22669 13:5.2094 14:10.8482 15:2.612 16:-0.42881 17:-4.3196 18:2.3223 19:-1.7866 20:-4.1027 21:-2.5792 22:-0.96729 23:0.30972 24:-1.742 25:2.0315 
-0.3745519538813475 1:4.7403 2:1.5421 3:-2.4345 4:-4.8065 5:-3.1992 6:-0.27986 7:-0.98642 8:-1.6336 9:-0.71555 10:-2.0127 11:-0.91581 12:0.40049 13:1.5171 14:3.1611 15:2.8785 16:5.5239 17:2.7281 18:-1.6983 19:-7.4077 20:-1.8971 21:-1.9412 22:-4.947 23:-2.0731 24:-1.1027 25:5.8651 
-0.3815892640490859 1:-2.2535 2:-1.6796 3:-2.7099 4:0.28529 5:-1.4146 6:-0.76398 7:-1.9533 8:-1.1944 9:-0.44383 10:-1.1481 11:-4.6558 12:-3.5929 13:8.732 14:2.6094 15:-1.8528 16:0.0076571 17:3.2372 18:3.2528 19:-0.42084 20:-1.7896 21:-0.54468 22:-2.0072 23:-0.85579 24:-0.34428 25:2.4426 
-0.3706765561260709 1:2.1874 2:2.9149 3:4.2186 4:2.7144 5:-4.8104 6:-6.2525 7:-4.6276 8:0.49979 9:-1.63 10:-1.4205 11:-0.063508 12:0.33616 13:-0.7538 14:0.54743 15:0.69099 16:1.2121 17:1.8788 18:2.6476 19:1.4811 20:-1.9221 21:-3.3383 22:-3.6213 23:-2.6331 24:-2.1803 25:1.2822 
-0.3729650543135609 1:-2.5128 2:-9.1573 3:-6.0992 4:-3.3778 5:-3.4974 6:5.4718 7:3.0095 8:3.025 9:4.2691 10:3.4214 11:0.59439 12:1.1922 13:0.35828 14:-0.4188 15:-6.8577 16:-7.6461 17:-5.04 18:-3.6133 19:4.8016 20:5.4741 21:2.7462 22:3.0887 23:3.1517 24:2.6137 25:2.373 
-0.5204267871630579 1:1.351 2:3.0583 3:0.41841 4:-1.6869 5:-1.8134 6:-0.95624 7:-1.2554 8:-3.0948 9:-0.14921 10:1.0527 11:1.4253 12:-1.0048 13:-1.0195 14:0.88161 15:1.745 16:0.25027 17:-1.3828 18:-2.7329 19:-1.6165 20:-1.6091 21:-2.8537 22:-0.18758 23:3.0535 24:1.661 25:-3.5373 
-0.37573711059146286 1:-4.0046 2:-0.94068 3:-5.0282 4:-0.77163 5:1.1319 6:0.69773 7:2.3649 8:1.8113 9:2.5818 10:2.6142 11:3.5627 12:5.1286 13:8.5634 14:3.6103 15:1.3072 16:-6.7184 17:-0.40803 18:-4.1143 19:-3.9041 20:-3.5075 21:-0.072713 22:0.4599 23:0.21374 24:0.10869 25:-5.1901 
-0.3727695980244901 1:-1.0148 2:-4.0598 3:-3.682 4:-5.1831 5:-3.5835 6:-1.3203 7:4.8896 8:2.8745 9:-0.46952 10:0.034588 11:0.29134 12:-2.3537 13:-3.9992 14:3.1506 15:-1.7918 16:-1.0414 17:-4.4884 18:-6.5312 19:-5.806 20:-2.0785 21:-2.6648 22:4.381 23:1.8734 24:-0.78781 25:-1.7974 
-0.4639914967287471 1:-1.8888 2:-2.749 3:-2.2926 4:1.3645 5:0.58368 6:-1.3479 7:3.0552 8:0.45981 9:3.7066 10:-4.379 11:1.2683 12:1.0035 13:-0.87464 14:-0.015902 15:-1.2778 16:-2.6992 17:1.6493 18:2.3177 19:2.1767 20:2.8499 21:0.06604 22:-0.43732 23:-0.55471 24:-0.13889 25:-0.1661 
-0.35637258226479956 1:-0.39868 2:-2.3519 3:-1.0424 4:-2.5382 5:-2.6435 6:-2.5912 7:-3.7768 8:0.54959 9:6.5868 10:7.1423 11:3.2456 12:-0.12591 13:-0.33334 14:0.13505 15:-0.25031 16:-1.5316 17:-1.2548 18:-2.6015 19:-2.2436 20:-4.1244 21:-3.0765 22:4.0496 23:4.8063 24:6.3868 25:-0.4819 
-0.3384408663090996 1:-3.4293 2:-3.834 3:-0.68697 4:3.4419 5:4.6618 6:5.1176 7:2.0658 8:0.20015 9:-1.153 10:-0.72612 11:-1.2866 12:-2.5292 13:-1.5784 14:-0.92562 15:-2.4741 16:-3.8072 17:0.77079 18:6.6914 19:8.2588 20:2.886 21:1.1627 22:-1.2678 23:-2.0499 24:-1.3575 25:-1.8012 
-0.3853322929112282 1:-2.5487 2:-4.8605 3:-1.9989 4:5.6149 5:2.0058 6:0.85343 7:2.6848 8:4.49 9:0.1361 10:-1.3828 11:-4.8568 12:-3.2303 13:0.66121 14:-0.33481 15:-0.38934 16:1.001 17:2.0779 18:2.0586 19:1.5428 20:-2.2409 21:2.0034 22:-1.9465 23:-1.4166 24:-1.7681 25:-2.4437 
-0.47976651549098304 1:-2.3508 2:-1.4947 3:-1.6612 4:-1.6742 5:0.79237 6:-1.254 7:2.9766 8:0.37229 9:-1.0494 10:-0.65135 11:3.4576 12:0.70444 13:-1.7047 14:-1.9859 15:-0.30206 16:-1.8408 17:-4.8037 18:-0.21376 19:-2.4077 20:0.83106 21:3.7133 22:-0.44474 23:-1.495 24:1.1497 25:-1.5787 
-0.32833993692783225 1:-0.88072 2:-0.65115 3:-1.5497 4:-1.7427 5:-1.5805 6:-1.8388 7:-2.9089 8:-3.3809 9:-2.6263 10:1.978 11:4.2526 12:6.2911 13:1.8956 14:1.3184 15:0.59763 16:-0.35243 17:-1.3948 18:-2.8197 19:-0.53931 20:-3.0943 21:-4.3273 22:-3.7913 23:-0.30952 24:3.0556 25:1.5741 
-0.370861239572521 1:3.0175 2:-2.5942 3:-5.5703 4:-2.7674 5:-1.4869 6:-1.0034 7:0.20892 8:-2.5955 9:-1.2179 10:4.1709 11:3.51 12:1.5081 13:0.015657 14:2.9025 15:-1.2832 16:-4.2512 17:-4.3042 18:-2.7664 19:-1.3648 20:-2.2853 21:-4.6887 22:4.1942 23:6.8008 24:4.8532 25:1.5375 
-0.36050785082143044 1:-0.94332 2:-0.89832 3:-0.95401 4:0.040284 5:-0.68111 6:-2.0274 7:-5.8175 8:-3.3273 9:2.9602 10:7.2906 11:6.8137 12:3.1007 13:-0.5373 14:-1.3796 15:-0.76401 16:-0.083657 17:-2.3059 18:-2.4856 19:-1.656 20:-4.1364 21:-4.4975 22:3.2871 23:4.5684 24:8.085 25:-1.1364 
-0.37213386525934167 1:-1.1393 2:0.87638 3:2.0268 4:3.7738 5:4.0933 6:5.5008 7:5.2495 8:3.1855 9:0.12059 10:0.55609 11:-4.5153 12:-2.8668 13:-3.1502 14:0.47589 15:-0.65445 16:-0.64342 17:3.7335 18:2.8286 19:2.115 20:3.2157 21:3.0359 22:2.4936 23:-0.19811 24:-3.7687 25:-3.5193 
-0.3808344280249276 1:2.3229 2:1.6811 3:2.3565 4:2.64 5:1.1479 6:-1.7104 7:-4.3277 8:-1.266 9:-3.7167 10:-2.9152 11:-0.60053 12:-2.9098 13:-4.8876 14:-2.6721 15:0.092358 16:0.41143 17:-1.7382 18:-2.3177 19:1.2663 20:-3.288 21:-7.1624 22:3.1389 23:3.5081 24:2.3202 25:4.1767 
-0.3707158584060523 1:4.3619 2:3.6836 3:3.3315 4:3.5059 5:4.4072 6:0.81437 7:-4.3098 8:-5.189 9:-8.8223 10:-4.3603 11:-2.1368 12:-2.2005 13:5.1812 14:-0.51735 15:2.6098 16:1.7142 17:2.3978 18:1.6387 19:3.0795 20:0.97064 21:-4.0157 22:-7.0013 23:-3.3509 24:-3.1953 25:3.1778 
-0.2792276032058243 1:-0.065218 2:-0.47525 3:-2.495 4:-0.77972 5:-2.1943 6:-3.6387 7:-1.9495 8:-2.9773 9:-4.3325 10:-0.065552 11:4.4891 12:6.2087 13:5.2984 14:2.2513 15:-0.60306 16:-1.4301 17:-1.2486 18:-2.6738 19:-3.1304 20:-2.0063 21:-1.5396 22:-3.985 23:-1.9427 24:4.5179 25:4.355 
-0.3310663826110565 1:7.7351 2:4.8963 3:1.4805 4:-1.2896 5:-2.6347 6:-0.96926 7:-2.412 8:-3.4369 9:-2.8698 10:-1.835 11:-3.4115 12:-2.7421 13:5.9905 14:10.0063 15:8.2705 16:2.6122 17:-2.6091 18:-2.5025 19:-2.0585 20:-2.3371 21:-2.539 22:-1.2728 23:-1.7846 24:-3.9704 25:4.7718 
-0.4359985676337507 1:1.3987 2:1.4067 3:1.41 4:1.0526 5:1.2246 6:1.3487 7:-0.2233 8:-0.9991 9:-1.0656 10:-2.7267 11:-3.8723 12:-0.55168 13:-0.74732 14:5.7221 15:3.4256 16:0.80621 17:-0.72689 18:0.27886 19:0.76388 20:-0.15647 21:-0.23224 22:1.1772 23:-0.33473 24:-3.7443 25:5.4628 
-0.35757208869352153 1:1.2647 2:0.81695 3:-1.1508 4:-0.97008 5:-3.7915 6:-5.3177 7:-4.5188 8:-1.2856 9:1.7432 10:0.78568 11:2.946 12:2.0615 13:2.4768 14:3.2328 15:2.1069 16:0.40973 17:-0.35073 18:-1.3887 19:-3.5356 20:-6.2095 21:-3.2259 22:-1.2931 23:-1.0335 24:0.37571 25:1.0334 
-0.6184146294167184 1:-0.011963 2:-2.7626 3:-1.1608 4:-1.8689 5:-3.1408 6:0.30495 7:-2.2511 8:2.8178 9:1.6081 10:-2.952 11:0.13904 12:1.0159 13:-0.46393 14:-1.3284 15:-1.9064 16:-0.49044 17:0.40895 18:0.23859 19:-1.4622 20:3.2552 21:1.511 22:2.1075 23:0.47092 24:-1.0492 25:-0.80576 
-0.3404754542434511 1:0.30397 2:1.9329 3:3.6139 4:2.0051 5:1.1426 6:0.3552 7:0.67564 8:1.5939 9:1.4504 10:1.4831 11:-0.66588 12:-2.5263 13:-4.6543 14:-4.5389 15:0.38212 16:1.6524 17:1.2518 18:1.632 19:2.643 20:2.812 21:-1.0157 22:2.0339 23:1.4769 24:1.174 25:-3.5181 
-0.3749968355421242 1:2.3729 2:5.1495 3:4.0839 4:-8.0722 5:-8.1881 6:-7.0696 7:-1.8077 8:5.3356 9:-3.6366 10:2.5425 11:1.3518 12:2.4207 13:1.2356 14:1.3489 15:5.1263 16:3.4296 17:-0.43856 18:-11.1977 19:-8.8574 20:-3.0215 21:1.7779 22:3.9156 23:-1.0711 24:3.1303 25:1.6423 
-0.36258941415811974 1:3.2129 2:4.0498 3:4.1262 4:5.2984 5:4.9276 6:4.6469 7:0.91821 8:-3.1612 9:-8.283 10:-9.4229 11:-3.9251 12:0.36788 13:1.3779 14:4.0733 15:4.1622 16:3.6076 17:4.3495 18:5.1338 19:4.5651 20:1.7148 21:-0.4809 22:-8.7783 23:-6.2841 24:-5.1752 25:1.442 
-0.3751976564880019 1:2.2479 2:1.3583 3:1.7302 4:0.055473 5:-6.2262 6:-4.3394 7:-3.7809 8:-2.4276 9:2.3707 10:3.9863 11:4.5888 12:5.6012 13:3.065 14:1.1183 15:2.0708 16:-1.1591 17:-6.2554 18:-6.7007 19:-4.5385 20:-3.8578 21:6.4051 22:2.5113 23:4.1109 24:3.1964 25:2.9702 
-0.366245750754823 1:0.54527 2:-0.69792 3:-2.209 4:-2.6209 5:-2.3713 6:-3.1312 7:-1.8455 8:-1.0417 9:-3.5865 10:-3.8587 11:1.1019 12:7.0512 13:6.7374 14:4.9576 15:-1.0183 16:-1.9259 17:0.33357 18:-0.62295 19:-2.3174 20:-1.9791 21:-1.8653 22:-2.7993 23:-3.1552 24:-1.5082 25:6.0249 
-0.3631993750092573 1:0.51711 2:1.1875 3:0.05348 4:0.64786 5:-2.7123 6:-9.3729 7:-5.8676 8:-0.43087 9:-1.2727 10:-0.11317 11:0.058224 12:0.7531 13:2.2179 14:1.7472 15:2.1066 16:1.3401 17:0.75364 18:0.56932 19:0.81559 20:-3.1362 21:-6.8716 22:-5.905 23:-3.8969 24:1.5565 25:1.7997 
-0.3914532673193709 1:1.037 2:0.38309 3:0.50418 4:-0.94003 5:-1.5821 6:-1.9469 7:-1.5747 8:-0.84803 9:-0.66461 10:-0.82071 11:-1.5866 12:-0.79837 13:1.668 14:0.74387 15:-1.9832 16:0.8476 17:-1.2376 18:-3.6733 19:6.3179 20:4.2414 21:-4.0532 22:-3.9583 23:-0.72171 24:3.5387 25:0.29452 
-0.369853505260628 1:-0.72652 2:-1.0112 3:-0.60247 4:-2.7168 5:-5.587 6:-4.0547 7:-2.3766 8:0.67272 9:-3.4641 10:-3.029 11:7.6686 12:6.0209 13:5.3267 14:0.25473 15:2.095 16:-0.21673 17:-1.9544 18:-1.5789 19:-3.1363 20:-4.7561 21:-2.2466 22:0.6086 23:-1.2709 24:-2.0734 25:-0.50263 
-0.3743572511175063 1:-0.54419 2:3.3808 3:4.6535 4:3.1081 5:3.5393 6:4.7916 7:2.8962 8:1.7289 9:2.6096 10:-1.489 11:-1.3141 12:-4.6898 13:-5.3567 14:-4.2167 15:-3.6355 16:-0.78536 17:1.9332 18:1.8586 19:2.6595 20:3.7604 21:5.4882 22:3.7336 23:2.1531 24:3.17 25:5.6673 
-0.4604321901184558 1:-2.3477 2:-1.7174 3:-2.3425 4:-1.8176 5:0.60842 6:1.068 7:0.74671 8:2.0134 9:1.2167 10:0.78788 11:0.11283 12:-1.9472 13:-2.8033 14:-2.6744 15:-2.8647 16:-2.3566 17:-0.14826 18:-2.7412 19:0.68124 20:3.7654 21:1.7539 22:2.32 23:1.0312 24:-0.38132 25:-3.6533 
-0.37366960896056167 1:0.08932 2:7.3163 3:10.4327 4:6.9662 5:3.0267 6:2.7798 7:-2.523 8:-3.8836 9:-6.0412 10:-5.0878 11:-3.7601 12:-4.4168 13:-4.6287 14:-0.9593 15:3.284 16:6.4805 17:8.8986 18:4.0131 19:-1.4358 20:-1.4062 21:-3.2449 22:-2.7916 23:-4.1372 24:-5.2835 25:-3.0211 
-0.37088175320977246 1:5.0954 2:4.0216 3:1.4263 4:0.57919 5:-3.8859 6:-8.9742 7:-6.3236 8:-5.0212 9:0.099093 10:0.25408 11:1.8248 12:2.4165 13:4.4812 14:4.1368 15:3.9607 16:3.7411 17:3.3762 18:-0.58081 19:-3.4805 20:-7.1002 21:-3.8389 22:-5.2554 23:-1.7446 24:2.3888 25:5.2198 
-0.37184019086142533 1:1.3695 2:-1.2901 3:-1.2217 4:-5.2763 5:-6.7312 6:-6.4712 7:-2.7354 8:-3.9977 9:-5.5125 10:-1.6468 11:1.2215 12:2.3173 13:3.6057 14:1.5533 15:0.27296 16:-1.4879 17:-1.7249 18:-2.5481 19:-4.9171 20:-3.2618 21:-3.1997 22:-4.032 23:-1.8574 24:-1.6026 25:3.0482 
-0.37453379116069346 1:3.2311 2:3.2132 3:3.3632 4:1.5596 5:0.77435 6:0.69669 7:-3.2348 8:-7.0966 9:-5.9999 10:-4.8883 11:2.1801 12:5.4467 13:3.5169 14:1.9866 15:3.2352 16:2.0365 17:0.16837 18:2.2957 19:1.2473 20:-3.0729 21:-7.3609 22:-7.4222 23:-6.2808 24:2.7956 25:3.9625 
-0.37550835515575215 1:-1.5231 2:-0.43219 3:0.75183 4:1.0447 5:0.84228 6:-2.5603 7:-3.0148 8:-0.24969 9:2.2367 10:3.8283 11:9.2105 12:11.4711 13:-0.88772 14:4.4839 15:0.55094 16:-3.7626 17:-10.04 18:-2.9552 19:-5.2874 20:1.5431 21:0.34388 22:2.4356 23:2.7041 24:4.5559 25:-2.3428 
-0.3308840389135616 1:5.8774 2:3.1691 3:1.4857 4:0.52376 5:0.47203 6:-1.0867 7:-1.7108 8:-2.8544 9:-2.5754 10:-2.0674 11:-3.5215 12:-3.5963 13:2.3703 14:5.3119 15:5.3463 16:2.3726 17:1.4118 18:0.48015 19:-0.73397 20:-1.5222 21:-0.065242 22:-2.1235 23:-0.49263 24:-2.1112 25:5.2223 
-0.35285545538639496 1:-1.52 2:-1.6575 3:-5.0982 4:-3.0929 5:-1.4929 6:-0.4608 7:3.8568 8:5.1579 9:3.9646 10:0.033018 11:-1.4234 12:-0.60155 13:-0.70571 14:-0.55874 15:-1.1705 16:-0.75535 17:-1.7748 18:-5.0321 19:0.69937 20:2.1354 21:3.6497 22:2.4128 23:1.3185 24:-0.99661 25:-0.86337 
-0.36486169056942 1:-0.75498 2:-4.596 3:-5.2637 4:-5.8661 5:-9.6731 6:-2.6527 7:1.0211 8:-0.73066 9:1.297 10:2.0822 11:2.2704 12:1.5381 13:3.212 14:3.6067 15:-1.5578 16:-4.7222 17:-3.5258 18:0.61427 19:-2.7795 20:-2.6546 21:-0.19412 22:1.6926 23:3.1818 24:2.0379 25:3.2385 
-0.36791392283818175 1:-1.6401 2:-2.0652 3:-1.9641 4:-2.6023 5:-3.511 6:-2.8275 7:0.31775 8:2.162 9:1.2576 10:0.93721 11:-1.1717 12:3.1197 13:2.9851 14:0.5876 15:0.34108 16:-0.5367 17:-4.2161 18:-8.3352 19:-9.7771 20:-8.0036 21:-5.2587 22:-5.4499 23:-1.321 24:-1.2562 25:-1.4136 
-0.38284861308047147 1:0.35427 2:0.18237 3:1.8746 4:2.2093 5:1.0489 6:0.52466 7:0.081463 8:1.1386 9:1.2804 10:-0.046783 11:3.6928 12:-3.9291 13:-5.1171 14:0.39543 15:0.11341 16:-0.39925 17:3.2838 18:2.2038 19:1.0309 20:0.8369 21:1.7448 22:2.084 23:-0.63041 24:1.4423 25:-4.3878 
-0.34865998270088155 1:-3.5928 2:-0.92322 3:0.18857 4:1.974 5:0.86412 6:0.17983 7:0.8704 8:2.9743 9:4.3845 10:6.6485 11:0.8485 12:-1.3073 13:-4.3054 14:-3.1207 15:-3.2369 16:-2.4182 17:1.1803 18:-0.11722 19:0.44351 20:0.24929 21:0.56909 22:0.47294 23:2.2123 24:4.4887 25:-2.8507 
-0.3543027607601338 1:-2.7504 2:-4.4198 3:2.6944 4:6.9592 5:4.2711 6:-0.016274 7:-0.80835 8:-0.74954 9:0.75542 10:-2.7679 11:-3.0269 12:-2.4994 13:-3.9143 14:-3.6701 15:-1.0854 16:1.5223 17:4.9265 18:7.0567 19:1.9882 20:-0.66918 21:-0.81479 22:0.6099 23:-3.0325 24:-1.1542 25:-1.4628 
-0.3786027452981596 1:-0.48981 2:-0.85323 3:-0.44426 4:-1.9072 5:-2.5912 6:-1.865 7:-2.974 8:4.1758 9:4.5946 10:0.64059 11:3.9435 12:-6.6417 13:-4.2753 14:-3.5946 15:-0.2344 16:-0.7963 17:-0.81606 18:-1.4634 19:-1.4003 20:1.6303 21:2.3222 22:-0.30035 23:-1.3124 24:-1.3198 25:-0.68069 
-0.36210505760031386 1:0.93235 2:4.0572 3:5.195 4:3.3251 5:-1.6668 6:-1.6171 7:-6.0764 8:-3.0425 9:-2.081 10:-0.91305 11:0.65712 12:-0.41887 13:1.4527 14:2.2829 15:1.927 16:2.3053 17:5.338 18:4.7966 19:-1.0046 20:-2.344 21:-4.0629 22:-5.2257 23:-2.3803 24:-4.3294 25:-0.11958 
-0.3750562205908472 1:1.9397 2:4.9685 3:2.198 4:7.3248 5:8.2957 6:8.686 7:8.5111 8:4.797 9:1.2987 10:-7.7447 11:-9.1976 12:-13.3007 13:-9.5219 14:1.5608 15:2.604 16:3.014 17:2.6333 18:4.6413 19:2.0895 20:1.7366 21:1.0296 22:1.3238 23:3.0032 24:2.8668 25:-3.1368 
-0.3753958277807205 1:-3.502 2:-1.0419 3:1.1958 4:3.2977 5:5.5629 6:5.8563 7:5.975 8:5.6169 9:1.4132 10:0.21531 11:-6.3095 12:-13.8732 13:-7.6738 14:-6.2112 15:-2.953 16:1.8076 17:4.2371 18:4.2486 19:4.1385 20:4.2078 21:3.7806 22:5.1796 23:6.8048 24:5.9426 25:-7.7538 
-0.3729038083231048 1:10.7588 2:8.1796 3:1.1218 4:-1.3534 5:-2.4701 6:-1.7725 7:-2.0104 8:-3.5258 9:-4.3103 10:-3.4991 11:-3.521 12:0.21731 13:2.9469 14:6.4756 15:8.8135 16:8.209 17:0.9878 18:-1.165 19:-2.8257 20:-4.0838 21:-4.3247 22:-5.4034 23:-4.4322 24:-4.0088 25:5.3882 
-0.37503960806220915 1:-3.2764 2:-3.9347 3:-1.515 4:-0.8768 5:0.55187 6:0.28572 7:-1.7144 8:-1.6416 9:0.38355 10:1.1598 11:1.9683 12:1.8063 13:2.8795 14:2.9904 15:3.0042 16:3.6495 17:3.1875 18:5.4307 19:5.3687 20:3.5373 21:-1.3651 22:-5.1903 23:-8.7994 24:-14.8817 25:-2.3424 
-0.3718902082214036 1:-0.041858 2:-2.9017 3:-3.7315 4:-6.6567 5:-7.5509 6:-4.6087 7:-4.7257 8:-3.0261 9:-1.8725 10:1.3677 11:-0.47124 12:2.3277 13:2.2529 14:2.7479 15:-0.0099727 16:0.0024984 17:-0.0413 18:-2.3774 19:-4.3068 20:-6.7771 21:-9.5493 22:-9.2477 23:-7.7925 24:-4.1115 25:0.22777 
-0.38127809774397065 1:0.019325 2:1.6893 3:2.4488 4:2.1497 5:2.4883 6:0.18592 7:-3.4569 8:-3.1257 9:-3.5981 10:-4.4901 11:-3.6415 12:-2.4571 13:0.1526 14:0.192 15:0.4881 16:1.6212 17:3.3591 18:2.681 19:1.7482 20:-0.98962 21:-1.004 22:-0.37959 23:-2.0248 24:-4.8296 25:1.7412 
-0.3619309171123678 1:4.7083 2:3.6838 3:4.1559 4:4.6863 5:4.074 6:1.8716 7:0.94582 8:-1.7104 9:-7.1504 10:-9.2105 11:-5.0286 12:-2.4682 13:0.11754 14:2.6627 15:2.8475 16:3.7647 17:3.7991 18:4.4319 19:3.2453 20:4.7602 21:4.0262 22:-4.6823 23:-6.5281 24:-4.7944 25:4.6043 
-0.3748137196210304 1:-0.64901 2:4.7186 3:4.4153 4:5.7431 5:3.0569 6:4.8679 7:3.6097 8:3.1895 9:-13.4703 10:-9.2879 11:-6.0104 12:-2.668 13:4.5585 14:0.66215 15:-0.96454 16:5.3396 17:3.6198 18:1.9873 19:1.9515 20:5.6983 21:2.0933 22:-5.2387 23:-8.4319 24:-6.6983 25:2.7502 
-0.4730787651302466 1:0.64149 2:0.041342 3:-0.90155 4:-0.95689 5:-0.85325 6:0.87094 7:0.59287 8:-0.99447 9:1.8926 10:-0.39433 11:1.8876 12:4.0842 13:-2.8139 14:-2.7327 15:-2.4503 16:1.456 17:-2.1608 18:-2.8881 19:-2.5889 20:-1.4567 21:-0.072704 22:1.9846 23:-1.4861 24:2.9628 25:0.099239 
-0.37118610630316895 1:1.4689 2:0.80442 3:1.6064 4:1.5085 5:1.8751 6:2.7386 7:3.0166 8:0.10005 9:-3.6317 10:-8.0129 11:-6.4118 12:-6.268 13:-2.2439 14:-1.3163 15:-0.28068 16:0.63343 17:2.171 18:1.0892 19:1.0133 20:1.1216 21:1.1542 22:6.0629 23:1.0567 24:-7.3112 25:0.84235 
-0.376993426493504 1:0.56597 2:-0.35471 3:-0.32509 4:1.1298 5:2.1982 6:0.86651 7:2.0416 8:1.8024 9:1.0969 10:2.3076 11:1.0899 12:0.40705 13:1.2142 14:-1.5532 15:-11.0599 16:-8.9288 17:1.1748 18:-1.1253 19:2.1121 20:3.4921 21:1.9128 22:1.2114 23:1.1039 24:1.92 25:0.81493 
-0.4376662638176856 1:-1.0009 2:3.7253 3:1.9038 4:1.4021 5:0.46348 6:-0.45307 7:0.7444 8:0.43684 9:-3.1146 10:-0.73574 11:-3.4707 12:-3.4532 13:-0.70143 14:-0.47103 15:-2.2333 16:3.052 17:4.1614 18:2.5989 19:0.47825 20:-0.42124 21:-0.70022 22:-0.14123 23:-1.9811 24:-2.3201 25:-0.19162 
-0.40288246340471046 1:0.4646 2:2.1998 3:1.6262 4:-2.1379 5:-2.9144 6:4.2204 7:3.8534 8:-0.064983 9:-0.64252 10:-3.3696 11:-2.4059 12:-3.084 13:-1.0888 14:-1.689 15:-1.1206 16:0.82473 17:2.6819 18:-0.82194 19:0.77717 20:4.8024 21:-0.24924 22:-0.53916 23:-2.5188 24:-2.5755 25:-0.31082 
-0.3748210294903497 1:-6.9149 2:-6.8255 3:-3.8087 4:2.5106 5:2.116 6:-1.9493 7:4.0477 8:4.5628 9:3.3114 10:1.3324 11:4.0707 12:5.7948 13:-3.0256 14:-9.4349 15:-6.3243 16:-7.0398 17:1.6283 18:4.8917 19:2.2581 20:1.114 21:2.322 22:2.1936 23:1.8524 24:1.758 25:-10.7452 
-0.37102366831243744 1:1.1525 2:1.3458 3:3.7956 4:4.0816 5:1.3776 6:0.80067 7:2.7903 8:0.026999 9:-8.4134 10:-9.8208 11:-5.6538 12:1.9077 13:6.06 14:1.6868 15:2.5025 16:2.9264 17:1.3967 18:3.6984 19:-0.21309 20:-1.7576 21:0.97018 22:-3.1706 23:-9.0897 24:-8.2264 25:4.9458 
-0.3749282919284113 1:1.5964 2:2.9786 3:6.7919 4:1.9754 5:3.2124 6:2.8403 7:1.9354 8:-1.0707 9:-1.537 10:-5.7186 11:-7.6172 12:-8.3422 13:-5.1743 14:-3.2168 15:0.39092 16:1.3493 17:-0.40964 18:-0.18184 19:0.88961 20:0.42064 21:2.0126 22:0.79544 23:3.4422 24:1.6466 25:5.9499 
-0.5450754814670575 1:4.3864 2:-2.3825 3:-1.1487 4:-1.4965 5:-1.3761 6:-2.367 7:-3.1697 8:-3.2346 9:-0.82394 10:1.1355 11:2.9944 12:-0.21186 13:-0.64752 14:2.0932 15:3.2052 16:-0.44 17:-1.7919 18:-0.19949 19:0.63221 20:-1.6991 21:-0.92511 22:0.97726 23:-1.6245 24:0.75976 25:0.31634 
-0.3742618281695772 1:-2.3685 2:1.5117 3:4.0543 4:2.6809 5:-2.895 6:-3.209 7:-3.5111 8:-3.4828 9:-4.7301 10:1.1564 11:1.3186 12:-0.62515 13:0.64296 14:-4.8249 15:-3.6559 16:2.6416 17:3.8384 18:2.2777 19:0.42588 20:-4.2778 21:-3.2162 22:-3.9738 23:-4.2974 24:0.87796 25:-3.3379 
-0.3758224924598856 1:-1.0308 2:0.69981 3:0.5407 4:0.66502 5:1.06 6:0.60583 7:-0.36318 8:0.60376 9:0.7192 10:1.0324 11:1.5955 12:1.2765 13:0.18206 14:-0.51342 15:1.3449 16:-2.1881 17:3.1164 18:4.5023 19:-3.9624 20:8.9181 21:7.8076 22:-4.5906 23:1.2129 24:0.75685 25:-0.46018 
-0.3755651318239222 1:1.4251 2:5.6156 3:3.0669 4:-5.6904 5:-10.6061 6:-4.5869 7:-5.5594 8:-3.4346 9:2.2282 10:3.6542 11:3.8139 12:2.789 13:5.1707 14:4.4053 15:0.26289 16:3.6034 17:6.1016 18:-0.88375 19:-12.497 20:-11.4015 21:-5.3763 22:-0.59404 23:3.4354 24:2.9609 25:1.3723 
-0.3749910646208441 1:4.6027 2:1.6466 3:0.6671 4:-2.5015 5:-12.9345 6:-9.3749 7:-1.5149 8:-0.34294 9:0.61037 10:1.1379 11:1.8787 12:3.1226 13:2.4643 14:0.28336 15:2.7867 16:1.7636 17:4.042 18:7.3453 19:3.4801 20:-7.398 21:-11.1176 22:-6.2981 23:-1.0406 24:1.5468 25:2.9371 
-0.3763658913683248 1:0.12049 2:-0.19938 3:0.06643 4:-1.1266 5:0.36173 6:5.1611 7:6.1389 8:-0.64349 9:-4.4048 10:-0.20976 11:0.52307 12:-2.7456 13:2.6736 14:-0.40831 15:-3.5608 16:-6.4199 17:-6.6653 18:-5.0936 19:3.0361 20:3.5626 21:2.7566 22:-0.1717 23:-0.7113 24:0.9456 25:0.36383 
-0.37556054758938734 1:1.173 2:0.27595 3:-0.43701 4:-0.046653 5:2.3267 6:1.6662 7:0.41178 8:-8.9214 9:-2.7585 10:-1.0804 11:-3.437 12:-4.6037 13:-2.2876 14:1.2805 15:4.4218 16:-4.0432 17:-0.64342 18:6.8896 19:-1.7751 20:-0.010169 21:3.1159 22:2.2617 23:-9.695 24:-1.7241 25:0.90702 
-0.4141531989002206 1:-0.2459 2:-0.695 3:-0.76169 4:0.56509 5:1.1073 6:1.1598 7:2.5094 8:2.4824 9:0.89654 10:-0.21793 11:-1.0799 12:0.40758 13:0.25748 14:0.44216 15:2.0149 16:4.6168 17:-2.5198 18:-0.91326 19:1.5755 20:-0.099458 21:-3.0345 22:-0.0086139 23:4.6203 24:-7.7362 25:-0.30031 
-0.39294079057134296 1:-3.2046 2:-4.1064 3:-3.4893 4:-1.1722 5:-0.42217 6:0.55926 7:0.76429 8:-0.41475 9:3.651 10:2.6668 11:-0.16644 12:-1.5998 13:-2.2251 14:-2.4204 15:-1.7355 16:-3.8956 17:-4.1723 18:-1.1168 19:-5.035 20:-1.71 21:0.12563 22:-0.6125 23:2.476 24:0.73434 25:-1.7002 
-0.3483026939270136 1:-2.4628 2:-1.1107 3:-3.1027 4:-1.1097 5:-5.1002 6:0.78051 7:2.7672 8:2.114 9:0.95761 10:-1.7668 11:1.1648 12:2.83 13:-1.3257 14:-1.7178 15:-2.082 16:-1.8034 17:-0.77295 18:-4.855 19:-0.90451 20:4.1649 21:3.2846 22:4.2861 23:-0.81907 24:0.49773 25:-1.8575 
-0.3827794809753703 1:-0.92197 2:1.7021 3:0.013894 4:-2.1866 5:-2.2274 6:-7.7923 7:2.8052 8:0.60874 9:2.1448 10:3.3206 11:-0.8503 12:-0.17782 13:-0.71422 14:0.18113 15:-0.62186 16:-0.68215 17:-0.38634 18:-2.1867 19:-2.8327 20:-3.7424 21:0.86706 22:-0.42701 23:2.3733 24:0.16477 25:0.7714 
-0.3548960471265462 1:-2.6218 2:-4.5192 3:-3.1011 4:-2.6423 5:-3.1585 6:0.56353 7:0.16189 8:0.98689 9:2.0459 10:2.6635 11:1.0329 12:1.2141 13:0.7207 14:0.94742 15:-1.0445 16:-2.3278 17:-7.909 18:-3.4883 19:-1.5361 20:-0.3928 21:-0.25921 22:-0.2174 23:2.0908 24:2.4696 25:-0.81986 
-0.3704852241362586 1:0.94687 2:-0.099512 3:-0.19747 4:-6.2418 5:-4.6074 6:-2.395 7:-0.62987 8:2.0587 9:1.2323 10:1.388 11:1.7921 12:1.4128 13:2.2446 14:-0.94282 15:-0.95127 16:0.027872 17:-3.9172 18:-4.988 19:-3.0401 20:-0.86051 21:2.4828 22:2.6041 23:2.0783 24:3.3277 25:2.7538 
-0.38631653035665564 1:2.9795 2:1.9868 3:0.47847 4:-0.88752 5:-0.76148 6:-1.5847 7:1.0527 8:2.3159 9:-0.77797 10:-0.070381 11:-3.011 12:-6.5213 13:-4.6683 14:-2.0096 15:-4.7944 16:1.513 17:0.34435 18:-1.1584 19:-0.032457 20:1.4396 21:0.47549 22:1.954 23:3.5211 24:-1.0799 25:-2.2279 
-0.3381230246282532 1:-2.8784 2:-5.2019 3:-1.4208 4:3.003 5:4.2035 6:4.1093 7:5.4486 8:1.2961 9:-2.7952 10:-0.55203 11:-1.5351 12:-2.0436 13:-2.4838 14:-2.5794 15:-2.7028 16:-3.4127 17:-0.85729 18:4.0506 19:7.8362 20:7.3107 21:2.8525 22:-1.9839 23:-2.2935 24:-2.4736 25:-2.0147 
-0.36948478295619336 1:1.768 2:0.29686 3:-2.5928 4:-8.6016 5:-3.6902 6:1.6962 7:0.68854 8:4.8261 9:1.7799 10:2.551 11:0.46495 12:1.5262 13:-0.10236 14:3.7039 15:0.16574 16:-0.59448 17:-1.0678 18:-8.0354 19:-3.7589 20:1.3127 21:1.5649 22:3.6279 23:1.7458 24:0.68236 25:-1.7616 
-0.3701804873822544 1:0.68934 2:6.9878 3:0.89708 4:-2.1528 5:-1.9963 6:-2.7817 7:-3.3241 8:-2.1283 9:-3.8658 10:-1.1227 11:3.0614 12:1.2102 13:-0.55553 14:1.0746 15:2.1885 16:1.3827 17:0.60428 18:-0.6784 19:-1.2836 20:-2.2501 21:-3.7465 22:-5.7621 23:-5.9104 24:-4.5427 25:1.5617 
-0.4484091866927937 1:-1.0702 2:-1.1627 3:1.4339 4:2.6909 5:-0.53931 6:1.6018 7:-0.040113 8:0.87188 9:0.41095 10:4.5681 11:1.9952 12:-4.0106 13:-2.6956 14:-0.5022 15:-4.3165 16:-0.48405 17:0.034179 18:0.078302 19:0.19342 20:0.63686 21:-0.72844 22:0.031461 23:1.8902 24:3.0633 25:-1.1339 
-0.36052063458890193 1:0.53122 2:-11.7165 3:-5.5038 4:-6.5479 5:-1.0083 6:4.9064 7:1.1462 8:1.8308 9:4.013 10:3.3454 11:2.3866 12:2.0084 13:5.6279 14:6.0538 15:-2.6046 16:-13.8571 17:-8.3379 18:-5.299 19:-1.2622 20:3.749 21:1.5008 22:1.4528 23:3.8323 24:5.2978 25:4.9423 
-0.37337768739074473 1:2.4484 2:2.5256 3:-2.188 4:-0.50042 5:-7.5796 6:-9.6664 7:-4.8904 8:0.43476 9:-1.492 10:2.8195 11:3.2636 12:2.6898 13:0.73867 14:2.6049 15:2.2085 16:2.392 17:0.78886 18:4.1856 19:-6.8126 20:-10.6917 21:-4.491 22:0.59774 23:-0.075071 24:1.7853 25:2.4466 
-0.3644213940610751 1:1.1862 2:1.2605 3:1.0683 4:1.9153 5:2.123 6:1.9768 7:0.20595 8:-1.4994 9:-6.5978 10:-5.5753 11:-0.28878 12:-0.73605 13:3.7325 14:2.3287 15:2.1799 16:1.5417 17:1.4074 18:1.5634 19:-0.28072 20:0.75728 21:0.89893 22:-3.4943 23:-7.2429 24:-4.7499 25:3.3303 
-0.3795955384182922 1:5.1294 2:-1.6724 3:3.1996 4:0.53548 5:-7.1558 6:-1.6437 7:-0.78057 8:-0.94034 9:0.61377 10:0.1298 11:0.20504 12:2.0615 13:1.7609 14:5.1616 15:-5.0301 16:0.3656 17:0.34501 18:0.8975 19:1.2477 20:3.4363 21:-3.1963 22:-0.84603 23:-0.80049 24:-0.67833 25:2.4261 
-0.2976031909217284 1:2.2732 2:5.2611 3:2.8462 4:1.4059 5:1.9705 6:0.94729 7:0.34883 8:-0.31619 9:-0.85384 10:-4.6353 11:-6.4741 12:-5.5783 13:-0.74448 14:-0.66401 15:-0.84714 16:2.5731 17:3.4133 18:2.0674 19:3.1754 20:2.0452 21:1.0846 22:0.1379 23:-1.0585 24:-3.9287 25:-1.3274 
-0.3698253461287192 1:-3.7151 2:-8.0636 3:-7.0481 4:-7.0319 5:2.1913 6:4.6351 7:1.8819 8:1.4174 9:1.181 10:5.0145 11:3.1472 12:-1.0394 13:2.8667 14:3.3658 15:-3.8336 16:-8.0647 17:-5.1649 18:-5.8961 19:0.88546 20:3.9273 21:4.4088 22:2.7889 23:1.8364 24:3.3307 25:0.76327 
-0.8459768250532719 1:-0.65148 2:0.7741 3:-0.60877 4:-3.2389 5:0.070176 6:1.1 7:0.98903 8:-1.5425 9:-3.2432 10:-3.5751 11:-4.7314 12:-5.2344 13:-4.4203 14:-3.2081 15:-3.4863 16:-2.9477 17:-2.1789 18:-1.8492 19:-1.4034 20:-1.5386 21:-1.8448 22:-1.4377 23:-0.96781 24:-0.35226 25:-0.61091 
-0.3741103821970816 1:-0.32491 2:-1.7458 3:-3.1714 4:-2.4395 5:-3.905 6:-6.9591 7:-0.35528 8:-0.64408 9:-1.3587 10:1.8119 11:-0.5587 12:1.4395 13:2.7648 14:1.9033 15:-0.61066 16:-2.857 17:-2.0784 18:-2.7057 19:-3.668 20:-5.4074 21:0.28175 22:1.3546 23:-1.0615 24:1.7476 25:0.80068 
-0.30669866248084454 1:-1.688 2:-0.80905 3:-1.4744 4:-2.8331 5:-3.3916 6:-3.3339 7:0.13234 8:-2.917 9:-4.8033 10:1.5925 11:7.439 12:6.3396 13:5.8797 14:1.6427 15:-2.6224 16:-1.3833 17:-1.6279 18:-2.0254 19:-3.0778 20:-4.0724 21:-2.682 22:-2.5869 23:-0.58563 24:3.9125 25:2.3564 
-0.39563679999879914 1:-2.6879 2:0.42166 3:0.95829 4:0.76664 5:-2.1749 6:-7.2319 7:2.06 8:-2.3148 9:0.5919 10:0.5193 11:-1.6286 12:-3.5816 13:-3.7403 14:-2.0506 15:-0.87729 16:3.0221 17:1.7318 18:-0.9339 19:0.89586 20:-1.9694 21:-1.1792 22:-1.4302 23:-2.6466 24:-2.219 25:-0.84788 
-0.3449396975428037 1:1.0145 2:-4.4872 3:-7.372 4:-3.3222 5:-4.1093 6:-0.75979 7:1.6711 8:2.436 9:2.485 10:3.5828 11:2.6308 12:3.4138 13:4.5709 14:1.3594 15:-2.8434 16:-5.9672 17:-6.8713 18:-1.3224 19:-1.9733 20:0.16355 21:2.2653 22:3.5707 23:2.1883 24:2.2019 25:3.5776 
-1.0 1:0.22249 2:0.58114 3:1.1005 4:0.023629 5:0.52182 6:0.40408 7:0.92937 8:0.88206 9:1.5632 10:0.55732 11:1.4844 12:1.6387 13:0.79612 14:-1.4183 15:-0.17307 16:5.3085 17:2.194 18:0.94585 19:1.2363 20:0.78592 21:0.65709 22:1.3425 23:2.1465 24:-0.0087201 25:0.14363 
-0.4877387163030626 1:-1.142 2:1.2468 3:1.0572 4:1.6747 5:-0.4922 6:-1.0557 7:-4.4508 8:-1.1079 9:-0.78149 10:-1.3187 11:5.344 12:1.0311 13:3.0411 14:1.5515 15:-0.224 16:-0.030054 17:0.98683 18:2.0988 19:0.84221 20:-1.6956 21:-1.9412 22:-2.9645 23:-0.83823 24:0.33308 25:-0.7542 
-0.3741567309389961 1:5.225 2:5.4309 3:6.4765 4:2.7855 5:-2.4427 6:-6.5205 7:-3.029 8:-5.6478 9:-7.7636 10:1.4725 11:2.3314 12:1.5844 13:3.8794 14:4.0629 15:3.5185 16:5.6871 17:5.6631 18:5.607 19:0.87104 20:-2.6244 21:-5.4793 22:-4.9837 23:-4.0908 24:-1.7701 25:3.7082 
-0.3623741426137389 1:3.9818 2:-8.9387 3:-8.4379 4:-7.6173 5:-3.914 6:2.5087 7:2.8441 8:0.30645 9:3.4102 10:3.5849 11:2.9948 12:4.7928 13:3.8375 14:3.6314 15:-5.3293 16:-10.1481 17:-7.7438 18:-4.9644 19:-2.5434 20:2.6801 21:1.023 22:3.2746 23:2.5498 24:3.4263 25:4.4394 
-0.45910086641004844 1:0.60658 2:-0.37144 3:0.64963 4:2.0081 5:2.5303 6:-0.13246 7:2.2384 8:2.7571 9:0.83539 10:-0.56028 11:-0.14288 12:-2.2363 13:-5.0166 14:-0.19407 15:-0.97064 16:-1.8697 17:4.5034 18:2.3012 19:3.0842 20:-0.93642 21:-1.1085 22:0.22192 23:-0.058701 24:-1.0327 25:-1.1661 
-0.36438630077300815 1:-3.8957 2:4.8007 3:6.1582 4:5.5867 5:1.313 6:0.15836 7:-0.68285 8:-4.0375 9:-1.4177 10:-1.7402 11:-2.3135 12:-2.2181 13:-4.5726 14:-2.1027 15:2.023 16:3.9955 17:6.5735 18:3.759 19:0.82039 20:-1.1086 21:-1.79 22:-1.0141 23:-1.6881 24:-0.62865 25:-3.0886 
-0.37568444484398716 1:-10.4901 2:-10.3109 3:1.2176 4:3.0152 5:5.5642 6:2.8393 7:4.0196 8:5.621 9:6.7818 10:6.9009 11:4.5798 12:0.38995 13:-4.7136 14:-11.6945 15:-14.0908 16:-6.9936 17:3.5713 18:4.6114 19:2.2919 20:3.142 21:4.4207 22:4.4302 23:6.0487 24:7.4274 25:-2.6898 
-0.37539956399811675 1:-1.8787 2:0.72558 3:2.0576 4:3.726 5:2.728 6:3.7545 7:4.724 8:5.2006 9:5.5016 10:-2.1505 11:-10.5824 12:-7.1968 13:-6.1394 14:-1.5974 15:-2.7531 16:-3.0982 17:0.78806 18:3.8203 19:4.4201 20:4.3364 21:5.1359 22:5.4372 23:4.0606 24:1.4381 25:-6.4444 
-0.37431653067273624 1:-0.80326 2:1.5817 3:3.517 4:4.1397 5:-2.289 6:-2.8028 7:2.3892 8:-4.3257 9:-5.7798 10:-3.1726 11:-0.2476 12:0.21437 13:1.3362 14:0.43456 15:-0.22168 16:-0.14347 17:1.4899 18:0.70363 19:6.1581 20:1.3981 21:-3.0409 22:2.6027 23:-7.4344 24:-4.5805 25:-1.2503 
-0.4830235241671898 1:-3.4474 2:-2.817 3:-2.2526 4:-2.4118 5:-1.3809 6:-1.8558 7:-1.5471 8:-1.0383 9:-1.6087 10:-2.272 11:-2.688 12:-2.5599 13:-2.4152 14:-2.978 15:-4.7038 16:-5.6597 17:-5.1928 18:-4.1681 19:-3.7947 20:-3.6031 21:-2.5829 22:-1.9799 23:-1.5457 24:-0.80915 25:-4.5007 
-0.3733338142674982 1:2.3664 2:-0.64958 3:2.3733 4:1.5618 5:1.5577 6:-2.4944 7:0.56934 8:-2.656 9:-5.2289 10:-1.73 11:-1.1395 12:-1.1752 13:-1.0135 14:0.8295 15:2.3257 16:0.61229 17:0.11301 18:3.9367 19:3.9222 20:1.6275 21:-6.1424 22:-1.2922 23:0.34139 24:-2.4558 25:3.896 
-0.375028052152564 1:5.0582 2:2.1629 3:-2.5678 4:-2.6832 5:-11.3834 6:-6.0045 7:0.6254 8:1.9534 9:3.3611 10:3.5575 11:5.0931 12:-2.712 13:-9.0878 14:6.0523 15:5.1054 16:3.6968 17:5.9881 18:4.94 19:-4.9361 20:-11.0928 21:-5.1641 22:3.1922 23:2.9296 24:4.9391 25:5.777 
-0.3747805130941784 1:-2.165 2:-5.5719 3:-4.3959 4:3.2895 5:9.5176 6:9.6376 7:6.3927 8:-1.1078 9:2.5375 10:0.058633 11:-5.8455 12:-6.9857 13:-4.2424 14:-1.0066 15:-2.4511 16:-3.2231 17:0.87393 18:6.4499 19:6.0324 20:7.0531 21:2.941 22:4.9444 23:-2.9829 24:-6.0519 25:-2.4912 
-0.375148303760704 1:-2.7994 2:-3.9968 3:-1.7911 4:6.3646 5:3.8177 6:-0.87448 7:-0.53564 8:-5.7227 9:0.23918 10:-1.6558 11:-2.5384 12:-3.1209 13:-2.3506 14:-1.6549 15:-1.8413 16:-1.4574 17:0.29781 18:5.9494 19:1.5052 20:-8.3487 21:-4.8398 22:-1.8344 23:1.4633 24:-2.0937 25:-2.5113 
-0.3612113753340015 1:-0.60715 2:-2.3886 3:-6.5739 4:-4.4386 5:-2.1604 6:-0.5235 7:1.7869 8:0.50547 9:1.2306 10:1.8602 11:2.6982 12:3.7165 13:5.6103 14:6.7333 15:0.76433 16:-4.5136 17:-9.5107 18:-5.7357 19:-3.5999 20:-0.59874 21:0.84932 22:1.9225 23:2.3685 24:0.80305 25:4.7495 
-0.37025562436098386 1:-1.5828 2:-3.033 3:2.3692 4:1.8887 5:-0.30785 6:-0.55665 7:4.2099 8:4.3319 9:1.6064 10:-0.36799 11:-2.3562 12:-1.976 13:-2.1302 14:-2.2108 15:-4.2787 16:-1.5409 17:1.6994 18:2.133 19:2.1517 20:0.72217 21:3.2453 22:1.8725 23:-1.0531 24:-3.6042 25:-2.6036 
-0.3740920938140404 1:-1.694 2:6.826 3:2.5944 4:-1.6109 5:0.61479 6:-6.6312 7:-2.2424 8:-0.53923 9:0.17842 10:-0.56022 11:-0.8308 12:0.1567 13:0.18467 14:0.5501 15:0.37726 16:0.49465 17:2.1646 18:-3.9299 19:-0.48811 20:-1.09 21:-6.5191 22:-3.1218 23:-2.3102 24:0.25272 25:0.89106 
-0.43666108688717303 1:-4.0046 2:2.5088 3:-0.1579 4:0.030743 5:1.906 6:2.5528 7:2.2593 8:2.5838 9:1.4979 10:1.3227 11:-2.0787 12:-0.92153 13:-2.846 14:-4.0296 15:0.27129 16:-0.65024 17:-0.91183 18:0.08165 19:-0.70733 20:-1.0685 21:3.4531 22:1.593 23:0.72153 24:3.6787 25:2.3542 
-0.4255629541583923 1:1.6494 2:0.22656 3:0.38804 4:1.8786 5:0.72646 6:-1.2416 7:-0.72971 8:-0.36787 9:-4.8723 10:-2.8503 11:-0.15513 12:1.8046 13:0.52885 14:1.7076 15:1.9129 16:0.33812 17:-0.51906 18:-2.0431 19:0.78964 20:-0.313 21:-3.1604 22:0.8523 23:-6.2869 24:-0.76581 25:3.8136 
-0.35804559315893925 1:-0.40523 2:-0.84593 3:0.068032 4:5.2652 5:1.9255 6:-4.7216 7:-1.4416 8:-2.0395 9:-6.3528 10:-3.9573 11:0.92159 12:-0.41568 13:0.94111 14:0.29821 15:1.2059 16:0.46792 17:-1.1047 18:1.0579 19:2.4977 20:1.9095 21:-7.7366 22:-3.0901 23:0.16036 24:-3.3782 25:1.7085 
-0.3667850746869728 1:-5.3017 2:-2.8484 3:-4.1848 4:-0.638 5:2.0119 6:3.6251 7:3.4779 8:4.3395 9:3.6679 10:1.2834 11:0.7404 12:0.87 13:-2.4111 14:-6.3083 15:-5.4881 16:-3.3484 17:-2.0285 18:0.39731 19:3.4835 20:3.9683 21:2.827 22:3.106 23:3.7188 24:3.2854 25:-6.929 
-0.37547196325705956 1:0.41929 2:-4.5043 3:-6.9879 4:-1.1477 5:-2.1804 6:2.1392 7:4.3661 8:-2.1605 9:-6.6125 10:-5.6686 11:0.57174 12:-1.3339 13:-3.4397 14:-4.0093 15:-2.43 16:-2.8212 17:2.2443 18:4.0248 19:6.6524 20:4.2632 21:0.86519 22:-5.0019 23:-2.246 24:-2.3345 25:1.0649 
-0.33784185092851476 1:0.63825 2:1.5209 3:0.55732 4:0.60262 5:0.33408 6:0.62317 7:-0.17069 8:1.7029 9:2.1885 10:0.18796 11:-3.5706 12:-4.1281 13:-4.9611 14:-3.4539 15:0.40949 16:1.6604 17:0.83753 18:2.0048 19:1.6603 20:0.56149 21:1.5074 22:0.84648 23:2.8589 24:-0.47873 25:-4.8232 
-0.3613822166328716 1:1.4036 2:-9.8184 3:-7.1042 4:-5.8946 5:-1.3093 6:4.2617 7:0.70943 8:2.5778 9:0.365 10:1.4958 11:5.2576 12:-1.1216 13:4.7649 14:6.4591 15:-5.1927 16:-9.4302 17:-5.4652 18:-4.8352 19:1.1103 20:3.6765 21:-0.79681 22:2.7791 23:3.1752 24:4.1228 25:2.9924 
-0.3531734816030069 1:-1.6521 2:-4.5811 3:4.6219 4:7.7716 5:6.9852 6:3.2658 7:-1.582 8:-0.82964 9:-0.78551 10:-2.448 11:-2.471 12:-2.224 13:-2.48 14:-2.4375 15:-2.2347 16:-1.4242 17:4.9772 18:7.5074 19:5.9271 20:2.0011 21:-0.75464 22:-1.2169 23:-2.1455 24:-2.984 25:0.022086 
