svm_type c_svc
kernel_type rbf
gamma 0.04
nr_class 2
total_sv 260
rho 0.6055095248018287
label 1 0
nr_sv 90 170
SV
1.0 1:-0.71318 2:-0.6703 3:-0.20161 4:1.823 5:0.83824 6:2.6553 7:1.8974 8:-0.51994 9:-2.053 10:-1.5309 11:-1.9761 12:-3.5559 13:-0.77268 14:0.576 15:2.727 16:1.449 17:1.073 18:-0.23818 19:-0.13951 20:0.012781 21:-0.24927 22:-0.3158 23:-0.4186 24:-0.28331 25:-0.21156 
1.0 1:4.6621 2:0.57344 3:-2.2051 4:-3.2723 5:-2.1018 6:-0.23543 7:0.30725 8:-1.0741 9:-0.60141 10:-0.37025 11:0.061618 12:1.2603 13:1.2438 14:1.5861 15:-0.23579 16:-5.874 17:-5.2436 18:-5.6194 19:-4.2097 20:-0.52445 21:2.2065 22:2.8798 23:3.4379 24:0.85767 25:9.6393 
1.0 1:-3.4285 2:-3.969 3:-2.5229 4:-0.40438 5:-0.4078 6:-1.3821 7:-1.3954 8:-2.9933 9:-2.3004 10:-0.9784 11:-1.963 12:-1.4282 13:1.5917 14:0.39969 15:0.12019 16:-0.31765 17:-0.62456 18:-2.3623 19:-3.1599 20:-1.6446 21:-2.1296 22:-2.1633 23:1.3375 24:0.010961 25:-4.7861 
1.0 1:0.86705 2:-7.4944 3:-19.8796 4:-12.133 5:-6.1852 6:-2.9761 7:-1.5819 8:-2.1901 9:0.40248 10:3.1305 11:2.0187 12:2.02 13:5.1928 14:5.2907 15:4.3934 16:4.4725 17:4.4675 18:3.9839 19:3.584 20:2.7127 21:1.5344 22:-0.20885 23:-1.3807 24:-2.3352 25:4.6671 
0.4507396156560805 1:-0.24602 2:-0.36384 3:-0.81202 4:-1.167 5:-1.0013 6:-0.68817 7:-0.15346 8:-0.21337 9:0.0066704 10:-0.46901 11:0.0071692 12:-0.14262 13:0.28686 14:-0.21757 15:-0.68376 16:-0.98462 17:-0.70215 18:-1.0097 19:-1.403 20:-1.8731 21:-0.52583 22:-0.84097 23:-3.3439 24:-2.6352 25:-0.29393 
1.0 1:1.7799 2:-0.13921 3:0.46111 4:0.87797 5:5.0587 6:4.2143 7:2.4081 8:2.6934 9:3.0004 10:1.8882 11:1.313 12:0.020589 13:-0.74885 14:-1.9117 15:-3.2438 16:-3.2874 17:-2.1864 18:-0.88356 19:0.22115 20:0.55848 21:0.32073 22:0.021177 23:0.35453 24:0.01105 25:1.4586 
0.2209563419263441 1:-0.69774 2:-0.50292 3:0.29756 4:0.50381 5:0.85733 6:1.0495 7:0.99625 8:1.0859 9:1.2624 10:1.3717 11:1.5521 12:1.9197 13:1.336 14:1.7956 15:2.2272 16:1.3404 17:1.1128 18:0.6129 19:-0.054819 20:0.07893 21:2.1328 22:1.9023 23:-0.36323 24:-1.7033 25:-0.79979 
0.4846219619916208 1:2.3399 2:2.4854 3:2.855 4:2.5365 5:2.1304 6:1.799 7:1.9701 8:1.4691 9:1.7075 10:1.8528 11:1.4073 12:0.9235 13:1.6465 14:1.7428 15:2.0137 16:1.6812 17:1.2065 18:0.47339 19:0.055991 20:0.21103 21:-0.13149 22:-0.2307 23:0.0050461 24:0.07325 25:1.7063 
0.4439368149552812 1:-1.2174 2:-2.2545 3:-3.36 4:-3.6358 5:-4.0304 6:-4.1571 7:-3.2987 8:-2.3959 9:-2.0672 10:-0.9696 11:-0.025221 12:-1.3503 13:-1.3989 14:-0.74532 15:-0.73067 16:-0.46189 17:-0.3452 18:-0.18799 19:-0.019055 20:0.058752 21:0.03838 22:0.081233 23:0.09528 24:0.087271 25:-0.60267 
1.0 1:-2.1603 2:0.51839 3:-3.2673 4:-1.2358 5:-3.8186 6:-4.0049 7:-4.7059 8:-4.925 9:-3.6245 10:-2.2427 11:-2.1207 12:0.082259 13:2.8356 14:1.5346 15:0.49346 16:-0.20903 17:0.21135 18:0.26373 19:-0.22052 20:-1.0688 21:-0.19291 22:-1.0207 23:-0.32555 24:0.52983 25:-2.7928 
1.0 1:3.1159 2:4.7802 3:1.3333 4:-2.0437 5:-2.4975 6:1.0147 7:-3.1014 8:2.2184 9:2.4081 10:-2.6691 11:-6.9749 12:-6.9631 13:-6.3869 14:-4.0987 15:-3.437 16:-0.21665 17:-4.1674 18:-2.8355 19:-1.048 20:-0.99516 21:-4.352 22:-9.4475 23:-3.9408 24:-1.9033 25:1.7904 
1.0 1:-7.5234 2:-7.1492 3:-3.1459 4:-0.73015 5:-3.0408 6:-1.877 7:-1.6675 8:-4.4106 9:-7.5053 10:-6.0156 11:-8.2887 12:-1.8005 13:-0.83019 14:-1.651 15:-1.185 16:-0.087402 17:0.94956 18:2.1226 19:1.3726 20:0.16239 21:-0.92445 22:-0.26822 23:1.0225 24:0.28755 25:-7.6493 
1.0 1:-1.1928 2:0.69719 3:10.3309 4:3.4678 5:1.7307 6:0.26554 7:-0.34252 8:-0.43856 9:0.028009 10:0.3187 11:0.80219 12:1.0792 13:1.22 14:1.1316 15:1.5768 16:1.2832 17:0.74911 18:0.84835 19:1.5862 20:0.4591 21:0.84557 22:0.81475 23:0.41529 24:0.18685 25:-5.3316 
1.0 1:2.8139 2:3.4064 3:2.2229 4:-1.6881 5:-4.6674 6:-3.3401 7:-0.71467 8:0.82432 9:4.6232 10:-1.4613 11:-7.0789 12:-7.4371 13:-8.8656 14:-5.3053 15:-2.8937 16:-2.4168 17:-4.3419 18:-2.8827 19:-2.4343 20:-3.9345 21:-3.0847 22:-1.2022 23:-4.086 24:-7.7241 25:-0.47227 
0.35774458663604664 1:-1.1586 2:-1.0866 3:-0.63891 4:-0.88291 5:-0.27231 6:1.6863 7:2.466 8:2.0116 9:2.5094 10:2.3732 11:1.7452 12:1.8324 13:0.62084 14:0.42523 15:0.84439 16:0.71874 17:-0.42609 18:0.53341 19:-0.19252 20:0.19402 21:0.47222 22:0.11377 23:0.031956 24:-0.15319 25:-1.8983 
1.0 1:-2.6072 2:-5.3919 3:-4.6428 4:-0.8096 5:-0.18337 6:-1.0473 7:2.1654 8:0.41656 9:-4.1705 10:-6.4888 11:-6.498 12:-3.2758 13:-0.86533 14:-1.0303 15:-1.6347 16:-1.5324 17:-1.6149 18:-2.7429 19:-5.9226 20:-5.9109 21:-12.0692 22:-7.8767 23:-4.8993 24:-2.7321 25:-1.6234 
1.0 1:2.0508 2:0.67224 3:-0.25078 4:-0.27199 5:-1.2361 6:-0.14914 7:0.99098 8:1.8275 9:2.4054 10:4.1852 11:2.6208 12:2.4808 13:3.8233 14:2.2383 15:2.7209 16:-0.48518 17:-0.47719 18:-0.80366 19:-1.4422 20:-2.7726 21:-0.0058502 22:-1.0548 23:3.1974 24:2.2259 25:2.0189 
1.0 1:-1.4929 2:-2.7374 3:-3.2097 4:-5.6901 5:-6.4933 6:-6.58 7:-8.732 8:-6.691 9:-2.7063 10:-1.3801 11:-0.021411 12:1.7087 13:2.174 14:3.3683 15:3.783 16:3.9644 17:3.1063 18:2.4265 19:1.3497 20:1.3667 21:0.46868 22:0.39165 23:1.0475 24:1.0477 25:-1.0713 
0.5315410865701373 1:0.23949 2:-0.68095 3:-0.61921 4:0.25167 5:2.3018 6:3.3702 7:3.903 8:3.8398 9:1.6877 10:0.52497 11:0.38499 12:0.63744 13:0.71 14:0.077707 15:0.016659 16:0.26637 17:0.85033 18:0.52953 19:0.13926 20:0.87766 21:0.67477 22:0.27489 23:-0.048104 24:0.28171 25:0.70587 
0.17736023827830022 1:0.058594 2:-0.053037 3:-0.05101 4:-0.078492 5:0.025238 6:0.43571 7:0.36013 8:0.80862 9:0.89089 10:1.2345 11:0.486 12:0.24343 13:0.093171 14:1.0618 15:0.88812 16:2.8115 17:1.6177 18:2.8681 19:2.5291 20:2.2736 21:1.2821 22:0.89608 23:0.89793 24:-0.90803 25:0.12289 
1.0 1:-5.1735 2:-3.1895 3:-1.5757 4:0.19787 5:1.7589 6:2.6595 7:2.5782 8:2.4057 9:2.5514 10:2.6585 11:2.1281 12:1.23 13:0.74165 14:0.63039 15:0.23437 16:0.10076 17:0.66612 18:0.58091 19:0.4194 20:0.30977 21:0.10001 22:0.49798 23:-0.034301 24:0.098611 25:-7.0296 
0.5630130047011308 1:0.016925 2:-1.1409 3:-0.41047 4:0.97215 5:0.050259 6:2.1968 7:0.44732 8:1.0299 9:1.5998 10:1.5946 11:0.53123 12:0.055835 13:0.043388 14:0.13212 15:0.34564 16:0.0022754 17:1.076 18:1.5648 19:1.9521 20:2.2768 21:1.6979 22:2.3235 23:1.7804 24:0.6717 25:-0.2801 
1.0 1:3.5797 2:3.2187 3:2.1281 4:3.3159 5:6.0495 6:5.3805 7:5.1862 8:3.8549 9:0.91816 10:-0.24499 11:3.5344 12:2.2448 13:1.1688 14:0.50539 15:0.3244 16:0.31508 17:0.081164 18:0.25558 19:0.09267 20:0.13732 21:0.22143 22:0.11573 23:-0.015752 24:-0.26538 25:0.56622 
1.0 1:3.4261 2:4.6098 3:2.2416 4:0.40684 5:-0.015738 6:0.038416 7:-0.62631 8:-1.467 9:-2.0842 10:-2.3586 11:-2.0993 12:-1.8274 13:-1.3878 14:-0.94267 15:-0.46402 16:-0.34338 17:-0.12525 18:0.018001 19:0.20786 20:0.33618 21:-0.029396 22:-0.30041 23:-0.31394 24:-0.5494 25:3.0854 
1.0 1:-0.15853 2:-0.091909 3:-0.14509 4:-0.13675 5:-0.092325 6:-0.26952 7:-0.20714 8:0.15935 9:-0.55624 10:-0.37069 11:-0.59349 12:0.6703 13:1.0035 14:0.44826 15:-1.0551 16:-3.0152 17:-2.4806 18:-1.7515 19:-0.42722 20:3.7019 21:5.0761 22:3.303 23:4.5417 24:2.4203 25:0.83349 
0.7254304981311444 1:0.0063965 2:0.75882 3:1.8459 4:2.2745 5:1.1238 6:0.12426 7:0.40639 8:-0.62416 9:-1.6986 10:-2.3357 11:-2.0423 12:-1.1858 13:-0.31943 14:0.038669 15:0.84045 16:-0.90057 17:3.0825 18:0.51447 19:-0.36764 20:0.097486 21:-0.0054326 22:0.71404 23:0.85044 24:0.14057 25:-0.20196 
1.0 1:0.42487 2:1.0248 3:1.4262 4:2.0543 5:4.6785 6:3.7596 7:-0.0070048 8:0.8809 9:0.92272 10:1.581 11:4.0897 12:4.9869 13:5.9762 14:2.9324 15:1.0391 16:0.31676 17:-1.1789 18:-0.4929 19:-2.1531 20:-3.6493 21:-2.8544 22:-1.9743 23:-1.2685 24:-0.62436 25:-2.1663 
1.0 1:2.7729 2:2.8254 3:2.2366 4:2.2226 5:2.0909 6:1.6288 7:1.5437 8:1.5436 9:2.4265 10:2.6912 11:2.7247 12:1.6871 13:4.9518 14:3.3426 15:0.56758 16:0.22956 17:-0.23182 18:0.95125 19:0.03468 20:-1.7244 21:-5.7153 22:-9.9899 23:-13.5136 24:-6.2857 25:2.5595 
0.8968460193863739 1:-1.4207 2:-1.9412 3:-2.2844 4:-2.651 5:-3.3003 6:-3.0443 7:-3.1188 8:-3.5828 9:-3.5534 10:-3.8624 11:-2.9587 12:-2.2715 13:-2.1073 14:-1.9494 15:-1.7191 16:-1.8299 17:-1.5173 18:-1.1119 19:-1.1958 20:-0.85088 21:-0.64414 22:-0.29274 23:-0.083717 24:-0.21691 25:-1.107 
0.9097704601897733 1:-2.1652 2:-3.7534 3:-4.4446 4:-4.1937 5:-4.1911 6:-3.2583 7:-1.4845 8:-0.52215 9:-0.19896 10:-0.5107 11:-0.014058 12:0.52609 13:0.77542 14:0.68145 15:0.46066 16:-0.042552 17:0.05591 18:-0.006946 19:-0.11817 20:-0.070337 21:-0.04914 22:-0.30003 23:-0.062308 24:0.28597 25:-1.4569 
1.0 1:0.082109 2:-1.0202 3:0.69334 4:-0.25629 5:1.0663 6:0.1992 7:7.3271 8:2.8632 9:1.924 10:-3.9591 11:-4.2376 12:-5.0016 13:-6.1448 14:-6.9756 15:-6.4616 16:-3.4084 17:-1.3991 18:-2.098 19:0.4041 20:-0.36591 21:-0.57246 22:-0.20816 23:-0.16291 24:-0.91468 25:0.17769 
1.0 1:0.13011 2:-0.3171 3:5.4786 4:1.967 5:-1.5444 6:-0.079368 7:-0.52733 8:-0.63958 9:-1.2575 10:-0.41355 11:-1.7653 12:-1.2464 13:-0.47687 14:-1.2817 15:-0.40874 16:0.56421 17:-0.14802 18:-0.27174 19:0.46508 20:-0.44933 21:-0.3059 22:0.73072 23:1.8051 24:-1.1083 25:2.2187 
1.0 1:-0.048761 2:0.13305 3:0.76177 4:-0.18259 5:-0.15256 6:1.8211 7:2.977 8:1.0179 9:3.2286 10:0.1616 11:-3.0136 12:-3.0306 13:-3.2967 14:-3.6538 15:-4.418 16:-3.5944 17:-4.2156 18:-3.0273 19:-2.0065 20:-1.7614 21:-1.4125 22:-0.096913 23:-0.4927 24:0.29099 25:0.1371 
0.08113072957377686 1:-0.2289 2:-0.010395 3:0.067894 4:0.1469 5:0.044264 6:0.39473 7:1.2781 8:1.2219 9:0.59697 10:-0.28538 11:0.39309 12:0.6267 13:1.9674 14:0.97099 15:0.7182 16:0.60039 17:-1.9271 18:-1.0788 19:-0.34906 20:0.23702 21:0.21204 22:-0.083692 23:2.0694 24:0.73144 25:-0.44373 
1.0 1:-2.5016 2:-0.4117 3:0.04681 4:0.12527 5:-0.368 6:-0.99342 7:-1.1239 8:-0.92764 9:-0.45099 10:-0.70941 11:0.2609 12:0.070177 13:1.3852 14:-0.40808 15:0.035039 16:2.0827 17:-2.4853 18:1.9521 19:1.3781 20:-2.4378 21:3.4268 22:2.6836 23:-3.6423 24:-0.22958 25:3.0099 
1.0 1:-1.7 2:0.36193 3:1.9723 4:-0.66317 5:2.4321 6:1.9604 7:-3.3799 8:-4.0881 9:-1.5834 10:-0.91072 11:-2.4099 12:-3.3829 13:-2.7839 14:-2.6112 15:-1.1654 16:-0.88062 17:-1.902 18:-1.5219 19:-0.89529 20:0.036407 21:1.0786 22:-0.016782 23:0.078499 24:2.1297 25:2.2465 
0.015676601105371606 1:1.0972 2:-0.067771 3:-0.31422 4:0.019794 5:-0.51869 6:-0.336 7:-0.10416 8:0.71197 9:1.8921 10:0.49221 11:0.76512 12:0.14841 13:0.73269 14:0.16461 15:1.0354 16:2.5359 17:1.5645 18:2.5536 19:0.59309 20:0.96344 21:0.6951 22:1.562 23:0.19366 24:0.81109 25:0.35184 
1.0 1:-10.3539 2:-7.6804 3:-3.0393 4:-0.093 5:-0.052211 6:-0.080479 7:-1.8618 8:3.8837 9:-0.52712 10:0.66328 11:0.95366 12:-1.5484 13:-4.3992 14:-2.9347 15:-3.4252 16:-4.0807 17:-3.9593 18:-4.0565 19:-4.4941 20:-2.8671 21:-1.2819 22:-1.8096 23:-1.1331 24:-0.8906 25:-5.5463 
1.0 1:-11.2265 2:-8.6465 3:-8.8034 4:-10.1881 5:-2.2568 6:0.026011 7:0.79416 8:0.33041 9:0.16236 10:-1.2555 11:2.2445 12:0.41808 13:1.1994 14:1.5318 15:-0.10964 16:-1.5086 17:-4.252 18:-4.0757 19:-2.3359 20:-2.2663 21:-3.0482 22:-3.0513 23:-2.7687 24:-2.6111 25:-10.8301 
1.0 1:-1.6571 2:-1.0235 3:0.088888 4:0.29271 5:0.81009 6:0.30542 7:0.080913 8:0.3271 9:0.12743 10:0.53317 11:0.82231 12:-0.070874 13:-1.2614 14:0.35318 15:4.2789 16:4.0892 17:-2.2818 18:-0.085457 19:2.8526 20:-1.4894 21:-0.22825 22:-4.7007 23:0.89171 24:0.84779 25:-0.78137 
1.0 1:-8.9194 2:-5.7424 3:-4.0052 4:-2.0994 5:-1.0824 6:-0.64771 7:-0.28925 8:-0.033672 9:-1.4811 10:-1.049 11:-1.2498 12:-0.84576 13:-2.5392 14:-3.0167 15:-2.7676 16:-3.2617 17:-1.218 18:-0.34241 19:-1.3726 20:-1.627 21:-1.3672 22:-2.2545 23:-2.9646 24:-1.2209 25:-11.1301 
1.0 1:0.98341 2:1.9023 3:3.4736 4:2.986 5:3.2615 6:3.2468 7:1.2523 8:0.57589 9:-0.88455 10:-3.5524 11:-4.5277 12:-3.6384 13:-3.5984 14:-4.1171 15:-6.1553 16:-5.0917 17:-3.947 18:-4.2767 19:-2.9837 20:-2.3863 21:-2.363 22:-0.73063 23:0.63955 24:-1.5764 25:2.2696 
0.08541397375163191 1:1.4844 2:1.0438 3:1.1505 4:0.79313 5:0.15642 6:-0.37652 7:-0.68417 8:0.60304 9:0.49829 10:1.4219 11:1.1852 12:-0.53042 13:-0.6678 14:0.46791 15:0.76891 16:0.50835 17:0.98881 18:0.29297 19:0.70193 20:0.5345 21:1.3162 22:1.4161 23:0.9054 24:1.9504 25:1.7166 
1.0 1:0.039793 2:0.059507 3:-0.0055903 4:0.2792 5:1.0859 6:1.3262 7:1.4012 8:2.1711 9:2.781 10:3.1273 11:3.5406 12:3.2368 13:3.159 14:2.9588 15:3.0766 16:3.1385 17:2.8752 18:2.4324 19:2.6307 20:2.4128 21:2.8423 22:2.5721 23:2.7669 24:2.3104 25:-0.18051 
0.014592415384551336 1:-0.92992 2:-1.0776 3:-1.2172 4:-1.3276 5:-1.8319 6:-1.7593 7:-1.5696 8:-1.6268 9:-1.3528 10:-0.76469 11:-0.78822 12:-1.0022 13:-0.98754 14:-1.3377 15:-2.0966 16:-1.8138 17:-2.8547 18:-2.1922 19:-1.198 20:-1.673 21:-1.4135 22:-0.78988 23:-0.78574 24:-0.77283 25:-0.8352 
0.8630211136081937 1:1.2253 2:1.9506 3:3.1118 4:3.1726 5:2.3592 6:1.872 7:0.61931 8:-0.89 9:-0.98847 10:-0.74076 11:-1.2721 12:-1.3257 13:-1.4661 14:-1.7798 15:-2.382 16:-3.6956 17:-3.4221 18:-2.6911 19:-2.5616 20:-2.4261 21:-1.5371 22:-1.1869 23:-0.53451 24:0.049573 25:0.18807 
0.9285106733468426 1:-0.25711 2:-0.33381 3:1.6225 4:0.49111 5:0.5565 6:0.95605 7:1.7 8:-1.3321 9:-3.4211 10:-2.9859 11:-4.0573 12:-3.5292 13:-2.9892 14:-3.549 15:-3.1285 16:-2.9399 17:-3.7299 18:-3.9736 19:-3.3623 20:-1.9471 21:-0.44634 22:0.72194 23:0.73961 24:-0.24566 25:-0.37892 
0.25534404457262877 1:2.1661 2:2.3815 3:1.6767 4:1.2293 5:1.378 6:0.73869 7:-0.062912 8:0.25944 9:-0.08237 10:-0.34171 11:-0.13421 12:-1.4703 13:-1.6868 14:-1.7115 15:-1.4871 16:-1.0618 17:-0.55784 18:-0.36471 19:0.042877 20:-0.52094 21:-0.66166 22:0.27918 23:1.8766 24:0.6529 25:-1.0103 
0.4394616673594087 1:1.064 2:-0.7747 3:-1.943 4:-1.375 5:-1.2562 6:-2.1592 7:-1.6671 8:-1.8057 9:-2.362 10:-2.5998 11:-2.3142 12:-1.6829 13:-0.55856 14:0.23958 15:0.52518 16:0.73207 17:0.10217 18:-0.46458 19:-0.56361 20:-0.54672 21:-0.2804 22:-0.46295 23:-0.88706 24:-1.2085 25:1.8181 
0.33234025508014575 1:0.36657 2:0.18456 3:-0.029426 4:-0.15327 5:-0.32065 6:-0.25816 7:-0.46109 8:-0.54301 9:-0.51144 10:-0.59472 11:-0.022224 12:0.57518 13:1.4028 14:0.58842 15:-0.33284 16:-0.95708 17:-0.24068 18:-0.2995 19:-0.49803 20:-2.01 21:-2.8068 22:1.7605 23:0.75461 24:-0.57719 25:-0.14195 
0.5363533193996602 1:0.19262 2:-2.2709 3:-1.0577 4:-3.4465 5:-3.4629 6:-2.7378 7:-2.6856 8:-1.1258 9:-0.24695 10:0.049553 11:0.20319 12:0.050832 13:0.10249 14:0.26222 15:0.32403 16:0.35558 17:0.13024 18:-0.095959 19:-0.20669 20:-0.46674 21:-0.87147 22:-1.1296 23:-0.80144 24:-1.1105 25:0.63617 
1.0 1:-3.9612 2:-3.4533 3:-2.9643 4:-2.034 5:-1.0661 6:-0.95359 7:-1.0956 8:-0.72699 9:-0.29041 10:-0.49629 11:-0.85362 12:-1.0058 13:-0.51699 14:-0.21009 15:-0.10353 16:0.47041 17:0.72915 18:1.0861 19:1.4288 20:1.9516 21:2.547 22:2.1634 23:2.4579 24:1.5064 25:-4.0953 
0.8240220009640662 1:-2.8107 2:-3.713 3:-2.7117 4:0.38585 5:-0.35819 6:-0.55666 7:-0.32091 8:-0.16232 9:-0.15797 10:0.12026 11:0.44647 12:1.0801 13:1.7559 14:2.7518 15:2.0516 16:0.76377 17:0.05118 18:-0.8856 19:1.5179 20:-0.08969 21:-1.4159 22:0.1609 23:0.95768 24:-0.48546 25:-2.9396 
1.0 1:-5.4062 2:-5.8114 3:-6.9448 4:-8.9487 5:-6.662 6:-9.2316 7:-5.7007 8:-4.5962 9:-1.8852 10:0.015967 11:-0.58228 12:-0.71172 13:-0.69686 14:-0.47338 15:0.17481 16:-0.63674 17:0.096179 18:0.013175 19:-0.81082 20:-3.4075 21:-4.6717 22:-4.0899 23:-4.164 24:-3.8721 25:-1.8199 
0.7985311776683546 1:0.33038 2:0.43455 3:0.71444 4:0.11163 5:-1.0126 6:-0.073479 7:-1.2512 8:2.6703 9:0.79825 10:-0.87214 11:0.5771 12:-0.31565 13:-0.77788 14:-0.83596 15:-1.7411 16:-1.1188 17:-0.749 18:0.60958 19:0.07498 20:-0.98719 21:-1.0504 22:-1.6979 23:-0.33425 24:2.0428 25:-0.20831 
0.22010484397758942 1:-2.2868 2:-2.74 3:-1.7046 4:-0.89478 5:-0.12311 6:-0.15657 7:-0.50291 8:0.01627 9:0.54659 10:-0.14647 11:-1.2446 12:-0.078278 13:0.86601 14:0.59159 15:0.46919 16:2.414 17:1.6453 18:0.086213 19:-0.44847 20:0.080258 21:1.3012 22:1.6481 23:1.5343 24:0.33231 25:-2.3262 
0.3204275024763255 1:-0.95346 2:-0.89591 3:-1.0468 4:-1.0239 5:-0.88236 6:-1.0439 7:-0.72586 8:-0.87963 9:-1.043 10:-1.5057 11:-1.2455 12:-0.76828 13:-0.55497 14:-0.007963 15:0.85526 16:1.1872 17:2.2395 18:1.6608 19:0.94357 20:0.55108 21:-0.38876 22:-0.58175 23:2.598 24:1.6737 25:-1.0348 
0.4697178057182582 1:1.2698 2:1.59 3:1.7336 4:1.6619 5:1.9784 6:2.2375 7:1.4927 8:0.96209 9:0.84572 10:0.66641 11:0.57806 12:0.1823 13:0.37539 14:0.43989 15:-0.23294 16:-0.70716 17:-0.94696 18:-1.7135 19:-2.418 20:-2.6405 21:-2.3263 22:-1.9515 23:-1.495 24:-1.0887 25:1.6759 
1.0 1:0.47438 2:0.31638 3:0.13399 4:0.44474 5:0.20504 6:0.19194 7:0.85477 8:0.89877 9:0.71241 10:0.97414 11:0.53912 12:-0.17005 13:0.9608 14:-0.26768 15:0.0064032 16:3.7603 17:-0.34728 18:4.0166 19:4.7624 20:2.6634 21:-0.5154 22:-3.1023 23:-2.9724 24:-2.901 25:0.13268 
1.0 1:-4.4643 2:-4.1313 3:-0.95285 4:-1.28 5:-2.065 6:-0.40052 7:-1.1116 8:-0.89046 9:1.1161 10:1.5956 11:2.3277 12:2.7116 13:3.9759 14:3.9796 15:4.153 16:5.7074 17:4.1089 18:1.96 19:0.36756 20:-0.1149 21:-0.38752 22:-0.33697 23:0.046924 24:-0.020062 25:0.81735 
1.0 1:3.4645 2:3.3183 3:3.4506 4:3.4198 5:3.0594 6:2.8186 7:2.2027 8:1.6759 9:0.33039 10:0.30591 11:1.0966 12:0.68231 13:-0.40956 14:-0.66654 15:0.16385 16:0.57818 17:-0.055835 18:-0.38597 19:-0.41655 20:-0.23086 21:-1.1239 22:-0.10696 23:-1.0959 24:-1.0494 25:4.3489 
1.0 1:5.7663 2:0.055142 3:-2.4531 4:0.097254 5:0.49127 6:0.22934 7:-0.32298 8:-2.6719 9:1.2645 10:-0.84326 11:-0.46378 12:-0.025034 13:-1.3419 14:-3.1748 15:-1.2345 16:1.5137 17:1.5952 18:2.1431 19:1.4267 20:2.5171 21:4.1111 22:3.0163 23:3.2365 24:4.3168 25:6.3732 
0.3976030276490824 1:-2.0922 2:-1.8379 3:-2.4659 4:-2.4844 5:-0.15984 6:0.42167 7:1.0727 8:-1.7577 9:-0.60102 10:-0.88753 11:0.34936 12:0.84603 13:-0.47162 14:-0.51563 15:0.71123 16:-0.18558 17:-1.4396 18:0.40348 19:-0.16518 20:-0.59624 21:0.35038 22:0.25361 23:0.2956 24:0.68038 25:-1.5489 
0.5279718612002253 1:-0.38797 2:-0.41568 3:-0.92231 4:-0.46486 5:-0.96025 6:-1.2975 7:-0.82369 8:-1.8181 9:-2.8296 10:-2.7004 11:-2.4689 12:-1.7358 13:-0.99859 14:-2.3052 15:-3.0302 16:-0.69995 17:-0.13712 18:0.24916 19:0.69388 20:1.6406 21:1.4295 22:1.2852 23:1.2103 24:1.1445 25:-0.13987 
1.0 1:1.4535 2:1.6061 3:1.0729 4:-0.60216 5:-2.5161 6:-3.3297 7:-3.849 8:-3.8469 9:-3.3794 10:-2.0287 11:-0.52303 12:0.69991 13:0.46527 14:-0.29046 15:-0.60729 16:-0.29476 17:-0.11279 18:0.42152 19:0.35606 20:-0.36525 21:-0.2594 22:0.57853 23:0.064669 24:-0.032072 25:1.4371 
1.0 1:-5.9879 2:-5.738 3:-4.1026 4:-3.5343 5:-4.6444 6:-0.95723 7:2.225 8:1.2252 9:1.5583 10:1.7047 11:-0.74342 12:1.707 13:1.4476 14:-3.8148 15:1.615 16:1.1547 17:-0.57161 18:-0.55248 19:-0.94755 20:-0.97108 21:-0.37571 22:-1.5044 23:-0.46537 24:0.31609 25:-2.987 
0.9850489562983014 1:0.87936 2:1.0874 3:1.8278 4:2.2381 5:2.122 6:2.1871 7:2.428 8:2.1376 9:0.51509 10:0.28612 11:-0.35378 12:-1.4272 13:-3.1367 14:-1.5932 15:-1.3108 16:-1.838 17:-0.52245 18:-1.6909 19:-1.0477 20:-2.4847 21:-0.95271 22:-3.3895 23:-2.5292 24:-1.5485 25:1.3735 
0.8020660217191843 1:0.10798 2:-0.47006 3:0.41415 4:-0.43007 5:-1.958 6:-2.6303 7:-2.9996 8:-3.1287 9:-3.5945 10:-3.4021 11:-3.6387 12:-3.6844 13:-3.23 14:-2.9601 15:-2.0096 16:-0.98034 17:-0.4636 18:-0.11654 19:0.056057 20:0.11489 21:0.09891 22:0.09076 23:0.13745 24:0.11801 25:0.58931 
0.2020584314739673 1:0.35677 2:-0.43377 3:-0.67364 4:0.82131 5:0.97071 6:1.0418 7:1.452 8:1.1296 9:1.1384 10:2.3566 11:2.8314 12:2.9622 13:1.9401 14:2.2012 15:1.7354 16:1.1569 17:0.53182 18:0.33386 19:0.29626 20:0.28487 21:0.07188 22:0.044395 23:0.1674 24:0.25488 25:0.93445 
0.6549888450882168 1:1.8441 2:2.2331 3:1.8034 4:0.02462 5:-0.62229 6:-0.28459 7:0.33805 8:0.42012 9:0.63665 10:0.75528 11:1.0944 12:1.459 13:1.9984 14:2.4135 15:2.6199 16:2.4141 17:2.102 18:1.5656 19:1.0364 20:0.69997 21:-0.36174 22:0.15962 23:-1.0479 24:-1.0636 25:2.0778 
0.6715060579903176 1:-0.47003 2:-0.42929 3:0.83286 4:0.43814 5:1.0718 6:1.6313 7:0.09775 8:-1.2128 9:-1.4544 10:-1.9926 11:-2.8681 12:-3.4523 13:-3.8061 14:-4.3705 15:-4.8066 16:-4.382 17:-3.9974 18:-3.853 19:-3.0648 20:-1.9163 21:-1.3571 22:-1.0906 23:-0.7828 24:-0.72868 25:-1.6564 
0.5377454307671409 1:-1.1229 2:-0.96676 3:-0.85493 4:-1.0753 5:-1.3725 6:-0.52646 7:-0.23293 8:-0.51203 9:-0.49876 10:-0.98172 11:-0.74822 12:-1.2425 13:-1.9288 14:-2.8797 15:-2.4295 16:-1.4999 17:-1.8712 18:-2.1957 19:-1.5059 20:-1.7797 21:-1.3849 22:-1.3203 23:-2.0077 24:-1.7818 25:-0.58419 
0.4290601175739453 1:-0.083835 2:-0.2624 3:-0.2428 4:0.11157 5:0.80074 6:1.062 7:1.0797 8:1.6375 9:2.1308 10:1.675 11:1.7652 12:1.2474 13:1.5536 14:0.87259 15:0.46793 16:-0.67746 17:-1.1915 18:-1.7521 19:-1.2935 20:-0.86837 21:-0.28382 22:0.20499 23:-1.8023 24:-1.6533 25:-0.54977 
0.9515651234258378 1:-5.8706 2:-3.3373 3:-1.1609 4:-0.99779 5:-0.80847 6:-0.11756 7:0.20558 8:0.28717 9:0.70273 10:0.75064 11:0.97369 12:0.94113 13:1.1695 14:1.4306 15:1.1331 16:0.94647 17:0.76188 18:0.48659 19:0.40128 20:0.4719 21:0.2641 22:0.63971 23:0.60995 24:0.53815 25:-6.9219 
1.0 1:0.22171 2:0.034895 3:0.069654 4:-0.047104 5:-0.0050544 6:0.0026048 7:-0.046748 8:-0.37622 9:0.3663 10:0.88304 11:1.024 12:0.97445 13:1.2772 14:1.4289 15:0.67096 16:0.31206 17:1.3332 18:1.4953 19:1.9071 20:0.62742 21:-0.70692 22:-3.0244 23:-4.2969 24:-4.5618 25:0.3602 
1.0 1:0.11721 2:-1.6573 3:1.2457 4:-0.58976 5:1.6965 6:-0.069468 7:-3.4685 8:-4.0755 9:-0.64547 10:0.37675 11:0.6235 12:-0.52973 13:-0.86296 14:-1.2242 15:-1.7689 16:-1.7844 17:-0.94712 18:1.2492 19:0.82347 20:0.23252 21:-0.091759 22:-0.03552 23:0.21375 24:0.26506 25:-3.0986 
0.38775734686099994 1:0.80834 2:1.1461 3:-0.67385 4:0.10226 5:0.77746 6:-0.25098 7:-1.157 8:-0.52325 9:-0.50665 10:-0.14825 11:0.3048 12:-1.8729 13:-2.6196 14:-0.53902 15:0.038497 16:-2.4554 17:-2.7052 18:-1.2251 19:0.55641 20:0.57588 21:-0.40647 22:-0.29315 23:0.97054 24:-0.54106 25:-0.50477 
0.778185030643176 1:2.1228 2:2.6013 3:1.1147 4:-0.29073 5:-0.078805 6:0.37312 7:1.0674 8:0.91992 9:1.2037 10:1.2325 11:1.6273 12:0.92121 13:0.80075 14:1.4415 15:1.5781 16:0.90803 17:0.92375 18:2.3882 19:3.0411 20:0.65841 21:0.24714 22:1.9636 23:1.2421 24:-0.41671 25:3.4531 
1.0 1:0.16415 2:-0.14185 3:-1.2683 4:-0.58787 5:-2.057 6:-0.72096 7:-0.28565 8:-0.71645 9:-1.6413 10:0.091507 11:0.40543 12:0.83748 13:1.5395 14:2.1275 15:2.2774 16:2.3578 17:2.2593 18:3.2605 19:3.5711 20:3.8224 21:3.9294 22:4.3403 23:4.1927 24:4.4062 25:1.1572 
1.0 1:0.64793 2:0.30381 3:0.57827 4:1.2141 5:1.3063 6:1.532 7:1.8829 8:1.0795 9:1.5023 10:1.9327 11:2.2093 12:3.0091 13:4.0229 14:4.6143 15:7.0695 16:6.5616 17:5.5873 18:3.9475 19:2.8779 20:1.5818 21:0.86147 22:0.37741 23:0.27983 24:0.1418 25:0.66509 
0.029411160890618893 1:-0.63126 2:-0.60388 3:0.12508 4:-1.4756 5:-1.1882 6:-0.20092 7:-1.0563 8:-0.90881 9:-1.4395 10:-2.0821 11:-2.1677 12:-1.7181 13:-1.3878 14:-0.76635 15:0.48151 16:1.4403 17:1.9504 18:1.6411 19:1.1278 20:0.60982 21:-0.39543 22:-0.10109 23:0.86695 24:0.81601 25:-0.1686 
1.0 1:0.35926 2:0.017531 3:0.53701 4:2.1049 5:3.112 6:4.9507 7:4.6064 8:3.7939 9:2.9001 10:2.6026 11:0.087858 12:-1.2871 13:0.80087 14:0.74131 15:0.24578 16:-0.039905 17:-1.4987 18:-0.49604 19:-0.35903 20:-0.62441 21:1.5782 22:0.6861 23:0.19494 24:0.27796 25:0.30794 
0.27893731599981664 1:-1.3738 2:-1.8395 3:-0.80812 4:0.48188 5:-0.62983 6:-1.9433 7:-2.0581 8:-1.5863 9:-1.434 10:-1.8725 11:-2.4367 12:-1.7083 13:-0.56839 14:-0.018901 15:-0.40724 16:-1.4049 17:-0.81131 18:1.6605 19:2.1369 20:1.0519 21:0.39946 22:0.5159 23:0.66593 24:1.2311 25:-0.4832 
1.0 1:1.1347 2:1.0215 3:0.40534 4:2.2705 5:2.3604 6:2.3658 7:2.1494 8:1.9259 9:2.3381 10:0.87133 11:1.9369 12:1.2615 13:-0.13465 14:-2.3585 15:-3.2554 16:-4.1971 17:-4.3722 18:-4.88 19:-4.6183 20:-2.6494 21:-2.1323 22:-1.17 23:0.81123 24:1.5754 25:3.5119 
0.9241606403262891 1:-0.084629 2:0.067475 3:-0.098321 4:-0.051725 5:0.067468 6:-0.31775 7:-0.54835 8:-0.35178 9:-0.055499 10:-0.6243 11:0.72333 12:-0.16914 13:-0.41317 14:0.045494 15:-0.064723 16:-0.83218 17:-1.5749 18:0.93139 19:1.7914 20:-0.33279 21:-0.27768 22:3.172 23:1.2637 24:-4.2954 25:0.38718 
0.48503646010235973 1:-0.22614 2:-0.25354 3:1.0188E-4 4:-0.14746 5:-0.011959 6:-0.38187 7:-0.69973 8:-0.91716 9:-1.5288 10:-1.963 11:-1.8945 12:-2.1674 13:-3.2444 14:-3.5377 15:-2.7786 16:-3.4475 17:-3.2229 18:-2.6293 19:-2.8455 20:-3.657 21:-2.2536 22:-0.18921 23:-0.57841 24:-0.30518 25:-0.24657 
1.0 1:-0.8496 2:-2.0211 3:-4.2349 4:-5.2637 5:-6.3924 6:-5.4328 7:-5.1202 8:-5.7177 9:-4.3172 10:-3.2923 11:-2.4145 12:-1.626 13:-0.63962 14:0.38594 15:1.5732 16:2.2208 17:1.4307 18:2.4655 19:3.0995 20:1.7764 21:0.29393 22:-0.29084 23:-0.49983 24:-0.24969 25:-0.45445 
1.0 1:-4.1312 2:-5.6651 3:-6.6334 4:-6.0831 5:-9.175 6:-5.0741 7:-3.4291 8:-2.8028 9:-1.4698 10:-1.1027 11:-0.26356 12:1.2981 13:1.5994 14:3.1318 15:4.1915 16:4.1141 17:3.1828 18:2.3766 19:1.5 20:-0.19028 21:-0.62483 22:0.21549 23:0.48299 24:0.28206 25:0.27375 
1.0 1:1.6252 2:1.3756 3:0.94774 4:0.725 5:0.28166 6:0.18802 7:0.31267 8:0.49646 9:0.38497 10:0.00882 11:0.032194 12:-0.027189 13:-1.014 14:-0.63446 15:0.026414 16:-0.81189 17:-3.713 18:-2.7096 19:0.37133 20:1.8602 21:2.8515 22:0.083122 23:4.1435 24:-5.9101 25:2.1024 
1.0 1:-2.8117 2:-3.6732 3:2.2646 4:-1.7471 5:-3.8369 6:-3.7817 7:-4.3014 8:-4.9775 9:-4.953 10:-2.1748 11:0.20222 12:0.41669 13:0.33012 14:1.2832 15:2.1197 16:3.0027 17:2.4851 18:1.5197 19:0.8441 20:0.93258 21:1.5572 22:2.2987 23:2.563 24:2.2547 25:-0.85444 
-0.3694216197103361 1:-3.8957 2:4.8007 3:6.1582 4:5.5867 5:1.313 6:0.15836 7:-0.68285 8:-4.0375 9:-1.4177 10:-1.7402 11:-2.3135 12:-2.2181 13:-4.5726 14:-2.1027 15:2.023 16:3.9955 17:6.5735 18:3.759 19:0.82039 20:-1.1086 21:-1.79 22:-1.0141 23:-1.6881 24:-0.62865 25:-3.0886 
-0.3897618810149258 1:2.1963 2:2.0486 3:1.5731 4:5.5415 5:3.8883 6:2.6534 7:2.2895 8:4.375 9:-2.1232 10:-10.1011 11:-4.7679 12:-4.1088 13:-4.6314 14:-0.31427 15:1.81 16:2.0661 17:0.7066 18:5.4843 19:4.1203 20:2.6256 21:3.1692 22:3.4961 23:0.21757 24:-9.0638 25:-0.69488 
-0.39089668419590606 1:-4.7864 2:-0.84632 3:-0.92495 4:0.50193 5:2.251 6:2.8896 7:0.35027 8:1.9952 9:0.78142 10:2.8046 11:0.48624 12:-1.0298 13:1.0684 14:-7.4109 15:-2.4112 16:-0.91163 17:-1.9502 18:1.3517 19:1.3402 20:1.9752 21:-0.21745 22:0.72349 23:5.3061 24:4.0848 25:-9.9688 
-0.5280878445154237 1:-0.47013 2:-1.5444 3:0.42548 4:2.7695 5:0.19408 6:-1.1458 7:-0.6824 8:-0.27433 9:-0.80761 10:0.31404 11:0.45115 12:-0.86155 13:0.96738 14:-0.18845 15:-3.4174 16:-2.4546 17:1.3629 18:4.4674 19:-2.9611 20:-0.22497 21:0.055468 22:-2.3582 23:-2.4137 24:-2.291 25:1.6586 
-0.3975568624367707 1:-3.8986 2:-4.0368 3:-0.69485 4:0.45773 5:-1.4381 6:-1.5525 7:0.93329 8:0.94113 9:0.85189 10:0.60178 11:3.8941 12:2.4342 13:-6.7073 14:-1.1782 15:-0.048292 16:-3.8482 17:-4.4299 18:-1.7122 19:0.10593 20:0.71072 21:-0.75204 22:1.0873 23:1.5309 24:0.15277 25:-4.8845 
-0.45364950056619363 1:1.6205 2:1.6988 3:-1.7554 4:-1.8051 5:1.9675 6:-1.0575 7:-1.0655 8:-2.192 9:-1.8507 10:-0.74012 11:-0.85474 12:-4.7442 13:-0.78675 14:3.5512 15:-0.26668 16:2.5794 17:-2.0388 18:1.3847 19:5.0549 20:0.68738 21:-0.92219 22:-1.6081 23:-1.3871 24:-2.9369 25:3.3419 
-0.36670690214343915 1:0.63873 2:0.035616 3:1.5303 4:1.9352 5:1.8812 6:1.8616 7:4.4017 8:0.78283 9:-1.2993 10:-2.8379 11:-6.122 12:-4.6424 13:-3.4496 14:-1.4907 15:-0.28783 16:1.2694 17:2.2183 18:3.098 19:2.2093 20:2.1874 21:0.9143 22:2.5742 23:-1.2271 24:-1.0581 25:-0.71202 
-0.44403486043807444 1:-1.7216 2:1.1072 3:1.9755 4:-0.60698 5:-2.3462 6:-0.90245 7:-3.483 8:-4.5126 9:-3.2552 10:-2.051 11:0.50514 12:3.0661 13:0.93515 14:-0.35041 15:-1.3557 16:-2.2108 17:-3.3864 18:0.79277 19:3.8632 20:-0.78473 21:-0.6854 22:-2.1938 23:-5.1744 24:-3.621 25:-0.71124 
-0.42059051494201716 1:-1.6785 2:-1.5985 3:-1.0415 4:-0.13356 5:4.1451 6:2.5932 7:-2.4099 8:-3.6423 9:-3.3427 10:-1.2884 11:-3.0474 12:-3.2756 13:-2.8956 14:-3.4908 15:-2.2888 16:-0.51601 17:1.4284 18:4.3391 19:1.2971 20:-0.043221 21:-1.4967 22:-3.1778 23:-3.0172 24:-0.77603 25:-1.6232 
-0.42995665574275327 1:-1.5652 2:0.82137 3:0.071068 4:-1.0542 5:4.4971 6:5.3891 7:0.13919 8:3.3873 9:3.2071 10:1.861 11:-0.55891 12:0.97539 13:-0.17555 14:-1.3226 15:-0.68117 16:-4.3542 17:-4.971 18:-4.9581 19:1.6353 20:-1.3597 21:-2.9676 22:2.1315 23:3.1848 24:1.6238 25:-0.96215 
-0.37475102921656583 1:2.2866 2:3.2012 3:3.0545 4:2.4875 5:2.385 6:0.90788 7:1.8394 8:-5.7256 9:-9.9928 10:-7.0245 11:-1.4573 12:3.3757 13:2.6577 14:2.5982 15:3.308 16:2.6687 17:3.4796 18:2.7809 19:-0.393 20:2.4457 21:-3.5153 22:-8.453 23:-6.0421 24:-4.7478 25:2.776 
-0.43099640580058235 1:0.1497 2:-0.19909 3:0.42176 4:-0.47211 5:-3.556 6:-1.5704 7:-1.4274 8:5.3279 9:1.6284 10:2.9204 11:3.2195 12:2.3846 13:0.99417 14:-0.26564 15:-0.58293 16:-3.4648 17:-2.2897 18:0.49274 19:-1.5832 20:-4.6262 21:-1.1864 22:1.6574 23:2.927 24:3.7315 25:-0.46556 
-0.39397986977450367 1:0.39568 2:2.372 3:-1.4457 4:1.755 5:-3.8793 6:-6.9393 7:-7.0628 8:-0.26775 9:-0.81394 10:0.77352 11:-0.65786 12:5.4994 13:1.3947 14:2.4003 15:0.74949 16:0.026782 17:0.30944 18:-2.1288 19:-2.064 20:-6.7657 21:-9.3789 22:0.34405 23:0.019825 24:-0.17613 25:-6.3927 
-0.39026136401033745 1:3.1874 2:3.1301 3:2.7937 4:5.0461 5:4.9693 6:6.2333 7:4.4749 8:2.9479 9:-0.41909 10:-10.013 11:-10.8691 12:-4.9923 13:-3.5658 14:-2.9872 15:0.8064 16:3.2873 17:4.7923 18:5.0162 19:6.1389 20:5.4454 21:3.3035 22:2.0978 23:-2.5839 24:-7.7014 25:-1.0946 
-0.39413230178192904 1:8.8411 2:6.4932 3:1.9535 4:1.0071 5:2.8355 6:0.60564 7:0.50449 8:0.18533 9:-3.1258 10:-5.1392 11:-5.6659 12:-6.4942 13:-3.9531 14:2.6198 15:3.7085 16:2.6908 17:2.6071 18:1.5348 19:2.0728 20:3.4461 21:0.59223 22:1.3536 23:3.9663 24:3.2734 25:0.67963 
-0.395378067003004 1:0.12049 2:-0.19938 3:0.06643 4:-1.1266 5:0.36173 6:5.1611 7:6.1389 8:-0.64349 9:-4.4048 10:-0.20976 11:0.52307 12:-2.7456 13:2.6736 14:-0.40831 15:-3.5608 16:-6.4199 17:-6.6653 18:-5.0936 19:3.0361 20:3.5626 21:2.7566 22:-0.1717 23:-0.7113 24:0.9456 25:0.36383 
-0.3946172311489003 1:3.1996 2:3.7932 3:1.0552 4:-13.5704 5:-8.9061 6:-5.3359 7:-0.73129 8:1.8088 9:2.2359 10:4.2556 11:3.8956 12:1.5326 13:2.4807 14:0.63181 15:2.97 16:0.22374 17:1.688 18:-0.78034 19:-4.2044 20:-11.2858 21:-9.1202 22:-2.6339 23:0.37648 24:4.7353 25:2.1077 
-0.6847552887783657 1:-1.7916 2:-2.3663 3:-2.0008 4:-0.4855 5:0.70683 6:0.66226 7:-1.1143 8:-2.1238 9:2.535 10:-0.13521 11:-0.1989 12:-0.3793 13:-1.4022 14:-1.9141 15:-0.45714 16:-1.2683 17:-2.3661 18:2.8342 19:2.1256 20:-1.2611 21:0.22667 22:3.2047 23:-0.73856 24:-4.9008 25:-2.2417 
-0.3940355144800562 1:10.7588 2:8.1796 3:1.1218 4:-1.3534 5:-2.4701 6:-1.7725 7:-2.0104 8:-3.5258 9:-4.3103 10:-3.4991 11:-3.521 12:0.21731 13:2.9469 14:6.4756 15:8.8135 16:8.209 17:0.9878 18:-1.165 19:-2.8257 20:-4.0838 21:-4.3247 22:-5.4034 23:-4.4322 24:-4.0088 25:5.3882 
-0.47543625048381605 1:-0.5821 2:-2.9094 3:5.1776 4:2.7833 5:1.9129 6:-0.74496 7:-0.34359 8:1.3819 9:0.23775 10:0.39962 11:0.098883 12:-0.74708 13:-1.6907 14:-3.8208 15:0.11979 16:-0.90905 17:3.0159 18:3.1725 19:2.9305 20:0.92597 21:0.6815 22:0.93682 23:-1.8843 24:-1.6575 25:-2.226 
-0.3946613517995577 1:2.3729 2:5.1495 3:4.0839 4:-8.0722 5:-8.1881 6:-7.0696 7:-1.8077 8:5.3356 9:-3.6366 10:2.5425 11:1.3518 12:2.4207 13:1.2356 14:1.3489 15:5.1263 16:3.4296 17:-0.43856 18:-11.1977 19:-8.8574 20:-3.0215 21:1.7779 22:3.9156 23:-1.0711 24:3.1303 25:1.6423 
-0.44839012024226144 1:3.165 2:1.9916 3:0.80855 4:0.81956 5:1.7664 6:-1.8864 7:0.17829 8:0.077307 9:0.60872 10:-5.6993 11:0.9827 12:1.678 13:0.61912 14:2.731 15:3.0436 16:1.3861 17:0.78824 18:2.6542 19:0.016197 20:-2.2892 21:0.79423 22:-0.77462 23:-4.9959 24:-3.308 25:-0.55344 
-0.3916619099135141 1:3.0175 2:-2.5942 3:-5.5703 4:-2.7674 5:-1.4869 6:-1.0034 7:0.20892 8:-2.5955 9:-1.2179 10:4.1709 11:3.51 12:1.5081 13:0.015657 14:2.9025 15:-1.2832 16:-4.2512 17:-4.3042 18:-2.7664 19:-1.3648 20:-2.2853 21:-4.6887 22:4.1942 23:6.8008 24:4.8532 25:1.5375 
-0.3978172811948817 1:3.1766 2:-3.0428 3:-0.95299 4:2.6512 5:-1.6607 6:0.18788 7:7.3083 8:2.6957 9:2.0475 10:-0.40131 11:0.30767 12:-6.5317 13:-10.4523 14:-12.1222 15:-6.1457 16:-7.8991 17:-2.7605 18:-0.7963 19:1.1209 20:0.028824 21:-0.096747 22:0.066658 23:-1.327 24:1.5251 25:-0.24736 
-0.3886837112827394 1:1.9831 2:-3.8346 3:-4.2424 4:-5.3131 5:-4.8806 6:-2.3677 7:2.2913 8:3.664 9:2.0381 10:2.9277 11:3.267 12:4.2222 13:4.1752 14:3.7885 15:-0.27379 16:-9.3457 17:-6.6662 18:-2.7618 19:-1.463 20:-1.9146 21:1.0599 22:2.4022 23:2.6992 24:5.882 25:1.9146 
-0.3937743011367248 1:-3.4457 2:-3.9897 3:0.55537 4:1.8981 5:3.7797 6:4.6853 7:3.4239 8:6.782 9:4.5848 10:5.1965 11:2.8486 12:-3.9943 13:-8.3536 14:-7.3029 15:-3.2597 16:-1.5677 17:1.2809 18:1.9161 19:2.2947 20:4.9766 21:4.0132 22:5.0548 23:6.5536 24:5.6022 25:-3.7677 
-0.3165947700588847 1:0.019325 2:1.6893 3:2.4488 4:2.1497 5:2.4883 6:0.18592 7:-3.4569 8:-3.1257 9:-3.5981 10:-4.4901 11:-3.6415 12:-2.4571 13:0.1526 14:0.192 15:0.4881 16:1.6212 17:3.3591 18:2.681 19:1.7482 20:-0.98962 21:-1.004 22:-0.37959 23:-2.0248 24:-4.8296 25:1.7412 
-0.3942920035048728 1:-0.83243 2:-1.6503 3:-3.0042 4:-1.7988 5:1.9792 6:-4.6905 7:0.69887 8:-5.0578 9:-6.8703 10:-3.6932 11:3.2432 12:5.1599 13:3.276 14:-0.37282 15:-1.6659 16:-1.6012 17:-5.6291 18:-2.3645 19:3.9281 20:-7.541 21:-3.0919 22:-5.5934 23:-7.6119 24:-4.9462 25:-0.46289 
-0.39222132438885265 1:-6.5568 2:-5.4483 3:-2.3986 4:1.8261 5:0.76583 6:2.9201 7:2.8788 8:2.228 9:3.186 10:1.7266 11:-0.65577 12:0.72581 13:0.66207 14:-3.1428 15:-13.5303 16:-6.4328 17:-0.57813 18:1.0609 19:1.6531 20:3.7063 21:0.80434 22:3.4458 23:3.1622 24:1.4337 25:-1.0553 
-0.7337897885262656 1:-1.8774 2:-1.3319 3:-1.5104 4:-1.201 5:-0.55946 6:-1.5871 7:-1.2716 8:0.3903 9:0.62088 10:-2.3388 11:-1.2846 12:-1.636 13:3.2635 14:0.3513 15:-0.27052 16:-1.5462 17:-2.0745 18:-1.337 19:-2.4167 20:-1.5574 21:2.7318 22:1.9721 23:-3.0525 24:-0.82107 25:-1.2669 
-0.34711503717708664 1:5.4835 2:0.52451 3:-2.3444 4:-0.53206 5:-0.81485 6:-1.6647 7:-1.2697 8:-0.3846 9:-1.4383 10:-1.4554 11:-2.1558 12:-2.8044 13:6.727 14:6.043 15:1.3883 16:-0.84662 17:-0.53589 18:-0.29063 19:-1.79 20:-2.0994 21:-1.385 22:-2.3257 23:-1.8166 24:-2.0382 25:5.485 
-0.3849771411086907 1:-3.013 2:-0.67175 3:-5.2652 4:-2.2181 5:-0.40302 6:-0.81601 7:2.2017 8:6.6518 9:3.611 10:1.8222 11:-0.07966 12:-0.39223 13:0.17624 14:-1.3156 15:-3.2508 16:-5.8768 17:-4.3342 18:-6.9362 19:-1.6897 20:-0.43336 21:-0.39725 22:2.171 23:4.3581 24:1.972 25:-0.5462 
-0.388793300494433 1:-1.9225 2:4.0357 3:-1.65 4:-3.6426 5:-4.1386 6:-5.959 7:-3.0388 8:-1.7052 9:0.19735 10:1.9382 11:2.1852 12:2.8533 13:4.0555 14:-1.0584 15:2.1361 16:1.6156 17:-2.1976 18:-1.6382 19:-6.1525 20:-4.0573 21:0.19318 22:-0.62112 23:1.1607 24:4.046 25:2.3608 
-0.39066553950602345 1:2.1552 2:5.7644 3:2.6673 4:0.27437 5:3.6168 6:2.1316 7:-0.020696 8:2.1928 9:0.8599 10:-2.5699 11:-8.672 12:0.33734 13:-1.4291 14:0.3618 15:3.3157 16:2.1355 17:1.7651 18:1.4267 19:1.1795 20:0.29245 21:-2.3943 22:-1.496 23:-1.4682 24:-4.0657 25:-3.2731 
-0.38045818938266485 1:5.5593 2:8.0017 3:5.4612 4:0.17651 5:-2.6251 6:-0.39685 7:-2.2646 8:-1.5596 9:-1.8703 10:-0.82798 11:-0.65117 12:-0.38241 13:-4.2636 14:-2.5996 15:5.6757 16:7.9279 17:2.1763 18:-0.0296 19:0.0024202 20:-1.2033 21:-1.1556 22:-0.012037 23:-1.2098 24:-1.1853 25:-3.8049 
-0.40041958149548107 1:-1.3754 2:-4.3974 3:-2.9335 4:-0.17773 5:1.7726 6:1.6569 7:-2.6246 8:0.68261 9:0.66294 10:2.8492 11:3.1806 12:-1.5499 13:-1.7386 14:-2.3555 15:-3.4845 16:-3.1955 17:-0.82793 18:-0.79707 19:-1.3377 20:6.1963 21:5.2424 22:2.5643 23:-2.1467 24:2.6043 25:-0.24491 
-0.475884769923501 1:-0.023453 2:0.42025 3:-1.0848 4:0.90762 5:3.6779 6:2.4139 7:0.85992 8:-0.17604 9:0.88282 10:-0.66809 11:-2.2586 12:-4.0099 13:-3.5488 14:-4.3508 15:-0.87552 16:1.0749 17:-0.44383 18:1.3827 19:2.1556 20:2.1628 21:2.0434 22:1.0851 23:-0.012611 24:-1.8305 25:-1.5207 
-0.38665631252493504 1:-3.3518 2:-1.0261 3:-1.6385 4:-1.0828 5:-1.7207 6:-0.44132 7:-1.4174 8:-2.1734 9:-1.7588 10:-2.4732 11:7.3381 12:5.3004 13:1.6441 14:-1.9031 15:-0.41083 16:0.71528 17:-1.0629 18:-1.2021 19:0.0034005 20:-2.1454 21:-3.7725 22:-2.6395 23:-4.1476 24:5.2333 25:-0.70214 
-0.35800915335360983 1:7.585 2:3.9218 3:-1.1921 4:-1.0872 5:-2.0831 6:-3.9989 7:-2.392 8:-1.3528 9:-0.85841 10:-3.6519 11:-4.1313 12:-0.32442 13:4.9271 14:6.4529 15:5.3921 16:-0.6542 17:-2.6589 18:-1.9092 19:-0.72725 20:-1.4276 21:-1.9401 22:-0.3446 23:-1.5937 24:-5.158 25:7.4233 
-0.3904395462598981 1:-0.064733 2:-1.4902 3:-5.5157 4:-5.723 5:1.318 6:-2.6946 7:0.56777 8:3.7368 9:2.8359 10:0.7921 11:-0.30356 12:1.4584 13:0.92854 14:1.0222 15:2.2114 16:2.8197 17:-3.5966 18:-7.5398 19:-0.29761 20:-2.3144 21:-0.78755 22:5.2408 23:2.7005 24:1.7289 25:0.54941 
-0.6717379848260029 1:1.2077 2:1.2474 3:2.3529 4:1.9437 5:1.5835 6:-0.54975 7:-1.3132 8:-2.4519 9:-2.92 10:-3.4617 11:-1.0492 12:-2.5976 13:-0.6925 14:0.9607 15:-1.6966 16:-2.273 17:2.3589 18:2.571 19:0.74576 20:0.8706 21:-0.11203 22:-1.6257 23:-2.1243 24:-2.3551 25:1.523 
-0.39439511306303654 1:-0.12066 2:-2.2864 3:-0.42011 4:1.4011 5:1.678 6:2.8301 7:1.1997 8:3.475 9:-0.40095 10:-0.67244 11:3.9291 12:3.5346 13:-13.6364 14:2.0067 15:1.1062 16:-2.7874 17:-2.4735 18:-0.21372 19:-1.8204 20:-2.9912 21:3.2573 22:-1.21 23:0.58526 24:-3.0944 25:3.213 
-0.41342415362387397 1:-3.2046 2:-4.1064 3:-3.4893 4:-1.1722 5:-0.42217 6:0.55926 7:0.76429 8:-0.41475 9:3.651 10:2.6668 11:-0.16644 12:-1.5998 13:-2.2251 14:-2.4204 15:-1.7355 16:-3.8956 17:-4.1723 18:-1.1168 19:-5.035 20:-1.71 21:0.12563 22:-0.6125 23:2.476 24:0.73434 25:-1.7002 
-0.3868827196862014 1:-4.3987 2:2.1538 3:4.5615 4:7.3103 5:6.8178 6:1.6959 7:-0.74412 8:-0.4496 9:-1.7218 10:-2.4229 11:-0.80588 12:-2.4852 13:-0.90399 14:-1.5665 15:-5.0628 16:-0.84436 17:4.8919 18:5.8059 19:2.9704 20:1.247 21:0.35227 22:-0.32203 23:-1.1436 24:0.048315 25:-3.1109 
-0.3679365631845941 1:-1.9681 2:-2.1981 3:-0.69365 4:0.50808 5:0.19669 6:-2.2141 7:-3.4541 8:3.02 9:7.2877 10:5.3374 11:2.6925 12:-1.6674 13:-1.4596 14:-0.7644 15:-1.5234 16:-2.6676 17:-2.015 18:-1.2227 19:-1.8415 20:-3.2516 21:-3.4954 22:5.0413 23:8.3103 24:5.4024 25:-3.7353 
-0.3906622505049911 1:4.4448 2:-6.0227 3:-6.2279 4:-5.1666 5:-2.9206 6:2.3268 7:1.8491 8:-0.80544 9:-0.83111 10:4.1478 11:4.4608 12:4.2423 13:0.83902 14:2.4177 15:1.7791 16:-7.287 17:-6.0796 18:-4.627 19:-3.2396 20:1.5776 21:1.502 22:0.16398 23:1.4255 24:5.2075 25:3.5647 
-0.43014195137671063 1:-2.1734 2:-1.0618 3:-0.84979 4:-1.6674 5:-3.2657 6:0.31008 7:-1.5243 8:-0.010305 9:3.5276 10:1.5361 11:2.1853 12:0.36511 13:0.02314 14:0.32942 15:2.3364 16:0.18466 17:-3.1347 18:-3.4181 19:-2.2818 20:2.0869 21:0.23703 22:5.4301 23:3.1922 24:1.6321 25:1.7649 
-0.391084991727888 1:-1.9387 2:-4.7096 3:-4.7477 4:1.0905 5:-1.0741 6:3.8413 7:4.387 8:2.9548 9:2.6143 10:0.10065 11:0.50866 12:0.3801 13:-0.21644 14:0.1866 15:-0.18597 16:-3.8065 17:-4.2227 18:-0.39029 19:-1.8565 20:1.1715 21:8.6336 22:1.44 23:-0.96197 24:-0.96497 25:-0.66453 
-0.3899931639135608 1:-5.3513 2:10.4331 3:9.9462 4:3.2809 5:-2.0171 6:-1.8292 7:0.12232 8:-0.80931 9:-0.75519 10:-2.9658 11:-1.1031 12:-1.9442 13:-3.8231 14:-4.6974 15:1.2889 16:5.5651 17:4.9496 18:3.8687 19:1.1701 20:-1.2553 21:-1.4698 22:1.3443 23:-1.1408 24:-3.3583 25:-3.5612 
-0.39444692105093465 1:0.94281 2:3.4044 3:0.48064 4:-3.012 5:-5.3105 6:-5.9409 7:-6.2128 8:-1.5074 9:-2.4623 10:1.4754 11:-0.22724 12:-3.5488 13:-3.8408 14:-1.5993 15:-0.15579 16:6.4075 17:0.5459 18:-0.0042019 19:-3.378 20:-7.2529 21:-9.1163 22:-6.5212 23:-2.8952 24:-1.1017 25:-2.9526 
-0.3943726059047682 1:-4.8182 2:-2.6846 3:-4.0882 4:5.0938 5:-2.5721 6:-2.3542 7:-2.6704 8:-7.8104 9:-2.1173 10:4.2819 11:4.0043 12:0.82394 13:-1.3995 14:-2.3061 15:-3.693 16:-1.0722 17:0.57907 18:-1.4666 19:0.0060918 20:-7.4295 21:-8.6446 22:-5.8935 23:-3.0218 24:-1.6805 25:-2.6053 
-0.41119176685196396 1:-0.19927 2:2.2133 3:2.114 4:-0.0077048 5:2.9348 6:0.5338 7:-0.15649 8:0.46097 9:3.0029 10:0.88788 11:-0.9963 12:-2.9327 13:-0.53275 14:0.74868 15:-0.68985 16:-3.4997 17:-2.5755 18:-3.992 19:-4.066 20:-4.5921 21:-4.8255 22:-3.0036 23:-0.036815 24:1.0347 25:-7.0744 
-0.41800166257183363 1:-2.2726 2:-2.6382 3:-4.3422 4:-0.50957 5:-3.5987 6:-2.1632 7:-1.464 8:-1.7495 9:4.2572 10:0.14377 11:1.0532 12:1.9213 13:0.54117 14:-0.79508 15:-2.0062 16:-1.7169 17:-3.5622 18:-3.987 19:-1.4147 20:-2.2394 21:-2.4564 22:-0.35485 23:2.5293 24:-0.22285 25:-1.2083 
-0.43942901005722695 1:-3.122 2:-5.1887 3:-3.8887 4:-2.4855 5:-0.48173 6:0.88166 7:0.51526 8:0.7557 9:-1.112 10:-1.3541 11:-0.50625 12:3.3549 13:2.3056 14:-0.40889 15:2.575 16:0.77399 17:-4.4606 18:-4.3568 19:-2.446 20:-2.6312 21:1.5048 22:1.8155 23:0.83333 24:-0.60445 25:-1.3143 
-0.3788172456564869 1:1.9094 2:4.2001 3:2.4674 4:2.1014 5:3.8836 6:2.9488 7:-3.3137 8:-8.2223 9:-6.4041 10:-6.5299 11:0.3493 12:4.5642 13:3.0688 14:2.678 15:3.7305 16:2.8998 17:1.3964 18:1.3833 19:2.0735 20:1.7294 21:-1.5303 22:-9.1236 23:-5.9785 24:-7.1393 25:2.4583 
-0.39465275658752325 1:-4.0133 2:-3.6909 3:6.8145 4:9.0912 5:5.7594 6:2.1157 7:-1.6111 8:-1.9151 9:-2.3942 10:-2.5025 11:-2.4725 12:-0.91461 13:-0.68517 14:-3.8021 15:-5.409 16:9.2611 17:8.5351 18:6.6033 19:3.7175 20:-0.77692 21:-4.685 22:-3.9795 23:-2.6184 24:-3.3424 25:-2.2344 
-0.39482593434740343 1:3.9057 2:6.2932 3:5.4069 4:5.6149 5:2.5579 6:0.11286 7:-7.7163 8:-11.5158 9:-8.9116 10:-2.7629 11:1.2449 12:3.8175 13:4.9159 14:3.7358 15:3.5301 16:7.4629 17:6.6334 18:7.7585 19:5.8828 20:-1.2702 21:-5.7963 22:-7.2703 23:-9.4126 24:-7.2698 25:4.815 
-0.37583941839946744 1:4.1328 2:0.60277 3:0.1819 4:1.5384 5:0.55757 6:-0.22129 7:-3.5524 8:-3.5717 9:-2.8448 10:-2.6164 11:1.5109 12:-0.52134 13:1.0803 14:3.0892 15:1.67 16:2.7434 17:1.6271 18:-0.99397 19:-2.0978 20:-3.3236 21:-5.3456 22:-4.886 23:-0.23014 24:-0.9024 25:1.7926 
-0.38656353842995433 1:-1.884 2:-1.4229 3:-0.11462 4:0.82022 5:2.6083 6:3.2091 7:2.0961 8:-0.43438 9:-1.7508 10:-3.7737 11:-2.5968 12:-4.1058 13:-6.0994 14:-4.235 15:-4.5944 16:-3.1399 17:-2.0153 18:1.8332 19:3.1185 20:1.7497 21:1.6152 22:0.40735 23:-0.46451 24:-1.592 25:-4.6476 
-0.3934379547724301 1:-0.40523 2:-0.84593 3:0.068032 4:5.2652 5:1.9255 6:-4.7216 7:-1.4416 8:-2.0395 9:-6.3528 10:-3.9573 11:0.92159 12:-0.41568 13:0.94111 14:0.29821 15:1.2059 16:0.46792 17:-1.1047 18:1.0579 19:2.4977 20:1.9095 21:-7.7366 22:-3.0901 23:0.16036 24:-3.3782 25:1.7085 
-0.5375109003952171 1:-0.18481 2:1.7096 3:0.20372 4:0.25405 5:-0.57181 6:-1.6307 7:-2.7938 8:2.2853 9:-1.1414 10:-1.9023 11:4.9855 12:0.78763 13:0.98566 14:1.442 15:0.0063255 16:0.58327 17:1.1426 18:0.54601 19:-0.76026 20:-2.9236 21:-2.1761 22:-1.8692 23:0.7582 24:0.15942 25:0.59696 
-0.4215291536316391 1:0.4646 2:2.1998 3:1.6262 4:-2.1379 5:-2.9144 6:4.2204 7:3.8534 8:-0.064983 9:-0.64252 10:-3.3696 11:-2.4059 12:-3.084 13:-1.0888 14:-1.689 15:-1.1206 16:0.82473 17:2.6819 18:-0.82194 19:0.77717 20:4.8024 21:-0.24924 22:-0.53916 23:-2.5188 24:-2.5755 25:-0.31082 
-0.34264677570526975 1:1.3259 2:2.2572 3:3.9089 4:0.63954 5:1.3409 6:1.4948 7:1.6979 8:0.31242 9:-0.62889 10:-4.4343 11:-8.1899 12:-5.7788 13:-5.4187 14:-3.2925 15:-1.1304 16:1.1448 17:3.9269 18:0.45501 19:0.70339 20:5.4087 21:1.7147 22:1.2819 23:-1.0801 24:-3.302 25:-0.17096 
-0.4302264017349017 1:3.3732 2:0.62353 3:-0.55607 4:-0.54262 5:-0.020958 6:-0.97497 7:-4.1335 8:-2.4455 9:-3.7238 10:0.049672 11:-0.40625 12:-0.73481 13:1.7733 14:2.0524 15:1.1595 16:0.43734 17:-0.0041637 18:-0.65553 19:-0.82098 20:-1.9538 21:-1.8004 22:-2.3638 23:-3.9354 24:-0.28404 25:6.442 
-0.3948190403158032 1:1.0512 2:5.8626 3:4.3212 4:0.4792 5:3.6557 6:8.1632 7:5.9474 8:-6.7031 9:-9.531 10:-5.5807 11:-4.8375 12:-4.0556 13:4.8994 14:2.4954 15:4.4257 16:1.5921 17:0.84252 18:5.6324 19:1.0812 20:1.598 21:4.0476 22:-3.725 23:-12.489 24:-5.4976 25:-0.81622 
-0.40125282312995736 1:-0.48981 2:-0.85323 3:-0.44426 4:-1.9072 5:-2.5912 6:-1.865 7:-2.974 8:4.1758 9:4.5946 10:0.64059 11:3.9435 12:-6.6417 13:-4.2753 14:-3.5946 15:-0.2344 16:-0.7963 17:-0.81606 18:-1.4634 19:-1.4003 20:1.6303 21:2.3222 22:-0.30035 23:-1.3124 24:-1.3198 25:-0.68069 
-0.39338483987111617 1:0.85301 2:-0.6544 3:-4.1095 4:-6.512 5:-7.3192 6:-3.4491 7:8.455 8:2.4613 9:2.558 10:3.2322 11:3.2782 12:2.0528 13:1.6878 14:3.1373 15:-0.55912 16:-4.7858 17:-6.305 18:-4.7317 19:-4.2564 20:5.7317 21:2.8021 22:1.0527 23:2.9369 24:3.0452 25:0.64662 
-0.3170287280882891 1:-0.81987 2:-2.094 3:-1.8556 4:-2.7009 5:-2.8225 6:-1.6529 7:-2.3139 8:-4.5565 9:-4.0358 10:4.3597 11:5.8762 12:6.3797 13:3.0915 14:1.7793 15:-0.22105 16:-1.8151 17:-1.9224 18:-1.5148 19:-2.549 20:-4.1226 21:-3.6364 22:-3.5059 23:-0.13077 24:3.8641 25:0.58714 
-0.39962988046258735 1:-3.2937 2:-2.3288 3:-3.611 4:-1.9236 5:-2.6099 6:0.45578 7:0.94747 8:3.0961 9:1.1992 10:0.019719 11:-1.9895 12:-2.2913 13:-3.0518 14:-6.3019 15:-6.9181 16:-5.4131 17:-1.5143 18:-3.0494 19:-1.9767 20:0.3459 21:1.0869 22:2.6796 23:3.0537 24:0.69567 25:-3.5652 
-0.3237448491346099 1:-0.17932 2:-1.9218 3:-0.97357 4:-0.86217 5:-1.7693 6:-3.2891 7:-4.9416 8:-0.039204 9:3.834 10:8.0869 11:5.1295 12:0.5343 13:0.21731 14:-0.012837 15:-1.5248 16:-3.7267 17:-4.915 18:-2.4717 19:-1.8055 20:-5.4495 21:-0.95946 22:4.3737 23:4.5842 24:4.953 25:0.63813 
-0.39305705323244367 1:-0.22872 2:0.63307 3:2.5402 4:6.771 5:2.7848 6:0.84996 7:2.9305 8:0.25993 9:-2.8364 10:-3.7757 11:-2.9893 12:-3.2543 13:-0.96919 14:1.466 15:2.5319 16:2.0131 17:2.8821 18:4.3011 19:3.3874 20:1.4637 21:0.41697 22:-8.9817 23:-7.4658 24:-5.5831 25:-1.3943 
-0.5234558499625448 1:0.75081 2:0.85089 3:0.76116 4:-0.78242 5:-0.62595 6:0.48585 7:0.49182 8:4.0541 9:-2.9082 10:2.2171 11:-0.37043 12:-4.3967 13:-3.4122 14:0.54596 15:0.38882 16:-0.27074 17:0.88391 18:0.41209 19:-0.12778 20:0.23392 21:0.34941 22:3.9943 23:2.498 24:-3.3126 25:0.37193 
-0.3938224992185433 1:3.8489 2:2.7849 3:-5.9794 4:3.1029 5:1.7436 6:-4.9903 7:-1.2651 8:0.4082 9:1.5118 10:0.94509 11:-0.44892 12:-1.1892 13:-0.93016 14:3.4348 15:2.8305 16:1.0089 17:-4.92 18:-1.4026 19:-2.4572 20:-5.8788 21:-2.6456 22:0.22695 23:1.0318 24:1.7927 25:-0.77607 
-0.37710013640020357 1:2.1809 2:0.89115 3:2.8066 4:0.49429 5:2.2909 6:1.982 7:0.022436 8:-1.2667 9:-5.688 10:-5.1292 11:-4.2437 12:-0.0087065 13:1.9393 14:2.5829 15:2.2919 16:0.98134 17:2.7301 18:2.7945 19:2.4554 20:-1.2338 21:-3.6338 22:-2.5009 23:-9.1581 24:-6.2987 25:2.6852 
-0.3965556917514429 1:-0.17094 2:0.50073 3:-1.5243 4:-0.99437 5:-2.009 6:-3.1653 7:-1.4939 8:-1.3264 9:1.9223 10:2.6814 11:-0.3421 12:2.152 13:3.2711 14:0.5685 15:-1.9492 16:-2.6768 17:-3.7435 18:-3.9058 19:-2.9555 20:-4.4544 21:-0.50571 22:1.5815 23:-0.59635 24:-1.4584 25:0.96996 
-0.4080682557142168 1:-2.5487 2:-4.8605 3:-1.9989 4:5.6149 5:2.0058 6:0.85343 7:2.6848 8:4.49 9:0.1361 10:-1.3828 11:-4.8568 12:-3.2303 13:0.66121 14:-0.33481 15:-0.38934 16:1.001 17:2.0779 18:2.0586 19:1.5428 20:-2.2409 21:2.0034 22:-1.9465 23:-1.4166 24:-1.7681 25:-2.4437 
-0.3831056456170278 1:0.8176 2:-0.76216 3:1.5191 4:3.2198 5:-0.90472 6:-0.88346 7:-2.4976 8:-2.5883 9:-0.50038 10:-4.338 11:-3.9268 12:0.82205 13:3.8022 14:4.7338 15:1.0126 16:1.5615 17:1.8943 18:-1.7201 19:-1.928 20:-0.99234 21:-2.0124 22:-3.4412 23:-4.7866 24:-0.91219 25:3.5599 
-0.3913949335820913 1:1.1525 2:1.3458 3:3.7956 4:4.0816 5:1.3776 6:0.80067 7:2.7903 8:0.026999 9:-8.4134 10:-9.8208 11:-5.6538 12:1.9077 13:6.06 14:1.6868 15:2.5025 16:2.9264 17:1.3967 18:3.6984 19:-0.21309 20:-1.7576 21:0.97018 22:-3.1706 23:-9.0897 24:-8.2264 25:4.9458 
-0.40270036395582265 1:-0.32572 2:0.074132 3:-2.5632 4:-4.8106 5:-6.8103 6:-9.1668 7:-7.356 8:-5.9567 9:-4.9062 10:-3.1868 11:-2.0102 12:-1.4567 13:-0.52381 14:2.4055 15:1.4143 16:0.51459 17:-0.048813 18:-1.8529 19:2.1333 20:3.4671 21:-2.1839 22:-5.0946 23:-4.3647 24:-4.2594 25:1.9949 
-0.3302033043904657 1:3.5737 2:0.94637 3:-0.68909 4:0.43095 5:-0.61719 6:-1.8509 7:-2.268 8:-0.49088 9:-2.3027 10:-3.3864 11:-1.4226 12:5.6203 13:5.2176 14:5.1706 15:1.2759 16:-0.49754 17:-0.82172 18:0.54349 19:-2.1288 20:-2.0058 21:-2.6089 22:-1.691 23:-2.7592 24:-3.2363 25:6.1748 
-0.39439265194393636 1:0.039203 2:1.8946 3:0.81354 4:4.3912 5:3.7288 6:2.0539 7:2.3004 8:-0.86673 9:-1.2787 10:2.8553 11:2.4102 12:-11.9272 13:-9.5803 14:1.4083 15:1.0039 16:3.139 17:1.8609 18:1.4894 19:2.8658 20:3.6502 21:1.0715 22:-1.0677 23:0.4229 24:-0.63395 25:-8.5926 
-0.39326084100196573 1:2.9115 2:4.7168 3:2.0039 4:-0.21593 5:-0.12019 6:1.8854 7:-3.4721 8:-4.8685 9:0.9796 10:-8.6713 11:-7.5068 12:-3.6744 13:0.18603 14:0.20564 15:-1.9752 16:2.3111 17:4.9571 18:2.979 19:0.92013 20:0.35849 21:-3.3211 22:-6.4905 23:-5.5726 24:-8.3586 25:-0.95834 
-0.3921291345927785 1:-6.3674 2:-4.1163 3:0.11535 4:2.3024 5:1.4244 6:-0.89546 7:2.8077 8:4.3684 9:1.6942 10:4.5433 11:4.5734 12:0.43836 13:-5.9432 14:-6.9667 15:-4.3693 16:-5.1079 17:-0.66133 18:2.2951 19:2.17 20:2.6034 21:5.0513 22:2.6983 23:6.0901 24:1.7726 25:-8.3731 
-0.394554107289033 1:3.4816 2:2.7787 3:3.2129 4:0.48676 5:-3.1357 6:-3.4936 7:-6.5308 8:-3.217 9:-0.50159 10:0.13372 11:0.49956 12:-0.99219 13:-0.70289 14:2.8534 15:6.523 16:7.9322 17:9.195 18:6.0986 19:2.5137 20:1.4417 21:0.7299 22:-2.0101 23:-4.7056 24:-0.8185 25:3.3759 
-0.3920657095457647 1:-2.3079 2:-5.314 3:-11.6587 4:-4.5911 5:-3.1799 6:-0.16849 7:-0.035889 8:3.5735 9:3.7188 10:1.7484 11:0.95776 12:1.2057 13:0.52754 14:-0.44499 15:-1.2378 16:2.4361 17:-9.0316 18:-4.7901 19:-3.048 20:-0.55689 21:0.57338 22:2.8616 23:1.8724 24:2.3937 25:2.6396 
-0.3921552044631388 1:1.6655 2:1.5456 3:1.2222 4:1.6817 5:1.1431 6:-3.4038 7:-8.2061 8:-7.4287 9:-6.2671 10:-2.8585 11:-2.2038 12:-0.63581 13:3.8221 14:3.5427 15:1.4271 16:2.7799 17:1.3317 18:0.7037 19:0.40806 20:-1.4755 21:-1.3362 22:-10.8151 23:-9.5811 24:-8.1066 25:2.0006 
-0.44957331826094254 1:0.74278 2:-1.3967 3:0.17464 4:-3.0494 5:0.010024 6:-1.7241 7:1.3036 8:-2.37 9:-0.29524 10:1.0025 11:0.61784 12:0.66044 13:-1.9596 14:-0.62696 15:5.9657 16:-0.54085 17:2.2719 18:5.773 19:3.5917 20:2.6185 21:-1.326 22:-1.546 23:0.056349 24:-1.8477 25:1.5814 
-0.3663399104503879 1:8.2303 2:3.2917 3:-2.6898 4:-1.397 5:-1.1211 6:-1.5284 7:-0.55375 8:-1.3412 9:-1.5209 10:-1.5553 11:-1.7917 12:-1.5696 13:3.576 14:11.0638 15:5.3917 16:-3.7125 17:-1.5049 18:-1.8901 19:-1.6297 20:-3.2233 21:-3.0398 22:-2.4302 23:-1.8651 24:-3.3487 25:4.219 
-0.29869369720634475 1:-0.39868 2:-2.3519 3:-1.0424 4:-2.5382 5:-2.6435 6:-2.5912 7:-3.7768 8:0.54959 9:6.5868 10:7.1423 11:3.2456 12:-0.12591 13:-0.33334 14:0.13505 15:-0.25031 16:-1.5316 17:-1.2548 18:-2.6015 19:-2.2436 20:-4.1244 21:-3.0765 22:4.0496 23:4.8063 24:6.3868 25:-0.4819 
-0.5929149819950594 1:-1.2144 2:-0.088897 3:-3.8877 4:-0.98919 5:0.17884 6:0.38946 7:3.6105 8:2.4497 9:2.2533 10:0.46291 11:-0.16814 12:1.5954 13:0.28702 14:-0.19529 15:-1.4042 16:-1.8602 17:-3.6674 18:-0.44288 19:1.3678 20:3.8325 21:2.3045 22:2.2131 23:1.0141 24:0.060564 25:0.26035 
-0.3938309713897038 1:6.6695 2:1.5485 3:6.0048 4:-4.7131 5:-12.0179 6:-6.1949 7:-3.7952 8:-1.3129 9:2.4917 10:1.7833 11:1.8967 12:1.253 13:5.6555 14:2.2541 15:0.4684 16:3.0508 17:2.2501 18:-0.97666 19:-8.454 20:-6.4517 21:-4.5752 22:-4.4173 23:1.383 24:3.1429 25:5.8062 
-0.4098412022132015 1:1.36 2:-0.65928 3:-1.0686 4:3.1209 5:0.36345 6:-1.2362 7:2.373 8:-2.0911 9:0.097805 10:3.3683 11:-0.72764 12:-2.7842 13:6.7135 14:-2.0936 15:0.13751 16:-1.1088 17:0.51407 18:1.183 19:-1.84 20:-1.7934 21:-4.2142 22:-0.41526 23:-4.4338 24:0.04969 25:0.59052 
-0.39327056727013276 1:3.0752 2:-1.2268 3:0.045666 4:-0.25783 5:-11.3249 6:-7.7166 7:2.4145 8:-1.3365 9:0.51813 10:3.3243 11:2.8223 12:0.3141 13:2.7156 14:2.0479 15:-0.79157 16:-0.68934 17:0.10891 18:-0.34038 19:-7.8324 20:-5.2702 21:0.35062 22:1.2629 23:0.97099 24:2.6732 25:2.2308 
-0.39389232606169583 1:4.264 2:0.15925 3:2.6638 4:3.2441 5:1.7861 6:0.39578 7:-8.1029 8:-7.4353 9:-5.66 10:0.27071 11:5.8558 12:-0.19289 13:0.72202 14:3.7567 15:2.5167 16:2.3642 17:-0.73669 18:1.612 19:4.6299 20:-7.3734 21:-6.3587 22:-7.6222 23:-4.9469 24:3.0611 25:0.89026 
-0.39447774950071623 1:-3.2764 2:-3.9347 3:-1.515 4:-0.8768 5:0.55187 6:0.28572 7:-1.7144 8:-1.6416 9:0.38355 10:1.1598 11:1.9683 12:1.8063 13:2.8795 14:2.9904 15:3.0042 16:3.6495 17:3.1875 18:5.4307 19:5.3687 20:3.5373 21:-1.3651 22:-5.1903 23:-8.7994 24:-14.8817 25:-2.3424 
-0.3941682243465065 1:1.6136 2:-3.5955 3:-5.2502 4:-6.1555 5:0.72663 6:0.66601 7:4.8341 8:5.2542 9:8.0927 10:3.0701 11:2.2188 12:-0.83382 13:-5.8973 14:-5.2195 15:-2.4366 16:-3.288 17:-2.7209 18:1.5102 19:4.4748 20:3.6813 21:3.4618 22:4.6718 23:5.0327 24:4.1079 25:-1.3568 
-0.42098746644389023 1:-2.6879 2:0.42166 3:0.95829 4:0.76664 5:-2.1749 6:-7.2319 7:2.06 8:-2.3148 9:0.5919 10:0.5193 11:-1.6286 12:-3.5816 13:-3.7403 14:-2.0506 15:-0.87729 16:3.0221 17:1.7318 18:-0.9339 19:0.89586 20:-1.9694 21:-1.1792 22:-1.4302 23:-2.6466 24:-2.219 25:-0.84788 
-0.43281163429887337 1:2.6123 2:-2.3887 3:1.859 4:2.2546 5:-0.67436 6:2.9063 7:4.712 8:-1.2431 9:2.3956 10:-2.3086 11:-3.6852 12:-4.7673 13:-2.4568 14:-0.66272 15:1.7484 16:1.4856 17:0.016388 18:-0.84814 19:-3.4733 20:-0.65893 21:2.2933 22:0.16502 23:-1.1346 24:-2.942 25:3.2995 
-0.35722086753717536 1:0.54527 2:-0.69792 3:-2.209 4:-2.6209 5:-2.3713 6:-3.1312 7:-1.8455 8:-1.0417 9:-3.5865 10:-3.8587 11:1.1019 12:7.0512 13:6.7374 14:4.9576 15:-1.0183 16:-1.9259 17:0.33357 18:-0.62295 19:-2.3174 20:-1.9791 21:-1.8653 22:-2.7993 23:-3.1552 24:-1.5082 25:6.0249 
-0.513455250967295 1:-1.3216 2:0.4796 3:2.2233 4:0.014609 5:-1.0184 6:-1.6079 7:-2.0103 8:-2.5461 9:-0.96094 10:-1.5521 11:0.54715 12:1.3473 13:-1.6624 14:-1.9816 15:2.3713 16:2.8497 17:-0.17739 18:0.18904 19:-1.8532 20:3.9778 21:0.23271 22:-0.11547 23:-4.0102 24:1.4937 25:-2.1148 
-0.3752161569135868 1:-1.142 2:1.2468 3:1.0572 4:1.6747 5:-0.4922 6:-1.0557 7:-4.4508 8:-1.1079 9:-0.78149 10:-1.3187 11:5.344 12:1.0311 13:3.0411 14:1.5515 15:-0.224 16:-0.030054 17:0.98683 18:2.0988 19:0.84221 20:-1.6956 21:-1.9412 22:-2.9645 23:-0.83823 24:0.33308 25:-0.7542 
-0.3282354500873198 1:2.2732 2:5.2611 3:2.8462 4:1.4059 5:1.9705 6:0.94729 7:0.34883 8:-0.31619 9:-0.85384 10:-4.6353 11:-6.4741 12:-5.5783 13:-0.74448 14:-0.66401 15:-0.84714 16:2.5731 17:3.4133 18:2.0674 19:3.1754 20:2.0452 21:1.0846 22:0.1379 23:-1.0585 24:-3.9287 25:-1.3274 
-0.7567428780946825 1:1.1175 2:-0.029426 3:1.0419 4:0.023267 5:1.689 6:0.8904 7:0.012519 8:-0.055035 9:-0.76725 10:-0.31943 11:0.11908 12:0.28611 13:2.4364 14:1.0779 15:0.56377 16:0.9695 17:0.48565 18:-0.98123 19:1.6187 20:1.647 21:-5.9233 22:1.8804 23:1.7971 24:-1.969 25:0.3886 
-0.39408084665644166 1:-1.2205 2:-2.9752 3:1.4709 4:4.9051 5:5.9342 6:6.1092 7:5.3571 8:3.2346 9:1.8231 10:0.36749 11:-9.8407 12:-3.2571 13:-3.1171 14:-3.1589 15:-0.28596 16:1.9357 17:5.5179 18:4.7339 19:4.9192 20:3.4514 21:3.8409 22:2.1772 23:-2.6743 24:-7.9831 25:-1.9398 
-0.3615453258332981 1:-2.6218 2:-4.5192 3:-3.1011 4:-2.6423 5:-3.1585 6:0.56353 7:0.16189 8:0.98689 9:2.0459 10:2.6635 11:1.0329 12:1.2141 13:0.7207 14:0.94742 15:-1.0445 16:-2.3278 17:-7.909 18:-3.4883 19:-1.5361 20:-0.3928 21:-0.25921 22:-0.2174 23:2.0908 24:2.4696 25:-0.81986 
-0.39165074598704946 1:0.08932 2:7.3163 3:10.4327 4:6.9662 5:3.0267 6:2.7798 7:-2.523 8:-3.8836 9:-6.0412 10:-5.0878 11:-3.7601 12:-4.4168 13:-4.6287 14:-0.9593 15:3.284 16:6.4805 17:8.8986 18:4.0131 19:-1.4358 20:-1.4062 21:-3.2449 22:-2.7916 23:-4.1372 24:-5.2835 25:-3.0211 
-0.34687233431432435 1:-0.86346 2:-1.4094 3:-0.71447 4:-1.7989 5:-2.2665 6:-3.3864 7:-3.6092 8:-3.2691 9:-1.7744 10:3.6258 11:6.9502 12:3.3751 13:1.6823 14:-1.0307 15:0.090272 16:-1.7099 17:-0.92236 18:-1.8188 19:-0.654 20:-2.4785 21:-2.9416 22:-0.70745 23:2.6033 24:6.139 25:4.186 
-0.3939562956733293 1:1.6182 2:-9.9647 3:-6.5978 4:-5.5426 5:-7.0049 6:-2.357 7:0.026 8:3.7167 9:2.5995 10:4.4298 11:4.587 12:4.9178 13:5.265 14:4.8339 15:1.2506 16:-1.806 17:-8.7856 18:-6.5196 19:-6.1342 20:-2.6014 21:1.443 22:2.2954 23:2.8132 24:3.2405 25:5.4697 
-0.3986210497233171 1:1.0183 2:2.9356 3:-1.3568 4:-3.416 5:0.94978 6:-5.1838 7:-3.5707 8:-0.20686 9:-2.2627 10:0.26199 11:0.92451 12:2.59 13:1.5295 14:0.12483 15:-3.4054 16:6.0147 17:2.4248 18:-0.25933 19:0.50292 20:2.7404 21:-5.5363 22:-1.3175 23:0.28187 24:-1.6503 25:0.82752 
-0.28418129626762645 1:0.069454 2:1.6052 3:3.8588 4:3.5319 5:2.8543 6:0.8506 7:-0.6525 8:-0.95377 9:-2.0084 10:-4.291 11:-3.419 12:-5.7213 13:-2.4497 14:0.45264 15:0.93921 16:0.42575 17:2.0717 18:2.6961 19:3.1076 20:2.0728 21:0.4177 22:-0.52223 23:-2.7387 24:-5.2281 25:1.1521 
-0.3880442897601057 1:5.0954 2:4.0216 3:1.4263 4:0.57919 5:-3.8859 6:-8.9742 7:-6.3236 8:-5.0212 9:0.099093 10:0.25408 11:1.8248 12:2.4165 13:4.4812 14:4.1368 15:3.9607 16:3.7411 17:3.3762 18:-0.58081 19:-3.4805 20:-7.1002 21:-3.8389 22:-5.2554 23:-1.7446 24:2.3888 25:5.2198 
-0.38269199153216255 1:-2.0785 2:-3.7615 3:-7.5261 4:-3.9224 5:2.9535 6:0.044195 7:2.7857 8:2.0268 9:2.7315 10:2.6332 11:1.9771 12:3.3416 13:1.99 14:-0.31495 15:-2.9667 16:-3.483 17:-3.2246 18:-2.6009 19:-0.55063 20:3.1897 21:0.84515 22:5.7908 23:4.0271 24:0.98355 25:-2.2027 
-0.39492842662149996 1:0.56597 2:-0.35471 3:-0.32509 4:1.1298 5:2.1982 6:0.86651 7:2.0416 8:1.8024 9:1.0969 10:2.3076 11:1.0899 12:0.40705 13:1.2142 14:-1.5532 15:-11.0599 16:-8.9288 17:1.1748 18:-1.1253 19:2.1121 20:3.4921 21:1.9128 22:1.2114 23:1.1039 24:1.92 25:0.81493 
-0.3879254984658792 1:3.0991 2:4.5808 3:3.0155 4:5.0596 5:1.2649 6:-10.0958 7:-5.9966 8:-5.1069 9:-3.3227 10:0.51082 11:1.6706 12:0.37878 13:4.0231 14:3.5964 15:4.0704 16:1.7354 17:3.357 18:5.2764 19:-7.5423 20:-10.0228 21:-6.4325 22:-5.9938 23:-0.56545 24:3.7005 25:2.8968 
-0.3971867633401634 1:-2.5282 2:-3.1936 3:-0.77122 4:-0.70806 5:-1.2266 6:2.9552 7:2.699 8:2.0964 9:-0.20742 10:0.88587 11:4.8016 12:1.0196 13:-2.9768 14:-0.008155 15:-5.1786 16:-5.6187 17:-2.6814 18:0.62995 19:1.4054 20:0.96144 21:0.73643 22:0.73385 23:-0.080801 24:0.56668 25:-6.7818 
-0.432350587008742 1:-5.3898 2:-3.3763 3:0.25885 4:-0.83519 5:3.7152 6:2.3767 7:0.38695 8:0.985 9:0.83431 10:1.4276 11:-1.1225 12:-0.38617 13:0.71466 14:-4.5119 15:-4.0394 16:-1.4787 17:0.10225 18:-0.69603 19:2.6707 20:2.8979 21:1.281 22:0.40567 23:2.0418 24:0.3663 25:-3.4466 
-0.39215261151361497 1:2.1217 2:-1.5668 3:-9.2688 4:-6.1368 5:-6.6297 6:-0.9489 7:1.4799 8:3.0039 9:3.4544 10:3.7172 11:4.5925 12:4.891 13:4.0529 14:-0.080782 15:1.4273 16:-6.445 17:-12.2984 18:-7.509 19:-2.1222 20:1.3187 21:2.4909 22:3.0018 23:2.9552 24:2.5918 25:4.0791 
-0.3933945191418933 1:5.4728 2:0.65262 3:1.0261 4:2.9444 5:3.0461 6:3.9808 7:-0.33776 8:1.5121 9:1.8751 10:-5.307 11:-6.1843 12:-7.6052 13:-2.6544 14:5.2733 15:1.2733 16:0.98092 17:2.3803 18:4.0513 19:4.1573 20:0.63977 21:-0.38046 22:3.7157 23:-6.3915 24:-7.5629 25:-0.53034 
-0.46690964949493285 1:-4.0046 2:2.5088 3:-0.1579 4:0.030743 5:1.906 6:2.5528 7:2.2593 8:2.5838 9:1.4979 10:1.3227 11:-2.0787 12:-0.92153 13:-2.846 14:-4.0296 15:0.27129 16:-0.65024 17:-0.91183 18:0.08165 19:-0.70733 20:-1.0685 21:3.4531 22:1.593 23:0.72153 24:3.6787 25:2.3542 
-0.4029506891872669 1:-4.8807 2:5.3942 3:1.7389 4:2.2835 5:1.7749 6:4.8348 7:-5.2754 8:2.3269 9:-4.0597 10:-1.6178 11:-1.5886 12:-3.0105 13:-0.23644 14:0.13984 15:1.3009 16:-0.53613 17:-2.3648 18:-0.51787 19:2.3558 20:0.99128 21:0.039565 22:-0.92215 23:-1.2553 24:-1.7676 25:-0.67125 
-0.456248266534671 1:-0.91475 2:0.46312 3:0.46769 4:2.1381 5:-0.3271 6:-0.99299 7:-1.3304 8:-3.3458 9:-3.7996 10:-5.2865 11:-4.9078 12:-5.0768 13:-3.088 14:0.39575 15:1.666 16:0.75918 17:1.8097 18:1.4963 19:-0.07136 20:-0.67345 21:1.9073 22:0.3337 23:-1.3266 24:5.7584 25:0.52655 
-0.39271364774247486 1:-1.8921 2:-0.94903 3:-0.4065 4:2.0139 5:3.021 6:1.6772 7:1.4397 8:2.3148 9:0.66437 10:1.7904 11:0.69955 12:3.9607 13:-10.1194 14:-6.9047 15:-2.1309 16:-1.6437 17:1.0647 18:1.4798 19:1.5114 20:1.444 21:1.3051 22:1.6873 23:2.1086 24:2.2363 25:-6.7348 
-0.3938277097740521 1:3.1713 2:5.0295 3:2.0201 4:1.9039 5:4.424 6:6.1317 7:-1.2187 8:0.2079 9:3.2137 10:-1.5985 11:-11.0847 12:-8.4322 13:-5.4822 14:-0.82131 15:4.6573 16:1.0257 17:4.3085 18:5.6782 19:5.0414 20:3.3387 21:-0.011082 22:0.89321 23:1.9466 24:-8.4412 25:-6.1898 
-0.394344964045663 1:-3.0869 2:-1.6255 3:1.7514 4:0.20992 5:1.8493 6:6.0067 7:3.5716 8:6.1934 9:6.2597 10:5.1012 11:4.2927 12:-0.2822 13:0.68588 14:-11.2016 15:-8.9009 16:-2.5175 17:-2.0177 18:-0.17004 19:0.43296 20:1.9209 21:4.7106 22:4.582 23:6.0398 24:7.6071 25:-10.1787 
-0.39480496158726314 1:-1.0308 2:0.69981 3:0.5407 4:0.66502 5:1.06 6:0.60583 7:-0.36318 8:0.60376 9:0.7192 10:1.0324 11:1.5955 12:1.2765 13:0.18206 14:-0.51342 15:1.3449 16:-2.1881 17:3.1164 18:4.5023 19:-3.9624 20:8.9181 21:7.8076 22:-4.5906 23:1.2129 24:0.75685 25:-0.46018 
-0.39851113773047125 1:0.42006 2:-3.4272 3:-7.0495 4:0.66754 5:1.872 6:0.71926 7:0.067776 8:0.81595 9:0.16253 10:3.5227 11:-2.6923 12:3.5748 13:3.4666 14:1.4036 15:-2.8231 16:-2.6157 17:-0.55885 18:-4.0642 19:-2.5595 20:-0.52399 21:1.8441 22:1.2867 23:-0.31798 24:-0.61379 25:-0.70134 
-0.3943803908317664 1:2.5973 2:0.78993 3:-10.9148 4:-3.3033 5:-1.4084 6:0.9805 7:-1.9353 8:1.4141 9:-1.2432 10:0.06287 11:1.9119 12:1.7918 13:3.8075 14:2.7714 15:1.2933 16:5.7227 17:4.624 18:-1.3874 19:-3.2885 20:-3.0034 21:-3.6359 22:-1.0434 23:0.85772 24:1.0023 25:2.8675 
-0.3948324728754789 1:-1.2274 2:-2.8108 3:3.0483 4:3.0778 5:-3.8171 6:-4.4089 7:-5.1359 8:-3.4458 9:1.7943 10:3.9204 11:1.7189 12:-1.2072 13:-1.7954 14:-0.63313 15:1.1777 16:4.0037 17:-2.5793 18:-2.0581 19:-5.8594 20:-5.1756 21:-2.9399 22:0.46252 23:3.1237 24:0.797 25:-2.1101 
-0.3926598161465681 1:2.4484 2:2.5256 3:-2.188 4:-0.50042 5:-7.5796 6:-9.6664 7:-4.8904 8:0.43476 9:-1.492 10:2.8195 11:3.2636 12:2.6898 13:0.73867 14:2.6049 15:2.2085 16:2.392 17:0.78886 18:4.1856 19:-6.8126 20:-10.6917 21:-4.491 22:0.59774 23:-0.075071 24:1.7853 25:2.4466 
-0.4255752830578507 1:0.093681 2:-0.6139 3:1.467 4:-3.0908 5:-1.5708 6:3.9216 7:2.3724 8:2.2683 9:1.7619 10:-1.0053 11:-0.5563 12:-0.70847 13:0.8477 14:-0.42156 15:-0.14417 16:-2.4547 17:0.98291 18:-2.4787 19:1.4674 20:-2.331 21:-1.3458 22:6.6224 23:2.1896 24:3.0295 25:1.3961 
-0.39189875459818657 1:1.6632 2:2.8361 3:-6.2367 4:-7.7799 5:-5.5653 6:-1.4131 7:1.4395 8:2.5294 9:1.3073 10:2.92 11:3.5928 12:3.6733 13:3.2385 14:2.429 15:0.60637 16:-3.4087 17:-4.723 18:-6.4531 19:-6.9108 20:-1.5479 21:-0.69781 22:1.7449 23:3.603 24:4.709 25:2.5496 
-0.39486844454601494 1:-2.711 2:-0.12066 3:1.1188 4:-1.6987 5:-1.8143 6:2.352 7:0.96058 8:-0.70463 9:-0.18877 10:6.8018 11:0.90986 12:-12.3786 13:-2.0278 14:4.4743 15:-1.1942 16:-7.1881 17:-3.5608 18:-0.51671 19:0.54836 20:0.24076 21:0.82797 22:2.2447 23:3.5166 24:2.3124 25:-4.0708 
-0.3949747620382507 1:-5.5366 2:-7.8818 3:-8.4451 4:-6.2031 5:-4.6861 6:-0.25772 7:0.72594 8:-1.264 9:-1.8892 10:-0.86733 11:2.8654 12:0.1458 13:0.10205 14:1.7835 15:0.36013 16:-1.7876 17:-3.1221 18:-6.6703 19:-7.6273 20:-6.1558 21:-5.7012 22:-5.1206 23:-4.1296 24:-3.4111 25:-3.3352 
-0.37687202187616303 1:3.1658 2:3.22 3:3.2882 4:2.0837 5:1.1484 6:-2.2793 7:-0.053683 8:-5.0467 9:-4.9036 10:-5.6213 11:-4.8506 12:-1.8039 13:2.3098 14:3.542 15:3.9939 16:3.7112 17:4.5402 18:3.9055 19:1.8695 20:-0.3783 21:-4.1116 22:-6.0157 23:-6.0827 24:-3.7484 25:4.5054 
-0.3967732357571738 1:-1.4286 2:1.5943 3:-0.86971 4:-4.2871 5:-4.0565 6:-1.7224 7:0.28769 8:0.93671 9:2.22 10:-1.712 11:3.8504 12:-1.7541 13:2.8707 14:2.3137 15:5.7534 16:2.3082 17:1.1809 18:-4.5795 19:-4.1383 20:-2.5922 21:-1.6419 22:-1.4003 23:1.1032 24:-1.3165 25:4.7046 
-0.394038615789907 1:1.4251 2:5.6156 3:3.0669 4:-5.6904 5:-10.6061 6:-4.5869 7:-5.5594 8:-3.4346 9:2.2282 10:3.6542 11:3.8139 12:2.789 13:5.1707 14:4.4053 15:0.26289 16:3.6034 17:6.1016 18:-0.88375 19:-12.497 20:-11.4015 21:-5.3763 22:-0.59404 23:3.4354 24:2.9609 25:1.3723 
-0.39028612842125554 1:-0.54016 2:3.2836 3:2.6536 4:0.33824 5:1.559 6:1.1477 7:-0.55505 8:-0.34456 9:-0.98216 10:3.265 11:-9.029 12:-4.5429 13:-0.57141 14:0.73515 15:1.1883 16:3.1014 17:1.588 18:1.7591 19:0.81749 20:2.323 21:3.9289 22:2.2711 23:-2.4426 24:-2.1126 25:-0.77199 
-0.44374672843298923 1:-0.24182 2:2.4112 3:-0.59869 4:0.10907 5:-0.27063 6:2.4697 7:0.44692 8:0.29247 9:1.9507 10:2.9168 11:-0.043911 12:-2.7962 13:2.3186 14:-5.0281 15:-3.0513 16:-0.092031 17:0.98911 18:-1.8193 19:1.1869 20:0.75163 21:2.1518 22:1.098 23:2.3185 24:-1.5901 25:-4.0613 
-0.37656316435674103 1:-0.32491 2:-1.7458 3:-3.1714 4:-2.4395 5:-3.905 6:-6.9591 7:-0.35528 8:-0.64408 9:-1.3587 10:1.8119 11:-0.5587 12:1.4395 13:2.7648 14:1.9033 15:-0.61066 16:-2.857 17:-2.0784 18:-2.7057 19:-3.668 20:-5.4074 21:0.28175 22:1.3546 23:-1.0615 24:1.7476 25:0.80068 
-0.37329997998118175 1:5.9627 2:4.5967 3:1.7794 4:-2.2077 5:-2.0928 6:-2.7822 7:-3.2671 8:-2.4717 9:-2.2601 10:-2.5069 11:-1.2145 12:0.87079 13:7.384 14:8.5132 15:4.8677 16:1.4245 17:-2.3437 18:-2.3216 19:-1.9654 20:-1.7864 21:-2.1835 22:-4.7611 23:-4.1635 24:-1.8989 25:4.0928 
-0.39398413837753365 1:-1.0148 2:-4.0598 3:-3.682 4:-5.1831 5:-3.5835 6:-1.3203 7:4.8896 8:2.8745 9:-0.46952 10:0.034588 11:0.29134 12:-2.3537 13:-3.9992 14:3.1506 15:-1.7918 16:-1.0414 17:-4.4884 18:-6.5312 19:-5.806 20:-2.0785 21:-2.6648 22:4.381 23:1.8734 24:-0.78781 25:-1.7974 
-0.3933851360642694 1:1.5826 2:3.642 3:2.8885 4:2.7465 5:2.359 6:0.98767 7:-8.2482 8:-5.0359 9:-2.4614 10:-0.31899 11:0.32805 12:3.2652 13:3.7879 14:0.7229 15:2.3848 16:1.102 17:1.8123 18:1.6313 19:-0.30207 20:1.6523 21:-8.7225 22:-6.4933 23:-3.3202 24:0.87718 25:3.1247 
-0.39439791584417705 1:0.41929 2:-4.5043 3:-6.9879 4:-1.1477 5:-2.1804 6:2.1392 7:4.3661 8:-2.1605 9:-6.6125 10:-5.6686 11:0.57174 12:-1.3339 13:-3.4397 14:-4.0093 15:-2.43 16:-2.8212 17:2.2443 18:4.0248 19:6.6524 20:4.2632 21:0.86519 22:-5.0019 23:-2.246 24:-2.3345 25:1.0649 
-0.42183157838331103 1:0.91495 2:1.0539 3:2.5659 4:2.4637 5:0.41356 6:4.9674 7:2.3774 8:-5.1957 9:0.88837 10:-1.1387 11:-2.8033 12:-1.4432 13:-1.4516 14:-0.96118 15:-1.7329 16:-1.5184 17:1.54 18:2.3389 19:-0.054348 20:1.6915 21:4.8559 22:-3.0099 23:-0.50413 24:0.17202 25:0.79467 
-0.39437820544667773 1:2.0389 2:-1.1799 3:-13.9119 4:-7.0861 5:-3.8348 6:-2.5226 7:3.4433 8:-1.1733 9:2.6454 10:-3.4262 11:3.0893 12:6.7283 13:3.0749 14:7.5833 15:7.5116 16:1.1223 17:-2.3844 18:-6.0703 19:-10.3052 20:-14.5927 21:-7.5694 22:-5.3334 23:1.0722 24:2.2102 25:6.5386 
-0.46035309663438323 1:1.3987 2:1.4067 3:1.41 4:1.0526 5:1.2246 6:1.3487 7:-0.2233 8:-0.9991 9:-1.0656 10:-2.7267 11:-3.8723 12:-0.55168 13:-0.74732 14:5.7221 15:3.4256 16:0.80621 17:-0.72689 18:0.27886 19:0.76388 20:-0.15647 21:-0.23224 22:1.1772 23:-0.33473 24:-3.7443 25:5.4628 
-0.38115443538602256 1:7.5035 2:7.5287 3:4.6358 4:0.63362 5:-2.144 6:-1.8138 7:-0.045124 8:-2.0122 9:-1.7496 10:-1.6559 11:-2.4475 12:-3.1089 13:-2.1076 14:3.8643 15:4.1729 16:6.3974 17:2.0708 18:-0.95442 19:-1.6252 20:-1.6183 21:-0.52953 22:-0.58312 23:-1.8929 24:-0.73372 25:-2.2193 
-0.39429564996605493 1:-0.70421 2:-1.9142 3:-11.1318 4:-10.7007 5:7.365 6:0.4259 7:2.0596 8:5.164 9:3.4274 10:2.627 11:3.1 12:3.0073 13:0.63594 14:-1.4529 15:-3.7696 16:-6.3704 17:-7.951 18:-6.3695 19:6.4109 20:-0.6674 21:0.45116 22:4.2983 23:4.2782 24:2.8962 25:1.5162 
-0.39419523020473257 1:-3.7151 2:-8.0636 3:-7.0481 4:-7.0319 5:2.1913 6:4.6351 7:1.8819 8:1.4174 9:1.181 10:5.0145 11:3.1472 12:-1.0394 13:2.8667 14:3.3658 15:-3.8336 16:-8.0647 17:-5.1649 18:-5.8961 19:0.88546 20:3.9273 21:4.4088 22:2.7889 23:1.8364 24:3.3307 25:0.76327 
-0.3938995486502111 1:4.8543 2:0.7759 3:-2.5683 4:-11.0147 5:-8.7765 6:-5.8462 7:-3.0848 8:1.1518 9:2.7085 10:4.1335 11:4.7576 12:5.3701 13:4.7014 14:3.535 15:2.8585 16:-1.0114 17:-10.3422 18:-7.3751 19:-4.3236 20:-4.233 21:-2.1008 22:0.67275 23:3.9868 24:4.9167 25:5.2694 
-0.3834985524864493 1:1.1214 2:0.14272 3:-1.8385 4:-0.97891 5:-3.0714 6:-6.2151 7:-4.7485 8:-3.7403 9:-1.3609 10:-0.31082 11:1.8194 12:3.4965 13:2.562 14:3.0699 15:2.2863 16:1.9893 17:-0.39237 18:0.88075 19:-4.2811 20:-4.9104 21:-7.3001 22:-4.0773 23:-0.88998 24:-0.89533 25:1.7965 
-0.3864362254699639 1:3.3262 2:3.9834 3:3.7384 4:3.5976 5:1.1987 6:-7.691 7:-8.1208 8:-4.6852 9:-2.7378 10:2.1686 11:3.9222 12:3.9232 13:2.9166 14:2.954 15:2.6636 16:2.8247 17:2.8695 18:2.0984 19:-1.7973 20:-11.7946 21:-5.7167 22:-3.6789 23:-2.8677 24:0.33706 25:2.6546 
-0.576046764592298 1:3.316 2:0.97302 3:-2.4536 4:-2.5232 5:-2.5649 6:-1.1618 7:-0.98678 8:1.1171 9:0.77423 10:-0.671 11:0.0019151 12:-0.84478 13:-0.53324 14:1.4523 15:2.931 16:-0.26256 17:-1.2772 18:-0.70928 19:-1.2542 20:-1.1345 21:-2.9781 22:-3.4964 23:2.3563 24:1.2906 25:-1.619 
-0.39247657467547864 1:1.3285 2:0.51335 3:-6.0281 4:-6.4687 5:-6.5794 6:-3.8743 7:-1.2755 8:-1.4808 9:-1.6069 10:2.7968 11:2.1232 12:1.6252 13:0.95479 14:1.7867 15:-0.10993 16:0.50038 17:-0.79074 18:-4.4729 19:-6.5388 20:-4.1588 21:-5.1375 22:-3.7148 23:-3.059 24:-0.092645 25:0.77259 
-0.39434962189581496 1:0.59535 2:6.4144 3:3.9381 4:1.6794 5:-2.4635 6:-2.6303 7:-3.5896 8:0.055438 9:0.83416 10:2.4381 11:1.1206 12:0.98436 13:-0.94643 14:4.5985 15:1.9535 16:1.0179 17:5.4493 18:0.18536 19:-4.467 20:-3.591 21:-2.9656 22:-4.1689 23:-2.2669 24:0.99333 25:1.1422 
-0.3949012227812776 1:-6.8356 2:-3.8596 3:-2.3774 4:2.5971 5:-1.2939 6:0.15918 7:1.2472 8:1.0547 9:-1.8673 10:6.4945 11:-0.50704 12:0.17353 13:3.1995 14:2.7642 15:-4.7982 16:-2.3695 17:-2.38 18:-0.80131 19:0.3319 20:0.62192 21:1.9704 22:0.84658 23:-0.64909 24:5.6427 25:2.2092 
-0.38758746806181427 1:2.3322 2:5.3099 3:1.096 4:0.7508 5:-2.1308 6:-1.6759 7:-3.781 8:-8.2385 9:-3.969 10:-5.8649 11:-1.8274 12:-2.8637 13:0.93532 14:0.90232 15:2.0892 16:1.717 17:1.2767 18:0.38925 19:-0.48463 20:-0.55675 21:-3.3112 22:-6.4024 23:-7.0038 24:-4.3475 25:-0.10367 
-0.3309107260064543 1:-1.688 2:-0.80905 3:-1.4744 4:-2.8331 5:-3.3916 6:-3.3339 7:0.13234 8:-2.917 9:-4.8033 10:1.5925 11:7.439 12:6.3396 13:5.8797 14:1.6427 15:-2.6224 16:-1.3833 17:-1.6279 18:-2.0254 19:-3.0778 20:-4.0724 21:-2.682 22:-2.5869 23:-0.58563 24:3.9125 25:2.3564 
-0.3932223107867741 1:2.1795 2:2.3279 3:1.653 4:1.6268 5:3.5782 6:3.9305 7:2.6846 8:3.3628 9:4.8139 10:-4.0674 11:-8.6053 12:-4.9406 13:-6.9479 14:-2.912 15:4.6443 16:1.7187 17:-0.66447 18:2.3374 19:3.8021 20:2.3051 21:3.5339 22:5.6606 23:0.070685 24:-4.0948 25:-5.5062 
-0.3946025609703063 1:4.8805 2:3.3178 3:0.01964 4:-2.9668 5:-8.9086 6:-9.2323 7:-12.188 8:-8.4521 9:-5.0749 10:-4.1234 11:-0.75699 12:1.6048 13:1.1416 14:1.3729 15:0.80932 16:1.1854 17:1.9694 18:3.6618 19:1.5458 20:3.2193 21:4.5228 22:1.0363 23:-2.2325 24:-1.242 25:4.1102 
-0.37866542994024194 1:1.2011 2:0.95975 3:0.22494 4:-0.52892 5:-0.32658 6:-2.8261 7:-4.2204 8:-0.96969 9:-0.4444 10:2.0824 11:4.8246 12:2.4907 13:2.2609 14:0.51622 15:1.0575 16:0.48702 17:-1.3777 18:-0.46869 19:-0.49653 20:-2.2555 21:-5.1357 22:1.2224 23:-0.74229 24:3.6861 25:2.3196 
-0.39458993439059215 1:-2.7994 2:-3.9968 3:-1.7911 4:6.3646 5:3.8177 6:-0.87448 7:-0.53564 8:-5.7227 9:0.23918 10:-1.6558 11:-2.5384 12:-3.1209 13:-2.3506 14:-1.6549 15:-1.8413 16:-1.4574 17:0.29781 18:5.9494 19:1.5052 20:-8.3487 21:-4.8398 22:-1.8344 23:1.4633 24:-2.0937 25:-2.5113 
-0.36402643662724465 1:-0.94332 2:-0.89832 3:-0.95401 4:0.040284 5:-0.68111 6:-2.0274 7:-5.8175 8:-3.3273 9:2.9602 10:7.2906 11:6.8137 12:3.1007 13:-0.5373 14:-1.3796 15:-0.76401 16:-0.083657 17:-2.3059 18:-2.4856 19:-1.656 20:-4.1364 21:-4.4975 22:3.2871 23:4.5684 24:8.085 25:-1.1364 
-0.4071281161645872 1:1.5816 2:1.6317 3:0.61525 4:0.024491 5:0.023939 6:4.3438 7:-2.5754 8:-1.1907 9:4.5805 10:-6.7238 11:-3.1064 12:-2.8371 13:-1.5757 14:0.20393 15:0.17011 16:1.2793 17:1.5707 18:0.76503 19:-0.010119 20:2.4908 21:2.7122 22:2.5138 23:-1.9142 24:2.1313 25:1.4772 
-0.38833481002847675 1:0.54475 2:-1.9219 3:-1.9355 4:-1.6114 5:-2.5395 6:-1.6963 7:-2.2498 8:-0.21649 9:3.0999 10:8.7067 11:2.468 12:-4.5973 13:-1.4844 14:-0.13841 15:-0.99135 16:-2.6553 17:-0.1816 18:-2.2037 19:0.048301 20:-3.8194 21:-3.8406 22:1.8991 23:3.636 24:-0.16282 25:2.3842 
-0.39389429815507526 1:-9.1181 2:-5.8095 3:-1.5567 4:0.43735 5:0.8721 6:1.9728 7:3.2182 8:2.1265 9:0.99891 10:-1.0933 11:-0.83014 12:-4.4758 13:-8.3759 14:-7.5673 15:-7.4772 16:-4.5384 17:-2.3432 18:1.8684 19:3.3532 20:-0.57399 21:2.8678 22:1.7526 23:-0.022362 24:-0.84622 25:-8.8333 
-0.3940026202454565 1:0.31516 2:0.86366 3:0.66464 4:-10.3871 5:-8.2183 6:-7.7553 7:-2.8551 8:-0.26493 9:1.5286 10:5.2354 11:3.0115 12:2.6477 13:2.9859 14:-0.6501 15:-0.75661 16:-2.3038 17:-0.44894 18:-5.9864 19:-9.0655 20:-9.4261 21:0.084519 22:0.43246 23:-1.6268 24:2.2191 25:3.193 
-0.38722605936531523 1:-1.6521 2:-4.5811 3:4.6219 4:7.7716 5:6.9852 6:3.2658 7:-1.582 8:-0.82964 9:-0.78551 10:-2.448 11:-2.471 12:-2.224 13:-2.48 14:-2.4375 15:-2.2347 16:-1.4242 17:4.9772 18:7.5074 19:5.9271 20:2.0011 21:-0.75464 22:-1.2169 23:-2.1455 24:-2.984 25:0.022086 
-0.3681168830736468 1:0.43535 2:2.7477 3:7.4726 4:5.5219 5:3.4367 6:1.3468 7:-1.166 8:-2.6322 9:-3.2817 10:-3.0804 11:-2.1537 12:-1.306 13:-2.4563 14:-1.7042 15:2.3438 16:5.0446 17:4.5973 18:0.71275 19:1.3514 20:0.30082 21:-0.81185 22:-2.7758 23:-2.681 24:-2.3731 25:-0.4959 
-0.39353870693415033 1:4.6302 2:3.8964 3:2.9163 4:3.682 5:-9.2521 6:-10.0672 7:-1.8559 8:-4.1244 9:-0.83639 10:3.1433 11:2.7563 12:3.9688 13:5.5442 14:4.1064 15:4.1951 16:2.751 17:2.0719 18:0.46158 19:-10.0292 20:-8.6343 21:-6.0602 22:0.36441 23:3.1668 24:2.7605 25:2.3094 
