svm_type c_svc
kernel_type linear
nr_class 2
total_sv 13
rho 7.754072111378067
label 1 2
nr_sv 6 7
SV
9.669403977421301E-5 1:15.227 2:13.78 3:11.91 4:10.936 5:13.657 6:17.95 7:19.299 8:18.991 9:19.162 10:20.333 11:23.743 12:27.877 13:30.707 14:32.243 15:32.911 16:27.414 17:21.04 18:17.477 19:15.577 20:15.3 21:13.312 22:12.27 23:13.215 24:14.265 25:14.651 26:14.323 27:13.602 28:12.625 29:11.388 30:8.9821 31:7.9041 32:12.252 33:18.159 34:17.789 35:18.963 36:23.277 37:25.846 38:28.92 39:29.546 40:28.054 41:24.197 42:20.824 43:18.164 44:15.955 45:14.282 46:13.532 47:14.538 48:15.852 49:15.967 50:15.319 51:14.688 52:13.917 53:12.588 54:10.567 55:8.7403 56:12.611 57:17.444 58:19.056 59:20.005 60:22.659 61:23.774 62:24.87 63:27.331 64:28.037 65:26.878 66:18.744 67:15.463 68:13.373 69:11.825 70:12.043 71:13.03 72:13.769 73:13.898 74:13.815 75:13.487 76:12.729 77:11.888 78:11.495 79:10.432 80:11.399 81:17.166 82:19.555 83:18.641 84:20.336 85:22.151 86:25.056 87:28.735 88:29.453 89:28.858 90:24.729 91:22.219 92:20.16 93:19.129 94:15.607 95:13.172 96:13.864 97:16.464 98:18.372 99:18.708 100:18.115 101:16.78 102:14.738 103:12.546 104:11.219 105:11.803 106:14.65 107:17.088 108:18.46 109:19.026 110:20.87 111:24.27 112:28.242 113:29.999 114:28.591 115:24.031 116:20.133 117:17.924 118:16.101 119:14.978 120:12.108 121:10.611 122:11.319 123:12.2 124:12.005 125:11.661 126:11.737 127:11.397 128:10.261 129:8.2285 130:7.6799 131:12.231 132:17.344 133:18.164 134:18.026 135:18.99 136:21.547 137:25.776 138:29.525 139:29.521 140:27.648 141:24.603 142:21.39 143:18.27 144:14.099 145:11.503 146:12.256 147:14.305 148:15.605 149:15.511 150:15.121 151:14.6 152:13.38 153:11.65 154:9.3577 155:9.7304 156:16.65 157:18.567 158:17.829 159:19.874 160:22.202 161:23.094 162:24.16 163:26.677 164:27.549 165:26.217 166:20.621 167:14.976 168:11.205 169:9.9328 170:10.215 171:11.157 172:12.109 173:12.694 174:13.112 175:13.544 176:13.543 177:12.914 178:11.902 179:10.191 180:10.83 181:16.098 182:21.487 183:21.568 184:20.153 185:20.211 186:22.928 187:26.971 188:30.197 189:30.581 190:28.59 191:24.754 192:21.755 193:18.02 194:14.095 195:11.303 196:9.3865 197:8.7017 198:9.0851 199:10.171 200:11.482 201:12.521 202:13.137 203:13.413 204:12.701 205:10.09 206:10.366 207:17.837 208:20.344 209:18.749 210:21.229 211:20.831 212:21.0 213:23.693 214:26.805 215:26.645 216:20.953 217:15.51 218:12.629 219:11.501 220:11.483 221:12.455 222:14.067 223:15.725 224:16.437 225:15.719 226:14.621 227:13.593 228:12.066 229:12.548 230:17.733 231:21.485 232:21.134 233:21.46 234:22.885 235:25.786 236:28.455 237:29.851 238:29.674 239:27.313 240:23.92 241:19.94 242:16.084 243:13.538 244:11.761 245:11.782 246:13.823 247:16.901 248:18.704 249:19.112 250:18.341 251:16.405 
6.243048669962716E-5 1:12.424 2:9.9106 3:8.1321 4:12.843 5:18.493 6:19.558 7:20.252 8:22.021 9:22.76 10:21.978 11:22.24 12:23.582 13:25.382 14:25.98 15:22.801 16:18.472 17:15.044 18:13.344 19:11.566 20:11.028 21:12.171 22:13.612 23:14.477 24:15.141 25:15.467 26:15.152 27:14.208 28:12.715 29:10.223 30:10.354 31:16.393 32:19.759 33:20.085 34:23.501 35:24.839 36:25.095 37:25.356 38:25.844 39:26.601 40:24.652 41:20.378 42:15.747 43:12.03 44:9.6446 45:8.5328 46:8.544 47:9.3281 48:10.292 49:10.544 50:10.265 51:9.8244 52:9.5605 53:9.0711 54:8.7018 55:7.4129 56:7.2854 57:10.62 58:16.603 59:20.255 60:22.489 61:26.608 62:28.855 63:26.189 64:24.379 65:22.905 66:21.669 67:19.773 68:16.953 69:13.897 70:10.694 71:9.4933 72:10.518 73:11.49 74:12.735 75:13.929 76:14.209 77:13.143 78:11.493 79:8.8811 80:13.737 81:21.963 82:22.658 83:23.889 84:25.694 85:24.736 86:23.003 87:22.745 88:23.911 89:23.676 90:21.634 91:18.768 92:16.221 93:13.713 94:12.163 95:12.077 96:12.908 97:13.766 98:13.897 99:13.589 100:13.31 101:13.029 102:11.797 103:9.4592 104:11.972 105:18.451 106:21.224 107:23.265 108:25.691 109:25.69 110:22.23 111:20.148 112:19.215 113:20.124 114:21.594 115:21.553 116:19.436 117:17.607 118:15.689 119:13.997 120:12.994 121:13.406 122:14.013 123:14.445 124:14.391 125:13.733 126:12.389 127:10.558 128:8.0675 129:8.3119 130:13.858 131:18.217 132:20.106 133:22.283 134:25.067 135:26.383 136:23.703 137:22.762 138:24.828 139:26.384 140:25.589 141:21.417 142:16.619 143:12.542 144:9.9833 145:9.0275 146:10.035 147:11.532 148:12.62 149:13.189 150:13.407 151:13.401 152:13.294 153:13.054 154:12.024 155:10.374 156:8.417 157:7.4068 158:13.387 159:19.144 160:20.74 161:21.841 162:22.097 163:23.679 164:25.515 165:26.939 166:29.649 167:30.233 168:29.669 169:25.387 170:20.832 171:17.325 172:14.558 173:12.381 174:10.842 175:10.406 176:10.357 177:10.956 178:11.871 179:13.366 180:15.224 181:16.851 182:17.3 183:15.88 184:13.229 185:10.045 186:12.477 187:17.533 188:21.589 189:22.758 190:24.338 191:26.02 192:28.053 193:29.132 194:27.372 195:27.368 196:27.58 197:26.977 198:23.686 199:18.501 200:14.118 201:11.339 202:11.514 203:13.154 204:15.436 205:17.639 206:18.91 207:19.387 208:18.838 209:17.137 210:14.765 211:11.619 212:9.6289 213:13.778 214:19.625 215:20.343 216:20.456 217:23.504 218:24.391 219:24.763 220:27.516 221:30.341 222:31.563 223:30.348 224:26.062 225:19.952 226:14.917 227:11.983 228:13.505 229:18.867 230:20.851 231:19.674 232:18.186 233:16.709 234:14.36 235:11.395 236:8.5651 237:6.6462 238:8.5642 239:12.798 240:16.289 241:18.666 242:20.994 243:23.935 244:25.119 245:27.778 246:30.484 247:32.093 248:31.313 249:28.531 250:23.648 251:18.436 
7.16514992120453E-5 1:10.369 2:13.529 3:19.341 4:20.576 5:20.344 6:20.541 7:20.686 8:20.518 9:21.943 10:24.261 11:26.607 12:27.516 13:25.883 14:21.166 15:16.948 16:14.144 17:12.317 18:13.076 19:13.914 20:15.218 21:15.769 22:15.299 23:14.238 24:12.881 25:11.338 26:10.657 27:11.268 28:13.316 29:18.115 30:22.686 31:20.774 32:24.712 33:27.765 34:27.08 35:28.046 36:29.971 37:30.686 38:29.991 39:23.854 40:17.147 41:13.694 42:12.462 43:11.686 44:11.113 45:10.48 46:10.137 47:10.091 48:10.678 49:11.332 50:11.772 51:11.488 52:10.0 53:8.0149 54:9.4589 55:12.281 56:15.844 57:19.333 58:21.387 59:23.068 60:25.736 61:26.825 62:28.433 63:29.695 64:29.63 65:26.806 66:21.511 67:14.758 68:11.966 69:15.81 70:18.309 71:18.614 72:18.484 73:17.906 74:16.758 75:16.222 76:15.485 77:13.926 78:11.384 79:14.377 80:20.336 81:19.773 82:19.387 83:20.607 84:21.267 85:20.508 86:20.404 87:23.366 88:26.61 89:27.922 90:26.122 91:20.741 92:17.914 93:16.883 94:15.385 95:13.117 96:11.235 97:11.29 98:12.465 99:13.397 100:13.607 101:13.415 102:13.171 103:12.294 104:11.155 105:13.786 106:17.831 107:18.374 108:17.855 109:19.803 110:22.233 111:22.909 112:23.964 113:26.039 114:27.539 115:27.759 116:24.768 117:18.962 118:14.253 119:11.412 120:9.6335 121:9.1884 122:11.574 123:16.521 124:20.241 125:21.49 126:20.067 127:17.161 128:15.837 129:15.585 130:16.364 131:20.756 132:18.335 133:18.369 134:20.823 135:21.06 136:19.493 137:21.767 138:25.391 139:27.63 140:28.199 141:27.142 142:22.981 143:18.257 144:14.246 145:12.104 146:11.093 147:10.95 148:11.225 149:11.676 150:11.844 151:12.982 152:14.251 153:14.304 154:13.572 155:12.482 156:10.427 157:11.273 158:17.923 159:22.561 160:23.388 161:20.302 162:21.292 163:22.145 164:25.305 165:29.186 166:30.395 167:29.458 168:25.398 169:21.024 170:18.183 171:16.236 172:13.533 173:10.966 174:10.153 175:11.433 176:13.514 177:15.497 178:17.047 179:17.204 180:15.164 181:11.345 182:11.685 183:16.83 184:17.207 185:19.154 186:20.09 187:20.395 188:21.723 189:22.147 190:26.738 191:27.76 192:26.077 193:21.795 194:17.472 195:15.023 196:13.217 197:11.923 198:12.302 199:13.448 200:14.62 201:16.695 202:19.262 203:20.086 204:19.398 205:16.405 206:11.191 207:16.394 208:18.953 209:18.029 210:19.453 211:19.294 212:20.646 213:23.155 214:25.86 215:26.876 216:26.493 217:23.065 218:18.595 219:14.213 220:11.488 221:10.224 222:10.721 223:9.9829 224:10.459 225:10.903 226:10.451 227:9.3564 228:7.3549 229:3.9571 230:7.2238 231:13.63 232:19.167 233:16.475 234:13.749 235:18.397 236:20.992 237:21.446 238:21.249 239:22.795 240:24.782 241:24.793 242:21.181 243:17.587 244:13.989 245:10.593 246:10.008 247:11.214 248:12.903 249:14.702 250:15.787 251:15.569 
2.3290073491798887E-4 1:20.029 2:19.401 3:19.576 4:20.542 5:23.336 6:27.129 7:28.009 8:25.91 9:22.995 10:19.154 11:15.662 12:12.074 13:9.3183 14:8.4768 15:9.6059 16:11.51 17:13.434 18:15.123 19:16.227 20:16.3 21:15.559 22:14.377 23:15.492 24:17.632 25:19.571 26:21.003 27:21.833 28:23.349 29:25.796 30:27.599 31:28.384 32:30.781 33:30.427 34:28.883 35:23.545 36:16.946 37:12.082 38:10.49 39:10.009 40:10.481 41:11.649 42:12.64 43:12.959 44:13.122 45:13.187 46:12.402 47:10.872 48:9.0928 49:7.6719 50:9.9157 51:14.556 52:17.82 53:19.294 54:20.769 55:22.897 56:23.269 57:23.459 58:25.075 59:27.257 60:30.211 61:29.217 62:26.395 63:22.301 64:16.802 65:11.479 66:8.0358 67:7.437 68:8.8939 69:11.288 70:13.093 71:14.086 72:14.669 73:15.019 74:14.105 75:11.366 76:11.637 77:16.944 78:21.511 79:22.259 80:22.958 81:21.806 82:20.74 83:21.424 84:23.073 85:25.538 86:26.725 87:27.176 88:22.408 89:17.409 90:14.115 91:12.022 92:10.135 93:9.2418 94:9.7722 95:11.108 96:11.99 97:12.907 98:13.744 99:13.705 100:12.742 101:11.507 102:9.0686 103:9.0752 104:17.346 105:21.851 106:20.306 107:19.756 108:19.848 109:20.612 110:23.869 111:25.888 112:26.867 113:23.046 114:17.819 115:13.875 116:12.362 117:11.243 118:10.806 119:11.403 120:12.598 121:13.784 122:14.94 123:14.802 124:13.319 125:11.486 126:8.3014 127:4.917 128:8.6202 129:16.201 130:21.453 131:19.631 132:20.024 133:22.87 134:23.754 135:25.031 136:26.656 137:27.281 138:26.205 139:23.653 140:20.466 141:16.67 142:13.321 143:11.752 144:10.273 145:9.6199 146:9.5385 147:9.5127 148:9.8278 149:10.437 150:10.631 151:10.439 152:10.163 153:9.0829 154:8.4948 155:12.77 156:17.74 157:19.728 158:20.016 159:21.107 160:22.582 161:25.115 162:28.419 163:29.654 164:28.379 165:26.107 166:22.403 167:18.274 168:13.949 169:11.336 170:9.0155 171:8.4177 172:10.192 173:13.204 174:15.355 175:15.478 176:14.872 177:13.887 178:12.403 179:11.493 180:12.979 181:14.93 182:17.675 183:18.866 184:20.018 185:22.229 186:24.486 187:26.667 188:28.727 189:29.176 190:29.102 191:28.385 192:25.572 193:20.762 194:16.165 195:11.752 196:8.4433 197:6.1096 198:6.8237 199:9.8839 200:12.775 201:14.383 202:14.777 203:14.518 204:13.312 205:11.265 206:8.6852 207:5.841 208:8.9986 209:15.567 210:19.399 211:20.951 212:20.862 213:21.19 214:22.981 215:25.396 216:27.202 217:28.282 218:28.379 219:24.784 220:18.588 221:12.8 222:10.074 223:8.8353 224:8.9548 225:9.8943 226:10.477 227:10.613 228:11.636 229:13.917 230:15.797 231:16.059 232:14.687 233:11.673 234:11.606 235:14.889 236:16.176 237:17.51 238:19.132 239:21.15 240:21.359 241:24.745 242:26.52 243:25.555 244:22.655 245:19.015 246:16.292 247:14.377 248:14.416 249:14.336 250:14.061 251:14.112 
6.475179235332964E-5 1:20.724 2:21.885 3:22.586 4:25.296 5:27.666 6:28.913 7:26.242 8:21.022 9:16.872 10:15.051 11:16.208 12:16.97 13:17.529 14:19.126 15:20.335 16:20.046 17:18.418 18:16.005 19:13.262 20:13.124 21:15.191 22:16.593 23:19.26 24:21.216 25:23.017 26:23.447 27:23.17 28:23.213 29:23.759 30:24.387 31:21.625 32:18.208 33:15.563 34:14.549 35:14.739 36:14.994 37:15.462 38:16.336 39:17.507 40:19.187 41:20.649 42:20.517 43:18.095 44:14.453 45:14.615 46:20.063 47:24.007 48:20.438 49:19.844 50:20.645 51:22.484 52:25.885 53:28.73 54:29.592 55:29.046 56:25.861 57:21.244 58:17.592 59:14.613 60:12.907 61:12.762 62:13.829 63:15.377 64:16.775 65:16.948 66:15.869 67:13.932 68:11.977 69:10.812 70:10.551 71:12.018 72:15.366 73:16.531 74:18.514 75:22.519 76:24.477 77:25.899 78:27.612 79:27.28 80:27.333 81:26.55 82:23.776 83:20.03 84:15.778 85:11.757 86:9.9089 87:9.8906 88:10.332 89:12.069 90:16.128 91:19.596 92:21.097 93:21.123 94:18.812 95:15.112 96:18.243 97:19.921 98:21.489 99:20.495 100:20.26 101:20.073 102:20.868 103:25.569 104:28.714 105:29.548 106:27.083 107:23.83 108:20.065 109:17.2 110:15.576 111:14.867 112:13.759 113:13.846 114:14.026 115:13.988 116:14.881 117:15.758 118:15.41 119:14.199 120:12.648 121:18.159 122:22.508 123:21.263 124:21.024 125:22.553 126:24.492 127:26.822 128:28.224 129:28.099 130:25.189 131:21.937 132:19.023 133:17.228 134:16.229 135:14.872 136:13.995 137:15.655 138:18.167 139:19.101 140:18.807 141:17.488 142:14.975 143:12.949 144:14.423 145:15.416 146:16.877 147:18.275 148:19.792 149:22.322 150:23.277 151:23.975 152:26.364 153:27.441 154:26.03 155:22.225 156:17.14 157:16.181 158:18.428 159:18.709 160:20.355 161:21.607 162:19.451 163:15.713 164:13.385 165:11.124 166:9.2871 167:10.709 168:14.666 169:18.094 170:19.647 171:20.397 172:22.094 173:20.927 174:23.786 175:26.929 176:22.867 177:21.168 178:20.783 179:19.963 180:17.008 181:14.252 182:11.611 183:10.379 184:10.378 185:10.792 186:11.471 187:11.982 188:11.589 189:9.4683 190:5.5407 191:5.7111 192:13.389 193:20.511 194:22.317 195:19.461 196:19.774 197:21.86 198:23.79 199:26.367 200:27.035 201:24.364 202:21.937 203:20.99 204:20.328 205:17.761 206:13.907 207:11.137 208:12.077 209:14.801 210:17.286 211:18.348 212:17.892 213:16.677 214:14.533 215:10.834 216:12.765 217:18.991 218:20.759 219:18.015 220:18.699 221:19.921 222:20.079 223:21.055 224:24.258 225:26.786 226:26.348 227:24.864 228:23.414 229:20.707 230:17.556 231:14.866 232:12.848 233:12.036 234:13.204 235:15.109 236:16.001 237:15.498 238:14.312 239:12.525 240:10.192 241:10.373 242:16.091 243:18.498 244:17.966 245:18.913 246:19.534 247:20.812 248:23.21 249:24.655 250:25.975 251:25.2 
3.351382627257901E-5 1:16.878 2:20.829 3:22.921 4:24.326 5:22.968 6:20.829 7:21.074 8:23.935 9:26.098 10:26.543 11:23.482 12:19.989 13:16.933 14:14.425 15:12.889 16:13.351 17:15.408 18:16.953 19:18.115 20:18.515 21:17.689 22:15.93 23:13.21 24:9.9572 25:11.465 26:16.649 27:19.245 28:20.444 29:20.235 30:21.252 31:21.92 32:23.88 33:25.707 34:26.466 35:20.984 36:16.966 37:15.63 38:14.73 39:12.786 40:11.37 41:11.405 42:13.035 43:14.67 44:16.083 45:16.985 46:17.975 47:18.989 48:19.212 49:17.779 50:18.145 51:19.795 52:21.608 53:21.523 54:21.852 55:22.932 56:24.742 57:25.831 58:24.538 59:23.33 60:21.683 61:17.643 62:13.439 63:11.365 64:11.479 65:12.804 66:15.015 67:17.319 68:19.91 69:21.234 70:21.508 71:18.843 72:16.377 73:20.914 74:20.79 75:22.498 76:20.542 77:20.36 78:22.458 79:25.445 80:27.03 81:25.731 82:22.882 83:20.099 84:17.877 85:15.798 86:13.579 87:11.459 88:11.114 89:12.066 90:13.484 91:14.988 92:16.691 93:17.605 94:17.206 95:16.012 96:15.841 97:19.908 98:21.288 99:23.008 100:26.58 101:25.231 102:23.096 103:23.881 104:26.515 105:27.809 106:27.316 107:23.667 108:18.914 109:15.224 110:13.395 111:12.828 112:12.99 113:14.112 114:16.734 115:19.443 116:20.58 117:19.897 118:17.741 119:13.594 120:10.745 121:15.331 122:20.079 123:20.452 124:20.339 125:20.97 126:22.117 127:22.52 128:23.326 129:24.907 130:26.35 131:26.085 132:23.789 133:20.547 134:18.049 135:15.8 136:13.516 137:11.479 138:10.59 139:10.723 140:11.942 141:14.296 142:15.807 143:15.913 144:15.598 145:14.92 146:13.608 147:16.792 148:20.677 149:19.719 150:20.136 151:19.756 152:19.433 153:20.202 154:23.582 155:25.993 156:27.04 157:24.355 158:19.502 159:15.364 160:12.73 161:11.234 162:11.077 163:12.323 164:13.903 165:15.356 166:16.594 167:17.086 168:16.385 169:14.4 170:10.938 171:10.461 172:17.038 173:18.965 174:20.146 175:21.127 176:20.758 177:20.323 178:20.877 179:24.066 180:26.173 181:26.704 182:23.184 183:18.68 184:16.177 185:15.414 186:14.549 187:14.175 188:14.349 189:14.908 190:15.376 191:15.138 192:14.156 193:12.592 194:10.92 195:10.779 196:13.27 197:17.033 198:18.777 199:19.166 200:19.896 201:20.583 202:21.696 203:24.126 204:26.821 205:27.921 206:27.727 207:23.57 208:19.088 209:15.041 210:11.446 211:9.8743 212:9.9793 213:11.272 214:13.717 215:15.89 216:16.754 217:15.757 218:13.319 219:10.661 220:11.035 221:13.114 222:16.187 223:19.892 224:20.767 225:21.211 226:21.603 227:20.326 228:20.966 229:23.996 230:27.248 231:28.555 232:26.191 233:20.818 234:17.032 235:14.22 236:11.498 237:9.3137 238:9.2632 239:11.166 240:13.628 241:15.194 242:15.736 243:15.763 244:15.119 245:13.778 246:11.625 247:12.94 248:17.945 249:19.956 250:20.649 251:21.428 
-1.6799073922824098E-4 1:8.0706 2:8.7334 3:10.901 4:12.758 5:15.807 6:17.506 7:18.988 8:21.186 9:24.154 10:26.418 11:27.163 12:26.327 13:23.811 14:20.678 15:17.308 16:13.845 17:10.447 18:7.2121 19:4.7157 20:3.9599 21:5.5055 22:7.8818 23:9.7348 24:10.822 25:10.764 26:9.6376 27:9.4829 28:12.852 29:16.384 30:18.121 31:18.383 32:19.327 33:21.596 34:24.385 35:26.448 36:27.497 37:26.68 38:24.333 39:21.294 40:18.333 41:15.395 42:12.693 43:10.056 44:7.6908 45:6.2344 46:7.3832 47:9.9805 48:11.731 49:11.647 50:10.09 51:8.2947 52:7.7148 53:9.6336 54:12.877 55:17.586 56:19.358 57:19.055 58:19.848 59:21.599 60:24.169 61:25.693 62:26.25 63:25.257 64:21.85 65:17.673 66:13.342 67:9.4435 68:6.5037 69:4.9528 70:5.031 71:6.491 72:7.5624 73:8.1449 74:8.5558 75:8.5441 76:10.808 77:14.721 78:17.391 79:18.08 80:19.626 81:22.225 82:24.179 83:24.212 84:23.642 85:22.376 86:20.442 87:17.616 88:14.284 89:11.342 90:8.0151 91:5.5468 92:4.7068 93:6.5201 94:9.1737 95:10.236 96:9.8157 97:9.4202 98:9.0667 99:8.1754 100:6.3657 101:5.0228 102:8.7068 103:14.996 104:18.928 105:19.249 106:19.993 107:21.222 108:23.2 109:24.022 110:23.708 111:23.258 112:22.086 113:20.455 114:18.02 115:15.002 116:11.918 117:9.5972 118:6.7859 119:5.0885 120:5.1008 121:6.4982 122:8.2514 123:9.7442 124:10.408 125:9.8815 126:9.0916 127:8.0136 128:6.8896 129:8.4927 130:12.158 131:15.466 132:17.698 133:18.325 134:19.32 135:20.955 136:23.277 137:24.381 138:24.291 139:23.842 140:21.866 141:18.877 142:15.32 143:11.618 144:8.2399 145:5.2245 146:4.2615 147:5.4405 148:7.6484 149:9.1224 150:9.2473 151:8.7962 152:8.308 153:7.7684 154:7.1881 155:6.1905 156:6.3187 157:12.334 158:19.908 159:20.918 160:20.249 161:20.841 162:22.749 163:24.123 164:23.629 165:22.776 166:21.733 167:19.981 168:17.874 169:15.476 170:12.692 171:9.6597 172:6.7813 173:5.1871 174:6.3117 175:8.7618 176:10.503 177:11.021 178:10.866 179:10.36 180:9.6048 181:8.5358 182:6.786 183:6.0103 184:10.598 185:18.018 186:20.852 187:20.206 188:20.182 189:21.846 190:24.778 191:26.496 192:27.277 193:24.306 194:20.24 195:16.621 196:12.73 197:9.022 198:5.8417 199:3.8737 200:3.4002 201:4.0895 202:5.5651 203:7.0205 204:7.4964 205:7.1499 206:6.0341 207:6.0325 208:9.3024 209:15.319 210:20.75 211:21.282 212:19.669 213:19.794 214:23.253 215:25.435 216:24.899 217:20.574 218:15.085 219:10.741 220:7.6614 221:5.866 222:4.8875 223:4.3488 224:3.9959 225:4.0802 226:5.1468 227:6.0357 228:6.6096 229:6.4688 230:6.6883 231:10.729 232:15.15 233:18.224 234:20.144 235:20.849 236:24.214 237:27.764 238:28.361 239:26.921 240:22.222 241:18.026 242:15.395 243:13.363 244:10.143 245:6.8388 246:3.7703 247:1.8587 248:4.393 249:5.2616 250:5.6619 251:5.6841 
-4.9359773166351126E-5 1:21.405 2:22.859 3:23.391 4:21.853 5:19.308 6:16.901 7:14.903 8:12.956 9:11.161 10:9.4766 11:8.1589 12:7.3741 13:7.4042 14:7.7668 15:7.9658 16:7.9439 17:7.6536 18:7.0146 19:6.3298 20:5.8692 21:7.7787 22:13.319 23:18.846 24:20.321 25:20.817 26:22.449 27:24.906 28:26.974 29:26.63 30:25.423 31:24.262 32:22.779 33:20.845 34:18.658 35:15.967 36:13.186 37:10.984 38:9.2724 39:8.2896 40:7.9709 41:7.8785 42:7.8418 43:7.9169 44:7.6559 45:6.8869 46:6.1308 47:5.258 48:5.9704 49:9.5253 50:15.406 51:20.748 52:20.851 53:20.165 54:22.889 55:25.121 56:25.244 57:25.017 58:24.275 59:22.954 60:21.338 61:19.275 62:16.59 63:13.861 64:11.558 65:9.7748 66:8.5534 67:7.689 68:7.2827 69:7.481 70:8.0492 71:8.6546 72:8.6621 73:8.1759 74:7.309 75:6.371 76:8.8315 77:15.223 78:21.495 79:20.248 80:22.579 81:23.377 82:22.915 83:22.73 84:23.014 85:20.561 86:18.195 87:16.19 88:14.397 89:12.726 90:11.203 91:9.9075 92:9.0459 93:8.4544 94:8.179 95:8.2937 96:8.2415 97:7.358 98:6.0047 99:7.3913 100:10.407 101:13.521 102:17.663 103:20.318 104:19.77 105:19.626 106:21.262 107:23.793 108:24.734 109:23.653 110:21.125 111:18.711 112:16.161 113:13.533 114:10.949 115:8.9072 116:7.4972 117:7.0111 118:6.7786 119:6.9803 120:7.4755 121:7.9231 122:7.8495 123:6.8931 124:5.341 125:4.8054 126:11.355 127:19.453 128:20.016 129:18.544 130:19.041 131:19.393 132:19.672 133:20.392 134:21.912 135:23.377 136:22.875 137:20.811 138:17.813 139:15.098 140:12.798 141:11.09 142:9.6196 143:8.2307 144:7.1256 145:6.7048 146:6.9502 147:7.4398 148:7.953 149:7.7661 150:6.705 151:5.2316 152:5.8186 153:10.835 154:16.028 155:18.447 156:19.573 157:20.612 158:22.265 159:22.907 160:22.542 161:22.099 162:22.319 163:22.132 164:21.187 165:19.838 166:17.914 167:15.904 168:13.892 169:12.14 170:10.353 171:8.831 172:7.6168 173:6.7738 174:6.6201 175:7.0098 176:7.6646 177:7.9805 178:7.2949 179:5.6545 180:5.5481 181:9.374 182:14.037 183:16.921 184:17.952 185:18.645 186:19.206 187:19.367 188:19.453 189:20.004 190:21.102 191:22.172 192:22.274 193:20.407 194:18.22 195:16.548 196:15.064 197:13.514 198:11.735 199:9.7365 200:7.9997 201:6.7439 202:5.9666 203:5.7777 204:5.8402 205:5.983 206:6.5706 207:6.9795 208:6.6788 209:5.7327 210:4.2931 211:7.4806 212:14.314 213:18.186 214:18.607 215:18.791 216:19.094 217:19.471 218:20.055 219:20.942 220:21.799 221:22.397 222:21.714 223:20.109 224:18.593 225:17.175 226:15.723 227:13.967 228:10.588 229:8.9382 230:7.7105 231:6.8253 232:6.3322 233:6.3915 234:6.9401 235:7.6146 236:7.593 237:6.5163 238:5.1954 239:5.6338 240:9.601 241:15.01 242:18.869 243:20.064 244:19.842 245:20.262 246:22.419 247:22.981 248:21.96 249:21.051 250:20.341 251:19.38 
-3.4730029565441215E-5 1:21.972 2:24.515 3:24.134 4:22.011 5:21.079 6:21.469 7:21.233 8:19.873 9:17.774 10:15.155 11:12.552 12:10.24 13:8.4794 14:7.5839 15:7.3129 16:7.3746 17:7.5309 18:7.7712 19:7.4973 20:6.5738 21:5.1609 22:3.8595 23:3.8596 24:5.3324 25:7.6597 26:10.087 27:13.685 28:16.78 29:18.35 30:19.241 31:20.069 32:21.356 33:22.676 34:23.642 35:24.169 36:24.189 37:22.568 38:20.54 39:18.654 40:16.489 41:14.297 42:12.099 43:9.8915 44:8.2523 45:7.0127 46:6.5916 47:6.7417 48:7.0494 49:7.271 50:7.0014 51:6.0159 52:4.715 53:3.8979 54:4.938 55:8.3859 56:13.597 57:18.6 58:19.714 59:21.986 60:24.603 61:25.828 62:24.883 63:23.707 64:23.684 65:23.46 66:21.851 67:19.197 68:16.495 69:14.001 70:12.039 71:10.481 72:9.2357 73:8.1335 74:7.2362 75:6.7517 76:6.8115 77:7.0056 78:7.0017 79:6.5543 80:5.7884 81:4.6728 82:4.2885 83:6.2256 84:10.127 85:14.626 86:17.718 87:18.872 88:20.169 89:21.763 90:22.846 91:23.073 92:23.214 93:22.46 94:21.308 95:19.719 96:18.048 97:16.105 98:14.105 99:12.202 100:10.573 101:9.2434 102:8.15 103:7.4827 104:7.1523 105:7.1989 106:7.2836 107:7.1975 108:6.6097 109:5.3869 110:3.9702 111:4.7315 112:8.6375 113:13.936 114:17.443 115:18.527 116:19.779 117:20.164 118:19.849 119:19.735 120:20.114 121:21.281 122:22.856 123:22.837 124:21.086 125:19.174 126:17.431 127:15.709 128:14.017 129:12.335 130:10.568 131:8.9323 132:7.4396 133:6.6745 134:6.2348 135:6.421 136:7.2402 137:8.1693 138:8.5763 139:7.7162 140:6.4795 141:8.2408 142:13.507 143:19.195 144:21.372 145:21.621 146:22.226 147:23.768 148:25.668 149:25.543 150:23.666 151:22.102 152:21.521 153:21.382 154:20.274 155:17.779 156:15.033 157:12.769 158:11.009 159:9.783 160:8.8773 161:8.1866 162:7.9264 163:8.5323 164:9.6366 165:9.5175 166:8.1113 167:8.0636 168:10.769 169:13.42 170:16.128 171:17.917 172:18.548 173:20.242 174:21.068 175:21.373 176:21.833 177:22.412 178:22.902 179:21.84 180:19.736 181:16.873 182:14.01 183:11.519 184:9.8007 185:9.1322 186:9.0648 187:9.3541 188:9.5531 189:9.3869 190:8.4839 191:7.0887 192:6.706 193:9.0178 194:12.708 195:16.338 196:18.02 197:18.311 198:19.387 199:20.425 200:20.824 201:20.865 202:21.166 203:21.99 204:21.664 205:20.155 206:17.907 207:15.546 208:13.633 209:12.157 210:10.935 211:10.314 212:10.266 213:10.479 214:10.7 215:10.78 216:9.9594 217:8.4949 218:8.9418 219:13.268 220:16.437 221:19.573 222:19.135 223:19.178 224:20.09 225:21.143 226:22.118 227:22.573 228:22.463 229:20.816 230:18.679 231:16.227 232:13.952 233:12.117 234:10.897 235:10.244 236:9.2507 237:8.825 238:9.0176 239:9.4091 240:9.2424 241:8.3818 242:7.2571 243:8.1493 244:13.094 245:18.224 246:19.713 247:19.225 248:19.012 249:18.991 250:19.276 251:19.884 
-8.25211228962645E-5 1:6.446 2:11.68 3:15.978 4:17.794 5:18.76 6:19.235 7:19.723 8:20.758 9:22.061 10:22.902 11:22.915 12:21.838 13:20.997 14:20.497 15:19.852 16:18.244 17:16.085 18:13.713 19:11.021 20:9.4126 21:8.1718 22:7.6851 23:8.0927 24:8.7342 25:8.9303 26:8.5206 27:7.8476 28:6.6111 29:6.1037 30:10.751 31:17.686 32:18.244 33:19.223 34:20.413 35:21.207 36:21.698 37:22.145 38:21.334 39:18.735 40:15.378 41:12.387 42:10.237 43:9.2885 44:9.0064 45:8.7034 46:8.6422 47:8.5313 48:7.8169 49:6.9416 50:6.1328 51:5.9227 52:6.9964 53:9.3032 54:13.589 55:17.304 56:18.19 57:20.215 58:23.015 59:24.708 60:24.79 61:24.324 62:24.053 63:23.26 64:21.764 65:19.42 66:16.86 67:14.522 68:12.476 69:10.878 70:9.3146 71:7.8908 72:7.9463 73:8.0161 74:7.7764 75:6.7148 76:5.1776 77:4.3599 78:5.2457 79:8.4433 80:12.701 81:16.385 82:17.832 83:18.779 84:19.687 85:20.59 86:21.66 87:23.327 88:24.74 89:25.044 90:25.43 91:24.743 92:22.23 93:18.668 94:14.797 95:11.746 96:9.5582 97:8.1488 98:7.396 99:7.2335 100:7.3677 101:7.4814 102:7.4818 103:7.2869 104:6.8935 105:6.1497 106:5.426 107:5.1049 108:6.5169 109:10.408 110:15.948 111:19.526 112:21.366 113:23.451 114:25.962 115:28.229 116:28.787 117:27.811 118:26.667 119:24.586 120:22.72 121:20.77 122:18.614 123:16.073 124:13.368 125:11.057 126:9.0709 127:7.9039 128:7.076 129:6.6116 130:6.6033 131:7.154 132:7.724 133:8.2015 134:8.1077 135:7.2325 136:5.8039 137:5.7476 138:10.169 139:16.221 140:19.306 141:20.322 142:21.338 143:22.546 144:24.453 145:26.192 146:27.019 147:26.672 148:25.011 149:21.981 150:19.293 151:17.206 152:15.233 153:13.887 154:11.737 155:9.8111 156:8.2016 157:6.7796 158:5.968 159:6.0949 160:6.7453 161:7.3145 162:7.2412 163:6.4124 164:5.4657 165:5.2165 166:6.0415 167:9.3618 168:14.039 169:18.17 170:20.283 171:21.77 172:24.053 173:26.786 174:29.696 175:31.087 176:30.551 177:27.492 178:24.191 179:21.201 180:18.648 181:16.697 182:14.68 183:12.595 184:10.74 185:9.3294 186:8.0836 187:7.1734 188:7.011 189:7.4349 190:8.1401 191:8.8275 192:8.9393 193:8.4843 194:7.5318 195:6.0438 196:8.7017 197:15.767 198:18.765 199:19.305 200:19.868 201:20.551 202:21.426 203:22.976 204:24.367 205:24.54 206:23.43 207:21.309 208:19.08 209:17.123 210:15.139 211:13.107 212:11.409 213:10.071 214:8.6251 215:7.3892 216:6.4198 217:6.0132 218:6.015 219:6.3361 220:6.7491 221:6.744 222:6.1803 223:5.1218 224:4.1709 225:4.813 226:7.2038 227:10.245 228:14.37 229:18.244 230:20.456 231:22.163 232:24.767 233:25.921 234:24.911 235:23.91 236:23.818 237:23.073 238:21.532 239:19.238 240:17.222 241:15.472 242:13.819 243:12.393 244:10.575 245:8.8516 246:7.3541 247:6.4138 248:5.9352 249:5.9585 250:6.341 251:6.6879 
-1.3087170396508245E-4 1:21.817 2:23.315 3:23.947 4:23.353 5:21.006 6:18.82 7:17.32 8:16.227 9:14.819 10:13.123 11:11.444 12:10.123 13:9.1284 14:8.7266 15:8.0779 16:7.6857 17:7.3051 18:6.9436 19:6.3965 20:5.3447 21:5.2884 22:8.2688 23:12.438 24:16.007 25:17.499 26:18.396 27:18.911 28:19.333 29:19.93 30:20.804 31:21.498 32:20.764 33:18.586 34:16.927 35:16.324 36:15.557 37:14.388 38:13.107 39:11.249 40:10.18 41:9.1042 42:8.0397 43:6.9864 44:6.0594 45:5.8778 46:5.5259 47:4.8231 48:4.3729 49:4.1468 50:5.3281 51:11.065 52:16.884 53:18.709 54:18.007 55:18.596 56:19.594 57:19.997 58:20.199 59:20.507 60:20.769 61:20.187 62:18.993 63:17.526 64:16.084 65:14.73 66:13.304 67:11.623 68:9.9948 69:8.6285 70:6.9048 71:6.3721 72:5.8656 73:5.6481 74:5.1649 75:4.481 76:3.8308 77:3.0075 78:4.2575 79:9.3085 80:15.821 81:18.553 82:18.979 83:19.008 84:19.227 85:19.654 86:20.257 87:20.863 88:21.548 89:21.699 90:20.924 91:20.277 92:19.377 93:17.74 94:15.63 95:13.504 96:11.634 97:11.016 98:11.354 99:12.059 100:12.305 101:12.197 102:11.948 103:12.188 104:12.773 105:13.676 106:15.973 107:17.465 108:18.725 109:19.97 110:20.753 111:21.246 112:21.751 113:21.923 114:20.2 115:18.049 116:16.186 117:14.785 118:13.415 119:12.17 120:11.132 121:10.509 122:10.354 123:10.136 124:9.6195 125:8.5442 126:7.4295 127:7.0059 128:9.384 129:13.33 130:16.578 131:17.456 132:18.076 133:18.723 134:19.185 135:19.638 136:20.316 137:21.084 138:21.414 139:20.398 140:19.186 141:17.329 142:15.337 143:13.294 144:11.501 145:10.723 146:10.565 147:10.367 148:9.7841 149:9.2521 150:8.6264 151:8.2893 152:9.1967 153:12.02 154:16.219 155:19.435 156:19.9 157:18.935 158:20.791 159:21.904 160:23.222 161:24.014 162:23.417 163:21.326 164:18.902 165:16.714 166:14.701 167:12.881 168:11.319 169:9.8812 170:8.7184 171:7.8998 172:7.3972 173:7.2913 174:7.3014 175:7.2442 176:7.0928 177:6.6128 178:5.7934 179:5.7702 180:8.9297 181:14.415 182:16.944 183:17.812 184:18.672 185:19.155 186:19.795 187:20.897 188:22.03 189:22.507 190:21.733 191:19.67 192:17.687 193:16.163 194:14.875 195:13.618 196:12.213 197:10.83 198:9.556 199:8.3481 200:7.3252 201:6.6428 202:6.3211 203:6.1313 204:6.1848 205:6.4818 206:6.0273 207:5.2925 208:5.5959 209:10.893 210:16.797 211:18.263 212:18.186 213:18.751 214:19.207 215:19.399 216:20.065 217:21.692 218:22.894 219:22.162 220:19.771 221:17.513 222:15.867 223:14.719 224:13.599 225:12.319 226:10.823 227:9.0979 228:7.7017 229:6.9839 230:6.8391 231:6.813 232:6.9404 233:7.2038 234:7.1426 235:6.7415 236:6.1972 237:6.4386 238:10.058 239:14.994 240:17.545 241:18.939 242:19.141 243:19.384 244:20.22 245:20.815 246:21.432 247:22.035 248:21.258 249:19.6 250:18.182 251:16.992 
-9.197795330354392E-5 1:14.027 2:12.386 3:10.824 4:9.2537 5:8.0428 6:7.2906 7:7.265 8:7.7817 9:8.4851 10:8.8974 11:8.937 12:8.4902 13:7.2317 14:9.1565 15:15.255 16:20.749 17:19.834 18:19.538 19:20.329 20:21.155 21:21.379 22:21.325 23:21.503 24:21.772 25:20.3 26:18.135 27:16.005 28:13.99 29:12.179 30:10.668 31:9.6131 32:8.7649 33:8.1395 34:7.559 35:7.3004 36:7.2572 37:7.2801 38:7.1611 39:6.826 40:6.5015 41:8.8868 42:16.944 43:20.15 44:19.725 45:20.256 46:21.339 47:21.658 48:21.941 49:22.651 50:23.542 51:23.634 52:21.88 53:19.124 54:16.681 55:14.552 56:12.573 57:10.786 58:9.2636 59:7.9119 60:6.9668 61:6.4333 62:6.3499 63:6.6026 64:7.1323 65:7.4843 66:7.1388 67:6.5895 68:6.2943 69:8.972 70:15.121 71:18.436 72:19.576 73:20.915 74:22.583 75:23.932 76:24.195 77:23.557 78:22.532 79:21.356 80:19.909 81:18.13 82:16.378 83:14.308 84:12.106 85:8.4213 86:7.1608 87:6.4832 88:6.2586 89:6.6495 90:7.4345 91:8.1592 92:8.3264 93:8.0273 94:7.25 95:6.1607 96:11.099 97:19.009 98:20.695 99:20.213 100:21.113 101:22.561 102:22.68 103:22.496 104:22.952 105:23.215 106:22.129 107:20.059 108:17.848 109:15.711 110:13.649 111:11.631 112:9.8136 113:8.3153 114:7.2998 115:6.8494 116:6.7642 117:7.0307 118:7.3666 119:7.4309 120:7.326 121:7.197 122:6.6287 123:8.4655 124:14.463 125:18.669 126:19.048 127:20.309 128:22.256 129:23.501 130:24.066 131:24.224 132:23.634 133:22.29 134:20.579 135:18.643 136:16.844 137:14.893 138:12.996 139:11.318 140:10.189 141:8.8483 142:7.994 143:7.208 144:6.4977 145:6.0346 146:6.011 147:6.7708 148:7.2873 149:6.6639 150:5.2092 151:5.2457 152:10.452 153:15.682 154:17.543 155:18.689 156:19.381 157:19.815 158:20.209 159:20.772 160:21.61 161:22.201 162:21.558 163:20.042 164:18.052 165:16.466 166:15.141 167:13.868 168:12.485 169:11.065 170:9.7179 171:8.7529 172:7.5737 173:6.718 174:6.1046 175:5.8667 176:6.1092 177:6.7808 178:7.4788 179:7.3213 180:7.6871 181:11.282 182:15.825 183:17.881 184:18.771 185:19.734 186:20.537 187:21.127 188:21.874 189:22.816 190:23.682 191:24.214 192:23.143 193:21.252 194:19.096 195:17.022 196:14.82 197:12.705 198:10.783 199:9.2519 200:8.2539 201:7.9369 202:8.2553 203:8.9435 204:8.9808 205:8.4825 206:7.6916 207:6.8944 208:6.8161 209:8.9197 210:13.226 211:16.715 212:18.353 213:19.586 214:20.889 215:22.141 216:22.885 217:23.168 218:23.324 219:22.834 220:21.551 221:19.71 222:17.715 223:15.869 224:13.932 225:12.157 226:10.595 227:9.316 228:8.2595 229:7.5039 230:7.2777 231:7.5104 232:8.1599 233:8.6912 234:8.7518 235:8.2187 236:7.0861 237:7.9799 238:14.464 239:19.699 240:20.267 241:22.271 242:23.458 243:23.917 244:23.702 245:23.404 246:22.321 247:20.544 248:18.388 249:16.019 250:14.144 251:12.088 
-4.49105710485882E-6 1:5.8523 2:5.4448 3:6.7596 4:8.7774 5:10.884 6:14.178 7:17.576 8:19.147 9:20.663 10:22.149 11:23.289 12:23.822 13:23.954 14:23.898 15:22.599 16:20.648 17:18.344 18:16.237 19:14.711 20:13.204 21:11.495 22:9.7541 23:8.3632 24:7.2526 25:6.4858 26:6.1825 27:6.4268 28:6.9134 29:7.5005 30:7.9435 31:7.8938 32:7.2789 33:6.0391 34:7.6523 35:14.325 36:19.832 37:22.058 38:22.223 39:25.263 40:25.338 41:25.325 42:24.341 43:23.496 44:22.511 45:21.092 46:19.334 47:16.873 48:14.252 49:11.651 50:9.6098 51:8.2145 52:7.4107 53:7.1545 54:7.2819 55:7.3066 56:6.9672 57:6.2532 58:6.0022 59:5.573 60:4.2608 61:3.0014 62:5.3017 63:11.156 64:16.713 65:18.927 66:19.777 67:20.153 68:20.891 69:21.857 70:22.898 71:23.766 72:23.859 73:23.305 74:22.467 75:21.407 76:19.851 77:18.079 78:15.963 79:13.734 80:11.561 81:9.7686 82:8.1582 83:6.9393 84:6.0011 85:5.4918 86:5.5099 87:5.8534 88:6.3648 89:6.6643 90:6.412 91:5.8346 92:4.9379 93:5.2097 94:9.0716 95:15.322 96:19.624 97:21.354 98:21.521 99:20.949 100:21.368 101:23.98 102:26.023 103:26.083 104:23.581 105:20.369 106:17.781 107:16.037 108:13.128 109:9.842 110:8.2552 111:6.9053 112:5.6809 113:4.9793 114:4.9247 115:5.4199 116:6.2558 117:6.9416 118:6.9002 119:6.325 120:5.4167 121:4.3877 122:6.0672 123:13.47 124:18.935 125:20.219 126:20.164 127:21.776 128:23.816 129:24.501 130:24.941 131:25.747 132:25.251 133:22.739 134:19.684 135:17.269 136:15.777 137:14.562 138:13.252 139:11.627 140:9.7975 141:8.0937 142:6.7226 143:6.042 144:6.3422 145:7.2349 146:7.9878 147:8.045 148:7.5871 149:6.7864 150:6.0103 151:5.2006 152:4.0081 153:8.6078 154:15.485 155:19.654 156:21.399 157:21.508 158:21.714 159:24.454 160:25.959 161:25.332 162:24.27 163:22.602 164:20.597 165:16.999 166:15.206 167:13.335 168:11.241 169:9.2939 170:7.7595 171:6.9421 172:6.8318 173:7.3252 174:8.1622 175:8.7351 176:8.8305 177:8.3333 178:7.5026 179:6.3623 180:4.9938 181:8.7506 182:15.765 183:18.644 184:19.144 185:19.45 186:20.271 187:20.664 188:20.859 189:21.463 190:22.422 191:21.623 192:20.14 193:18.697 194:17.648 195:16.841 196:15.732 197:14.298 198:12.489 199:10.449 200:8.5713 201:7.1161 202:6.3855 203:6.1743 204:6.5722 205:7.0606 206:6.821 207:6.0169 208:5.1378 209:5.8241 210:8.8521 211:12.514 212:17.177 213:19.717 214:20.777 215:21.893 216:23.652 217:25.508 218:25.985 219:25.378 220:23.71 221:21.586 222:19.109 223:16.621 224:14.029 225:11.635 226:9.8119 227:8.4284 228:7.506 229:6.8361 230:6.2395 231:5.6632 232:5.5182 233:5.6805 234:5.7285 235:5.4162 236:4.6077 237:3.7548 238:3.1999 239:4.9175 240:10.354 241:16.544 242:20.017 243:20.133 244:20.486 245:21.709 246:23.161 247:24.429 248:25.46 249:25.892 250:24.55 251:22.31 
