svm_type c_svc
kernel_type rbf
gamma 0.04
nr_class 2
total_sv 238
rho 0.586062266786576
label 1 0
nr_sv 85 153
SV
1.0 1:-0.71318 2:-0.6703 3:-0.20161 4:1.823 5:0.83824 6:2.6553 7:1.8974 8:-0.51994 9:-2.053 10:-1.5309 11:-1.9761 12:-3.5559 13:-0.77268 14:0.576 15:2.727 16:1.449 17:1.073 18:-0.23818 19:-0.13951 20:0.012781 21:-0.24927 22:-0.3158 23:-0.4186 24:-0.28331 25:-0.21156 
1.0 1:4.6621 2:0.57344 3:-2.2051 4:-3.2723 5:-2.1018 6:-0.23543 7:0.30725 8:-1.0741 9:-0.60141 10:-0.37025 11:0.061618 12:1.2603 13:1.2438 14:1.5861 15:-0.23579 16:-5.874 17:-5.2436 18:-5.6194 19:-4.2097 20:-0.52445 21:2.2065 22:2.8798 23:3.4379 24:0.85767 25:9.6393 
1.0 1:-3.4285 2:-3.969 3:-2.5229 4:-0.40438 5:-0.4078 6:-1.3821 7:-1.3954 8:-2.9933 9:-2.3004 10:-0.9784 11:-1.963 12:-1.4282 13:1.5917 14:0.39969 15:0.12019 16:-0.31765 17:-0.62456 18:-2.3623 19:-3.1599 20:-1.6446 21:-2.1296 22:-2.1633 23:1.3375 24:0.010961 25:-4.7861 
1.0 1:0.86705 2:-7.4944 3:-19.8796 4:-12.133 5:-6.1852 6:-2.9761 7:-1.5819 8:-2.1901 9:0.40248 10:3.1305 11:2.0187 12:2.02 13:5.1928 14:5.2907 15:4.3934 16:4.4725 17:4.4675 18:3.9839 19:3.584 20:2.7127 21:1.5344 22:-0.20885 23:-1.3807 24:-2.3352 25:4.6671 
0.4680531874517454 1:-0.24602 2:-0.36384 3:-0.81202 4:-1.167 5:-1.0013 6:-0.68817 7:-0.15346 8:-0.21337 9:0.0066704 10:-0.46901 11:0.0071692 12:-0.14262 13:0.28686 14:-0.21757 15:-0.68376 16:-0.98462 17:-0.70215 18:-1.0097 19:-1.403 20:-1.8731 21:-0.52583 22:-0.84097 23:-3.3439 24:-2.6352 25:-0.29393 
1.0 1:1.7799 2:-0.13921 3:0.46111 4:0.87797 5:5.0587 6:4.2143 7:2.4081 8:2.6934 9:3.0004 10:1.8882 11:1.313 12:0.020589 13:-0.74885 14:-1.9117 15:-3.2438 16:-3.2874 17:-2.1864 18:-0.88356 19:0.22115 20:0.55848 21:0.32073 22:0.021177 23:0.35453 24:0.01105 25:1.4586 
0.20897543519820427 1:-0.69774 2:-0.50292 3:0.29756 4:0.50381 5:0.85733 6:1.0495 7:0.99625 8:1.0859 9:1.2624 10:1.3717 11:1.5521 12:1.9197 13:1.336 14:1.7956 15:2.2272 16:1.3404 17:1.1128 18:0.6129 19:-0.054819 20:0.07893 21:2.1328 22:1.9023 23:-0.36323 24:-1.7033 25:-0.79979 
0.5086796262140388 1:2.3399 2:2.4854 3:2.855 4:2.5365 5:2.1304 6:1.799 7:1.9701 8:1.4691 9:1.7075 10:1.8528 11:1.4073 12:0.9235 13:1.6465 14:1.7428 15:2.0137 16:1.6812 17:1.2065 18:0.47339 19:0.055991 20:0.21103 21:-0.13149 22:-0.2307 23:0.0050461 24:0.07325 25:1.7063 
0.15350911536152004 1:0.85 2:-0.67836 3:-0.32918 4:0.74881 5:-0.11392 6:1.0499 7:0.36431 8:0.52712 9:-1.2863 10:-1.3283 11:-0.73342 12:-1.66 13:-2.5731 14:-2.6256 15:-2.2708 16:-2.2927 17:-1.6468 18:-2.3855 19:-1.5635 20:-1.3423 21:-0.38641 22:-0.13862 23:-0.012608 24:0.067112 25:0.44268 
1.0 1:1.0111 2:-4.3387 3:-3.4074 4:-1.2235 5:-3.7394 6:-5.8174 7:-2.7371 8:-3.2285 9:-4.5546 10:-4.9827 11:-4.0398 12:-2.0956 13:-0.43542 14:0.053098 15:-0.10162 16:0.53137 17:1.1518 18:2.1467 19:2.404 20:2.2751 21:2.6983 22:3.1308 23:2.6022 24:2.102 25:1.764 
1.0 1:2.8353 2:4.9756 3:9.0616 4:13.7114 5:8.1098 6:4.0138 7:0.31936 8:-1.6756 9:0.11233 10:-1.5119 11:0.90505 12:-0.9664 13:-0.74829 14:-3.7782 15:-4.9598 16:-3.784 17:-1.2568 18:2.1509 19:2.7805 20:4.1551 21:3.8922 22:3.3854 23:3.5118 24:3.3858 25:1.6819 
0.5788600005543708 1:-1.2174 2:-2.2545 3:-3.36 4:-3.6358 5:-4.0304 6:-4.1571 7:-3.2987 8:-2.3959 9:-2.0672 10:-0.9696 11:-0.025221 12:-1.3503 13:-1.3989 14:-0.74532 15:-0.73067 16:-0.46189 17:-0.3452 18:-0.18799 19:-0.019055 20:0.058752 21:0.03838 22:0.081233 23:0.09528 24:0.087271 25:-0.60267 
1.0 1:-2.1603 2:0.51839 3:-3.2673 4:-1.2358 5:-3.8186 6:-4.0049 7:-4.7059 8:-4.925 9:-3.6245 10:-2.2427 11:-2.1207 12:0.082259 13:2.8356 14:1.5346 15:0.49346 16:-0.20903 17:0.21135 18:0.26373 19:-0.22052 20:-1.0688 21:-0.19291 22:-1.0207 23:-0.32555 24:0.52983 25:-2.7928 
1.0 1:3.1159 2:4.7802 3:1.3333 4:-2.0437 5:-2.4975 6:1.0147 7:-3.1014 8:2.2184 9:2.4081 10:-2.6691 11:-6.9749 12:-6.9631 13:-6.3869 14:-4.0987 15:-3.437 16:-0.21665 17:-4.1674 18:-2.8355 19:-1.048 20:-0.99516 21:-4.352 22:-9.4475 23:-3.9408 24:-1.9033 25:1.7904 
1.0 1:-7.5234 2:-7.1492 3:-3.1459 4:-0.73015 5:-3.0408 6:-1.877 7:-1.6675 8:-4.4106 9:-7.5053 10:-6.0156 11:-8.2887 12:-1.8005 13:-0.83019 14:-1.651 15:-1.185 16:-0.087402 17:0.94956 18:2.1226 19:1.3726 20:0.16239 21:-0.92445 22:-0.26822 23:1.0225 24:0.28755 25:-7.6493 
1.0 1:-1.1928 2:0.69719 3:10.3309 4:3.4678 5:1.7307 6:0.26554 7:-0.34252 8:-0.43856 9:0.028009 10:0.3187 11:0.80219 12:1.0792 13:1.22 14:1.1316 15:1.5768 16:1.2832 17:0.74911 18:0.84835 19:1.5862 20:0.4591 21:0.84557 22:0.81475 23:0.41529 24:0.18685 25:-5.3316 
1.0 1:2.8139 2:3.4064 3:2.2229 4:-1.6881 5:-4.6674 6:-3.3401 7:-0.71467 8:0.82432 9:4.6232 10:-1.4613 11:-7.0789 12:-7.4371 13:-8.8656 14:-5.3053 15:-2.8937 16:-2.4168 17:-4.3419 18:-2.8827 19:-2.4343 20:-3.9345 21:-3.0847 22:-1.2022 23:-4.086 24:-7.7241 25:-0.47227 
0.4404025096631873 1:-1.1586 2:-1.0866 3:-0.63891 4:-0.88291 5:-0.27231 6:1.6863 7:2.466 8:2.0116 9:2.5094 10:2.3732 11:1.7452 12:1.8324 13:0.62084 14:0.42523 15:0.84439 16:0.71874 17:-0.42609 18:0.53341 19:-0.19252 20:0.19402 21:0.47222 22:0.11377 23:0.031956 24:-0.15319 25:-1.8983 
1.0 1:-2.6072 2:-5.3919 3:-4.6428 4:-0.8096 5:-0.18337 6:-1.0473 7:2.1654 8:0.41656 9:-4.1705 10:-6.4888 11:-6.498 12:-3.2758 13:-0.86533 14:-1.0303 15:-1.6347 16:-1.5324 17:-1.6149 18:-2.7429 19:-5.9226 20:-5.9109 21:-12.0692 22:-7.8767 23:-4.8993 24:-2.7321 25:-1.6234 
1.0 1:2.0508 2:0.67224 3:-0.25078 4:-0.27199 5:-1.2361 6:-0.14914 7:0.99098 8:1.8275 9:2.4054 10:4.1852 11:2.6208 12:2.4808 13:3.8233 14:2.2383 15:2.7209 16:-0.48518 17:-0.47719 18:-0.80366 19:-1.4422 20:-2.7726 21:-0.0058502 22:-1.0548 23:3.1974 24:2.2259 25:2.0189 
1.0 1:-1.4929 2:-2.7374 3:-3.2097 4:-5.6901 5:-6.4933 6:-6.58 7:-8.732 8:-6.691 9:-2.7063 10:-1.3801 11:-0.021411 12:1.7087 13:2.174 14:3.3683 15:3.783 16:3.9644 17:3.1063 18:2.4265 19:1.3497 20:1.3667 21:0.46868 22:0.39165 23:1.0475 24:1.0477 25:-1.0713 
0.009764406134145628 1:0.026644 2:-0.18037 3:-0.38688 4:-0.24469 5:0.0070703 6:-0.0023733 7:-0.43595 8:-0.54468 9:-1.2405 10:-0.66751 11:-0.21413 12:-0.44416 13:-0.38135 14:-0.3498 15:-0.20638 16:0.019089 17:-1.3595 18:-1.5464 19:-2.5727 20:-1.8109 21:-0.99767 22:-0.71394 23:-0.4487 24:0.64886 25:0.35227 
0.5654151584929167 1:0.23949 2:-0.68095 3:-0.61921 4:0.25167 5:2.3018 6:3.3702 7:3.903 8:3.8398 9:1.6877 10:0.52497 11:0.38499 12:0.63744 13:0.71 14:0.077707 15:0.016659 16:0.26637 17:0.85033 18:0.52953 19:0.13926 20:0.87766 21:0.67477 22:0.27489 23:-0.048104 24:0.28171 25:0.70587 
0.2718897829136044 1:0.058594 2:-0.053037 3:-0.05101 4:-0.078492 5:0.025238 6:0.43571 7:0.36013 8:0.80862 9:0.89089 10:1.2345 11:0.486 12:0.24343 13:0.093171 14:1.0618 15:0.88812 16:2.8115 17:1.6177 18:2.8681 19:2.5291 20:2.2736 21:1.2821 22:0.89608 23:0.89793 24:-0.90803 25:0.12289 
1.0 1:-5.1735 2:-3.1895 3:-1.5757 4:0.19787 5:1.7589 6:2.6595 7:2.5782 8:2.4057 9:2.5514 10:2.6585 11:2.1281 12:1.23 13:0.74165 14:0.63039 15:0.23437 16:0.10076 17:0.66612 18:0.58091 19:0.4194 20:0.30977 21:0.10001 22:0.49798 23:-0.034301 24:0.098611 25:-7.0296 
0.5842451942193 1:0.016925 2:-1.1409 3:-0.41047 4:0.97215 5:0.050259 6:2.1968 7:0.44732 8:1.0299 9:1.5998 10:1.5946 11:0.53123 12:0.055835 13:0.043388 14:0.13212 15:0.34564 16:0.0022754 17:1.076 18:1.5648 19:1.9521 20:2.2768 21:1.6979 22:2.3235 23:1.7804 24:0.6717 25:-0.2801 
1.0 1:3.5797 2:3.2187 3:2.1281 4:3.3159 5:6.0495 6:5.3805 7:5.1862 8:3.8549 9:0.91816 10:-0.24499 11:3.5344 12:2.2448 13:1.1688 14:0.50539 15:0.3244 16:0.31508 17:0.081164 18:0.25558 19:0.09267 20:0.13732 21:0.22143 22:0.11573 23:-0.015752 24:-0.26538 25:0.56622 
0.2995436233876821 1:-1.4142 2:-1.8299 3:-2.0515 4:-1.3816 5:-1.4884 6:-1.569 7:-1.79 8:-1.1926 9:-1.2775 10:-0.5771 11:0.27314 12:1.1678 13:1.3744 14:0.92721 15:0.88129 16:0.32184 17:0.35473 18:-0.24431 19:-0.45402 20:0.030057 21:-0.59853 22:1.6879 23:-0.24301 24:-1.5948 25:-1.4337 
1.0 1:3.4261 2:4.6098 3:2.2416 4:0.40684 5:-0.015738 6:0.038416 7:-0.62631 8:-1.467 9:-2.0842 10:-2.3586 11:-2.0993 12:-1.8274 13:-1.3878 14:-0.94267 15:-0.46402 16:-0.34338 17:-0.12525 18:0.018001 19:0.20786 20:0.33618 21:-0.029396 22:-0.30041 23:-0.31394 24:-0.5494 25:3.0854 
1.0 1:-0.15853 2:-0.091909 3:-0.14509 4:-0.13675 5:-0.092325 6:-0.26952 7:-0.20714 8:0.15935 9:-0.55624 10:-0.37069 11:-0.59349 12:0.6703 13:1.0035 14:0.44826 15:-1.0551 16:-3.0152 17:-2.4806 18:-1.7515 19:-0.42722 20:3.7019 21:5.0761 22:3.303 23:4.5417 24:2.4203 25:0.83349 
0.658760739673667 1:0.0063965 2:0.75882 3:1.8459 4:2.2745 5:1.1238 6:0.12426 7:0.40639 8:-0.62416 9:-1.6986 10:-2.3357 11:-2.0423 12:-1.1858 13:-0.31943 14:0.038669 15:0.84045 16:-0.90057 17:3.0825 18:0.51447 19:-0.36764 20:0.097486 21:-0.0054326 22:0.71404 23:0.85044 24:0.14057 25:-0.20196 
1.0 1:0.42487 2:1.0248 3:1.4262 4:2.0543 5:4.6785 6:3.7596 7:-0.0070048 8:0.8809 9:0.92272 10:1.581 11:4.0897 12:4.9869 13:5.9762 14:2.9324 15:1.0391 16:0.31676 17:-1.1789 18:-0.4929 19:-2.1531 20:-3.6493 21:-2.8544 22:-1.9743 23:-1.2685 24:-0.62436 25:-2.1663 
1.0 1:2.7729 2:2.8254 3:2.2366 4:2.2226 5:2.0909 6:1.6288 7:1.5437 8:1.5436 9:2.4265 10:2.6912 11:2.7247 12:1.6871 13:4.9518 14:3.3426 15:0.56758 16:0.22956 17:-0.23182 18:0.95125 19:0.03468 20:-1.7244 21:-5.7153 22:-9.9899 23:-13.5136 24:-6.2857 25:2.5595 
0.8859329582696307 1:-1.4207 2:-1.9412 3:-2.2844 4:-2.651 5:-3.3003 6:-3.0443 7:-3.1188 8:-3.5828 9:-3.5534 10:-3.8624 11:-2.9587 12:-2.2715 13:-2.1073 14:-1.9494 15:-1.7191 16:-1.8299 17:-1.5173 18:-1.1119 19:-1.1958 20:-0.85088 21:-0.64414 22:-0.29274 23:-0.083717 24:-0.21691 25:-1.107 
1.0 1:-2.1652 2:-3.7534 3:-4.4446 4:-4.1937 5:-4.1911 6:-3.2583 7:-1.4845 8:-0.52215 9:-0.19896 10:-0.5107 11:-0.014058 12:0.52609 13:0.77542 14:0.68145 15:0.46066 16:-0.042552 17:0.05591 18:-0.006946 19:-0.11817 20:-0.070337 21:-0.04914 22:-0.30003 23:-0.062308 24:0.28597 25:-1.4569 
1.0 1:0.082109 2:-1.0202 3:0.69334 4:-0.25629 5:1.0663 6:0.1992 7:7.3271 8:2.8632 9:1.924 10:-3.9591 11:-4.2376 12:-5.0016 13:-6.1448 14:-6.9756 15:-6.4616 16:-3.4084 17:-1.3991 18:-2.098 19:0.4041 20:-0.36591 21:-0.57246 22:-0.20816 23:-0.16291 24:-0.91468 25:0.17769 
1.0 1:0.13011 2:-0.3171 3:5.4786 4:1.967 5:-1.5444 6:-0.079368 7:-0.52733 8:-0.63958 9:-1.2575 10:-0.41355 11:-1.7653 12:-1.2464 13:-0.47687 14:-1.2817 15:-0.40874 16:0.56421 17:-0.14802 18:-0.27174 19:0.46508 20:-0.44933 21:-0.3059 22:0.73072 23:1.8051 24:-1.1083 25:2.2187 
1.0 1:-0.048761 2:0.13305 3:0.76177 4:-0.18259 5:-0.15256 6:1.8211 7:2.977 8:1.0179 9:3.2286 10:0.1616 11:-3.0136 12:-3.0306 13:-3.2967 14:-3.6538 15:-4.418 16:-3.5944 17:-4.2156 18:-3.0273 19:-2.0065 20:-1.7614 21:-1.4125 22:-0.096913 23:-0.4927 24:0.29099 25:0.1371 
0.2528994096200486 1:-0.2289 2:-0.010395 3:0.067894 4:0.1469 5:0.044264 6:0.39473 7:1.2781 8:1.2219 9:0.59697 10:-0.28538 11:0.39309 12:0.6267 13:1.9674 14:0.97099 15:0.7182 16:0.60039 17:-1.9271 18:-1.0788 19:-0.34906 20:0.23702 21:0.21204 22:-0.083692 23:2.0694 24:0.73144 25:-0.44373 
1.0 1:-2.5016 2:-0.4117 3:0.04681 4:0.12527 5:-0.368 6:-0.99342 7:-1.1239 8:-0.92764 9:-0.45099 10:-0.70941 11:0.2609 12:0.070177 13:1.3852 14:-0.40808 15:0.035039 16:2.0827 17:-2.4853 18:1.9521 19:1.3781 20:-2.4378 21:3.4268 22:2.6836 23:-3.6423 24:-0.22958 25:3.0099 
1.0 1:-1.7 2:0.36193 3:1.9723 4:-0.66317 5:2.4321 6:1.9604 7:-3.3799 8:-4.0881 9:-1.5834 10:-0.91072 11:-2.4099 12:-3.3829 13:-2.7839 14:-2.6112 15:-1.1654 16:-0.88062 17:-1.902 18:-1.5219 19:-0.89529 20:0.036407 21:1.0786 22:-0.016782 23:0.078499 24:2.1297 25:2.2465 
0.03766724575152425 1:1.0972 2:-0.067771 3:-0.31422 4:0.019794 5:-0.51869 6:-0.336 7:-0.10416 8:0.71197 9:1.8921 10:0.49221 11:0.76512 12:0.14841 13:0.73269 14:0.16461 15:1.0354 16:2.5359 17:1.5645 18:2.5536 19:0.59309 20:0.96344 21:0.6951 22:1.562 23:0.19366 24:0.81109 25:0.35184 
1.0 1:-10.3539 2:-7.6804 3:-3.0393 4:-0.093 5:-0.052211 6:-0.080479 7:-1.8618 8:3.8837 9:-0.52712 10:0.66328 11:0.95366 12:-1.5484 13:-4.3992 14:-2.9347 15:-3.4252 16:-4.0807 17:-3.9593 18:-4.0565 19:-4.4941 20:-2.8671 21:-1.2819 22:-1.8096 23:-1.1331 24:-0.8906 25:-5.5463 
0.12738030660956215 1:-1.5662 2:-1.9405 3:-1.9034 4:-0.95624 5:-1.4431 6:-0.82293 7:-0.48661 8:-0.36819 9:-0.56962 10:-0.45374 11:-1.4129 12:-2.0393 13:-1.1896 14:-0.73336 15:-1.0153 16:-0.90595 17:0.30235 18:-0.22597 19:-0.28953 20:0.39197 21:1.8489 22:1.3563 23:0.20981 24:0.090539 25:-1.6633 
1.0 1:-11.2265 2:-8.6465 3:-8.8034 4:-10.1881 5:-2.2568 6:0.026011 7:0.79416 8:0.33041 9:0.16236 10:-1.2555 11:2.2445 12:0.41808 13:1.1994 14:1.5318 15:-0.10964 16:-1.5086 17:-4.252 18:-4.0757 19:-2.3359 20:-2.2663 21:-3.0482 22:-3.0513 23:-2.7687 24:-2.6111 25:-10.8301 
1.0 1:-1.6571 2:-1.0235 3:0.088888 4:0.29271 5:0.81009 6:0.30542 7:0.080913 8:0.3271 9:0.12743 10:0.53317 11:0.82231 12:-0.070874 13:-1.2614 14:0.35318 15:4.2789 16:4.0892 17:-2.2818 18:-0.085457 19:2.8526 20:-1.4894 21:-0.22825 22:-4.7007 23:0.89171 24:0.84779 25:-0.78137 
1.0 1:-8.9194 2:-5.7424 3:-4.0052 4:-2.0994 5:-1.0824 6:-0.64771 7:-0.28925 8:-0.033672 9:-1.4811 10:-1.049 11:-1.2498 12:-0.84576 13:-2.5392 14:-3.0167 15:-2.7676 16:-3.2617 17:-1.218 18:-0.34241 19:-1.3726 20:-1.627 21:-1.3672 22:-2.2545 23:-2.9646 24:-1.2209 25:-11.1301 
1.0 1:0.98341 2:1.9023 3:3.4736 4:2.986 5:3.2615 6:3.2468 7:1.2523 8:0.57589 9:-0.88455 10:-3.5524 11:-4.5277 12:-3.6384 13:-3.5984 14:-4.1171 15:-6.1553 16:-5.0917 17:-3.947 18:-4.2767 19:-2.9837 20:-2.3863 21:-2.363 22:-0.73063 23:0.63955 24:-1.5764 25:2.2696 
0.19840316135780128 1:1.4844 2:1.0438 3:1.1505 4:0.79313 5:0.15642 6:-0.37652 7:-0.68417 8:0.60304 9:0.49829 10:1.4219 11:1.1852 12:-0.53042 13:-0.6678 14:0.46791 15:0.76891 16:0.50835 17:0.98881 18:0.29297 19:0.70193 20:0.5345 21:1.3162 22:1.4161 23:0.9054 24:1.9504 25:1.7166 
1.0 1:0.039793 2:0.059507 3:-0.0055903 4:0.2792 5:1.0859 6:1.3262 7:1.4012 8:2.1711 9:2.781 10:3.1273 11:3.5406 12:3.2368 13:3.159 14:2.9588 15:3.0766 16:3.1385 17:2.8752 18:2.4324 19:2.6307 20:2.4128 21:2.8423 22:2.5721 23:2.7669 24:2.3104 25:-0.18051 
1.0 1:-4.4643 2:-4.1313 3:-0.95285 4:-1.28 5:-2.065 6:-0.40052 7:-1.1116 8:-0.89046 9:1.1161 10:1.5956 11:2.3277 12:2.7116 13:3.9759 14:3.9796 15:4.153 16:5.7074 17:4.1089 18:1.96 19:0.36756 20:-0.1149 21:-0.38752 22:-0.33697 23:0.046924 24:-0.020062 25:0.81735 
1.0 1:3.4645 2:3.3183 3:3.4506 4:3.4198 5:3.0594 6:2.8186 7:2.2027 8:1.6759 9:0.33039 10:0.30591 11:1.0966 12:0.68231 13:-0.40956 14:-0.66654 15:0.16385 16:0.57818 17:-0.055835 18:-0.38597 19:-0.41655 20:-0.23086 21:-1.1239 22:-0.10696 23:-1.0959 24:-1.0494 25:4.3489 
1.0 1:5.7663 2:0.055142 3:-2.4531 4:0.097254 5:0.49127 6:0.22934 7:-0.32298 8:-2.6719 9:1.2645 10:-0.84326 11:-0.46378 12:-0.025034 13:-1.3419 14:-3.1748 15:-1.2345 16:1.5137 17:1.5952 18:2.1431 19:1.4267 20:2.5171 21:4.1111 22:3.0163 23:3.2365 24:4.3168 25:6.3732 
0.5282362642557302 1:-2.0922 2:-1.8379 3:-2.4659 4:-2.4844 5:-0.15984 6:0.42167 7:1.0727 8:-1.7577 9:-0.60102 10:-0.88753 11:0.34936 12:0.84603 13:-0.47162 14:-0.51563 15:0.71123 16:-0.18558 17:-1.4396 18:0.40348 19:-0.16518 20:-0.59624 21:0.35038 22:0.25361 23:0.2956 24:0.68038 25:-1.5489 
0.021115546168002063 1:-0.68439 2:-0.3337 3:-0.37687 4:-0.71802 5:-0.73694 6:-0.83017 7:-1.0621 8:-1.1463 9:-1.0916 10:-1.6016 11:-1.8654 12:-1.3895 13:-1.1618 14:-2.2367 15:-2.653 16:-2.5248 17:-2.2468 18:-2.1161 19:-2.3067 20:-1.8621 21:-1.6651 22:-1.8282 23:-1.2589 24:-0.99899 25:0.11304 
0.48816313254691024 1:-0.38797 2:-0.41568 3:-0.92231 4:-0.46486 5:-0.96025 6:-1.2975 7:-0.82369 8:-1.8181 9:-2.8296 10:-2.7004 11:-2.4689 12:-1.7358 13:-0.99859 14:-2.3052 15:-3.0302 16:-0.69995 17:-0.13712 18:0.24916 19:0.69388 20:1.6406 21:1.4295 22:1.2852 23:1.2103 24:1.1445 25:-0.13987 
1.0 1:1.4535 2:1.6061 3:1.0729 4:-0.60216 5:-2.5161 6:-3.3297 7:-3.849 8:-3.8469 9:-3.3794 10:-2.0287 11:-0.52303 12:0.69991 13:0.46527 14:-0.29046 15:-0.60729 16:-0.29476 17:-0.11279 18:0.42152 19:0.35606 20:-0.36525 21:-0.2594 22:0.57853 23:0.064669 24:-0.032072 25:1.4371 
1.0 1:-5.9879 2:-5.738 3:-4.1026 4:-3.5343 5:-4.6444 6:-0.95723 7:2.225 8:1.2252 9:1.5583 10:1.7047 11:-0.74342 12:1.707 13:1.4476 14:-3.8148 15:1.615 16:1.1547 17:-0.57161 18:-0.55248 19:-0.94755 20:-0.97108 21:-0.37571 22:-1.5044 23:-0.46537 24:0.31609 25:-2.987 
1.0 1:0.87936 2:1.0874 3:1.8278 4:2.2381 5:2.122 6:2.1871 7:2.428 8:2.1376 9:0.51509 10:0.28612 11:-0.35378 12:-1.4272 13:-3.1367 14:-1.5932 15:-1.3108 16:-1.838 17:-0.52245 18:-1.6909 19:-1.0477 20:-2.4847 21:-0.95271 22:-3.3895 23:-2.5292 24:-1.5485 25:1.3735 
0.7935876757351936 1:0.10798 2:-0.47006 3:0.41415 4:-0.43007 5:-1.958 6:-2.6303 7:-2.9996 8:-3.1287 9:-3.5945 10:-3.4021 11:-3.6387 12:-3.6844 13:-3.23 14:-2.9601 15:-2.0096 16:-0.98034 17:-0.4636 18:-0.11654 19:0.056057 20:0.11489 21:0.09891 22:0.09076 23:0.13745 24:0.11801 25:0.58931 
0.1587447574407875 1:0.35677 2:-0.43377 3:-0.67364 4:0.82131 5:0.97071 6:1.0418 7:1.452 8:1.1296 9:1.1384 10:2.3566 11:2.8314 12:2.9622 13:1.9401 14:2.2012 15:1.7354 16:1.1569 17:0.53182 18:0.33386 19:0.29626 20:0.28487 21:0.07188 22:0.044395 23:0.1674 24:0.25488 25:0.93445 
0.6186784107693275 1:1.8441 2:2.2331 3:1.8034 4:0.02462 5:-0.62229 6:-0.28459 7:0.33805 8:0.42012 9:0.63665 10:0.75528 11:1.0944 12:1.459 13:1.9984 14:2.4135 15:2.6199 16:2.4141 17:2.102 18:1.5656 19:1.0364 20:0.69997 21:-0.36174 22:0.15962 23:-1.0479 24:-1.0636 25:2.0778 
0.08349191371984424 1:-0.039814 2:0.02949 3:-0.084493 4:-0.32535 5:-0.3978 6:-0.054727 7:-0.37387 8:-0.63862 9:-0.20644 10:-0.18507 11:-0.11604 12:0.032217 13:-0.050571 14:-0.093543 15:-0.13408 16:0.019568 17:-0.14546 18:-0.5796 19:0.11854 20:1.6181 21:1.3693 22:-0.81128 23:-0.61697 24:2.6459 25:-0.11582 
0.9937191708926665 1:-0.47003 2:-0.42929 3:0.83286 4:0.43814 5:1.0718 6:1.6313 7:0.09775 8:-1.2128 9:-1.4544 10:-1.9926 11:-2.8681 12:-3.4523 13:-3.8061 14:-4.3705 15:-4.8066 16:-4.382 17:-3.9974 18:-3.853 19:-3.0648 20:-1.9163 21:-1.3571 22:-1.0906 23:-0.7828 24:-0.72868 25:-1.6564 
0.47481600653192085 1:-1.1229 2:-0.96676 3:-0.85493 4:-1.0753 5:-1.3725 6:-0.52646 7:-0.23293 8:-0.51203 9:-0.49876 10:-0.98172 11:-0.74822 12:-1.2425 13:-1.9288 14:-2.8797 15:-2.4295 16:-1.4999 17:-1.8712 18:-2.1957 19:-1.5059 20:-1.7797 21:-1.3849 22:-1.3203 23:-2.0077 24:-1.7818 25:-0.58419 
0.5064537198467823 1:-0.083835 2:-0.2624 3:-0.2428 4:0.11157 5:0.80074 6:1.062 7:1.0797 8:1.6375 9:2.1308 10:1.675 11:1.7652 12:1.2474 13:1.5536 14:0.87259 15:0.46793 16:-0.67746 17:-1.1915 18:-1.7521 19:-1.2935 20:-0.86837 21:-0.28382 22:0.20499 23:-1.8023 24:-1.6533 25:-0.54977 
0.21293164551982682 1:-0.64021 2:-0.59211 3:-0.04923 4:0.0036554 5:-0.15477 6:-0.35315 7:-0.25838 8:0.24236 9:-0.19122 10:-0.18491 11:0.015492 12:0.38883 13:0.22337 14:0.074558 15:0.32706 16:1.2292 17:1.1835 18:0.50325 19:-0.34378 20:-2.4177 21:-1.9277 22:-1.5791 23:0.11453 24:-0.49647 25:-0.35739 
1.0 1:-5.8706 2:-3.3373 3:-1.1609 4:-0.99779 5:-0.80847 6:-0.11756 7:0.20558 8:0.28717 9:0.70273 10:0.75064 11:0.97369 12:0.94113 13:1.1695 14:1.4306 15:1.1331 16:0.94647 17:0.76188 18:0.48659 19:0.40128 20:0.4719 21:0.2641 22:0.63971 23:0.60995 24:0.53815 25:-6.9219 
1.0 1:0.22171 2:0.034895 3:0.069654 4:-0.047104 5:-0.0050544 6:0.0026048 7:-0.046748 8:-0.37622 9:0.3663 10:0.88304 11:1.024 12:0.97445 13:1.2772 14:1.4289 15:0.67096 16:0.31206 17:1.3332 18:1.4953 19:1.9071 20:0.62742 21:-0.70692 22:-3.0244 23:-4.2969 24:-4.5618 25:0.3602 
1.0 1:0.11721 2:-1.6573 3:1.2457 4:-0.58976 5:1.6965 6:-0.069468 7:-3.4685 8:-4.0755 9:-0.64547 10:0.37675 11:0.6235 12:-0.52973 13:-0.86296 14:-1.2242 15:-1.7689 16:-1.7844 17:-0.94712 18:1.2492 19:0.82347 20:0.23252 21:-0.091759 22:-0.03552 23:0.21375 24:0.26506 25:-3.0986 
0.5334512625852992 1:0.80834 2:1.1461 3:-0.67385 4:0.10226 5:0.77746 6:-0.25098 7:-1.157 8:-0.52325 9:-0.50665 10:-0.14825 11:0.3048 12:-1.8729 13:-2.6196 14:-0.53902 15:0.038497 16:-2.4554 17:-2.7052 18:-1.2251 19:0.55641 20:0.57588 21:-0.40647 22:-0.29315 23:0.97054 24:-0.54106 25:-0.50477 
0.7246688489731268 1:2.1228 2:2.6013 3:1.1147 4:-0.29073 5:-0.078805 6:0.37312 7:1.0674 8:0.91992 9:1.2037 10:1.2325 11:1.6273 12:0.92121 13:0.80075 14:1.4415 15:1.5781 16:0.90803 17:0.92375 18:2.3882 19:3.0411 20:0.65841 21:0.24714 22:1.9636 23:1.2421 24:-0.41671 25:3.4531 
1.0 1:0.16415 2:-0.14185 3:-1.2683 4:-0.58787 5:-2.057 6:-0.72096 7:-0.28565 8:-0.71645 9:-1.6413 10:0.091507 11:0.40543 12:0.83748 13:1.5395 14:2.1275 15:2.2774 16:2.3578 17:2.2593 18:3.2605 19:3.5711 20:3.8224 21:3.9294 22:4.3403 23:4.1927 24:4.4062 25:1.1572 
1.0 1:0.64793 2:0.30381 3:0.57827 4:1.2141 5:1.3063 6:1.532 7:1.8829 8:1.0795 9:1.5023 10:1.9327 11:2.2093 12:3.0091 13:4.0229 14:4.6143 15:7.0695 16:6.5616 17:5.5873 18:3.9475 19:2.8779 20:1.5818 21:0.86147 22:0.37741 23:0.27983 24:0.1418 25:0.66509 
0.321888299857072 1:-0.63126 2:-0.60388 3:0.12508 4:-1.4756 5:-1.1882 6:-0.20092 7:-1.0563 8:-0.90881 9:-1.4395 10:-2.0821 11:-2.1677 12:-1.7181 13:-1.3878 14:-0.76635 15:0.48151 16:1.4403 17:1.9504 18:1.6411 19:1.1278 20:0.60982 21:-0.39543 22:-0.10109 23:0.86695 24:0.81601 25:-0.1686 
1.0 1:0.35926 2:0.017531 3:0.53701 4:2.1049 5:3.112 6:4.9507 7:4.6064 8:3.7939 9:2.9001 10:2.6026 11:0.087858 12:-1.2871 13:0.80087 14:0.74131 15:0.24578 16:-0.039905 17:-1.4987 18:-0.49604 19:-0.35903 20:-0.62441 21:1.5782 22:0.6861 23:0.19494 24:0.27796 25:0.30794 
0.35752225585133357 1:-1.3738 2:-1.8395 3:-0.80812 4:0.48188 5:-0.62983 6:-1.9433 7:-2.0581 8:-1.5863 9:-1.434 10:-1.8725 11:-2.4367 12:-1.7083 13:-0.56839 14:-0.018901 15:-0.40724 16:-1.4049 17:-0.81131 18:1.6605 19:2.1369 20:1.0519 21:0.39946 22:0.5159 23:0.66593 24:1.2311 25:-0.4832 
1.0 1:1.1347 2:1.0215 3:0.40534 4:2.2705 5:2.3604 6:2.3658 7:2.1494 8:1.9259 9:2.3381 10:0.87133 11:1.9369 12:1.2615 13:-0.13465 14:-2.3585 15:-3.2554 16:-4.1971 17:-4.3722 18:-4.88 19:-4.6183 20:-2.6494 21:-2.1323 22:-1.17 23:0.81123 24:1.5754 25:3.5119 
0.7680341018607161 1:-0.084629 2:0.067475 3:-0.098321 4:-0.051725 5:0.067468 6:-0.31775 7:-0.54835 8:-0.35178 9:-0.055499 10:-0.6243 11:0.72333 12:-0.16914 13:-0.41317 14:0.045494 15:-0.064723 16:-0.83218 17:-1.5749 18:0.93139 19:1.7914 20:-0.33279 21:-0.27768 22:3.172 23:1.2637 24:-4.2954 25:0.38718 
0.6701958886920447 1:-0.22614 2:-0.25354 3:1.0188E-4 4:-0.14746 5:-0.011959 6:-0.38187 7:-0.69973 8:-0.91716 9:-1.5288 10:-1.963 11:-1.8945 12:-2.1674 13:-3.2444 14:-3.5377 15:-2.7786 16:-3.4475 17:-3.2229 18:-2.6293 19:-2.8455 20:-3.657 21:-2.2536 22:-0.18921 23:-0.57841 24:-0.30518 25:-0.24657 
0.008395988619656113 1:-0.78551 2:-0.18629 3:0.033242 4:0.24583 5:0.098636 6:-3.9972E-4 7:0.098747 8:0.047686 9:-0.26876 10:-0.80253 11:-0.90269 12:-1.0118 13:-0.59708 14:-0.062712 15:0.60986 16:1.6991 17:1.8937 18:1.3751 19:1.3804 20:1.4861 21:1.6265 22:1.5149 23:2.4447 24:0.61618 25:-0.64694 
1.0 1:-0.8496 2:-2.0211 3:-4.2349 4:-5.2637 5:-6.3924 6:-5.4328 7:-5.1202 8:-5.7177 9:-4.3172 10:-3.2923 11:-2.4145 12:-1.626 13:-0.63962 14:0.38594 15:1.5732 16:2.2208 17:1.4307 18:2.4655 19:3.0995 20:1.7764 21:0.29393 22:-0.29084 23:-0.49983 24:-0.24969 25:-0.45445 
1.0 1:-4.1312 2:-5.6651 3:-6.6334 4:-6.0831 5:-9.175 6:-5.0741 7:-3.4291 8:-2.8028 9:-1.4698 10:-1.1027 11:-0.26356 12:1.2981 13:1.5994 14:3.1318 15:4.1915 16:4.1141 17:3.1828 18:2.3766 19:1.5 20:-0.19028 21:-0.62483 22:0.21549 23:0.48299 24:0.28206 25:0.27375 
1.0 1:1.6252 2:1.3756 3:0.94774 4:0.725 5:0.28166 6:0.18802 7:0.31267 8:0.49646 9:0.38497 10:0.00882 11:0.032194 12:-0.027189 13:-1.014 14:-0.63446 15:0.026414 16:-0.81189 17:-3.713 18:-2.7096 19:0.37133 20:1.8602 21:2.8515 22:0.083122 23:4.1435 24:-5.9101 25:2.1024 
1.0 1:-2.8117 2:-3.6732 3:2.2646 4:-1.7471 5:-3.8369 6:-3.7817 7:-4.3014 8:-4.9775 9:-4.953 10:-2.1748 11:0.20222 12:0.41669 13:0.33012 14:1.2832 15:2.1197 16:3.0027 17:2.4851 18:1.5197 19:0.8441 20:0.93258 21:1.5572 22:2.2987 23:2.563 24:2.2547 25:-0.85444 
-0.41340040272378165 1:3.1713 2:5.0295 3:2.0201 4:1.9039 5:4.424 6:6.1317 7:-1.2187 8:0.2079 9:3.2137 10:-1.5985 11:-11.0847 12:-8.4322 13:-5.4822 14:-0.82131 15:4.6573 16:1.0257 17:4.3085 18:5.6782 19:5.0414 20:3.3387 21:-0.011082 22:0.89321 23:1.9466 24:-8.4412 25:-6.1898 
-0.3972642043970432 1:-1.3239 2:-2.1563 3:-0.5565 4:0.18029 5:-2.3301 6:0.090393 7:-0.060655 8:1.6865 9:3.5081 10:5.1026 11:5.6174 12:0.48238 13:-3.0973 14:-2.1212 15:-4.3573 16:-1.3013 17:-1.1513 18:-1.5539 19:0.016404 20:-0.85315 21:-0.54394 22:-0.69207 23:2.0121 24:2.3065 25:-0.96977 
-0.5366349973483681 1:-1.3216 2:0.4796 3:2.2233 4:0.014609 5:-1.0184 6:-1.6079 7:-2.0103 8:-2.5461 9:-0.96094 10:-1.5521 11:0.54715 12:1.3473 13:-1.6624 14:-1.9816 15:2.3713 16:2.8497 17:-0.17739 18:0.18904 19:-1.8532 20:3.9778 21:0.23271 22:-0.11547 23:-4.0102 24:1.4937 25:-2.1148 
-0.4114755150623065 1:2.4484 2:2.5256 3:-2.188 4:-0.50042 5:-7.5796 6:-9.6664 7:-4.8904 8:0.43476 9:-1.492 10:2.8195 11:3.2636 12:2.6898 13:0.73867 14:2.6049 15:2.2085 16:2.392 17:0.78886 18:4.1856 19:-6.8126 20:-10.6917 21:-4.491 22:0.59774 23:-0.075071 24:1.7853 25:2.4466 
-0.3964355080665617 1:2.1809 2:0.89115 3:2.8066 4:0.49429 5:2.2909 6:1.982 7:0.022436 8:-1.2667 9:-5.688 10:-5.1292 11:-4.2437 12:-0.0087065 13:1.9393 14:2.5829 15:2.2919 16:0.98134 17:2.7301 18:2.7945 19:2.4554 20:-1.2338 21:-3.6338 22:-2.5009 23:-9.1581 24:-6.2987 25:2.6852 
-0.41294580290766386 1:3.6007 2:1.7706 3:2.5359 4:2.9881 5:6.1056 6:-2.4248 7:1.5101 8:5.4872 9:-2.6343 10:-10.232 11:-6.7908 12:-3.7442 13:3.1162 14:2.7927 15:0.8703 16:1.5956 17:4.7437 18:6.0064 19:0.66777 20:1.6949 21:2.3815 22:0.24055 23:-9.6092 24:-8.6905 25:5.1324 
-0.41385252071902956 1:-10.9983 2:-7.3642 3:-2.8088 4:-5.7017 5:-4.2926 6:3.8795 7:1.9742 8:1.3629 9:3.2148 10:2.7374 11:4.1706 12:3.1963 13:2.7455 14:5.2077 15:-2.8508 16:-10.3567 17:-7.6589 18:-5.0856 19:-1.1589 20:1.8844 21:0.14993 22:2.76 23:5.1998 24:0.41892 25:5.9171 
-0.37501284673796276 1:2.8053 2:2.1179 3:2.8466 4:0.94134 5:-2.8972 6:-4.9465 7:-5.441 8:-4.3131 9:-0.59422 10:1.1847 11:0.96663 12:2.052 13:2.705 14:2.7011 15:1.5418 16:2.0901 17:2.6625 18:1.5405 19:-2.6874 20:-5.1701 21:-5.3622 22:-3.3448 23:0.97241 24:-1.2538 25:2.7367 
-0.4229255049922338 1:0.82953 2:3.5587 3:4.2532 4:-1.1969 5:-3.8295 6:2.1939 7:-1.34 8:-3.3291 9:-3.1547 10:0.27176 11:-0.56716 12:-0.22702 13:1.441 14:-0.91618 15:-1.9628 16:4.5424 17:-1.6764 18:6.6193 19:1.7983 20:-3.1047 21:1.6062 22:-3.2543 23:-1.7267 24:-1.2661 25:1.9437 
-0.40900190213926424 1:-4.8989 2:-2.8571 3:0.14371 4:1.5538 5:2.6085 6:-0.30469 7:-0.27106 8:1.7003 9:-1.3377 10:1.3546 11:2.1928 12:-0.03623 13:-4.5598 14:-3.1679 15:-1.8726 16:-3.1988 17:-2.9999 18:-1.051 19:-1.0338 20:-0.65997 21:0.3891 22:2.8749 23:3.8756 24:2.1377 25:-1.4252 
-0.4108832627384828 1:-1.2789 2:-3.119 3:-4.7684 4:-4.1164 5:4.8205 6:4.0257 7:6.3725 8:1.7185 9:-1.6157 10:-1.9422 11:0.80554 12:0.67483 13:-1.0166 14:-0.76028 15:-1.5916 16:-4.2465 17:-5.6152 18:4.7758 19:9.0207 20:5.9269 21:-0.11751 22:-1.5755 23:-1.0512 24:-1.9401 25:-0.49863 
-0.4114186149361225 1:-3.7916 2:-2.6654 3:0.57975 4:-2.3193 5:-0.52665 6:-3.3629 7:-4.8687 8:-3.0259 9:3.9774 10:4.2052 11:1.415 12:0.033093 13:-1.2165 14:-1.6419 15:-1.1248 16:-0.0052348 17:3.3258 18:-2.7873 19:0.97405 20:-4.2505 21:-3.266 22:1.508 23:4.0979 24:1.3614 25:-0.40315 
-0.3864087321286974 1:0.59491 2:-0.85326 3:-0.35506 4:-0.094382 5:0.73142 6:1.8889 7:2.5595 8:4.1661 9:5.4776 10:-1.4923 11:-4.0915 12:-3.2622 13:-1.2454 14:-4.0854 15:-3.2652 16:-1.4642 17:0.24039 18:0.14908 19:1.1612 20:1.7491 21:3.0775 22:3.482 23:3.2364 24:6.0261 25:-0.75418 
-0.4043104352164986 1:0.85301 2:-0.6544 3:-4.1095 4:-6.512 5:-7.3192 6:-3.4491 7:8.455 8:2.4613 9:2.558 10:3.2322 11:3.2782 12:2.0528 13:1.6878 14:3.1373 15:-0.55912 16:-4.7858 17:-6.305 18:-4.7317 19:-4.2564 20:5.7317 21:2.8021 22:1.0527 23:2.9369 24:3.0452 25:0.64662 
-0.40716219173520013 1:-2.4216 2:-1.7755 3:-3.2508 4:-0.26713 5:-0.4405 6:3.6729 7:6.352 8:2.8697 9:1.0373 10:0.30618 11:-1.6999 12:-1.5366 13:-2.2441 14:-1.2261 15:-1.7078 16:-4.7198 17:-0.24959 18:-0.74354 19:4.7225 20:7.8506 21:2.9173 22:-0.86011 23:1.6063 24:-1.0629 25:-2.9943 
-0.4130939052266664 1:-2.1324 2:-1.7123 3:-0.74219 4:-0.35155 5:-2.2128 6:3.6355 7:0.61143 8:6.3009 9:-0.97582 10:-1.9977 11:8.0456 12:3.5074 13:-5.8296 14:5.9412 15:-2.9459 16:-8.8425 17:-3.6453 18:-1.7599 19:0.11068 20:-0.91387 21:-1.4857 22:3.6421 23:1.5666 24:0.47354 25:-2.4405 
-0.4030069877690087 1:-0.42686 2:-1.1235 3:-1.6801 4:-2.0787 5:-3.0935 6:-2.781 7:-2.744 8:-2.5612 9:0.20553 10:5.8372 11:7.7448 12:2.8445 13:1.1567 14:-0.11176 15:-1.1667 16:-2.3261 17:-3.9402 18:-1.5315 19:-1.3442 20:-4.0149 21:-1.8424 22:2.182 23:2.7038 24:4.179 25:-0.82881 
-0.4160079684105475 1:0.56597 2:-0.35471 3:-0.32509 4:1.1298 5:2.1982 6:0.86651 7:2.0416 8:1.8024 9:1.0969 10:2.3076 11:1.0899 12:0.40705 13:1.2142 14:-1.5532 15:-11.0599 16:-8.9288 17:1.1748 18:-1.1253 19:2.1121 20:3.4921 21:1.9128 22:1.2114 23:1.1039 24:1.92 25:0.81493 
-0.439748009045163 1:2.9795 2:1.9868 3:0.47847 4:-0.88752 5:-0.76148 6:-1.5847 7:1.0527 8:2.3159 9:-0.77797 10:-0.070381 11:-3.011 12:-6.5213 13:-4.6683 14:-2.0096 15:-4.7944 16:1.513 17:0.34435 18:-1.1584 19:-0.032457 20:1.4396 21:0.47549 22:1.954 23:3.5211 24:-1.0799 25:-2.2279 
-0.4090482840251122 1:-1.9225 2:4.0357 3:-1.65 4:-3.6426 5:-4.1386 6:-5.959 7:-3.0388 8:-1.7052 9:0.19735 10:1.9382 11:2.1852 12:2.8533 13:4.0555 14:-1.0584 15:2.1361 16:1.6156 17:-2.1976 18:-1.6382 19:-6.1525 20:-4.0573 21:0.19318 22:-0.62112 23:1.1607 24:4.046 25:2.3608 
-0.41164009366577203 1:-0.39598 2:0.5754 3:1.4683 4:-0.91373 5:-2.164 6:0.30341 7:0.91283 8:2.2633 9:3.9403 10:-1.5444 11:-0.42096 12:-0.10815 13:-3.7819 14:-2.179 15:-3.6326 16:0.34641 17:2.2493 18:2.2578 19:-1.1277 20:0.61025 21:1.3784 22:2.9853 23:0.5511 24:6.1654 25:-2.4466 
-0.9009761877365275 1:-3.0683 2:-1.3552 3:-0.11493 4:1.1113 5:2.5942 6:2.8307 7:2.7658 8:2.2988 9:1.6347 10:1.0781 11:0.12937 12:0.22736 13:-0.90229 14:-0.010956 15:-0.65813 16:-0.56222 17:-0.47009 18:-1.0448 19:-0.69154 20:-0.87896 21:1.2566 22:2.3781 23:2.4752 24:2.4252 25:-2.6905 
-0.413600458798009 1:-2.4829 2:3.8634 3:2.6306 4:2.4998 5:2.7724 6:3.4426 7:0.65807 8:1.3594 9:4.3297 10:7.3849 11:-8.5304 12:-10.717 13:-3.9301 14:1.5614 15:1.1241 16:3.6938 17:3.0278 18:0.65743 19:0.73762 20:1.3074 21:2.4451 22:2.5151 23:-0.41252 24:-1.3227 25:-7.8756 
-0.4101179187602739 1:-3.5372 2:-3.1719 3:1.4486 4:1.2627 5:3.8491 6:4.8026 7:3.9254 8:4.0569 9:1.909 10:1.267 11:-1.2421 12:-2.6547 13:-10.024 14:-8.4718 15:-1.4375 16:0.84593 17:3.3498 18:0.84794 19:2.5596 20:5.3478 21:2.1265 22:0.64808 23:3.2034 24:3.5674 25:-8.2332 
-0.41392650198071157 1:1.9048 2:1.0566 3:1.1041 4:1.1155 5:0.22926 6:-4.3864 7:-6.3167 8:0.73454 9:-1.8944 10:-0.032751 11:3.0076 12:3.1025 13:1.0679 14:1.9216 15:3.8412 16:0.51177 17:-1.7014 18:-0.018613 19:-0.65733 20:-6.0363 21:-4.1841 22:1.4585 23:-2.5326 24:-0.15268 25:0.17261 
-0.41446301473193137 1:2.9451 2:-0.68699 3:1.7956 4:2.6137 5:1.7857 6:-0.80652 7:0.19034 8:2.5515 9:0.81175 10:-2.5678 11:0.51311 12:3.0228 13:-5.2211 14:-9.6468 15:-1.713 16:0.18659 17:-0.63594 18:3.4716 19:3.7731 20:2.5327 21:2.3036 22:-1.3546 23:-1.8978 24:-1.5567 25:-3.5611 
-0.41190224674455345 1:3.04 2:3.6117 3:4.0776 4:-0.99307 5:3.1459 6:5.3824 7:-5.4053 8:-9.6005 9:-7.3386 10:-4.048 11:-0.5897 12:2.8525 13:-0.28871 14:3.1422 15:4.0141 16:5.699 17:1.9656 18:3.7913 19:2.1853 20:2.1484 21:-9.497 22:-5.5892 23:-3.6326 24:-3.3995 25:0.56864 
-0.4067866024388341 1:-2.2158 2:3.133 3:5.2504 4:1.1623 5:1.6944 6:3.3113 7:3.7983 8:-1.9409 9:3.1587 10:3.1824 11:-0.67893 12:-12.7765 13:-6.6982 14:-5.6984 15:-2.2011 16:4.3953 17:2.9737 18:2.7662 19:2.156 20:4.0038 21:2.0637 22:4.9962 23:-0.18596 24:2.4235 25:-7.2933 
-0.4139786619095932 1:-5.3513 2:10.4331 3:9.9462 4:3.2809 5:-2.0171 6:-1.8292 7:0.12232 8:-0.80931 9:-0.75519 10:-2.9658 11:-1.1031 12:-1.9442 13:-3.8231 14:-4.6974 15:1.2889 16:5.5651 17:4.9496 18:3.8687 19:1.1701 20:-1.2553 21:-1.4698 22:1.3443 23:-1.1408 24:-3.3583 25:-3.5612 
-0.4138511392395396 1:-1.0689 2:1.9489 3:3.9278 4:3.9456 5:4.152 6:4.1555 7:3.3663 8:2.2944 9:2.9156 10:-10.7318 11:-6.0951 12:-2.1913 13:-2.7334 14:-0.28812 15:3.7417 16:5.3964 17:4.5398 18:4.9089 19:3.1294 20:2.7469 21:1.5708 22:-4.179 23:-11.5605 24:-5.8977 25:-2.6533 
-0.4137914713699549 1:0.31232 2:-0.20527 3:-1.8826 4:-4.2798 5:-11.1064 6:-8.8738 7:-6.6135 8:-0.12004 9:0.53961 10:-2.1951 11:0.32109 12:5.3223 13:3.0653 14:-0.30525 15:0.1073 16:1.6662 17:-1.6753 18:-2.1747 19:-3.6075 20:-11.2225 21:-6.7299 22:-4.1932 23:-0.71761 24:-4.272 25:1.9175 
-0.4131850118808951 1:-3.6752 2:-7.2327 3:-8.0627 4:-3.9865 5:-2.61 6:-3.1319 7:1.9815 8:2.4348 9:-0.062916 10:-0.36842 11:5.5715 12:3.8309 13:0.55139 14:3.0643 15:6.1477 16:-0.69157 17:-8.0658 18:-6.7586 19:-3.2248 20:-1.1089 21:0.48952 22:0.11503 23:0.018513 24:0.84391 25:2.3278 
-0.40990782484029625 1:3.3212 2:0.88249 3:1.8699 4:2.0247 5:0.39846 6:-0.34607 7:0.39683 8:-0.7935 9:-6.2514 10:-3.2419 11:1.0683 12:-1.6565 13:1.4695 14:5.6569 15:2.2344 16:0.92927 17:1.7111 18:1.5658 19:-0.71062 20:-1.1626 21:-1.2028 22:-6.8795 23:-8.6301 24:-2.6629 25:3.4095 
-0.462588366175857 1:0.74278 2:-1.3967 3:0.17464 4:-3.0494 5:0.010024 6:-1.7241 7:1.3036 8:-2.37 9:-0.29524 10:1.0025 11:0.61784 12:0.66044 13:-1.9596 14:-0.62696 15:5.9657 16:-0.54085 17:2.2719 18:5.773 19:3.5917 20:2.6185 21:-1.326 22:-1.546 23:0.056349 24:-1.8477 25:1.5814 
-0.40342669194817526 1:3.5331 2:2.7526 3:2.0987 4:1.1733 5:-1.3592 6:-5.0743 7:-6.98 8:-2.9941 9:-4.3017 10:1.3564 11:6.1138 12:2.1078 13:3.989 14:4.0069 15:3.6829 16:3.6834 17:2.3648 18:0.86205 19:-1.7355 20:-4.9364 21:-9.5288 22:-5.1807 23:-3.9351 24:0.98109 25:2.9124 
-0.41037688469702727 1:-3.2628 2:-1.767 3:0.2816 4:-0.21958 5:-1.1192 6:-0.72632 7:2.3008 8:-0.4045 9:-0.057367 10:6.6287 11:3.8273 12:-4.6123 13:0.86698 14:0.67416 15:-7.0224 16:-3.6284 17:-0.29405 18:-1.4717 19:-0.025056 20:0.36206 21:2.7325 22:2.5679 23:1.285 24:1.0513 25:-6.4806 
-0.4133510253875308 1:2.2791 2:-0.85018 3:-3.1752 4:-1.6476 5:-0.35223 6:-5.4441 7:-0.70303 8:0.61091 9:0.22219 10:0.59584 11:3.6449 12:1.2732 13:0.81682 14:0.54431 15:1.1364 16:2.4931 17:-2.9379 18:1.3648 19:-4.1591 20:-9.005 21:1.9307 22:-1.095 23:2.1858 24:2.19 25:2.0739 
-0.41138477583876004 1:0.75204 2:3.6049 3:-2.0061 4:0.34633 5:-0.79743 6:-6.2389 7:-3.2303 8:0.53303 9:-0.046949 10:0.54435 11:-0.18944 12:0.10943 13:-3.6375 14:2.862 15:0.70094 16:0.63673 17:4.2946 18:1.2825 19:-3.7617 20:-9.6603 21:-1.6521 22:-2.0448 23:-2.6789 24:1.6164 25:3.1762 
-0.40964293623588527 1:4.9682 2:3.9033 3:4.4324 4:2.6086 5:2.1027 6:-3.1396 7:-7.91 8:-2.9552 9:0.30579 10:-0.53756 11:-0.48911 12:3.1915 13:3.3646 14:2.8637 15:3.5807 16:2.0532 17:4.5295 18:-1.8084 19:-2.0226 20:-12.1797 21:-4.2861 22:-6.0651 23:-0.92962 24:2.4271 25:4.1423 
-0.4117238715907134 1:1.6632 2:2.8361 3:-6.2367 4:-7.7799 5:-5.5653 6:-1.4131 7:1.4395 8:2.5294 9:1.3073 10:2.92 11:3.5928 12:3.6733 13:3.2385 14:2.429 15:0.60637 16:-3.4087 17:-4.723 18:-6.4531 19:-6.9108 20:-1.5479 21:-0.69781 22:1.7449 23:3.603 24:4.709 25:2.5496 
-0.41945362577101314 1:-0.48981 2:-0.85323 3:-0.44426 4:-1.9072 5:-2.5912 6:-1.865 7:-2.974 8:4.1758 9:4.5946 10:0.64059 11:3.9435 12:-6.6417 13:-4.2753 14:-3.5946 15:-0.2344 16:-0.7963 17:-0.81606 18:-1.4634 19:-1.4003 20:1.6303 21:2.3222 22:-0.30035 23:-1.3124 24:-1.3198 25:-0.68069 
-0.40537968130875374 1:1.0176 2:-5.2321 3:-6.6576 4:-2.7981 5:0.062272 6:-0.051609 7:-1.8928 8:-0.90795 9:-2.6303 10:-1.0869 11:0.53509 12:1.4701 13:2.0111 14:2.4191 15:1.2474 16:-1.4789 17:-7.6894 18:-4.3493 19:-3.0151 20:-1.5309 21:0.50851 22:-0.88027 23:-0.32722 24:0.32342 25:4.491 
-0.4175303214279423 1:-0.72063 2:-4.3342 3:1.6216 4:1.3029 5:0.77999 6:5.2934 7:2.1034 8:1.5053 9:-0.31014 10:-0.12441 11:-0.11216 12:-0.34436 13:-0.45875 14:-0.35045 15:-3.8034 16:-3.089 17:1.5333 18:0.37935 19:4.6806 20:4.143 21:4.5946 22:-0.106 23:-5.1648 24:-2.8903 25:-0.3904 
-0.4147752950504868 1:2.4945 2:-1.1034 3:6.1959 4:2.2108 5:2.0555 6:-0.85318 7:-2.4197 8:-3.4766 9:-0.79286 10:-3.1441 11:-1.7837 12:1.5383 13:-0.74238 14:-0.38752 15:2.3134 16:0.26932 17:4.2448 18:1.738 19:4.1913 20:-1.6598 21:-2.3817 22:-2.8475 23:-5.0226 24:-2.8932 25:-0.71576 
-0.4147099743691832 1:1.2492 2:1.7881 3:4.7815 4:5.2051 5:2.1721 6:-0.81152 7:-2.8675 8:-3.4054 9:-0.68794 10:-2.1058 11:-0.69699 12:2.7543 13:1.7925 14:0.97262 15:2.1366 16:0.38505 17:1.0013 18:1.7757 19:4.7995 20:6.5515 21:3.1196 22:-2.8174 23:-5.7669 24:-3.7359 25:2.0838 
-0.4128605542610821 1:-6.9149 2:-6.8255 3:-3.8087 4:2.5106 5:2.116 6:-1.9493 7:4.0477 8:4.5628 9:3.3114 10:1.3324 11:4.0707 12:5.7948 13:-3.0256 14:-9.4349 15:-6.3243 16:-7.0398 17:1.6283 18:4.8917 19:2.2581 20:1.114 21:2.322 22:2.1936 23:1.8524 24:1.758 25:-10.7452 
-0.41448246286392143 1:-1.5663 2:0.17017 3:1.232 4:1.2975 5:0.89843 6:0.77752 7:0.73036 8:-0.23807 9:0.32081 10:1.0429 11:0.89146 12:-0.84126 13:8.7981 14:-3.9009 15:2.6578 16:-0.83579 17:-3.3157 18:-2.9758 19:-6.3106 20:-6.1124 21:-2.7209 22:-2.4481 23:-6.1449 24:2.4631 25:-0.088474 
-0.4279420799379464 1:-2.4628 2:-1.1107 3:-3.1027 4:-1.1097 5:-5.1002 6:0.78051 7:2.7672 8:2.114 9:0.95761 10:-1.7668 11:1.1648 12:2.83 13:-1.3257 14:-1.7178 15:-2.082 16:-1.8034 17:-0.77295 18:-4.855 19:-0.90451 20:4.1649 21:3.2846 22:4.2861 23:-0.81907 24:0.49773 25:-1.8575 
-0.41420204976305586 1:2.5973 2:0.78993 3:-10.9148 4:-3.3033 5:-1.4084 6:0.9805 7:-1.9353 8:1.4141 9:-1.2432 10:0.06287 11:1.9119 12:1.7918 13:3.8075 14:2.7714 15:1.2933 16:5.7227 17:4.624 18:-1.3874 19:-3.2885 20:-3.0034 21:-3.6359 22:-1.0434 23:0.85772 24:1.0023 25:2.8675 
-0.41390717518620096 1:-10.7277 2:-7.8545 3:-2.2671 4:1.4623 5:1.1523 6:2.4635 7:2.9499 8:4.5069 9:5.7593 10:5.0725 11:3.1787 12:0.94743 13:-3.6551 14:-20.4611 15:-11.2743 16:-7.0785 17:2.6735 18:4.136 19:5.4279 20:4.6947 21:4.658 22:5.3926 23:6.0007 24:4.9963 25:-9.8365 
-0.40961345803808763 1:-0.75498 2:-4.596 3:-5.2637 4:-5.8661 5:-9.6731 6:-2.6527 7:1.0211 8:-0.73066 9:1.297 10:2.0822 11:2.2704 12:1.5381 13:3.212 14:3.6067 15:-1.5578 16:-4.7222 17:-3.5258 18:0.61427 19:-2.7795 20:-2.6546 21:-0.19412 22:1.6926 23:3.1818 24:2.0379 25:3.2385 
-0.41786672650811296 1:-2.5282 2:-3.1936 3:-0.77122 4:-0.70806 5:-1.2266 6:2.9552 7:2.699 8:2.0964 9:-0.20742 10:0.88587 11:4.8016 12:1.0196 13:-2.9768 14:-0.008155 15:-5.1786 16:-5.6187 17:-2.6814 18:0.62995 19:1.4054 20:0.96144 21:0.73643 22:0.73385 23:-0.080801 24:0.56668 25:-6.7818 
-0.41342916218170156 1:0.26386 2:0.059832 3:3.7281 4:3.9314 5:-3.0506 6:-2.3528 7:4.4893 8:8.9908 9:3.2738 10:5.5214 11:2.2686 12:-5.258 13:-5.6896 14:-13.3188 15:-15.4242 16:-7.4673 17:-4.3027 18:-2.8429 19:-0.33083 20:0.75355 21:0.68877 22:-0.11303 23:-1.0787 24:-0.85871 25:-2.4376 
-0.4114209078154661 1:0.43535 2:2.7477 3:7.4726 4:5.5219 5:3.4367 6:1.3468 7:-1.166 8:-2.6322 9:-3.2817 10:-3.0804 11:-2.1537 12:-1.306 13:-2.4563 14:-1.7042 15:2.3438 16:5.0446 17:4.5973 18:0.71275 19:1.3514 20:0.30082 21:-0.81185 22:-2.7758 23:-2.681 24:-2.3731 25:-0.4959 
-0.4095446810062468 1:-1.1916 2:-1.7141 3:-1.5276 4:-1.1811 5:-6.9288 6:-6.6401 7:-1.0297 8:-0.52745 9:-0.011108 10:2.8253 11:2.1643 12:2.0552 13:2.3332 14:1.6721 15:-1.6909 16:-2.1675 17:-0.84754 18:-3.5824 19:-7.605 20:-5.5044 21:1.1572 22:-0.32335 23:-1.5016 24:3.4093 25:0.52565 
-0.44307666118821265 1:-0.29988 2:3.4792 3:3.5233 4:-0.68819 5:-4.0342 6:3.517 7:4.1273 8:-0.84234 9:-0.53183 10:2.3085 11:0.90033 12:1.8949 13:0.05039 14:-2.0709 15:-3.8138 16:0.43407 17:-0.59437 18:0.70761 19:1.9738 20:2.7951 21:1.2438 22:0.50034 23:0.54948 24:1.193 25:-1.9219 
-0.41290334102778825 1:3.5216 2:0.10572 3:-4.1515 4:-5.2877 5:-6.7564 6:-5.6434 7:2.0748 8:4.7241 9:5.2547 10:0.19624 11:-2.3988 12:-1.1751 13:-3.0295 14:1.4186 15:1.4546 16:-4.1877 17:-4.3537 18:-7.5615 19:-3.3853 20:2.341 21:2.7828 22:3.4287 23:1.8501 24:-1.0182 25:-2.0143 
-0.5697933046913883 1:3.9069 2:-0.05504 3:0.097842 4:-0.092389 5:0.51743 6:-2.6559 7:-1.2214 8:-1.9629 9:-0.72155 10:1.4434 11:0.029042 12:-2.7009 13:-0.77617 14:0.70651 15:0.66875 16:-0.21667 17:-0.20728 18:0.70028 19:-2.2554 20:-2.5528 21:-1.8739 22:-2.2856 23:1.4918 24:2.0202 25:-2.959 
-0.41350831389016907 1:-8.4011 2:-8.3012 3:-4.1185 4:5.4239 5:3.2263 6:1.9254 7:2.7097 8:3.0616 9:3.4313 10:2.9784 11:0.70523 12:1.3408 13:-10.3261 14:-7.2631 15:-4.558 16:-5.768 17:5.9421 18:4.1397 19:-1.0067 20:2.1649 21:3.4911 22:1.7731 23:1.597 24:3.0378 25:-4.2875 
-0.40346739417696126 1:4.7083 2:3.6838 3:4.1559 4:4.6863 5:4.074 6:1.8716 7:0.94582 8:-1.7104 9:-7.1504 10:-9.2105 11:-5.0286 12:-2.4682 13:0.11754 14:2.6627 15:2.8475 16:3.7647 17:3.7991 18:4.4319 19:3.2453 20:4.7602 21:4.0262 22:-4.6823 23:-6.5281 24:-4.7944 25:4.6043 
-0.413460612049875 1:-10.1232 2:-4.1331 3:-2.1154 4:-1.0245 5:0.70552 6:0.30694 7:2.6131 8:3.4555 9:2.6459 10:2.3794 11:4.0309 12:3.4705 13:-0.18919 14:-12.2428 15:-9.1945 16:0.063085 17:-0.13008 18:-0.94147 19:1.8803 20:0.95613 21:1.3173 22:-0.034954 23:0.29046 24:0.55288 25:-7.6161 
-0.4138665508225817 1:3.0026 2:3.1684 3:-8.6172 4:-8.8169 5:-4.0634 6:0.037034 7:0.48871 8:2.3901 9:-0.86378 10:-0.94167 11:-0.25976 12:1.6441 13:2.5747 14:10.6996 15:5.8175 16:3.6692 17:-0.68541 18:-2.6102 19:-11.8791 20:-6.491 21:-2.9447 22:3.3161 23:0.41936 24:1.1158 25:4.4987 
-0.4137100808456202 1:3.1874 2:3.1301 3:2.7937 4:5.0461 5:4.9693 6:6.2333 7:4.4749 8:2.9479 9:-0.41909 10:-10.013 11:-10.8691 12:-4.9923 13:-3.5658 14:-2.9872 15:0.8064 16:3.2873 17:4.7923 18:5.0162 19:6.1389 20:5.4454 21:3.3035 22:2.0978 23:-2.5839 24:-7.7014 25:-1.0946 
-0.4132120023341899 1:2.3628 2:-12.149 3:-12.0802 4:-8.3879 5:-3.1344 6:0.86296 7:4.0416 8:4.1194 9:3.1392 10:4.1752 11:4.646 12:3.729 13:2.4628 14:0.13581 15:-5.7347 16:-14.173 17:-9.8606 18:-5.9351 19:-0.97075 20:2.838 21:2.7996 22:3.5523 23:3.9273 24:5.1069 25:2.569 
-0.3905792694748133 1:-1.5811 2:-1.8577 3:1.0825 4:7.9971 5:7.0397 6:4.0862 7:0.73818 8:-1.0399 9:-1.9073 10:-1.1975 11:-2.3993 12:-3.5477 13:-2.7885 14:-4.1207 15:-2.3595 16:-0.43324 17:1.4192 18:8.4755 19:8.4009 20:1.8799 21:-1.6106 22:-1.9339 23:-2.1683 24:-2.356 25:-4.0953 
-0.4601528915357267 1:-1.6266 2:1.1576 3:0.7658 4:-1.6836 5:-0.707 6:0.020698 7:0.66765 8:-1.1424 9:-1.1669 10:4.0918 11:5.6713 12:1.3844 13:1.6712 14:-1.0807 15:-1.2421 16:2.6141 17:1.3188 18:-0.28486 19:-1.2694 20:-2.3499 21:-3.7046 22:-2.1038 23:2.2519 24:1.691 25:-0.28537 
-0.43856154404172537 1:-0.96326 2:1.0322 3:1.2723 4:3.2601 5:-0.69794 6:-2.0985 7:-3.0027 8:-3.4962 9:1.2592 10:3.5731 11:1.8081 12:-1.354 13:-1.9676 14:-3.6847 15:-2.3547 16:-1.5887 17:2.1316 18:1.9794 19:0.9336 20:-2.9545 21:-4.4252 22:-2.3601 23:-2.1576 24:-1.0302 25:-2.7164 
-0.41223286481212923 1:0.58299 2:2.0522 3:3.2975 4:1.5806 5:1.5929 6:2.5949 7:0.21394 8:-2.7526 9:0.84738 10:-2.0088 11:-12.1022 12:-5.4059 13:0.34298 14:1.3219 15:2.8837 16:4.1869 17:2.4522 18:1.8636 19:1.7718 20:1.261 21:-1.7711 22:-0.30895 23:0.27089 24:-11.231 25:0.92948 
-0.41392019925845497 1:-5.7436 2:-14.2835 3:-9.1101 4:-0.38932 5:0.81812 6:1.8319 7:3.5384 8:0.69801 9:3.9207 10:4.0647 11:1.606 12:1.2638 13:2.9614 14:2.4592 15:-6.1735 16:-8.1531 17:-10.6969 18:-11.1408 19:-14.061 20:-7.5998 21:-2.7075 22:-0.85337 23:1.2132 24:-1.0525 25:-9.5627 
-0.4034573084019525 1:2.0107 2:4.7793 3:2.2048 4:3.4045 5:2.8167 6:1.4445 7:4.2511 8:-2.5794 9:-8.0659 10:-6.2686 11:-2.7813 12:-1.1092 13:2.616 14:2.4925 15:-0.99265 16:2.6907 17:1.8615 18:2.8041 19:2.5226 20:2.3014 21:4.0618 22:-0.72122 23:-5.4888 24:-4.8799 25:3.1914 
-0.41989198837347114 1:1.0976 2:-0.038998 3:-0.45187 4:3.1425 5:2.9979 6:1.5306 7:-3.7338 8:-3.0825 9:-0.030799 10:-1.1987 11:-4.4034 12:-3.378 13:1.5184 14:2.5538 15:0.22043 16:0.36849 17:-0.3638 18:0.5219 19:2.3006 20:-4.0625 21:-0.77528 22:-5.0724 23:-5.4091 24:3.2084 25:1.7512 
-0.37504914611677603 1:1.1214 2:0.14272 3:-1.8385 4:-0.97891 5:-3.0714 6:-6.2151 7:-4.7485 8:-3.7403 9:-1.3609 10:-0.31082 11:1.8194 12:3.4965 13:2.562 14:3.0699 15:2.2863 16:1.9893 17:-0.39237 18:0.88075 19:-4.2811 20:-4.9104 21:-7.3001 22:-4.0773 23:-0.88998 24:-0.89533 25:1.7965 
-0.41355806298888154 1:4.264 2:0.15925 3:2.6638 4:3.2441 5:1.7861 6:0.39578 7:-8.1029 8:-7.4353 9:-5.66 10:0.27071 11:5.8558 12:-0.19289 13:0.72202 14:3.7567 15:2.5167 16:2.3642 17:-0.73669 18:1.612 19:4.6299 20:-7.3734 21:-6.3587 22:-7.6222 23:-4.9469 24:3.0611 25:0.89026 
-0.4152824843596391 1:5.4835 2:0.52451 3:-2.3444 4:-0.53206 5:-0.81485 6:-1.6647 7:-1.2697 8:-0.3846 9:-1.4383 10:-1.4554 11:-2.1558 12:-2.8044 13:6.727 14:6.043 15:1.3883 16:-0.84662 17:-0.53589 18:-0.29063 19:-1.79 20:-2.0994 21:-1.385 22:-2.3257 23:-1.8166 24:-2.0382 25:5.485 
-0.41280319053503883 1:6.3193 2:4.2978 3:-1.5541 4:-5.9828 5:1.6601 6:-4.5913 7:-4.3669 8:-3.5661 9:3.8741 10:3.1445 11:0.67515 12:1.1289 13:0.030432 14:-0.059129 15:5.4593 16:3.4032 17:-0.7179 18:-3.454 19:-1.5056 20:-7.0159 21:-4.591 22:-2.7126 23:1.5978 24:3.4604 25:1.757 
-0.4491013411579984 1:-1.4511 2:-0.77298 3:-0.89613 4:1.0855 5:3.2745 6:0.7606 7:-1.0071 8:1.7877 9:2.727 10:0.7469 11:-0.31646 12:-1.5885 13:-1.3713 14:-1.2899 15:0.88448 16:-1.1698 17:2.9257 18:-2.8411 19:3.6686 20:-0.52823 21:-4.0648 22:4.4025 23:2.8511 24:0.67775 25:-0.96172 
-0.44983541565962215 1:2.6123 2:-2.3887 3:1.859 4:2.2546 5:-0.67436 6:2.9063 7:4.712 8:-1.2431 9:2.3956 10:-2.3086 11:-3.6852 12:-4.7673 13:-2.4568 14:-0.66272 15:1.7484 16:1.4856 17:0.016388 18:-0.84814 19:-3.4733 20:-0.65893 21:2.2933 22:0.16502 23:-1.1346 24:-2.942 25:3.2995 
-0.4110627721432143 1:1.428 2:-2.9235 3:0.5736 4:2.5563 5:-0.032395 6:2.9729 7:2.666 8:5.4612 9:4.3084 10:-4.7653 11:-0.79516 12:-2.9519 13:-5.3204 14:-2.8058 15:-0.5259 16:1.6458 17:1.9734 18:-0.88344 19:-1.6248 20:2.8284 21:1.3541 22:-1.1992 23:4.9126 24:3.8042 25:1.1381 
-0.4126327829266597 1:4.6564 2:3.9506 3:1.5699 4:-2.2163 5:-5.9134 6:-5.925 7:-7.292 8:-3.007 9:0.63167 10:0.084759 11:0.93135 12:4.3793 13:4.8463 14:4.0427 15:3.4411 16:3.5462 17:3.3614 18:2.2086 19:0.34685 20:-9.605 21:-14.345 22:-7.1682 23:-0.59513 24:1.22 25:5.0357 
-0.4193139328989919 1:0.14831 2:2.8393 3:2.1351 4:-0.046344 5:0.73397 6:-1.1054 7:-1.2681 8:-2.9108 9:-6.3192 10:-5.659 11:-6.5106 12:-1.9111 13:-2.1953 14:0.20791 15:3.4333 16:3.503 17:1.3617 18:-0.42125 19:-0.82897 20:-0.85945 21:-0.046238 22:-0.5905 23:-2.9394 24:-4.083 25:-1.2876 
-0.39519829464617834 1:-0.90228 2:-2.2822 3:-0.66403 4:0.66588 5:0.58257 6:0.031807 7:1.5709 8:6.0718 9:5.6826 10:1.5461 11:-1.2396 12:-5.0888 13:0.15206 14:-4.8355 15:-1.8183 16:-1.3601 17:0.82868 18:0.14545 19:0.53766 20:-0.037072 21:1.1953 22:3.6483 23:9.0099 24:5.2337 25:-0.32663 
-0.4493705080855845 1:1.5591 2:-0.19992 3:-1.2342 4:0.7435 5:0.6677 6:-2.6052 7:6.0794 8:1.6264 9:-0.17655 10:-3.5178 11:-4.673 12:-4.4052 13:-2.4307 14:-2.1367 15:0.6171 16:1.3928 17:-0.42427 18:-1.7722 19:-1.5832 20:-0.99619 21:0.030189 22:-0.48937 23:2.3771 24:0.39064 25:2.6488 
-0.4133673003095977 1:0.94281 2:3.4044 3:0.48064 4:-3.012 5:-5.3105 6:-5.9409 7:-6.2128 8:-1.5074 9:-2.4623 10:1.4754 11:-0.22724 12:-3.5488 13:-3.8408 14:-1.5993 15:-0.15579 16:6.4075 17:0.5459 18:-0.0042019 19:-3.378 20:-7.2529 21:-9.1163 22:-6.5212 23:-2.8952 24:-1.1017 25:-2.9526 
-0.5321951001658745 1:-2.9075 2:-2.6199 3:-2.226 4:-2.3004 5:2.4106 6:-0.27081 7:-1.181 8:-1.2149 9:-1.6407 10:-2.5399 11:-0.71899 12:-0.18651 13:1.852 14:4.3417 15:-0.12071 16:-2.1168 17:-1.98 18:-3.5034 19:-1.2811 20:2.1066 21:0.65432 22:-2.2186 23:-1.4483 24:-1.1343 25:-1.6407 
-0.4065104966685818 1:-7.0663 2:-4.0816 3:1.1261 4:-0.18833 5:4.0367 6:3.1489 7:2.7502 8:0.66391 9:1.6714 10:1.4181 11:0.89543 12:1.4927 13:0.73883 14:-0.20215 15:-7.5985 16:-2.1859 17:-2.2713 18:0.11219 19:6.0348 20:2.8633 21:1.011 22:1.2947 23:0.93676 24:4.345 25:-1.3349 
-0.4129188581419953 1:5.225 2:5.4309 3:6.4765 4:2.7855 5:-2.4427 6:-6.5205 7:-3.029 8:-5.6478 9:-7.7636 10:1.4725 11:2.3314 12:1.5844 13:3.8794 14:4.0629 15:3.5185 16:5.6871 17:5.6631 18:5.607 19:0.87104 20:-2.6244 21:-5.4793 22:-4.9837 23:-4.0908 24:-1.7701 25:3.7082 
-0.45596343267043604 1:-0.2459 2:-0.695 3:-0.76169 4:0.56509 5:1.1073 6:1.1598 7:2.5094 8:2.4824 9:0.89654 10:-0.21793 11:-1.0799 12:0.40758 13:0.25748 14:0.44216 15:2.0149 16:4.6168 17:-2.5198 18:-0.91326 19:1.5755 20:-0.099458 21:-3.0345 22:-0.0086139 23:4.6203 24:-7.7362 25:-0.30031 
-0.3965463652605072 1:0.61396 2:-3.7615 3:-5.2009 4:-4.2483 5:-6.904 6:-0.77659 7:3.5181 8:0.61991 9:3.5315 10:3.3039 11:3.7371 12:4.6612 13:-0.61865 14:1.5021 15:-0.024361 16:-8.7605 17:-6.3255 18:-5.0105 19:-2.9208 20:3.3865 21:2.435 22:3.1162 23:2.9512 24:2.9701 25:0.27646 
-0.4112991141829162 1:-0.34521 2:3.1258 3:3.7587 4:3.3342 5:2.5345 6:2.0365 7:3.337 8:3.7047 9:2.14 10:0.79591 11:0.35321 12:-13.9256 13:-9.8855 14:-3.6967 15:-0.23128 16:2.01 17:4.1175 18:3.8285 19:4.3386 20:4.926 21:5.3038 22:3.9573 23:-0.050173 24:-3.8376 25:-7.0967 
-0.4125600555186258 1:0.53122 2:-11.7165 3:-5.5038 4:-6.5479 5:-1.0083 6:4.9064 7:1.1462 8:1.8308 9:4.013 10:3.3454 11:2.3866 12:2.0084 13:5.6279 14:6.0538 15:-2.6046 16:-13.8571 17:-8.3379 18:-5.299 19:-1.2622 20:3.749 21:1.5008 22:1.4528 23:3.8323 24:5.2978 25:4.9423 
-0.41141335303220555 1:-2.1629 2:0.95327 3:0.19562 4:2.0013 5:2.957 6:1.3589 7:2.7739 8:0.76391 9:0.80346 10:2.4219 11:-2.3374 12:-4.0493 13:-2.5761 14:-9.9324 15:-5.408 16:4.4247 17:0.16789 18:0.63588 19:3.0116 20:3.1642 21:2.2725 22:3.796 23:2.2684 24:0.26952 25:-7.0979 
-0.40244006798956544 1:-2.8784 2:-5.2019 3:-1.4208 4:3.003 5:4.2035 6:4.1093 7:5.4486 8:1.2961 9:-2.7952 10:-0.55203 11:-1.5351 12:-2.0436 13:-2.4838 14:-2.5794 15:-2.7028 16:-3.4127 17:-0.85729 18:4.0506 19:7.8362 20:7.3107 21:2.8525 22:-1.9839 23:-2.2935 24:-2.4736 25:-2.0147 
-0.405713189145031 1:2.4228 2:0.10717 3:1.3641 4:-1.7495 5:1.562 6:-5.3999 7:-2.547 8:-2.556 9:-0.73108 10:-0.40455 11:2.5432 12:3.1873 13:2.0926 14:0.94289 15:4.4177 16:2.4624 17:3.3805 18:-3.7678 19:-2.5492 20:-11.5039 21:-3.9119 22:-3.5731 23:-0.30778 24:0.84275 25:1.7773 
-0.40855924268901467 1:2.9599 2:2.5458 3:3.2652 4:1.4901 5:1.7963 6:1.7729 7:-0.21031 8:-0.47147 9:-3.2786 10:-8.4713 11:-6.113 12:-5.9252 13:-1.0764 14:2.6147 15:2.1304 16:1.4437 17:1.5527 18:1.6913 19:2.8063 20:1.5242 21:-1.6284 22:-8.5913 23:-7.8566 24:-7.0894 25:3.9476 
-0.4136364584921662 1:-2.711 2:-0.12066 3:1.1188 4:-1.6987 5:-1.8143 6:2.352 7:0.96058 8:-0.70463 9:-0.18877 10:6.8018 11:0.90986 12:-12.3786 13:-2.0278 14:4.4743 15:-1.1942 16:-7.1881 17:-3.5608 18:-0.51671 19:0.54836 20:0.24076 21:0.82797 22:2.2447 23:3.5166 24:2.3124 25:-4.0708 
-0.4249260532858155 1:2.7677 2:1.4471 3:0.36168 4:2.3869 5:2.5497 6:-0.47026 7:-1.7099 8:1.2215 9:-4.7081 10:-4.8214 11:-3.7728 12:0.91495 13:0.11084 14:1.5054 15:3.787 16:2.4491 17:0.091564 18:-0.069857 19:1.7288 20:-1.4447 21:-0.76201 22:1.2902 23:0.37874 24:-5.4979 25:2.9717 
-0.4132640250790113 1:6.8482 2:0.79726 3:5.9056 4:-2.5786 5:-0.17999 6:-4.0645 7:-2.867 8:-1.0575 9:0.68059 10:1.3848 11:-0.75134 12:3.0277 13:2.6206 14:-0.8628 15:-0.046522 16:6.8228 17:-1.0792 18:-2.794 19:-2.3088 20:-6.4123 21:-5.0693 22:1.3132 23:2.3725 24:2.2747 25:-1.1672 
-0.40704284588912265 1:-4.3987 2:2.1538 3:4.5615 4:7.3103 5:6.8178 6:1.6959 7:-0.74412 8:-0.4496 9:-1.7218 10:-2.4229 11:-0.80588 12:-2.4852 13:-0.90399 14:-1.5665 15:-5.0628 16:-0.84436 17:4.8919 18:5.8059 19:2.9704 20:1.247 21:0.35227 22:-0.32203 23:-1.1436 24:0.048315 25:-3.1109 
-0.41015674579846034 1:-1.9681 2:-2.1981 3:-0.69365 4:0.50808 5:0.19669 6:-2.2141 7:-3.4541 8:3.02 9:7.2877 10:5.3374 11:2.6925 12:-1.6674 13:-1.4596 14:-0.7644 15:-1.5234 16:-2.6676 17:-2.015 18:-1.2227 19:-1.8415 20:-3.2516 21:-3.4954 22:5.0413 23:8.3103 24:5.4024 25:-3.7353 
-0.41403710719186154 1:2.9397 2:1.3687 3:0.9488 4:2.8488 5:1.4362 6:-0.69361 7:-0.63785 8:-3.5359 9:-4.5945 10:-1.4974 11:-0.8221 12:5.2648 13:5.9885 14:3.7878 15:1.0535 16:2.7388 17:2.3692 18:1.4197 19:-3.198 20:-0.95389 21:-1.1186 22:-3.5124 23:0.2721 24:-13.6689 25:6.2225 
-0.4139427266558757 1:-8.4477 2:-6.5784 3:-5.318 4:-5.3782 5:-1.5783 6:2.677 7:3.8945 8:3.2231 9:3.3136 10:3.8364 11:3.6205 12:2.8568 13:1.8098 14:-3.5707 15:-10.8104 16:-7.1586 17:-2.9997 18:-0.49355 19:2.1708 20:3.8932 21:3.3104 22:3.9261 23:4.0121 24:4.2915 25:1.0937 
-0.41180549431017316 1:1.768 2:0.29686 3:-2.5928 4:-8.6016 5:-3.6902 6:1.6962 7:0.68854 8:4.8261 9:1.7799 10:2.551 11:0.46495 12:1.5262 13:-0.10236 14:3.7039 15:0.16574 16:-0.59448 17:-1.0678 18:-8.0354 19:-3.7589 20:1.3127 21:1.5649 22:3.6279 23:1.7458 24:0.68236 25:-1.7616 
-0.40123547417025685 1:1.0145 2:-4.4872 3:-7.372 4:-3.3222 5:-4.1093 6:-0.75979 7:1.6711 8:2.436 9:2.485 10:3.5828 11:2.6308 12:3.4138 13:4.5709 14:1.3594 15:-2.8434 16:-5.9672 17:-6.8713 18:-1.3224 19:-1.9733 20:0.16355 21:2.2653 22:3.5707 23:2.1883 24:2.2019 25:3.5776 
-0.655329752186479 1:2.8183 2:-2.0388 3:1.5972 4:1.3064 5:-0.51332 6:-0.63232 7:-3.4687 8:-1.4595 9:-0.31576 10:2.2525 11:-0.21014 12:-2.3611 13:1.4624 14:1.0433 15:0.77437 16:-0.2714 17:1.9039 18:0.48659 19:-3.6763 20:-0.60218 21:0.44096 22:0.92545 23:-0.2361 24:-0.61491 25:0.13459 
-0.4138609563857788 1:1.0107 2:-0.58085 3:0.19564 4:3.6794 5:3.0269 6:4.0265 7:2.4043 8:5.2241 9:0.44762 10:-8.8814 11:-7.5674 12:-3.851 13:-2.3902 14:-0.67538 15:1.6448 16:0.014921 17:1.5927 18:2.3762 19:3.8239 20:2.2947 21:1.5428 22:2.435 23:7.6406 24:-5.8919 25:2.5919 
-0.41412626144373943 1:-4.0046 2:-0.94068 3:-5.0282 4:-0.77163 5:1.1319 6:0.69773 7:2.3649 8:1.8113 9:2.5818 10:2.6142 11:3.5627 12:5.1286 13:8.5634 14:3.6103 15:1.3072 16:-6.7184 17:-0.40803 18:-4.1143 19:-3.9041 20:-3.5075 21:-0.072713 22:0.4599 23:0.21374 24:0.10869 25:-5.1901 
-0.4581083076265592 1:-0.24182 2:2.4112 3:-0.59869 4:0.10907 5:-0.27063 6:2.4697 7:0.44692 8:0.29247 9:1.9507 10:2.9168 11:-0.043911 12:-2.7962 13:2.3186 14:-5.0281 15:-3.0513 16:-0.092031 17:0.98911 18:-1.8193 19:1.1869 20:0.75163 21:2.1518 22:1.098 23:2.3185 24:-1.5901 25:-4.0613 
-0.4631534930166314 1:0.86243 2:-1.9426 3:1.1815 4:-1.8054 5:-2.3001 6:-0.39592 7:0.051816 8:-1.0388 9:-0.3992 10:1.5836 11:1.4877 12:1.034 13:2.647 14:4.4257 15:2.7655 16:-0.96239 17:0.060219 18:-5.8272 19:-1.9165 20:-0.43764 21:1.3773 22:0.12675 23:-0.563 24:1.4977 25:3.5556 
-0.4137925423587962 1:5.1271 2:4.0462 3:0.53964 4:-0.08826 5:-3.8109 6:-7.6504 7:-10.1967 8:-3.7282 9:-2.2395 10:4.7706 11:2.0226 12:6.403 13:6.3828 14:3.8764 15:3.994 16:0.49952 17:-2.8058 18:-6.2759 19:-9.8448 20:-7.0272 21:-11.9064 22:-4.4868 23:-1.3919 24:-0.52734 25:4.6883 
-0.40862982908567846 1:0.54475 2:-1.9219 3:-1.9355 4:-1.6114 5:-2.5395 6:-1.6963 7:-2.2498 8:-0.21649 9:3.0999 10:8.7067 11:2.468 12:-4.5973 13:-1.4844 14:-0.13841 15:-0.99135 16:-2.6553 17:-0.1816 18:-2.2037 19:0.048301 20:-3.8194 21:-3.8406 22:1.8991 23:3.636 24:-0.16282 25:2.3842 
-0.4042355545225446 1:1.4558 2:0.8983 3:1.0293 4:0.72376 5:0.84809 6:3.0154 7:2.9386 8:1.4831 9:-5.0375 10:-7.6946 11:-7.6368 12:-1.9303 13:4.0152 14:1.7848 15:1.3927 16:0.24567 17:1.0613 18:2.0436 19:1.612 20:2.4192 21:1.318 22:-0.56517 23:-10.3883 24:-7.5186 25:1.4169 
-0.39918715017376005 1:2.4848 2:2.6332 3:2.1525 4:2.529 5:1.3264 6:-1.0487 7:-1.8227 8:1.0161 9:-5.4631 10:-6.3899 11:-5.5635 12:0.15335 13:4.8741 14:-0.90801 15:5.0056 16:0.25879 17:2.486 18:-0.42989 19:0.6742 20:3.6707 21:0.11627 22:0.67657 23:0.53691 24:-6.2015 25:3.5412 
-0.41594233405217074 1:-1.3584 2:-1.3215 3:0.45389 4:0.4903 5:0.060308 6:2.0715 7:4.2044 8:6.3144 9:7.0045 10:-1.0176 11:2.2513 12:-3.5506 13:-4.0971 14:-9.3363 15:-7.3837 16:-7.6386 17:-7.8927 18:-5.1781 19:-1.7094 20:-0.82156 21:-0.42994 22:-1.6403 23:-2.1368 24:-0.89832 25:-2.1496 
-0.41378634675704007 1:-0.096767 2:3.5098 3:3.5106 4:6.0634 5:6.1985 6:5.2015 7:4.1594 8:0.51345 9:3.2407 10:-6.4771 11:-8.485 12:-6.7133 13:-4.8811 14:-2.5985 15:-2.769 16:0.53927 17:0.26597 18:0.59216 19:1.138 20:3.1473 21:5.9445 22:3.9981 23:3.6146 24:6.3417 25:-1.6815 
-0.4130917629574711 1:3.1086 2:-0.31326 3:-3.6816 4:2.2645 5:-5.7074 6:-9.6173 7:-6.5055 8:5.8369 9:-0.51365 10:-0.21661 11:3.4948 12:2.0769 13:1.5823 14:0.055587 15:-0.33597 16:-0.90309 17:-2.0787 18:-1.0092 19:-3.5777 20:-6.9534 21:-6.6803 22:1.1874 23:3.5661 24:1.1762 25:3.0835 
-0.4138759055634882 1:1.2919 2:-1.2505 3:4.2289 4:3.5268 5:-1.7969 6:-13.2003 7:-10.7364 8:-3.2578 9:0.68093 10:8.5028 11:1.8298 12:-0.73832 13:3.2038 14:2.863 15:3.2183 16:1.057 17:3.5784 18:4.4692 19:-12.0928 20:-9.3292 21:-1.2586 22:-7.4797 23:1.0618 24:2.0374 25:4.8703 
-0.41371307411846525 1:2.7848 2:-0.83519 3:-8.5778 4:-12.3618 5:-7.0164 6:-3.7436 7:-2.2718 8:1.8137 9:4.4817 10:4.7976 11:5.0478 12:5.4501 13:5.7194 14:5.2455 15:3.6064 16:-6.0068 17:-10.6964 18:-6.3906 19:-2.2193 20:-3.413 21:-2.5728 22:4.245 23:6.1223 24:6.1298 25:5.6044 
-0.4135857867575 1:-9.7822 2:-7.0632 3:-3.2695 4:-3.1789 5:-4.2493 6:0.5559 7:5.0762 8:3.0684 9:2.1052 10:1.9997 11:1.3699 12:1.0583 13:-3.0336 14:-7.4466 15:-7.0731 16:-7.9132 17:-2.6723 18:-2.2537 19:-0.22256 20:0.20793 21:3.726 22:4.321 23:4.163 24:0.93425 25:-7.5171 
-0.40621392704105724 1:-4.1861 2:-2.9884 3:-4.1306 4:-2.0198 5:6.2335 6:7.748 7:7.4995 8:3.1166 9:-0.19011 10:-1.2415 11:-2.5403 12:-1.9294 13:-3.31 14:-3.6993 15:-2.1036 16:-3.7324 17:-3.2125 18:1.5791 19:5.8434 20:8.9755 21:5.309 22:1.7763 23:-0.80454 24:-0.85462 25:-3.8809 
-0.4148227959114104 1:7.5035 2:7.5287 3:4.6358 4:0.63362 5:-2.144 6:-1.8138 7:-0.045124 8:-2.0122 9:-1.7496 10:-1.6559 11:-2.4475 12:-3.1089 13:-2.1076 14:3.8643 15:4.1729 16:6.3974 17:2.0708 18:-0.95442 19:-1.6252 20:-1.6183 21:-0.52953 22:-0.58312 23:-1.8929 24:-0.73372 25:-2.2193 
-0.41305865247198315 1:2.1795 2:2.3279 3:1.653 4:1.6268 5:3.5782 6:3.9305 7:2.6846 8:3.3628 9:4.8139 10:-4.0674 11:-8.6053 12:-4.9406 13:-6.9479 14:-2.912 15:4.6443 16:1.7187 17:-0.66447 18:2.3374 19:3.8021 20:2.3051 21:3.5339 22:5.6606 23:0.070685 24:-4.0948 25:-5.5062 
-0.41300736699564755 1:0.039203 2:1.8946 3:0.81354 4:4.3912 5:3.7288 6:2.0539 7:2.3004 8:-0.86673 9:-1.2787 10:2.8553 11:2.4102 12:-11.9272 13:-9.5803 14:1.4083 15:1.0039 16:3.139 17:1.8609 18:1.4894 19:2.8658 20:3.6502 21:1.0715 22:-1.0677 23:0.4229 24:-0.63395 25:-8.5926 
-0.4312092093414901 1:0.093681 2:-0.6139 3:1.467 4:-3.0908 5:-1.5708 6:3.9216 7:2.3724 8:2.2683 9:1.7619 10:-1.0053 11:-0.5563 12:-0.70847 13:0.8477 14:-0.42156 15:-0.14417 16:-2.4547 17:0.98291 18:-2.4787 19:1.4674 20:-2.331 21:-1.3458 22:6.6224 23:2.1896 24:3.0295 25:1.3961 
-0.41066034228083886 1:3.0175 2:-2.5942 3:-5.5703 4:-2.7674 5:-1.4869 6:-1.0034 7:0.20892 8:-2.5955 9:-1.2179 10:4.1709 11:3.51 12:1.5081 13:0.015657 14:2.9025 15:-1.2832 16:-4.2512 17:-4.3042 18:-2.7664 19:-1.3648 20:-2.2853 21:-4.6887 22:4.1942 23:6.8008 24:4.8532 25:1.5375 
-0.4139999677546687 1:-0.12066 2:-2.2864 3:-0.42011 4:1.4011 5:1.678 6:2.8301 7:1.1997 8:3.475 9:-0.40095 10:-0.67244 11:3.9291 12:3.5346 13:-13.6364 14:2.0067 15:1.1062 16:-2.7874 17:-2.4735 18:-0.21372 19:-1.8204 20:-2.9912 21:3.2573 22:-1.21 23:0.58526 24:-3.0944 25:3.213 
-0.3865725634730152 1:-1.6521 2:-4.5811 3:4.6219 4:7.7716 5:6.9852 6:3.2658 7:-1.582 8:-0.82964 9:-0.78551 10:-2.448 11:-2.471 12:-2.224 13:-2.48 14:-2.4375 15:-2.2347 16:-1.4242 17:4.9772 18:7.5074 19:5.9271 20:2.0011 21:-0.75464 22:-1.2169 23:-2.1455 24:-2.984 25:0.022086 
-0.41275088243464586 1:2.8382 2:3.0766 3:3.8677 4:-1.1492 5:0.98444 6:3.3731 7:0.68619 8:-7.5049 9:-6.2545 10:-6.6376 11:-3.1193 12:6.1693 13:3.9231 14:2.6846 15:3.1856 16:3.506 17:2.9191 18:-1.3254 19:2.7429 20:3.5108 21:-7.9447 22:-7.148 23:-7.6047 24:-0.40922 25:1.9193 
-0.41385810685415875 1:6.6695 2:1.5485 3:6.0048 4:-4.7131 5:-12.0179 6:-6.1949 7:-3.7952 8:-1.3129 9:2.4917 10:1.7833 11:1.8967 12:1.253 13:5.6555 14:2.2541 15:0.4684 16:3.0508 17:2.2501 18:-0.97666 19:-8.454 20:-6.4517 21:-4.5752 22:-4.4173 23:1.383 24:3.1429 25:5.8062 
-0.4150813830911766 1:-2.8486 2:-2.2357 3:3.5299 4:-0.26249 5:-7.6461 6:2.0445 7:2.1303 8:0.5398 9:1.7507 10:3.3334 11:1.109 12:-0.56867 13:-1.7001 14:-1.9422 15:-2.8873 16:2.6341 17:2.174 18:-0.40652 19:-2.1624 20:-3.0845 21:-0.074155 22:3.3794 23:0.68024 24:1.9088 25:0.26824 
-0.41321258036862607 1:1.4704 2:3.2585 3:2.4976 4:3.2521 5:3.386 6:3.0002 7:4.023 8:2.6026 9:0.72232 10:-5.9294 11:-5.9804 12:-5.2994 13:-1.5587 14:4.1876 15:1.3544 16:1.2912 17:3.0659 18:3.3725 19:2.0478 20:2.4778 21:1.5999 22:1.6961 23:0.23109 24:-14.8174 25:2.0367 
-0.41116544165775837 1:1.294 2:1.5239 3:1.6681 4:2.073 5:0.78359 6:1.3213 7:-3.9033 8:-7.6221 9:-5.1743 10:0.16321 11:0.09333 12:3.6441 13:4.0064 14:2.3337 15:1.2704 16:1.433 17:0.44462 18:2.2387 19:-1.1805 20:3.233 21:-8.7511 22:-5.786 23:-3.4579 24:-1.1813 25:2.2667 
-0.41326448470723526 1:1.6136 2:-3.5955 3:-5.2502 4:-6.1555 5:0.72663 6:0.66601 7:4.8341 8:5.2542 9:8.0927 10:3.0701 11:2.2188 12:-0.83382 13:-5.8973 14:-5.2195 15:-2.4366 16:-3.288 17:-2.7209 18:1.5102 19:4.4748 20:3.6813 21:3.4618 22:4.6718 23:5.0327 24:4.1079 25:-1.3568 
-0.42852555308237894 1:-1.4271 2:-5.1979 3:-4.849 4:-2.9924 5:-0.56291 6:2.2101 7:1.5623 8:-0.71035 9:-2.1511 10:0.28691 11:-1.3151 12:-0.65765 13:4.6131 14:-0.32571 15:0.94802 16:-1.025 17:-5.7588 18:-4.1146 19:-2.3634 20:-1.2258 21:-0.58526 22:1.8516 23:-1.169 24:-1.127 25:-0.87442 
-0.4077748883670903 1:-13.1613 2:-6.3551 3:-0.27609 4:-1.118 5:4.3501 6:2.5774 7:0.076139 8:1.6366 9:1.496 10:-0.65376 11:-0.75739 12:1.4398 13:-0.058905 14:-2.9342 15:-6.6133 16:0.70348 17:-1.4488 18:-0.065856 19:3.5929 20:2.2283 21:2.9664 22:2.127 23:2.5057 24:1.6904 25:1.1065 
-0.4137605403433671 1:0.41929 2:-4.5043 3:-6.9879 4:-1.1477 5:-2.1804 6:2.1392 7:4.3661 8:-2.1605 9:-6.6125 10:-5.6686 11:0.57174 12:-1.3339 13:-3.4397 14:-4.0093 15:-2.43 16:-2.8212 17:2.2443 18:4.0248 19:6.6524 20:4.2632 21:0.86519 22:-5.0019 23:-2.246 24:-2.3345 25:1.0649 
-0.4139315849973461 1:-4.9152 2:-2.7385 3:-1.5345 4:-3.6749 5:-3.9984 6:7.7168 7:13.9546 8:8.1285 9:7.0136 10:3.9974 11:-1.1025 12:-5.3155 13:-5.4753 14:-7.7822 15:-6.1969 16:-6.7461 17:-4.2979 18:-1.593 19:-2.3196 20:0.46957 21:5.7259 22:6.2006 23:10.536 24:8.4522 25:-5.5158 
-0.43672599516701005 1:0.1497 2:-0.19909 3:0.42176 4:-0.47211 5:-3.556 6:-1.5704 7:-1.4274 8:5.3279 9:1.6284 10:2.9204 11:3.2195 12:2.3846 13:0.99417 14:-0.26564 15:-0.58293 16:-3.4648 17:-2.2897 18:0.49274 19:-1.5832 20:-4.6262 21:-1.1864 22:1.6574 23:2.927 24:3.7315 25:-0.46556 
-0.41289159272799225 1:-3.0809 2:-2.7926 3:-3.4306 4:0.13348 5:-1.51 6:3.5106 7:5.0589 8:-1.0157 9:-3.6363 10:-5.0788 11:-1.6356 12:0.030478 13:-2.8281 14:-4.4033 15:-5.8577 16:-3.776 17:-2.4769 18:-0.13879 19:4.5351 20:6.7321 21:5.5989 22:5.2628 23:-0.08825 24:-1.5204 25:-3.5674 
-0.41069372968012036 1:6.1142 2:-9.2646 3:-6.5785 4:-5.9491 5:-4.2726 6:1.5367 7:2.9668 8:-0.57113 9:2.9784 10:1.8815 11:2.5561 12:2.1678 13:3.2385 14:2.3519 15:0.01047 16:-9.4449 17:-7.2106 18:-3.1879 19:1.0344 20:5.0206 21:1.6023 22:0.7388 23:2.604 24:1.0332 25:2.2336 
-0.42160795534659773 1:0.19842 2:0.42949 3:0.36895 4:-3.4603 5:-1.4392 6:-1.1103 7:0.8086 8:-0.59946 9:3.6648 10:3.4355 11:0.50145 12:-0.48123 13:-1.3721 14:-0.51168 15:-0.19248 16:0.14119 17:0.15968 18:-1.8358 19:-4.8045 20:-1.3219 21:1.3975 22:2.4735 23:5.3209 24:3.1445 25:-2.7461 
-0.411641277366613 1:-4.4427 2:-5.3007 3:-4.3757 4:-1.3674 5:3.169 6:1.3681 7:2.3442 8:4.8521 9:4.2768 10:0.30089 11:0.6573 12:1.4066 13:-2.7515 14:-6.907 15:-4.8119 16:-5.3075 17:2.0168 18:4.3407 19:4.0879 20:3.9274 21:3.0504 22:1.6282 23:1.1914 24:2.1176 25:-3.1501 
-0.4079966264292433 1:-3.4223 2:1.8674 3:3.312 4:0.66685 5:0.61238 6:3.8363 7:3.0936 8:1.1555 9:1.6246 10:4.2608 11:-3.7046 12:-9.5129 13:-6.9875 14:-2.0134 15:-2.4565 16:-0.29081 17:2.6518 18:1.6417 19:1.4154 20:4.6933 21:2.7981 22:2.8643 23:2.9267 24:3.2207 25:-3.469 
-0.41233120087119685 1:-5.5713 2:-1.3935 3:3.1148 4:5.5408 5:1.4184 6:4.5585 7:2.9958 8:1.5514 9:1.7737 10:3.678 11:4.606 12:-1.5446 13:-4.9278 14:-11.6239 15:-4.7679 16:-2.418 17:1.3096 18:2.8629 19:3.3126 20:3.4718 21:2.9098 22:2.5633 23:1.6813 24:3.546 25:-7.7499 
-0.4105776810614981 1:-3.4457 2:-3.9897 3:0.55537 4:1.8981 5:3.7797 6:4.6853 7:3.4239 8:6.782 9:4.5848 10:5.1965 11:2.8486 12:-3.9943 13:-8.3536 14:-7.3029 15:-3.2597 16:-1.5677 17:1.2809 18:1.9161 19:2.2947 20:4.9766 21:4.0132 22:5.0548 23:6.5536 24:5.6022 25:-3.7677 
-0.4130627643875021 1:-0.89708 2:2.7064 3:0.60092 4:0.28973 5:0.65803 6:0.44065 7:-1.9196 8:-3.5757 9:-0.3306 10:-6.1835 11:-8.1074 12:-7.1311 13:-1.2149 14:1.7701 15:2.1373 16:1.5699 17:2.4964 18:4.333 19:2.5987 20:1.5267 21:1.9824 22:1.6324 23:-0.61867 24:-4.6846 25:-1.1693 
-0.45147182985948214 1:-3.0368 2:0.42414 3:0.98747 4:-1.1359 5:-0.11982 6:-0.76961 7:-1.8185 8:-0.51646 9:-0.06679 10:1.3361 11:2.4056 12:3.3108 13:6.5506 14:0.98645 15:-3.6336 16:-2.206 17:-0.61734 18:-1.7279 19:-1.2917 20:0.25865 21:0.082556 22:-1.7921 23:-0.62026 24:0.55177 25:-4.9037 
-0.41380749404592276 1:0.021451 2:0.12477 3:-0.59681 4:0.97397 5:-2.7454 6:-4.008 7:1.0141 8:9.9519 9:4.4373 10:-4.7392 11:5.6595 12:0.88794 13:-1.1384 14:-2.3135 15:-2.4838 16:-0.3609 17:-1.4217 18:-1.4765 19:-4.9479 20:2.8754 21:5.1365 22:5.5968 23:0.91346 24:-3.0231 25:0.037989 
-0.4311149780116176 1:-3.8513 2:-1.4403 3:-0.656 4:-4.0112 5:-1.5324 6:-0.36828 7:-0.1696 8:-0.1926 9:0.53147 10:0.038926 11:-0.22637 12:-2.3095 13:4.5258 14:3.9183 15:3.2477 16:-2.8409 17:-1.4711 18:-1.1117 19:-3.493 20:-2.3829 21:0.31527 22:-0.53249 23:-0.32323 24:2.1406 25:2.6248 
-0.41274173315640517 1:1.601 2:1.3595 3:0.68365 4:4.0243 5:7.3565 6:-0.021626 7:-6.2464 8:-3.4116 9:-3.3343 10:-1.801 11:-0.17814 12:0.64732 13:0.14924 14:0.3512 15:0.27866 16:-0.82009 17:0.27607 18:2.5358 19:3.7709 20:4.2518 21:-2.6228 22:-7.8764 23:-4.5556 24:-0.32581 25:1.9579 
-0.41393394329883004 1:2.3729 2:5.1495 3:4.0839 4:-8.0722 5:-8.1881 6:-7.0696 7:-1.8077 8:5.3356 9:-3.6366 10:2.5425 11:1.3518 12:2.4207 13:1.2356 14:1.3489 15:5.1263 16:3.4296 17:-0.43856 18:-11.1977 19:-8.8574 20:-3.0215 21:1.7779 22:3.9156 23:-1.0711 24:3.1303 25:1.6423 
-0.41731665446717225 1:1.8707 2:4.0616 3:8.0659 4:1.0341 5:-0.30372 6:-3.5174 7:-0.60685 8:-2.7053 9:-2.279 10:-1.1291 11:0.051963 12:-1.5014 13:-0.69176 14:-0.87694 15:0.2214 16:1.6011 17:4.1008 18:6.8418 19:-0.96241 20:-0.72539 21:-3.2426 22:-1.5043 23:-2.9008 24:-2.6273 25:1.5739 
-0.4131234806479762 1:2.0427 2:2.4327 3:1.735 4:-1.0687 5:-0.25678 6:1.6832 7:-6.2066 8:-9.0159 9:-5.7838 10:3.8726 11:-0.25992 12:-1.1084 13:2.5538 14:1.4301 15:1.6816 16:3.7776 17:2.1592 18:-0.87686 19:1.7872 20:0.67995 21:-12.4282 22:-8.9125 23:2.7724 24:-2.6976 25:2.8813 
-0.37983528315751725 1:-3.5928 2:-0.92322 3:0.18857 4:1.974 5:0.86412 6:0.17983 7:0.8704 8:2.9743 9:4.3845 10:6.6485 11:0.8485 12:-1.3073 13:-4.3054 14:-3.1207 15:-3.2369 16:-2.4182 17:1.1803 18:-0.11722 19:0.44351 20:0.24929 21:0.56909 22:0.47294 23:2.2123 24:4.4887 25:-2.8507 
