svm_type c_svc
kernel_type rbf
gamma 0.04
nr_class 2
total_sv 254
rho 0.6129248836530713
label 1 0
nr_sv 86 168
SV
1.0 1:-0.71318 2:-0.6703 3:-0.20161 4:1.823 5:0.83824 6:2.6553 7:1.8974 8:-0.51994 9:-2.053 10:-1.5309 11:-1.9761 12:-3.5559 13:-0.77268 14:0.576 15:2.727 16:1.449 17:1.073 18:-0.23818 19:-0.13951 20:0.012781 21:-0.24927 22:-0.3158 23:-0.4186 24:-0.28331 25:-0.21156 
1.0 1:4.6621 2:0.57344 3:-2.2051 4:-3.2723 5:-2.1018 6:-0.23543 7:0.30725 8:-1.0741 9:-0.60141 10:-0.37025 11:0.061618 12:1.2603 13:1.2438 14:1.5861 15:-0.23579 16:-5.874 17:-5.2436 18:-5.6194 19:-4.2097 20:-0.52445 21:2.2065 22:2.8798 23:3.4379 24:0.85767 25:9.6393 
1.0 1:-3.4285 2:-3.969 3:-2.5229 4:-0.40438 5:-0.4078 6:-1.3821 7:-1.3954 8:-2.9933 9:-2.3004 10:-0.9784 11:-1.963 12:-1.4282 13:1.5917 14:0.39969 15:0.12019 16:-0.31765 17:-0.62456 18:-2.3623 19:-3.1599 20:-1.6446 21:-2.1296 22:-2.1633 23:1.3375 24:0.010961 25:-4.7861 
1.0 1:0.86705 2:-7.4944 3:-19.8796 4:-12.133 5:-6.1852 6:-2.9761 7:-1.5819 8:-2.1901 9:0.40248 10:3.1305 11:2.0187 12:2.02 13:5.1928 14:5.2907 15:4.3934 16:4.4725 17:4.4675 18:3.9839 19:3.584 20:2.7127 21:1.5344 22:-0.20885 23:-1.3807 24:-2.3352 25:4.6671 
0.6639922462949532 1:-0.24602 2:-0.36384 3:-0.81202 4:-1.167 5:-1.0013 6:-0.68817 7:-0.15346 8:-0.21337 9:0.0066704 10:-0.46901 11:0.0071692 12:-0.14262 13:0.28686 14:-0.21757 15:-0.68376 16:-0.98462 17:-0.70215 18:-1.0097 19:-1.403 20:-1.8731 21:-0.52583 22:-0.84097 23:-3.3439 24:-2.6352 25:-0.29393 
1.0 1:1.7799 2:-0.13921 3:0.46111 4:0.87797 5:5.0587 6:4.2143 7:2.4081 8:2.6934 9:3.0004 10:1.8882 11:1.313 12:0.020589 13:-0.74885 14:-1.9117 15:-3.2438 16:-3.2874 17:-2.1864 18:-0.88356 19:0.22115 20:0.55848 21:0.32073 22:0.021177 23:0.35453 24:0.01105 25:1.4586 
0.25232971442986635 1:-0.69774 2:-0.50292 3:0.29756 4:0.50381 5:0.85733 6:1.0495 7:0.99625 8:1.0859 9:1.2624 10:1.3717 11:1.5521 12:1.9197 13:1.336 14:1.7956 15:2.2272 16:1.3404 17:1.1128 18:0.6129 19:-0.054819 20:0.07893 21:2.1328 22:1.9023 23:-0.36323 24:-1.7033 25:-0.79979 
0.5221223688158055 1:2.3399 2:2.4854 3:2.855 4:2.5365 5:2.1304 6:1.799 7:1.9701 8:1.4691 9:1.7075 10:1.8528 11:1.4073 12:0.9235 13:1.6465 14:1.7428 15:2.0137 16:1.6812 17:1.2065 18:0.47339 19:0.055991 20:0.21103 21:-0.13149 22:-0.2307 23:0.0050461 24:0.07325 25:1.7063 
0.008053044611094767 1:0.85 2:-0.67836 3:-0.32918 4:0.74881 5:-0.11392 6:1.0499 7:0.36431 8:0.52712 9:-1.2863 10:-1.3283 11:-0.73342 12:-1.66 13:-2.5731 14:-2.6256 15:-2.2708 16:-2.2927 17:-1.6468 18:-2.3855 19:-1.5635 20:-1.3423 21:-0.38641 22:-0.13862 23:-0.012608 24:0.067112 25:0.44268 
1.0 1:1.0111 2:-4.3387 3:-3.4074 4:-1.2235 5:-3.7394 6:-5.8174 7:-2.7371 8:-3.2285 9:-4.5546 10:-4.9827 11:-4.0398 12:-2.0956 13:-0.43542 14:0.053098 15:-0.10162 16:0.53137 17:1.1518 18:2.1467 19:2.404 20:2.2751 21:2.6983 22:3.1308 23:2.6022 24:2.102 25:1.764 
0.014372973877413186 1:0.31031 2:-0.10538 3:-0.11734 4:-0.31626 5:-0.035528 6:0.4101 7:0.13224 8:3.5369E-4 9:0.94184 10:1.6665 11:0.9072 12:1.5952 13:1.8694 14:1.0759 15:0.76859 16:1.0747 17:0.97245 18:0.89495 19:1.0894 20:1.2476 21:1.4421 22:1.7192 23:1.6804 24:1.5353 25:1.8246 
1.0 1:2.8353 2:4.9756 3:9.0616 4:13.7114 5:8.1098 6:4.0138 7:0.31936 8:-1.6756 9:0.11233 10:-1.5119 11:0.90505 12:-0.9664 13:-0.74829 14:-3.7782 15:-4.9598 16:-3.784 17:-1.2568 18:2.1509 19:2.7805 20:4.1551 21:3.8922 22:3.3854 23:3.5118 24:3.3858 25:1.6819 
0.43087855876443076 1:-1.2174 2:-2.2545 3:-3.36 4:-3.6358 5:-4.0304 6:-4.1571 7:-3.2987 8:-2.3959 9:-2.0672 10:-0.9696 11:-0.025221 12:-1.3503 13:-1.3989 14:-0.74532 15:-0.73067 16:-0.46189 17:-0.3452 18:-0.18799 19:-0.019055 20:0.058752 21:0.03838 22:0.081233 23:0.09528 24:0.087271 25:-0.60267 
1.0 1:-2.1603 2:0.51839 3:-3.2673 4:-1.2358 5:-3.8186 6:-4.0049 7:-4.7059 8:-4.925 9:-3.6245 10:-2.2427 11:-2.1207 12:0.082259 13:2.8356 14:1.5346 15:0.49346 16:-0.20903 17:0.21135 18:0.26373 19:-0.22052 20:-1.0688 21:-0.19291 22:-1.0207 23:-0.32555 24:0.52983 25:-2.7928 
1.0 1:3.1159 2:4.7802 3:1.3333 4:-2.0437 5:-2.4975 6:1.0147 7:-3.1014 8:2.2184 9:2.4081 10:-2.6691 11:-6.9749 12:-6.9631 13:-6.3869 14:-4.0987 15:-3.437 16:-0.21665 17:-4.1674 18:-2.8355 19:-1.048 20:-0.99516 21:-4.352 22:-9.4475 23:-3.9408 24:-1.9033 25:1.7904 
1.0 1:-7.5234 2:-7.1492 3:-3.1459 4:-0.73015 5:-3.0408 6:-1.877 7:-1.6675 8:-4.4106 9:-7.5053 10:-6.0156 11:-8.2887 12:-1.8005 13:-0.83019 14:-1.651 15:-1.185 16:-0.087402 17:0.94956 18:2.1226 19:1.3726 20:0.16239 21:-0.92445 22:-0.26822 23:1.0225 24:0.28755 25:-7.6493 
1.0 1:-1.1928 2:0.69719 3:10.3309 4:3.4678 5:1.7307 6:0.26554 7:-0.34252 8:-0.43856 9:0.028009 10:0.3187 11:0.80219 12:1.0792 13:1.22 14:1.1316 15:1.5768 16:1.2832 17:0.74911 18:0.84835 19:1.5862 20:0.4591 21:0.84557 22:0.81475 23:0.41529 24:0.18685 25:-5.3316 
1.0 1:2.8139 2:3.4064 3:2.2229 4:-1.6881 5:-4.6674 6:-3.3401 7:-0.71467 8:0.82432 9:4.6232 10:-1.4613 11:-7.0789 12:-7.4371 13:-8.8656 14:-5.3053 15:-2.8937 16:-2.4168 17:-4.3419 18:-2.8827 19:-2.4343 20:-3.9345 21:-3.0847 22:-1.2022 23:-4.086 24:-7.7241 25:-0.47227 
0.47981014256799115 1:-1.1586 2:-1.0866 3:-0.63891 4:-0.88291 5:-0.27231 6:1.6863 7:2.466 8:2.0116 9:2.5094 10:2.3732 11:1.7452 12:1.8324 13:0.62084 14:0.42523 15:0.84439 16:0.71874 17:-0.42609 18:0.53341 19:-0.19252 20:0.19402 21:0.47222 22:0.11377 23:0.031956 24:-0.15319 25:-1.8983 
1.0 1:-2.6072 2:-5.3919 3:-4.6428 4:-0.8096 5:-0.18337 6:-1.0473 7:2.1654 8:0.41656 9:-4.1705 10:-6.4888 11:-6.498 12:-3.2758 13:-0.86533 14:-1.0303 15:-1.6347 16:-1.5324 17:-1.6149 18:-2.7429 19:-5.9226 20:-5.9109 21:-12.0692 22:-7.8767 23:-4.8993 24:-2.7321 25:-1.6234 
1.0 1:2.0508 2:0.67224 3:-0.25078 4:-0.27199 5:-1.2361 6:-0.14914 7:0.99098 8:1.8275 9:2.4054 10:4.1852 11:2.6208 12:2.4808 13:3.8233 14:2.2383 15:2.7209 16:-0.48518 17:-0.47719 18:-0.80366 19:-1.4422 20:-2.7726 21:-0.0058502 22:-1.0548 23:3.1974 24:2.2259 25:2.0189 
1.0 1:-1.4929 2:-2.7374 3:-3.2097 4:-5.6901 5:-6.4933 6:-6.58 7:-8.732 8:-6.691 9:-2.7063 10:-1.3801 11:-0.021411 12:1.7087 13:2.174 14:3.3683 15:3.783 16:3.9644 17:3.1063 18:2.4265 19:1.3497 20:1.3667 21:0.46868 22:0.39165 23:1.0475 24:1.0477 25:-1.0713 
0.5181803683679046 1:0.23949 2:-0.68095 3:-0.61921 4:0.25167 5:2.3018 6:3.3702 7:3.903 8:3.8398 9:1.6877 10:0.52497 11:0.38499 12:0.63744 13:0.71 14:0.077707 15:0.016659 16:0.26637 17:0.85033 18:0.52953 19:0.13926 20:0.87766 21:0.67477 22:0.27489 23:-0.048104 24:0.28171 25:0.70587 
0.31228705082007463 1:0.058594 2:-0.053037 3:-0.05101 4:-0.078492 5:0.025238 6:0.43571 7:0.36013 8:0.80862 9:0.89089 10:1.2345 11:0.486 12:0.24343 13:0.093171 14:1.0618 15:0.88812 16:2.8115 17:1.6177 18:2.8681 19:2.5291 20:2.2736 21:1.2821 22:0.89608 23:0.89793 24:-0.90803 25:0.12289 
1.0 1:-5.1735 2:-3.1895 3:-1.5757 4:0.19787 5:1.7589 6:2.6595 7:2.5782 8:2.4057 9:2.5514 10:2.6585 11:2.1281 12:1.23 13:0.74165 14:0.63039 15:0.23437 16:0.10076 17:0.66612 18:0.58091 19:0.4194 20:0.30977 21:0.10001 22:0.49798 23:-0.034301 24:0.098611 25:-7.0296 
0.5133943109082268 1:0.016925 2:-1.1409 3:-0.41047 4:0.97215 5:0.050259 6:2.1968 7:0.44732 8:1.0299 9:1.5998 10:1.5946 11:0.53123 12:0.055835 13:0.043388 14:0.13212 15:0.34564 16:0.0022754 17:1.076 18:1.5648 19:1.9521 20:2.2768 21:1.6979 22:2.3235 23:1.7804 24:0.6717 25:-0.2801 
1.0 1:3.5797 2:3.2187 3:2.1281 4:3.3159 5:6.0495 6:5.3805 7:5.1862 8:3.8549 9:0.91816 10:-0.24499 11:3.5344 12:2.2448 13:1.1688 14:0.50539 15:0.3244 16:0.31508 17:0.081164 18:0.25558 19:0.09267 20:0.13732 21:0.22143 22:0.11573 23:-0.015752 24:-0.26538 25:0.56622 
1.0 1:3.4261 2:4.6098 3:2.2416 4:0.40684 5:-0.015738 6:0.038416 7:-0.62631 8:-1.467 9:-2.0842 10:-2.3586 11:-2.0993 12:-1.8274 13:-1.3878 14:-0.94267 15:-0.46402 16:-0.34338 17:-0.12525 18:0.018001 19:0.20786 20:0.33618 21:-0.029396 22:-0.30041 23:-0.31394 24:-0.5494 25:3.0854 
1.0 1:-0.15853 2:-0.091909 3:-0.14509 4:-0.13675 5:-0.092325 6:-0.26952 7:-0.20714 8:0.15935 9:-0.55624 10:-0.37069 11:-0.59349 12:0.6703 13:1.0035 14:0.44826 15:-1.0551 16:-3.0152 17:-2.4806 18:-1.7515 19:-0.42722 20:3.7019 21:5.0761 22:3.303 23:4.5417 24:2.4203 25:0.83349 
0.6811824097158488 1:0.0063965 2:0.75882 3:1.8459 4:2.2745 5:1.1238 6:0.12426 7:0.40639 8:-0.62416 9:-1.6986 10:-2.3357 11:-2.0423 12:-1.1858 13:-0.31943 14:0.038669 15:0.84045 16:-0.90057 17:3.0825 18:0.51447 19:-0.36764 20:0.097486 21:-0.0054326 22:0.71404 23:0.85044 24:0.14057 25:-0.20196 
1.0 1:0.42487 2:1.0248 3:1.4262 4:2.0543 5:4.6785 6:3.7596 7:-0.0070048 8:0.8809 9:0.92272 10:1.581 11:4.0897 12:4.9869 13:5.9762 14:2.9324 15:1.0391 16:0.31676 17:-1.1789 18:-0.4929 19:-2.1531 20:-3.6493 21:-2.8544 22:-1.9743 23:-1.2685 24:-0.62436 25:-2.1663 
1.0 1:2.7729 2:2.8254 3:2.2366 4:2.2226 5:2.0909 6:1.6288 7:1.5437 8:1.5436 9:2.4265 10:2.6912 11:2.7247 12:1.6871 13:4.9518 14:3.3426 15:0.56758 16:0.22956 17:-0.23182 18:0.95125 19:0.03468 20:-1.7244 21:-5.7153 22:-9.9899 23:-13.5136 24:-6.2857 25:2.5595 
0.07372269839215516 1:1.3497 2:0.9925 3:0.73269 4:0.73573 5:0.8356 6:0.69233 7:0.7758 8:0.39018 9:0.61501 10:0.3866 11:0.56975 12:0.64522 13:0.84577 14:1.3887 15:1.4219 16:1.4244 17:0.79073 18:0.84993 19:0.75286 20:0.83334 21:1.2668 22:1.4834 23:2.2662 24:2.4138 25:1.0398 
0.8708190911431962 1:-1.4207 2:-1.9412 3:-2.2844 4:-2.651 5:-3.3003 6:-3.0443 7:-3.1188 8:-3.5828 9:-3.5534 10:-3.8624 11:-2.9587 12:-2.2715 13:-2.1073 14:-1.9494 15:-1.7191 16:-1.8299 17:-1.5173 18:-1.1119 19:-1.1958 20:-0.85088 21:-0.64414 22:-0.29274 23:-0.083717 24:-0.21691 25:-1.107 
0.8922069767216465 1:-2.1652 2:-3.7534 3:-4.4446 4:-4.1937 5:-4.1911 6:-3.2583 7:-1.4845 8:-0.52215 9:-0.19896 10:-0.5107 11:-0.014058 12:0.52609 13:0.77542 14:0.68145 15:0.46066 16:-0.042552 17:0.05591 18:-0.006946 19:-0.11817 20:-0.070337 21:-0.04914 22:-0.30003 23:-0.062308 24:0.28597 25:-1.4569 
1.0 1:0.082109 2:-1.0202 3:0.69334 4:-0.25629 5:1.0663 6:0.1992 7:7.3271 8:2.8632 9:1.924 10:-3.9591 11:-4.2376 12:-5.0016 13:-6.1448 14:-6.9756 15:-6.4616 16:-3.4084 17:-1.3991 18:-2.098 19:0.4041 20:-0.36591 21:-0.57246 22:-0.20816 23:-0.16291 24:-0.91468 25:0.17769 
1.0 1:0.13011 2:-0.3171 3:5.4786 4:1.967 5:-1.5444 6:-0.079368 7:-0.52733 8:-0.63958 9:-1.2575 10:-0.41355 11:-1.7653 12:-1.2464 13:-0.47687 14:-1.2817 15:-0.40874 16:0.56421 17:-0.14802 18:-0.27174 19:0.46508 20:-0.44933 21:-0.3059 22:0.73072 23:1.8051 24:-1.1083 25:2.2187 
1.0 1:-0.048761 2:0.13305 3:0.76177 4:-0.18259 5:-0.15256 6:1.8211 7:2.977 8:1.0179 9:3.2286 10:0.1616 11:-3.0136 12:-3.0306 13:-3.2967 14:-3.6538 15:-4.418 16:-3.5944 17:-4.2156 18:-3.0273 19:-2.0065 20:-1.7614 21:-1.4125 22:-0.096913 23:-0.4927 24:0.29099 25:0.1371 
0.0485648679061941 1:-0.2289 2:-0.010395 3:0.067894 4:0.1469 5:0.044264 6:0.39473 7:1.2781 8:1.2219 9:0.59697 10:-0.28538 11:0.39309 12:0.6267 13:1.9674 14:0.97099 15:0.7182 16:0.60039 17:-1.9271 18:-1.0788 19:-0.34906 20:0.23702 21:0.21204 22:-0.083692 23:2.0694 24:0.73144 25:-0.44373 
1.0 1:-2.5016 2:-0.4117 3:0.04681 4:0.12527 5:-0.368 6:-0.99342 7:-1.1239 8:-0.92764 9:-0.45099 10:-0.70941 11:0.2609 12:0.070177 13:1.3852 14:-0.40808 15:0.035039 16:2.0827 17:-2.4853 18:1.9521 19:1.3781 20:-2.4378 21:3.4268 22:2.6836 23:-3.6423 24:-0.22958 25:3.0099 
1.0 1:-1.7 2:0.36193 3:1.9723 4:-0.66317 5:2.4321 6:1.9604 7:-3.3799 8:-4.0881 9:-1.5834 10:-0.91072 11:-2.4099 12:-3.3829 13:-2.7839 14:-2.6112 15:-1.1654 16:-0.88062 17:-1.902 18:-1.5219 19:-0.89529 20:0.036407 21:1.0786 22:-0.016782 23:0.078499 24:2.1297 25:2.2465 
1.0 1:-10.3539 2:-7.6804 3:-3.0393 4:-0.093 5:-0.052211 6:-0.080479 7:-1.8618 8:3.8837 9:-0.52712 10:0.66328 11:0.95366 12:-1.5484 13:-4.3992 14:-2.9347 15:-3.4252 16:-4.0807 17:-3.9593 18:-4.0565 19:-4.4941 20:-2.8671 21:-1.2819 22:-1.8096 23:-1.1331 24:-0.8906 25:-5.5463 
1.0 1:-11.2265 2:-8.6465 3:-8.8034 4:-10.1881 5:-2.2568 6:0.026011 7:0.79416 8:0.33041 9:0.16236 10:-1.2555 11:2.2445 12:0.41808 13:1.1994 14:1.5318 15:-0.10964 16:-1.5086 17:-4.252 18:-4.0757 19:-2.3359 20:-2.2663 21:-3.0482 22:-3.0513 23:-2.7687 24:-2.6111 25:-10.8301 
1.0 1:-1.6571 2:-1.0235 3:0.088888 4:0.29271 5:0.81009 6:0.30542 7:0.080913 8:0.3271 9:0.12743 10:0.53317 11:0.82231 12:-0.070874 13:-1.2614 14:0.35318 15:4.2789 16:4.0892 17:-2.2818 18:-0.085457 19:2.8526 20:-1.4894 21:-0.22825 22:-4.7007 23:0.89171 24:0.84779 25:-0.78137 
1.0 1:-8.9194 2:-5.7424 3:-4.0052 4:-2.0994 5:-1.0824 6:-0.64771 7:-0.28925 8:-0.033672 9:-1.4811 10:-1.049 11:-1.2498 12:-0.84576 13:-2.5392 14:-3.0167 15:-2.7676 16:-3.2617 17:-1.218 18:-0.34241 19:-1.3726 20:-1.627 21:-1.3672 22:-2.2545 23:-2.9646 24:-1.2209 25:-11.1301 
1.0 1:0.98341 2:1.9023 3:3.4736 4:2.986 5:3.2615 6:3.2468 7:1.2523 8:0.57589 9:-0.88455 10:-3.5524 11:-4.5277 12:-3.6384 13:-3.5984 14:-4.1171 15:-6.1553 16:-5.0917 17:-3.947 18:-4.2767 19:-2.9837 20:-2.3863 21:-2.363 22:-0.73063 23:0.63955 24:-1.5764 25:2.2696 
0.2022295914320775 1:1.4844 2:1.0438 3:1.1505 4:0.79313 5:0.15642 6:-0.37652 7:-0.68417 8:0.60304 9:0.49829 10:1.4219 11:1.1852 12:-0.53042 13:-0.6678 14:0.46791 15:0.76891 16:0.50835 17:0.98881 18:0.29297 19:0.70193 20:0.5345 21:1.3162 22:1.4161 23:0.9054 24:1.9504 25:1.7166 
1.0 1:0.039793 2:0.059507 3:-0.0055903 4:0.2792 5:1.0859 6:1.3262 7:1.4012 8:2.1711 9:2.781 10:3.1273 11:3.5406 12:3.2368 13:3.159 14:2.9588 15:3.0766 16:3.1385 17:2.8752 18:2.4324 19:2.6307 20:2.4128 21:2.8423 22:2.5721 23:2.7669 24:2.3104 25:-0.18051 
0.17839091048697428 1:-0.92992 2:-1.0776 3:-1.2172 4:-1.3276 5:-1.8319 6:-1.7593 7:-1.5696 8:-1.6268 9:-1.3528 10:-0.76469 11:-0.78822 12:-1.0022 13:-0.98754 14:-1.3377 15:-2.0966 16:-1.8138 17:-2.8547 18:-2.1922 19:-1.198 20:-1.673 21:-1.4135 22:-0.78988 23:-0.78574 24:-0.77283 25:-0.8352 
0.8871212030358909 1:1.2253 2:1.9506 3:3.1118 4:3.1726 5:2.3592 6:1.872 7:0.61931 8:-0.89 9:-0.98847 10:-0.74076 11:-1.2721 12:-1.3257 13:-1.4661 14:-1.7798 15:-2.382 16:-3.6956 17:-3.4221 18:-2.6911 19:-2.5616 20:-2.4261 21:-1.5371 22:-1.1869 23:-0.53451 24:0.049573 25:0.18807 
1.0 1:-0.25711 2:-0.33381 3:1.6225 4:0.49111 5:0.5565 6:0.95605 7:1.7 8:-1.3321 9:-3.4211 10:-2.9859 11:-4.0573 12:-3.5292 13:-2.9892 14:-3.549 15:-3.1285 16:-2.9399 17:-3.7299 18:-3.9736 19:-3.3623 20:-1.9471 21:-0.44634 22:0.72194 23:0.73961 24:-0.24566 25:-0.37892 
0.435245259055552 1:2.1661 2:2.3815 3:1.6767 4:1.2293 5:1.378 6:0.73869 7:-0.062912 8:0.25944 9:-0.08237 10:-0.34171 11:-0.13421 12:-1.4703 13:-1.6868 14:-1.7115 15:-1.4871 16:-1.0618 17:-0.55784 18:-0.36471 19:0.042877 20:-0.52094 21:-0.66166 22:0.27918 23:1.8766 24:0.6529 25:-1.0103 
0.3508389346285682 1:1.064 2:-0.7747 3:-1.943 4:-1.375 5:-1.2562 6:-2.1592 7:-1.6671 8:-1.8057 9:-2.362 10:-2.5998 11:-2.3142 12:-1.6829 13:-0.55856 14:0.23958 15:0.52518 16:0.73207 17:0.10217 18:-0.46458 19:-0.56361 20:-0.54672 21:-0.2804 22:-0.46295 23:-0.88706 24:-1.2085 25:1.8181 
0.3540789239373448 1:0.36657 2:0.18456 3:-0.029426 4:-0.15327 5:-0.32065 6:-0.25816 7:-0.46109 8:-0.54301 9:-0.51144 10:-0.59472 11:-0.022224 12:0.57518 13:1.4028 14:0.58842 15:-0.33284 16:-0.95708 17:-0.24068 18:-0.2995 19:-0.49803 20:-2.01 21:-2.8068 22:1.7605 23:0.75461 24:-0.57719 25:-0.14195 
0.5485182575993908 1:0.19262 2:-2.2709 3:-1.0577 4:-3.4465 5:-3.4629 6:-2.7378 7:-2.6856 8:-1.1258 9:-0.24695 10:0.049553 11:0.20319 12:0.050832 13:0.10249 14:0.26222 15:0.32403 16:0.35558 17:0.13024 18:-0.095959 19:-0.20669 20:-0.46674 21:-0.87147 22:-1.1296 23:-0.80144 24:-1.1105 25:0.63617 
1.0 1:-3.9612 2:-3.4533 3:-2.9643 4:-2.034 5:-1.0661 6:-0.95359 7:-1.0956 8:-0.72699 9:-0.29041 10:-0.49629 11:-0.85362 12:-1.0058 13:-0.51699 14:-0.21009 15:-0.10353 16:0.47041 17:0.72915 18:1.0861 19:1.4288 20:1.9516 21:2.547 22:2.1634 23:2.4579 24:1.5064 25:-4.0953 
1.0 1:-2.8107 2:-3.713 3:-2.7117 4:0.38585 5:-0.35819 6:-0.55666 7:-0.32091 8:-0.16232 9:-0.15797 10:0.12026 11:0.44647 12:1.0801 13:1.7559 14:2.7518 15:2.0516 16:0.76377 17:0.05118 18:-0.8856 19:1.5179 20:-0.08969 21:-1.4159 22:0.1609 23:0.95768 24:-0.48546 25:-2.9396 
1.0 1:-5.4062 2:-5.8114 3:-6.9448 4:-8.9487 5:-6.662 6:-9.2316 7:-5.7007 8:-4.5962 9:-1.8852 10:0.015967 11:-0.58228 12:-0.71172 13:-0.69686 14:-0.47338 15:0.17481 16:-0.63674 17:0.096179 18:0.013175 19:-0.81082 20:-3.4075 21:-4.6717 22:-4.0899 23:-4.164 24:-3.8721 25:-1.8199 
0.8044383756181812 1:0.33038 2:0.43455 3:0.71444 4:0.11163 5:-1.0126 6:-0.073479 7:-1.2512 8:2.6703 9:0.79825 10:-0.87214 11:0.5771 12:-0.31565 13:-0.77788 14:-0.83596 15:-1.7411 16:-1.1188 17:-0.749 18:0.60958 19:0.07498 20:-0.98719 21:-1.0504 22:-1.6979 23:-0.33425 24:2.0428 25:-0.20831 
0.2702402110153526 1:-2.2868 2:-2.74 3:-1.7046 4:-0.89478 5:-0.12311 6:-0.15657 7:-0.50291 8:0.01627 9:0.54659 10:-0.14647 11:-1.2446 12:-0.078278 13:0.86601 14:0.59159 15:0.46919 16:2.414 17:1.6453 18:0.086213 19:-0.44847 20:0.080258 21:1.3012 22:1.6481 23:1.5343 24:0.33231 25:-2.3262 
0.33685731254799306 1:-0.95346 2:-0.89591 3:-1.0468 4:-1.0239 5:-0.88236 6:-1.0439 7:-0.72586 8:-0.87963 9:-1.043 10:-1.5057 11:-1.2455 12:-0.76828 13:-0.55497 14:-0.007963 15:0.85526 16:1.1872 17:2.2395 18:1.6608 19:0.94357 20:0.55108 21:-0.38876 22:-0.58175 23:2.598 24:1.6737 25:-1.0348 
0.5267129540556776 1:1.2698 2:1.59 3:1.7336 4:1.6619 5:1.9784 6:2.2375 7:1.4927 8:0.96209 9:0.84572 10:0.66641 11:0.57806 12:0.1823 13:0.37539 14:0.43989 15:-0.23294 16:-0.70716 17:-0.94696 18:-1.7135 19:-2.418 20:-2.6405 21:-2.3263 22:-1.9515 23:-1.495 24:-1.0887 25:1.6759 
1.0 1:0.47438 2:0.31638 3:0.13399 4:0.44474 5:0.20504 6:0.19194 7:0.85477 8:0.89877 9:0.71241 10:0.97414 11:0.53912 12:-0.17005 13:0.9608 14:-0.26768 15:0.0064032 16:3.7603 17:-0.34728 18:4.0166 19:4.7624 20:2.6634 21:-0.5154 22:-3.1023 23:-2.9724 24:-2.901 25:0.13268 
1.0 1:-4.4643 2:-4.1313 3:-0.95285 4:-1.28 5:-2.065 6:-0.40052 7:-1.1116 8:-0.89046 9:1.1161 10:1.5956 11:2.3277 12:2.7116 13:3.9759 14:3.9796 15:4.153 16:5.7074 17:4.1089 18:1.96 19:0.36756 20:-0.1149 21:-0.38752 22:-0.33697 23:0.046924 24:-0.020062 25:0.81735 
1.0 1:3.4645 2:3.3183 3:3.4506 4:3.4198 5:3.0594 6:2.8186 7:2.2027 8:1.6759 9:0.33039 10:0.30591 11:1.0966 12:0.68231 13:-0.40956 14:-0.66654 15:0.16385 16:0.57818 17:-0.055835 18:-0.38597 19:-0.41655 20:-0.23086 21:-1.1239 22:-0.10696 23:-1.0959 24:-1.0494 25:4.3489 
1.0 1:5.7663 2:0.055142 3:-2.4531 4:0.097254 5:0.49127 6:0.22934 7:-0.32298 8:-2.6719 9:1.2645 10:-0.84326 11:-0.46378 12:-0.025034 13:-1.3419 14:-3.1748 15:-1.2345 16:1.5137 17:1.5952 18:2.1431 19:1.4267 20:2.5171 21:4.1111 22:3.0163 23:3.2365 24:4.3168 25:6.3732 
0.48113144233885297 1:-2.0922 2:-1.8379 3:-2.4659 4:-2.4844 5:-0.15984 6:0.42167 7:1.0727 8:-1.7577 9:-0.60102 10:-0.88753 11:0.34936 12:0.84603 13:-0.47162 14:-0.51563 15:0.71123 16:-0.18558 17:-1.4396 18:0.40348 19:-0.16518 20:-0.59624 21:0.35038 22:0.25361 23:0.2956 24:0.68038 25:-1.5489 
0.22879104697673242 1:-0.68439 2:-0.3337 3:-0.37687 4:-0.71802 5:-0.73694 6:-0.83017 7:-1.0621 8:-1.1463 9:-1.0916 10:-1.6016 11:-1.8654 12:-1.3895 13:-1.1618 14:-2.2367 15:-2.653 16:-2.5248 17:-2.2468 18:-2.1161 19:-2.3067 20:-1.8621 21:-1.6651 22:-1.8282 23:-1.2589 24:-0.99899 25:0.11304 
0.6046059771556415 1:-0.38797 2:-0.41568 3:-0.92231 4:-0.46486 5:-0.96025 6:-1.2975 7:-0.82369 8:-1.8181 9:-2.8296 10:-2.7004 11:-2.4689 12:-1.7358 13:-0.99859 14:-2.3052 15:-3.0302 16:-0.69995 17:-0.13712 18:0.24916 19:0.69388 20:1.6406 21:1.4295 22:1.2852 23:1.2103 24:1.1445 25:-0.13987 
1.0 1:1.4535 2:1.6061 3:1.0729 4:-0.60216 5:-2.5161 6:-3.3297 7:-3.849 8:-3.8469 9:-3.3794 10:-2.0287 11:-0.52303 12:0.69991 13:0.46527 14:-0.29046 15:-0.60729 16:-0.29476 17:-0.11279 18:0.42152 19:0.35606 20:-0.36525 21:-0.2594 22:0.57853 23:0.064669 24:-0.032072 25:1.4371 
1.0 1:-5.9879 2:-5.738 3:-4.1026 4:-3.5343 5:-4.6444 6:-0.95723 7:2.225 8:1.2252 9:1.5583 10:1.7047 11:-0.74342 12:1.707 13:1.4476 14:-3.8148 15:1.615 16:1.1547 17:-0.57161 18:-0.55248 19:-0.94755 20:-0.97108 21:-0.37571 22:-1.5044 23:-0.46537 24:0.31609 25:-2.987 
0.997585707949939 1:0.87936 2:1.0874 3:1.8278 4:2.2381 5:2.122 6:2.1871 7:2.428 8:2.1376 9:0.51509 10:0.28612 11:-0.35378 12:-1.4272 13:-3.1367 14:-1.5932 15:-1.3108 16:-1.838 17:-0.52245 18:-1.6909 19:-1.0477 20:-2.4847 21:-0.95271 22:-3.3895 23:-2.5292 24:-1.5485 25:1.3735 
1.0 1:0.10798 2:-0.47006 3:0.41415 4:-0.43007 5:-1.958 6:-2.6303 7:-2.9996 8:-3.1287 9:-3.5945 10:-3.4021 11:-3.6387 12:-3.6844 13:-3.23 14:-2.9601 15:-2.0096 16:-0.98034 17:-0.4636 18:-0.11654 19:0.056057 20:0.11489 21:0.09891 22:0.09076 23:0.13745 24:0.11801 25:0.58931 
0.2824188460936894 1:0.35677 2:-0.43377 3:-0.67364 4:0.82131 5:0.97071 6:1.0418 7:1.452 8:1.1296 9:1.1384 10:2.3566 11:2.8314 12:2.9622 13:1.9401 14:2.2012 15:1.7354 16:1.1569 17:0.53182 18:0.33386 19:0.29626 20:0.28487 21:0.07188 22:0.044395 23:0.1674 24:0.25488 25:0.93445 
0.9188058506886967 1:1.8441 2:2.2331 3:1.8034 4:0.02462 5:-0.62229 6:-0.28459 7:0.33805 8:0.42012 9:0.63665 10:0.75528 11:1.0944 12:1.459 13:1.9984 14:2.4135 15:2.6199 16:2.4141 17:2.102 18:1.5656 19:1.0364 20:0.69997 21:-0.36174 22:0.15962 23:-1.0479 24:-1.0636 25:2.0778 
1.0 1:0.64793 2:0.30381 3:0.57827 4:1.2141 5:1.3063 6:1.532 7:1.8829 8:1.0795 9:1.5023 10:1.9327 11:2.2093 12:3.0091 13:4.0229 14:4.6143 15:7.0695 16:6.5616 17:5.5873 18:3.9475 19:2.8779 20:1.5818 21:0.86147 22:0.37741 23:0.27983 24:0.1418 25:0.66509 
0.07805157708289673 1:-0.63126 2:-0.60388 3:0.12508 4:-1.4756 5:-1.1882 6:-0.20092 7:-1.0563 8:-0.90881 9:-1.4395 10:-2.0821 11:-2.1677 12:-1.7181 13:-1.3878 14:-0.76635 15:0.48151 16:1.4403 17:1.9504 18:1.6411 19:1.1278 20:0.60982 21:-0.39543 22:-0.10109 23:0.86695 24:0.81601 25:-0.1686 
1.0 1:0.35926 2:0.017531 3:0.53701 4:2.1049 5:3.112 6:4.9507 7:4.6064 8:3.7939 9:2.9001 10:2.6026 11:0.087858 12:-1.2871 13:0.80087 14:0.74131 15:0.24578 16:-0.039905 17:-1.4987 18:-0.49604 19:-0.35903 20:-0.62441 21:1.5782 22:0.6861 23:0.19494 24:0.27796 25:0.30794 
0.369854411119214 1:-1.3738 2:-1.8395 3:-0.80812 4:0.48188 5:-0.62983 6:-1.9433 7:-2.0581 8:-1.5863 9:-1.434 10:-1.8725 11:-2.4367 12:-1.7083 13:-0.56839 14:-0.018901 15:-0.40724 16:-1.4049 17:-0.81131 18:1.6605 19:2.1369 20:1.0519 21:0.39946 22:0.5159 23:0.66593 24:1.2311 25:-0.4832 
1.0 1:1.1347 2:1.0215 3:0.40534 4:2.2705 5:2.3604 6:2.3658 7:2.1494 8:1.9259 9:2.3381 10:0.87133 11:1.9369 12:1.2615 13:-0.13465 14:-2.3585 15:-3.2554 16:-4.1971 17:-4.3722 18:-4.88 19:-4.6183 20:-2.6494 21:-2.1323 22:-1.17 23:0.81123 24:1.5754 25:3.5119 
0.906893146229356 1:-0.084629 2:0.067475 3:-0.098321 4:-0.051725 5:0.067468 6:-0.31775 7:-0.54835 8:-0.35178 9:-0.055499 10:-0.6243 11:0.72333 12:-0.16914 13:-0.41317 14:0.045494 15:-0.064723 16:-0.83218 17:-1.5749 18:0.93139 19:1.7914 20:-0.33279 21:-0.27768 22:3.172 23:1.2637 24:-4.2954 25:0.38718 
0.9204964266775861 1:-0.22614 2:-0.25354 3:1.0188E-4 4:-0.14746 5:-0.011959 6:-0.38187 7:-0.69973 8:-0.91716 9:-1.5288 10:-1.963 11:-1.8945 12:-2.1674 13:-3.2444 14:-3.5377 15:-2.7786 16:-3.4475 17:-3.2229 18:-2.6293 19:-2.8455 20:-3.657 21:-2.2536 22:-0.18921 23:-0.57841 24:-0.30518 25:-0.24657 
1.0 1:-0.8496 2:-2.0211 3:-4.2349 4:-5.2637 5:-6.3924 6:-5.4328 7:-5.1202 8:-5.7177 9:-4.3172 10:-3.2923 11:-2.4145 12:-1.626 13:-0.63962 14:0.38594 15:1.5732 16:2.2208 17:1.4307 18:2.4655 19:3.0995 20:1.7764 21:0.29393 22:-0.29084 23:-0.49983 24:-0.24969 25:-0.45445 
1.0 1:-4.1312 2:-5.6651 3:-6.6334 4:-6.0831 5:-9.175 6:-5.0741 7:-3.4291 8:-2.8028 9:-1.4698 10:-1.1027 11:-0.26356 12:1.2981 13:1.5994 14:3.1318 15:4.1915 16:4.1141 17:3.1828 18:2.3766 19:1.5 20:-0.19028 21:-0.62483 22:0.21549 23:0.48299 24:0.28206 25:0.27375 
1.0 1:1.6252 2:1.3756 3:0.94774 4:0.725 5:0.28166 6:0.18802 7:0.31267 8:0.49646 9:0.38497 10:0.00882 11:0.032194 12:-0.027189 13:-1.014 14:-0.63446 15:0.026414 16:-0.81189 17:-3.713 18:-2.7096 19:0.37133 20:1.8602 21:2.8515 22:0.083122 23:4.1435 24:-5.9101 25:2.1024 
1.0 1:-2.8117 2:-3.6732 3:2.2646 4:-1.7471 5:-3.8369 6:-3.7817 7:-4.3014 8:-4.9775 9:-4.953 10:-2.1748 11:0.20222 12:0.41669 13:0.33012 14:1.2832 15:2.1197 16:3.0027 17:2.4851 18:1.5197 19:0.8441 20:0.93258 21:1.5572 22:2.2987 23:2.563 24:2.2547 25:-0.85444 
-0.3810604484165665 1:0.43535 2:2.7477 3:7.4726 4:5.5219 5:3.4367 6:1.3468 7:-1.166 8:-2.6322 9:-3.2817 10:-3.0804 11:-2.1537 12:-1.306 13:-2.4563 14:-1.7042 15:2.3438 16:5.0446 17:4.5973 18:0.71275 19:1.3514 20:0.30082 21:-0.81185 22:-2.7758 23:-2.681 24:-2.3731 25:-0.4959 
-0.3865893703759488 1:-12.0986 2:-7.5607 3:1.6495 4:-2.356 5:0.58375 6:3.6721 7:4.0492 8:4.9015 9:6.2149 10:5.7779 11:4.0272 12:1.0306 13:-3.4726 14:-10.8734 15:-11.2975 16:-4.3752 17:1.2431 18:0.97506 19:3.0477 20:3.3697 21:4.8125 22:5.1473 23:6.0569 24:5.1593 25:-6.0791 
-0.4710661903024503 1:0.58742 2:-1.884 3:3.056 4:1.0721 5:-1.0949 6:1.6917 7:2.4352 8:1.6181 9:-4.5866 10:0.090439 11:-1.11 12:-2.5553 13:-0.14502 14:0.45519 15:3.7447 16:0.78348 17:0.15135 18:0.5363 19:1.3198 20:-0.043866 21:4.0663 22:4.672 23:-1.4197 24:0.070312 25:2.7 
-0.38205536828100023 1:0.16133 2:-5.0296 3:-3.353 4:-0.90643 5:0.44129 6:0.67318 7:-0.26994 8:2.5376 9:2.8098 10:-0.92563 11:-1.3342 12:4.0822 13:1.1275 14:-2.1814 15:-2.378 16:2.3458 17:-7.6631 18:-4.2924 19:0.72268 20:-1.4562 21:0.20403 22:1.6999 23:0.67451 24:2.045 25:-1.612 
-0.38739156637186156 1:-4.9152 2:-2.7385 3:-1.5345 4:-3.6749 5:-3.9984 6:7.7168 7:13.9546 8:8.1285 9:7.0136 10:3.9974 11:-1.1025 12:-5.3155 13:-5.4753 14:-7.7822 15:-6.1969 16:-6.7461 17:-4.2979 18:-1.593 19:-2.3196 20:0.46957 21:5.7259 22:6.2006 23:10.536 24:8.4522 25:-5.5158 
-0.38205353615616183 1:-0.80326 2:1.5817 3:3.517 4:4.1397 5:-2.289 6:-2.8028 7:2.3892 8:-4.3257 9:-5.7798 10:-3.1726 11:-0.2476 12:0.21437 13:1.3362 14:0.43456 15:-0.22168 16:-0.14347 17:1.4899 18:0.70363 19:6.1581 20:1.3981 21:-3.0409 22:2.6027 23:-7.4344 24:-4.5805 25:-1.2503 
-0.3716779200939445 1:-0.96326 2:1.0322 3:1.2723 4:3.2601 5:-0.69794 6:-2.0985 7:-3.0027 8:-3.4962 9:1.2592 10:3.5731 11:1.8081 12:-1.354 13:-1.9676 14:-3.6847 15:-2.3547 16:-1.5887 17:2.1316 18:1.9794 19:0.9336 20:-2.9545 21:-4.4252 22:-2.3601 23:-2.1576 24:-1.0302 25:-2.7164 
-0.4326308863914839 1:2.0025 2:1.6219 3:0.66211 4:-0.92414 5:-1.9007 6:-2.0825 7:-3.0917 8:-3.3952 9:-2.9411 10:-1.4371 11:-0.1891 12:0.26399 13:2.4944 14:0.30523 15:1.5072 16:3.1377 17:1.4475 18:0.45424 19:-2.8373 20:-3.6101 21:-4.6672 22:-1.8987 23:-3.2322 24:-1.9372 25:-0.19376 
-0.38946696161997807 1:1.0183 2:2.9356 3:-1.3568 4:-3.416 5:0.94978 6:-5.1838 7:-3.5707 8:-0.20686 9:-2.2627 10:0.26199 11:0.92451 12:2.59 13:1.5295 14:0.12483 15:-3.4054 16:6.0147 17:2.4248 18:-0.25933 19:0.50292 20:2.7404 21:-5.5363 22:-1.3175 23:0.28187 24:-1.6503 25:0.82752 
-0.38879992982598344 1:-1.3584 2:-1.3215 3:0.45389 4:0.4903 5:0.060308 6:2.0715 7:4.2044 8:6.3144 9:7.0045 10:-1.0176 11:2.2513 12:-3.5506 13:-4.0971 14:-9.3363 15:-7.3837 16:-7.6386 17:-7.8927 18:-5.1781 19:-1.7094 20:-0.82156 21:-0.42994 22:-1.6403 23:-2.1368 24:-0.89832 25:-2.1496 
-0.3871058411636269 1:-5.7436 2:-14.2835 3:-9.1101 4:-0.38932 5:0.81812 6:1.8319 7:3.5384 8:0.69801 9:3.9207 10:4.0647 11:1.606 12:1.2638 13:2.9614 14:2.4592 15:-6.1735 16:-8.1531 17:-10.6969 18:-11.1408 19:-14.061 20:-7.5998 21:-2.7075 22:-0.85337 23:1.2132 24:-1.0525 25:-9.5627 
-0.3833016787248585 1:0.34056 2:-1.0704 3:-1.7983 4:-4.4684 5:-7.2306 6:-4.0506 7:-3.4981 8:-0.75138 9:2.5725 10:2.1824 11:-0.21081 12:2.0601 13:2.1662 14:1.5229 15:1.9664 16:-0.5457 17:-3.1215 18:-6.0591 19:-7.6745 20:-9.5669 21:-8.5051 22:-7.2344 23:-3.5039 24:-1.7034 25:1.9796 
-0.3993057923439148 1:0.019325 2:1.6893 3:2.4488 4:2.1497 5:2.4883 6:0.18592 7:-3.4569 8:-3.1257 9:-3.5981 10:-4.4901 11:-3.6415 12:-2.4571 13:0.1526 14:0.192 15:0.4881 16:1.6212 17:3.3591 18:2.681 19:1.7482 20:-0.98962 21:-1.004 22:-0.37959 23:-2.0248 24:-4.8296 25:1.7412 
-0.5136113157929687 1:-1.3553 2:-2.0081 3:-0.36702 4:-0.22412 5:0.19626 6:1.0999 7:-1.3186 8:-1.2985 9:1.7413 10:0.40385 11:-1.6035 12:0.52512 13:-2.7487 14:-1.4045 15:-0.77283 16:-2.3264 17:-1.6408 18:3.8478 19:1.1722 20:-0.92265 21:-4.1141 22:-2.3433 23:-0.66662 24:-1.8632 25:-2.6677 
-0.3475898377251572 1:1.3259 2:2.2572 3:3.9089 4:0.63954 5:1.3409 6:1.4948 7:1.6979 8:0.31242 9:-0.62889 10:-4.4343 11:-8.1899 12:-5.7788 13:-5.4187 14:-3.2925 15:-1.1304 16:1.1448 17:3.9269 18:0.45501 19:0.70339 20:5.4087 21:1.7147 22:1.2819 23:-1.0801 24:-3.302 25:-0.17096 
-0.3522705937674075 1:2.2732 2:5.2611 3:2.8462 4:1.4059 5:1.9705 6:0.94729 7:0.34883 8:-0.31619 9:-0.85384 10:-4.6353 11:-6.4741 12:-5.5783 13:-0.74448 14:-0.66401 15:-0.84714 16:2.5731 17:3.4133 18:2.0674 19:3.1754 20:2.0452 21:1.0846 22:0.1379 23:-1.0585 24:-3.9287 25:-1.3274 
-0.38534189872840446 1:2.5289 2:1.5481 3:1.1656 4:0.48976 5:-1.4876 6:-3.8299 7:-4.6763 8:-8.5698 9:-6.6998 10:-6.5181 11:0.43111 12:-1.3291 13:-1.3482 14:0.27727 15:3.3033 16:1.8664 17:0.38532 18:0.087469 19:-0.69294 20:-5.6164 21:-4.4453 22:-6.6943 23:-7.8391 24:-7.7146 25:2.7595 
-0.3871530207436652 1:1.173 2:0.27595 3:-0.43701 4:-0.046653 5:2.3267 6:1.6662 7:0.41178 8:-8.9214 9:-2.7585 10:-1.0804 11:-3.437 12:-4.6037 13:-2.2876 14:1.2805 15:4.4218 16:-4.0432 17:-0.64342 18:6.8896 19:-1.7751 20:-0.010169 21:3.1159 22:2.2617 23:-9.695 24:-1.7241 25:0.90702 
-0.369911015110891 1:-2.6994 2:-4.8015 3:-5.1096 4:-5.5318 5:-4.4773 6:0.50849 7:-2.6365 8:2.5799 9:3.4225 10:2.2187 11:1.8405 12:1.4277 13:0.61349 14:-0.28781 15:-1.0137 16:-4.2997 17:-6.6546 18:-5.0985 19:-0.28684 20:0.39192 21:-0.34553 22:2.5493 23:5.6189 24:1.4511 25:-0.9725 
-0.3862578573495223 1:-0.72652 2:-1.0112 3:-0.60247 4:-2.7168 5:-5.587 6:-4.0547 7:-2.3766 8:0.67272 9:-3.4641 10:-3.029 11:7.6686 12:6.0209 13:5.3267 14:0.25473 15:2.095 16:-0.21673 17:-1.9544 18:-1.5789 19:-3.1363 20:-4.7561 21:-2.2466 22:0.6086 23:-1.2709 24:-2.0734 25:-0.50263 
-0.38629300078524953 1:-1.0176 2:1.7398 3:1.7355 4:5.7812 5:1.6765 6:-0.16202 7:-0.10578 8:-2.508 9:-5.1888 10:-6.6921 11:-8.5787 12:-6.6567 13:-3.8223 14:-4.1088 15:3.1472 16:1.5891 17:0.86186 18:5.8341 19:5.11 20:2.3749 21:2.6415 22:5.2281 23:-6.0661 24:-4.7314 25:-0.4604 
-0.3855855280925182 1:-3.502 2:-1.0419 3:1.1958 4:3.2977 5:5.5629 6:5.8563 7:5.975 8:5.6169 9:1.4132 10:0.21531 11:-6.3095 12:-13.8732 13:-7.6738 14:-6.2112 15:-2.953 16:1.8076 17:4.2371 18:4.2486 19:4.1385 20:4.2078 21:3.7806 22:5.1796 23:6.8048 24:5.9426 25:-7.7538 
-0.38806838953172673 1:-3.4007 2:1.3147 3:-6.5644 4:-4.9752 5:-2.5235 6:-0.14718 7:2.3489 8:-1.2156 9:-1.4945 10:0.55736 11:0.79898 12:-0.1116 13:2.2595 14:6.4939 15:-3.2221 16:-1.2992 17:1.8759 18:-4.0472 19:-5.6957 20:-4.3294 21:0.056432 22:1.4857 23:2.3408 24:0.39501 25:-1.2718 
-0.38630976003499895 1:-1.6598 2:-2.8452 3:-2.0377 4:3.0275 5:5.0731 6:5.6688 7:2.1495 8:-0.83155 9:-2.063 10:-0.59679 11:-2.8112 12:-2.6275 13:-2.0825 14:-2.8661 15:-3.336 16:-3.4692 17:3.7344 18:5.7633 19:6.7963 20:7.0459 21:2.7389 22:-2.5247 23:-1.7398 24:-2.5409 25:-2.1086 
-0.4814974081418052 1:-3.4474 2:-2.817 3:-2.2526 4:-2.4118 5:-1.3809 6:-1.8558 7:-1.5471 8:-1.0383 9:-1.6087 10:-2.272 11:-2.688 12:-2.5599 13:-2.4152 14:-2.978 15:-4.7038 16:-5.6597 17:-5.1928 18:-4.1681 19:-3.7947 20:-3.6031 21:-2.5829 22:-1.9799 23:-1.5457 24:-0.80915 25:-4.5007 
-0.38617974244950104 1:-2.7597 2:-2.6335 3:-2.5198 4:-2.6715 5:-2.3185 6:1.7601 7:5.6664 8:6.2987 9:7.7666 10:3.3974 11:-1.3365 12:-2.4885 13:-2.8155 14:-2.1204 15:-3.0168 16:-4.1253 17:-0.51157 18:-2.091 19:-4.7287 20:4.3356 21:8.1239 22:6.676 23:1.055 24:0.53735 25:-2.4191 
-0.41180609409696384 1:-1.001 2:-2.5281 3:-2.0258 4:-1.724 5:-1.206 6:-0.0090686 7:0.28737 8:-1.6819 9:-1.5341 10:3.0414 11:4.5831 12:0.12353 13:-2.987 14:3.8857 15:2.6449 16:-0.77184 17:-0.2045 18:-0.32694 19:-2.3967 20:-0.50124 21:-0.51217 22:-2.0195 23:-3.083 24:4.9994 25:-0.26354 
-0.39082997647470147 1:1.0976 2:-0.038998 3:-0.45187 4:3.1425 5:2.9979 6:1.5306 7:-3.7338 8:-3.0825 9:-0.030799 10:-1.1987 11:-4.4034 12:-3.378 13:1.5184 14:2.5538 15:0.22043 16:0.36849 17:-0.3638 18:0.5219 19:2.3006 20:-4.0625 21:-0.77528 22:-5.0724 23:-5.4091 24:3.2084 25:1.7512 
-0.38712005058407806 1:4.1876 2:1.3772 3:2.3695 4:3.3444 5:3.1638 6:2.6443 7:-1.1222 8:-4.191 9:-3.9063 10:-8.6897 11:-9.5122 12:-0.85366 13:-0.89971 14:2.4842 15:1.802 16:0.53446 17:1.1063 18:2.1329 19:0.27549 20:1.6431 21:0.92337 22:5.2333 23:7.2626 24:2.8481 25:3.0696 
-0.3792325983476094 1:1.1003 2:2.2581 3:1.6827 4:2.144 5:3.1163 6:3.7548 7:4.8116 8:4.1983 9:2.0078 10:0.014504 11:-3.0283 12:-9.2955 13:-5.1002 14:-1.5021 15:0.59539 16:2.2657 17:4.9355 18:4.1056 19:4.4655 20:4.7436 21:4.8475 22:4.6795 23:3.1646 24:-0.34811 25:-3.6287 
-0.38217059251678515 1:1.6632 2:2.8361 3:-6.2367 4:-7.7799 5:-5.5653 6:-1.4131 7:1.4395 8:2.5294 9:1.3073 10:2.92 11:3.5928 12:3.6733 13:3.2385 14:2.429 15:0.60637 16:-3.4087 17:-4.723 18:-6.4531 19:-6.9108 20:-1.5479 21:-0.69781 22:1.7449 23:3.603 24:4.709 25:2.5496 
-0.3696988129796695 1:-0.7601 2:-1.9454 3:-2.5882 4:-1.8202 5:-2.8799 6:-2.4566 7:-0.71507 8:3.2792 9:8.6838 10:6.2306 11:2.5978 12:-0.41833 13:-1.821 14:-2.3954 15:-3.2887 16:-2.8847 17:-1.6923 18:-2.3898 19:-4.5947 20:-0.94304 21:2.7725 22:5.319 23:7.8307 24:4.6508 25:-1.2959 
-0.3968782952452059 1:0.82953 2:3.5587 3:4.2532 4:-1.1969 5:-3.8295 6:2.1939 7:-1.34 8:-3.3291 9:-3.1547 10:0.27176 11:-0.56716 12:-0.22702 13:1.441 14:-0.91618 15:-1.9628 16:4.5424 17:-1.6764 18:6.6193 19:1.7983 20:-3.1047 21:1.6062 22:-3.2543 23:-1.7267 24:-1.2661 25:1.9437 
-0.3867853536107791 1:0.13643 2:5.2794 3:1.3096 4:0.94838 5:3.8514 6:5.9046 7:6.2773 8:5.265 9:2.0161 10:-2.8383 11:-2.4754 12:-3.0759 13:-9.0975 14:-5.6356 15:4.9679 16:2.1633 17:3.2043 18:1.7614 19:2.1558 20:2.9903 21:5.3671 22:7.5762 23:4.8721 24:-1.7197 25:0.02598 
-0.3846617278853204 1:-3.7043 2:-0.51662 3:3.496 4:4.474 5:4.0689 6:2.3638 7:2.5196 8:2.5253 9:3.0851 10:1.0653 11:-4.405 12:-7.6814 13:-8.9798 14:-11.3801 15:-1.7703 16:2.9288 17:4.8992 18:6.1938 19:4.1766 20:3.548 21:4.2054 22:5.1432 23:4.9766 24:4.6544 25:-2.525 
-0.3643273331143591 1:0.93235 2:4.0572 3:5.195 4:3.3251 5:-1.6668 6:-1.6171 7:-6.0764 8:-3.0425 9:-2.081 10:-0.91305 11:0.65712 12:-0.41887 13:1.4527 14:2.2829 15:1.927 16:2.3053 17:5.338 18:4.7966 19:-1.0046 20:-2.344 21:-4.0629 22:-5.2257 23:-2.3803 24:-4.3294 25:-0.11958 
-0.3860326555843296 1:-8.0601 2:-10.1111 3:-4.6003 4:-1.4337 5:0.58855 6:1.8439 7:3.8694 8:3.8823 9:3.754 10:3.335 11:4.1647 12:3.9103 13:1.7072 14:-0.11979 15:-5.3977 16:-8.3045 17:-8.9802 18:-1.4871 19:1.7503 20:3.2783 21:4.4777 22:5.1488 23:4.9372 24:4.1283 25:1.3436 
-0.3871203122308595 1:3.1996 2:3.7932 3:1.0552 4:-13.5704 5:-8.9061 6:-5.3359 7:-0.73129 8:1.8088 9:2.2359 10:4.2556 11:3.8956 12:1.5326 13:2.4807 14:0.63181 15:2.97 16:0.22374 17:1.688 18:-0.78034 19:-4.2044 20:-11.2858 21:-9.1202 22:-2.6339 23:0.37648 24:4.7353 25:2.1077 
-0.3762147778777684 1:-7.0663 2:-4.0816 3:1.1261 4:-0.18833 5:4.0367 6:3.1489 7:2.7502 8:0.66391 9:1.6714 10:1.4181 11:0.89543 12:1.4927 13:0.73883 14:-0.20215 15:-7.5985 16:-2.1859 17:-2.2713 18:0.11219 19:6.0348 20:2.8633 21:1.011 22:1.2947 23:0.93676 24:4.345 25:-1.3349 
-0.3398844505313654 1:5.708 2:5.1491 3:2.9131 4:0.11841 5:-0.16541 6:-0.47544 7:-0.92916 8:-2.8413 9:-3.3716 10:-2.479 11:-4.2042 12:-4.8387 13:5.8908 14:7.41 15:5.9035 16:2.6851 17:-1.4006 18:-2.4482 19:-0.6016 20:0.42218 21:-0.53021 22:-1.8475 23:-2.6662 24:-2.909 25:5.0299 
-0.3861160976540212 1:1.1142 2:-1.2066 3:-3.6892 4:-1.6834 5:0.62792 6:-1.2578 7:3.6184 8:3.1991 9:4.3095 10:6.009 11:3.7284 12:-1.8246 13:-10.0677 14:-2.919 15:-5.3601 16:-3.3296 17:-3.7268 18:-1.531 19:-1.1741 20:1.0364 21:-1.061 22:0.71964 23:5.6876 24:4.6543 25:-1.4191 
-0.31877233412292627 1:-5.4486 2:-2.8881 3:2.6932 4:1.6604 5:1.3366 6:3.0077 7:2.2077 8:2.9675 9:1.5071 10:1.4659 11:0.027066 12:-0.089961 13:-1.5803 14:-3.9473 15:-7.0496 16:-7.3417 17:-0.56647 18:0.93755 19:1.0536 20:2.9399 21:2.7097 22:2.1608 23:1.4617 24:1.0757 25:-3.9995 
-0.38420509889463816 1:-3.5875 2:-11.2383 3:-6.0707 4:-0.27338 5:0.51325 6:4.3196 7:3.4802 8:2.1621 9:2.1782 10:2.0173 11:1.388 12:1.8384 13:-1.1866 14:-1.895 15:-8.3416 16:-7.2592 17:2.3827 18:3.4977 19:2.0717 20:4.0653 21:2.7682 22:2.5172 23:1.8809 24:1.6587 25:0.77096 
-0.38620516649961595 1:2.7537 2:7.5601 3:4.1867 4:1.4983 5:5.1505 6:2.8091 7:-7.0748 8:-7.4579 9:-4.6468 10:-7.0632 11:-1.8802 12:-0.97513 13:2.178 14:3.9913 15:3.471 16:5.5105 17:6.6275 18:6.0249 19:4.9236 20:1.8229 21:-0.30032 22:-5.2404 23:-9.2899 24:-5.4198 25:2.6353 
-0.3859345847659407 1:0.81363 2:3.1227 3:3.2779 4:3.1039 5:4.5633 6:5.4239 7:4.1829 8:3.2585 9:-6.2167 10:-10.3447 11:-8.8305 12:-5.5292 13:-1.4491 14:1.2123 15:4.195 16:3.9542 17:3.2327 18:3.5657 19:4.5373 20:5.0371 21:2.9129 22:-0.59764 23:-7.5752 24:-6.177 25:0.97516 
-0.387624081057692 1:-1.2274 2:-2.8108 3:3.0483 4:3.0778 5:-3.8171 6:-4.4089 7:-5.1359 8:-3.4458 9:1.7943 10:3.9204 11:1.7189 12:-1.2072 13:-1.7954 14:-0.63313 15:1.1777 16:4.0037 17:-2.5793 18:-2.0581 19:-5.8594 20:-5.1756 21:-2.9399 22:0.46252 23:3.1237 24:0.797 25:-2.1101 
-0.3830610033105153 1:-0.54016 2:3.2836 3:2.6536 4:0.33824 5:1.559 6:1.1477 7:-0.55505 8:-0.34456 9:-0.98216 10:3.265 11:-9.029 12:-4.5429 13:-0.57141 14:0.73515 15:1.1883 16:3.1014 17:1.588 18:1.7591 19:0.81749 20:2.323 21:3.9289 22:2.2711 23:-2.4426 24:-2.1126 25:-0.77199 
-0.38598624414313865 1:-8.7372 2:-11.6035 3:-4.5221 4:-0.43051 5:1.5859 6:-0.50181 7:2.7923 8:4.5913 9:4.4372 10:3.1492 11:4.0554 12:4.9729 13:3.7004 14:3.5348 15:-1.5724 16:-4.2617 17:-5.6571 18:-2.1485 19:-3.931 20:-2.0021 21:2.2466 22:2.7247 23:4.5534 24:4.3722 25:-1.6839 
-0.3830704422576063 1:-3.8136 2:-0.6204 3:4.0975 4:3.928 5:4.7548 6:4.6229 7:3.9061 8:4.8592 9:4.3016 10:1.9739 11:0.52924 12:-5.1535 13:-12.8707 14:-9.0104 15:-3.5222 16:-0.3784 17:2.6255 18:4.1912 19:4.7079 20:4.8275 21:4.9948 22:4.8207 23:3.5128 24:1.2559 25:-7.837 
-0.40310057890343093 1:-3.122 2:-5.1887 3:-3.8887 4:-2.4855 5:-0.48173 6:0.88166 7:0.51526 8:0.7557 9:-1.112 10:-1.3541 11:-0.50625 12:3.3549 13:2.3056 14:-0.40889 15:2.575 16:0.77399 17:-4.4606 18:-4.3568 19:-2.446 20:-2.6312 21:1.5048 22:1.8155 23:0.83333 24:-0.60445 25:-1.3143 
-0.3668681610182379 1:-1.4271 2:-5.1979 3:-4.849 4:-2.9924 5:-0.56291 6:2.2101 7:1.5623 8:-0.71035 9:-2.1511 10:0.28691 11:-1.3151 12:-0.65765 13:4.6131 14:-0.32571 15:0.94802 16:-1.025 17:-5.7588 18:-4.1146 19:-2.3634 20:-1.2258 21:-0.58526 22:1.8516 23:-1.169 24:-1.127 25:-0.87442 
-0.3745487640084758 1:0.065577 2:1.9324 3:2.0135 4:0.91213 5:0.36556 6:1.0982 7:2.2604 8:2.8484 9:4.8656 10:-1.0841 11:-9.6915 12:-8.6315 13:-7.7092 14:-2.2403 15:-0.16104 16:1.836 17:0.66969 18:1.0633 19:1.8401 20:3.0363 21:2.4208 22:3.4948 23:2.7316 24:-1.8447 25:-2.1135 
-0.3869933689287291 1:3.3037 2:1.5376 3:0.36833 4:1.5565 5:2.1018 6:0.35446 7:2.3955 8:1.0989 9:2.4051 10:-9.9826 11:-6.3846 12:-1.1794 13:0.33042 14:1.6286 15:3.0755 16:1.4659 17:1.3154 18:1.3923 19:1.0903 20:3.2467 21:2.1276 22:1.1847 23:-0.30779 24:-13.8758 25:0.0015391 
-0.3812679242467539 1:-13.1613 2:-6.3551 3:-0.27609 4:-1.118 5:4.3501 6:2.5774 7:0.076139 8:1.6366 9:1.496 10:-0.65376 11:-0.75739 12:1.4398 13:-0.058905 14:-2.9342 15:-6.6133 16:0.70348 17:-1.4488 18:-0.065856 19:3.5929 20:2.2283 21:2.9664 22:2.127 23:2.5057 24:1.6904 25:1.1065 
-0.5008883996369743 1:0.75081 2:0.85089 3:0.76116 4:-0.78242 5:-0.62595 6:0.48585 7:0.49182 8:4.0541 9:-2.9082 10:2.2171 11:-0.37043 12:-4.3967 13:-3.4122 14:0.54596 15:0.38882 16:-0.27074 17:0.88391 18:0.41209 19:-0.12778 20:0.23392 21:0.34941 22:3.9943 23:2.498 24:-3.3126 25:0.37193 
-0.3761683541765151 1:1.6307 2:0.56671 3:-5.1617 4:-6.3361 5:-3.2551 6:-2.2141 7:-1.0472 8:0.78831 9:1.6697 10:1.7589 11:3.267 12:5.0183 13:4.6686 14:2.3249 15:2.1679 16:0.081219 17:0.48423 18:-2.921 19:-5.8303 20:-6.8471 21:-6.3632 22:-2.0133 23:0.76886 24:1.7306 25:1.5931 
-0.45167118198871486 1:0.86243 2:-1.9426 3:1.1815 4:-1.8054 5:-2.3001 6:-0.39592 7:0.051816 8:-1.0388 9:-0.3992 10:1.5836 11:1.4877 12:1.034 13:2.647 14:4.4257 15:2.7655 16:-0.96239 17:0.060219 18:-5.8272 19:-1.9165 20:-0.43764 21:1.3773 22:0.12675 23:-0.563 24:1.4977 25:3.5556 
-0.38036780387864033 1:2.1217 2:-1.5668 3:-9.2688 4:-6.1368 5:-6.6297 6:-0.9489 7:1.4799 8:3.0039 9:3.4544 10:3.7172 11:4.5925 12:4.891 13:4.0529 14:-0.080782 15:1.4273 16:-6.445 17:-12.2984 18:-7.509 19:-2.1222 20:1.3187 21:2.4909 22:3.0018 23:2.9552 24:2.5918 25:4.0791 
-0.38478573972139163 1:1.6655 2:1.5456 3:1.2222 4:1.6817 5:1.1431 6:-3.4038 7:-8.2061 8:-7.4287 9:-6.2671 10:-2.8585 11:-2.2038 12:-0.63581 13:3.8221 14:3.5427 15:1.4271 16:2.7799 17:1.3317 18:0.7037 19:0.40806 20:-1.4755 21:-1.3362 22:-10.8151 23:-9.5811 24:-8.1066 25:2.0006 
-0.38554819784578753 1:5.225 2:5.4309 3:6.4765 4:2.7855 5:-2.4427 6:-6.5205 7:-3.029 8:-5.6478 9:-7.7636 10:1.4725 11:2.3314 12:1.5844 13:3.8794 14:4.0629 15:3.5185 16:5.6871 17:5.6631 18:5.607 19:0.87104 20:-2.6244 21:-5.4793 22:-4.9837 23:-4.0908 24:-1.7701 25:3.7082 
-0.3986274265001362 1:-2.193 2:-2.1075 3:-5.9914 4:-7.2626 5:-5.3745 6:-1.6187 7:-2.9622 8:-3.5154 9:2.4048 10:0.3656 11:1.7683 12:2.2255 13:1.5505 14:-0.003337 15:-1.4531 16:-1.1645 17:-3.1536 18:-2.5029 19:-3.617 20:-2.7277 21:-0.51192 22:-2.1002 23:-0.53841 24:4.4976 25:-0.41747 
-0.3832322192163752 1:2.4228 2:0.10717 3:1.3641 4:-1.7495 5:1.562 6:-5.3999 7:-2.547 8:-2.556 9:-0.73108 10:-0.40455 11:2.5432 12:3.1873 13:2.0926 14:0.94289 15:4.4177 16:2.4624 17:3.3805 18:-3.7678 19:-2.5492 20:-11.5039 21:-3.9119 22:-3.5731 23:-0.30778 24:0.84275 25:1.7773 
-0.38701028788003206 1:2.8154 2:0.84146 3:-3.3079 4:-3.6816 5:-2.1314 6:-5.2698 7:-6.7246 8:-2.1454 9:-0.38688 10:2.3896 11:0.080732 12:7.8488 13:2.7034 14:5.9254 15:7.9655 16:7.1404 17:2.2458 18:-1.027 19:-7.7185 20:-9.0344 21:-8.5515 22:-6.7066 23:-2.6964 24:-1.3713 25:4.1697 
-0.3792596232203243 1:1.1852 2:7.1253 3:3.0213 4:0.079117 5:-3.8323 6:-5.5314 7:-2.6438 8:-1.4814 9:-2.2489 10:-0.9832 11:-0.94978 12:-0.21563 13:0.38179 14:0.61252 15:1.768 16:3.2716 17:5.5177 18:6.367 19:0.033665 20:-0.99178 21:-3.7549 22:-1.3926 23:-1.1633 24:-1.4684 25:1.2164 
-0.38539255060180194 1:-5.3513 2:10.4331 3:9.9462 4:3.2809 5:-2.0171 6:-1.8292 7:0.12232 8:-0.80931 9:-0.75519 10:-2.9658 11:-1.1031 12:-1.9442 13:-3.8231 14:-4.6974 15:1.2889 16:5.5651 17:4.9496 18:3.8687 19:1.1701 20:-1.2553 21:-1.4698 22:1.3443 23:-1.1408 24:-3.3583 25:-3.5612 
-0.40262021550461496 1:1.5816 2:1.6317 3:0.61525 4:0.024491 5:0.023939 6:4.3438 7:-2.5754 8:-1.1907 9:4.5805 10:-6.7238 11:-3.1064 12:-2.8371 13:-1.5757 14:0.20393 15:0.17011 16:1.2793 17:1.5707 18:0.76503 19:-0.010119 20:2.4908 21:2.7122 22:2.5138 23:-1.9142 24:2.1313 25:1.4772 
-0.4027406614522881 1:0.4646 2:2.1998 3:1.6262 4:-2.1379 5:-2.9144 6:4.2204 7:3.8534 8:-0.064983 9:-0.64252 10:-3.3696 11:-2.4059 12:-3.084 13:-1.0888 14:-1.689 15:-1.1206 16:0.82473 17:2.6819 18:-0.82194 19:0.77717 20:4.8024 21:-0.24924 22:-0.53916 23:-2.5188 24:-2.5755 25:-0.31082 
-0.4221239841012985 1:-2.7382 2:1.1111 3:0.19572 4:-0.49375 5:2.6582 6:3.039 7:0.60047 8:-1.5559 9:-2.3158 10:-2.7955 11:-3.9775 12:-1.9201 13:-3.1852 14:-1.1915 15:-1.2914 16:1.4667 17:2.5197 18:-0.03318 19:1.4106 20:3.1981 21:0.82402 22:-0.023537 23:-2.3055 24:-3.3979 25:-2.4048 
-0.3864845332578924 1:-3.3518 2:-1.0261 3:-1.6385 4:-1.0828 5:-1.7207 6:-0.44132 7:-1.4174 8:-2.1734 9:-1.7588 10:-2.4732 11:7.3381 12:5.3004 13:1.6441 14:-1.9031 15:-0.41083 16:0.71528 17:-1.0629 18:-1.2021 19:0.0034005 20:-2.1454 21:-3.7725 22:-2.6395 23:-4.1476 24:5.2333 25:-0.70214 
-0.38801781265564217 1:-1.5663 2:0.17017 3:1.232 4:1.2975 5:0.89843 6:0.77752 7:0.73036 8:-0.23807 9:0.32081 10:1.0429 11:0.89146 12:-0.84126 13:8.7981 14:-3.9009 15:2.6578 16:-0.83579 17:-3.3157 18:-2.9758 19:-6.3106 20:-6.1124 21:-2.7209 22:-2.4481 23:-6.1449 24:2.4631 25:-0.088474 
-0.4032626232449822 1:1.3422 2:1.507 3:2.7058 4:3.0472 5:3.5494 6:1.7656 7:0.88204 8:1.2059 9:1.2676 10:0.86565 11:-1.5768 12:-4.5451 13:-4.756 14:2.5587 15:4.4693 16:-2.4868 17:6.0014 18:3.1716 19:0.31006 20:-0.38582 21:-0.66395 22:-0.4644 23:-1.0472 24:-2.4226 25:-1.2838 
-0.3861866324728119 1:-1.407 2:-1.1461 3:-1.0013 4:-2.6728 5:-2.2622 6:-3.3783 7:-3.2228 8:2.0157 9:4.4062 10:4.8396 11:7.2638 12:2.5386 13:-2.9733 14:-2.1905 15:-1.4302 16:-1.49 17:-2.5351 18:-2.0313 19:-0.29374 20:-1.8783 21:-4.8504 22:-0.76754 23:6.2433 24:7.8877 25:-4.4632 
-0.387748160002616 1:-0.069751 2:0.03084 3:-0.87818 4:-2.4258 5:-2.0598 6:1.7098 7:0.56969 8:1.5014 9:1.3297 10:1.8888 11:5.343 12:2.3251 13:-2.7353 14:-3.8658 15:-5.0743 16:-5.1683 17:-4.6583 18:-2.3974 19:-1.9049 20:5.5618 21:1.1019 22:-2.898 23:4.1448 24:3.6547 25:-0.21038 
-0.39316374147476807 1:-2.2535 2:-1.6796 3:-2.7099 4:0.28529 5:-1.4146 6:-0.76398 7:-1.9533 8:-1.1944 9:-0.44383 10:-1.1481 11:-4.6558 12:-3.5929 13:8.732 14:2.6094 15:-1.8528 16:0.0076571 17:3.2372 18:3.2528 19:-0.42084 20:-1.7896 21:-0.54468 22:-2.0072 23:-0.85579 24:-0.34428 25:2.4426 
-0.38639771126195116 1:0.31232 2:-0.20527 3:-1.8826 4:-4.2798 5:-11.1064 6:-8.8738 7:-6.6135 8:-0.12004 9:0.53961 10:-2.1951 11:0.32109 12:5.3223 13:3.0653 14:-0.30525 15:0.1073 16:1.6662 17:-1.6753 18:-2.1747 19:-3.6075 20:-11.2225 21:-6.7299 22:-4.1932 23:-0.71761 24:-4.272 25:1.9175 
-0.7008578741642596 1:-2.0352 2:-1.1021 3:-2.0566 4:-2.3525 5:2.3653 6:-1.4211 7:0.34318 8:-0.43972 9:-0.50042 10:2.556 11:-0.18402 12:-0.45886 13:-0.5478 14:-0.83326 15:-1.2856 16:-0.43222 17:1.1126 18:-1.605 19:2.3618 20:1.1269 21:-3.0729 22:-1.1285 23:0.19669 24:2.0676 25:-1.162 
-0.3821111416684741 1:-0.34521 2:3.1258 3:3.7587 4:3.3342 5:2.5345 6:2.0365 7:3.337 8:3.7047 9:2.14 10:0.79591 11:0.35321 12:-13.9256 13:-9.8855 14:-3.6967 15:-0.23128 16:2.01 17:4.1175 18:3.8285 19:4.3386 20:4.926 21:5.3038 22:3.9573 23:-0.050173 24:-3.8376 25:-7.0967 
-0.38818479557048463 1:0.12049 2:-0.19938 3:0.06643 4:-1.1266 5:0.36173 6:5.1611 7:6.1389 8:-0.64349 9:-4.4048 10:-0.20976 11:0.52307 12:-2.7456 13:2.6736 14:-0.40831 15:-3.5608 16:-6.4199 17:-6.6653 18:-5.0936 19:3.0361 20:3.5626 21:2.7566 22:-0.1717 23:-0.7113 24:0.9456 25:0.36383 
-0.38655149864887983 1:2.2791 2:-0.85018 3:-3.1752 4:-1.6476 5:-0.35223 6:-5.4441 7:-0.70303 8:0.61091 9:0.22219 10:0.59584 11:3.6449 12:1.2732 13:0.81682 14:0.54431 15:1.1364 16:2.4931 17:-2.9379 18:1.3648 19:-4.1591 20:-9.005 21:1.9307 22:-1.095 23:2.1858 24:2.19 25:2.0739 
-0.3755763987719728 1:8.2303 2:3.2917 3:-2.6898 4:-1.397 5:-1.1211 6:-1.5284 7:-0.55375 8:-1.3412 9:-1.5209 10:-1.5553 11:-1.7917 12:-1.5696 13:3.576 14:11.0638 15:5.3917 16:-3.7125 17:-1.5049 18:-1.8901 19:-1.6297 20:-3.2233 21:-3.0398 22:-2.4302 23:-1.8651 24:-3.3487 25:4.219 
-0.36931459880902945 1:-3.5898 2:-4.2136 3:-4.7608 4:-2.9034 5:-3.739 6:-2.904 7:-1.1201 8:1.0751 9:3.4447 10:3.749 11:2.4918 12:1.5659 13:0.054198 14:-0.13261 15:-5.0004 16:-4.3525 17:-4.5863 18:-3.8187 19:-4.5469 20:-2.6276 21:-1.0966 22:1.4241 23:2.6681 24:3.5109 25:-1.2328 
-0.38383252672911033 1:-0.064733 2:-1.4902 3:-5.5157 4:-5.723 5:1.318 6:-2.6946 7:0.56777 8:3.7368 9:2.8359 10:0.7921 11:-0.30356 12:1.4584 13:0.92854 14:1.0222 15:2.2114 16:2.8197 17:-3.5966 18:-7.5398 19:-0.29761 20:-2.3144 21:-0.78755 22:5.2408 23:2.7005 24:1.7289 25:0.54941 
-0.3873877702985927 1:1.9397 2:4.9685 3:2.198 4:7.3248 5:8.2957 6:8.686 7:8.5111 8:4.797 9:1.2987 10:-7.7447 11:-9.1976 12:-13.3007 13:-9.5219 14:1.5608 15:2.604 16:3.014 17:2.6333 18:4.6413 19:2.0895 20:1.7366 21:1.0296 22:1.3238 23:3.0032 24:2.8668 25:-3.1368 
-0.38473212561527326 1:-1.8787 2:0.72558 3:2.0576 4:3.726 5:2.728 6:3.7545 7:4.724 8:5.2006 9:5.5016 10:-2.1505 11:-10.5824 12:-7.1968 13:-6.1394 14:-1.5974 15:-2.7531 16:-3.0982 17:0.78806 18:3.8203 19:4.4201 20:4.3364 21:5.1359 22:5.4372 23:4.0606 24:1.4381 25:-6.4444 
-0.38736665658734204 1:0.26386 2:0.059832 3:3.7281 4:3.9314 5:-3.0506 6:-2.3528 7:4.4893 8:8.9908 9:3.2738 10:5.5214 11:2.2686 12:-5.258 13:-5.6896 14:-13.3188 15:-15.4242 16:-7.4673 17:-4.3027 18:-2.8429 19:-0.33083 20:0.75355 21:0.68877 22:-0.11303 23:-1.0787 24:-0.85871 25:-2.4376 
-0.37538715434453446 1:-0.97867 2:-1.4451 3:1.8748 4:0.55222 5:3.2245 6:2.0808 7:1.9319 8:0.091075 9:-1.3122 10:-1.3777 11:0.39634 12:-2.4327 13:-9.6898 14:-4.0838 15:1.6245 16:0.67947 17:0.9064 18:2.0101 19:3.1965 20:1.877 21:2.2096 22:1.6805 23:-1.6687 24:-0.31446 25:-6.6353 
-0.3152664213158011 1:7.7351 2:4.8963 3:1.4805 4:-1.2896 5:-2.6347 6:-0.96926 7:-2.412 8:-3.4369 9:-2.8698 10:-1.835 11:-3.4115 12:-2.7421 13:5.9905 14:10.0063 15:8.2705 16:2.6122 17:-2.6091 18:-2.5025 19:-2.0585 20:-2.3371 21:-2.539 22:-1.2728 23:-1.7846 24:-3.9704 25:4.7718 
-0.3949926235845701 1:1.2011 2:0.95975 3:0.22494 4:-0.52892 5:-0.32658 6:-2.8261 7:-4.2204 8:-0.96969 9:-0.4444 10:2.0824 11:4.8246 12:2.4907 13:2.2609 14:0.51622 15:1.0575 16:0.48702 17:-1.3777 18:-0.46869 19:-0.49653 20:-2.2555 21:-5.1357 22:1.2224 23:-0.74229 24:3.6861 25:2.3196 
-0.37371681464628276 1:-3.2363 2:-1.9935 3:0.58474 4:2.0979 5:3.647 6:3.524 7:3.1744 8:1.941 9:1.5354 10:1.2607 11:3.4426 12:0.21756 13:-7.5859 14:-5.2706 15:-2.9198 16:-1.3201 17:0.94044 18:2.5425 19:3.0312 20:4.5504 21:5.599 22:4.9145 23:4.8131 24:2.3561 25:-6.802 
-0.37991267121944367 1:-3.013 2:-0.67175 3:-5.2652 4:-2.2181 5:-0.40302 6:-0.81601 7:2.2017 8:6.6518 9:3.611 10:1.8222 11:-0.07966 12:-0.39223 13:0.17624 14:-1.3156 15:-3.2508 16:-5.8768 17:-4.3342 18:-6.9362 19:-1.6897 20:-0.43336 21:-0.39725 22:2.171 23:4.3581 24:1.972 25:-0.5462 
-0.3949811111578526 1:-3.8986 2:-4.0368 3:-0.69485 4:0.45773 5:-1.4381 6:-1.5525 7:0.93329 8:0.94113 9:0.85189 10:0.60178 11:3.8941 12:2.4342 13:-6.7073 14:-1.1782 15:-0.048292 16:-3.8482 17:-4.4299 18:-1.7122 19:0.10593 20:0.71072 21:-0.75204 22:1.0873 23:1.5309 24:0.15277 25:-4.8845 
-0.6283359102122684 1:-0.20909 2:0.2281 3:2.627 4:3.0126 5:0.25171 6:-1.7908 7:-2.0114 8:-1.2269 9:-1.9569 10:0.084355 11:-3.095 12:-0.31329 13:0.74427 14:-0.31665 15:-1.5111 16:-1.9939 17:1.1312 18:3.4837 19:0.40549 20:-1.5993 21:-1.6136 22:-1.8391 23:-2.322 24:-1.5423 25:-1.241 
-0.3924372963094715 1:-1.3702 2:-2.2146 3:-3.8976 4:-1.0122 5:1.8648 6:0.87257 7:0.3661 8:-0.64552 9:-2.1327 10:-3.4935 11:-5.301 12:-6.6203 13:-5.7655 14:-3.4913 15:-0.5909 16:0.89153 17:2.3205 18:2.5802 19:1.6601 20:0.10524 21:0.20479 22:0.31626 23:0.038391 24:-0.19873 25:-0.13508 
-0.38636052312550445 1:-3.5928 2:-0.92322 3:0.18857 4:1.974 5:0.86412 6:0.17983 7:0.8704 8:2.9743 9:4.3845 10:6.6485 11:0.8485 12:-1.3073 13:-4.3054 14:-3.1207 15:-3.2369 16:-2.4182 17:1.1803 18:-0.11722 19:0.44351 20:0.24929 21:0.56909 22:0.47294 23:2.2123 24:4.4887 25:-2.8507 
-0.38567301155200123 1:-2.7994 2:-3.9968 3:-1.7911 4:6.3646 5:3.8177 6:-0.87448 7:-0.53564 8:-5.7227 9:0.23918 10:-1.6558 11:-2.5384 12:-3.1209 13:-2.3506 14:-1.6549 15:-1.8413 16:-1.4574 17:0.29781 18:5.9494 19:1.5052 20:-8.3487 21:-4.8398 22:-1.8344 23:1.4633 24:-2.0937 25:-2.5113 
-0.38732380593668875 1:2.0389 2:-1.1799 3:-13.9119 4:-7.0861 5:-3.8348 6:-2.5226 7:3.4433 8:-1.1733 9:2.6454 10:-3.4262 11:3.0893 12:6.7283 13:3.0749 14:7.5833 15:7.5116 16:1.1223 17:-2.3844 18:-6.0703 19:-10.3052 20:-14.5927 21:-7.5694 22:-5.3334 23:1.0722 24:2.2102 25:6.5386 
-0.3873027792079547 1:-2.9009 2:-0.41596 3:-3.1571 4:2.3417 5:-4.0598 6:-1.9851 7:-13.8433 8:-7.6825 9:-7.1233 10:-1.3335 11:0.50054 12:5.9584 13:4.9361 14:-0.69542 15:-0.6816 16:-1.581 17:-3.2785 18:-1.6894 19:2.1196 20:-4.0342 21:-7.746 22:-5.631 23:-6.3053 24:-4.8835 25:-1.9637 
-0.42636513121363717 1:1.5591 2:-0.19992 3:-1.2342 4:0.7435 5:0.6677 6:-2.6052 7:6.0794 8:1.6264 9:-0.17655 10:-3.5178 11:-4.673 12:-4.4052 13:-2.4307 14:-2.1367 15:0.6171 16:1.3928 17:-0.42427 18:-1.7722 19:-1.5832 20:-0.99619 21:0.030189 22:-0.48937 23:2.3771 24:0.39064 25:2.6488 
-0.3834314309494646 1:-1.553 2:2.864 3:3.4601 4:1.3948 5:0.95822 6:1.1332 7:3.0681 8:0.80775 9:2.3999 10:-0.56164 11:-10.0272 12:-9.0371 13:1.4251 14:-1.2652 15:-2.3781 16:2.6517 17:5.134 18:1.1603 19:0.59623 20:3.0818 21:2.8525 22:0.2931 23:0.22429 24:2.3338 25:1.9125 
-0.3702414437620968 1:-5.3164 2:-7.0459 3:-2.7074 4:0.47641 5:2.9995 6:4.3933 7:3.8396 8:3.6579 9:3.4363 10:2.8234 11:2.0902 12:0.23009 13:0.18199 14:-9.556 15:-7.309 16:-2.5187 17:-1.9863 18:0.24411 19:1.9788 20:1.5967 21:3.1684 22:3.4203 23:3.4209 24:2.9452 25:-7.9892 
-0.3938120428218257 1:2.3664 2:-0.64958 3:2.3733 4:1.5618 5:1.5577 6:-2.4944 7:0.56934 8:-2.656 9:-5.2289 10:-1.73 11:-1.1395 12:-1.1752 13:-1.0135 14:0.8295 15:2.3257 16:0.61229 17:0.11301 18:3.9367 19:3.9222 20:1.6275 21:-6.1424 22:-1.2922 23:0.34139 24:-2.4558 25:3.896 
-0.38416005456410307 1:0.59535 2:6.4144 3:3.9381 4:1.6794 5:-2.4635 6:-2.6303 7:-3.5896 8:0.055438 9:0.83416 10:2.4381 11:1.1206 12:0.98436 13:-0.94643 14:4.5985 15:1.9535 16:1.0179 17:5.4493 18:0.18536 19:-4.467 20:-3.591 21:-2.9656 22:-4.1689 23:-2.2669 24:0.99333 25:1.1422 
-0.4020572102965247 1:-2.5487 2:-4.8605 3:-1.9989 4:5.6149 5:2.0058 6:0.85343 7:2.6848 8:4.49 9:0.1361 10:-1.3828 11:-4.8568 12:-3.2303 13:0.66121 14:-0.33481 15:-0.38934 16:1.001 17:2.0779 18:2.0586 19:1.5428 20:-2.2409 21:2.0034 22:-1.9465 23:-1.4166 24:-1.7681 25:-2.4437 
-0.3734605804686033 1:7.5035 2:7.5287 3:4.6358 4:0.63362 5:-2.144 6:-1.8138 7:-0.045124 8:-2.0122 9:-1.7496 10:-1.6559 11:-2.4475 12:-3.1089 13:-2.1076 14:3.8643 15:4.1729 16:6.3974 17:2.0708 18:-0.95442 19:-1.6252 20:-1.6183 21:-0.52953 22:-0.58312 23:-1.8929 24:-0.73372 25:-2.2193 
-0.385432552466549 1:3.3262 2:3.9834 3:3.7384 4:3.5976 5:1.1987 6:-7.691 7:-8.1208 8:-4.6852 9:-2.7378 10:2.1686 11:3.9222 12:3.9232 13:2.9166 14:2.954 15:2.6636 16:2.8247 17:2.8695 18:2.0984 19:-1.7973 20:-11.7946 21:-5.7167 22:-3.6789 23:-2.8677 24:0.33706 25:2.6546 
-0.3821354096930624 1:-0.055436 2:8.9989 3:10.6905 4:3.2289 5:-1.3906 6:-1.1039 7:-2.5872 8:-3.8877 9:-3.6619 10:-3.5708 11:-2.3141 12:-2.2674 13:-3.3639 14:-0.50745 15:6.2324 16:8.7934 17:5.8388 18:0.65037 19:-1.1402 20:-1.2118 21:-0.77935 22:-2.1727 23:-2.7683 24:-2.9083 25:-1.134 
-0.38391976288775753 1:-2.3079 2:-5.314 3:-11.6587 4:-4.5911 5:-3.1799 6:-0.16849 7:-0.035889 8:3.5735 9:3.7188 10:1.7484 11:0.95776 12:1.2057 13:0.52754 14:-0.44499 15:-1.2378 16:2.4361 17:-9.0316 18:-4.7901 19:-3.048 20:-0.55689 21:0.57338 22:2.8616 23:1.8724 24:2.3937 25:2.6396 
-0.3751249147689539 1:-6.5568 2:-5.4483 3:-2.3986 4:1.8261 5:0.76583 6:2.9201 7:2.8788 8:2.228 9:3.186 10:1.7266 11:-0.65577 12:0.72581 13:0.66207 14:-3.1428 15:-13.5303 16:-6.4328 17:-0.57813 18:1.0609 19:1.6531 20:3.7063 21:0.80434 22:3.4458 23:3.1622 24:1.4337 25:-1.0553 
-0.38634186204349463 1:5.1079 2:2.8276 3:-8.7883 4:2.6862 5:-4.0991 6:-4.7177 7:-2.4679 8:0.85588 9:1.9608 10:0.29257 11:1.5476 12:4.916 13:2.3325 14:0.98675 15:3.6125 16:5.1633 17:-0.40275 18:-6.6722 19:-1.7353 20:-3.9128 21:-3.4398 22:-1.3295 23:-1.3825 24:-0.89634 25:-0.98937 
-0.5671001247988833 1:3.316 2:0.97302 3:-2.4536 4:-2.5232 5:-2.5649 6:-1.1618 7:-0.98678 8:1.1171 9:0.77423 10:-0.671 11:0.0019151 12:-0.84478 13:-0.53324 14:1.4523 15:2.931 16:-0.26256 17:-1.2772 18:-0.70928 19:-1.2542 20:-1.1345 21:-2.9781 22:-3.4964 23:2.3563 24:1.2906 25:-1.619 
-0.36411195556421017 1:-1.1788 2:0.43914 3:2.582 4:3.6602 5:0.53578 6:-2.5274 7:-4.3895 8:-5.6758 9:-2.1476 10:-2.4437 11:1.9537 12:2.8077 13:3.6149 14:1.2666 15:-0.5813 16:0.74881 17:1.8961 18:1.8083 19:-0.36392 20:-3.5292 21:-4.9869 22:-3.7622 23:-4.0273 24:0.20959 25:-1.0131 
-0.3500162803606259 1:1.8592 2:2.2017 3:1.5397 4:-0.060083 5:-1.5939 6:-4.0213 7:-5.9953 8:-4.1725 9:1.453 10:0.99864 11:1.3175 12:2.6582 13:2.5541 14:0.67654 15:1.9899 16:2.0182 17:1.0555 18:0.4426 19:-0.74895 20:-3.6003 21:-6.36 22:-3.2139 23:0.10071 24:-0.39168 25:1.8225 
-0.3852292307613417 1:-4.5241 2:-4.5247 3:-1.144 4:-5.4352 5:-2.2208 6:2.0635 7:-0.86365 8:2.9917 9:2.7325 10:0.32854 11:-0.013988 12:-2.0758 13:-2.9294 14:-5.5877 15:-7.595 16:-7.0525 17:-2.5076 18:-3.4432 19:-2.075 20:-0.55339 21:-1.3057 22:0.96637 23:4.1984 24:1.0494 25:-3.778 
-0.37533865696630286 1:1.3285 2:0.51335 3:-6.0281 4:-6.4687 5:-6.5794 6:-3.8743 7:-1.2755 8:-1.4808 9:-1.6069 10:2.7968 11:2.1232 12:1.6252 13:0.95479 14:1.7867 15:-0.10993 16:0.50038 17:-0.79074 18:-4.4729 19:-6.5388 20:-4.1588 21:-5.1375 22:-3.7148 23:-3.059 24:-0.092645 25:0.77259 
-0.38028257204385535 1:1.0145 2:-4.4872 3:-7.372 4:-3.3222 5:-4.1093 6:-0.75979 7:1.6711 8:2.436 9:2.485 10:3.5828 11:2.6308 12:3.4138 13:4.5709 14:1.3594 15:-2.8434 16:-5.9672 17:-6.8713 18:-1.3224 19:-1.9733 20:0.16355 21:2.2653 22:3.5707 23:2.1883 24:2.2019 25:3.5776 
-0.725374308471826 1:1.1175 2:-0.029426 3:1.0419 4:0.023267 5:1.689 6:0.8904 7:0.012519 8:-0.055035 9:-0.76725 10:-0.31943 11:0.11908 12:0.28611 13:2.4364 14:1.0779 15:0.56377 16:0.9695 17:0.48565 18:-0.98123 19:1.6187 20:1.647 21:-5.9233 22:1.8804 23:1.7971 24:-1.969 25:0.3886 
-0.3797508846253224 1:0.59491 2:-0.85326 3:-0.35506 4:-0.094382 5:0.73142 6:1.8889 7:2.5595 8:4.1661 9:5.4776 10:-1.4923 11:-4.0915 12:-3.2622 13:-1.2454 14:-4.0854 15:-3.2652 16:-1.4642 17:0.24039 18:0.14908 19:1.1612 20:1.7491 21:3.0775 22:3.482 23:3.2364 24:6.0261 25:-0.75418 
-0.3834082469362885 1:-1.5867 2:1.4113 3:2.8153 4:0.93581 5:-1.7921 6:-3.3901 7:-3.8412 8:-5.1582 9:-3.4007 10:-0.83179 11:2.6089 12:0.93064 13:-2.2306 14:-3.0984 15:-1.9207 16:-0.31752 17:2.7835 18:4.3988 19:-0.92134 20:0.082776 21:0.64758 22:-5.8833 23:-5.2713 24:-4.6434 25:-1.3823 
-0.4426827857774579 1:-0.91475 2:0.46312 3:0.46769 4:2.1381 5:-0.3271 6:-0.99299 7:-1.3304 8:-3.3458 9:-3.7996 10:-5.2865 11:-4.9078 12:-5.0768 13:-3.088 14:0.39575 15:1.666 16:0.75918 17:1.8097 18:1.4963 19:-0.07136 20:-0.67345 21:1.9073 22:0.3337 23:-1.3266 24:5.7584 25:0.52655 
-0.38668369589798174 1:2.8936 2:4.2341 3:5.2831 4:4.7491 5:4.175 6:1.8834 7:1.1219 8:-14.1993 9:-7.1834 10:-0.51141 11:-0.11047 12:1.2768 13:1.7277 14:1.1078 15:2.0783 16:3.7828 17:4.2245 18:5.1091 19:3.9989 20:1.4973 21:-7.2497 22:-5.4995 23:-4.9931 24:-0.92835 25:3.3728 
-0.386817559004211 1:4.8543 2:0.7759 3:-2.5683 4:-11.0147 5:-8.7765 6:-5.8462 7:-3.0848 8:1.1518 9:2.7085 10:4.1335 11:4.7576 12:5.3701 13:4.7014 14:3.535 15:2.8585 16:-1.0114 17:-10.3422 18:-7.3751 19:-4.3236 20:-4.233 21:-2.1008 22:0.67275 23:3.9868 24:4.9167 25:5.2694 
-0.3240968728048352 1:3.6946 2:3.5215 3:3.7401 4:2.7638 5:2.2821 6:0.49873 7:-0.35573 8:-1.2047 9:-4.2098 10:-6.391 11:-5.1254 12:0.47061 13:-0.41678 14:2.9001 15:2.5287 16:0.73355 17:2.1775 18:3.1738 19:2.4052 20:0.40548 21:-1.101 22:-3.5797 23:-5.8518 24:-5.7216 25:0.64728 
-0.38705553692738653 1:-1.0689 2:1.9489 3:3.9278 4:3.9456 5:4.152 6:4.1555 7:3.3663 8:2.2944 9:2.9156 10:-10.7318 11:-6.0951 12:-2.1913 13:-2.7334 14:-0.28812 15:3.7417 16:5.3964 17:4.5398 18:4.9089 19:3.1294 20:2.7469 21:1.5708 22:-4.179 23:-11.5605 24:-5.8977 25:-2.6533 
-0.3933050182539646 1:-0.48981 2:-0.85323 3:-0.44426 4:-1.9072 5:-2.5912 6:-1.865 7:-2.974 8:4.1758 9:4.5946 10:0.64059 11:3.9435 12:-6.6417 13:-4.2753 14:-3.5946 15:-0.2344 16:-0.7963 17:-0.81606 18:-1.4634 19:-1.4003 20:1.6303 21:2.3222 22:-0.30035 23:-1.3124 24:-1.3198 25:-0.68069 
-0.4123764067788329 1:0.63825 2:1.5209 3:0.55732 4:0.60262 5:0.33408 6:0.62317 7:-0.17069 8:1.7029 9:2.1885 10:0.18796 11:-3.5706 12:-4.1281 13:-4.9611 14:-3.4539 15:0.40949 16:1.6604 17:0.83753 18:2.0048 19:1.6603 20:0.56149 21:1.5074 22:0.84648 23:2.8589 24:-0.47873 25:-4.8232 
-0.384377960837693 1:2.1 2:-5.7532 3:-4.6038 4:-2.1694 5:-0.036555 6:-3.0245 7:-0.96883 8:-0.2828 9:2.0896 10:2.6277 11:1.9879 12:2.2513 13:4.0184 14:6.6336 15:3.1473 16:-3.0385 17:-6.2532 18:-6.445 19:-3.9138 20:-0.93277 21:1.8358 22:-0.55281 23:1.8219 24:1.8651 25:3.138 
-0.3818310478563155 1:-4.7864 2:-0.84632 3:-0.92495 4:0.50193 5:2.251 6:2.8896 7:0.35027 8:1.9952 9:0.78142 10:2.8046 11:0.48624 12:-1.0298 13:1.0684 14:-7.4109 15:-2.4112 16:-0.91163 17:-1.9502 18:1.3517 19:1.3402 20:1.9752 21:-0.21745 22:0.72349 23:5.3061 24:4.0848 25:-9.9688 
-0.38645427998026416 1:-1.0148 2:-4.0598 3:-3.682 4:-5.1831 5:-3.5835 6:-1.3203 7:4.8896 8:2.8745 9:-0.46952 10:0.034588 11:0.29134 12:-2.3537 13:-3.9992 14:3.1506 15:-1.7918 16:-1.0414 17:-4.4884 18:-6.5312 19:-5.806 20:-2.0785 21:-2.6648 22:4.381 23:1.8734 24:-0.78781 25:-1.7974 
-0.5763643833252268 1:-2.2261 2:-1.8295 3:-1.775 4:-0.54952 5:2.8137 6:0.37555 7:-1.9297 8:-3.5093 9:-1.3405 10:-0.34744 11:-0.48638 12:-2.0181 13:-2.0581 14:-0.11528 15:-0.053959 16:-2.7344 17:2.1546 18:0.19373 19:-1.4191 20:-4.6951 21:-1.3521 22:-1.4436 23:-0.94764 24:-1.3917 25:-1.7115 
-0.38163065079495734 1:2.1552 2:5.7644 3:2.6673 4:0.27437 5:3.6168 6:2.1316 7:-0.020696 8:2.1928 9:0.8599 10:-2.5699 11:-8.672 12:0.33734 13:-1.4291 14:0.3618 15:3.3157 16:2.1355 17:1.7651 18:1.4267 19:1.1795 20:0.29245 21:-2.3943 22:-1.496 23:-1.4682 24:-4.0657 25:-3.2731 
-0.3865486659718764 1:0.31516 2:0.86366 3:0.66464 4:-10.3871 5:-8.2183 6:-7.7553 7:-2.8551 8:-0.26493 9:1.5286 10:5.2354 11:3.0115 12:2.6477 13:2.9859 14:-0.6501 15:-0.75661 16:-2.3038 17:-0.44894 18:-5.9864 19:-9.0655 20:-9.4261 21:0.084519 22:0.43246 23:-1.6268 24:2.2191 25:3.193 
-0.4309754684564751 1:-1.8457 2:-2.0661 3:-0.015107 4:-1.1264 5:-0.86785 6:1.5608 7:1.7791 8:-0.37754 9:-1.4314 10:-1.0238 11:-1.4437 12:-2.9941 13:-2.6769 14:0.91304 15:1.8082 16:-2.9927 17:-2.796 18:-1.3176 19:3.9734 20:2.6833 21:0.30729 22:-3.0497 23:5.8491 24:2.0998 25:-0.10232 
-0.38722759716258043 1:2.9397 2:1.3687 3:0.9488 4:2.8488 5:1.4362 6:-0.69361 7:-0.63785 8:-3.5359 9:-4.5945 10:-1.4974 11:-0.8221 12:5.2648 13:5.9885 14:3.7878 15:1.0535 16:2.7388 17:2.3692 18:1.4197 19:-3.198 20:-0.95389 21:-1.1186 22:-3.5124 23:0.2721 24:-13.6689 25:6.2225 
-0.3872249492549309 1:-5.371 2:-4.1501 3:-2.6203 4:2.7116 5:1.6842 6:1.4132 7:-0.46593 8:-2.5504 9:-1.3702 10:0.84285 11:-2.4625 12:0.98464 13:-4.6587 14:-4.7622 15:-5.4694 16:-6.673 17:-4.9663 18:-0.70133 19:0.49395 20:3.18 21:0.13004 22:-3.5108 23:-5.379 24:-2.4803 25:-2.3461 
-0.36328015687628956 1:1.9048 2:1.0566 3:1.1041 4:1.1155 5:0.22926 6:-4.3864 7:-6.3167 8:0.73454 9:-1.8944 10:-0.032751 11:3.0076 12:3.1025 13:1.0679 14:1.9216 15:3.8412 16:0.51177 17:-1.7014 18:-0.018613 19:-0.65733 20:-6.0363 21:-4.1841 22:1.4585 23:-2.5326 24:-0.15268 25:0.17261 
-0.38514875060845605 1:-3.2628 2:-1.767 3:0.2816 4:-0.21958 5:-1.1192 6:-0.72632 7:2.3008 8:-0.4045 9:-0.057367 10:6.6287 11:3.8273 12:-4.6123 13:0.86698 14:0.67416 15:-7.0224 16:-3.6284 17:-0.29405 18:-1.4717 19:-0.025056 20:0.36206 21:2.7325 22:2.5679 23:1.285 24:1.0513 25:-6.4806 
-0.38030323020725254 1:-0.086957 2:0.48204 3:-3.5043 4:-7.179 5:-7.3636 6:-3.2274 7:0.13012 8:3.45 9:-0.051942 10:3.3669 11:2.7734 12:0.3963 13:5.0281 14:2.2603 15:2.1096 16:-1.4907 17:-2.5153 18:-1.7468 19:-5.5792 20:-7.4806 21:0.90066 22:0.36748 23:3.3913 24:3.7923 25:1.4013 
-0.38745220125024227 1:2.0427 2:2.4327 3:1.735 4:-1.0687 5:-0.25678 6:1.6832 7:-6.2066 8:-9.0159 9:-5.7838 10:3.8726 11:-0.25992 12:-1.1084 13:2.5538 14:1.4301 15:1.6816 16:3.7776 17:2.1592 18:-0.87686 19:1.7872 20:0.67995 21:-12.4282 22:-8.9125 23:2.7724 24:-2.6976 25:2.8813 
-0.3537635564498797 1:5.9627 2:4.5967 3:1.7794 4:-2.2077 5:-2.0928 6:-2.7822 7:-3.2671 8:-2.4717 9:-2.2601 10:-2.5069 11:-1.2145 12:0.87079 13:7.384 14:8.5132 15:4.8677 16:1.4245 17:-2.3437 18:-2.3216 19:-1.9654 20:-1.7864 21:-2.1835 22:-4.7611 23:-4.1635 24:-1.8989 25:4.0928 
-0.3878594547161919 1:-5.5366 2:-7.8818 3:-8.4451 4:-6.2031 5:-4.6861 6:-0.25772 7:0.72594 8:-1.264 9:-1.8892 10:-0.86733 11:2.8654 12:0.1458 13:0.10205 14:1.7835 15:0.36013 16:-1.7876 17:-3.1221 18:-6.6703 19:-7.6273 20:-6.1558 21:-5.7012 22:-5.1206 23:-4.1296 24:-3.4111 25:-3.3352 
-0.3804313253388902 1:-3.2967 2:-3.0326 3:2.3526 4:7.9519 5:0.13826 6:1.7904 7:1.8336 8:2.6818 9:-0.074162 10:-2.3722 11:-0.20368 12:-1.2166 13:-7.7399 14:-5.4278 15:2.6883 16:-0.59856 17:-0.35764 18:2.9847 19:3.4275 20:1.8387 21:2.0443 22:3.291 23:-1.2974 24:-2.3015 25:-5.6916 
-0.3869323755653724 1:0.88736 2:-4.2471 3:0.74809 4:-2.2934 5:-9.1128 6:-5.7805 7:1.7078 8:-0.40245 9:0.72272 10:4.1642 11:1.9977 12:0.53579 13:1.7081 14:0.99581 15:0.68535 16:-2.0475 17:-6.4047 18:-8.4275 19:-9.7442 20:-5.6354 21:-4.7093 22:1.7906 23:-1.0453 24:1.5981 25:0.60195 
-0.3861818531212216 1:3.4816 2:2.7787 3:3.2129 4:0.48676 5:-3.1357 6:-3.4936 7:-6.5308 8:-3.217 9:-0.50159 10:0.13372 11:0.49956 12:-0.99219 13:-0.70289 14:2.8534 15:6.523 16:7.9322 17:9.195 18:6.0986 19:2.5137 20:1.4417 21:0.7299 22:-2.0101 23:-4.7056 24:-0.8185 25:3.3759 
-0.37942237357250297 1:-5.5713 2:-1.3935 3:3.1148 4:5.5408 5:1.4184 6:4.5585 7:2.9958 8:1.5514 9:1.7737 10:3.678 11:4.606 12:-1.5446 13:-4.9278 14:-11.6239 15:-4.7679 16:-2.418 17:1.3096 18:2.8629 19:3.3126 20:3.4718 21:2.9098 22:2.5633 23:1.6813 24:3.546 25:-7.7499 
-0.33812324907181884 1:2.1809 2:0.89115 3:2.8066 4:0.49429 5:2.2909 6:1.982 7:0.022436 8:-1.2667 9:-5.688 10:-5.1292 11:-4.2437 12:-0.0087065 13:1.9393 14:2.5829 15:2.2919 16:0.98134 17:2.7301 18:2.7945 19:2.4554 20:-1.2338 21:-3.6338 22:-2.5009 23:-9.1581 24:-6.2987 25:2.6852 
-0.38662986241227953 1:0.021451 2:0.12477 3:-0.59681 4:0.97397 5:-2.7454 6:-4.008 7:1.0141 8:9.9519 9:4.4373 10:-4.7392 11:5.6595 12:0.88794 13:-1.1384 14:-2.3135 15:-2.4838 16:-0.3609 17:-1.4217 18:-1.4765 19:-4.9479 20:2.8754 21:5.1365 22:5.5968 23:0.91346 24:-3.0231 25:0.037989 
-0.6711206718722162 1:-0.65148 2:0.7741 3:-0.60877 4:-3.2389 5:0.070176 6:1.1 7:0.98903 8:-1.5425 9:-3.2432 10:-3.5751 11:-4.7314 12:-5.2344 13:-4.4203 14:-3.2081 15:-3.4863 16:-2.9477 17:-2.1789 18:-1.8492 19:-1.4034 20:-1.5386 21:-1.8448 22:-1.4377 23:-0.96781 24:-0.35226 25:-0.61091 
-0.3826405358209922 1:1.9977 2:2.5421 3:-0.24386 4:7.5028 5:-0.23887 6:-1.3173 7:-1.8227 8:-2.7922 9:-4.5283 10:-2.276 11:-0.52528 12:0.99861 13:-0.066587 14:-2.0278 15:-1.4235 16:0.83483 17:1.7925 18:1.5091 19:4.356 20:1.4665 21:-0.22637 22:-1.8424 23:-5.2404 24:-2.9104 25:0.017425 
-0.38295070140380316 1:0.19349 2:-4.8068 3:-11.5571 4:-6.2505 5:-4.7427 6:-0.90947 7:-0.31731 8:1.1753 9:4.2288 10:5.3376 11:5.7631 12:6.6596 13:5.0568 14:1.1544 15:1.8792 16:-11.7911 17:-13.3421 18:-2.1649 19:-0.38702 20:0.79445 21:2.4957 22:3.9725 23:3.8518 24:6.0208 25:3.7184 
-0.38513642440784956 1:0.35077 2:-0.67407 3:2.8861 4:0.41001 5:4.3552 6:-0.74854 7:2.3813 8:-2.8228 9:-8.0885 10:-2.9417 11:1.0487 12:1.5493 13:0.19103 14:-0.76888 15:-0.42099 16:-2.2927 17:0.69558 18:2.5699 19:5.9199 20:0.87098 21:-1.9707 22:1.3805 23:1.3998 24:-5.3908 25:0.7717 
-0.3878676055492274 1:-0.63144 2:0.21539 3:-1.3507 4:6.4016 5:1.7424 6:-1.8788 7:-3.1993 8:-0.85846 9:0.24011 10:-0.093764 11:4.2082 12:0.58202 13:-2.1054 14:-3.7996 15:-4.3608 16:-2.8486 17:3.5282 18:4.488 19:1.7486 20:-0.55922 21:-0.34477 22:1.6339 23:1.3974 24:-2.8948 25:-1.8304 
-0.38701224242350457 1:0.94281 2:3.4044 3:0.48064 4:-3.012 5:-5.3105 6:-5.9409 7:-6.2128 8:-1.5074 9:-2.4623 10:1.4754 11:-0.22724 12:-3.5488 13:-3.8408 14:-1.5993 15:-0.15579 16:6.4075 17:0.5459 18:-0.0042019 19:-3.378 20:-7.2529 21:-9.1163 22:-6.5212 23:-2.8952 24:-1.1017 25:-2.9526 
-0.38649977361388 1:4.6564 2:3.9506 3:1.5699 4:-2.2163 5:-5.9134 6:-5.925 7:-7.292 8:-3.007 9:0.63167 10:0.084759 11:0.93135 12:4.3793 13:4.8463 14:4.0427 15:3.4411 16:3.5462 17:3.3614 18:2.2086 19:0.34685 20:-9.605 21:-14.345 22:-7.1682 23:-0.59513 24:1.22 25:5.0357 
-0.3706154499440756 1:-0.90228 2:-2.2822 3:-0.66403 4:0.66588 5:0.58257 6:0.031807 7:1.5709 8:6.0718 9:5.6826 10:1.5461 11:-1.2396 12:-5.0888 13:0.15206 14:-4.8355 15:-1.8183 16:-1.3601 17:0.82868 18:0.14545 19:0.53766 20:-0.037072 21:1.1953 22:3.6483 23:9.0099 24:5.2337 25:-0.32663 
-0.3679776652062438 1:3.1658 2:3.22 3:3.2882 4:2.0837 5:1.1484 6:-2.2793 7:-0.053683 8:-5.0467 9:-4.9036 10:-5.6213 11:-4.8506 12:-1.8039 13:2.3098 14:3.542 15:3.9939 16:3.7112 17:4.5402 18:3.9055 19:1.8695 20:-0.3783 21:-4.1116 22:-6.0157 23:-6.0827 24:-3.7484 25:4.5054 
-0.3271460935325936 1:-4.689 2:-2.391 3:1.7002 4:-0.21398 5:0.52529 6:4.0341 7:3.0767 8:2.0838 9:1.7184 10:2.3575 11:0.46039 12:-0.1614 13:-2.5472 14:-6.72 15:-5.067 16:-1.8771 17:1.9116 18:-0.43059 19:1.2102 20:5.018 21:2.8481 22:1.6809 23:1.6899 24:0.9637 25:-6.1169 
-0.37109335492569506 1:5.5593 2:8.0017 3:5.4612 4:0.17651 5:-2.6251 6:-0.39685 7:-2.2646 8:-1.5596 9:-1.8703 10:-0.82798 11:-0.65117 12:-0.38241 13:-4.2636 14:-2.5996 15:5.6757 16:7.9279 17:2.1763 18:-0.0296 19:0.0024202 20:-1.2033 21:-1.1556 22:-0.012037 23:-1.2098 24:-1.1853 25:-3.8049 
-0.3866800941744865 1:6.8482 2:0.79726 3:5.9056 4:-2.5786 5:-0.17999 6:-4.0645 7:-2.867 8:-1.0575 9:0.68059 10:1.3848 11:-0.75134 12:3.0277 13:2.6206 14:-0.8628 15:-0.046522 16:6.8228 17:-1.0792 18:-2.794 19:-2.3088 20:-6.4123 21:-5.0693 22:1.3132 23:2.3725 24:2.2747 25:-1.1672 
-0.350477579620492 1:-7.7523 2:-4.6883 3:-2.0651 4:1.0309 5:-0.077216 6:1.193 7:3.9795 8:2.0624 9:2.0743 10:4.4014 11:1.6518 12:-1.5324 13:-1.3317 14:-5.269 15:-8.2374 16:-6.3441 17:0.27941 18:-1.3679 19:-0.32229 20:1.9652 21:1.9046 22:1.7091 23:2.2343 24:-0.2073 25:-7.9741 
-0.4049326537106503 1:-0.92197 2:1.7021 3:0.013894 4:-2.1866 5:-2.2274 6:-7.7923 7:2.8052 8:0.60874 9:2.1448 10:3.3206 11:-0.8503 12:-0.17782 13:-0.71422 14:0.18113 15:-0.62186 16:-0.68215 17:-0.38634 18:-2.1867 19:-2.8327 20:-3.7424 21:0.86706 22:-0.42701 23:2.3733 24:0.16477 25:0.7714 
-0.38201835286634395 1:-1.9225 2:4.0357 3:-1.65 4:-3.6426 5:-4.1386 6:-5.959 7:-3.0388 8:-1.7052 9:0.19735 10:1.9382 11:2.1852 12:2.8533 13:4.0555 14:-1.0584 15:2.1361 16:1.6156 17:-2.1976 18:-1.6382 19:-6.1525 20:-4.0573 21:0.19318 22:-0.62112 23:1.1607 24:4.046 25:2.3608 
-1.0 1:-0.84783 2:1.5356 3:1.9442 4:0.14091 5:-1.0871 6:0.15978 7:0.11946 8:-1.2654 9:-3.3884 10:-2.7832 11:-4.2815 12:-4.4617 13:-4.5542 14:-3.386 15:-1.432 16:-1.2596 17:-1.1495 18:-0.68154 19:-0.60412 20:0.047892 21:0.52993 22:0.73597 23:0.84516 24:0.022615 25:-0.35575 
-0.32252415937293744 1:-5.883 2:-4.6404 3:-1.1518 4:1.1004 5:0.13834 6:1.0493 7:1.8155 8:1.5596 9:0.67706 10:1.7556 11:2.0383 12:1.3017 13:-2.4439 14:-5.1831 15:-4.9183 16:-3.1157 17:-1.4045 18:1.0817 19:0.47589 20:1.9143 21:2.6173 22:3.3545 23:1.4393 24:2.367 25:-3.8487 
-0.38745897675695046 1:1.9206 2:-2.6988 3:-6.263 4:-6.0564 5:-3.9576 6:-2.485 7:-2.2724 8:-1.6057 9:-4.5357 10:-2.815 11:-3.8402 12:-3.1919 13:-6.1323 14:-8.2385 15:-6.7768 16:-8.7964 17:-6.2476 18:-2.548 19:0.64458 20:2.6929 21:3.404 22:2.6353 23:0.87799 24:-0.48443 25:-3.3691 
-0.38698519819373006 1:-10.7277 2:-7.8545 3:-2.2671 4:1.4623 5:1.1523 6:2.4635 7:2.9499 8:4.5069 9:5.7593 10:5.0725 11:3.1787 12:0.94743 13:-3.6551 14:-20.4611 15:-11.2743 16:-7.0785 17:2.6735 18:4.136 19:5.4279 20:4.6947 21:4.658 22:5.3926 23:6.0007 24:4.9963 25:-9.8365 
-0.37006642467970924 1:-1.6579 2:-1.9472 3:-2.6825 4:-1.7673 5:-2.0621 6:-3.9348 7:0.79487 8:8.1031 9:9.118 10:3.5374 11:-0.79631 12:-1.1666 13:-3.0547 14:-1.4818 15:-1.9272 16:-2.9301 17:-1.9922 18:-4.4094 19:-1.8848 20:1.2328 21:4.677 22:7.1635 23:6.5403 24:2.9521 25:-0.98254 
-0.3855717510604382 1:3.8489 2:2.7849 3:-5.9794 4:3.1029 5:1.7436 6:-4.9903 7:-1.2651 8:0.4082 9:1.5118 10:0.94509 11:-0.44892 12:-1.1892 13:-0.93016 14:3.4348 15:2.8305 16:1.0089 17:-4.92 18:-1.4026 19:-2.4572 20:-5.8788 21:-2.6456 22:0.22695 23:1.0318 24:1.7927 25:-0.77607 
-0.3857764464020105 1:-9.1181 2:-5.8095 3:-1.5567 4:0.43735 5:0.8721 6:1.9728 7:3.2182 8:2.1265 9:0.99891 10:-1.0933 11:-0.83014 12:-4.4758 13:-8.3759 14:-7.5673 15:-7.4772 16:-4.5384 17:-2.3432 18:1.8684 19:3.3532 20:-0.57399 21:2.8678 22:1.7526 23:-0.022362 24:-0.84622 25:-8.8333 
